svm_type c_svc
kernel_type rbf
gamma 0.166667
nr_class 2
total_sv 3516
rho -10.0764
label -1 1
nr_sv 1764 1752
SV
1 1:0.61170639 2:0.65954974 3:0.76264212 4:0.77549576 5:0.5504051 6:0.80845302 
1 1:0.34019983 2:0.52818549 3:0.095058671 4:0.52527615 5:0.51851124 6:0.19857426 
1 1:0.31416967 2:0.63183389 3:0.20684468 4:0.79699947 5:0.79402767 6:0.56817513 
1 1:0.866579 2:0.26826927 3:0.34864612 4:0.90137161 5:0.44956002 6:0.65964929 
1 1:0.48957412 2:0.76747238 3:0.22721053 4:0.49535798 5:0.30203531 6:0.50187448 
1 1:0.21267364 2:0.39018591 3:0.69616836 4:0.13454682 5:0.19547481 6:0.72494072 
1 1:0.90722302 2:0.62018818 3:0.37400503 4:0.38916048 5:0.49846738 6:0.68812841 
1 1:0.71902275 2:0.19664223 3:0.49465974 4:0.76903097 5:0.69984908 6:0.045218715 
1 1:0.49688694 2:0.21482926 3:0.77844629 4:0.35759711 5:0.82689322 6:0.49317508 
1 1:0.079981801 2:0.56010833 3:0.31758357 4:0.61613871 5:0.59578921 6:0.46000353 
0.5311487074948654 1:0.20201417 2:0.24144973 3:0.66931961 4:0.014643351 5:0.3395702 6:0.93522649 
1 1:0.4540795 2:0.33568334 3:0.93955836 4:0.52983478 5:0.47268027 6:0.47624142 
1 1:0.22123287 2:0.16708323 3:0.59812526 4:0.26265674 5:0.3261844 6:0.14096782 
1 1:0.6647714 2:0.18304254 3:0.52422832 4:0.23591582 5:0.49737686 6:0.78211629 
1 1:0.3453553 2:0.15649852 3:0.29200319 4:0.3154588 5:0.53103819 6:0.69127928 
1 1:0.66515656 2:0.80660423 3:0.45093508 4:0.67036561 5:0.36531295 6:0.81717797 
1 1:0.29158017 2:0.14370288 3:0.39916782 4:0.71554604 5:0.13056518 6:0.68867403 
1 1:0.77342002 2:0.62937884 3:0.72952416 4:0.33406051 5:0.32761272 6:0.15607663 
1 1:0.38999213 2:0.22546676 3:0.83855308 4:0.28753151 5:0.20002662 6:0.42712754 
1 1:0.8680941 2:0.61292815 3:0.66326285 4:0.48595017 5:0.77202033 6:0.3050551 
1 1:0.6133428 2:0.33775848 3:0.1189271 4:0.38821066 5:0.56303571 6:0.99376058 
1 1:0.18115575 2:0.72377039 3:0.57643324 4:0.036574851 5:0.38537462 6:0.52043182 
1 1:0.46700484 2:0.67409548 3:0.82861663 4:0.11593138 5:0.52308668 6:0.60185579 
1 1:0.78422984 2:0.23113514 3:0.55126854 4:0.1646357 5:0.60649138 6:0.074280303 
1 1:0.62502132 2:0.50252432 3:0.11798746 4:0.72206443 5:0.56294403 6:0.78401925 
1 1:0.6269319 2:0.72863065 3:0.53714433 4:0.79424469 5:0.62848132 6:0.5344368 
1 1:0.45045561 2:0.63925555 3:0.21589181 4:0.36472562 5:0.5755113 6:0.25193168 
1 1:0.90711502 2:0.43157967 3:0.36792573 4:0.26880739 5:0.55908671 6:0.091041286 
1 1:0.62924427 2:0.65440982 3:0.11152534 4:0.049710771 5:0.46019934 6:0.45182504 
1 1:0.10238694 2:0.5979096 3:0.29626096 4:0.41311235 5:0.3665238 6:0.53032088 
1 1:0.71415366 2:0.11267481 3:0.60313746 4:0.40047106 5:0.4499107 6:0.49211731 
1 1:0.26567133 2:0.61941801 3:0.86136702 4:0.68983295 5:0.30893474 6:0.38386042 
1 1:0.19531848 2:0.43115511 3:0.19028757 4:0.74592493 5:0.57831699 6:0.57968899 
1 1:0.2646537 2:0.49272467 3:0.09423617 4:0.47335931 5:0.65177057 6:0.71260808 
1 1:0.26989467 2:0.32088384 3:0.795336 4:0.53637444 5:0.55227986 6:0.6001278 
1 1:0.37305168 2:0.25019127 3:0.55039791 4:0.79050907 5:0.36640273 6:0.21610132 
1 1:0.69689518 2:0.138874 3:0.29303313 4:0.65935063 5:0.36243783 6:0.45672372 
1 1:0.32363066 2:0.67563538 3:0.58776402 4:0.6749796 5:0.53216916 6:0.195873 
1 1:0.49703837 2:0.15577356 3:0.65427786 4:0.13844907 5:0.69378191 6:0.372524 
1 1:0.063504522 2:0.45410098 3:0.46489212 4:0.18684024 5:0.66903991 6:0.56294275 
1 1:0.079667539 2:0.59523747 3:0.42657764 4:0.53161972 5:0.84376388 6:0.62176414 
1 1:0.58253205 2:0.36605259 3:0.92773395 4:0.90877016 5:0.41011144 6:0.31838241 
1 1:0.52814704 2:0.131324 3:0.4287358 4:0.44655637 5:0.69163996 6:0.57220527 
1 1:0.50707698 2:0.069250935 3:0.54083857 4:0.66788852 5:0.64153884 6:0.45957862 
1 1:0.77687114 2:0.16652571 3:0.36714232 4:0.5727616 5:0.47113649 6:0.057022845 
1 1:0.68000104 2:0.58087362 3:0.88858796 4:0.72484946 5:0.48533967 6:0.51540561 
1 1:0.15792875 2:0.53088599 3:0.65143808 4:0.3004412 5:0.42928403 6:0.72301292 
1 1:0.83890403 2:0.31378435 3:0.43741902 4:0.94243687 5:0.67007091 6:0.25420616 
1 1:0.67687703 2:0.75481456 3:0.53324857 4:0.57094513 5:0.42938803 6:0.73723973 
1 1:0.51237902 2:0.16930647 3:0.62464428 4:0.92775271 5:0.39248695 6:0.56590644 
1 1:0.4239571 2:0.66298064 3:0.16048032 4:0.15218836 5:0.31279617 6:0.060081869 
1 1:0.84412916 2:0.34453163 3:0.42294646 4:0.71098557 5:0.064511829 6:0.89278729 
1 1:0.55974753 2:0.65043429 3:0.15511955 4:0.48906415 5:0.37364045 6:0.96334103 
1 1:0.4562412 2:0.65778031 3:0.87439772 4:0.22670806 5:0.63957448 6:0.35865659 
1 1:0.7927355 2:0.56041297 3:0.20814138 4:0.011218303 5:0.48100407 6:0.95669961 
1 1:0.3565464 2:0.67377369 3:0.8907263 4:0.20520884 5:0.57140365 6:0.37687502 
1 1:0.39596736 2:0.71026479 3:0.22530327 4:0.2066381 5:0.84985823 6:0.58665011 
1 1:0.22439506 2:0.3716319 3:0.22084616 4:0.01577299 5:0.55499767 6:0.81449464 
1 1:0.54061843 2:0.088704254 3:0.66271044 4:0.18674528 5:0.33665769 6:0.44803967 
1 1:0.88858318 2:0.41364614 3:0.63858787 4:0.25696022 5:0.79089714 6:0.86290976 
1 1:0.93345958 2:0.3798929 3:0.45494073 4:0.69399345 5:0.70798984 6:0.53362149 
1 1:0.83063081 2:0.21790119 3:0.44331501 4:0.74836164 5:0.46812185 6:0.016811011 
1 1:0.90840473 2:0.35440345 3:0.54829082 4:0.79045854 5:0.55635797 6:0.83755092 
1 1:0.44089374 2:0.60138075 3:0.17149789 4:0.29955888 5:0.79182918 6:0.15762286 
1 1:0.6324502 2:0.74488072 3:0.67143214 4:0.40041672 5:0.21008851 6:0.84723387 
1 1:0.78344431 2:0.38387733 3:0.75282146 4:0.39131691 5:0.61304152 6:0.47800039 
1 1:0.74699681 2:0.20554101 3:0.50375288 4:0.61964585 5:0.35074201 6:0.19723778 
1 1:0.5301776 2:0.77839222 3:0.67099036 4:0.79374481 5:0.69313684 6:0.082309029 
1 1:0.76034226 2:0.59326091 3:0.15995207 4:0.30218531 5:0.73660889 6:0.51108764 
1 1:0.48372615 2:0.16170395 3:0.59485695 4:0.53246067 5:0.57689398 6:0.56679709 
1 1:0.52194149 2:0.77723875 3:0.48484734 4:0.36073516 5:0.62878027 6:0.17433748 
1 1:0.24447924 2:0.63038135 3:0.60183925 4:0.55385703 5:0.49213987 6:0.41430673 
1 1:0.80768693 2:0.31554212 3:0.78562835 4:0.69046094 5:0.50966854 6:0.88969833 
1 1:0.86042582 2:0.52475308 3:0.27902614 4:0.48153696 5:0.36599731 6:0.84050065 
1 1:0.52591897 2:0.19727665 3:0.68236493 4:0.44441056 5:0.32462425 6:0.0052393054 
1 1:0.43044209 2:0.11413097 3:0.39351791 4:0.96526921 5:0.5500889 6:0.75488239 
1 1:0.2623453 2:0.58671602 3:0.81614958 4:0.71020103 5:0.52990704 6:0.21043266 
1 1:0.66215248 2:0.62732594 3:0.7880655 4:0.82990071 5:0.85120716 6:0.8297521 
1 1:0.26628994 2:0.22284282 3:0.75444023 4:0.28521732 5:0.35280423 6:0.87321735 
1 1:0.15016473 2:0.32313665 3:0.49410174 4:0.67263851 5:0.60909916 6:0.21882914 
1 1:0.68526418 2:0.24028357 3:0.33904976 4:0.85233367 5:0.28341044 6:0.5449346 
1 1:0.9249647 2:0.48861815 3:0.35750621 4:0.33979196 5:0.22621539 6:0.20656193 
1 1:0.17194949 2:0.62514301 3:0.27629811 4:0.81077112 5:0.34784132 6:0.12390991 
1 1:0.71432895 2:0.29471962 3:0.79176593 4:0.69130914 5:0.70229823 6:0.43648646 
1 1:0.62417628 2:0.4391369 3:0.92853264 4:0.68167561 5:0.35042088 6:0.28664033 
1 1:0.10459556 2:0.54030622 3:0.38381637 4:0.10936385 5:0.32597622 6:0.92864966 
1 1:0.17106806 2:0.54161585 3:0.19815887 4:0.7429834 5:0.66450922 6:0.49828022 
1 1:0.66533369 2:0.52938357 3:0.16836554 4:0.29199894 5:0.28631814 6:0.92832419 
1 1:0.81876704 2:0.38382603 3:0.63188372 4:0.50853071 5:0.3792281 6:0.86190645 
1 1:0.70372957 2:0.62490606 3:0.11835813 4:0.14430368 5:0.50942273 6:0.7050878 
1 1:0.78246519 2:0.69541437 3:0.64289853 4:0.45619986 5:0.83635554 6:0.44835624 
1 1:0.29376778 2:0.6163461 3:0.1736806 4:0.14010477 5:0.44519299 6:0.85246163 
1 1:0.69376842 2:0.27614716 3:0.80542845 4:0.51317083 5:0.59814509 6:0.45136139 
1 1:0.2863917 2:0.17398904 3:0.30918112 4:0.19905402 5:0.34971217 6:0.78637809 
1 1:0.49996859 2:0.15204525 3:0.72893938 4:0.59398703 5:0.76139932 6:0.78817186 
1 1:0.11981333 2:0.5667865 3:0.63367443 4:0.37402139 5:0.61171442 6:0.72442232 
1 1:0.40047574 2:0.28628441 3:0.28031128 4:0.2374353 5:0.73477165 6:0.43656117 
1 1:0.69969998 2:0.58159508 3:0.20326619 4:0.7501827 5:0.54961705 6:0.72228783 
1 1:0.86939098 2:0.46733687 3:0.63234557 4:0.59564853 5:0.88318667 6:0.42047017 
1 1:0.46706737 2:0.2883396 3:0.20555906 4:0.55196989 5:0.6265004 6:0.41723225 
1 1:0.42280358 2:0.23729546 3:0.35873803 4:0.39260743 5:0.75965333 6:0.62798911 
1 1:0.74067454 2:0.70407569 3:0.25779479 4:0.30056855 5:0.56736167 6:0.69456269 
1 1:0.10286661 2:0.47258637 3:0.69333636 4:0.31393564 5:0.23644934 6:0.42838695 
1 1:0.8652169 2:0.60440466 3:0.61063362 4:0.16928556 5:0.12204535 6:0.40117325 
1 1:0.34196102 2:0.19882332 3:0.33191269 4:0.48606621 5:0.61996291 6:0.33852794 
1 1:0.5229122 2:0.74855908 3:0.66248365 4:0.65535143 5:0.24144442 6:0.35631036 
1 1:0.65555022 2:0.79821608 3:0.59960568 4:0.67694468 5:0.45824909 6:0.62078342 
1 1:0.58274932 2:0.73611378 3:0.60637888 4:0.60615009 5:0.80677065 6:0.17604239 
1 1:0.61020354 2:0.56034505 3:0.091062701 4:0.25968239 5:0.53057001 6:0.63421883 
1 1:0.83264194 2:0.2715048 3:0.68940939 4:0.16036214 5:0.66387314 6:0.44305482 
1 1:0.6699651 2:0.64927474 3:0.69321339 4:0.30284714 5:0.63085835 6:0.099142396 
1 1:0.82246121 2:0.71122967 3:0.56733951 4:0.40333206 5:0.54374757 6:0.17555069 
1 1:0.64924505 2:0.46351319 3:0.95588918 4:0.38802065 5:0.39619198 6:0.31666415 
1 1:0.52751126 2:0.81586002 3:0.62026741 4:0.22404744 5:0.32700614 6:0.29083419 
1 1:0.72520565 2:0.40610691 3:0.77484083 4:0.92766597 5:0.60659692 6:0.4816082 
1 1:0.94308233 2:0.54400249 3:0.44815051 4:0.62132489 5:0.58775851 6:0.91606893 
1 1:0.73890693 2:0.46931948 3:0.83798292 4:0.091263315 5:0.32861736 6:0.45168208 
1 1:0.1929999 2:0.43530788 3:0.83832021 4:0.67919307 5:0.43872312 6:0.069526862 
1 1:0.5098843 2:0.17832006 3:0.19431524 4:0.84019691 5:0.34941268 6:0.64810049 
1 1:0.49897801 2:0.080368576 3:0.52336192 4:0.016057996 5:0.49276269 6:0.57049024 
1 1:0.46494596 2:0.24099082 3:0.7307004 4:0.59810394 5:0.85282801 6:0.62487039 
1 1:0.14689482 2:0.4939613 3:0.60371574 4:0.73794745 5:0.30462165 6:0.15193199 
1 1:0.18427411 2:0.31059614 3:0.28877136 4:0.33546255 5:0.77792115 6:0.90240027 
1 1:0.66730411 2:0.16403981 3:0.6375442 4:0.017713875 5:0.67883126 6:0.059070412 
1 1:0.070268857 2:0.37078028 3:0.49658024 4:0.45917759 5:0.6769676 6:0.3639713 
1 1:0.56020626 2:0.69335146 3:0.20228428 4:0.97356234 5:0.74980735 6:0.77753696 
1 1:0.63159008 2:0.26303142 3:0.84863617 4:0.38590608 5:0.2411055 6:0.21826909 
1 1:0.82867265 2:0.6702073 3:0.33114424 4:0.69595234 5:0.059519296 6:0.49728836 
1 1:0.62477539 2:0.66684631 3:0.21137463 4:0.65090529 5:0.71035195 6:0.0098249775 
1 1:0.78862232 2:0.24732581 3:0.53864454 4:0.70048844 5:0.76197753 6:0.71274706 
1 1:0.17755719 2:0.52280442 3:0.44025954 4:0.15190076 5:0.27866055 6:0.59444014 
1 1:0.79094741 2:0.38054309 3:0.81957729 4:0.22760641 5:0.25155887 6:0.78593341 
1 1:0.46707493 2:0.61602834 3:0.90828197 4:0.50931283 5:0.53701886 6:0.98399043 
1 1:0.59412015 2:0.15241008 3:0.65844785 4:0.69295427 5:0.28065766 6:0.13089084 
1 1:0.18520342 2:0.24179525 3:0.54434899 4:0.88596288 5:0.44875792 6:0.42973439 
1 1:0.82976252 2:0.65471775 3:0.35517918 4:0.50649839 5:0.86153279 6:0.099455945 
1 1:0.53678217 2:0.66091929 3:0.73093259 4:0.17566829 5:0.13860024 6:0.67154889 
1 1:0.68646087 2:0.7090808 3:0.40937858 4:0.78305898 5:0.21627584 6:0.88978669 
1 1:0.11281799 2:0.59090358 3:0.34997792 4:0.8005059 5:0.40459364 6:0.93845372 
1 1:0.66792588 2:0.48525166 3:0.88876686 4:0.77944999 5:0.56221673 6:0.66350876 
1 1:0.28102075 2:0.20658778 3:0.40784265 4:0.72338197 5:0.97269847 6:0.036904878 
1 1:0.1767527 2:0.72760121 3:0.52311251 4:0.53777661 5:0.20590961 6:0.67891606 
1 1:0.75974923 2:0.69019214 3:0.65896107 4:0.8334638 5:0.66075966 6:0.91668247 
1 1:0.48877753 2:0.68115303 3:0.8998194 4:0.71387744 5:0.35762372 6:0.6588839 
1 1:0.32128868 2:0.1883734 3:0.45389989 4:0.46910491 5:0.36384661 6:0.1457171 
1 1:0.056926275 2:0.54591565 3:0.37051793 4:0.71738073 5:0.53491313 6:0.3914183 
1 1:0.43793944 2:0.75164889 3:0.65381376 4:0.72257141 5:0.283585 6:0.88202681 
1 1:0.20112926 2:0.77122408 3:0.56462649 4:0.084713851 5:0.45059533 6:0.51285079 
1 1:0.91464038 2:0.58635398 3:0.6054719 4:0.057068041 5:0.29374831 6:0.62296148 
1 1:0.48225738 2:0.49492022 3:0.92464228 4:0.23787784 5:0.36894217 6:0.60310774 
1 1:0.32048578 2:0.65000211 3:0.83113569 4:0.71108343 5:0.34141655 6:0.52168494 
1 1:0.30113302 2:0.3722654 3:0.81999104 4:0.16655734 5:0.69378936 6:0.69712782 
1 1:0.19865689 2:0.52013333 3:0.71830932 4:0.87203374 5:0.61068594 6:0.23263416 
1 1:0.87302094 2:0.35431361 3:0.30506625 4:0.49654177 5:0.37397332 6:0.28041563 
1 1:0.34611492 2:0.19055242 3:0.33112584 4:0.50487723 5:0.67187735 6:0.7657865 
1 1:0.78770064 2:0.79523321 3:0.4341295 4:0.71905813 5:0.43133698 6:0.61821976 
1 1:0.47373317 2:0.42765951 3:0.81121214 4:0.23371873 5:0.2462944 6:0.58767744 
1 1:0.69437361 2:0.61320036 3:0.20010418 4:0.92797679 5:0.61369121 6:0.3266292 
1 1:0.15132006 2:0.72486617 3:0.63810668 4:0.6678075 5:0.50510277 6:0.42501772 
1 1:0.91130913 2:0.36235525 3:0.47438504 4:0.79309679 5:0.62224933 6:0.85689531 
1 1:0.079809715 2:0.53144587 3:0.35066432 4:0.52722037 5:0.19135612 6:0.2318549 
1 1:0.28713626 2:0.35244005 3:0.19176991 4:0.88249675 5:0.56079289 6:0.32146678 
1 1:0.74396139 2:0.64179949 3:0.32317424 4:0.077916321 5:0.55814002 6:0.034031684 
1 1:0.88211518 2:0.48663818 3:0.25884761 4:0.62272834 5:0.35857967 6:0.41580446 
1 1:0.34688431 2:0.13615502 3:0.66753567 4:0.64447979 5:0.67447438 6:0.57249702 
1 1:0.76515851 2:0.74311342 3:0.43324215 4:0.34415092 5:0.64350102 6:0.77847802 
1 1:0.46058597 2:0.42083537 3:0.096372038 4:0.92396264 5:0.2535165 6:0.15410282 
1 1:0.51075894 2:0.41336411 3:0.03927177 4:0.59516138 5:0.52721098 6:0.69801033 
1 1:0.14891482 2:0.71727733 3:0.52411321 4:0.53574026 5:0.6420244 6:0.054202696 
1 1:0.69856902 2:0.76232255 3:0.2669744 4:0.97458915 5:0.52707963 6:0.5069239 
1 1:0.91464313 2:0.56204335 3:0.38365943 4:0.29522193 5:0.28360148 6:0.066810552 
1 1:0.67664142 2:0.700631 3:0.47984839 4:0.34910746 5:0.73082251 6:0.053004676 
1 1:0.7856404 2:0.63028056 3:0.82301086 4:0.36917784 5:0.63106724 6:0.6265172 
1 1:0.7115509 2:0.68243539 3:0.74304386 4:0.35966103 5:0.76072536 6:0.6963964 
1 1:0.18992174 2:0.6279692 3:0.70885325 4:0.64473508 5:0.8852181 6:0.12872128 
1 1:0.13541598 2:0.64638107 3:0.44541199 4:0.67860855 5:0.11290911 6:0.70851008 
1 1:0.36952912 2:0.80614445 3:0.36437188 4:0.36962754 5:0.41726632 6:0.24245507 
1 1:0.70944183 2:0.32331787 3:0.84517311 4:0.0025170898 5:0.40294036 6:0.50889355 
1 1:0.68966515 2:0.32443507 3:0.91843623 4:0.60479822 5:0.37095867 6:0.31846535 
1 1:0.28919344 2:0.24560344 3:0.74479582 4:0.89233947 5:0.5918054 6:0.68277269 
1 1:0.67896717 2:0.70960071 3:0.52963131 4:0.83576027 5:0.15895993 6:0.98522877 
1 1:0.20092546 2:0.47513369 3:0.84971176 4:0.14169868 5:0.32385295 6:0.72685381 
1 1:0.71832134 2:0.65990735 3:0.56367814 4:0.79300957 5:0.42876196 6:0.7965102 
1 1:0.33746767 2:0.21920023 3:0.77508976 4:0.67312376 5:0.67829524 6:0.75452727 
1 1:0.16310623 2:0.46479507 3:0.61246197 4:0.77943218 5:0.82080427 6:0.47973063 
1 1:0.45147634 2:0.14065498 3:0.26766997 4:0.16667274 5:0.6536933 6:0.85435862 
1 1:0.52894629 2:0.56022932 3:0.83898638 4:0.90334484 5:0.31041372 6:0.82359151 
1 1:0.79729208 2:0.65346469 3:0.23277138 4:0.23964846 5:0.12808724 6:0.68206591 
1 1:0.45163428 2:0.10797556 3:0.41493507 4:0.092361249 5:0.44090865 6:0.47954733 
1 1:0.70132992 2:0.58146642 3:0.78128946 4:0.04544112 5:0.60518354 6:0.56859136 
1 1:0.66883635 2:0.61459514 3:0.81819188 4:0.95321736 5:0.50428149 6:0.52122423 
1 1:0.33962788 2:0.25435286 3:0.45211484 4:0.37401263 5:0.56370897 6:0.68055958 
1 1:0.51767864 2:0.41072967 3:0.088679539 4:0.1308176 5:0.61218351 6:0.60141687 
1 1:0.72032576 2:0.37883775 3:0.084556176 4:0.45847794 5:0.52006679 6:0.25861965 
1 1:0.66138941 2:0.75416608 3:0.5872766 4:0.65033295 5:0.32297873 6:0.037324814 
1 1:0.73798141 2:0.7504854 3:0.51355217 4:0.90015105 5:0.36879394 6:0.32030765 
1 1:0.61843155 2:0.37691868 3:0.88235952 4:0.32692001 5:0.22894412 6:0.55854676 
1 1:0.41197747 2:0.62788575 3:0.19085188 4:0.57501248 5:0.38420476 6:0.64452629 
1 1:0.43874454 2:0.27904963 3:0.23877718 4:0.66029078 5:0.34728257 6:0.9139346 
1 1:0.29061034 2:0.19003085 3:0.35543918 4:0.75716956 5:0.71525658 6:0.24613968 
1 1:0.25322406 2:0.19852479 3:0.30075025 4:0.31388271 5:0.33059379 6:0.65795116 
1 1:0.49747737 2:0.17770278 3:0.31488629 4:0.9975612 5:0.4058068 6:0.83474384 
1 1:0.88229148 2:0.49407138 3:0.31469395 4:0.070014364 5:0.26276266 6:0.65863688 
1 1:0.73654746 2:0.17312035 3:0.31569232 4:0.15884319 5:0.23898882 6:0.63888413 
1 1:0.57269214 2:0.55866579 3:0.89460058 4:0.87482687 5:0.56615018 6:0.40589029 
1 1:0.76349364 2:0.18463551 3:0.26115965 4:0.21308142 5:0.46675918 6:0.44375444 
1 1:0.36218844 2:0.41394764 3:0.063346886 4:0.18467989 5:0.17456011 6:0.65308878 
1 1:0.41933105 2:0.27963578 3:0.21136146 4:0.9990254 5:0.66110244 6:0.015953983 
1 1:0.79500209 2:0.59145366 3:0.75855263 4:0.0014517416 5:0.15971694 6:0.60550905 
1 1:0.28005305 2:0.74488178 3:0.27643648 4:0.3800176 5:0.73769433 6:0.31114937 
1 1:0.17336368 2:0.56159787 3:0.69223502 4:0.86090151 5:0.3026452 6:0.94923766 
1 1:0.89831648 2:0.30878136 3:0.44120168 4:0.44855444 5:0.49128114 6:0.35277554 
1 1:0.14247876 2:0.64428457 3:0.63576358 4:0.16094554 5:0.20973587 6:0.36208724 
0.545633863266651 1:0.3429537 2:0.57764655 3:0.076416907 4:0.064072213 5:0.60988735 6:0.31536841 
1 1:0.54215207 2:0.19209532 3:0.54186495 4:0.86366613 5:0.17904495 6:0.2056246 
1 1:0.28584656 2:0.53721701 3:0.106866 4:0.69569677 5:0.25265428 6:0.65242414 
1 1:0.53065598 2:0.71021132 3:0.56875742 4:0.062923225 5:0.46906979 6:0.24712352 
1 1:0.34666501 2:0.17817374 3:0.38946967 4:0.48538168 5:0.70880238 6:0.35396823 
1 1:0.29853972 2:0.78312394 3:0.62709761 4:0.47846601 5:0.34562657 6:0.16338115 
1 1:0.77316623 2:0.50812061 3:0.87081528 4:0.55808547 5:0.76994667 6:0.6180329 
1 1:0.25374877 2:0.44543606 3:0.096767586 4:0.42222397 5:0.46591881 6:0.85314193 
1 1:0.72559506 2:0.30884793 3:0.32511294 4:0.30784154 5:0.30509193 6:0.87218114 
1 1:0.3997483 2:0.12692434 3:0.39280082 4:0.6452171 5:0.89241172 6:0.12929017 
1 1:0.58777136 2:0.72928028 3:0.51498081 4:0.81185469 5:0.4010762 6:0.6745113 
1 1:0.45534792 2:0.20412744 3:0.7549589 4:0.63596406 5:0.77104135 6:0.95974636 
1 1:0.1294682 2:0.42263654 3:0.36570604 4:0.67107832 5:0.77811627 6:0.90485292 
1 1:0.53287574 2:0.45887737 3:0.90012316 4:0.089499557 5:0.56698454 6:0.2728474 
1 1:0.24437633 2:0.38592569 3:0.21137205 4:0.78041018 5:0.76278465 6:0.080123613 
1 1:0.25448763 2:0.32790291 3:0.28487804 4:0.039257393 5:0.72670776 6:0.30073533 
1 1:0.26373302 2:0.19104703 3:0.6568361 4:0.09118857 5:0.26033713 6:0.14562806 
1 1:0.35331946 2:0.14699349 3:0.68813562 4:0.15233983 5:0.59083038 6:0.75762129 
1 1:0.44710629 2:0.18801295 3:0.74290322 4:0.80076663 5:0.54853689 6:0.76836548 
1 1:0.26168616 2:0.69658112 3:0.51436263 4:0.93329567 5:0.64027435 6:0.45366663 
1 1:0.23289266 2:0.55827317 3:0.16568307 4:0.17987229 5:0.54169984 6:0.090892258 
1 1:0.7291301 2:0.5965821 3:0.76533117 4:0.72839842 5:0.44566954 6:0.42418126 
1 1:0.64520828 2:0.8073717 3:0.59441533 4:0.23875588 5:0.6291311 6:0.91228855 
0.6728456962797805 1:0.56127318 2:0.5591754 3:0.91795677 4:0.62475834 5:0.75638875 6:0.99590965 
1 1:0.45440463 2:0.18888516 3:0.31301736 4:0.76828854 5:0.46445969 6:0.016899294 
1 1:0.49063357 2:0.78973508 3:0.41644948 4:0.89065621 5:0.94910368 6:0.28296525 
1 1:0.69457394 2:0.22292004 3:0.68033388 4:0.36094263 5:0.53749172 6:0.35420982 
1 1:0.066324337 2:0.61120864 3:0.46805804 4:0.38705827 5:0.40213476 6:0.20049953 
1 1:0.25813116 2:0.5867544 3:0.37793716 4:0.57309358 5:0.74863049 6:0.35942222 
1 1:0.42517615 2:0.40789601 3:0.86726546 4:0.75374284 5:0.60874545 6:0.4202765 
1 1:0.5637772 2:0.57431453 3:0.78977494 4:0.096943709 5:0.79640002 6:0.77651486 
1 1:0.40422454 2:0.77326536 3:0.71476263 4:0.57885501 5:0.59864723 6:0.91594081 
1 1:0.19890791 2:0.575871 3:0.43419819 4:0.23865244 5:0.67235036 6:0.65578294 
1 1:0.57149578 2:0.53344773 3:0.11713329 4:0.39739964 5:0.34693364 6:0.99737199 
1 1:0.88386291 2:0.38806971 3:0.71114407 4:0.67338035 5:0.16369449 6:0.67434527 
1 1:0.38203558 2:0.8069063 3:0.58702888 4:0.16112442 5:0.30189376 6:0.12778492 
1 1:0.38819411 2:0.67777501 3:0.66629833 4:0.52434268 5:0.41430317 6:0.27893593 
1 1:0.63921589 2:0.16449147 3:0.62942149 4:0.55652976 5:0.60393249 6:0.096402837 
1 1:0.1470529 2:0.58736735 3:0.67302369 4:0.88559192 5:0.75191369 6:0.37682165 
1 1:0.086206533 2:0.35419296 3:0.35777695 4:0.38086059 5:0.22141736 6:0.51327342 
1 1:0.56843749 2:0.49819474 3:0.96314052 4:0.24201159 5:0.65630895 6:0.49262631 
1 1:0.16826553 2:0.37236264 3:0.80848166 4:0.38495006 5:0.25805286 6:0.69570366 
1 1:0.34479506 2:0.20942308 3:0.66564466 4:0.04008576 5:0.21947057 6:0.20347318 
1 1:0.68176345 2:0.15428931 3:0.44040522 4:0.0074835223 5:0.75445472 6:0.31780666 
1 1:0.60518072 2:0.7981683 3:0.39720671 4:0.34139957 5:0.56542538 6:0.3625418 
1 1:0.3792398 2:0.17406674 3:0.39178515 4:0.33190617 5:0.66989343 6:0.084519171 
1 1:0.1372263 2:0.29619202 3:0.35188382 4:0.14902494 5:0.25301746 6:0.80216857 
1 1:0.3914893 2:0.2538857 3:0.13316872 4:0.10356914 5:0.29861894 6:0.25949368 
1 1:0.71414279 2:0.71236516 3:0.27188806 4:0.5960199 5:0.56909181 6:0.62363173 
1 1:0.91730483 2:0.41878762 3:0.45999481 4:0.31976472 5:0.72686479 6:0.13772341 
1 1:0.50914516 2:0.20626507 3:0.17929849 4:0.073988375 5:0.60608754 6:0.22771573 
1 1:0.41841643 2:0.84227996 3:0.62744482 4:0.37456009 5:0.26424402 6:0.71795466 
0.7096196325741624 1:0.87867174 2:0.68296121 3:0.47635608 4:0.78181765 5:0.38717389 6:0.0078832543 
1 1:0.67103071 2:0.78422382 3:0.52784834 4:0.3413344 5:0.87738534 6:0.94407924 
1 1:0.34127133 2:0.69194727 3:0.73002959 4:0.11717538 5:0.14108149 6:0.095398089 
1 1:0.82392732 2:0.22947946 3:0.3091505 4:0.56424651 5:0.65405026 6:0.44912088 
1 1:0.95551885 2:0.49418152 3:0.39872745 4:0.99608066 5:0.55485815 6:0.55279901 
1 1:0.93900191 2:0.49440229 3:0.31596762 4:0.31381563 5:0.30449063 6:0.35722216 
1 1:0.28246434 2:0.38762782 3:0.89376355 4:0.10260764 5:0.51693986 6:0.53888899 
1 1:0.61017338 2:0.69693207 3:0.52343144 4:0.012076521 5:0.78769976 6:0.84521791 
1 1:0.50632348 2:0.22469201 3:0.6969112 4:0.28286616 5:0.67891499 6:0.59471229 
1 1:0.93333512 2:0.53730936 3:0.56886107 4:0.60569417 5:0.62917879 6:0.14298993 
1 1:0.51268726 2:0.61673642 3:0.19379152 4:0.49243657 5:0.52430422 6:0.60338086 
1 1:0.56353126 2:0.16704232 3:0.3184726 4:0.59118283 5:0.82697108 6:0.66236241 
1 1:0.25031599 2:0.57852743 3:0.76697129 4:0.53736514 5:0.20176558 6:0.56090306 
1 1:0.15052228 2:0.65796857 3:0.41266975 4:0.81378429 5:0.75305026 6:0.41115775 
1 1:0.84044834 2:0.68482899 3:0.36248661 4:0.4118808 5:0.29713756 6:0.67032325 
1 1:0.79900857 2:0.33350953 3:0.54676064 4:0.8986507 5:0.44628652 6:0.44055926 
1 1:0.65255309 2:0.81630283 3:0.45700413 4:0.5012886 5:0.27665997 6:0.72215416 
1 1:0.60461454 2:0.67416613 3:0.16169395 4:0.3490461 5:0.69115765 6:0.24606688 
1 1:0.11607013 2:0.37102172 3:0.7170554 4:0.17057728 5:0.68255249 6:0.52475699 
1 1:0.29732962 2:0.5280905 3:0.87277965 4:0.87055634 5:0.40614651 6:0.27452539 
1 1:0.35665313 2:0.80658431 3:0.45514572 4:0.76149139 5:0.70959096 6:0.58799864 
1 1:0.39191869 2:0.10944154 3:0.38579306 4:0.58234379 5:0.36054008 6:0.70347657 
1 1:0.58548279 2:0.51684959 3:0.87564468 4:0.87486553 5:0.63271529 6:0.42043966 
1 1:0.12557368 2:0.32368294 3:0.66334925 4:0.073397426 5:0.30535971 6:0.2548881 
1 1:0.70387698 2:0.74666624 3:0.42023624 4:0.50524099 5:0.54553647 6:0.96086934 
1 1:0.39982791 2:0.50227621 3:0.17358771 4:0.6818665 5:0.63935118 6:0.85535095 
1 1:0.67012589 2:0.6091459 3:0.74693785 4:0.39575715 5:0.40454031 6:0.48151139 
1 1:0.6165189 2:0.65801727 3:0.84675787 4:0.58982519 5:0.69621406 6:0.42127857 
1 1:0.80936111 2:0.27835109 3:0.75239601 4:0.45610703 5:0.64986088 6:0.20296365 
1 1:0.81851636 2:0.60991103 3:0.18719929 4:0.30320965 5:0.34155804 6:0.3999518 
1 1:0.60755642 2:0.69718224 3:0.20654484 4:0.52435997 5:0.28344087 6:0.37868812 
1 1:0.31268116 2:0.33746621 3:0.84614029 4:0.014680105 5:0.64915513 6:0.41922138 
1 1:0.66043907 2:0.45865984 3:0.1980021 4:0.5563905 5:0.82327229 6:0.7329494 
1 1:0.35907818 2:0.66288996 3:0.22757675 4:0.32674189 5:0.26697298 6:0.61691353 
1 1:0.64927316 2:0.46212205 3:0.85394004 4:0.65529607 5:0.64825525 6:0.64846967 
1 1:0.74616804 2:0.7338246 3:0.33914943 4:0.79939873 5:0.4177691 6:0.27034678 
1 1:0.23982172 2:0.57382173 3:0.24245539 4:0.78024483 5:0.67842391 6:0.24771596 
1 1:0.1494442 2:0.2761956 3:0.58279121 4:0.19719364 5:0.60389476 6:0.69312636 
1 1:0.31248899 2:0.20238705 3:0.47513862 4:0.92007976 5:0.47598807 6:0.77255202 
1 1:0.87653245 2:0.48266654 3:0.4472531 4:0.54182183 5:0.30238756 6:0.011132561 
1 1:0.76780753 2:0.74767269 3:0.46161496 4:0.99467545 5:0.76155035 6:0.16510732 
1 1:0.75390687 2:0.78636621 3:0.51014446 4:0.90125463 5:0.42872637 6:0.13637983 
1 1:0.30659342 2:0.54710568 3:0.91637437 4:0.1963948 5:0.36610579 6:0.63592547 
1 1:0.70440392 2:0.67884704 3:0.52952902 4:0.23254744 5:0.30772432 6:0.60209884 
1 1:0.59025439 2:0.16721291 3:0.6219405 4:0.16956661 5:0.46010529 6:0.4353447 
1 1:0.29031881 2:0.65987951 3:0.194907 4:0.56089763 5:0.39676509 6:0.83022574 
1 1:0.47703587 2:0.20953569 3:0.44151591 4:0.59680942 5:0.56293252 6:0.6645305 
1 1:0.5350683 2:0.83991372 3:0.49791821 4:0.63648964 5:0.87468554 6:0.30078478 
1 1:0.1547566 2:0.649454 3:0.52584194 4:0.069557568 5:0.097048305 6:0.83419053 
1 1:0.34507121 2:0.67010471 3:0.20774341 4:0.86979247 5:0.35555572 6:0.44504187 
1 1:0.65739577 2:0.65000658 3:0.69324295 4:0.3467214 5:0.27544683 6:0.19315442 
1 1:0.72678309 2:0.66717321 3:0.55527092 4:0.11983995 5:0.4856522 6:0.81752527 
1 1:0.61979709 2:0.53787971 3:0.93114357 4:0.33440551 5:0.54127758 6:0.053675523 
1 1:0.52497909 2:0.28047614 3:0.23644263 4:0.91733064 5:0.75700103 6:0.62351458 
1 1:0.53945426 2:0.71686044 3:0.6303194 4:0.010049431 5:0.33846786 6:0.82945673 
1 1:0.46754977 2:0.79957062 3:0.36224373 4:0.1411625 5:0.54706916 6:0.5038678 
1 1:0.3323495 2:0.56984313 3:0.79511104 4:0.94959666 5:0.31416227 6:0.55983203 
1 1:0.76404613 2:0.17695013 3:0.33200336 4:0.65027961 5:0.62076057 6:0.37735602 
1 1:0.47553198 2:0.7129797 3:0.17954459 4:0.11973949 5:0.72960747 6:0.67524128 
1 1:0.5442902 2:0.66367955 3:0.15372402 4:0.67718531 5:0.25204601 6:0.61149215 
1 1:0.32526478 2:0.63693743 3:0.23368256 4:0.093922711 5:0.42864596 6:0.92971059 
1 1:0.14181682 2:0.30108605 3:0.51355852 4:0.95047264 5:0.70778159 6:0.35970797 
1 1:0.42153264 2:0.14902748 3:0.50449162 4:0.083486933 5:0.15744989 6:0.027586247 
1 1:0.75382575 2:0.25373995 3:0.380622 4:0.56145073 5:0.15200972 6:0.19754164 
1 1:0.54813354 2:0.64622453 3:0.17846647 4:0.7686096 5:0.19171282 6:0.77159833 
1 1:0.34746814 2:0.54969073 3:0.90081046 4:0.61238221 5:0.57030076 6:0.67593157 
0.427934789732473 1:0.075436091 2:0.59572569 3:0.4366183 4:0.3127343 5:0.20968062 6:0.90371781 
1 1:0.36971442 2:0.18071586 3:0.30922385 4:0.96242209 5:0.61074171 6:0.41027179 
1 1:0.26723185 2:0.22684681 3:0.23717958 4:0.53176851 5:0.70708109 6:0.69858894 
1 1:0.49699326 2:0.11067037 3:0.67417502 4:0.24752826 5:0.63131324 6:0.11391278 
1 1:0.19530695 2:0.32254524 3:0.7964256 4:0.28354947 5:0.85913458 6:0.58232156 
1 1:0.25743489 2:0.14845347 3:0.53553059 4:0.51422823 5:0.3868122 6:0.96329929 
1 1:0.87869165 2:0.34056647 3:0.5057845 4:0.59976294 5:0.45727933 6:0.57915911 
1 1:0.75901516 2:0.23889532 3:0.51248026 4:0.93044496 5:0.45916006 6:0.31925638 
1 1:0.071046105 2:0.50846016 3:0.45328093 4:0.4686156 5:0.49161155 6:0.36459408 
1 1:0.30013916 2:0.80871154 3:0.60550324 4:0.5603576 5:0.54928441 6:0.12818676 
1 1:0.44697179 2:0.19251617 3:0.73128582 4:0.58077002 5:0.3374154 6:0.84429129 
1 1:0.22178791 2:0.47366954 3:0.30733596 4:0.88340501 5:0.24787134 6:0.23647667 
1 1:0.1402191 2:0.27050197 3:0.69471916 4:0.1963237 5:0.55875227 6:0.30234461 
1 1:0.11155449 2:0.26222879 3:0.43710683 4:0.28735755 5:0.64301693 6:0.63839794 
1 1:0.77512549 2:0.39580141 3:0.83046343 4:0.66182738 5:0.6750024 6:0.45619641 
1 1:0.62181939 2:0.47300714 3:0.91861111 4:0.17468873 5:0.19457965 6:0.20377801 
1 1:0.63545837 2:0.21916771 3:0.28398791 4:0.49397859 5:0.072658264 6:0.19996823 
1 1:0.6456074 2:0.13757208 3:0.33847632 4:0.18039669 5:0.61902941 6:0.45684615 
1 1:0.44366021 2:0.35949692 3:0.073389521 4:0.64785837 5:0.55517419 6:0.089686606 
1 1:0.73285054 2:0.82446243 3:0.50139134 4:0.28769972 5:0.4900612 6:0.63931637 
1 1:0.20480022 2:0.75989031 3:0.48539294 4:0.35241074 5:0.52818973 6:0.61622281 
1 1:0.45993281 2:0.75210254 3:0.32401607 4:0.098865273 5:0.45855266 6:0.051647972 
1 1:0.12871724 2:0.35604674 3:0.39739219 4:0.42741832 5:0.84760217 6:0.42914074 
1 1:0.89716026 2:0.48719881 3:0.26792231 4:0.73522967 5:0.42253902 6:0.53288647 
1 1:0.56633458 2:0.52212535 3:0.13891955 4:0.5846142 5:0.40125005 6:0.25440057 
1 1:0.68904309 2:0.61702317 3:0.1312056 4:0.46958065 5:0.46905291 6:0.31805476 
1 1:0.17829335 2:0.62177561 3:0.69746679 4:0.94322971 5:0.52207089 6:0.4981157 
1 1:0.48104352 2:0.17105444 3:0.70990761 4:0.34932544 5:0.32693477 6:0.80297888 
1 1:0.53398925 2:0.38801361 3:0.94183349 4:0.44733508 5:0.64626299 6:0.8819567 
1 1:0.71923693 2:0.1370223 3:0.55281263 4:0.36303597 5:0.40044027 6:0.99520381 
1 1:0.80371806 2:0.30802981 3:0.75927191 4:0.89849482 5:0.7696719 6:0.57354042 
1 1:0.34491707 2:0.82264153 3:0.34539496 4:0.46529624 5:0.62024808 6:0.6174073 
1 1:0.75773183 2:0.69013825 3:0.72887895 4:0.54318858 5:0.30657225 6:0.64234513 
1 1:0.25343602 2:0.22757995 3:0.2944375 4:0.31023405 5:0.4097041 6:0.51018 
1 1:0.36290265 2:0.36455951 3:0.20938843 4:0.32892921 5:0.43091035 6:0.70122341 
1 1:0.51269576 2:0.16467201 3:0.79872025 4:0.13189437 5:0.59437016 6:0.67188297 
1 1:0.35153398 2:0.68753512 3:0.38524437 4:0.59065448 5:0.72222584 6:0.073864929 
1 1:0.8914171 2:0.2216368 3:0.49720049 4:0.55360723 5:0.40812332 6:0.4804856 
1 1:0.91157585 2:0.34672932 3:0.37740426 4:0.78315155 5:0.32140622 6:0.88106046 
1 1:0.47628484 2:0.35278901 3:0.9105319 4:0.31120824 5:0.64632379 6:0.70818359 
1 1:0.95369741 2:0.48099397 3:0.50247994 4:0.47909555 5:0.47012555 6:0.52066124 
1 1:0.33935336 2:0.25624321 3:0.17913291 4:0.43339477 5:0.78307003 6:0.46809558 
1 1:0.69283128 2:0.78963704 3:0.5715115 4:0.3817217 5:0.63883434 6:0.088873237 
1 1:0.25492155 2:0.63135628 3:0.78878348 4:0.058217603 5:0.57992396 6:0.28076969 
1 1:0.096357171 2:0.58076001 3:0.31469763 4:0.53816441 5:0.63825313 6:0.26042716 
1 1:0.17221166 2:0.26041108 3:0.50595771 4:0.14162717 5:0.57794043 6:0.84582465 
1 1:0.89492509 2:0.50614593 3:0.49525498 4:0.29259225 5:0.34256452 6:0.14672488 
1 1:0.24170943 2:0.3632321 3:0.82588733 4:0.13034813 5:0.71916373 6:0.32226941 
1 1:0.70021119 2:0.15900156 3:0.37012237 4:0.14465626 5:0.57546615 6:0.94106919 
1 1:0.38372817 2:0.16379569 3:0.60919448 4:0.75120677 5:0.64372665 6:0.34811798 
1 1:0.56070946 2:0.65587631 3:0.88176438 4:0.97690165 5:0.4801326 6:0.44821693 
1 1:0.24316813 2:0.19055025 3:0.42709645 4:0.72933044 5:0.46431063 6:0.45489924 
1 1:0.63150144 2:0.77065756 3:0.21661217 4:0.46362901 5:0.36259644 6:0.60193334 
1 1:0.7558881 2:0.68576561 3:0.21633011 4:0.40115164 5:0.50320584 6:0.30226654 
1 1:0.41231214 2:0.72211324 3:0.63509826 4:0.72510708 5:0.9629745 6:0.94723268 
1 1:0.67374562 2:0.78789543 3:0.46415335 4:0.94340546 5:0.51757861 6:0.2308878 
1 1:0.44221982 2:0.29951302 3:0.91985319 4:0.052501941 5:0.54477756 6:0.35320568 
1 1:0.27088066 2:0.78931635 3:0.49105271 4:0.79727204 5:0.39533346 6:0.84992133 
1 1:0.53510393 2:0.72271057 3:0.41785408 4:0.24754931 5:0.5757853 6:0.95698839 
1 1:0.50650267 2:0.22467781 3:0.76924769 4:0.93706393 5:0.42345425 6:0.52421418 
1 1:0.3430918 2:0.68827889 3:0.83662617 4:0.47110324 5:0.59403373 6:0.366917 
1 1:0.75145612 2:0.19021041 3:0.61656083 4:0.64255858 5:0.31990005 6:0.55430993 
1 1:0.46262126 2:0.26175898 3:0.78385286 4:0.73821161 5:0.34019549 6:0.49713431 
1 1:0.62351749 2:0.177141 3:0.749549 4:0.79505416 5:0.59605232 6:0.06940994 
1 1:0.48223213 2:0.10957494 3:0.41263572 4:0.85462602 5:0.50900062 6:0.22507414 
1 1:0.47494272 2:0.17543167 3:0.77175477 4:0.61760834 5:0.71615482 6:0.38489555 
1 1:0.45913446 2:0.41209614 3:0.13450521 4:0.56725166 5:0.62315064 6:0.15209291 
1 1:0.60346126 2:0.16037998 3:0.72217924 4:0.42977268 5:0.301727 6:0.84098729 
1 1:0.04876435 2:0.52535244 3:0.49978795 4:0.095327602 5:0.74912622 6:0.6245187 
1 1:0.31906276 2:0.20613506 3:0.3893126 4:0.085166221 5:0.7005447 6:0.85095033 
1 1:0.67891128 2:0.33842457 3:0.10391197 4:0.17286633 5:0.75047139 6:0.61856349 
1 1:0.73986505 2:0.17316185 3:0.62424931 4:0.81352942 5:0.3393568 6:0.063150609 
1 1:0.79741248 2:0.4060804 3:0.70835754 4:0.52481013 5:0.35702229 6:0.76348877 
1 1:0.31566643 2:0.47405213 3:0.11447158 4:0.54699868 5:0.51375308 6:0.49551619 
1 1:0.83374662 2:0.60347749 3:0.57545905 4:0.2549278 5:0.75048059 6:0.43594734 
1 1:0.31740847 2:0.74339992 3:0.66321912 4:0.51483245 5:0.83476557 6:0.31903866 
1 1:0.58908313 2:0.20442879 3:0.28702345 4:0.805298 5:0.34515014 6:0.06072593 
1 1:0.47483567 2:0.7163494 3:0.20331211 4:0.89248901 5:0.22078212 6:0.31831489 
1 1:0.15359003 2:0.36467017 3:0.47036683 4:0.79270354 5:0.35323571 6:0.060978124 
1 1:0.56439682 2:0.70689851 3:0.20161317 4:0.89066762 5:0.45690671 6:0.60502399 
1 1:0.98923829 2:0.43767707 3:0.55880709 4:0.50000866 5:0.45559712 6:0.66931618 
1 1:0.83717406 2:0.23356883 3:0.4105107 4:0.027222263 5:0.39286904 6:0.38031486 
1 1:0.69313321 2:0.80610382 3:0.44246624 4:0.59612395 5:0.3303795 6:0.53339666 
1 1:0.59656089 2:0.72389122 3:0.71494889 4:0.53991747 5:0.13156827 6:0.46459855 
1 1:0.59742594 2:0.1298224 3:0.312404 4:0.20019861 5:0.4037438 6:0.094144876 
1 1:0.12690231 2:0.70766976 3:0.53311406 4:0.44575343 5:0.33612528 6:0.71102598 
1 1:0.53484488 2:0.6749347 3:0.63925977 4:0.35593596 5:0.75524411 6:0.083864549 
1 1:0.70577043 2:0.59461291 3:0.86712751 4:0.82585802 5:0.75440521 6:0.50202332 
1 1:0.24199436 2:0.28686564 3:0.51057025 4:0.15324227 5:0.53613257 6:0.27553052 
1 1:0.19726968 2:0.26515323 3:0.30731878 4:0.27672874 5:0.41797445 6:0.92115733 
1 1:0.54210109 2:0.34861918 3:0.85573426 4:0.67975629 5:0.095500314 6:0.68980201 
1 1:0.82547348 2:0.67870377 3:0.41157424 4:0.10183252 5:0.44223331 6:0.93192217 
1 1:0.11281176 2:0.37783581 3:0.61522943 4:0.27270446 5:0.48158191 6:0.82462785 
1 1:0.8469791 2:0.40518277 3:0.7786825 4:0.53403137 5:0.47648892 6:0.84264181 
1 1:0.46317062 2:0.2163379 3:0.69201462 4:0.49507258 5:0.77375245 6:0.84495048 
1 1:0.59080212 2:0.79921777 3:0.6027214 4:0.96241932 5:0.69531669 6:0.04982485 
1 1:0.73767459 2:0.72136686 3:0.4589431 4:0.30808532 5:0.53006927 6:0.63305053 
1 1:0.5465426 2:0.84718804 3:0.56584829 4:0.14955541 5:0.55731031 6:0.79213333 
1 1:0.6617625 2:0.54284763 3:0.85124134 4:0.40771688 5:0.82531762 6:0.15621695 
1 1:0.26705765 2:0.24957941 3:0.22858957 4:0.37076959 5:0.8283521 6:0.81287496 
1 1:0.64636584 2:0.14362206 3:0.34828558 4:0.0073444189 5:0.41923764 6:0.90232667 
1 1:0.67103637 2:0.75212705 3:0.62500776 4:0.82462849 5:0.69698555 6:0.54236742 
1 1:0.78195034 2:0.38172778 3:0.19778023 4:0.63870005 5:0.68853169 6:0.089569105 
1 1:0.50932725 2:0.24910415 3:0.25189039 4:0.57539752 5:0.35257592 6:0.72790685 
1 1:0.32590828 2:0.14466315 3:0.63704346 4:0.52958807 5:0.27091569 6:0.57976569 
1 1:0.4332815 2:0.34074403 3:0.10627654 4:0.87692696 5:0.59889803 6:0.92207502 
1 1:0.50919271 2:0.77886841 3:0.36649205 4:0.48788954 5:0.82328354 6:0.12889622 
1 1:0.37677439 2:0.42934275 3:0.82524274 4:0.65909667 5:0.27581518 6:0.32622024 
1 1:0.61087686 2:0.209371 3:0.8115784 4:0.37415474 5:0.29259422 6:0.82622595 
1 1:0.18694977 2:0.23485233 3:0.53333284 4:0.74180564 5:0.74833149 6:0.19801551 
1 1:0.48845484 2:0.11908797 3:0.47404881 4:0.55654135 5:0.064597476 6:0.70370403 
1 1:0.33840592 2:0.77636133 3:0.71113871 4:0.77172656 5:0.71043518 6:0.63739501 
1 1:0.71201236 2:0.26066486 3:0.34063367 4:0.77461116 5:0.81260329 6:0.86792914 
1 1:0.66821801 2:0.3955728 3:0.92714445 4:0.24218719 5:0.28348039 6:0.72141326 
1 1:0.36214373 2:0.84652491 3:0.5289647 4:0.31844132 5:0.55753227 6:0.76106564 
1 1:0.14663057 2:0.33358647 3:0.24918598 4:0.58303403 5:0.33837757 6:0.65386912 
1 1:0.51179718 2:0.29432229 3:0.89540672 4:0.57250989 5:0.70052737 6:0.26687394 
1 1:0.77824297 2:0.37571325 3:0.74737222 4:0.70168872 5:0.66597307 6:0.85829863 
1 1:0.48370415 2:0.76697169 3:0.48716863 4:0.56204555 5:0.50193014 6:0.63434171 
1 1:0.22655077 2:0.43468051 3:0.31448594 4:0.45033474 5:0.26176372 6:0.87034324 
1 1:0.46561273 2:0.19133925 3:0.69372454 4:0.70664184 5:0.85043603 6:0.36896571 
1 1:0.30691836 2:0.2024218 3:0.792861 4:0.27645774 5:0.50570548 6:0.58112374 
1 1:0.76102276 2:0.6729029 3:0.36680863 4:0.62339814 5:0.17555351 6:0.56846716 
1 1:0.2780492 2:0.28003674 3:0.83401201 4:0.6661409 5:0.25977037 6:0.25305384 
1 1:0.49727263 2:0.16945089 3:0.68509339 4:0.75928743 5:0.51790133 6:0.77166686 
1 1:0.55433262 2:0.67205382 3:0.210401 4:0.6371264 5:0.79257277 6:0.17958126 
1 1:0.31315704 2:0.38650311 3:0.12665318 4:0.23969535 5:0.44792953 6:0.66467784 
1 1:0.3222004 2:0.74552064 3:0.43397 4:0.75649483 5:0.60581182 6:0.6906533 
1 1:0.5841207 2:0.61314157 3:0.10650156 4:0.40769338 5:0.1899118 6:0.26265963 
1 1:0.4632997 2:0.79637865 3:0.6945608 4:0.61579896 5:0.64554209 6:0.13481618 
1 1:0.71944895 2:0.45772819 3:0.12206108 4:0.21595396 5:0.88526548 6:0.38001883 
1 1:0.70286252 2:0.72845712 3:0.71290747 4:0.010556402 5:0.68846642 6:0.7800174 
1 1:0.79484442 2:0.64750811 3:0.35858288 4:0.88831213 5:0.61438472 6:0.55426484 
1 1:0.75417284 2:0.40876851 3:0.84110319 4:0.71799006 5:0.50064188 6:0.54828401 
1 1:0.33390699 2:0.34262366 3:0.24407811 4:0.20426369 5:0.47904782 6:0.94857545 
1 1:0.88577114 2:0.42012896 3:0.58433794 4:0.68512514 5:0.76477445 6:0.45164885 
1 1:0.48056515 2:0.29074979 3:0.87345127 4:0.29092304 5:0.76757218 6:0.45735246 
1 1:0.66366911 2:0.61014918 3:0.66894104 4:0.41529735 5:0.69401891 6:0.45117103 
1 1:0.43505579 2:0.77792804 3:0.46834675 4:0.51796225 5:0.72955075 6:0.68901637 
1 1:0.46584125 2:0.83401772 3:0.44801447 4:0.67746056 5:0.39653805 6:0.62227893 
1 1:0.56791334 2:0.6246108 3:0.2903161 4:0.82778863 5:0.54158939 6:0.92755035 
1 1:0.89102515 2:0.48521248 3:0.69510264 4:0.52695401 5:0.54572247 6:0.74862642 
1 1:0.44536124 2:0.16251191 3:0.65234953 4:0.57128297 5:0.70967733 6:0.52530281 
1 1:0.61286675 2:0.31517527 3:0.27154989 4:0.35364195 5:0.47307245 6:0.11070605 
1 1:0.61070576 2:0.74032969 3:0.463586 4:0.52354797 5:0.72293997 6:0.42102084 
1 1:0.5647204 2:0.76106041 3:0.70031449 4:0.42278432 5:0.042818904 6:0.8022152 
1 1:0.70072658 2:0.70196381 3:0.22763007 4:0.90065643 5:0.63308089 6:0.66856578 
1 1:0.42739795 2:0.23591913 3:0.29251888 4:0.46427023 5:0.59138916 6:0.8246965 
1 1:0.1851066 2:0.65455592 3:0.49318967 4:0.91101157 5:0.87382847 6:0.077915623 
1 1:0.80869075 2:0.35996414 3:0.71502949 4:0.37663759 5:0.51220089 6:0.5728085 
1 1:0.54665108 2:0.085446616 3:0.56287426 4:0.6815094 5:0.41100379 6:0.31505551 
1 1:0.57251818 2:0.15527013 3:0.23403424 4:0.48579987 5:0.51902277 6:0.09639417 
1 1:0.30873168 2:0.51855483 3:0.78384031 4:0.25270837 5:0.61125861 6:0.45420841 
1 1:0.51337375 2:0.80905038 3:0.43450807 4:0.4633566 5:0.76171121 6:0.32871184 
1 1:0.67299724 2:0.74855715 3:0.46695643 4:0.34478882 5:0.05948539 6:0.93613555 
1 1:0.77618217 2:0.36923383 3:0.76882118 4:0.30929238 5:0.27972559 6:0.095638015 
1 1:0.55935706 2:0.65090799 3:0.35134499 4:0.86938499 5:0.50556443 6:0.82148843 
1 1:0.54162298 2:0.80580519 3:0.40431637 4:0.59411328 5:0.54248958 6:0.675376 
1 1:0.17348804 2:0.43842573 3:0.44546585 4:0.93098461 5:0.81012088 6:0.21489788 
1 1:0.63045772 2:0.6349856 3:0.8471676 4:0.81513957 5:0.57866268 6:0.85288274 
1 1:0.67075702 2:0.7476274 3:0.59851773 4:0.3126689 5:0.95258597 6:0.31100032 
1 1:0.50748005 2:0.17550984 3:0.45365757 4:0.88574444 5:0.81516654 6:0.62403884 
1 1:0.41981021 2:0.63170453 3:0.23429799 4:0.31742154 5:0.64617463 6:0.8270508 
1 1:0.29802497 2:0.21895967 3:0.21685055 4:0.88443158 5:0.59088872 6:0.59834648 
1 1:0.11364721 2:0.65908138 3:0.67352785 4:0.52359787 5:0.59486662 6:0.26392163 
1 1:0.26212094 2:0.421379 3:0.88359665 4:0.59436258 5:0.63868085 6:0.36486184 
1 1:0.27282768 2:0.61967868 3:0.14076588 4:0.38524269 5:0.60088706 6:0.64003265 
1 1:0.93717251 2:0.34270715 3:0.51147657 4:0.66728784 5:0.37684307 6:0.72183435 
1 1:0.5183581 2:0.73059541 3:0.21404167 4:0.54375734 5:0.30640453 6:0.83525996 
1 1:0.50318224 2:0.17310393 3:0.70641836 4:0.74011408 5:0.93114672 6:0.47427182 
1 1:0.33251286 2:0.72837124 3:0.29088689 4:0.78510303 5:0.61396874 6:0.39481717 
1 1:0.36963123 2:0.78502302 3:0.56237801 4:0.37027266 5:0.31210985 6:0.44130197 
1 1:0.31340487 2:0.70729837 3:0.72919756 4:0.52307951 5:0.77880953 6:0.34530173 
1 1:0.80544188 2:0.71176012 3:0.59548896 4:0.2929625 5:0.24366678 6:0.36511851 
1 1:0.159625 2:0.6463202 3:0.72122204 4:0.49395932 5:0.37630038 6:0.13309569 
1 1:0.50731732 2:0.14440041 3:0.35650757 4:0.74866052 5:0.40679061 6:0.52078657 
1 1:0.46522271 2:0.8036288 3:0.48326359 4:0.057501784 5:0.32427608 6:0.95935009 
1 1:0.86346243 2:0.44592685 3:0.70861034 4:0.20203887 5:0.34253855 6:0.19583111 
1 1:0.35741205 2:0.19210443 3:0.64769337 4:0.9583196 5:0.77603318 6:0.21687253 
1 1:0.7289585 2:0.5623034 3:0.78441882 4:0.17558333 5:0.8737489 6:0.3455976 
1 1:0.84354545 2:0.48842959 3:0.2151147 4:0.16879649 5:0.31018719 6:0.45419026 
1 1:0.092704086 2:0.43077083 3:0.73676696 4:0.78095585 5:0.49629632 6:0.38028271 
1 1:0.71960884 2:0.1942721 3:0.24936843 4:0.35702529 5:0.44874108 6:0.91245902 
1 1:0.42448924 2:0.65910811 3:0.77290837 4:0.95830381 5:0.49480597 6:0.15796134 
1 1:0.36100699 2:0.68092539 3:0.39333796 4:0.072671265 5:0.03102815 6:0.50387737 
1 1:0.62833395 2:0.33944298 3:0.7731466 4:0.68100524 5:0.66958396 6:0.4875101 
1 1:0.085208973 2:0.31038247 3:0.4347933 4:0.41917333 5:0.31548723 6:0.18375039 
1 1:0.14770001 2:0.50031297 3:0.441698 4:0.89497086 5:0.18103047 6:0.17509177 
1 1:0.8202772 2:0.1960013 3:0.53460055 4:0.42906843 5:0.69346408 6:0.26977254 
1 1:0.56389858 2:0.13747236 3:0.65330156 4:0.51829516 5:0.4909639 6:0.38835435 
1 1:0.55936479 2:0.16015424 3:0.54631046 4:0.64321326 5:0.77662469 6:0.65153516 
1 1:0.57901547 2:0.78041342 3:0.49713117 4:0.41415353 5:0.83467358 6:0.1093294 
1 1:0.73274304 2:0.38437021 3:0.69879521 4:0.020489581 5:0.25694288 6:0.58079481 
1 1:0.29838834 2:0.65254958 3:0.60083043 4:0.14760882 5:0.41682284 6:0.81898826 
1 1:0.65337957 2:0.58766609 3:0.10025238 4:0.6643343 5:0.64065763 6:0.82692015 
1 1:0.45103994 2:0.56140497 3:0.13592148 4:0.53043381 5:0.48109245 6:0.19760568 
1 1:0.37271392 2:0.19374947 3:0.41758947 4:0.13213028 5:0.47516381 6:0.11188184 
1 1:0.63600321 2:0.5507139 3:0.048583132 4:0.36253967 5:0.49020259 6:0.66596182 
1 1:0.53396269 2:0.81734903 3:0.38939021 4:0.78515004 5:0.34863414 6:0.89009945 
1 1:0.33104273 2:0.26410481 3:0.6502338 4:0.22226542 5:0.84610228 6:0.052758223 
1 1:0.45134352 2:0.7514635 3:0.32316157 4:0.3667898 5:0.50848334 6:0.70097909 
1 1:0.70115096 2:0.71788647 3:0.6235556 4:0.10076015 5:0.71831233 6:0.073849662 
1 1:0.58100836 2:0.77095339 3:0.46197976 4:0.38989041 5:0.068527685 6:0.87048114 
1 1:0.90243562 2:0.41735981 3:0.63903262 4:0.17454216 5:0.11884096 6:0.84837569 
1 1:0.19247349 2:0.32872473 3:0.35679011 4:0.94576507 5:0.3602563 6:0.22627487 
1 1:0.39842692 2:0.41947741 3:0.93029826 4:0.96857563 5:0.52164245 6:0.17242187 
1 1:0.4498296 2:0.18306239 3:0.48854234 4:0.82731295 5:0.67104379 6:0.40492609 
1 1:0.80061277 2:0.53573043 3:0.81561702 4:0.5253573 5:0.1225755 6:0.16926583 
1 1:0.25004588 2:0.72775971 3:0.5038281 4:0.20180375 5:0.25441569 6:0.98887426 
1 1:0.67152899 2:0.3590944 3:0.85276469 4:0.471551 5:0.34554292 6:0.72625189 
1 1:0.40055057 2:0.76270081 3:0.7904805 4:0.69402662 5:0.39258135 6:0.32190059 
1 1:0.20115047 2:0.74568467 3:0.46171635 4:0.90955383 5:0.7645031 6:0.61962304 
0.7129656554634286 1:0.62287054 2:0.14144612 3:0.50344388 4:0.99076491 5:0.69998295 6:0.92359698 
1 1:0.14506712 2:0.5219502 3:0.25244027 4:0.82688295 5:0.37791299 6:0.54334611 
1 1:0.20487444 2:0.45825128 3:0.81337776 4:0.25396427 5:0.89746795 6:0.6690301 
1 1:0.45094648 2:0.12717722 3:0.58284205 4:0.64323128 5:0.51144098 6:0.48175906 
1 1:0.27151354 2:0.58245891 3:0.1914568 4:0.11621983 5:0.5123681 6:0.66945368 
1 1:0.69316593 2:0.21430162 3:0.2795851 4:0.48084555 5:0.69710684 6:0.053309492 
1 1:0.3540465 2:0.68322441 3:0.72422997 4:0.73682831 5:0.1774632 6:0.11517577 
1 1:0.74151084 2:0.15011703 3:0.55397912 4:0.069971538 5:0.55532932 6:0.78172285 
1 1:0.24695338 2:0.58331783 3:0.15101664 4:0.32386553 5:0.56671637 6:0.779015 
1 1:0.80999702 2:0.77018217 3:0.3965663 4:0.38612854 5:0.40573286 6:0.25685809 
1 1:0.37631728 2:0.46640463 3:0.95830875 4:0.74122436 5:0.51494996 6:0.44293886 
1 1:0.39384037 2:0.14324277 3:0.52332114 4:0.51240212 5:0.34597895 6:0.24572127 
1 1:0.23848219 2:0.65648693 3:0.59910281 4:0.42078948 5:0.68156551 6:0.03543641 
1 1:0.86766069 2:0.63824669 3:0.57349549 4:0.64508291 5:0.44632121 6:0.73289776 
1 1:0.65791079 2:0.18859147 3:0.22227863 4:0.23755212 5:0.71473161 6:0.48443241 
1 1:0.5538814 2:0.25367561 3:0.29739289 4:0.72366905 5:0.50792949 6:0.023210144 
1 1:0.75780832 2:0.7586631 3:0.54970223 4:0.14892472 5:0.4886481 6:0.32609566 
1 1:0.1224237 2:0.31165548 3:0.57310178 4:0.44502445 5:0.71923206 6:0.37504941 
1 1:0.55878067 2:0.68208939 3:0.75199074 4:0.37053371 5:0.22891772 6:0.84056139 
1 1:0.48203791 2:0.8056378 3:0.4526075 4:0.79966188 5:0.60498195 6:0.48400463 
1 1:0.19484142 2:0.20838352 3:0.29136354 4:0.31255074 5:0.51255024 6:0.71859143 
1 1:0.76636815 2:0.29372074 3:0.72690919 4:0.41456818 5:0.32832429 6:0.67517951 
1 1:0.28024642 2:0.65779859 3:0.71870522 4:0.86084583 5:0.24652794 6:0.056486269 
1 1:0.64519087 2:0.17259777 3:0.23669004 4:0.14142009 5:0.58294883 6:0.42164224 
1 1:0.22328606 2:0.17660028 3:0.33936939 4:0.098007699 5:0.56915625 6:0.6125007 
1 1:0.35142204 2:0.66566412 3:0.13677305 4:0.8520104 5:0.41819062 6:0.46954081 
1 1:0.23371486 2:0.67402985 3:0.41837495 4:0.60776305 5:0.27141041 6:0.7363115 
1 1:0.56457249 2:0.23406703 3:0.14932465 4:0.58373793 5:0.67908605 6:0.27239807 
1 1:0.78605176 2:0.68425484 3:0.75121472 4:0.27525772 5:0.20532495 6:0.28562282 
1 1:0.37383509 2:0.74189926 3:0.70865234 4:0.5244351 5:0.51400708 6:0.29573613 
1 1:0.48060965 2:0.18430243 3:0.7855361 4:0.98636536 5:0.49142122 6:0.14893975 
1 1:0.53781377 2:0.63478483 3:0.92764582 4:0.5046776 5:0.25901939 6:0.46414706 
1 1:0.531309 2:0.58990124 3:0.88391278 4:0.35628112 5:0.52846475 6:0.3579846 
1 1:0.35943532 2:0.7196409 3:0.22945657 4:0.75726714 5:0.57611722 6:0.055952745 
1 1:0.82766186 2:0.60196054 3:0.78593505 4:0.88429474 5:0.68597613 6:0.28528761 
1 1:0.17276194 2:0.7110681 3:0.35348446 4:0.37529493 5:0.38743293 6:0.40841993 
1 1:0.44270789 2:0.79744988 3:0.41249739 4:0.29419888 5:0.37137255 6:0.46104974 
1 1:0.89669788 2:0.40421225 3:0.33518466 4:0.047946732 5:0.40303935 6:0.22336832 
1 1:0.40373779 2:0.73829806 3:0.23926577 4:0.65096862 5:0.21607434 6:0.81562769 
1 1:0.080073368 2:0.33985873 3:0.54458328 4:0.72938326 5:0.32969407 6:0.71641876 
1 1:0.33734309 2:0.71421108 3:0.41395404 4:0.84764658 5:0.77522478 6:0.7799948 
1 1:0.32487038 2:0.58318628 3:0.90631909 4:0.81468217 5:0.46105022 6:0.35092958 
1 1:0.23509227 2:0.21091335 3:0.5290688 4:0.99738752 5:0.52218081 6:0.46756457 
1 1:0.54059387 2:0.77593827 3:0.55867552 4:0.46248555 5:0.02464195 6:0.13905491 
1 1:0.7036044 2:0.326557 3:0.30920572 4:0.96996827 5:0.30328128 6:0.32179707 
1 1:0.19623691 2:0.70438335 3:0.48239471 4:0.22260691 5:0.19735338 6:0.014157552 
1 1:0.23242854 2:0.46398339 3:0.7490523 4:0.046099914 5:0.83692552 6:0.7871454 
1 1:0.62060522 2:0.12474372 3:0.71769399 4:0.11273629 5:0.52322851 6:0.42938625 
1 1:0.45183246 2:0.46522634 3:0.061213002 4:0.6689166 5:0.50670067 6:0.55172354 
1 1:0.37647352 2:0.76042408 3:0.73349852 4:0.25147119 5:0.75150556 6:0.05683216 
1 1:0.46721077 2:0.15561568 3:0.55904755 4:0.029133771 5:0.63399764 6:0.92833557 
1 1:0.051929154 2:0.54926549 3:0.48625312 4:0.30515231 5:0.29777409 6:0.79100803 
1 1:0.67716144 2:0.54795718 3:0.14641175 4:0.74015798 5:0.62486259 6:0.69874676 
1 1:0.75162103 2:0.76888241 3:0.45496113 4:0.77106111 5:0.74763331 6:0.059731776 
1 1:0.79115056 2:0.69999763 3:0.53103641 4:0.040986016 5:0.63019399 6:0.62522331 
1 1:0.4529467 2:0.6856267 3:0.63383389 4:0.29601589 5:0.94099737 6:0.89094252 
1 1:0.70187085 2:0.29897993 3:0.1718731 4:0.4674352 5:0.49348488 6:0.88220686 
1 1:0.14421194 2:0.38962256 3:0.23759661 4:0.16465469 5:0.42454669 6:0.49679885 
1 1:0.47756517 2:0.51856454 3:0.08330517 4:0.50410602 5:0.59789749 6:0.81119819 
1 1:0.17590867 2:0.73786005 3:0.4832463 4:0.40629182 5:0.38880556 6:0.23311587 
1 1:0.20504691 2:0.21842377 3:0.62569917 4:0.16202475 5:0.35130652 6:0.74258773 
1 1:0.18937284 2:0.31524027 3:0.21937906 4:0.53465554 5:0.70480266 6:0.9009224 
1 1:0.14773752 2:0.54707604 3:0.3280304 4:0.39830826 5:0.27950938 6:0.88006913 
1 1:0.6633409 2:0.5831113 3:0.80726614 4:0.81149798 5:0.74742759 6:0.53333557 
1 1:0.16028832 2:0.57721058 3:0.51020956 4:0.75494873 5:0.65448786 6:0.4536876 
1 1:0.40145078 2:0.19817096 3:0.17395765 4:0.39320544 5:0.37581236 6:0.16264981 
1 1:0.53370815 2:0.62741521 3:0.19768615 4:0.27471555 5:0.41718392 6:0.21551065 
1 1:0.4489785 2:0.69480001 3:0.1278507 4:0.46155855 5:0.34823286 6:0.10668646 
1 1:0.86496089 2:0.33964508 3:0.33891731 4:0.18068472 5:0.9367104 6:0.26177606 
1 1:0.30717912 2:0.12246742 3:0.5087442 4:0.42744045 5:0.27960035 6:0.31911816 
1 1:0.40431416 2:0.099396257 3:0.58851896 4:0.60831415 5:0.41338866 6:0.49281264 
1 1:0.77566582 2:0.20226304 3:0.39122675 4:0.013743485 5:0.275047 6:0.23229318 
1 1:0.3629332 2:0.66294096 3:0.26306535 4:0.56806472 5:0.85694348 6:0.27771103 
1 1:0.23955394 2:0.70545228 3:0.36920046 4:0.86435531 5:0.21273972 6:0.48520312 
1 1:0.19687582 2:0.23005902 3:0.61873755 4:0.20113054 5:0.27340673 6:0.31012101 
1 1:0.46486259 2:0.58857574 3:0.067999976 4:0.78662172 5:0.56893362 6:0.50735618 
1 1:0.060874011 2:0.50878029 3:0.544627 4:0.26765693 5:0.32453286 6:0.14058674 
1 1:0.55922347 2:0.17154725 3:0.42241672 4:0.29481418 5:0.72734187 6:0.40882987 
1 1:0.42292649 2:0.8599942 3:0.47351852 4:0.22384491 5:0.42012002 6:0.57087653 
1 1:0.35974195 2:0.32201057 3:0.38615216 4:0.87189922 5:0.36420212 6:0.086866178 
1 1:0.39158445 2:0.27999483 3:0.19820063 4:0.90770248 5:0.57955842 6:0.2351797 
1 1:0.31309058 2:0.6194995 3:0.79133274 4:0.81895756 5:0.054642133 6:0.88688347 
1 1:0.57027189 2:0.74229871 3:0.47780396 4:0.58546127 5:0.45170779 6:0.19606719 
1 1:0.86683814 2:0.23292714 3:0.42300761 4:0.57775971 5:0.39951432 6:0.15301956 
1 1:0.64297189 2:0.16695135 3:0.63786545 4:0.77173608 5:0.15601526 6:0.90678634 
1 1:0.19884182 2:0.53431906 3:0.77192786 4:0.9500113 5:0.36991886 6:0.56232151 
1 1:0.65234068 2:0.69043351 3:0.38897339 4:0.44901247 5:0.39934849 6:0.24460675 
1 1:0.11685073 2:0.53712948 3:0.48248133 4:0.19746479 5:0.75056728 6:0.90119348 
1 1:0.84217275 2:0.71382823 3:0.44871049 4:0.60229477 5:0.23344124 6:0.34213637 
1 1:0.63632513 2:0.44988512 3:0.10268058 4:0.85529533 5:0.70870663 6:0.89809908 
1 1:0.37814578 2:0.73445392 3:0.20629526 4:0.43445112 5:0.63255753 6:0.13649373 
0.5281894188360573 1:0.20260641 2:0.68564432 3:0.26308612 4:0.43116827 5:0.29177805 6:0.13034194 
1 1:0.85730716 2:0.51183871 3:0.7487736 4:0.01308523 5:0.61451418 6:0.19032562 
1 1:0.78098195 2:0.16357705 3:0.49314387 4:0.90242761 5:0.29692717 6:0.59523936 
1 1:0.10182848 2:0.4786325 3:0.59017077 4:0.84856241 5:0.53965967 6:0.10525839 
1 1:0.29855463 2:0.5655151 3:0.86504851 4:0.42526907 5:0.37250623 6:0.30504536 
1 1:0.30831557 2:0.68609529 3:0.8358234 4:0.5355245 5:0.59892526 6:0.79406102 
1 1:0.56216755 2:0.76953894 3:0.32062235 4:0.78599971 5:0.89161037 6:0.57225442 
1 1:0.48528102 2:0.71519077 3:0.64405272 4:0.92704351 5:0.085769619 6:0.34391563 
1 1:0.78842739 2:0.6327478 3:0.77645427 4:0.48384172 5:0.58909544 6:0.92880998 
1 1:0.17658131 2:0.59184751 3:0.26732176 4:0.43872901 5:0.3016484 6:0.44999629 
1 1:0.37386602 2:0.81267863 3:0.32142612 4:0.44543761 5:0.78311411 6:0.5003888 
1 1:0.20705386 2:0.28270054 3:0.75868199 4:0.0968008 5:0.3545758 6:0.53225798 
1 1:0.21771695 2:0.2475589 3:0.33176663 4:0.72282146 5:0.3093327 6:0.10605987 
1 1:0.81512922 2:0.27168983 3:0.74300844 4:0.20796011 5:0.64747659 6:0.6650277 
0.1109971336590245 1:0.53477383 2:0.3099502 3:0.040658903 4:0.49954371 5:0.36880062 6:0.41634003 
1 1:0.63183661 2:0.71947147 3:0.54439469 4:0.86071061 5:0.65445457 6:0.87248316 
1 1:0.5121428 2:0.63873617 3:0.86398779 4:0.13262813 5:0.81700053 6:0.64747337 
1 1:0.5927488 2:0.27041125 3:0.11995398 4:0.23539917 5:0.45285958 6:0.32357503 
1 1:0.81009005 2:0.31400646 3:0.24417511 4:0.93327866 5:0.38863533 6:0.40494846 
1 1:0.480527 2:0.22540607 3:0.18666898 4:0.68059884 5:0.46659875 6:0.25178823 
1 1:0.3919065 2:0.11156905 3:0.5460245 4:0.5308966 5:0.62362328 6:0.78830846 
1 1:0.67029011 2:0.829387 3:0.52472741 4:0.67585897 5:0.53934419 6:0.69955975 
1 1:0.45577329 2:0.13153041 3:0.59213947 4:0.015009882 5:0.56832186 6:0.048612884 
1 1:0.068340157 2:0.44069771 3:0.66562892 4:0.60157366 5:0.55896794 6:0.22603112 
1 1:0.4547738 2:0.55211292 3:0.91096683 4:0.41151523 5:0.22478689 6:0.067940201 
1 1:0.15519316 2:0.50277762 3:0.78906473 4:0.1120596 5:0.31151291 6:0.28084644 
1 1:0.18691852 2:0.37627518 3:0.24375747 4:0.77853858 5:0.71284641 6:0.024316876 
1 1:0.18256489 2:0.66398563 3:0.54932687 4:0.2989197 5:0.58853594 6:0.93125971 
1 1:0.31158193 2:0.79138608 3:0.58124637 4:0.1883907 5:0.28155519 6:0.5779819 
1 1:0.31122621 2:0.58106078 3:0.77882202 4:0.96652271 5:0.15971035 6:0.94343807 
1 1:0.59496703 2:0.20121826 3:0.30916307 4:0.41169128 5:0.51654448 6:0.1547595 
0.185205120087672 1:0.42859713 2:0.19569141 3:0.19735866 4:0.8427016 5:0.26023381 6:0.14501932 
1 1:0.47044931 2:0.78412267 3:0.442199 4:0.82140622 5:0.6551693 6:0.44814967 
1 1:0.30634374 2:0.26380602 3:0.14968947 4:0.6358022 5:0.56831088 6:0.096432223 
1 1:0.37295342 2:0.62504364 3:0.88909694 4:0.96222405 5:0.47155276 6:0.46146158 
1 1:0.38326315 2:0.086136078 3:0.62699696 4:0.66123992 5:0.46454888 6:0.18134302 
1 1:0.48645995 2:0.1922758 3:0.68185659 4:0.076015214 5:0.41805285 6:0.42797966 
1 1:0.50142485 2:0.75304061 3:0.72180692 4:0.81542812 5:0.033217081 6:0.65672459 
1 1:0.42916068 2:0.18759402 3:0.61856309 4:0.63092387 5:0.50334456 6:0.67919972 
1 1:0.27192012 2:0.28532435 3:0.4039884 4:0.73891157 5:0.35075633 6:0.33581808 
1 1:0.26852926 2:0.65170723 3:0.20857216 4:0.68846301 5:0.93711092 6:0.51500179 
1 1:0.71619822 2:0.55468964 3:0.69523001 4:0.96215616 5:0.50916586 6:0.47830808 
0.275835720633627 1:0.055603642 2:0.55864861 3:0.56665669 4:0.15054158 5:0.54264585 6:0.06284285 
1 1:0.32377221 2:0.20193893 3:0.33156856 4:0.80295253 5:0.052703764 6:0.33919639 
1 1:0.64244961 2:0.45715294 3:0.21755858 4:0.21804606 5:0.22665663 6:0.94531779 
1 1:0.23238283 2:0.57601038 3:0.27282334 4:0.11079887 5:0.36610777 6:0.68738333 
1 1:0.89494304 2:0.60962877 3:0.43978046 4:0.43200799 5:0.11184402 6:0.83226915 
1 1:0.71301842 2:0.15788679 3:0.47890083 4:0.17314626 5:0.2430493 6:0.12084472 
1 1:0.81338838 2:0.24925273 3:0.66561891 4:0.68809189 5:0.49708177 6:0.48112072 
1 1:0.45970031 2:0.13462042 3:0.65004965 4:0.3542925 5:0.53876491 6:0.30501615 
1 1:0.58160208 2:0.78369066 3:0.48437272 4:0.23953703 5:0.90279599 6:0.5717618 
1 1:0.47617532 2:0.23782584 3:0.35165049 4:0.97590194 5:0.90927207 6:0.074877257 
1 1:0.4984226 2:0.30239613 3:0.84969249 4:0.81139737 5:0.49455553 6:0.68636796 
1 1:0.45923065 2:0.42579041 3:0.03523916 4:0.34498615 5:0.59783159 6:0.76939584 
1 1:0.67933117 2:0.60165312 3:0.24455275 4:0.78737179 5:0.80558291 6:0.70811218 
1 1:0.87681066 2:0.34971785 3:0.56796779 4:0.72647493 5:0.30855114 6:0.46231399 
1 1:0.75321939 2:0.40478865 3:0.19160507 4:0.57538632 5:0.24666082 6:0.78237877 
1 1:0.85187311 2:0.33612757 3:0.21610331 4:0.2897451 5:0.40510317 6:0.4088613 
1 1:0.18017673 2:0.31006178 3:0.57440946 4:0.42491062 5:0.83829273 6:0.86583431 
1 1:0.32746706 2:0.22256736 3:0.71164781 4:0.90625647 5:0.29514384 6:0.82124352 
1 1:0.63868536 2:0.77697992 3:0.51134596 4:0.089935833 5:0.47800572 6:0.074945299 
1 1:0.11087375 2:0.28516401 3:0.51619906 4:0.49809715 5:0.64636592 6:0.32535945 
1 1:0.54257659 2:0.37861018 3:0.11129997 4:0.4751995 5:0.96167898 6:0.66662333 
1 1:0.24186452 2:0.72860431 3:0.55313294 4:0.80244733 5:0.49993019 6:0.1498247 
1 1:0.62279136 2:0.19336702 3:0.48077509 4:0.41900418 5:0.44660999 6:0.15174476 
1 1:0.49700613 2:0.44185503 3:0.052449892 4:0.7574128 5:0.18631941 6:0.80971528 
1 1:0.68497283 2:0.14776541 3:0.26678237 4:0.4539437 5:0.40433802 6:0.28855622 
1 1:0.47044392 2:0.20855506 3:0.34438356 4:0.36796336 5:0.56783496 6:0.65096402 
1 1:0.34338391 2:0.1529913 3:0.48678242 4:0.28057346 5:0.66781296 6:0.31387398 
1 1:0.63212776 2:0.51951206 3:0.94946195 4:0.26534952 5:0.58756317 6:0.49414048 
1 1:0.42346336 2:0.79013878 3:0.61877876 4:0.87574077 5:0.29828896 6:0.19831156 
1 1:0.7029245 2:0.60837819 3:0.32726556 4:0.49371018 5:0.35720422 6:0.30004197 
1 1:0.19801245 2:0.65152875 3:0.51526466 4:0.84044938 5:0.65204596 6:0.43971079 
1 1:0.52153884 2:0.70444063 3:0.82801483 4:0.14074324 5:0.67450044 6:0.84370514 
1 1:0.34600956 2:0.16328789 3:0.70416821 4:0.64064172 5:0.43279494 6:0.83560631 
1 1:0.76256233 2:0.63133945 3:0.81404684 4:0.77443333 5:0.41128943 6:0.73634097 
1 1:0.75681991 2:0.40699273 3:0.13460708 4:0.13085462 5:0.38589948 6:0.16550317 
1 1:0.46962723 2:0.65516623 3:0.19340378 4:0.22389627 5:0.94317543 6:0.73043274 
1 1:0.51584154 2:0.64798615 3:0.84745042 4:0.034034797 5:0.28924634 6:0.83974386 
1 1:0.88152297 2:0.52130919 3:0.44093942 4:0.44068648 5:0.73806298 6:0.46345016 
1 1:0.84402556 2:0.67758757 3:0.33686288 4:0.84338948 5:0.36186574 6:0.13321172 
1 1:0.67410579 2:0.78973397 3:0.60545886 4:0.44489135 5:0.58833484 6:0.285199 
1 1:0.13161147 2:0.51484076 3:0.77609743 4:0.92476805 5:0.50708652 6:0.4042642 
1 1:0.29778173 2:0.24276325 3:0.7788653 4:0.54666989 5:0.58568482 6:0.47436367 
1 1:0.35951753 2:0.16424809 3:0.23349512 4:0.34948445 5:0.31815939 6:0.59561004 
1 1:0.64564398 2:0.1389163 3:0.70579507 4:0.49150823 5:0.38464514 6:0.80158262 
1 1:0.69183795 2:0.1241244 3:0.62622577 4:0.22432592 5:0.44493322 6:0.32684342 
1 1:0.17923437 2:0.2835096 3:0.3326973 4:0.67989091 5:0.60097408 6:0.49965524 
1 1:0.60160576 2:0.40602942 3:0.94049443 4:0.2346245 5:0.44661296 6:0.25356868 
1 1:0.36584313 2:0.66564854 3:0.19592747 4:0.28003707 5:0.36974645 6:0.017798655 
1 1:0.3234032 2:0.72708707 3:0.41450328 4:0.78188038 5:0.66981908 6:0.8149435 
0.05675911895154304 1:0.2300651 2:0.19521341 3:0.37207018 4:0.94562987 5:0.61287869 6:0.092105541 
1 1:0.22805235 2:0.57564791 3:0.74866623 4:0.80247064 5:0.79686958 6:0.45412749 
1 1:0.3146069 2:0.6669407 3:0.42039814 4:0.24181289 5:0.60213261 6:0.76405514 
1 1:0.18117839 2:0.73016893 3:0.5109821 4:0.56720676 5:0.54813115 6:0.56538759 
1 1:0.56252904 2:0.10552783 3:0.60241912 4:0.010816521 5:0.65016356 6:0.08242262 
1 1:0.85932047 2:0.37976548 3:0.56126477 4:0.36143479 5:0.42680787 6:0.28309671 
1 1:0.49500716 2:0.17560703 3:0.49703795 4:0.047353964 5:0.77525117 6:0.64450526 
1 1:0.49126444 2:0.86174203 3:0.51831264 4:0.72383869 5:0.27798984 6:0.67925844 
1 1:0.61879733 2:0.78751361 3:0.52711528 4:0.21578661 5:0.5131349 6:0.79837937 
1 1:0.20329777 2:0.61048665 3:0.63882449 4:0.22421293 5:0.25330378 6:0.19628702 
0.02784663165948287 1:0.67486747 2:0.80293161 3:0.52795686 4:0.77850759 5:0.08785062 6:0.74464075 
1 1:0.36889479 2:0.35110126 3:0.83410939 4:0.96397315 5:0.39065574 6:0.53435657 
1 1:0.63935358 2:0.26420264 3:0.76426407 4:0.76322209 5:0.63134644 6:0.53891175 
1 1:0.69543377 2:0.38183968 3:0.13146932 4:0.40875776 5:0.3301433 6:0.90177058 
1 1:0.26111789 2:0.77053193 3:0.46433259 4:0.55429862 5:0.54748483 6:0.05110559 
1 1:0.85299302 2:0.3864015 3:0.65236441 4:0.032490865 5:0.80445898 6:0.90803853 
1 1:0.69944805 2:0.39842399 3:0.93576949 4:0.5527224 5:0.48267919 6:0.46964139 
1 1:0.23402573 2:0.20855488 3:0.27743675 4:0.077514816 5:0.43476646 6:0.63263269 
1 1:0.58034269 2:0.2309911 3:0.35688777 4:0.81597977 5:0.62450692 6:0.8934943 
1 1:0.31614949 2:0.4071968 3:0.15245265 4:0.44495409 5:0.25697577 6:0.0002693768 
1 1:0.43684565 2:0.63617672 3:0.8912541 4:0.56858902 5:0.29183701 6:0.52135997 
1 1:0.69049586 2:0.39447923 3:0.8020489 4:0.49400104 5:0.82972827 6:0.72794275 
1 1:0.25364578 2:0.38777144 3:0.293849 4:0.67119527 5:0.63116541 6:0.21785364 
1 1:0.44300717 2:0.74377233 3:0.53208237 4:0.05374225 5:0.78926785 6:0.96727899 
1 1:0.10643317 2:0.61588553 3:0.48428963 4:0.57395798 5:0.63245065 6:0.13838599 
1 1:0.77094191 2:0.21183712 3:0.43150559 4:0.89737417 5:0.58558419 6:0.33497398 
1 1:0.77512658 2:0.60706108 3:0.26461059 4:0.39196014 5:0.53202113 6:0.60586231 
1 1:0.46861201 2:0.79195095 3:0.4064825 4:0.28620063 5:0.52807417 6:0.32116214 
1 1:0.7749725 2:0.71813286 3:0.39854788 4:0.19467033 5:0.59100928 6:0.54068824 
1 1:0.72271864 2:0.55301967 3:0.90298706 4:0.64156989 5:0.56186669 6:0.066448309 
1 1:0.67922749 2:0.78176918 3:0.41392161 4:0.090161368 5:0.31354248 6:0.34730007 
1 1:0.57483436 2:0.42917681 3:0.046119311 4:0.54977351 5:0.7743751 6:0.22905156 
1 1:0.43554597 2:0.19965322 3:0.403713 4:0.9978137 5:0.48643615 6:0.67321056 
1 1:0.88632373 2:0.55601205 3:0.4327634 4:0.12450882 5:0.77481072 6:0.23069061 
1 1:0.2132558 2:0.33911967 3:0.38620645 4:0.91938256 5:0.64654939 6:0.39843338 
1 1:0.49583306 2:0.29768263 3:0.75761324 4:0.32349885 5:0.42541718 6:0.47214309 
1 1:0.75469428 2:0.6554229 3:0.82688168 4:0.46469084 5:0.52372944 6:0.35889082 
1 1:0.1286663 2:0.30859172 3:0.7512859 4:0.43684796 5:0.68233995 6:0.33679389 
1 1:0.15274113 2:0.55628067 3:0.26357598 4:0.65417107 5:0.27168218 6:0.066905969 
1 1:0.56141276 2:0.062322047 3:0.41568225 4:0.47067352 5:0.46582803 6:0.63438553 
1 1:0.83322752 2:0.39878402 3:0.70145561 4:0.72398221 5:0.88328315 6:0.77165953 
1 1:0.67222351 2:0.37805005 3:0.8513082 4:0.34916755 5:0.69016008 6:0.37410835 
1 1:0.46106846 2:0.80017504 3:0.25497536 4:0.27946759 5:0.39056188 6:0.14633827 
1 1:0.18220614 2:0.58497545 3:0.43671394 4:0.54154448 5:0.72852115 6:0.34672247 
1 1:0.4260546 2:0.21566459 3:0.37186297 4:0.63085796 5:0.20507225 6:0.53315511 
1 1:0.66672806 2:0.81527082 3:0.44751382 4:0.36156796 5:0.094080577 6:0.69730648 
1 1:0.1330413 2:0.288608 3:0.39483599 4:0.35040161 5:0.79779965 6:0.33479709 
1 1:0.82965216 2:0.41456924 3:0.37722809 4:0.39549796 5:0.34852595 6:0.91743429 
1 1:0.22590084 2:0.2762812 3:0.53842733 4:0.38188075 5:0.7323992 6:0.72645004 
1 1:0.56866937 2:0.80624527 3:0.67018881 4:0.18983364 5:0.61822439 6:0.66632379 
1 1:0.5432699 2:0.32770569 3:0.073302742 4:0.7336315 5:0.54782133 6:0.33025861 
1 1:0.55890405 2:0.22431562 3:0.86785068 4:0.23813931 5:0.51776989 6:0.81983107 
1 1:0.45805653 2:0.16480368 3:0.36378875 4:0.87394512 5:0.32768095 6:0.074014301 
1 1:0.52725794 2:0.68547885 3:0.26353423 4:0.30956946 5:0.33905822 6:0.40154789 
1 1:0.67072943 2:0.83467304 3:0.41615254 4:0.47618056 5:0.58196497 6:0.18794504 
1 1:0.39272374 2:0.30668508 3:0.81535336 4:0.12446149 5:0.66479252 6:0.37721382 
1 1:0.79158284 2:0.25922989 3:0.44312926 4:0.69558007 5:0.57476361 6:0.98318771 
1 1:0.25404211 2:0.15373827 3:0.58817024 4:0.81394625 5:0.26834123 6:0.39177144 
1 1:0.44755529 2:0.14188091 3:0.73554654 4:0.33087222 5:0.4661624 6:0.69902189 
1 1:0.71038917 2:0.63516756 3:0.78036708 4:0.63167284 5:0.12685212 6:0.8468097 
1 1:0.047540573 2:0.34194079 3:0.45976475 4:0.2307602 5:0.43444742 6:0.7773833 
1 1:0.54610847 2:0.72382471 3:0.41115698 4:0.88814393 5:0.64729192 6:0.72995165 
1 1:0.40794522 2:0.697516 3:0.5750302 4:0.48222756 5:0.42236676 6:0.49508717 
1 1:0.29327461 2:0.71906329 3:0.18610037 4:0.40528948 5:0.56935213 6:0.81272213 
1 1:0.9478865 2:0.45268357 3:0.55434835 4:0.4927115 5:0.44879524 6:0.32616407 
1 1:0.73209957 2:0.72802258 3:0.33787684 4:0.59302464 5:0.37858485 6:0.88029421 
1 1:0.20952049 2:0.68943587 3:0.51713305 4:0.70807717 5:0.85601484 6:0.49231124 
1 1:0.80620788 2:0.40398311 3:0.38494094 4:0.12997826 5:0.67822573 6:0.018755032 
1 1:0.33074449 2:0.16674885 3:0.66130798 4:0.67844854 5:0.57459892 6:0.58290096 
1 1:0.11266072 2:0.41483899 3:0.3786151 4:0.83168738 5:0.62825488 6:0.20713497 
1 1:0.84178285 2:0.23599226 3:0.43554068 4:0.42047828 5:0.56805323 6:0.034464007 
1 1:0.94675151 2:0.5406657 3:0.3640782 4:0.66645603 5:0.56222357 6:0.20021982 
1 1:0.41337507 2:0.26024818 3:0.14439196 4:0.40534866 5:0.74135689 6:0.55361569 
1 1:0.25157842 2:0.60199245 3:0.78543446 4:0.095873388 5:0.34431739 6:0.1361473 
1 1:0.51817157 2:0.78579755 3:0.38259714 4:0.62088284 5:0.3572507 6:0.37532022 
1 1:0.45430732 2:0.16220136 3:0.42815903 4:0.66479909 5:0.52850401 6:0.86533599 
1 1:0.30293666 2:0.4100006 3:0.88046523 4:0.80289454 5:0.64359757 6:0.41700604 
1 1:0.085566762 2:0.47203484 3:0.6470097 4:0.27578821 5:0.49502524 6:0.91104276 
1 1:0.6370398 2:0.69929573 3:0.1603612 4:0.22243506 5:0.48873823 6:0.23052791 
1 1:0.70759261 2:0.22808807 3:0.50998164 4:0.060319732 5:0.52924789 6:0.34499737 
1 1:0.61939329 2:0.15666836 3:0.55687621 4:0.62553723 5:0.52137666 6:0.54214846 
1 1:0.52554695 2:0.44983687 3:0.88944042 4:0.42482859 5:0.48837495 6:0.6548327 
1 1:0.36434356 2:0.43148367 3:0.1445053 4:0.39159798 5:0.60402299 6:0.48698562 
1 1:0.25007339 2:0.24353505 3:0.68219973 4:0.30086701 5:0.11726384 6:0.66994032 
1 1:0.55275987 2:0.70878498 3:0.5362867 4:0.6894508 5:0.63681875 6:0.39543937 
1 1:0.40521465 2:0.19484371 3:0.41005782 4:0.88194531 5:0.38376926 6:0.044232468 
1 1:0.22486814 2:0.31799821 3:0.43179614 4:0.28375695 5:0.23609952 6:0.044982687 
1 1:0.75285894 2:0.33665733 3:0.32723792 4:0.33449862 5:0.48595072 6:0.19186946 
1 1:0.4390068 2:0.7273798 3:0.24863327 4:0.7519074 5:0.44888722 6:0.061575769 
1 1:0.67909274 2:0.3104413 3:0.19504125 4:0.56358919 5:0.1062258 6:0.83491014 
1 1:0.40853773 2:0.69832237 3:0.21929763 4:0.23222888 5:0.84972743 6:0.5732471 
1 1:0.33553812 2:0.64186391 3:0.85941857 4:0.20305187 5:0.27048253 6:0.7376744 
1 1:0.30493066 2:0.17029569 3:0.30376701 4:0.35116201 5:0.42710497 6:0.91852798 
1 1:0.52991142 2:0.79400415 3:0.46985096 4:0.25693827 5:0.46183663 6:0.39750209 
1 1:0.74093136 2:0.63033985 3:0.32417993 4:0.0017706443 5:0.39656134 6:0.82014322 
1 1:0.38112868 2:0.29355425 3:0.14350488 4:0.84702417 5:0.43489434 6:0.98337678 
1 1:0.2619085 2:0.53213431 3:0.74176768 4:0.40101564 5:0.066625796 6:0.64766871 
1 1:0.4613348 2:0.68269819 3:0.52689081 4:0.64167779 5:0.23724721 6:0.18437404 
1 1:0.56203175 2:0.62190964 3:0.84674973 4:0.55672702 5:0.28076902 6:0.24382035 
1 1:0.77492926 2:0.44286618 3:0.65672992 4:0.43067304 5:0.27864991 6:0.26826691 
1 1:0.4277903 2:0.47084979 3:0.87582567 4:0.28569591 5:0.33030435 6:0.30763621 
1 1:0.54042979 2:0.48131814 3:0.10722911 4:0.93145841 5:0.6590315 6:0.89069442 
1 1:0.55518258 2:0.75572003 3:0.65871512 4:0.9851583 5:0.55723814 6:0.7167444 
1 1:0.85404179 2:0.24840494 3:0.3485873 4:0.75231057 5:0.21438139 6:0.55945832 
1 1:0.41658368 2:0.4913535 3:0.050759898 4:0.27528168 5:0.29125391 6:0.60063463 
1 1:0.30277621 2:0.16905119 3:0.52214908 4:0.55194488 5:0.86633949 6:0.29558347 
1 1:0.46808633 2:0.69900684 3:0.35923483 4:0.34024695 5:0.43527511 6:0.35161875 
1 1:0.67119088 2:0.25646488 3:0.38770101 4:0.97851115 5:0.29561514 6:0.085887557 
1 1:0.90218949 2:0.47589045 3:0.58759987 4:0.23649459 5:0.39841215 6:0.13443883 
1 1:0.76070094 2:0.26336589 3:0.51022098 4:0.842872 5:0.14190417 6:0.34934881 
1 1:0.59732297 2:0.13647171 3:0.68509393 4:0.21425644 5:0.69091871 6:0.75498916 
1 1:0.74434683 2:0.69925351 3:0.19016351 4:0.60774364 5:0.63994614 6:0.59097479 
1 1:0.19718177 2:0.63210746 3:0.68420277 4:0.19149163 5:0.58767422 6:0.83557036 
1 1:0.70152287 2:0.81401588 3:0.47678257 4:0.35725249 5:0.72249608 6:0.46289332 
1 1:0.65615024 2:0.78748235 3:0.48337393 4:0.11622355 5:0.24115283 6:0.35606948 
1 1:0.23150194 2:0.63868734 3:0.77420423 4:0.82511641 5:0.53124295 6:0.63932236 
1 1:0.86285118 2:0.61129998 3:0.23802768 4:0.12020952 5:0.40624412 6:0.50661747 
1 1:0.72002491 2:0.33563804 3:0.15987006 4:0.82835558 5:0.49423928 6:0.76755291 
1 1:0.11263943 2:0.59091598 3:0.58737301 4:0.46495858 5:0.52659137 6:0.18088056 
1 1:0.71537651 2:0.26698329 3:0.16225428 4:0.38686895 5:0.5314311 6:0.52133339 
1 1:0.16990484 2:0.24039521 3:0.71561313 4:0.43040807 5:0.57008013 6:0.77031139 
1 1:0.51260405 2:0.15133424 3:0.41357763 4:0.42977782 5:0.32939482 6:0.57596523 
1 1:0.36368442 2:0.1845165 3:0.33058438 4:0.073282276 5:0.63476176 6:0.40450459 
1 1:0.4267888 2:0.25768059 3:0.28854326 4:0.8245542 5:0.22184966 6:0.35068953 
1 1:0.50767417 2:0.18125872 3:0.5586224 4:0.61855135 5:0.25391451 6:0.83670474 
1 1:0.29593744 2:0.73399812 3:0.49078226 4:0.73128299 5:0.23777992 6:0.16793389 
1 1:0.81805429 2:0.26418439 3:0.44218289 4:0.88450597 5:0.88145017 6:0.069792643 
1 1:0.23818516 2:0.17286097 3:0.40534945 4:0.3288373 5:0.35475426 6:0.45052736 
1 1:0.42983745 2:0.11420153 3:0.42226889 4:0.68114255 5:0.67486787 6:0.97078938 
1 1:0.38271762 2:0.82454064 3:0.41809809 4:0.13587988 5:0.43568102 6:0.95030609 
1 1:0.38284909 2:0.33988504 3:0.80813924 4:0.78856572 5:0.28896011 6:0.55775159 
1 1:0.21725512 2:0.17948905 3:0.41801758 4:0.25319106 5:0.28758102 6:0.62772066 
1 1:0.42659307 2:0.75363718 3:0.63533991 4:0.92282229 5:0.28037485 6:0.69583397 
1 1:0.54778771 2:0.19671571 3:0.33237272 4:0.98756713 5:0.46380087 6:0.38590609 
1 1:0.58956848 2:0.24294087 3:0.75653639 4:0.72163982 5:0.29117073 6:0.47544514 
1 1:0.3348862 2:0.15899904 3:0.69171354 4:0.48040491 5:0.25254437 6:0.87727872 
1 1:0.66854503 2:0.20351144 3:0.40689781 4:0.2000691 5:0.37206586 6:0.089865682 
1 1:0.71539588 2:0.17379667 3:0.52334761 4:0.21671844 5:0.87814582 6:0.35253511 
1 1:0.5791135 2:0.32519051 3:0.16538549 4:0.18272302 5:0.68765236 6:0.17519142 
1 1:0.68299241 2:0.12368761 3:0.38502632 4:0.2154168 5:0.34591987 6:0.061464259 
1 1:0.44159254 2:0.17699635 3:0.27366178 4:0.85073946 5:0.36200262 6:0.91161625 
1 1:0.10286082 2:0.38958799 3:0.78018772 4:0.27409848 5:0.52692906 6:0.50288099 
1 1:0.5155754 2:0.81152432 3:0.45256218 4:0.61405615 5:0.3089331 6:0.34104322 
1 1:0.51360085 2:0.74206402 3:0.78784082 4:0.42813339 5:0.72005271 6:0.55818241 
1 1:0.41506874 2:0.75137677 3:0.73518015 4:0.99823566 5:0.45362252 6:0.5320194 
1 1:0.67539743 2:0.47717111 3:0.075545079 4:0.57048373 5:0.40736333 6:0.40287166 
1 1:0.16565005 2:0.21074111 3:0.56395795 4:0.24985474 5:0.27391481 6:0.49769331 
1 1:0.66398699 2:0.57603995 3:0.79432921 4:0.49006397 5:0.69295107 6:0.1916745 
1 1:0.45478933 2:0.75205213 3:0.83105269 4:0.63953222 5:0.37555119 6:0.53538476 
1 1:0.56418674 2:0.72173843 3:0.8431043 4:0.38020533 5:0.72168751 6:0.77541999 
1 1:0.65003007 2:0.7321196 3:0.63888091 4:0.30948332 5:0.48814617 6:0.050798436 
1 1:0.88929949 2:0.37250571 3:0.67625386 4:0.029158803 5:0.46942071 6:0.83008281 
1 1:0.45835902 2:0.75991283 3:0.38293549 4:0.80968222 5:0.75894321 6:0.23801405 
1 1:0.3537439 2:0.67378025 3:0.3837878 4:0.056989214 5:0.69621127 6:0.98725334 
1 1:0.59990595 2:0.50436665 3:0.085821341 4:0.6858669 5:0.58562688 6:0.90358298 
1 1:0.74383506 2:0.65828662 3:0.76299285 4:0.61809081 5:0.10513234 6:0.13228559 
1 1:0.53565705 2:0.55770708 3:0.10612327 4:0.66836519 5:0.17737281 6:0.26507161 
1 1:0.50777347 2:0.1633826 3:0.66426943 4:0.81998676 5:0.43998355 6:0.5230142 
1 1:0.68379829 2:0.74945583 3:0.40749882 4:0.4124843 5:0.34480065 6:0.88768617 
1 1:0.6091365 2:0.65650796 3:0.13617912 4:0.72865471 5:0.725469 6:0.80224335 
1 1:0.16507789 2:0.48291888 3:0.19046931 4:0.57566309 5:0.52839171 6:0.4246936 
1 1:0.81045192 2:0.22732995 3:0.47018876 4:0.68519339 5:0.44523959 6:0.11975594 
1 1:0.59065989 2:0.18160084 3:0.72476826 4:0.14992788 5:0.22658573 6:0.79117751 
1 1:0.74406013 2:0.72448335 3:0.70066812 4:0.36575829 5:0.74867564 6:0.4655567 
1 1:0.46832205 2:0.49322044 3:0.97305015 4:0.52366967 5:0.46468892 6:0.079676167 
1 1:0.83076855 2:0.49889505 3:0.47175285 4:0.8143253 5:0.77207586 6:0.56094569 
1 1:0.73108112 2:0.67373413 3:0.83646591 4:0.44471747 5:0.69799002 6:0.39691112 
1 1:0.31514042 2:0.76550581 3:0.34577267 4:0.79374153 5:0.33716315 6:0.6712399 
1 1:0.34193142 2:0.51099899 3:0.077603212 4:0.72084174 5:0.32831537 6:0.32714724 
1 1:0.40542275 2:0.81195889 3:0.50431732 4:0.9288597 5:0.52215088 6:0.21083791 
1 1:0.66044238 2:0.23589755 3:0.5595399 4:0.3695564 5:0.91012797 6:0.53766885 
1 1:0.14714909 2:0.51686113 3:0.76666309 4:0.28790155 5:0.32741561 6:0.11383854 
1 1:0.84793182 2:0.49905161 3:0.70565813 4:0.625284 5:0.51658018 6:0.45430831 
1 1:0.73253782 2:0.6650729 3:0.18804623 4:0.34711322 5:0.36463177 6:0.91646834 
1 1:0.21499232 2:0.38240147 3:0.2450387 4:0.62717407 5:0.75272248 6:0.034029254 
1 1:0.16806543 2:0.6242047 3:0.52633933 4:0.084662169 5:0.48800413 6:0.96590747 
1 1:0.34544912 2:0.73695408 3:0.74052913 4:0.7185306 5:0.83065802 6:0.91276902 
1 1:0.6462395 2:0.33755286 3:0.86302492 4:0.40144272 5:0.53365317 6:0.51880948 
1 1:0.3535386 2:0.34260835 3:0.89099855 4:0.77533075 5:0.54742201 6:0.11515023 
1 1:0.40092888 2:0.71097503 3:0.39928602 4:0.98766193 5:0.09583728 6:0.71058883 
1 1:0.38144628 2:0.3232193 3:0.86513682 4:0.038023637 5:0.49856312 6:0.22954611 
1 1:0.34144473 2:0.56820429 3:0.18169914 4:0.064099345 5:0.44667789 6:0.70856444 
1 1:0.18815515 2:0.4083896 3:0.656264 4:0.3054339 5:0.75066923 6:0.56093065 
1 1:0.39156428 2:0.69175636 3:0.18446937 4:0.94342443 5:0.75050346 6:0.52877536 
1 1:0.97203723 2:0.41099692 3:0.59137624 4:0.69689836 5:0.65857996 6:0.21313994 
1 1:0.93796325 2:0.28815136 3:0.53590115 4:0.45362227 5:0.52444005 6:0.63788389 
1 1:0.58555745 2:0.13024663 3:0.60135846 4:0.66982943 5:0.60654381 6:0.76051933 
1 1:0.53278163 2:0.24352143 3:0.71416825 4:0.39412967 5:0.69101211 6:0.10477732 
1 1:0.70037122 2:0.21352497 3:0.69883721 4:0.33283287 5:0.27010519 6:0.25846686 
1 1:0.57446566 2:0.08832859 3:0.3947064 4:0.41113304 5:0.39376747 6:0.046849374 
1 1:0.73361146 2:0.70313545 3:0.68587976 4:0.5281256 5:0.13402489 6:0.66359607 
1 1:0.51128619 2:0.73166652 3:0.63950704 4:0.039523811 5:0.44203061 6:0.24824429 
1 1:0.41651044 2:0.16307248 3:0.70854905 4:0.11087299 5:0.18063253 6:0.48530144 
1 1:0.39672956 2:0.66017225 3:0.27909838 4:0.62452189 5:0.62151282 6:0.081832839 
1 1:0.14136867 2:0.63417109 3:0.49121504 4:0.33252468 5:0.21062482 6:0.59521452 
1 1:0.97532108 2:0.54106167 3:0.58473482 4:0.66533904 5:0.35493325 6:0.30975823 
1 1:0.50252546 2:0.31561952 3:0.22419409 4:0.42115199 5:0.34017535 6:0.092816007 
1 1:0.34218446 2:0.1753071 3:0.4710055 4:0.58468068 5:0.32341534 6:0.7190514 
1 1:0.25250881 2:0.72140908 3:0.50569004 4:0.20801756 5:0.58926639 6:0.20139744 
1 1:0.21892719 2:0.58246226 3:0.36738035 4:0.16572147 5:0.68794381 6:0.32646584 
1 1:0.66380092 2:0.19049684 3:0.32978554 4:0.3231469 5:0.19557456 6:0.89208195 
1 1:0.60609298 2:0.29938385 3:0.09688472 4:0.69108403 5:0.19403349 6:0.30134641 
1 1:0.26778853 2:0.1700917 3:0.52744576 4:0.13962609 5:0.40607687 6:0.59543467 
1 1:0.91757453 2:0.66690806 3:0.45458019 4:0.46475414 5:0.29759942 6:0.55731686 
1 1:0.19582679 2:0.20807024 3:0.6478388 4:0.71704271 5:0.62132436 6:0.31538121 
1 1:0.79703957 2:0.53684973 3:0.17600861 4:0.54170392 5:0.69924708 6:0.17711927 
1 1:0.33433296 2:0.76967033 3:0.62286017 4:0.69587732 5:0.47383805 6:0.61474601 
1 1:0.9833871 2:0.48578405 3:0.44176167 4:0.67783732 5:0.41081387 6:0.60043444 
1 1:0.64472519 2:0.66773567 3:0.75011894 4:0.98852669 5:0.47049385 6:0.60257286 
1 1:0.38767096 2:0.81072505 3:0.49508268 4:0.41189899 5:0.4905585 6:0.022359991 
1 1:0.4506283 2:0.49987081 3:0.081859532 4:0.73627284 5:0.19173223 6:0.97824307 
1 1:0.40480717 2:0.09194945 3:0.65297749 4:0.57953775 5:0.3567813 6:0.69417652 
1 1:0.86293411 2:0.63471921 3:0.58567333 4:0.17220744 5:0.88834908 6:0.48765781 
1 1:0.59681935 2:0.61946468 3:0.90559295 4:0.67773478 5:0.37689513 6:0.38310081 
1 1:0.1473466 2:0.39332092 3:0.2396543 4:0.66539286 5:0.84855177 6:0.55301274 
1 1:0.66755132 2:0.26665408 3:0.3384057 4:0.65668946 5:0.71046984 6:0.74492255 
1 1:0.57633767 2:0.75008844 3:0.36690611 4:0.95447118 5:0.5816245 6:0.81734786 
1 1:0.328972 2:0.61963708 3:0.83587462 4:0.0079194074 5:0.47665172 6:0.37142917 
1 1:0.65234951 2:0.76175126 3:0.57834036 4:0.084008254 5:0.59105071 6:0.90100285 
1 1:0.81089801 2:0.23998696 3:0.66767793 4:0.63987201 5:0.33845353 6:0.96857588 
1 1:0.44415132 2:0.23696826 3:0.82134093 4:0.54193364 5:0.35992053 6:0.13969565 
1 1:0.78970297 2:0.45258127 3:0.14852275 4:0.50863951 5:0.44413803 6:0.34289715 
1 1:0.58555726 2:0.68198935 3:0.14446581 4:0.30217185 5:0.66539506 6:0.64478027 
1 1:0.79760542 2:0.56639435 3:0.19926938 4:0.35796338 5:0.3812908 6:0.0045023041 
1 1:0.93909809 2:0.51057269 3:0.27391956 4:0.58108297 5:0.39185421 6:0.61217896 
1 1:0.74714283 2:0.33872437 3:0.21017325 4:0.28374835 5:0.094269202 6:0.17580962 
1 1:0.6548793 2:0.8442621 3:0.49223709 4:0.71103281 5:0.56464839 6:0.61136132 
1 1:0.8818492 2:0.4323221 3:0.57290963 4:0.4796404 5:0.32017279 6:0.98988927 
1 1:0.91072033 2:0.56619232 3:0.34730636 4:0.61813832 5:0.46457062 6:0.76318294 
1 1:0.25335125 2:0.6926007 3:0.74202451 4:0.47375005 5:0.47767762 6:0.24443654 
1 1:0.72882905 2:0.69165932 3:0.4783643 4:0.41707787 5:0.60831027 6:0.22006209 
1 1:0.29869676 2:0.181104 3:0.21924023 4:0.30917121 5:0.44258095 6:0.32333861 
1 1:0.50478255 2:0.82354514 3:0.59971211 4:0.88876604 5:0.52938919 6:0.83213314 
1 1:0.7625784 2:0.69872395 3:0.69466261 4:0.70118654 5:0.54226005 6:0.9044087 
1 1:0.80299467 2:0.19875756 3:0.60270598 4:0.19810417 5:0.45146063 6:0.58661085 
1 1:0.48578144 2:0.14096812 3:0.390612 4:0.11802452 5:0.34715209 6:0.48851847 
1 1:0.51824596 2:0.44638043 3:0.065564818 4:0.22621838 5:0.85795938 6:0.30727476 
1 1:0.56475195 2:0.84456186 3:0.36478207 4:0.23852419 5:0.31730825 6:0.70860765 
1 1:0.64268979 2:0.66427739 3:0.46346727 4:0.60544293 5:0.39830233 6:0.034067901 
1 1:0.45292672 2:0.38397177 3:0.89821042 4:0.27790982 5:0.65401752 6:0.097423682 
1 1:0.2217315 2:0.30634985 3:0.34726457 4:0.40236352 5:0.57138742 6:0.92547896 
1 1:0.20244237 2:0.58619721 3:0.37172358 4:0.41829635 5:0.50254886 6:0.88918167 
1 1:0.2935896 2:0.70710088 3:0.21459999 4:0.42866463 5:0.71932092 6:0.42610871 
1 1:0.26530047 2:0.46542744 3:0.22953491 4:0.95176068 5:0.52710324 6:0.24842924 
1 1:0.38269666 2:0.22401867 3:0.75044158 4:0.82854085 5:0.60411699 6:0.57476661 
1 1:0.57620446 2:0.71626846 3:0.32160621 4:0.69042866 5:0.4395629 6:0.33311594 
1 1:0.53016099 2:0.71894806 3:0.21419575 4:0.75263457 5:0.28915732 6:0.99402051 
1 1:0.17867862 2:0.59970744 3:0.43585336 4:0.39246659 5:0.58918709 6:0.25860373 
1 1:0.31196479 2:0.60911809 3:0.80068986 4:0.29837892 5:0.75483958 6:0.052992616 
1 1:0.89525273 2:0.53065697 3:0.27322169 4:0.59582304 5:0.73205133 6:0.56570978 
1 1:0.93747145 2:0.47200486 3:0.29506728 4:0.48739919 5:0.44482069 6:0.66250885 
1 1:0.77155199 2:0.67062429 3:0.79282936 4:0.27511682 5:0.69012568 6:0.2576354 
1 1:0.099103216 2:0.41437914 3:0.60440942 4:0.45522463 5:0.78974194 6:0.86257716 
1 1:0.9157899 2:0.36966488 3:0.66797074 4:0.18082824 5:0.46101873 6:0.56554227 
0.7485200306636072 1:0.82473803 2:0.35162859 3:0.81138226 4:0.97006264 5:0.60089226 6:0.43192115 
1 1:0.78523374 2:0.23055265 3:0.71851233 4:0.53962021 5:0.57199535 6:0.012494884 
1 1:0.58763766 2:0.2562064 3:0.59174237 4:0.79152905 5:0.79305846 6:0.90774091 
1 1:0.44147652 2:0.42185308 3:0.96518758 4:0.29103485 5:0.66842033 6:0.8030032 
1 1:0.74997756 2:0.32694956 3:0.21947583 4:0.34794094 5:0.60452844 6:0.054026279 
1 1:0.13504686 2:0.30701798 3:0.64775038 4:0.648718 5:0.75011324 6:0.3547522 
1 1:0.21513653 2:0.25464063 3:0.79252799 4:0.35614771 5:0.51216663 6:0.36178745 
1 1:0.35003513 2:0.60527303 3:0.21145175 4:0.94414803 5:0.43186448 6:0.020278301 
1 1:0.80644467 2:0.34096507 3:0.82029504 4:0.81446464 5:0.61467006 6:0.42747617 
1 1:0.68889626 2:0.57177749 3:0.87524216 4:0.49272972 5:0.32047215 6:0.91051529 
1 1:0.093445251 2:0.46128097 3:0.73637127 4:0.69224876 5:0.55382365 6:0.48054863 
1 1:0.67895689 2:0.20022011 3:0.32136031 4:0.31026573 5:0.22825577 6:0.87370849 
1 1:0.74044834 2:0.35428396 3:0.89407738 4:0.38987497 5:0.57245796 6:0.35410432 
1 1:0.36298489 2:0.24302064 3:0.76852174 4:0.59404282 5:0.51078754 6:0.81108446 
1 1:0.77582524 2:0.62988694 3:0.70306151 4:0.46533697 5:0.60570886 6:0.38477463 
1 1:0.28269767 2:0.17913626 3:0.2172672 4:0.25910655 5:0.42694366 6:0.4278154 
1 1:0.8092274 2:0.43287714 3:0.7805245 4:0.010243482 5:0.68897485 6:0.59868542 
0.2753794949110206 1:0.98990601 2:0.42523232 3:0.59336051 4:0.54773271 5:0.54599394 6:0.46390183 
1 1:0.87493115 2:0.45398857 3:0.24728826 4:0.056725156 5:0.5275455 6:0.6176752 
1 1:0.58527412 2:0.13957755 3:0.71452243 4:0.72684225 5:0.65108033 6:0.48718257 
1 1:0.097454637 2:0.32874114 3:0.46869642 4:0.38962661 5:0.23086241 6:0.98528964 
1 1:0.48106054 2:0.14205445 3:0.28707251 4:0.29143435 5:0.31565733 6:0.80344654 
1 1:0.73683347 2:0.27905304 3:0.62470878 4:0.26057546 5:0.76571397 6:0.56271065 
1 1:0.73239069 2:0.6140854 3:0.71550522 4:0.90924475 5:0.41990307 6:0.19423182 
1 1:0.66202608 2:0.28052121 3:0.2095188 4:0.8072086 5:0.40382436 6:0.19622677 
1 1:0.16921751 2:0.28899487 3:0.39335672 4:0.82641444 5:0.67099624 6:0.046497366 
1 1:0.20070165 2:0.26816549 3:0.70243373 4:0.84327753 5:0.40908426 6:0.48977199 
1 1:0.53246168 2:0.11286449 3:0.55543638 4:0.20789288 5:0.51542515 6:0.88314585 
1 1:0.37225679 2:0.54585384 3:0.89945552 4:0.083665441 5:0.93883316 6:0.41267788 
1 1:0.81599849 2:0.6726762 3:0.52913742 4:0.68290301 5:0.92236869 6:0.30772436 
1 1:0.13582905 2:0.47080956 3:0.6856048 4:0.041547549 5:0.33854354 6:0.61235412 
1 1:0.60296583 2:0.64973963 3:0.82788213 4:0.47274027 5:0.88250891 6:0.89482487 
1 1:0.22137261 2:0.30996824 3:0.54644004 4:0.38125949 5:0.80810483 6:0.5188302 
1 1:0.17604356 2:0.26850976 3:0.75052505 4:0.46165252 5:0.58514636 6:0.34155248 
1 1:0.53764721 2:0.81003607 3:0.36119201 4:0.28882511 5:0.71805271 6:0.18235171 
1 1:0.4544648 2:0.81594611 3:0.57712863 4:0.67341216 5:0.6330328 6:0.54731973 
1 1:0.31388198 2:0.71229021 3:0.31436597 4:0.36684909 5:0.88406282 6:0.16902887 
1 1:0.19411272 2:0.7227719 3:0.67423253 4:0.20523478 5:0.51219809 6:0.78356351 
1 1:0.37967146 2:0.69650335 3:0.6316193 4:0.69708133 5:0.52203371 6:0.35793034 
1 1:0.53047927 2:0.67407705 3:0.73898031 4:0.59831673 5:0.74023487 6:0.86674419 
1 1:0.17636866 2:0.23086174 3:0.33157758 4:0.61759887 5:0.41263132 6:0.95371657 
1 1:0.40481204 2:0.7504267 3:0.68700054 4:0.34392127 5:0.49487999 6:0.5886724 
1 1:0.68659376 2:0.59694112 3:0.16703888 4:0.14183731 5:0.19910117 6:0.52615739 
1 1:0.7464023 2:0.23817324 3:0.42633209 4:0.85690526 5:0.40316263 6:0.23252562 
1 1:0.82516011 2:0.60018323 3:0.73007184 4:0.88071977 5:0.54604857 6:0.21757394 
1 1:0.37707733 2:0.58492333 3:0.26329505 4:0.97108087 5:0.34922007 6:0.091304837 
1 1:0.67926156 2:0.33882725 3:0.86810776 4:0.66432774 5:0.094421479 6:0.60388933 
1 1:0.90081356 2:0.5977569 3:0.4757019 4:0.12903083 5:0.14634727 6:0.8134914 
1 1:0.28208651 2:0.23531022 3:0.64141141 4:0.54220835 5:0.50885851 6:0.51734636 
0.3659681815939024 1:0.061703683 2:0.41554928 3:0.60283888 4:0.084571145 5:0.19606749 6:0.42289289 
1 1:0.48153963 2:0.68501001 3:0.74355727 4:0.15182381 5:0.5432245 6:0.44173606 
1 1:0.70051512 2:0.37359689 3:0.089201524 4:0.68856015 5:0.61838022 6:0.5321508 
1 1:0.15626973 2:0.68650347 3:0.44216846 4:0.4046099 5:0.24186513 6:0.30004007 
1 1:0.052013889 2:0.38663954 3:0.63049418 4:0.14810829 5:0.49630273 6:0.58335794 
1 1:0.86590907 2:0.48308805 3:0.20140978 4:0.65270522 5:0.70084497 6:0.34418484 
1 1:0.25090763 2:0.74555878 3:0.52212655 4:0.18952082 5:0.39608972 6:0.28288791 
1 1:0.82952317 2:0.32458999 3:0.25950155 4:0.56978669 5:0.67128557 6:0.092715462 
1 1:0.50606212 2:0.72800991 3:0.55651544 4:0.24608007 5:0.62216297 6:0.62607559 
1 1:0.60781271 2:0.18533257 3:0.34366123 4:0.82843325 5:0.35373222 6:0.65414503 
1 1:0.6370585 2:0.40340045 3:0.8996182 4:0.8222559 5:0.16902974 6:0.63023906 
1 1:0.39079647 2:0.2457134 3:0.52065133 4:0.050988636 5:0.27750332 6:0.33282142 
1 1:0.7660222 2:0.75785099 3:0.6252913 4:0.046243282 5:0.34581813 6:0.31851632 
1 1:0.95466152 2:0.51355712 3:0.55084583 4:0.45901798 5:0.70416314 6:0.2011344 
1 1:0.13465133 2:0.26716862 3:0.43779835 4:0.95604601 5:0.62469562 6:0.25149379 
1 1:0.53345366 2:0.22917985 3:0.80022131 4:0.85073835 5:0.56072324 6:0.35390728 
1 1:0.75685976 2:0.64532309 3:0.74424353 4:0.54772296 5:0.86524464 6:0.75741185 
1 1:0.45878503 2:0.79845779 3:0.27217487 4:0.1241191 5:0.48675408 6:0.87337396 
1 1:0.7173853 2:0.34334947 3:0.72899331 4:0.73527037 5:0.70601431 6:0.54132209 
1 1:0.62493906 2:0.24873107 3:0.21529523 4:0.95047917 5:0.54757258 6:0.28830851 
1 1:0.042658306 2:0.37329665 3:0.40467809 4:0.38126674 5:0.74031787 6:0.3504963 
1 1:0.40795781 2:0.66147688 3:0.18742034 4:0.74494773 5:0.32719496 6:0.54645118 
1 1:0.12863271 2:0.51412649 3:0.75180156 4:0.19382006 5:0.34424706 6:0.20837507 
1 1:0.49836719 2:0.71453748 3:0.5271528 4:0.10323132 5:0.8581164 6:0.67039618 
1 1:0.48968066 2:0.78781784 3:0.53142074 4:0.45026558 5:0.62613169 6:0.032415447 
1 1:0.57002189 2:0.32918414 3:0.12896157 4:0.16699205 5:0.20403393 6:0.85152415 
1 1:0.80026976 2:0.30156031 3:0.27792434 4:0.63269166 5:0.42754812 6:0.82762254 
1 1:0.46533605 2:0.1460182 3:0.59998271 4:0.20639585 5:0.16047979 6:0.92421367 
1 1:0.91844171 2:0.39895362 3:0.6154065 4:0.26082343 5:0.60021465 6:0.48569827 
1 1:0.089913566 2:0.5532753 3:0.67133859 4:0.89814354 5:0.65834947 6:0.43761435 
1 1:0.77738273 2:0.3387041 3:0.81789454 4:0.49161897 5:0.784187 6:0.26467251 
1 1:0.15772047 2:0.32435622 3:0.49374582 4:0.42609342 5:0.68935845 6:0.28684788 
1 1:0.77464218 2:0.78387983 3:0.39523212 4:0.42643852 5:0.65535028 6:0.653351 
1 1:0.37398365 2:0.37973529 3:0.11386894 4:0.66299859 5:0.096780695 6:0.37179399 
1 1:0.15895384 2:0.39118686 3:0.62717319 4:0.62062015 5:0.81037102 6:0.18259254 
1 1:0.23455845 2:0.74915441 3:0.45334084 4:0.77561172 5:0.45792356 6:0.79508354 
1 1:0.40360743 2:0.24844949 3:0.77113266 4:0.88861103 5:0.8818721 6:0.36968078 
1 1:0.40027533 2:0.75668659 3:0.68387283 4:0.58414535 5:0.13436433 6:0.6315429 
1 1:0.77607935 2:0.2247189 3:0.37085636 4:0.97011772 5:0.4433162 6:0.75107372 
1 1:0.65432205 2:0.51778762 3:0.12474996 4:0.3593088 5:0.38458735 6:0.2655915 
1 1:0.68229838 2:0.68149547 3:0.78482019 4:0.74513313 5:0.35172617 6:0.47316025 
1 1:0.48866862 2:0.30789478 3:0.199715 4:0.85932433 5:0.27862839 6:0.4021317 
1 1:0.27123812 2:0.27276531 3:0.84602661 4:0.22617247 5:0.37149925 6:0.60416205 
1 1:0.24434615 2:0.57346492 3:0.45192515 4:0.34962538 5:0.24006552 6:0.3643737 
1 1:0.39401517 2:0.71437636 3:0.27927658 4:0.4253995 5:0.7517074 6:0.40411454 
1 1:0.63617472 2:0.65797454 3:0.79444294 4:0.50632945 5:0.44886586 6:0.83799844 
1 1:0.53344952 2:0.81477597 3:0.59001982 4:0.14078376 5:0.57973209 6:0.61430647 
1 1:0.2881836 2:0.58061597 3:0.15142597 4:0.032073884 5:0.44750878 6:0.82402309 
1 1:0.28987726 2:0.2621392 3:0.84541627 4:0.060318927 5:0.38897175 6:0.45597894 
1 1:0.40247048 2:0.41486697 3:0.099374994 4:0.23428192 5:0.75288132 6:0.0092169827 
1 1:0.77977754 2:0.3783805 3:0.83456218 4:0.45748831 5:0.70324695 6:0.067891157 
1 1:0.69674588 2:0.33472557 3:0.86640357 4:0.39942675 5:0.90190845 6:0.3805109 
1 1:0.67463465 2:0.16202451 3:0.33504004 4:0.12259422 5:0.5812925 6:0.77388864 
1 1:0.21838034 2:0.32363622 3:0.71081138 4:0.44565534 5:0.31760128 6:0.17023703 
1 1:0.80464341 2:0.77492623 3:0.46284846 4:0.82085115 5:0.5446456 6:0.69793247 
1 1:0.67264765 2:0.73978727 3:0.59081819 4:0.30207523 5:0.60013699 6:0.42266933 
1 1:0.51417838 2:0.20182162 3:0.23286865 4:0.16865772 5:0.42459001 6:0.10469002 
1 1:0.7320474 2:0.20311531 3:0.22561272 4:0.68423717 5:0.66271781 6:0.34438875 
1 1:0.54741317 2:0.15335115 3:0.62358307 4:0.78466992 5:0.76842557 6:0.54078869 
1 1:0.7100343 2:0.55782321 3:0.13089415 4:0.6443476 5:0.83362112 6:0.60514509 
1 1:0.46229133 2:0.33574541 3:0.18218825 4:0.62684393 5:0.63838557 6:0.14743766 
1 1:0.22745239 2:0.39078194 3:0.80992988 4:0.25282814 5:0.33867321 6:0.86599325 
1 1:0.19858419 2:0.71317296 3:0.31918844 4:0.74922321 5:0.27223446 6:0.81308993 
1 1:0.36076348 2:0.75051209 3:0.38240381 4:0.64172077 5:0.37572438 6:0.41500691 
1 1:0.86629302 2:0.60770659 3:0.40471906 4:0.46477083 5:0.48913255 6:0.202648 
1 1:0.070729833 2:0.38858242 3:0.60930158 4:0.94024719 5:0.66569976 6:0.46723434 
1 1:0.47430288 2:0.18061274 3:0.24869146 4:0.15696707 5:0.78710497 6:0.16399873 
1 1:0.36235971 2:0.67921572 3:0.56331836 4:0.20378043 5:0.4787174 6:0.55357369 
1 1:0.27903598 2:0.76993656 3:0.60175929 4:0.34423971 5:0.83627299 6:0.70190965 
1 1:0.40796342 2:0.52594512 3:0.93296992 4:0.17771022 5:0.68872603 6:0.0014934194 
1 1:0.23144992 2:0.60201902 3:0.52336817 4:0.32142046 5:0.78192739 6:0.82916577 
1 1:0.54515368 2:0.16007935 3:0.51041833 4:0.82851179 5:0.75785041 6:0.020230581 
1 1:0.55705704 2:0.41105904 3:0.053114558 4:0.70737164 5:0.61399861 6:0.71788627 
1 1:0.11467288 2:0.40591567 3:0.6953077 4:0.69787999 5:0.23812785 6:0.92359094 
1 1:0.52149991 2:0.80304248 3:0.49385892 4:0.25014106 5:0.33303435 6:0.43006946 
1 1:0.72410782 2:0.66709129 3:0.6173975 4:0.25489393 5:0.49339951 6:0.37426214 
1 1:0.59827732 2:0.6466365 3:0.87397653 4:0.58186565 5:0.7130774 6:0.93811928 
1 1:0.7508853 2:0.47741617 3:0.12543562 4:0.47370512 5:0.54523569 6:0.98484724 
1 1:0.33373695 2:0.20850598 3:0.20500232 4:0.39421451 5:0.41054259 6:0.19902434 
1 1:0.60373152 2:0.62731647 3:0.12435919 4:0.42989481 5:0.59562455 6:0.5121698 
1 1:0.42988181 2:0.46652602 3:0.85189327 4:0.59569441 5:0.49281132 6:0.6018508 
1 1:0.41673271 2:0.24260476 3:0.42363914 4:0.91568371 5:0.42800833 6:0.42002423 
1 1:0.36620181 2:0.74832147 3:0.40594462 4:0.50402318 5:0.49289039 6:0.48980307 
1 1:0.5781374 2:0.10451836 3:0.59309873 4:0.11680304 5:0.69415351 6:0.7884606 
1 1:0.28828192 2:0.22695223 3:0.56875887 4:0.87858775 5:0.37260641 6:0.31091207 
1 1:0.36551324 2:0.78200908 3:0.42199067 4:0.45868395 5:0.83128515 6:0.1321771 
1 1:0.51050707 2:0.62457294 3:0.25240735 4:0.49078415 5:0.39645471 6:0.39173882 
1 1:0.24225664 2:0.27902244 3:0.46912669 4:0.57565537 5:0.35597613 6:0.73635817 
1 1:0.34052526 2:0.37928454 3:0.099912245 4:0.66234097 5:0.15591419 6:0.63034477 
1 1:0.57614387 2:0.19877471 3:0.17230686 4:0.58675929 5:0.32140868 6:0.29200306 
1 1:0.65513912 2:0.39591009 3:0.87668168 4:0.26622443 5:0.72654259 6:0.68076373 
1 1:0.38234892 2:0.20818612 3:0.62303683 4:0.13716605 5:0.52755854 6:0.31848437 
1 1:0.65038476 2:0.21487075 3:0.74103641 4:0.9872895 5:0.74835674 6:0.095302177 
1 1:0.29315543 2:0.74214459 3:0.58881035 4:0.59823411 5:0.61649017 6:0.43453901 
1 1:0.5718558 2:0.20838439 3:0.50698174 4:0.53649823 5:0.87640733 6:0.58744854 
1 1:0.77649778 2:0.73704429 3:0.65292856 4:0.71281344 5:0.24176276 6:0.31339309 
1 1:0.79331633 2:0.36091087 3:0.27203128 4:0.59422458 5:0.78491241 6:0.75491366 
1 1:0.51192029 2:0.21078159 3:0.66746035 4:0.14761168 5:0.49661962 6:0.52282053 
1 1:0.3501561 2:0.19254417 3:0.65577274 4:0.73999735 5:0.20613124 6:0.57995523 
1 1:0.72358501 2:0.20692084 3:0.39909397 4:0.74714789 5:0.7708048 6:0.079111476 
1 1:0.81977843 2:0.30999673 3:0.28881536 4:0.13385477 5:0.54393308 6:0.18872832 
1 1:0.87838726 2:0.58398325 3:0.3266705 4:0.71361098 5:0.21427162 6:0.38880041 
1 1:0.59060715 2:0.8310224 3:0.62017583 4:0.61896321 5:0.47950712 6:0.37574645 
1 1:0.92090685 2:0.51058882 3:0.33214513 4:0.3715516 5:0.51812994 6:0.73890418 
1 1:0.63400259 2:0.22300956 3:0.17300924 4:0.81986819 5:0.68632532 6:0.21927341 
1 1:0.47102079 2:0.76116156 3:0.34264206 4:0.67253451 5:0.79677863 6:0.91610864 
1 1:0.16734202 2:0.55104401 3:0.77139714 4:0.41872091 5:0.16557713 6:0.32846349 
1 1:0.57792591 2:0.30219542 3:0.16306262 4:0.63242924 5:0.64239874 6:0.092301533 
1 1:0.73908771 2:0.24487388 3:0.39207872 4:0.43093663 5:0.34640693 6:0.62820514 
1 1:0.52839827 2:0.41152532 3:0.93175225 4:0.70550577 5:0.88558885 6:0.30903345 
1 1:0.81371108 2:0.58910062 3:0.30498078 4:0.6810269 5:0.60069914 6:0.67368101 
1 1:0.52012746 2:0.73266546 3:0.45180435 4:0.07540381 5:0.71148345 6:0.73059442 
1 1:0.79652778 2:0.58618574 3:0.30039243 4:0.58746537 5:0.55114634 6:0.035837334 
1 1:0.53678821 2:0.74057863 3:0.42963858 4:0.40199013 5:0.23540992 6:0.11429616 
1 1:0.45951248 2:0.33800481 3:0.87005284 4:0.82061428 5:0.1274298 6:0.23947627 
1 1:0.90186188 2:0.5101084 3:0.72243824 4:0.22096618 5:0.80244235 6:0.28774378 
1 1:0.7405171 2:0.64370703 3:0.43186494 4:0.88064073 5:0.51506621 6:0.94259466 
1 1:0.5222379 2:0.70491045 3:0.60739634 4:0.98654186 5:0.40225496 6:0.96574748 
1 1:0.60493961 2:0.65557406 3:0.22287023 4:0.32931202 5:0.66432599 6:0.59392159 
1 1:0.19620758 2:0.24588891 3:0.4438155 4:0.25151226 5:0.66968935 6:0.73402264 
1 1:0.3053316 2:0.68237817 3:0.45894074 4:0.23970734 5:0.33512661 6:0.40344951 
1 1:0.10332863 2:0.53634261 3:0.42908693 4:0.66700406 5:0.47780637 6:0.97522654 
1 1:0.23966372 2:0.65462369 3:0.17641205 4:0.22234511 5:0.42402693 6:0.32398183 
1 1:0.58385371 2:0.72475788 3:0.73091437 4:0.15735791 5:0.37830732 6:0.41036044 
1 1:0.75528447 2:0.60100954 3:0.14809445 4:0.56310137 5:0.53300436 6:0.57771368 
1 1:0.43762064 2:0.74984551 3:0.50851641 4:0.78456531 5:0.83812012 6:0.41545516 
1 1:0.54745696 2:0.41841263 3:0.18179678 4:0.44778654 5:0.22332983 6:0.14892062 
1 1:0.52575557 2:0.69955738 3:0.82336015 4:0.81979624 5:0.25128816 6:0.52469527 
1 1:0.62437474 2:0.65415155 3:0.89555921 4:0.4674714 5:0.35692905 6:0.10549403 
1 1:0.88662877 2:0.27188012 3:0.42826936 4:0.067196862 5:0.327704 6:0.31063386 
1 1:0.11043841 2:0.49720253 3:0.73802716 4:0.86650997 5:0.60138068 6:0.69190357 
1 1:0.60162539 2:0.23471933 3:0.53603395 4:0.520037 5:0.52801183 6:0.920793 
1 1:0.72802774 2:0.17461453 3:0.39074304 4:0.27694799 5:0.46549995 6:0.42301912 
1 1:0.57003106 2:0.16957386 3:0.76765171 4:0.88956243 5:0.7656586 6:0.47918162 
1 1:0.78898606 2:0.37632166 3:0.20943168 4:0.44852762 5:0.51227125 6:0.99377769 
1 1:0.31206503 2:0.29137103 3:0.73341431 4:0.70503096 5:0.16310936 6:0.46137119 
1 1:0.43821445 2:0.35493197 3:0.86432215 4:0.15698551 5:0.58641153 6:0.25521075 
1 1:0.37546549 2:0.6332468 3:0.15019541 4:0.6793769 5:0.53482255 6:0.86665664 
1 1:0.2169283 2:0.18156782 3:0.70299663 4:0.66385009 5:0.43842557 6:0.66712001 
1 1:0.56101835 2:0.23281394 3:0.43071227 4:0.57456207 5:0.66054434 6:0.82162039 
1 1:0.90972559 2:0.33291603 3:0.56941388 4:0.81366392 5:0.46350866 6:0.30016626 
1 1:0.18541801 2:0.38829713 3:0.36110971 4:0.33628527 5:0.84698898 6:0.63945788 
1 1:0.89909156 2:0.29435129 3:0.53540782 4:0.92124271 5:0.39804014 6:0.75741636 
1 1:0.61871427 2:0.16037149 3:0.64891995 4:0.46377568 5:0.61870752 6:0.87821279 
1 1:0.46681382 2:0.12062537 3:0.51883499 4:0.5964281 5:0.53841942 6:0.64862963 
1 1:0.15928967 2:0.22067977 3:0.49938096 4:0.34467235 5:0.60551699 6:0.71309146 
1 1:0.77710846 2:0.69207977 3:0.33352227 4:0.97567395 5:0.35791125 6:0.47708266 
1 1:0.32463839 2:0.30804091 3:0.15489635 4:0.45320666 5:0.4272713 6:0.07405001 
1 1:0.79992169 2:0.46295901 3:0.11717291 4:0.5191026 5:0.48101709 6:0.54794684 
1 1:0.46136567 2:0.14048161 3:0.30954805 4:0.19208274 5:0.64900468 6:0.5908901 
1 1:0.35734876 2:0.23925314 3:0.58206923 4:0.95664023 5:0.47186258 6:0.41468478 
0.37735363234526 1:0.89981173 2:0.31659547 3:0.300151 4:0.16451847 5:0.32612693 6:0.49127414 
1 1:0.8469012 2:0.22733117 3:0.51891844 4:0.4492866 5:0.29389328 6:0.11844965 
1 1:0.42738493 2:0.70875259 3:0.6566116 4:0.40191034 5:0.48796803 6:0.43088238 
1 1:0.76545414 2:0.30397354 3:0.74980707 4:0.62553532 5:0.65172833 6:0.54777102 
1 1:0.63748444 2:0.41208069 3:0.040418711 4:0.78972325 5:0.38963908 6:0.58907076 
1 1:0.79169027 2:0.31004862 3:0.73424658 4:0.26796975 5:0.28366346 6:0.30834574 
1 1:0.63531848 2:0.17721776 3:0.54400636 4:0.49885388 5:0.43385765 6:0.014554467 
1 1:0.63814327 2:0.49906911 3:0.15167366 4:0.18030109 5:0.47087306 6:0.19789628 
1 1:0.61856043 2:0.1265318 3:0.61358527 4:0.033846124 5:0.38627165 6:0.45387244 
1 1:0.63874232 2:0.40643699 3:0.84386485 4:0.32417267 5:0.58217794 6:0.28250553 
1 1:0.68831246 2:0.44088936 3:0.14040606 4:0.54484534 5:0.53789596 6:0.90517227 
1 1:0.26501 2:0.27155303 3:0.21553485 4:0.23996202 5:0.84830411 6:0.46941652 
1 1:0.45683812 2:0.13673872 3:0.51950435 4:0.553289 5:0.12113369 6:0.76430191 
1 1:0.083779909 2:0.56854364 3:0.38940086 4:0.11591383 5:0.44556206 6:0.47042938 
1 1:0.7922771 2:0.30424553 3:0.5049802 4:0.3272247 5:0.41771018 6:0.11884672 
1 1:0.19054874 2:0.31507918 3:0.18702632 4:0.65072717 5:0.65397155 6:0.65963262 
1 1:0.69557513 2:0.64044092 3:0.18883351 4:0.49938746 5:0.59817977 6:0.55633678 
1 1:0.42365957 2:0.25994084 3:0.36079149 4:0.82123275 5:0.065287368 6:0.28226197 
1 1:0.305611 2:0.40010433 3:0.91468878 4:0.42115163 5:0.52929783 6:0.92370897 
1 1:0.06584557 2:0.38846956 3:0.67797411 4:0.23632758 5:0.42134359 6:0.37465889 
1 1:0.14717071 2:0.61953397 3:0.67004582 4:0.17095693 5:0.58536292 6:0.76420247 
1 1:0.45688133 2:0.22361992 3:0.33763094 4:0.50360738 5:0.78924411 6:0.56649467 
1 1:0.30559469 2:0.23702224 3:0.33095731 4:0.30308248 5:0.76115814 6:0.56155408 
1 1:0.78115278 2:0.54107706 3:0.78785294 4:0.63373752 5:0.17975058 6:0.72802653 
1 1:0.6409837 2:0.17741119 3:0.64879127 4:0.029266128 5:0.46344673 6:0.52911844 
1 1:0.74899838 2:0.73654612 3:0.38212401 4:0.059326922 5:0.31648593 6:0.050323568 
1 1:0.53954349 2:0.27252546 3:0.16014177 4:0.3835658 5:0.17818809 6:0.41912797 
1 1:0.33598171 2:0.14695456 3:0.27380214 4:0.66225372 5:0.55199183 6:0.47463169 
1 1:0.37557209 2:0.14343028 3:0.50785049 4:0.37085325 5:0.74325787 6:0.46202436 
1 1:0.65500207 2:0.10679071 3:0.48824607 4:0.51322053 5:0.34505094 6:0.29522573 
1 1:0.41038289 2:0.18908279 3:0.38157438 4:0.80116306 5:0.84900932 6:0.018669484 
1 1:0.50868115 2:0.33366038 3:0.13882816 4:0.56525351 5:0.69677573 6:0.90275725 
1 1:0.69301132 2:0.35317535 3:0.17945339 4:0.42362344 5:0.63323939 6:0.02939662 
1 1:0.68340295 2:0.22721003 3:0.32498149 4:0.93232603 5:0.72506564 6:0.58258621 
1 1:0.46156476 2:0.21103448 3:0.44495834 4:0.18671133 5:0.88309985 6:0.93103479 
1 1:0.36156081 2:0.521801 3:0.13603966 4:0.2621532 5:0.52882807 6:0.41852305 
1 1:0.52140841 2:0.11264304 3:0.47669021 4:0.98561056 5:0.70428817 6:0.65743346 
1 1:0.67720649 2:0.24709782 3:0.42947913 4:0.19263489 5:0.75066802 6:0.22465151 
1 1:0.39944833 2:0.83328585 3:0.52916287 4:0.72074433 5:0.65048863 6:0.1744218 
1 1:0.15782139 2:0.67885735 3:0.38590881 4:0.5354692 5:0.42422187 6:0.61714309 
1 1:0.34290632 2:0.14050536 3:0.42706684 4:0.26090623 5:0.70939154 6:0.60462865 
1 1:0.64100921 2:0.17369249 3:0.73039786 4:0.30921848 5:0.44878254 6:0.54262041 
1 1:0.48153436 2:0.68005735 3:0.88403779 4:0.57948571 5:0.7038993 6:0.41411877 
1 1:0.63802063 2:0.19033061 3:0.32923584 4:0.86246861 5:0.34027645 6:0.66269806 
1 1:0.93053557 2:0.47723799 3:0.50882285 4:0.31005549 5:0.62187544 6:0.28695587 
1 1:0.49215907 2:0.78663407 3:0.31567624 4:0.35274302 5:0.67387402 6:0.83005907 
1 1:0.47028769 2:0.21039534 3:0.19121237 4:0.44684101 5:0.40009234 6:0.40683417 
1 1:0.24903987 2:0.67392681 3:0.76386035 4:0.15451501 5:0.59482159 6:0.21709417 
1 1:0.83821604 2:0.1948703 3:0.43897315 4:0.3727014 5:0.61214407 6:0.61218857 
1 1:0.34082095 2:0.54389326 3:0.87730683 4:0.56140462 5:0.25844545 6:0.19989104 
1 1:0.30883705 2:0.1275912 3:0.45282428 4:0.28587214 5:0.55447942 6:0.032492212 
1 1:0.51766748 2:0.12107091 3:0.28125455 4:0.33958748 5:0.65113249 6:0.36184859 
1 1:0.64917758 2:0.41630209 3:0.16366472 4:0.25322793 5:0.79126535 6:0.25458394 
1 1:0.43530989 2:0.31740671 3:0.060390394 4:0.552514 5:0.52898081 6:0.11714549 
1 1:0.3897416 2:0.71351456 3:0.12877653 4:0.38499747 5:0.56808494 6:0.34194952 
1 1:0.83291384 2:0.69769837 3:0.29974115 4:0.55604342 5:0.42897786 6:0.32000019 
