svm_type c_svc
kernel_type rbf
gamma 0.166667
nr_class 2
total_sv 3633
rho -11.0089
label -1 1
nr_sv 1821 1812
SV
1 1:0.09234187 2:0.56880302 3:0.47510498 4:0.23722591 5:0.26149996 6:0.45419932 
1 1:0.49707575 2:0.75613346 3:0.3613454 4:0.23291559 5:0.38847639 6:0.022320407 
1 1:0.38637911 2:0.35922904 3:0.94822763 4:0.32901573 5:0.36305772 6:0.70635235 
1 1:0.43868484 2:0.60003965 3:0.89785562 4:0.23964448 5:0.69931417 6:0.34598087 
1 1:0.1544486 2:0.42769425 3:0.67992347 4:0.26966055 5:0.58902078 6:0.48602322 
1 1:0.26604852 2:0.73711735 3:0.34044901 4:0.63313437 5:0.56070759 6:0.32397149 
1 1:0.69514355 2:0.2758768 3:0.20900565 4:0.20503647 5:0.52997147 6:0.18480402 
1 1:0.62825629 2:0.47677845 3:0.85575117 4:0.23059821 5:0.21757049 6:0.51061226 
1 1:0.30318702 2:0.34608624 3:0.29222917 4:0.42586734 5:0.53663686 6:0.66116966 
1 1:0.51783715 2:0.13790492 3:0.25268623 4:0.84511992 5:0.31445638 6:0.63220771 
1 1:0.60972954 2:0.78550577 3:0.29128917 4:0.7133443 5:0.23238033 6:0.42280658 
1 1:0.88363255 2:0.65858647 3:0.43199486 4:0.16185509 5:0.45583189 6:0.83988707 
1 1:0.93852993 2:0.61143057 3:0.3952298 4:0.78806902 5:0.5599961 6:0.24212644 
1 1:0.8016475 2:0.64872492 3:0.2552183 4:0.025363089 5:0.50805329 6:0.60188659 
1 1:0.32168133 2:0.22155082 3:0.66043545 4:0.071764814 5:0.82196372 6:0.18162741 
1 1:0.14396179 2:0.5178864 3:0.51120145 4:0.77570471 5:0.22939921 6:0.0061426245 
1 1:0.46876704 2:0.34199054 3:0.092624343 4:0.082392091 5:0.37811428 6:0.18492837 
1 1:0.64499892 2:0.42238607 3:0.067981474 4:0.23682255 5:0.53088022 6:0.72964921 
1 1:0.48043741 2:0.47859176 3:0.057116065 4:0.012243685 5:0.43725675 6:0.60956242 
1 1:0.44302641 2:0.48480915 3:0.95146264 4:0.47646813 5:0.18732788 6:0.39522692 
1 1:0.5503296 2:0.72881693 3:0.792859 4:0.034933899 5:0.45453416 6:0.74902588 
1 1:0.49456943 2:0.2369551 3:0.91199974 4:0.60353199 5:0.55713516 6:0.2752244 
1 1:0.73373898 2:0.7740877 3:0.45630044 4:0.6551043 5:0.34695265 6:0.677372 
1 1:0.75173267 2:0.59060915 3:0.22821865 4:0.91763883 5:0.31082677 6:0.33633972 
1 1:0.25981526 2:0.59195251 3:0.18068337 4:0.81585681 5:0.5838115 6:0.87658682 
1 1:0.56041676 2:0.44061522 3:0.018185454 4:0.65107982 5:0.56828841 6:0.21074618 
1 1:0.45909699 2:0.25311673 3:0.75240538 4:0.089123531 5:0.73777668 6:0.34055889 
1 1:0.21651903 2:0.20005147 3:0.46739546 4:0.73429927 5:0.2612426 6:0.97436548 
1 1:0.6207657 2:0.69950793 3:0.3834649 4:0.15289921 5:0.64877454 6:0.94830086 
1 1:0.17648196 2:0.74639762 3:0.49634703 4:0.40540642 5:0.58090709 6:0.72041769 
1 1:0.1970309 2:0.35866732 3:0.23128888 4:0.55788424 5:0.34073002 6:0.83349967 
1 1:0.57400696 2:0.48559718 3:0.086691187 4:0.56696328 5:0.32600625 6:0.55092446 
1 1:0.28398217 2:0.50441152 3:0.15344879 4:0.33908021 5:0.66755706 6:0.11893023 
1 1:0.58508268 2:0.078422182 3:0.5602031 4:0.17722382 5:0.44879605 6:0.4372356 
1 1:0.12838373 2:0.53055813 3:0.52871922 4:0.38459649 5:0.64818415 6:0.88492985 
1 1:0.90706074 2:0.43938906 3:0.33934448 4:0.9170073 5:0.61191449 6:0.077859293 
1 1:0.1325749 2:0.58891222 3:0.25774667 4:0.67674905 5:0.56391251 6:0.95082693 
1 1:0.59264332 2:0.3008236 3:0.12811628 4:0.55828975 5:0.67290255 6:0.91250142 
1 1:0.21273507 2:0.23066768 3:0.41173219 4:0.99635557 5:0.61845007 6:0.6617224 
1 1:0.747052 2:0.16617043 3:0.61345801 4:0.83901136 5:0.358358 6:0.62612264 
1 1:0.1567032 2:0.3594035 3:0.31184514 4:0.74332472 5:0.8999915 6:0.39759672 
1 1:0.39266397 2:0.38667002 3:0.18561219 4:0.43166679 5:0.80066449 6:0.65918991 
1 1:0.45841989 2:0.86254717 3:0.49239981 4:0.58767522 5:0.58845471 6:0.28633597 
1 1:0.54369258 2:0.69205388 3:0.32914463 4:0.95816542 5:0.89048533 6:0.78454986 
1 1:0.56362812 2:0.33797209 3:0.78558161 4:0.70527076 5:0.047955464 6:0.40615412 
1 1:0.85630983 2:0.45322596 3:0.6466875 4:0.44259765 5:0.36503618 6:0.23040665 
1 1:0.50461949 2:0.81458128 3:0.6996174 4:0.50149631 5:0.30930787 6:0.26178054 
1 1:0.84387177 2:0.5403762 3:0.26347421 4:0.32612503 5:0.17699911 6:0.057785304 
1 1:0.31636315 2:0.77286458 3:0.71733689 4:0.84912605 5:0.61298416 6:0.1943308 
1 1:0.85648548 2:0.30762159 3:0.33603889 4:0.017187411 5:0.58424309 6:0.30737035 
1 1:0.81605163 2:0.37135129 3:0.30868669 4:0.38069456 5:0.14410678 6:0.54058806 
1 1:0.19498067 2:0.30959382 3:0.63700965 4:0.81624632 5:0.86366089 6:0.12309827 
1 1:0.56561537 2:0.15722115 3:0.26241286 4:0.93635672 5:0.66995917 6:0.35682763 
1 1:0.80716343 2:0.71866576 3:0.3877092 4:0.54303176 5:0.65608629 6:0.36915858 
1 1:0.57106094 2:0.54729741 3:0.95818154 4:0.42140218 5:0.5944433 6:0.47598685 
1 1:0.066339415 2:0.42960746 3:0.61580035 4:0.3829326 5:0.50511327 6:0.63472355 
1 1:0.86359381 2:0.60453715 3:0.37876997 4:0.816079 5:0.58824488 6:0.80082145 
1 1:0.36876341 2:0.46341852 3:0.88912115 4:0.52124467 5:0.84651534 6:0.1853475 
1 1:0.69161398 2:0.69827335 3:0.156499 4:0.78446012 5:0.59262106 6:0.68062977 
1 1:0.56431327 2:0.19230552 3:0.21416175 4:0.22036153 5:0.35018979 6:0.31237336 
1 1:0.30309451 2:0.27235585 3:0.85283306 4:0.74393566 5:0.24082395 6:0.38132365 
1 1:0.86269877 2:0.36845073 3:0.29591873 4:0.87011937 5:0.69917081 6:0.062180449 
1 1:0.75322782 2:0.68050808 3:0.31478072 4:0.0789766 5:0.1509219 6:0.43339364 
1 1:0.32803131 2:0.85394187 3:0.49947971 4:0.27659202 5:0.37129637 6:0.57441176 
1 1:0.1672169 2:0.59700725 3:0.68049331 4:0.095666143 5:0.77382258 6:0.27073344 
1 1:0.78407994 2:0.21083676 3:0.58593648 4:0.30055477 5:0.18801527 6:0.87147295 
0.3306529044710353 1:0.93296616 2:0.56000853 3:0.66352963 4:0.44736844 5:0.16183827 6:0.63610773 
1 1:0.17066963 2:0.61975119 3:0.58638104 4:0.84821884 5:0.40474417 6:0.35108894 
1 1:0.30866512 2:0.5066027 3:0.21563761 4:0.24971389 5:0.089977683 6:0.57525226 
1 1:0.073331061 2:0.38318898 3:0.6505532 4:0.84591147 5:0.52025751 6:0.35018223 
1 1:0.66321551 2:0.1630468 3:0.60419076 4:0.73726546 5:0.73390963 6:0.64153328 
1 1:0.3976055 2:0.47764402 3:0.84104378 4:0.59314943 5:0.20485234 6:0.61784434 
1 1:0.15600888 2:0.27311882 3:0.70698549 4:0.10908913 5:0.49114271 6:0.55834979 
1 1:0.76469425 2:0.30274137 3:0.74183893 4:0.40746797 5:0.13502167 6:0.99052876 
1 1:0.4346004 2:0.83230779 3:0.3245854 4:0.83311468 5:0.53087586 6:0.6432737 
1 1:0.47070791 2:0.1698132 3:0.54303159 4:0.8037982 5:0.35519116 6:0.15437139 
1 1:0.60505944 2:0.37224966 3:0.1057962 4:0.61891304 5:0.33326436 6:0.71835069 
1 1:0.19491791 2:0.72299645 3:0.71629447 4:0.20223294 5:0.47484951 6:0.28223429 
1 1:0.88653548 2:0.29314341 3:0.31756472 4:0.19572782 5:0.46795014 6:0.88485211 
1 1:0.57303409 2:0.77913104 3:0.51328325 4:0.40810084 5:0.82307787 6:0.046090725 
1 1:0.72451264 2:0.29898499 3:0.78531355 4:0.12806019 5:0.20879371 6:0.32919271 
1 1:0.57628653 2:0.20547972 3:0.48385313 4:0.95510482 5:0.33084331 6:0.056567428 
1 1:0.19844634 2:0.64584833 3:0.3013703 4:0.091157902 5:0.30906163 6:0.14037501 
1 1:0.71316778 2:0.40163424 3:0.10281193 4:0.068000567 5:0.64808318 6:0.49238616 
1 1:0.0728489 2:0.46152369 3:0.30911204 4:0.29289324 5:0.65374147 6:0.65512533 
1 1:0.53704833 2:0.31859978 3:0.086321988 4:0.69232717 5:0.84579687 6:0.61105231 
1 1:0.22704757 2:0.51822357 3:0.11697984 4:0.37325559 5:0.64897271 6:0.18349468 
1 1:0.67854289 2:0.5765804 3:0.79730828 4:0.52315207 5:0.92088972 6:0.52775995 
1 1:0.28629964 2:0.29052435 3:0.7012172 4:0.46385397 5:0.26867525 6:0.58201271 
1 1:0.44139744 2:0.13834969 3:0.3611488 4:0.75686243 5:0.55267 6:0.53842093 
1 1:0.4115652 2:0.1574487 3:0.37968878 4:0.41470364 5:0.6749715 6:0.83130904 
1 1:0.45098379 2:0.27786549 3:0.11067296 4:0.5760834 5:0.70692737 6:0.30249068 
1 1:0.92908496 2:0.30413128 3:0.54739155 4:0.61077259 5:0.33655065 6:0.57742994 
1 1:0.72431579 2:0.56229606 3:0.86044084 4:0.145605 5:0.48126179 6:0.19443702 
1 1:0.67059463 2:0.49357591 3:0.9454389 4:0.67168505 5:0.4089325 6:0.76015756 
1 1:0.82911083 2:0.3159074 3:0.62067828 4:0.067673148 5:0.71816817 6:0.24491658 
1 1:0.52403032 2:0.16616036 3:0.68914353 4:0.69413536 5:0.56899365 6:0.58424241 
1 1:0.27588378 2:0.71010159 3:0.62442706 4:0.23446896 5:0.55819267 6:0.60994951 
1 1:0.39447314 2:0.24046587 3:0.14640088 4:0.2566369 5:0.65154122 6:0.86236455 
1 1:0.38140204 2:0.71958321 3:0.76229773 4:0.73159786 5:0.62014504 6:0.37664544 
1 1:0.45029265 2:0.15649437 3:0.52716685 4:0.45859156 5:0.36368493 6:0.47678743 
1 1:0.11053756 2:0.54380597 3:0.74019085 4:0.40321854 5:0.16316515 6:0.26157191 
1 1:0.28030878 2:0.75548753 3:0.41512431 4:0.44006886 5:0.77049789 6:0.44807184 
1 1:0.54366787 2:0.71536055 3:0.34520026 4:0.78917081 5:0.2941712 6:0.87540516 
1 1:0.19863852 2:0.20209167 3:0.38450285 4:0.93582668 5:0.33782137 6:0.67812321 
1 1:0.19282199 2:0.68883498 3:0.68819039 4:0.5156227 5:0.34633616 6:0.41323048 
1 1:0.71061383 2:0.58628749 3:0.84754407 4:0.7671573 5:0.44952094 6:0.69746096 
1 1:0.54250399 2:0.71010634 3:0.42588505 4:0.86583957 5:0.36976814 6:0.65136537 
1 1:0.66656596 2:0.081115117 3:0.47889823 4:0.55864896 5:0.55891413 6:0.45722451 
1 1:0.30591132 2:0.75810101 3:0.45505846 4:0.48252754 5:0.31196594 6:0.0650151 
1 1:0.56776723 2:0.84961324 3:0.61228264 4:0.37632317 5:0.71573494 6:0.52229744 
1 1:0.81749132 2:0.44952428 3:0.43841475 4:0.045094274 5:0.73479908 6:0.84918811 
1 1:0.18932293 2:0.25811191 3:0.23288847 4:0.40699295 5:0.47239955 6:0.73793976 
1 1:0.69693446 2:0.73801365 3:0.5810983 4:0.80003022 5:0.97570282 6:0.69083363 
1 1:0.62480219 2:0.68833453 3:0.21760252 4:0.96460808 5:0.63893794 6:0.93613658 
1 1:0.2098752 2:0.35045627 3:0.69406784 4:0.55864124 5:0.51022431 6:0.6568442 
1 1:0.77735313 2:0.72276678 3:0.52178022 4:0.33672512 5:0.62227172 6:0.39911182 
1 1:0.3421911 2:0.11598897 3:0.3604416 4:0.6119772 5:0.49240557 6:0.1015827 
1 1:0.91753924 2:0.5255888 3:0.6002669 4:0.66505231 5:0.24040173 6:0.53511524 
1 1:0.50809682 2:0.41268087 3:0.13502811 4:0.94333957 5:0.18065753 6:0.93632173 
1 1:0.12916535 2:0.54242182 3:0.47977688 4:0.60989409 5:0.92232835 6:0.089904082 
1 1:0.70483816 2:0.29014493 3:0.69716275 4:0.96412455 5:0.57166704 6:0.29204755 
1 1:0.55872058 2:0.13371083 3:0.7137512 4:0.6736649 5:0.37113466 6:0.3979694 
1 1:0.72678456 2:0.52505246 3:0.084720892 4:0.45400406 5:0.55405859 6:0.38636542 
1 1:0.64968424 2:0.20443575 3:0.53846785 4:0.95867302 5:0.1849117 6:0.88751237 
1 1:0.73859334 2:0.14821675 3:0.60694089 4:0.13437798 5:0.64986346 6:0.71253359 
1 1:0.63512361 2:0.736048 3:0.60227417 4:0.62843067 5:0.51611721 6:0.54467528 
1 1:0.5587475 2:0.31529926 3:0.88135501 4:0.055525312 5:0.60775191 6:0.49396389 
1 1:0.16106314 2:0.40902171 3:0.62609732 4:0.73125377 5:0.63308091 6:0.10849321 
1 1:0.17841824 2:0.66640471 3:0.70958358 4:0.5287161 5:0.64042109 6:0.26977457 
1 1:0.30856166 2:0.49105697 3:0.1866436 4:0.084486005 5:0.84492836 6:0.8970436 
1 1:0.81936583 2:0.67358454 3:0.56108507 4:0.5422465 5:0.70500842 6:0.64177922 
1 1:0.49139275 2:0.088936855 3:0.53910409 4:0.82717 5:0.60825566 6:0.88694026 
1 1:0.94133352 2:0.44570276 3:0.29443836 4:0.56409318 5:0.53599905 6:0.25465655 
1 1:0.70314497 2:0.54163217 3:0.82760346 4:0.46106401 5:0.37579467 6:0.50760805 
1 1:0.37166424 2:0.70789751 3:0.73448142 4:0.58355773 5:0.28197247 6:0.35789021 
1 1:0.25676433 2:0.41714016 3:0.89747558 4:0.82413576 5:0.35227699 6:0.46702811 
1 1:0.33722206 2:0.81046379 3:0.42326031 4:0.022671255 5:0.59284431 6:0.58991629 
1 1:0.23695417 2:0.369274 3:0.58234353 4:0.33798101 5:0.096264851 6:0.98067691 
1 1:0.15852397 2:0.3641847 3:0.6028941 4:0.77895377 5:0.10243741 6:0.21880839 
1 1:0.29046327 2:0.2938852 3:0.87860534 4:0.60444971 5:0.48735876 6:0.47968852 
1 1:0.23234977 2:0.30040056 3:0.5681589 4:0.44099199 5:0.55740656 6:0.56625208 
1 1:0.37741867 2:0.8003385 3:0.65206496 4:0.2084992 5:0.77557327 6:0.19753954 
1 1:0.13596614 2:0.52402481 3:0.65101013 4:0.72721648 5:0.72513612 6:0.41490859 
1 1:0.1100333 2:0.68230385 3:0.50607149 4:0.25262003 5:0.50526956 6:0.93096095 
1 1:0.24296758 2:0.77682601 3:0.59193607 4:0.92023201 5:0.43903205 6:0.24763563 
1 1:0.67780019 2:0.69746144 3:0.58212384 4:0.83177861 5:0.45723448 6:0.87915573 
1 1:0.4846763 2:0.71743777 3:0.82459149 4:0.35493873 5:0.51525584 6:0.14907237 
1 1:0.23418379 2:0.44303449 3:0.19623349 4:0.12605549 5:0.48243678 6:0.94459448 
1 1:0.36377895 2:0.17391784 3:0.57814423 4:0.58144561 5:0.61719916 6:0.93136722 
1 1:0.29882223 2:0.2523288 3:0.78413595 4:0.39594648 5:0.33575076 6:0.91188982 
1 1:0.052252168 2:0.37767675 3:0.44257033 4:0.7264528 5:0.34545529 6:0.10538725 
1 1:0.69673993 2:0.24555467 3:0.23287273 4:0.44473228 5:0.61636378 6:0.57139718 
1 1:0.82459671 2:0.76551324 3:0.50668594 4:0.54294751 5:0.23636132 6:0.66044589 
1 1:0.73587073 2:0.44320705 3:0.15744282 4:0.81783244 5:0.4803318 6:0.16763767 
1 1:0.79796427 2:0.20513373 3:0.64585354 4:0.1985877 5:0.46692991 6:0.02821751 
1 1:0.73103162 2:0.70506265 3:0.58790716 4:0.30138455 5:0.51834509 6:0.39080313 
1 1:0.085401984 2:0.46631668 3:0.28546997 4:0.55258677 5:0.59914673 6:0.25244424 
1 1:0.40843159 2:0.25689659 3:0.20937563 4:0.54251185 5:0.13440492 6:0.48993322 
1 1:0.27472825 2:0.5418045 3:0.84200041 4:0.6937981 5:0.37139968 6:0.64821985 
1 1:0.067891081 2:0.51089559 3:0.40653716 4:0.54589418 5:0.74361054 6:0.81773719 
1 1:0.60640357 2:0.70158515 3:0.69010011 4:0.67438856 5:0.49004313 6:0.17986843 
1 1:0.41230453 2:0.29977499 3:0.82359489 4:0.86948122 5:0.40339073 6:0.34273961 
1 1:0.64577079 2:0.13018767 3:0.66151526 4:0.18759078 5:0.4491833 6:0.3365421 
1 1:0.17689094 2:0.54129253 3:0.38167552 4:0.29235616 5:0.3668641 6:0.68217011 
1 1:0.32260915 2:0.40437265 3:0.93686056 4:0.30221452 5:0.62630707 6:0.61239193 
1 1:0.19849539 2:0.25993476 3:0.42473875 4:0.16875907 5:0.75099757 6:0.57322249 
1 1:0.78314011 2:0.38856467 3:0.11615649 4:0.74805685 5:0.47915979 6:0.33231096 
1 1:0.20719263 2:0.17513001 3:0.43184212 4:0.41753428 5:0.63080621 6:0.66693676 
1 1:0.55237035 2:0.43084291 3:0.074182741 4:0.90615945 5:0.6908923 6:0.1261876 
1 1:0.64439015 2:0.14055918 3:0.61524649 4:0.46930552 5:0.45849744 6:0.41068174 
1 1:0.54514966 2:0.1675741 3:0.60880082 4:0.66468568 5:0.3679271 6:0.79954806 
1 1:0.55639345 2:0.72424955 3:0.42487998 4:0.89719123 5:0.22341531 6:0.065749869 
1 1:0.27785573 2:0.71613172 3:0.27662889 4:0.69955215 5:0.5163692 6:0.87660985 
1 1:0.31724628 2:0.36014261 3:0.89119113 4:0.71498164 5:0.1828376 6:0.53865044 
1 1:0.42360702 2:0.28822644 3:0.27298205 4:0.41013947 5:0.25055383 6:0.04300725 
1 1:0.35327338 2:0.23249405 3:0.74817734 4:0.14279641 5:0.81247634 6:0.34756202 
1 1:0.50550456 2:0.1177137 3:0.46879045 4:0.64763733 5:0.62318605 6:0.28138168 
1 1:0.38889575 2:0.24653497 3:0.16053605 4:0.4199589 5:0.78787083 6:0.079936389 
1 1:0.91346359 2:0.42657761 3:0.60684277 4:0.26237013 5:0.45327245 6:0.80738738 
1 1:0.7084464 2:0.69080282 3:0.48914029 4:0.65507876 5:0.27219342 6:0.9951145 
1 1:0.33809871 2:0.21163113 3:0.78878479 4:0.12329362 5:0.55019989 6:0.45199918 
1 1:0.81807067 2:0.49608823 3:0.77597656 4:0.81933541 5:0.73152084 6:0.41540028 
1 1:0.63321807 2:0.80468665 3:0.52213816 4:0.81328597 5:0.39860248 6:0.81340157 
1 1:0.5817807 2:0.13178659 3:0.71107265 4:0.54073448 5:0.10405798 6:0.27028087 
1 1:0.83010209 2:0.40506982 3:0.81526259 4:0.79401347 5:0.60102476 6:0.24920507 
1 1:0.5548363 2:0.51117814 3:0.79202241 4:0.86272428 5:0.1526143 6:0.57300444 
1 1:0.52106977 2:0.65910389 3:0.16012659 4:0.48236536 5:0.049293571 6:0.51665563 
1 1:0.12117635 2:0.60888001 3:0.58327649 4:0.1135431 5:0.62052204 6:0.50732666 
1 1:0.48600777 2:0.62299356 3:0.84579238 4:0.61294237 5:0.98716179 6:0.57572329 
1 1:0.72653134 2:0.46061154 3:0.83311939 4:0.62190694 5:0.56344541 6:0.74911061 
1 1:0.64846469 2:0.78527411 3:0.26286015 4:0.8607706 5:0.48139662 6:0.59326899 
1 1:0.45975867 2:0.18071254 3:0.70689537 4:0.41387463 5:0.75009168 6:0.5181913 
1 1:0.20094957 2:0.32229172 3:0.81101724 4:0.81807347 5:0.56852126 6:0.49994416 
1 1:0.16110492 2:0.32026803 3:0.68327794 4:0.46912783 5:0.09978366 6:0.24131993 
1 1:0.75021336 2:0.245773 3:0.76519204 4:0.75675101 5:0.688033 6:0.45090836 
1 1:0.84642903 2:0.41201825 3:0.23499381 4:0.5008292 5:0.56448049 6:0.92657574 
1 1:0.26412715 2:0.48327531 3:0.7952428 4:0.87686035 5:0.18357719 6:0.38489457 
1 1:0.74778861 2:0.16822399 3:0.27731783 4:0.765622 5:0.36095762 6:0.37244988 
1 1:0.42740214 2:0.20529486 3:0.10823954 4:0.39056379 5:0.47716234 6:0.62275746 
1 1:0.87694168 2:0.59642746 3:0.73362692 4:0.53285114 5:0.44707426 6:0.55341362 
1 1:0.075265583 2:0.41888345 3:0.35764209 4:0.070892193 5:0.5746036 6:0.5652139 
1 1:0.079586789 2:0.58660616 3:0.46467997 4:0.96269282 5:0.38588822 6:0.5790735 
1 1:0.62115763 2:0.68328857 3:0.60036547 4:0.96079121 5:0.50265552 6:0.51050807 
1 1:0.88272712 2:0.62152091 3:0.71870119 4:0.651919 5:0.37238622 6:0.14077225 
1 1:0.083155358 2:0.52770543 3:0.54788506 4:0.48338881 5:0.24367769 6:0.9405175 
1 1:0.30716693 2:0.13363419 3:0.57180266 4:0.5008712 5:0.63309469 6:0.64456337 
1 1:0.94521003 2:0.50751694 3:0.3126997 4:0.58573869 5:0.55654011 6:0.58380249 
1 1:0.61568111 2:0.19619527 3:0.71804586 4:0.40866388 5:0.36133331 6:0.74592548 
1 1:0.62667434 2:0.1719137 3:0.29904506 4:0.71983883 5:0.76371495 6:0.75488948 
1 1:0.64601212 2:0.26225044 3:0.28982447 4:0.35147767 5:0.32729217 6:0.036999357 
1 1:0.68634889 2:0.17459261 3:0.80990338 4:0.60022674 5:0.45274974 6:0.64936244 
1 1:0.82358232 2:0.3707438 3:0.35238806 4:0.56316557 5:0.7718709 6:0.579346 
1 1:0.68864752 2:0.65301459 3:0.79500022 4:0.3733733 5:0.37062603 6:0.82891276 
1 1:0.33118501 2:0.69114336 3:0.68306083 4:0.89336992 5:0.10499379 6:0.68059286 
1 1:0.28537406 2:0.75496934 3:0.69095636 4:0.12996411 5:0.38145367 6:0.47365939 
1 1:0.559695 2:0.79421994 3:0.58925029 4:0.43309402 5:0.52192295 6:0.1108679 
1 1:0.27601398 2:0.17737659 3:0.28268306 4:0.59746274 5:0.30734273 6:0.8596469 
1 1:0.15553835 2:0.36561638 3:0.42614419 4:0.17457866 5:0.19789396 6:0.80798813 
1 1:0.51029511 2:0.62948702 3:0.88496099 4:0.45140103 5:0.81122803 6:0.23718174 
1 1:0.58234858 2:0.25652334 3:0.22609181 4:0.96875148 5:0.58693462 6:0.19756547 
1 1:0.92850017 2:0.54858884 3:0.57748684 4:0.25401312 5:0.52227549 6:0.78868339 
1 1:0.44095143 2:0.066370565 3:0.53445346 4:0.36805393 5:0.49696001 6:0.12118507 
1 1:0.25069912 2:0.25867534 3:0.22662816 4:0.52198306 5:0.30412242 6:0.6054798 
1 1:0.22775035 2:0.25922969 3:0.45441373 4:0.96206419 5:0.28352964 6:0.23313226 
1 1:0.32385861 2:0.48988827 3:0.11443397 4:0.32016126 5:0.48197692 6:0.88480837 
1 1:0.77744867 2:0.24501823 3:0.23441912 4:0.30986117 5:0.69962395 6:0.96515371 
1 1:0.54871982 2:0.28282898 3:0.82256514 4:0.44845222 5:0.31666088 6:0.44071677 
1 1:0.21450233 2:0.69154558 3:0.72881458 4:0.88475667 5:0.48051645 6:0.11268068 
1 1:0.62848125 2:0.64123674 3:0.86102014 4:0.47729435 5:0.42182073 6:0.36529256 
1 1:0.49898162 2:0.096543277 3:0.32275724 4:0.30865614 5:0.51479485 6:0.51828736 
1 1:0.45290559 2:0.77375809 3:0.27904002 4:0.72249375 5:0.57785224 6:0.40840278 
1 1:0.64778534 2:0.17655931 3:0.51978699 4:0.50489774 5:0.19004447 6:0.24219545 
1 1:0.64071913 2:0.38167347 3:0.15638771 4:0.35836696 5:0.67216806 6:0.82761441 
1 1:0.48046888 2:0.13448793 3:0.3872092 4:0.16240143 5:0.40312984 6:0.73410547 
1 1:0.88708411 2:0.41123864 3:0.75268939 4:0.15983686 5:0.56597374 6:0.13974547 
1 1:0.24913312 2:0.71603952 3:0.29344928 4:0.76755336 5:0.7269759 6:0.30945942 
1 1:0.51337774 2:0.20524774 3:0.36072465 4:0.95181431 5:0.50208516 6:0.38425583 
1 1:0.74196488 2:0.66577671 3:0.24039221 4:0.75020842 5:0.28569485 6:0.81398455 
1 1:0.6656036 2:0.81590033 3:0.62771762 4:0.29647663 5:0.43415881 6:0.77612772 
1 1:0.082497435 2:0.62341642 3:0.51509992 4:0.50695317 5:0.65984695 6:0.2247447 
1 1:0.55254306 2:0.56575124 3:0.094680195 4:0.39585267 5:0.72787412 6:0.60235819 
1 1:0.12831344 2:0.5432223 3:0.37757497 4:0.99435818 5:0.65456553 6:0.6384141 
1 1:0.59097453 2:0.13900642 3:0.31870135 4:0.20691293 5:0.18103931 6:0.16405546 
1 1:0.14291588 2:0.61167241 3:0.43953578 4:0.63024529 5:0.38383967 6:0.40587975 
1 1:0.26867988 2:0.50795108 3:0.84989899 4:0.73245016 5:0.67076744 6:0.99419365 
1 1:0.26374408 2:0.25781558 3:0.78192063 4:0.64110123 5:0.51592768 6:0.52558674 
1 1:0.20576758 2:0.62206185 3:0.77797191 4:0.64332159 5:0.82758562 6:0.34444014 
1 1:0.73963156 2:0.30793945 3:0.7543988 4:0.29658671 5:0.23284787 6:0.011705759 
1 1:0.28871897 2:0.23841355 3:0.8400453 4:0.80804837 5:0.44341439 6:0.47910221 
1 1:0.9148823 2:0.35831807 3:0.71505718 4:0.51072062 5:0.61018808 6:0.76105494 
1 1:0.25940918 2:0.68492427 3:0.77350463 4:0.72209906 5:0.51235407 6:0.86171199 
1 1:0.43667019 2:0.74019616 3:0.28167258 4:0.49778848 5:0.69506727 6:0.94909199 
1 1:0.37989113 2:0.24199135 3:0.74009685 4:0.75847027 5:0.1069666 6:0.37962427 
1 1:0.25158475 2:0.66704466 3:0.79673776 4:0.14892757 5:0.58284618 6:0.32747632 
1 1:0.69339506 2:0.17891925 3:0.22686101 4:0.36850575 5:0.42757218 6:0.39583512 
1 1:0.35455148 2:0.25279305 3:0.22479637 4:0.40745258 5:0.73298916 6:0.87832453 
1 1:0.29983674 2:0.70423099 3:0.34663643 4:0.082608686 5:0.89240367 6:0.72381191 
1 1:0.64622866 2:0.12347035 3:0.46833 4:0.45058325 5:0.71343205 6:0.32271834 
1 1:0.66504583 2:0.6524101 3:0.38233831 4:0.49330409 5:0.31231894 6:0.36409995 
1 1:0.6320342 2:0.15215009 3:0.32923603 4:0.55414954 5:0.7637314 6:0.50528859 
1 1:0.15280876 2:0.30985993 3:0.72935592 4:0.67334036 5:0.67962607 6:0.87100764 
1 1:0.20942292 2:0.40617298 3:0.226918 4:0.6900842 5:0.33498891 6:0.091917799 
1 1:0.48843574 2:0.71762108 3:0.82086163 4:0.28509837 5:0.14783331 6:0.46045731 
1 1:0.94671399 2:0.47721636 3:0.62406051 4:0.24156291 5:0.50771888 6:0.55998986 
1 1:0.1395022 2:0.61872465 3:0.43045978 4:0.63371619 5:0.2925202 6:0.60904168 
1 1:0.27111127 2:0.6537361 3:0.48921159 4:0.67845367 5:0.62883188 6:0.401505 
1 1:0.69037127 2:0.49762471 3:0.89983645 4:0.05810068 5:0.4230011 6:0.84564656 
1 1:0.5593646 2:0.22322862 3:0.79698703 4:0.49216094 5:0.58434743 6:0.62510558 
1 1:0.74416342 2:0.17874957 3:0.61868767 4:0.89014313 5:0.17692208 6:0.78607931 
1 1:0.11139517 2:0.5192086 3:0.50849517 4:0.61485098 5:0.63447716 6:0.37294447 
1 1:0.57632667 2:0.75804178 3:0.6351365 4:0.66310914 5:0.51488114 6:0.67380588 
1 1:0.66796641 2:0.22736112 3:0.8571967 4:0.48895392 5:0.52051644 6:0.84509635 
1 1:0.90823224 2:0.51146862 3:0.63355179 4:0.70430486 5:0.31595122 6:0.5843362 
1 1:0.15117008 2:0.46751649 3:0.19545144 4:0.33799734 5:0.33495149 6:0.057747827 
1 1:0.58400392 2:0.54937363 3:0.92789471 4:0.80398483 5:0.63146954 6:0.6884843 
1 1:0.84998367 2:0.38588154 3:0.51517513 4:0.87923773 5:0.027221356 6:0.37159254 
1 1:0.54071525 2:0.66007828 3:0.72937749 4:0.87215261 5:0.099329438 6:0.64511019 
1 1:0.60985535 2:0.84121372 3:0.65978185 4:0.35064323 5:0.52411871 6:0.76283304 
1 1:0.27375218 2:0.809194 3:0.52396758 4:0.3399039 5:0.15328433 6:0.54511653 
1 1:0.40269022 2:0.60833997 3:0.81093083 4:0.068286163 5:0.59171108 6:0.83758405 
1 1:0.8959909 2:0.50796875 3:0.54675834 4:0.30911607 5:0.88587071 6:0.28496689 
1 1:0.39845746 2:0.32260164 3:0.13153736 4:0.31166889 5:0.24253932 6:0.70606154 
1 1:0.65959872 2:0.78861012 3:0.50440248 4:0.92873786 5:0.63413016 6:0.8199043 
1 1:0.73451302 2:0.77162877 3:0.59756618 4:0.19514266 5:0.26203817 6:0.11285894 
1 1:0.12390707 2:0.6263241 3:0.51029771 4:0.45436285 5:0.2555771 6:0.9020921 
1 1:0.64557913 2:0.19140285 3:0.54494453 4:0.58106893 5:0.51397213 6:0.96359063 
1 1:0.28363291 2:0.14655235 3:0.50452845 4:0.62391558 5:0.23056324 6:0.19660948 
1 1:0.65293077 2:0.7556267 3:0.67817354 4:0.86905732 5:0.65755648 6:0.99190542 
1 1:0.22575849 2:0.66659319 3:0.35340703 4:0.4691241 5:0.74098183 6:0.10578595 
1 1:0.30691718 2:0.80054645 3:0.29950765 4:0.51474045 5:0.58268734 6:0.24645685 
1 1:0.066497572 2:0.55170641 3:0.63767837 4:0.34059745 5:0.46792876 6:0.2092365 
1 1:0.64625068 2:0.70716854 3:0.75713238 4:0.27633052 5:0.47939728 6:0.31430132 
1 1:0.33831176 2:0.70311294 3:0.7753176 4:0.88842533 5:0.63403193 6:0.2858392 
1 1:0.72841866 2:0.15319796 3:0.40693865 4:0.23063402 5:0.30005572 6:0.42176534 
1 1:0.16390955 2:0.64195837 3:0.61105515 4:0.3605289 5:0.54272748 6:0.34657433 
1 1:0.5651726 2:0.18889861 3:0.5401698 4:0.32662965 5:0.72101451 6:0.35190325 
1 1:0.089395683 2:0.58417836 3:0.53078583 4:0.48218069 5:0.72832685 6:0.80140078 
1 1:0.76180818 2:0.54686824 3:0.15199981 4:0.66275292 5:0.71568395 6:0.87273227 
1 1:0.75220332 2:0.22589241 3:0.2937912 4:0.99938195 5:0.37311871 6:0.28704285 
1 1:0.2435209 2:0.22769311 3:0.57255554 4:0.94783765 5:0.48811387 6:0.82226171 
1 1:0.62720913 2:0.21501687 3:0.81151091 4:0.67991476 5:0.55175297 6:0.57464046 
1 1:0.71962571 2:0.74499587 3:0.4087382 4:0.44289504 5:0.93983535 6:0.86741166 
1 1:0.9365724 2:0.45104706 3:0.57041597 4:0.63455324 5:0.44344236 6:0.74615649 
1 1:0.84940535 2:0.56614821 3:0.53146267 4:0.78028041 5:0.55265401 6:0.80946461 
1 1:0.7752061 2:0.17254224 3:0.51390192 4:0.46326344 5:0.62511962 6:0.11764787 
1 1:0.71864128 2:0.28311389 3:0.17966084 4:0.17552065 5:0.32612251 6:0.6677935 
1 1:0.53767754 2:0.20329735 3:0.46805804 4:0.35742282 5:0.81512565 6:0.46172545 
1 1:0.71574726 2:0.29989158 3:0.80278845 4:0.66439823 5:0.35145065 6:0.22445758 
1 1:0.66368827 2:0.17225502 3:0.71643331 4:0.33909578 5:0.71243897 6:0.30733366 
1 1:0.61009604 2:0.066727328 3:0.58557722 4:0.6451751 5:0.47810112 6:0.62781279 
1 1:0.25796611 2:0.22274299 3:0.30041313 4:0.22606689 5:0.77268175 6:0.60463099 
1 1:0.41739859 2:0.3781853 3:0.12924787 4:0.98571057 5:0.49057935 6:0.62351821 
1 1:0.65773309 2:0.78969744 3:0.37337762 4:0.72433378 5:0.59837529 6:0.83201796 
1 1:0.59747949 2:0.72380637 3:0.39591007 4:0.96757327 5:0.51310126 6:0.59754441 
0.9428342695250292 1:0.24085079 2:0.26583712 3:0.19326551 4:0.23616898 5:0.15760969 6:0.45265252 
1 1:0.61607948 2:0.69945943 3:0.50050467 4:0.023392361 5:0.73390487 6:0.83218434 
1 1:0.43975662 2:0.1464471 3:0.64296348 4:0.26020237 5:0.43773424 6:0.79573788 
1 1:0.36777454 2:0.22463113 3:0.63986372 4:0.77457754 5:0.59205166 6:0.42493214 
1 1:0.25056205 2:0.71401175 3:0.61973603 4:0.73885621 5:0.58533317 6:0.72999689 
1 1:0.15118871 2:0.64989094 3:0.37388332 4:0.51108822 5:0.19146152 6:0.82121855 
1 1:0.60790188 2:0.21015113 3:0.32022728 4:0.29372966 5:0.17490401 6:0.82713515 
1 1:0.57257951 2:0.18598555 3:0.31974309 4:0.31994419 5:0.67461179 6:0.43785621 
1 1:0.59785066 2:0.27826017 3:0.34829149 4:0.88605492 5:0.48173511 6:0.3703874 
1 1:0.054426486 2:0.34027952 3:0.3949061 4:0.56285999 5:0.33520462 6:0.8909975 
1 1:0.75518162 2:0.22009633 3:0.3259509 4:0.28785031 5:0.47294659 6:0.67393836 
1 1:0.88014715 2:0.65032262 3:0.65487005 4:0.57966028 5:0.52481621 6:0.96180374 
1 1:0.81834634 2:0.54423656 3:0.12905266 4:0.3077628 5:0.33812387 6:0.6881331 
1 1:0.73557432 2:0.55533215 3:0.23555869 4:0.19422078 5:0.53691496 6:0.059428307 
1 1:0.62041336 2:0.69924722 3:0.62836254 4:0.85595449 5:0.48755888 6:0.59463417 
1 1:0.23096979 2:0.49687581 3:0.11333982 4:0.18590617 5:0.59265978 6:0.39980646 
1 1:0.51692728 2:0.6848552 3:0.81861462 4:0.2514406 5:0.80998057 6:0.59392226 
1 1:0.60987794 2:0.14704882 3:0.50975132 4:0.27786698 5:0.57398368 6:0.6757067 
1 1:0.41475485 2:0.38784701 3:0.92047803 4:0.51175228 5:0.42361001 6:0.38901967 
1 1:0.71410795 2:0.49470749 3:0.85757105 4:0.010551312 5:0.75807486 6:0.30173552 
1 1:0.89697447 2:0.34619527 3:0.69860439 4:0.63057314 5:0.71560657 6:0.58420888 
1 1:0.41906735 2:0.6725501 3:0.50384169 4:0.077877006 5:0.5641183 6:0.88356806 
1 1:0.43469889 2:0.37481694 3:0.95060839 4:0.39472146 5:0.50847236 6:0.74007421 
1 1:0.72643571 2:0.71726258 3:0.19299821 4:0.25979014 5:0.51138624 6:0.27679252 
1 1:0.32054466 2:0.52253973 3:0.9463657 4:0.37681842 5:0.40568506 6:0.14352753 
1 1:0.39767719 2:0.77195975 3:0.55985154 4:0.91859448 5:0.038038159 6:0.46516914 
1 1:0.45141611 2:0.54105639 3:0.84291135 4:0.8689609 5:0.33733137 6:0.61416812 
1 1:0.39807066 2:0.15527692 3:0.69008678 4:0.64273876 5:0.33364754 6:0.21123741 
1 1:0.49841557 2:0.085839588 3:0.43556983 4:0.42555708 5:0.15931049 6:0.30108569 
1 1:0.41578895 2:0.54085251 3:0.15001225 4:0.57478499 5:0.75748807 6:0.30543416 
1 1:0.29480493 2:0.77754992 3:0.31967327 4:0.6988696 5:0.23810826 6:0.23415674 
1 1:0.74657158 2:0.22293522 3:0.70111178 4:0.24829829 5:0.19651383 6:0.89852955 
1 1:0.1489601 2:0.32109399 3:0.28990588 4:0.27752723 5:0.64939609 6:0.79880645 
1 1:0.31123984 2:0.59163012 3:0.81513799 4:0.24100584 5:0.21741709 6:0.57043299 
1 1:0.76365414 2:0.29934683 3:0.18723293 4:0.20841277 5:0.3686591 6:0.87220775 
1 1:0.57919263 2:0.57893602 3:0.11781387 4:0.79456976 5:0.56597538 6:0.98884569 
1 1:0.50495296 2:0.29898862 3:0.60690945 4:0.94069417 5:0.40297413 6:0.42484429 
1 1:0.14636053 2:0.65278453 3:0.67982437 4:0.62363155 5:0.19124172 6:0.30137223 
1 1:0.74344775 2:0.68556846 3:0.66766666 4:0.17821968 5:0.64386684 6:0.27020142 
1 1:0.59957267 2:0.29701207 3:0.2058184 4:0.26794351 5:0.54878498 6:0.23819195 
1 1:0.8673785 2:0.39149675 3:0.17660231 4:0.44149611 5:0.54107667 6:0.58391112 
1 1:0.86461053 2:0.69685398 3:0.42815058 4:0.26755967 5:0.47244891 6:0.30386409 
1 1:0.61200923 2:0.17896863 3:0.44375451 4:0.19781643 5:0.095232104 6:0.42590778 
1 1:0.42518066 2:0.62603189 3:0.17275749 4:0.7820796 5:0.69287293 6:0.85503797 
1 1:0.61360835 2:0.7200947 3:0.51398751 4:0.45858144 5:0.53978593 6:0.46134761 
1 1:0.65463706 2:0.68232094 3:0.56537892 4:0.47406553 5:0.70084885 6:0.12341891 
1 1:0.42841841 2:0.68185971 3:0.083998642 4:0.47834545 5:0.41358392 6:0.20969835 
1 1:0.51566913 2:0.72243296 3:0.51895162 4:0.2400578 5:0.27976183 6:0.51657644 
1 1:0.18044756 2:0.63164291 3:0.57984971 4:0.61511079 5:0.28522725 6:0.31234535 
1 1:0.7635028 2:0.26415719 3:0.27784071 4:0.42256294 5:0.40096049 6:0.35934149 
1 1:0.83349634 2:0.47282729 3:0.16718523 4:0.43441517 5:0.73243687 6:0.80711926 
1 1:0.10310773 2:0.49527057 3:0.32754685 4:0.17765398 5:0.62829173 6:0.68584422 
1 1:0.22709376 2:0.27967143 3:0.22337091 4:0.24232223 5:0.26871218 6:0.64069549 
1 1:0.50424203 2:0.38957824 3:0.87741712 4:0.45126074 5:0.57369926 6:0.065680412 
1 1:0.41590853 2:0.084774699 3:0.64741537 4:0.38318364 5:0.52226414 6:0.47369932 
1 1:0.30558307 2:0.10546434 3:0.49700765 4:0.27197085 5:0.51429246 6:0.47218843 
1 1:0.65945086 2:0.20660597 3:0.66239616 4:0.68372948 5:0.17535641 6:0.97159648 
1 1:0.37398547 2:0.24748685 3:0.1913115 4:0.34385327 5:0.32084403 6:0.80195117 
1 1:0.35189522 2:0.73444576 3:0.31728134 4:0.3824874 5:0.41158031 6:0.96909211 
1 1:0.28306281 2:0.17581618 3:0.41976783 4:0.61993376 5:0.69503812 6:0.48871494 
1 1:0.094118333 2:0.31296891 3:0.47642034 4:0.77971746 5:0.45468034 6:0.93380218 
1 1:0.65466389 2:0.21198063 3:0.41546068 4:0.6008919 5:0.35167929 6:0.65347952 
1 1:0.60431637 2:0.096573884 3:0.53097681 4:0.63819179 5:0.13440837 6:0.59727284 
1 1:0.60864863 2:0.72452786 3:0.4768403 4:0.47984545 5:0.69268829 6:0.21594067 
1 1:0.27029315 2:0.39226904 3:0.90539741 4:0.5356811 5:0.27761384 6:0.49075405 
1 1:0.69886195 2:0.79380539 3:0.605404 4:0.20813784 5:0.30617033 6:0.18377757 
1 1:0.84888655 2:0.2493214 3:0.43669116 4:0.1106554 5:0.56779954 6:0.97172723 
1 1:0.69439129 2:0.36761404 3:0.11855006 4:0.66411515 5:0.31679221 6:0.11151522 
1 1:0.3635328 2:0.14286644 3:0.50059668 4:0.95757618 5:0.75602863 6:0.10360618 
1 1:0.2685938 2:0.26991453 3:0.82390713 4:0.32011507 5:0.5317711 6:0.1519325 
1 1:0.77229619 2:0.59920147 3:0.71490094 4:0.16419335 5:0.39618025 6:0.68896421 
1 1:0.78016566 2:0.40556783 3:0.30520299 4:0.24367258 5:0.16080612 6:0.31080274 
1 1:0.73058787 2:0.37053777 3:0.84003368 4:0.55910057 5:0.45595811 6:0.098564139 
1 1:0.11458407 2:0.39633461 3:0.47098805 4:0.85319273 5:0.81578713 6:0.31919781 
1 1:0.32790083 2:0.6371592 3:0.68808485 4:0.15688581 5:0.6212008 6:0.80971058 
1 1:0.68954125 2:0.2159591 3:0.19497464 4:0.6364512 5:0.55096595 6:0.8417056 
1 1:0.4831964 2:0.68856182 3:0.10190234 4:0.66005852 5:0.25906644 6:0.53492176 
1 1:0.79262843 2:0.19052387 3:0.59674267 4:0.10017365 5:0.38908377 6:0.55363181 
1 1:0.51890212 2:0.16815792 3:0.60714609 4:0.71314342 5:0.42003047 6:0.57425461 
1 1:0.30859638 2:0.2865395 3:0.77073752 4:0.54398666 5:0.84988474 6:0.93933385 
1 1:0.70115936 2:0.68323669 3:0.84816486 4:0.74253784 5:0.37660048 6:0.47718163 
1 1:0.52448475 2:0.67842313 3:0.66717994 4:0.82971749 5:0.11657832 6:0.75767059 
1 1:0.67167627 2:0.44058641 3:0.86126699 4:0.0022794611 5:0.54848554 6:0.4111248 
1 1:0.70190933 2:0.78116774 3:0.41665517 4:0.71769025 5:0.36622572 6:0.85738643 
1 1:0.79899423 2:0.62832608 3:0.70837838 4:0.27623694 5:0.48895228 6:0.39211392 
1 1:0.41755721 2:0.49911071 3:0.89808735 4:0.0012705951 5:0.66449834 6:0.36737218 
1 1:0.36878717 2:0.67685487 3:0.2427465 4:0.27785271 5:0.6032183 6:0.75789065 
1 1:0.39250973 2:0.40367402 3:0.061802458 4:0.44142732 5:0.56477193 6:0.35033417 
1 1:0.76601245 2:0.69096861 3:0.25003613 4:0.53012427 5:0.27590211 6:0.68996809 
1 1:0.27219681 2:0.20376526 3:0.51028275 4:0.63836161 5:0.82087249 6:0.69779917 
1 1:0.32099102 2:0.64971513 3:0.88409336 4:0.30209247 5:0.51572689 6:0.3756234 
1 1:0.66251924 2:0.61568831 3:0.68589463 4:0.16734112 5:0.49925827 6:0.42612072 
1 1:0.46463219 2:0.67222743 3:0.7159813 4:0.90113574 5:0.79734077 6:0.41505736 
1 1:0.4082522 2:0.12722967 3:0.33187964 4:0.32313505 5:0.61663449 6:0.56871361 
1 1:0.68987812 2:0.73425129 3:0.26269921 4:0.47257739 5:0.76779807 6:0.4095284 
1 1:0.54147882 2:0.27514166 3:0.92798941 4:0.56168289 5:0.52181885 6:0.52906377 
1 1:0.67454392 2:0.79097525 3:0.60793771 4:0.37893761 5:0.58885043 6:0.41480024 
1 1:0.90213577 2:0.4638998 3:0.51070967 4:0.66870658 5:0.67484155 6:0.25772914 
1 1:0.39782665 2:0.15700365 3:0.62755581 4:0.71231955 5:0.76782628 6:0.9888908 
1 1:0.1017917 2:0.5291564 3:0.67764296 4:0.4572892 5:0.57346242 6:0.22417214 
1 1:0.29336942 2:0.20694047 3:0.35135813 4:0.52436666 5:0.06745151 6:0.13660789 
1 1:0.60919683 2:0.11446777 3:0.35344544 4:0.32589791 5:0.51255972 6:0.27257641 
1 1:0.69807746 2:0.17231539 3:0.26302869 4:0.22082899 5:0.45588436 6:0.54201226 
1 1:0.38343574 2:0.12965687 3:0.31245189 4:0.037821478 5:0.30923445 6:0.32725988 
1 1:0.63293631 2:0.23444553 3:0.48072015 4:0.195544 5:0.63784469 6:0.34113418 
1 1:0.52828329 2:0.10123451 3:0.40231201 4:0.28126885 5:0.58739674 6:0.50288866 
1 1:0.1849999 2:0.22851034 3:0.34929307 4:0.20418631 5:0.13742653 6:0.48621305 
1 1:0.63656898 2:0.77321695 3:0.39684063 4:0.91301296 5:0.8042881 6:0.52622775 
1 1:0.75368713 2:0.14593223 3:0.4557842 4:0.36853503 5:0.40798895 6:0.9810564 
1 1:0.40470756 2:0.75562694 3:0.45037563 4:0.65319851 5:0.60166888 6:0.34376034 
1 1:0.51793634 2:0.14512256 3:0.61995385 4:0.28546044 5:0.21545686 6:0.11244245 
1 1:0.75290321 2:0.67400346 3:0.27357967 4:0.22774831 5:0.36583331 6:0.3596576 
1 1:0.90256279 2:0.4763518 3:0.69621135 4:0.13402636 5:0.75959916 6:0.65207675 
1 1:0.69661609 2:0.74990019 3:0.62287291 4:0.77794071 5:0.65377784 6:0.057849044 
1 1:0.47605121 2:0.6844673 3:0.77402186 4:0.81246266 5:0.25839309 6:0.63416555 
1 1:0.73176123 2:0.39864702 3:0.16042334 4:0.33298747 5:0.63721381 6:0.98403011 
1 1:0.53207652 2:0.71073952 3:0.2031692 4:0.69328022 5:0.2499291 6:0.36331609 
1 1:0.48294127 2:0.12922668 3:0.38552377 4:0.15400748 5:0.82335131 6:0.62396247 
1 1:0.727797 2:0.53090456 3:0.86071648 4:0.42573735 5:0.74423203 6:0.95934926 
1 1:0.86169289 2:0.2915719 3:0.52439713 4:0.32463024 5:0.70447464 6:0.56532345 
1 1:0.2504542 2:0.27910864 3:0.7869979 4:0.44814837 5:0.38601613 6:0.93655816 
1 1:0.59058769 2:0.76367741 3:0.31999156 4:0.19874749 5:0.45629118 6:0.55236932 
1 1:0.27006384 2:0.18810061 3:0.33749355 4:0.46693824 5:0.23691371 6:0.2808386 
1 1:0.89088639 2:0.19521026 3:0.48380308 4:0.59736009 5:0.45458484 6:0.55986304 
1 1:0.26503681 2:0.70486399 3:0.43264461 4:0.7647898 5:0.39828746 6:0.8542786 
1 1:0.49989802 2:0.68468041 3:0.066198368 4:0.44978843 5:0.58777849 6:0.58766467 
1 1:0.43805866 2:0.13993624 3:0.78173348 4:0.49961246 5:0.49668321 6:0.43357306 
1 1:0.52512763 2:0.85337396 3:0.58491006 4:0.076081986 5:0.4613797 6:0.72085608 
1 1:0.40052888 2:0.13471786 3:0.38279239 4:0.4354735 5:0.45988767 6:0.11972553 
1 1:0.36613808 2:0.12271244 3:0.48543775 4:0.441378 5:0.5486756 6:0.90746708 
1 1:0.76335097 2:0.38246374 3:0.73299415 4:0.41193824 5:0.40958923 6:0.33248845 
1 1:0.6045561 2:0.50371741 3:0.20648741 4:0.51006877 5:0.71172916 6:0.95516423 
1 1:0.32283134 2:0.47586455 3:0.92999709 4:0.60669855 5:0.27163932 6:0.39888804 
1 1:0.62340762 2:0.40717566 3:0.84447466 4:0.79076379 5:0.93096387 6:0.54866223 
1 1:0.76971098 2:0.22295907 3:0.53769338 4:0.53140429 5:0.11946788 6:0.79059878 
1 1:0.40970996 2:0.67623496 3:0.72739005 4:0.43776959 5:0.43218641 6:0.35269924 
1 1:0.65547014 2:0.25743555 3:0.47326597 4:0.56329075 5:0.8768093 6:0.6487301 
1 1:0.1803238 2:0.59804498 3:0.54267078 4:0.1040111 5:0.69725213 6:0.238853 
1 1:0.23702179 2:0.23837516 3:0.7423977 4:0.52143832 5:0.6026338 6:0.34977156 
1 1:0.7563265 2:0.23219549 3:0.76536779 4:0.88181563 5:0.5880853 6:0.45566035 
1 1:0.75942726 2:0.70576262 3:0.51915393 4:0.23424775 5:0.17829177 6:0.21545374 
1 1:0.82033917 2:0.56276306 3:0.42852479 4:0.68986441 5:0.27829741 6:0.71046934 
1 1:0.60741825 2:0.22551333 3:0.86292742 4:0.42716729 5:0.54443763 6:0.09833395 
1 1:0.60351792 2:0.20121585 3:0.25077534 4:0.15785938 5:0.13802982 6:0.95874806 
1 1:0.9068623 2:0.37369681 3:0.51299593 4:0.22410086 5:0.77701973 6:0.0088890578 
1 1:0.73106603 2:0.69766894 3:0.39414463 4:0.26226946 5:0.30117357 6:0.44050301 
1 1:0.34403717 2:0.41141353 3:0.086872446 4:0.87195255 5:0.40326932 6:0.86134378 
1 1:0.16868322 2:0.62003726 3:0.33067908 4:0.94154422 5:0.74585893 6:0.83753592 
1 1:0.89829966 2:0.44584199 3:0.28698844 4:0.54591499 5:0.34364131 6:0.89965904 
1 1:0.7353412 2:0.42052347 3:0.12919674 4:0.35246809 5:0.5320309 6:0.66096354 
1 1:0.068229099 2:0.41881638 3:0.68424272 4:0.7378942 5:0.6127097 6:0.56736165 
1 1:0.76466132 2:0.64528945 3:0.28556087 4:0.21922511 5:0.49574196 6:0.075497048 
1 1:0.5359711 2:0.33997187 3:0.094971128 4:0.37696742 5:0.59838864 6:0.48451652 
1 1:0.43332781 2:0.1728242 3:0.37492209 4:0.66580741 5:0.47669452 6:0.34063219 
1 1:0.43497885 2:0.15727136 3:0.75056425 4:0.38446137 5:0.68814964 6:0.42903701 
1 1:0.44346482 2:0.14417615 3:0.54974299 4:0.17337138 5:0.61648831 6:0.1377953 
1 1:0.24501655 2:0.6726581 3:0.58477647 4:0.10365984 5:0.60024535 6:0.63469993 
1 1:0.37702195 2:0.70471291 3:0.807052 4:0.17588906 5:0.59390232 6:0.46715066 
1 1:0.48960593 2:0.52396852 3:0.053566975 4:0.26875368 5:0.51445633 6:0.18969033 
1 1:0.26045733 2:0.27879036 3:0.27990657 4:0.7857732 5:0.83748786 6:0.26241606 
1 1:0.31544139 2:0.097634922 3:0.45435603 4:0.74591839 5:0.42333472 6:0.33075324 
1 1:0.89272246 2:0.57059068 3:0.62275076 4:0.84524025 5:0.60444085 6:0.23297767 
1 1:0.63936856 2:0.69607453 3:0.76429541 4:0.883693 5:0.2397758 6:0.60477534 
1 1:0.91751568 2:0.50425319 3:0.5989894 4:0.71771824 5:0.74560555 6:0.4380306 
1 1:0.55523942 2:0.26988163 3:0.79083876 4:0.59313609 5:0.84056271 6:0.71009742 
1 1:0.37487567 2:0.3770253 3:0.89192621 4:0.50831564 5:0.40961356 6:0.4693579 
1 1:0.12018541 2:0.33079236 3:0.41606401 4:0.51479539 5:0.67821009 6:0.11547991 
1 1:0.74414243 2:0.19795338 3:0.32084624 4:0.45900375 5:0.79593409 6:0.062749493 
1 1:0.18445914 2:0.34960685 3:0.82916163 4:0.53245312 5:0.30366133 6:0.29892209 
1 1:0.77416741 2:0.66759 3:0.61485685 4:0.99936838 5:0.47363078 6:0.6794779 
1 1:0.30530392 2:0.14947018 3:0.50872875 4:0.041396204 5:0.42282002 6:0.56784255 
1 1:0.46463173 2:0.15989483 3:0.40155222 4:0.51973198 5:0.57256821 6:0.58924269 
1 1:0.51085821 2:0.21317941 3:0.64907092 4:0.22667645 5:0.50910712 6:0.5866069 
1 1:0.56343933 2:0.15971577 3:0.54225697 4:0.49112997 5:0.17406241 6:0.82187065 
1 1:0.48743558 2:0.7831979 3:0.4547897 4:0.78579437 5:0.5484075 6:0.22171823 
1 1:0.45879511 2:0.091050027 3:0.35911804 4:0.72401905 5:0.28811312 6:0.48614499 
1 1:0.61386959 2:0.28442104 3:0.83620787 4:0.88704131 5:0.31091216 6:0.59440137 
1 1:0.55439055 2:0.45195064 3:0.90054373 4:0.021692274 5:0.28132285 6:0.29926273 
1 1:0.53413184 2:0.73943153 3:0.45769927 4:0.70248879 5:0.66230902 6:0.83000644 
1 1:0.40003455 2:0.25000792 3:0.79296322 4:0.31195293 5:0.35074458 6:0.8271061 
1 1:0.74955491 2:0.68624471 3:0.72127005 4:0.30304615 5:0.63024922 6:0.27258123 
1 1:0.10353262 2:0.46896783 3:0.28579436 4:0.76729726 5:0.40596567 6:0.66736518 
1 1:0.41190932 2:0.66460776 3:0.82821658 4:0.97901829 5:0.31109734 6:0.86860116 
1 1:0.50682419 2:0.36366711 3:0.087071767 4:0.42040536 5:0.54428289 6:0.36211864 
1 1:0.59664379 2:0.16747138 3:0.74234286 4:0.25404544 5:0.26890857 6:0.72551346 
1 1:0.96069645 2:0.50385305 3:0.65295691 4:0.25729121 5:0.38241636 6:0.58553812 
1 1:0.45674364 2:0.74248071 3:0.44335305 4:0.029913974 5:0.49644088 6:0.53413041 
1 1:0.36437673 2:0.21320511 3:0.57303448 4:0.069719046 5:0.50239206 6:0.12733067 
1 1:0.63440833 2:0.5976897 3:0.81986513 4:0.88594907 5:0.53097839 6:0.66854373 
1 1:0.58147835 2:0.51293746 3:0.91625337 4:0.90047996 5:0.5681919 6:0.64577325 
1 1:0.63086374 2:0.69733598 3:0.19241607 4:0.94390504 5:0.50131215 6:0.51679657 
1 1:0.56076985 2:0.82246128 3:0.36014833 4:0.72743506 5:0.60621287 6:0.60874444 
1 1:0.68053182 2:0.67158838 3:0.82645265 4:0.42457722 5:0.65962923 6:0.87694222 
1 1:0.80878062 2:0.46974042 3:0.13459091 4:0.60744728 5:0.40565935 6:0.54316541 
1 1:0.51984055 2:0.47723498 3:0.049766732 4:0.49176657 5:0.26332731 6:0.46985679 
1 1:0.83940231 2:0.68965776 3:0.40112963 4:0.58824852 5:0.39853128 6:0.060441386 
1 1:0.066970799 2:0.48184482 3:0.43727562 4:0.37869817 5:0.54470585 6:0.020147244 
1 1:0.15423588 2:0.44063065 3:0.68491754 4:0.69039081 5:0.32902764 6:0.16960742 
1 1:0.70375127 2:0.31115068 3:0.257305 4:0.78846427 5:0.64307223 6:0.87658114 
1 1:0.71272819 2:0.17687 3:0.49407042 4:0.33626856 5:0.23070755 6:0.38257932 
1 1:0.7195011 2:0.42725345 3:0.80177004 4:0.79147379 5:0.76708141 6:0.80445323 
1 1:0.33765493 2:0.51604396 3:0.85917259 4:0.45989501 5:0.88075452 6:0.023505157 
1 1:0.7802846 2:0.35736166 3:0.59809459 4:0.36095904 5:0.66734938 6:0.22556202 
1 1:0.91608143 2:0.49913384 3:0.3160847 4:0.17541982 5:0.67278204 6:0.71339286 
1 1:0.095934338 2:0.41505144 3:0.65852669 4:0.65100045 5:0.36515018 6:0.40117299 
1 1:0.68166731 2:0.35067092 3:0.73654383 4:0.93459646 5:0.34070769 6:0.24213204 
1 1:0.20531757 2:0.28807956 3:0.3331857 4:0.012381996 5:0.31385165 6:0.88674489 
1 1:0.056733189 2:0.5713467 3:0.41918052 4:0.51567416 5:0.40160545 6:0.81555328 
1 1:0.45557103 2:0.11769749 3:0.66126538 4:0.33186992 5:0.61991506 6:0.9371147 
1 1:0.4262109 2:0.6684606 3:0.17606935 4:0.14652116 5:0.37240654 6:0.63524061 
1 1:0.37119504 2:0.19824388 3:0.24495232 4:0.82933211 5:0.31133033 6:0.25564762 
1 1:0.4326052 2:0.6953386 3:0.35098163 4:0.033685815 5:0.62131949 6:0.74090278 
1 1:0.46285475 2:0.7568657 3:0.31792773 4:0.39585433 5:0.10470221 6:0.015489342 
1 1:0.26142543 2:0.5829142 3:0.22614046 4:0.21184761 5:0.25289486 6:0.64285664 
1 1:0.21178691 2:0.44310987 3:0.36300898 4:0.4427935 5:0.68852066 6:0.70608798 
1 1:0.28307409 2:0.63236466 3:0.81145409 4:0.58772132 5:0.36471788 6:0.23858594 
1 1:0.7227715 2:0.74487528 3:0.6377049 4:0.56079459 5:0.71353683 6:0.10391662 
1 1:0.42723311 2:0.70897836 3:0.8231078 4:0.41414589 5:0.39067768 6:0.10395745 
1 1:0.56759085 2:0.77948627 3:0.33652231 4:0.71396575 5:0.33278553 6:0.88365777 
1 1:0.28360931 2:0.39097059 3:0.84613047 4:0.5911595 5:0.22999388 6:0.66455233 
1 1:0.40070033 2:0.84815413 3:0.44184965 4:0.077494868 5:0.48107099 6:0.29309019 
1 1:0.36346849 2:0.13490677 3:0.73031776 4:0.58835659 5:0.68585744 6:0.15993136 
1 1:0.7847674 2:0.69957462 3:0.59813287 4:0.49966561 5:0.53523537 6:0.059589792 
1 1:0.78669882 2:0.15354841 3:0.44015707 4:0.077977537 5:0.64203397 6:0.48836945 
1 1:0.25253687 2:0.66892613 3:0.4599127 4:0.35259064 5:0.63329825 6:0.21695875 
1 1:0.26744269 2:0.27949097 3:0.50172317 4:0.79980774 5:0.06987025 6:0.57822353 
1 1:0.10545261 2:0.5909826 3:0.51220125 4:0.71494649 5:0.58302713 6:0.84613312 
1 1:0.085355458 2:0.34727312 3:0.54111219 4:0.37311043 5:0.48645821 6:0.21028003 
1 1:0.62983924 2:0.38113345 3:0.1900441 4:0.3191144 5:0.69026288 6:0.18983429 
1 1:0.20886948 2:0.35464625 3:0.17932174 4:0.791196 5:0.20628986 6:0.34209292 
1 1:0.66208608 2:0.18032748 3:0.43054508 4:0.33729179 5:0.78851099 6:0.56858898 
1 1:0.67327815 2:0.6841318 3:0.79198773 4:0.89057417 5:0.77744148 6:0.23348902 
1 1:0.72033375 2:0.67843815 3:0.74108167 4:0.40248126 5:0.28199119 6:0.60542634 
1 1:0.83647552 2:0.26735927 3:0.39116839 4:0.83690966 5:0.7503803 6:0.67933171 
1 1:0.33589591 2:0.40152988 3:0.13819104 4:0.66256627 5:0.44999572 6:0.90026524 
1 1:0.96675039 2:0.42779187 3:0.39827124 4:0.33341101 5:0.3793531 6:0.78063618 
0.4915916947484146 1:0.64053462 2:0.08542572 3:0.44103733 4:0.17561865 5:0.2399228 6:0.42066119 
1 1:0.5286854 2:0.7643248 3:0.30083875 4:0.21964611 5:0.45118503 6:0.12165741 
1 1:0.58834401 2:0.46788413 3:0.08686248 4:0.54093983 5:0.74199361 6:0.87139555 
1 1:0.43605215 2:0.23691403 3:0.4129167 4:0.8136732 5:0.37146759 6:0.25013902 
1 1:0.23732279 2:0.48247 3:0.16690919 4:0.34708734 5:0.5837345 6:0.19327176 
1 1:0.21982712 2:0.3391421 3:0.74655712 4:0.57655845 5:0.60890432 6:0.42921433 
1 1:0.5260401 2:0.11444232 3:0.31433214 4:0.32481196 5:0.85067524 6:0.59163761 
1 1:0.17180285 2:0.36585093 3:0.37872946 4:0.93042028 5:0.1199721 6:0.26867692 
1 1:0.47396839 2:0.61579013 3:0.077802174 4:0.5265921 5:0.78380994 6:0.45561204 
1 1:0.59151587 2:0.25714945 3:0.85752166 4:0.86844357 5:0.38358531 6:0.10836037 
1 1:0.45586676 2:0.31911807 3:0.17355827 4:0.82934347 5:0.64966478 6:0.026090968 
1 1:0.062864256 2:0.4453415 3:0.61446033 4:0.66133319 5:0.40232455 6:0.27580644 
1 1:0.43452945 2:0.18280701 3:0.33720254 4:0.74617503 5:0.74943613 6:0.091550074 
1 1:0.40842234 2:0.41909831 3:0.12134049 4:0.572111 5:0.1670807 6:0.098849065 
1 1:0.57488152 2:0.71554647 3:0.69128456 4:0.907622 5:0.1406026 6:0.69689232 
1 1:0.77678348 2:0.35690432 3:0.73994041 4:0.78134193 5:0.35560635 6:0.40027728 
1 1:0.63708475 2:0.75373196 3:0.50705786 4:0.2090013 5:0.064335043 6:0.99329243 
1 1:0.4562499 2:0.37276975 3:0.099704254 4:0.022496395 5:0.42826558 6:0.5469191 
1 1:0.51175932 2:0.74033654 3:0.786641 4:0.39929515 5:0.67740808 6:0.88605195 
1 1:0.77271962 2:0.6954823 3:0.23876932 4:0.81756638 5:0.49687439 6:0.20223664 
1 1:0.48545133 2:0.14904979 3:0.59062866 4:0.070858088 5:0.68886632 6:0.97851252 
1 1:0.66331571 2:0.67542113 3:0.87956682 4:0.37360577 5:0.47633448 6:0.80682602 
1 1:0.26955229 2:0.14737788 3:0.5674105 4:0.48034528 5:0.41492266 6:0.66929119 
1 1:0.81276944 2:0.26773042 3:0.54753665 4:0.86900447 5:0.26417678 6:0.51796437 
1 1:0.61024218 2:0.29744938 3:0.24878118 4:0.82921821 5:0.12280931 6:0.45074759 
1 1:0.54630722 2:0.62239434 3:0.085252294 4:0.23009824 5:0.46265295 6:0.98717792 
1 1:0.36150143 2:0.58968546 3:0.90845958 4:0.81149946 5:0.64575551 6:0.5177408 
1 1:0.86981015 2:0.42140903 3:0.20307457 4:0.31436839 5:0.42388329 6:0.69994149 
1 1:0.57024628 2:0.1051404 3:0.38327381 4:0.46838435 5:0.30994092 6:0.079587583 
1 1:0.61646042 2:0.27378981 3:0.088114042 4:0.54102713 5:0.29020255 6:0.69420383 
1 1:0.81116022 2:0.52166142 3:0.14681137 4:0.41455196 5:0.51086362 6:0.10340557 
1 1:0.49266949 2:0.3794088 3:0.10402236 4:0.98837049 5:0.63201048 6:0.87695934 
1 1:0.83020258 2:0.56739151 3:0.81308699 4:0.52110108 5:0.51677631 6:0.22359564 
1 1:0.83777003 2:0.21609956 3:0.44562484 4:0.47262307 5:0.63814097 6:0.50011229 
1 1:0.74746673 2:0.55041025 3:0.78002958 4:0.83906752 5:0.25282767 6:0.47658998 
1 1:0.28148829 2:0.19423529 3:0.27168674 4:0.17001379 5:0.61815662 6:0.29205465 
1 1:0.59730563 2:0.40728453 3:0.90901139 4:0.20771541 5:0.66961073 6:0.41697009 
1 1:0.29948682 2:0.65947577 3:0.26240015 4:0.25149951 5:0.42127086 6:0.65795647 
1 1:0.77501832 2:0.62514786 3:0.35051542 4:0.57061448 5:0.91380334 6:0.27034378 
1 1:0.51903757 2:0.14581652 3:0.64940692 4:0.14412974 5:0.5454171 6:0.56899008 
1 1:0.27014719 2:0.37845466 3:0.74168798 4:0.90245064 5:0.68592084 6:0.57366857 
1 1:0.43922306 2:0.46939634 3:0.9534667 4:0.92324259 5:0.44791178 6:0.40596281 
1 1:0.29372489 2:0.16283943 3:0.36127443 4:0.2803675 5:0.15508113 6:0.76830839 
1 1:0.70042094 2:0.22058953 3:0.79129954 4:0.43642 5:0.3815965 6:0.58033411 
1 1:0.57701531 2:0.25524729 3:0.14766857 4:0.17911691 5:0.32117038 6:0.35875782 
1 1:0.3413754 2:0.75506498 3:0.46600786 4:0.089034805 5:0.35131695 6:0.46148044 
1 1:0.33473096 2:0.77520407 3:0.29303463 4:0.68171338 5:0.68359333 6:0.13201019 
1 1:0.69555928 2:0.48148993 3:0.84803139 4:0.76486468 5:0.62255613 6:0.52789026 
1 1:0.91364389 2:0.50023564 3:0.44988034 4:0.16929827 5:0.51639791 6:0.73081255 
1 1:0.69826205 2:0.12690131 3:0.57561512 4:0.63419303 5:0.26550047 6:0.28039168 
1 1:0.10823989 2:0.37179158 3:0.24821499 4:0.55093648 5:0.72017834 6:0.46333923 
1 1:0.30204321 2:0.36818844 3:0.15602871 4:0.25976777 5:0.51385823 6:0.400107 
1 1:0.42014595 2:0.088288369 3:0.35604025 4:0.25057522 5:0.56944763 6:0.56943555 
1 1:0.58909061 2:0.78779635 3:0.25774151 4:0.25150466 5:0.67936676 6:0.78277858 
1 1:0.6869012 2:0.68628472 3:0.54459765 4:0.53909124 5:0.53920994 6:0.094966553 
1 1:0.78294554 2:0.26445068 3:0.46623077 4:0.243339 5:0.66112524 6:0.39605497 
1 1:0.52792238 2:0.75699252 3:0.54716267 4:0.071309855 5:0.36738294 6:0.53382797 
1 1:0.75983149 2:0.22811544 3:0.75583065 4:0.18376394 5:0.40756498 6:0.20767422 
1 1:0.60356965 2:0.77391761 3:0.6156267 4:0.54311478 5:0.47814161 6:0.44795976 
1 1:0.67919382 2:0.1161863 3:0.68965794 4:0.34690558 5:0.26848089 6:0.40473794 
1 1:0.6461977 2:0.1696595 3:0.60751851 4:0.052925254 5:0.57681604 6:0.73393115 
1 1:0.57179341 2:0.69674079 3:0.69509406 4:0.73572093 5:0.26487017 6:0.14998288 
1 1:0.75516461 2:0.25594579 3:0.27895628 4:0.35169552 5:0.61569056 6:0.37346658 
1 1:0.32357346 2:0.66193213 3:0.35492537 4:0.9468953 5:0.60663673 6:0.77535213 
1 1:0.43128197 2:0.84546483 3:0.69740891 4:0.48678112 5:0.36780437 6:0.69401917 
0.8660159491175901 1:0.5447001 2:0.75534148 3:0.15440801 4:0.41421689 5:0.25575695 6:0.28919124 
1 1:0.086831917 2:0.60643807 3:0.37287353 4:0.48818081 5:0.60019396 6:0.94770884 
0.7150345253407444 1:0.44063435 2:0.83786552 3:0.46930015 4:0.082734175 5:0.72709307 6:0.20561175 
1 1:0.54474146 2:0.74806766 3:0.2380412 4:0.57577161 5:0.85933991 6:0.072642071 
0.6864173762574168 1:0.49483341 2:0.14804951 3:0.26287698 4:0.78132667 5:0.16426582 6:0.86595078 
1 1:0.87591085 2:0.63580286 3:0.64391543 4:0.8952611 5:0.49240956 6:0.063905394 
1 1:0.46987672 2:0.81306986 3:0.55836799 4:0.77876366 5:0.66221203 6:0.6207803 
1 1:0.65504892 2:0.71160688 3:0.31744069 4:0.87495308 5:0.29905067 6:0.43092941 
1 1:0.70344313 2:0.20273353 3:0.39682257 4:0.11870053 5:0.070802692 6:0.43979006 
1 1:0.17955803 2:0.27121796 3:0.52286903 4:0.84667321 5:0.6289983 6:0.062847534 
1 1:0.14465924 2:0.7305014 3:0.5718968 4:0.49323107 5:0.25833907 6:0.74802744 
1 1:0.2108904 2:0.22624573 3:0.39351579 4:0.77360051 5:0.45868752 6:0.14673671 
1 1:0.66095263 2:0.14927536 3:0.4285456 4:0.89136684 5:0.75507013 6:0.91334144 
1 1:0.4431836 2:0.36030955 3:0.87687282 4:0.35030276 5:0.84366972 6:0.70153104 
1 1:0.33755374 2:0.69447027 3:0.77928281 4:0.53402248 5:0.29813742 6:0.18990688 
1 1:0.47217059 2:0.2783586 3:0.16826611 4:0.5799777 5:0.35926209 6:0.71727481 
0.3452488568049844 1:0.049739705 2:0.54261879 3:0.43373679 4:0.96036794 5:0.42854485 6:0.42419329 
1 1:0.33762962 2:0.64704351 3:0.63962133 4:0.21529963 5:0.41056563 6:0.64048991 
1 1:0.77747128 2:0.54837007 3:0.11764925 4:0.33757511 5:0.50612795 6:0.89332311 
1 1:0.22072324 2:0.23091948 3:0.55610458 4:0.8981589 5:0.43123958 6:0.30798238 
1 1:0.37823491 2:0.53350606 3:0.038891499 4:0.77647806 5:0.39154801 6:0.55735028 
1 1:0.30457447 2:0.61699399 3:0.13440648 4:0.7648724 5:0.70637416 6:0.64699175 
1 1:0.6462604 2:0.16197498 3:0.46293454 4:0.79563237 5:0.50822851 6:0.94086004 
1 1:0.21586679 2:0.23922611 3:0.59086185 4:0.70874343 5:0.50235673 6:0.20706555 
1 1:0.55000515 2:0.23403856 3:0.73736371 4:0.07620628 5:0.61932926 6:0.90037377 
1 1:0.62862338 2:0.26666951 3:0.82422809 4:0.97240228 5:0.50705003 6:0.082776006 
1 1:0.78529909 2:0.34343574 3:0.75764355 4:0.25939848 5:0.54637595 6:0.88031477 
1 1:0.22434551 2:0.56566711 3:0.80325442 4:0.20817741 5:0.2839358 6:0.63271293 
1 1:0.7837354 2:0.22784597 3:0.69155453 4:0.25967502 5:0.54891509 6:0.79205836 
1 1:0.58149716 2:0.64260301 3:0.15965174 4:0.47199111 5:0.62936784 6:0.24544194 
1 1:0.48429799 2:0.76824556 3:0.62225567 4:0.9055061 5:0.29534801 6:0.37781652 
1 1:0.52119006 2:0.33526426 3:0.8328893 4:0.56997386 5:0.38247549 6:0.39948595 
1 1:0.83267479 2:0.64233222 3:0.61724341 4:0.16362779 5:0.22117516 6:0.51308308 
1 1:0.84010984 2:0.31261853 3:0.2733536 4:0.53089909 5:0.38698737 6:0.18631695 
1 1:0.40848116 2:0.72465639 3:0.23529493 4:0.93361429 5:0.32591336 6:0.62890505 
1 1:0.8458306 2:0.34496756 3:0.6682295 4:0.39940218 5:0.71724585 6:0.57328062 
1 1:0.10623544 2:0.42067514 3:0.61558268 4:0.33090734 5:0.30297955 6:0.55571374 
1 1:0.77358864 2:0.13125439 3:0.48116511 4:0.37029144 5:0.26691809 6:0.66204971 
1 1:0.45411107 2:0.13718246 3:0.31291684 4:0.13666548 5:0.33565621 6:0.90158802 
1 1:0.18113358 2:0.69168507 3:0.60211645 4:0.82173332 5:0.20704521 6:0.33398168 
1 1:0.30341247 2:0.18883381 3:0.66254129 4:0.83176848 5:0.50480801 6:0.82629891 
1 1:0.76525657 2:0.47524165 3:0.12630589 4:0.43939851 5:0.7702151 6:0.27709135 
1 1:0.6730537 2:0.66114518 3:0.75665451 4:0.80779363 5:0.75222129 6:0.64130767 
1 1:0.071221986 2:0.3762353 3:0.64632664 4:0.34244796 5:0.31570887 6:0.59537953 
1 1:0.1093138 2:0.53110235 3:0.35732121 4:0.008254745 5:0.26150106 6:0.90267963 
1 1:0.47563919 2:0.28309217 3:0.89699653 4:0.017232473 5:0.45707645 6:0.58018654 
1 1:0.36798663 2:0.78932325 3:0.35362078 4:0.26471823 5:0.43452512 6:0.78026955 
1 1:0.58255413 2:0.11984441 3:0.60976698 4:0.68059593 5:0.75030954 6:0.63178057 
1 1:0.047303737 2:0.45936748 3:0.37882251 4:0.53565343 5:0.5167614 6:0.9550681 
1 1:0.32557467 2:0.68045817 3:0.65289657 4:0.82106161 5:0.66560813 6:0.63990302 
1 1:0.4154499 2:0.7497415 3:0.41797324 4:0.38617037 5:0.78805109 6:0.17376633 
1 1:0.12029622 2:0.42241465 3:0.73096819 4:0.62953637 5:0.2206936 6:0.50129302 
1 1:0.43703031 2:0.72803126 3:0.75239826 4:0.015077405 5:0.43754453 6:0.90595212 
1 1:0.2391212 2:0.77520971 3:0.58406902 4:0.91916228 5:0.41419388 6:0.38023038 
1 1:0.27365471 2:0.26402957 3:0.20154233 4:0.33523073 5:0.57332481 6:0.60701408 
1 1:0.46430567 2:0.87303298 3:0.57820308 4:0.41876682 5:0.53242701 6:0.14891452 
1 1:0.3060823 2:0.80213168 3:0.40762485 4:0.5009638 5:0.49975516 6:0.29210651 
1 1:0.25047775 2:0.5834029 3:0.15201739 4:0.69299031 5:0.50399553 6:0.71165972 
1 1:0.28698319 2:0.47807454 3:0.12194421 4:0.67603501 5:0.65120458 6:0.59222412 
1 1:0.050693163 2:0.41592746 3:0.37225282 4:0.28857284 5:0.68034643 6:0.62741115 
1 1:0.5446463 2:0.7965861 3:0.70730656 4:0.24620915 5:0.67501448 6:0.86007928 
1 1:0.58466727 2:0.15790997 3:0.28728925 4:0.57410937 5:0.38330056 6:0.14241703 
1 1:0.45901562 2:0.60035281 3:0.15673618 4:0.83413342 5:0.61534043 6:0.099992008 
1 1:0.49972977 2:0.7968127 3:0.42744943 4:0.014756945 5:0.21211702 6:0.44254635 
1 1:0.79592359 2:0.16659862 3:0.51041664 4:0.62833238 5:0.2333393 6:0.55707419 
1 1:0.70257974 2:0.77351817 3:0.55741571 4:0.62693994 5:0.49311563 6:0.89393596 
1 1:0.49461806 2:0.7410643 3:0.42034436 4:0.13220528 5:0.17829232 6:0.6750604 
1 1:0.85493922 2:0.2806249 3:0.67309151 4:0.47754017 5:0.66932649 6:0.74335002 
1 1:0.62586227 2:0.2103108 3:0.47672575 4:0.99475398 5:0.63186465 6:0.34818495 
1 1:0.15246229 2:0.57462936 3:0.79357045 4:0.79893876 5:0.25917514 6:0.49159881 
1 1:0.10873034 2:0.48980662 3:0.54654399 4:0.12926135 5:0.18272066 6:0.64822738 
1 1:0.47327122 2:0.73257265 3:0.35049553 4:0.22223289 5:0.3088702 6:0.47301309 
1 1:0.62494587 2:0.44608056 3:0.051890954 4:0.660361 5:0.64542124 6:0.71125475 
1 1:0.23996559 2:0.19307556 3:0.47772049 4:0.58843664 5:0.182459 6:0.69015991 
1 1:0.51750269 2:0.67251795 3:0.85988137 4:0.5545312 5:0.43113989 6:0.4435499 
1 1:0.23803608 2:0.4262127 3:0.17798668 4:0.46664844 5:0.53819674 6:0.69705181 
1 1:0.80018496 2:0.46674109 3:0.17878308 4:0.72451528 5:0.44174748 6:0.047864601 
1 1:0.19605856 2:0.29157777 3:0.24186207 4:0.34429738 5:0.32747409 6:0.3954664 
1 1:0.47758785 2:0.18145499 3:0.70502934 4:0.40252965 5:0.76929307 6:0.44211571 
1 1:0.8472854 2:0.54115735 3:0.19787074 4:0.47181372 5:0.7799481 6:0.43441803 
1 1:0.46995024 2:0.70866719 3:0.73569691 4:0.10732527 5:0.82703153 6:0.28181634 
1 1:0.42909821 2:0.82642442 3:0.2878717 4:0.59116865 5:0.50971811 6:0.088313288 
1 1:0.97730666 2:0.45135711 3:0.49941097 4:0.14580807 5:0.46375589 6:0.60525723 
1 1:0.39963962 2:0.78450316 3:0.72398002 4:0.66730339 5:0.36621104 6:0.67159454 
1 1:0.4831018 2:0.41219388 3:0.11844158 4:0.44092101 5:0.24810455 6:0.13094856 
1 1:0.21190476 2:0.42636725 3:0.13440628 4:0.485078 5:0.15299572 6:0.78372281 
1 1:0.64218194 2:0.69123603 3:0.50951763 4:0.99865409 5:0.32223415 6:0.74947127 
1 1:0.25454838 2:0.20356411 3:0.60841191 4:0.076589782 5:0.77780089 6:0.25124588 
1 1:0.89784737 2:0.53783492 3:0.56926089 4:0.96498188 5:0.54961571 6:0.55139588 
1 1:0.50434155 2:0.39425808 3:0.96451678 4:0.39654435 5:0.42292194 6:0.16712943 
1 1:0.14128053 2:0.67475045 3:0.37401268 4:0.2341154 5:0.53640403 6:0.61283887 
1 1:0.50270312 2:0.31222817 3:0.83749759 4:0.31864551 5:0.13208937 6:0.96122178 
1 1:0.52402901 2:0.68484941 3:0.22256263 4:0.73953527 5:0.51950601 6:0.066936826 
1 1:0.17828909 2:0.71388679 3:0.49130665 4:0.83596201 5:0.7324378 6:0.43214704 
1 1:0.92520053 2:0.47948479 3:0.3422061 4:0.34658811 5:0.74937599 6:0.10393312 
1 1:0.56351091 2:0.74439394 3:0.21438556 4:0.057056805 5:0.45048763 6:0.069295449 
1 1:0.23933321 2:0.79379653 3:0.63991977 4:0.35619354 5:0.42909696 6:0.28465534 
1 1:0.77489373 2:0.72928576 3:0.3290099 4:0.37791558 5:0.43071795 6:0.34871159 
1 1:0.22044243 2:0.60329582 3:0.69112808 4:0.82035682 5:0.45029058 6:0.34764065 
1 1:0.24513266 2:0.19608777 3:0.29649228 4:0.25027614 5:0.72186807 6:0.48318852 
1 1:0.40727374 2:0.57267117 3:0.83643909 4:0.80692916 5:0.28605561 6:0.57994246 
1 1:0.32066987 2:0.19978897 3:0.42284574 4:0.11868526 5:0.18415693 6:0.020701105 
1 1:0.30658188 2:0.76728261 3:0.69609151 4:0.57707785 5:0.71884854 6:0.23938061 
1 1:0.93203948 2:0.48354177 3:0.33681186 4:0.58800773 5:0.46022972 6:0.47271913 
1 1:0.097884766 2:0.61580142 3:0.57138143 4:0.74132447 5:0.41646651 6:0.93146618 
1 1:0.46044693 2:0.24227267 3:0.27091518 4:0.78345594 5:0.38939421 6:0.065205119 
1 1:0.51136255 2:0.36606045 3:0.904827 4:0.66147466 5:0.67800888 6:0.3580879 
1 1:0.7948909 2:0.3153507 3:0.58691916 4:0.31222532 5:0.22552278 6:0.15561077 
1 1:0.21600048 2:0.38355656 3:0.61979071 4:0.030096038 5:0.33590151 6:0.17715146 
1 1:0.64896859 2:0.24134323 3:0.51346167 4:0.96068281 5:0.33085207 6:0.45313842 
1 1:0.21803465 2:0.15888462 3:0.63754191 4:0.33893788 5:0.41808295 6:0.90025843 
1 1:0.48354437 2:0.23276949 3:0.16853951 4:0.33601371 5:0.38568801 6:0.010694308 
1 1:0.90878207 2:0.70360477 3:0.47028637 4:0.2515128 5:0.36436089 6:0.51933134 
1 1:0.28787255 2:0.66029429 3:0.45776446 4:0.019455692 5:0.47027236 6:0.94086567 
1 1:0.28564092 2:0.66974158 3:0.29096189 4:0.1490568 5:0.49483551 6:0.58713549 
1 1:0.68789808 2:0.096246413 3:0.56679224 4:0.2448264 5:0.48590298 6:0.77831004 
1 1:0.68260525 2:0.24168591 3:0.74977029 4:0.59791993 5:0.44580056 6:0.46861963 
1 1:0.25208915 2:0.17943607 3:0.71942752 4:0.57874445 5:0.46790974 6:0.16608812 
1 1:0.69820943 2:0.16538708 3:0.52113656 4:0.6679989 5:0.12744694 6:0.86012655 
1 1:0.74718644 2:0.43705355 3:0.15932704 4:0.34909061 5:0.76789053 6:0.2035696 
1 1:0.42550619 2:0.1911409 3:0.62010551 4:0.42998479 5:0.43692801 6:0.71431351 
1 1:0.67487053 2:0.71787286 3:0.32289255 4:0.39261555 5:0.69408447 6:0.1534004 
1 1:0.51536788 2:0.83795781 3:0.61166481 4:0.35979788 5:0.71311897 6:0.66009202 
1 1:0.2463727 2:0.1617694 3:0.47773968 4:0.75809985 5:0.48247901 6:0.14689641 
1 1:0.38298885 2:0.48680672 3:0.8837637 4:0.55769418 5:0.61990307 6:0.20094085 
1 1:0.551381 2:0.23304737 3:0.6447692 4:0.3833211 5:0.25996111 6:0.98242476 
1 1:0.52640737 2:0.77025475 3:0.58231866 4:0.57661904 5:0.16893089 6:0.61945838 
1 1:0.28108064 2:0.20325618 3:0.73872104 4:0.91883645 5:0.33214118 6:0.28015028 
1 1:0.32636881 2:0.15283215 3:0.70110037 4:0.74820297 5:0.62234926 6:0.40791926 
1 1:0.54207338 2:0.27387389 3:0.10335792 4:0.74153172 5:0.34215305 6:0.2951765 
1 1:0.14136128 2:0.46397663 3:0.77865414 4:0.19854006 5:0.67029889 6:0.75923095 
1 1:0.28482284 2:0.57494639 3:0.090186443 4:0.72272937 5:0.32226931 6:0.38222441 
1 1:0.4295148 2:0.17867743 3:0.67323098 4:0.5323828 5:0.47498468 6:0.085989945 
1 1:0.16162761 2:0.60821617 3:0.74849523 4:0.035104938 5:0.42485524 6:0.54139062 
1 1:0.15040723 2:0.40785066 3:0.30326468 4:0.10107853 5:0.72169265 6:0.80659427 
1 1:0.81010723 2:0.57729172 3:0.46709114 4:0.72494718 5:0.60703027 6:0.80699182 
1 1:0.35071392 2:0.71727606 3:0.22712862 4:0.80496536 5:0.57756677 6:0.77134138 
1 1:0.73971489 2:0.66110069 3:0.77499167 4:0.80152961 5:0.35611678 6:0.001544384 
1 1:0.59456061 2:0.24935166 3:0.57815594 4:0.30724613 5:0.79259438 6:0.46161882 
1 1:0.56150946 2:0.21584747 3:0.7084758 4:0.49840738 5:0.48170074 6:0.19475867 
1 1:0.80784031 2:0.69261577 3:0.48514369 4:0.64765053 5:0.78838388 6:0.78221324 
1 1:0.35942001 2:0.67544219 3:0.66773981 4:0.7401208 5:0.33379436 6:0.18205767 
1 1:0.2910995 2:0.261294 3:0.7267981 4:0.41595499 5:0.15682258 6:0.48351301 
1 1:0.40728413 2:0.76512593 3:0.33306218 4:0.47886951 5:0.65910688 6:0.43826447 
1 1:0.21499392 2:0.31477918 3:0.71981431 4:0.19440435 5:0.54754683 6:0.53300295 
1 1:0.71666716 2:0.32390922 3:0.27257497 4:0.98155565 5:0.53078436 6:0.89543536 
1 1:0.62628136 2:0.61974913 3:0.83922668 4:0.26209303 5:0.51253934 6:0.3588416 
1 1:0.42471281 2:0.33719294 3:0.15301375 4:0.1211476 5:0.62641713 6:0.20980876 
1 1:0.66899641 2:0.50415807 3:0.14404185 4:0.9591178 5:0.14233903 6:0.7730717 
1 1:0.91202613 2:0.394496 3:0.62706146 4:0.78058249 5:0.35397105 6:0.15913801 
1 1:0.63096386 2:0.73853584 3:0.75265589 4:0.62345712 5:0.67407782 6:0.30522489 
1 1:0.68457024 2:0.21584187 3:0.43907841 4:0.12571051 5:0.27941786 6:0.33060772 
1 1:0.18826259 2:0.68752978 3:0.46613974 4:0.58615772 5:0.67859963 6:0.71149088 
1 1:0.58610953 2:0.1373822 3:0.51616445 4:0.016848306 5:0.19131677 6:0.45086521 
1 1:0.055778712 2:0.4059937 3:0.64502413 4:0.26132183 5:0.59897238 6:0.43934407 
1 1:0.88868259 2:0.46448434 3:0.29393548 4:0.35378899 5:0.67100798 6:0.41325081 
1 1:0.56667335 2:0.47005516 3:0.088429691 4:0.18348118 5:0.44324709 6:0.57989308 
1 1:0.69791599 2:0.13707452 3:0.72950173 4:0.23925569 5:0.37939186 6:0.41452561 
1 1:0.30330187 2:0.16557069 3:0.3619737 4:0.090729557 5:0.47993907 6:0.71885766 
1 1:0.64935202 2:0.65265333 3:0.70530752 4:0.39513789 5:0.34817161 6:0.13508333 
0.08203103008321945 1:0.81200192 2:0.52337353 3:0.74465587 4:0.87453397 5:0.8784621 6:0.75307514 
1 1:0.13846282 2:0.30427369 3:0.6319785 4:0.037261129 5:0.35062005 6:0.14237194 
1 1:0.46851329 2:0.79703422 3:0.58580819 4:0.7165678 5:0.11947284 6:0.32284646 
1 1:0.58813043 2:0.70042087 3:0.55025351 4:0.50403305 5:0.58831906 6:0.4741766 
1 1:0.63828883 2:0.19631478 3:0.22173587 4:0.77183087 5:0.70364423 6:0.10654694 
1 1:0.55481263 2:0.40692929 3:0.07567378 4:0.94471122 5:0.41638023 6:0.74976326 
1 1:0.72190577 2:0.21113331 3:0.58735882 4:0.8277692 5:0.38291959 6:0.721498 
1 1:0.58640855 2:0.78683962 3:0.23812238 4:0.40989049 5:0.58979302 6:0.59521559 
1 1:0.25608158 2:0.1988646 3:0.63688403 4:0.30301878 5:0.72093529 6:0.89646795 
1 1:0.57862178 2:0.52704387 3:0.10336667 4:0.9894787 5:0.45984117 6:0.07679056 
1 1:0.085915117 2:0.58132271 3:0.30217759 4:0.31819483 5:0.31873584 6:0.83813228 
1 1:0.61553932 2:0.25423928 3:0.12164559 4:0.40259113 5:0.5119646 6:0.96172972 
1 1:0.44723768 2:0.79513281 3:0.33423171 4:0.7350371 5:0.68986472 6:0.61751389 
1 1:0.25469915 2:0.47302235 3:0.15540965 4:0.60347957 5:0.12293002 6:0.60687648 
1 1:0.66821769 2:0.29983706 3:0.86683428 4:0.62789838 5:0.21560413 6:0.15038072 
1 1:0.1599507 2:0.45910937 3:0.76902193 4:0.41416185 5:0.42003724 6:0.63834893 
1 1:0.5201032 2:0.65966238 3:0.77461164 4:0.11331033 5:0.4032696 6:0.62162301 
1 1:0.43243308 2:0.75257984 3:0.53190587 4:0.42044325 5:0.70748744 6:0.88533802 
1 1:0.13116726 2:0.66190551 3:0.65419082 4:0.10457139 5:0.46855734 6:0.25521148 
1 1:0.1072754 2:0.32437 3:0.38944264 4:0.71861219 5:0.29549101 6:0.83832977 
1 1:0.43758666 2:0.8338071 3:0.34519351 4:0.69901354 5:0.74467581 6:0.22274901 
1 1:0.82454986 2:0.56005505 3:0.85794938 4:0.67215641 5:0.52859981 6:0.41386713 
1 1:0.71053157 2:0.4886068 3:0.8535308 4:0.38186729 5:0.36528957 6:0.46608582 
1 1:0.46909963 2:0.12342758 3:0.4621636 4:0.26984707 5:0.096281348 6:0.45021743 
1 1:0.88191837 2:0.53576508 3:0.36478457 4:0.91353925 5:0.11283001 6:0.45129313 
1 1:0.4884096 2:0.76440708 3:0.68605108 4:0.90999173 5:0.76999235 6:0.7803721 
1 1:0.48869298 2:0.1736334 3:0.74023115 4:0.49491086 5:0.48060499 6:0.46062438 
1 1:0.29350301 2:0.57001704 3:0.28245704 4:0.74516162 5:0.22901919 6:0.26422352 
1 1:0.47947133 2:0.76075796 3:0.31834169 4:0.60442054 5:0.5112697 6:0.55686502 
1 1:0.52238173 2:0.24548569 3:0.86920674 4:0.46173373 5:0.67304002 6:0.94229448 
1 1:0.55147973 2:0.17074743 3:0.42009039 4:0.87129681 5:0.287674 6:0.28974685 
1 1:0.1288974 2:0.69267403 3:0.43373217 4:0.71310496 5:0.47903392 6:0.4409881 
1 1:0.14037794 2:0.6156013 3:0.75723718 4:0.47688767 5:0.31086018 6:0.18563651 
1 1:0.77826561 2:0.63886086 3:0.45193363 4:0.46864316 5:0.48337713 6:0.16280247 
1 1:0.56766829 2:0.52712328 3:0.058818263 4:0.43822988 5:0.14049264 6:0.51895443 
1 1:0.41154833 2:0.22984818 3:0.83345724 4:0.89857093 5:0.7040796 6:0.67677413 
1 1:0.51297895 2:0.61353268 3:0.72820259 4:0.50980282 5:0.37575769 6:0.4987684 
1 1:0.24187148 2:0.189854 3:0.30961055 4:0.82790088 5:0.26759134 6:0.26925079 
1 1:0.67903009 2:0.1438409 3:0.55719946 4:0.44124955 5:0.269269 6:0.90108977 
1 1:0.66910896 2:0.18704988 3:0.37121945 4:0.32424544 5:0.64004194 6:0.30832679 
1 1:0.28053242 2:0.12987907 3:0.42917959 4:0.32524437 5:0.66601478 6:0.95476881 
1 1:0.55163564 2:0.7435429 3:0.6678721 4:0.7727894 5:0.38994623 6:0.064706383 
1 1:0.24911177 2:0.36933973 3:0.63226635 4:0.030388379 5:0.66241844 6:0.56633953 
1 1:0.070529475 2:0.59878715 3:0.39292248 4:0.49552513 5:0.32006433 6:0.87814584 
1 1:0.70826495 2:0.40552206 3:0.90431931 4:0.5040301 5:0.76923075 6:0.49129676 
1 1:0.55014377 2:0.74595138 3:0.58641242 4:0.53449527 5:0.79947397 6:0.9278278 
1 1:0.32394748 2:0.70438825 3:0.83618858 4:0.76830026 5:0.47381424 6:0.69922914 
1 1:0.32803672 2:0.53980185 3:0.81813468 4:0.11626474 5:0.061857829 6:0.84882369 
1 1:0.805427 2:0.37916049 3:0.30704118 4:0.28268185 5:0.65213832 6:0.37136181 
1 1:0.82324174 2:0.36009134 3:0.63639137 4:0.98972087 5:0.78910243 6:0.24095579 
1 1:0.6834146 2:0.42700426 3:0.16008525 4:0.47672404 5:0.78737439 6:0.83706702 
1 1:0.14995959 2:0.40951002 3:0.62032732 4:0.1543412 5:0.58915395 6:0.65439162 
1 1:0.72394378 2:0.70140725 3:0.45427427 4:0.52120693 5:0.53834283 6:0.083500794 
1 1:0.52911484 2:0.73467468 3:0.68844467 4:0.093263506 5:0.65937312 6:0.90065058 
1 1:0.39402654 2:0.75178391 3:0.57415569 4:0.75594788 5:0.55684465 6:0.45054586 
1 1:0.27985268 2:0.66313141 3:0.22731684 4:0.19063895 5:0.30273644 6:0.28921646 
1 1:0.23902616 2:0.29350363 3:0.77887043 4:0.48737274 5:0.093375329 6:0.62145818 
1 1:0.49179796 2:0.1962085 3:0.73119211 4:0.88135483 5:0.76794595 6:0.30419688 
1 1:0.67221792 2:0.46938247 3:0.92749233 4:0.63381478 5:0.48226039 6:0.94852936 
1 1:0.69639628 2:0.67240601 3:0.40423823 4:0.89505878 5:0.26028046 6:0.59170272 
1 1:0.20988049 2:0.20272941 3:0.6158939 4:0.2871181 5:0.50949465 6:0.28931501 
1 1:0.53426781 2:0.84131708 3:0.32419797 4:0.56245773 5:0.49383518 6:0.18981009 
1 1:0.71713689 2:0.31983341 3:0.17818234 4:0.089941325 5:0.52610138 6:0.76502988 
1 1:0.71892775 2:0.21723536 3:0.39131405 4:0.68775563 5:0.18025704 6:0.58991005 
1 1:0.55524379 2:0.6830908 3:0.72333571 4:0.2562601 5:0.14587649 6:0.025382097 
1 1:0.36873283 2:0.76485332 3:0.61609057 4:0.97325987 5:0.74149255 6:0.2035884 
1 1:0.43907159 2:0.57321774 3:0.83616853 4:0.84417845 5:0.45539676 6:0.7447022 
1 1:0.073787197 2:0.32353746 3:0.52263196 4:0.61790224 5:0.21455391 6:0.11295245 
1 1:0.5491663 2:0.29107287 3:0.84262251 4:0.43987677 5:0.64480102 6:0.71391768 
1 1:0.78420869 2:0.57800874 3:0.72034876 4:0.3477149 5:0.14657089 6:0.38275059 
1 1:0.35736728 2:0.73735472 3:0.22134165 4:0.71000922 5:0.73318068 6:0.75262296 
1 1:0.019482248 2:0.55797064 3:0.52330276 4:0.35654034 5:0.35492264 6:0.28338364 
1 1:0.32417798 2:0.19419214 3:0.71433835 4:0.51272444 5:0.41619686 6:0.76697269 
1 1:0.78037162 2:0.58649379 3:0.43812667 4:0.95958121 5:0.61310749 6:0.63393522 
1 1:0.71151338 2:0.69568333 3:0.4992601 4:0.053841683 5:0.53831332 6:0.93165682 
1 1:0.88568855 2:0.67107941 3:0.33576564 4:0.52401756 5:0.48978475 6:0.34166023 
1 1:0.51384527 2:0.12763349 3:0.35482587 4:0.20184033 5:0.60150915 6:0.69525194 
1 1:0.10938682 2:0.52663363 3:0.21767065 4:0.72233163 5:0.41336488 6:0.69424519 
1 1:0.37998471 2:0.70304154 3:0.67898285 4:0.32687995 5:0.77764388 6:0.019212178 
1 1:0.27925021 2:0.23711334 3:0.51759144 4:0.072956311 5:0.51588242 6:0.27630052 
1 1:0.14785434 2:0.67797115 3:0.63297973 4:0.40371552 5:0.63784398 6:0.94559688 
1 1:0.83059251 2:0.30092131 3:0.26600921 4:0.22186755 5:0.57690302 6:0.58883897 
1 1:0.33949984 2:0.77750512 3:0.6927567 4:0.22670583 5:0.4049569 6:0.50246158 
1 1:0.4947244 2:0.29433286 3:0.10260967 4:0.34734998 5:0.59242951 6:0.64780386 
1 1:0.24401668 2:0.77710644 3:0.33204061 4:0.47961437 5:0.35752674 6:0.68286619 
1 1:0.28261383 2:0.35117391 3:0.82468194 4:0.063354208 5:0.35149003 6:0.65504267 
1 1:0.58877285 2:0.81796096 3:0.41783593 4:0.75838347 5:0.55487396 6:0.31528317 
1 1:0.49326637 2:0.20525419 3:0.78488901 4:0.94728578 5:0.79317047 6:0.39056856 
1 1:0.70640199 2:0.6271733 3:0.74352485 4:0.36905039 5:0.80179019 6:0.05806767 
1 1:0.86906175 2:0.24418267 3:0.44704895 4:0.45074895 5:0.34598547 6:0.71439045 
1 1:0.22384642 2:0.56209483 3:0.88046043 4:0.42856968 5:0.56049137 6:0.28563785 
1 1:0.64900758 2:0.66588397 3:0.34087062 4:0.79584745 5:0.45783211 6:0.92303215 
1 1:0.43988319 2:0.11511735 3:0.70739544 4:0.69236491 5:0.20670255 6:0.2414644 
1 1:0.5584623 2:0.67701487 3:0.13743441 4:0.67302379 5:0.20406769 6:0.71122323 
1 1:0.45473809 2:0.7535538 3:0.6280882 4:0.48027652 5:0.75025271 6:0.863971 
1 1:0.40005556 2:0.79809367 3:0.35546594 4:0.29938644 5:0.27228782 6:0.91840838 
1 1:0.14367539 2:0.68791179 3:0.48467914 4:0.28616946 5:0.46417602 6:0.69363473 
1 1:0.06845425 2:0.3653285 3:0.59695251 4:0.74366828 5:0.63884011 6:0.20484774 
1 1:0.36774939 2:0.57412554 3:0.70517611 4:0.87543379 5:0.55124113 6:0.36096903 
1 1:0.61335702 2:0.70401012 3:0.83490608 4:0.37655971 5:0.5416167 6:0.1534924 
1 1:0.5046123 2:0.63772283 3:0.64283166 4:0.17272843 5:0.62368268 6:0.89076371 
1 1:0.35461794 2:0.69390401 3:0.37829642 4:0.11329856 5:0.41352055 6:0.63424273 
1 1:0.23419665 2:0.74339362 3:0.34313909 4:0.70244212 5:0.66208546 6:0.86142021 
1 1:0.16092709 2:0.31203405 3:0.62604962 4:0.73122643 5:0.82302954 6:0.29029452 
1 1:0.56401908 2:0.33140349 3:0.12664261 4:0.95923591 5:0.42499246 6:0.028613938 
1 1:0.51304228 2:0.68169059 3:0.42156855 4:0.095126313 5:0.11455612 6:0.57009456 
1 1:0.86626451 2:0.54345081 3:0.36909161 4:0.96370175 5:0.68522629 6:0.71407664 
1 1:0.39393725 2:0.24550332 3:0.43003578 4:0.42295342 5:0.42388283 6:0.6969179 
1 1:0.67370715 2:0.67159808 3:0.098374594 4:0.52291974 5:0.37219042 6:0.64309628 
1 1:0.046471897 2:0.50421922 3:0.47500551 4:0.25922021 5:0.57623071 6:0.56533607 
1 1:0.75972371 2:0.1652231 3:0.61249798 4:0.11326208 5:0.32513125 6:0.20011984 
1 1:0.22810672 2:0.61243291 3:0.35211394 4:0.1828073 5:0.57224391 6:0.0080032614 
1 1:0.86650812 2:0.45083391 3:0.72800293 4:0.063708996 5:0.45632004 6:0.35543071 
1 1:0.86805464 2:0.48074821 3:0.71642838 4:0.25548879 5:0.45213326 6:0.13229448 
1 1:0.2808102 2:0.53194109 3:0.211346 4:0.29690979 5:0.35882203 6:0.75658252 
1 1:0.41227234 2:0.40552049 3:0.071369353 4:0.35654606 5:0.49808319 6:0.4645799 
1 1:0.5900876 2:0.50212968 3:0.11105687 4:0.52546773 5:0.29659285 6:0.8350981 
1 1:0.36151996 2:0.75207486 3:0.81979894 4:0.27826157 5:0.48314894 6:0.6508407 
1 1:0.82950283 2:0.30993502 3:0.26571373 4:0.86467683 5:0.24646388 6:0.34358421 
1 1:0.11392226 2:0.42590006 3:0.22057077 4:0.16448517 5:0.366189 6:0.48877727 
1 1:0.27264726 2:0.4132672 3:0.16662024 4:0.52519573 5:0.76871708 6:0.72779205 
1 1:0.72663384 2:0.24852621 3:0.18416137 4:0.31468528 5:0.30679305 6:0.91791737 
1 1:0.41069265 2:0.47917245 3:0.90134375 4:0.29072241 5:0.39876737 6:0.44860083 
1 1:0.37149098 2:0.37390868 3:0.87306579 4:0.48745077 5:0.64391852 6:0.49937523 
1 1:0.62770322 2:0.48390769 3:0.085206269 4:0.60608259 5:0.20796086 6:0.20071396 
1 1:0.90144321 2:0.62258186 3:0.55401498 4:0.65216625 5:0.15148779 6:0.29958248 
1 1:0.038577349 2:0.5066351 3:0.55109775 4:0.59974689 5:0.46429557 6:0.13814967 
1 1:0.63159168 2:0.7351848 3:0.25986335 4:0.60692477 5:0.13681674 6:0.21681582 
1 1:0.39556069 2:0.16530769 3:0.68354081 4:0.78190326 5:0.91933719 6:0.35899114 
1 1:0.1488748 2:0.24889666 3:0.57093303 4:0.85418087 5:0.71627117 6:0.37614762 
1 1:0.28896306 2:0.15885489 3:0.49663602 4:0.38864975 5:0.36934802 6:0.42557066 
1 1:0.38988362 2:0.27608908 3:0.88222882 4:0.93227168 5:0.47052157 6:0.35986392 
1 1:0.11373445 2:0.35587198 3:0.38722188 4:0.30733082 5:0.7588263 6:0.50607036 
1 1:0.95527434 2:0.55885632 3:0.54388675 4:0.19742683 5:0.60749866 6:0.29318951 
1 1:0.21669117 2:0.7553991 3:0.42606777 4:0.23250367 5:0.32150364 6:0.15887031 
1 1:0.87362315 2:0.66248105 3:0.57853086 4:0.62755639 5:0.30456651 6:0.14681592 
1 1:0.51001456 2:0.27482725 3:0.083615814 4:0.72533178 5:0.34756453 6:0.75797845 
1 1:0.39165093 2:0.76721277 3:0.36190553 4:0.14229337 5:0.73510616 6:0.99385216 
1 1:0.76371513 2:0.67181106 3:0.24598382 4:0.080975555 5:0.72451038 6:0.38682008 
1 1:0.47578157 2:0.67669055 3:0.83394341 4:0.76738527 5:0.54069817 6:0.99483629 
1 1:0.38170652 2:0.56158646 3:0.23758093 4:0.28121787 5:0.094920738 6:0.51453231 
1 1:0.31629627 2:0.12806435 3:0.38272947 4:0.29154708 5:0.45020979 6:0.42841665 
1 1:0.16647076 2:0.59200181 3:0.72715789 4:0.92993061 5:0.3193344 6:0.69121502 
1 1:0.60358608 2:0.10449381 3:0.48155515 4:0.37887033 5:0.36199537 6:0.68603013 
1 1:0.61560763 2:0.57587291 3:0.11606454 4:0.42640592 5:0.48636524 6:0.68068409 
1 1:0.92858433 2:0.35790771 3:0.47539762 4:0.61257248 5:0.23700057 6:0.4302593 
1 1:0.49520168 2:0.23507725 3:0.37526154 4:0.30708039 5:0.81735275 6:0.71068249 
1 1:0.70447275 2:0.78713474 3:0.4441485 4:0.55954149 5:0.21930922 6:0.1211483 
1 1:0.25492802 2:0.22656894 3:0.46828841 4:0.41206062 5:0.428355 6:0.20670824 
1 1:0.77554032 2:0.55108421 3:0.77439664 4:0.91653628 5:0.38923023 6:0.7980275 
1 1:0.42550406 2:0.77972021 3:0.60714648 4:0.7111994 5:0.50008881 6:0.073049741 
1 1:0.51887518 2:0.58217744 3:0.85735764 4:0.78269673 5:0.16291771 6:0.81148912 
1 1:0.57776766 2:0.84211159 3:0.36857936 4:0.17579603 5:0.47000525 6:0.83250038 
1 1:0.56156346 2:0.4485955 3:0.055611946 4:0.31636843 5:0.59878196 6:0.79570493 
1 1:0.83172609 2:0.40057632 3:0.23956007 4:0.17795111 5:0.52005935 6:0.71749245 
1 1:0.7182627 2:0.69959727 3:0.72222938 4:0.011770972 5:0.42842368 6:0.2548627 
1 1:0.60310122 2:0.19244064 3:0.69356788 4:0.10123548 5:0.67836586 6:0.56366203 
1 1:0.09471932 2:0.32281447 3:0.35283482 4:0.56542833 5:0.23351612 6:0.68275982 
1 1:0.45514185 2:0.660958 3:0.13873138 4:0.36989258 5:0.54311598 6:0.75211488 
1 1:0.59687112 2:0.28161202 3:0.82747366 4:0.18497211 5:0.4825779 6:0.40793531 
1 1:0.32037781 2:0.75348969 3:0.58930055 4:0.99924356 5:0.34543444 6:0.5513951 
1 1:0.35553324 2:0.71195459 3:0.59826419 4:0.44164168 5:0.63141758 6:0.20048249 
1 1:0.063648551 2:0.51454082 3:0.6061695 4:0.52572936 5:0.24399388 6:0.33466061 
1 1:0.75010473 2:0.74789781 3:0.54706328 4:0.7787943 5:0.72658706 6:0.74066103 
1 1:0.56580649 2:0.81735886 3:0.50383173 4:0.57578585 5:0.45306902 6:0.12262324 
1 1:0.31089509 2:0.16514286 3:0.37692697 4:0.75967821 5:0.1685558 6:0.77367936 
1 1:0.41179921 2:0.6619641 3:0.74986014 4:0.55125025 5:0.40984501 6:0.53046433 
1 1:0.40985268 2:0.29654151 3:0.83597459 4:0.73545902 5:0.28655218 6:0.35544962 
1 1:0.52135118 2:0.13159556 3:0.40345588 4:0.75066387 5:0.68834377 6:0.97770335 
1 1:0.81999477 2:0.74306099 3:0.61865017 4:0.15187751 5:0.64314686 6:0.54119638 
1 1:0.3659928 2:0.44056765 3:0.90860392 4:0.35083913 5:0.32943512 6:0.28560077 
1 1:0.3094492 2:0.73269547 3:0.23263564 4:0.55698777 5:0.64802175 6:0.30116305 
1 1:0.47603654 2:0.19021707 3:0.47816846 4:0.93286588 5:0.45155641 6:0.29815518 
1 1:0.4506406 2:0.51808639 3:0.055731443 4:0.74752983 5:0.32717969 6:0.17929174 
1 1:0.42440814 2:0.76504679 3:0.53394917 4:0.25162484 5:0.74289515 6:0.068403663 
1 1:0.46018837 2:0.83552275 3:0.38735104 4:0.8401938 5:0.51488457 6:0.5318817 
1 1:0.22164743 2:0.31422873 3:0.32352767 4:0.011941687 5:0.47986182 6:0.37102664 
1 1:0.1844338 2:0.34155571 3:0.27994794 4:0.81769722 5:0.089297675 6:0.2211246 
1 1:0.35156954 2:0.66017624 3:0.84869225 4:0.35380443 5:0.2548269 6:0.30843433 
1 1:0.83448376 2:0.66822247 3:0.5048961 4:0.91143376 5:0.8080869 6:0.81111473 
1 1:0.13822221 2:0.27408726 3:0.34912836 4:0.35731049 5:0.43620842 6:0.029680907 
1 1:0.51543587 2:0.18266064 3:0.55221968 4:0.84410939 5:0.60679238 6:0.15436004 
1 1:0.57517586 2:0.78389779 3:0.31296788 4:0.2131668 5:0.14242207 6:0.46969655 
1 1:0.41800868 2:0.069845483 3:0.54483841 4:0.11502706 5:0.45777493 6:0.47190564 
1 1:0.3249146 2:0.12061141 3:0.43884637 4:0.54120277 5:0.42064522 6:0.76431976 
1 1:0.45827072 2:0.81362386 3:0.31967203 4:0.62825639 5:0.5440862 6:0.8060874 
1 1:0.61776429 2:0.17034587 3:0.68509802 4:0.77585934 5:0.24525623 6:0.77954097 
1 1:0.23906543 2:0.3012954 3:0.18301121 4:0.61834106 5:0.72338357 6:0.37887491 
1 1:0.38911755 2:0.11955792 3:0.3243682 4:0.19839958 5:0.70765054 6:0.40109823 
1 1:0.78000851 2:0.7350993 3:0.47016986 4:0.064687627 5:0.54852752 6:0.45621748 
1 1:0.19955665 2:0.7012875 3:0.55017058 4:0.96701219 5:0.69257394 6:0.27159797 
1 1:0.19765772 2:0.31205092 3:0.32184262 4:0.3659012 5:0.38492007 6:0.34359877 
1 1:0.15594216 2:0.37554867 3:0.21648029 4:0.13368785 5:0.59612 6:0.38435819 
1 1:0.80609637 2:0.42350687 3:0.27849947 4:0.48217161 5:0.47909 6:0.99902406 
1 1:0.43267466 2:0.2354547 3:0.3247971 4:0.69277423 5:0.70258598 6:0.12133167 
1 1:0.77843959 2:0.20641183 3:0.63095624 4:0.12375754 5:0.076479752 6:0.54965906 
1 1:0.62799805 2:0.31025565 3:0.77688784 4:0.75718667 5:0.67711561 6:0.68007868 
1 1:0.49344516 2:0.16268827 3:0.25035121 4:0.88936657 5:0.37466041 6:0.60401661 
1 1:0.2175865 2:0.57321774 3:0.81582165 4:0.56590194 5:0.72693739 6:0.49452222 
1 1:0.52487786 2:0.20242569 3:0.12092308 4:0.3118562 5:0.4837976 6:0.40037851 
1 1:0.43655246 2:0.60067902 3:0.15308463 4:0.3249215 5:0.61099607 6:0.89211944 
1 1:0.16351931 2:0.69375094 3:0.51670305 4:0.049630828 5:0.38352618 6:0.95665355 
1 1:0.21388693 2:0.49089323 3:0.27109632 4:0.10200803 5:0.39275435 6:0.79826024 
1 1:0.92720331 2:0.42797882 3:0.64586964 4:0.31545173 5:0.76153864 6:0.30284548 
1 1:0.40648527 2:0.23072796 3:0.21146587 4:0.28792374 5:0.50414046 6:0.44932894 
1 1:0.40564417 2:0.18593278 3:0.73594246 4:0.36471313 5:0.77858976 6:0.48428966 
1 1:0.60371401 2:0.73329761 3:0.72098978 4:0.078807211 5:0.77419972 6:0.38328322 
1 1:0.40529266 2:0.20519961 3:0.41674245 4:0.63148045 5:0.31827301 6:0.83099318 
1 1:0.31389526 2:0.12795929 3:0.61312566 4:0.56434443 5:0.38847237 6:0.90429276 
1 1:0.51122606 2:0.3746722 3:0.91769591 4:0.35835322 5:0.54849701 6:0.61376501 
1 1:0.19803651 2:0.70579591 3:0.66375434 4:0.80810468 5:0.40773264 6:0.21697746 
1 1:0.09701846 2:0.47591831 3:0.73988497 4:0.28424996 5:0.3789935 6:0.60255111 
1 1:0.78864576 2:0.44094223 3:0.86147754 4:0.79085303 5:0.53208108 6:0.61346435 
1 1:0.47899426 2:0.55135398 3:0.045228056 4:0.16024835 5:0.52183723 6:0.4616862 
1 1:0.57695109 2:0.73479985 3:0.7194977 4:0.83635967 5:0.4623879 6:0.60564602 
1 1:0.42608957 2:0.75775387 3:0.42055567 4:0.57180568 5:0.43882635 6:0.19086609 
1 1:0.68391828 2:0.18044731 3:0.34707238 4:0.11658974 5:0.20051618 6:0.37025839 
1 1:0.14721877 2:0.32125555 3:0.3446767 4:0.79849909 5:0.41892352 6:0.24156495 
0.7136541682390266 1:0.74162755 2:0.56466296 3:0.16043177 4:0.83373977 5:0.89272072 6:0.51126506 
1 1:0.85713738 2:0.21917583 3:0.59816265 4:0.59078498 5:0.54594406 6:0.034334566 
1 1:0.31480117 2:0.81902867 3:0.56891783 4:0.21661363 5:0.32057114 6:0.68539097 
1 1:0.589578 2:0.25762428 3:0.81702524 4:0.4505496 5:0.23299587 6:0.55024288 
1 1:0.34384642 2:0.48634431 3:0.064112243 4:0.74760305 5:0.58104238 6:0.22765734 
1 1:0.81736289 2:0.19731652 3:0.48832889 4:0.81023548 5:0.44035885 6:0.28814163 
1 1:0.31520144 2:0.39161322 3:0.8534179 4:0.87751667 5:0.4760447 6:0.93035541 
1 1:0.30529594 2:0.743017 3:0.5620807 4:0.4868006 5:0.38200719 6:0.41319638 
1 1:0.48095518 2:0.7232401 3:0.40840159 4:0.96682 5:0.96152502 6:0.70223597 
1 1:0.31450516 2:0.20782947 3:0.57328183 4:0.89867981 5:0.43210239 6:0.057765038 
1 1:0.50508942 2:0.83730054 3:0.37382079 4:0.2128933 5:0.6129917 6:0.60183682 
1 1:0.63083652 2:0.24569165 3:0.75104088 4:0.65649047 5:0.66414686 6:0.76956121 
1 1:0.9285218 2:0.56475123 3:0.37393026 4:0.29948705 5:0.54749384 6:0.29050142 
1 1:0.28169233 2:0.81145329 3:0.46151134 4:0.87100494 5:0.4992508 6:0.28520045 
1 1:0.61137714 2:0.66881759 3:0.096187102 4:0.79968611 5:0.55397749 6:0.5305215 
1 1:0.85053576 2:0.24552876 3:0.34561742 4:0.44161384 5:0.57035973 6:0.35528122 
1 1:0.11766146 2:0.59429046 3:0.54020644 4:0.010747615 5:0.80968425 6:0.47394947 
1 1:0.42656494 2:0.46242363 3:0.084115873 4:0.15619237 5:0.42471062 6:0.46521069 
1 1:0.29317256 2:0.18848459 3:0.61063739 4:0.66785574 5:0.53581223 6:0.1550168 
1 1:0.62269156 2:0.83685393 3:0.57603805 4:0.56534722 5:0.30790925 6:0.25842244 
1 1:0.65504858 2:0.32045963 3:0.16889548 4:0.68001207 5:0.093478003 6:0.82028628 
1 1:0.6050331 2:0.61058167 3:0.13131522 4:0.029235634 5:0.58459647 6:0.92670769 
1 1:0.55778587 2:0.68230471 3:0.15070468 4:0.51130041 5:0.25286038 6:0.56098741 
1 1:0.48654575 2:0.71849651 3:0.66588516 4:0.58438455 5:0.54068319 6:0.14020324 
1 1:0.57538589 2:0.58663837 3:0.12274313 4:0.65907113 5:0.24905636 6:0.78406163 
1 1:0.90420716 2:0.25200346 3:0.53320086 4:0.26870618 5:0.2658975 6:0.66275403 
1 1:0.89937504 2:0.59706191 3:0.42618896 4:0.11940467 5:0.16260435 6:0.2855717 
1 1:0.31783734 2:0.75803147 3:0.49643392 4:0.43130547 5:0.26134238 6:0.87241852 
1 1:0.31642116 2:0.31845045 3:0.17072354 4:0.58862737 5:0.29936426 6:0.77448881 
1 1:0.66177325 2:0.21944012 3:0.80896254 4:0.25266601 5:0.45896728 6:0.54155539 
1 1:0.28376416 2:0.55269457 3:0.87773909 4:0.38655571 5:0.68814492 6:0.48610334 
1 1:0.74358972 2:0.3990292 3:0.84810102 4:0.54462479 5:0.8173248 6:0.62305534 
0.5089761680742688 1:0.34267413 2:0.11848917 3:0.69531703 4:0.71094719 5:0.62462601 6:0.74757518 
1 1:0.91228635 2:0.25367017 3:0.51548278 4:0.25665228 5:0.44121841 6:0.34985301 
1 1:0.30905738 2:0.33062673 3:0.32439124 4:0.73357543 5:0.5885324 6:0.24290671 
1 1:0.32463901 2:0.6693122 3:0.2715528 4:0.31236043 5:0.42152208 6:0.04856837 
1 1:0.29147159 2:0.24335503 3:0.79696877 4:0.61680109 5:0.45847505 6:0.00027865715 
1 1:0.3345683 2:0.60740799 3:0.12979154 4:0.5036658 5:0.49695795 6:0.08120831 
1 1:0.37222783 2:0.71262354 3:0.22880634 4:0.34530775 5:0.3618803 6:0.67563858 
1 1:0.22877813 2:0.41712046 3:0.16502711 4:0.052174111 5:0.78340632 6:0.47413429 
1 1:0.6931528 2:0.17976672 3:0.35202819 4:0.78659228 5:0.18357872 6:0.19019921 
1 1:0.60771646 2:0.66458955 3:0.78371543 4:0.17637218 5:0.59474147 6:0.51867626 
1 1:0.48380941 2:0.60056099 3:0.77082026 4:0.19860485 5:0.96741868 6:0.76694269 
1 1:0.18644799 2:0.28071887 3:0.31459369 4:0.96393138 5:0.65129968 6:0.75844872 
1 1:0.6726575 2:0.35302427 3:0.88407555 4:0.12482093 5:0.68089583 6:0.33443576 
1 1:0.83685111 2:0.61171574 3:0.72771848 4:0.41437625 5:0.29944122 6:0.38674947 
1 1:0.3610641 2:0.73329716 3:0.66355498 4:0.02877715 5:0.49695457 6:0.45531472 
1 1:0.50526631 2:0.54358583 3:0.071763129 4:0.72751267 5:0.37317615 6:0.72724688 
1 1:0.60225777 2:0.68542837 3:0.21735441 4:0.67280154 5:0.22845026 6:0.030248467 
1 1:0.76594555 2:0.44281619 3:0.82171982 4:0.33556135 5:0.70925776 6:0.52965393 
1 1:0.58960286 2:0.65029305 3:0.76519385 4:0.16096616 5:0.39952156 6:0.5574075 
1 1:0.46140718 2:0.40726394 3:0.080633659 4:0.015519017 5:0.63273208 6:0.15009114 
1 1:0.81369209 2:0.68083973 3:0.60751432 4:0.12906393 5:0.79175224 6:0.38775173 
1 1:0.27834813 2:0.41097752 3:0.17579113 4:0.6104222 5:0.71027624 6:0.95198549 
1 1:0.18047301 2:0.21678118 3:0.69772943 4:0.38642054 5:0.5165525 6:0.55550957 
1 1:0.57660857 2:0.70485322 3:0.17671005 4:0.39260175 5:0.7671784 6:0.35823626 
1 1:0.77628485 2:0.32884389 3:0.26419708 4:0.15724289 5:0.55553578 6:0.0060384213 
1 1:0.84651215 2:0.25604054 3:0.56023156 4:0.38258384 5:0.074864281 6:0.56071717 
1 1:0.97916753 2:0.4807744 3:0.35320708 4:0.53534132 5:0.66910154 6:0.44736888 
1 1:0.53990448 2:0.86584895 3:0.52823969 4:0.79872743 5:0.28576968 6:0.54183353 
1 1:0.27423239 2:0.78080079 3:0.53323665 4:0.91748686 5:0.63496294 6:0.77849657 
1 1:0.36561467 2:0.11416454 3:0.26226343 4:0.35457807 5:0.33010035 6:0.60296583 
1 1:0.62579049 2:0.8028006 3:0.53509419 4:0.58039558 5:0.51489262 6:0.34924226 
1 1:0.49947513 2:0.47600192 3:0.051988938 4:0.054420917 5:0.44039242 6:0.33752162 
1 1:0.68061185 2:0.25581036 3:0.1697624 4:0.2474839 5:0.52836014 6:0.77560504 
1 1:0.57713487 2:0.76993122 3:0.73482608 4:0.1864634 5:0.47002009 6:0.033323797 
1 1:0.81426724 2:0.49174006 3:0.823526 4:0.76291071 5:0.29728623 6:0.91663183 
1 1:0.65984032 2:0.33379632 3:0.13152367 4:0.39644947 5:0.31200873 6:0.21092666 
1 1:0.52410358 2:0.096104856 3:0.33486916 4:0.23627503 5:0.26681085 6:0.80222631 
1 1:0.73552526 2:0.29175373 3:0.52105518 4:0.37624323 5:0.74947609 6:0.76912745 
1 1:0.39429997 2:0.13623044 3:0.43645401 4:0.83618274 5:0.2886042 6:0.19869031 
1 1:0.38525339 2:0.18165252 3:0.6331494 4:0.12308834 5:0.40467824 6:0.88945385 
1 1:0.16476075 2:0.73514684 3:0.53116992 4:0.8067087 5:0.4568856 6:0.77440086 
0.03939079058454793 1:0.83320705 2:0.20735929 3:0.65838469 4:0.21400477 5:0.54063129 6:0.14116765 
1 1:0.48417269 2:0.1566599 3:0.30265071 4:0.69930388 5:0.63089459 6:0.4064236 
1 1:0.19911136 2:0.2743949 3:0.61319676 4:0.9686866 5:0.39172359 6:0.077842531 
1 1:0.80479945 2:0.31686347 3:0.74062316 4:0.77884487 5:0.20167257 6:0.95640268 
1 1:0.50970281 2:0.74961598 3:0.37868067 4:0.7812848 5:0.69708766 6:0.066712665 
1 1:0.12094894 2:0.49609702 3:0.55359263 4:0.26151692 5:0.34944687 6:0.17897627 
1 1:0.34914518 2:0.32102923 3:0.85149415 4:0.017591881 5:0.57677306 6:0.48368457 
1 1:0.66846301 2:0.41529429 3:0.91340971 4:0.47121353 5:0.37681532 6:0.19330912 
1 1:0.32886852 2:0.58060118 3:0.11018958 4:0.091227876 5:0.24845996 6:0.24815606 
1 1:0.30529136 2:0.18411799 3:0.35416697 4:0.38851298 5:0.45500201 6:0.57006972 
1 1:0.85446897 2:0.62502102 3:0.24599685 4:0.20045404 5:0.52907629 6:0.68825499 
1 1:0.14866422 2:0.58622865 3:0.57099044 4:0.69227755 5:0.42527804 6:0.3558916 
1 1:0.55303663 2:0.15181112 3:0.2886898 4:0.022366765 5:0.38824018 6:0.4578997 
1 1:0.14944866 2:0.43222945 3:0.54871259 4:0.6602441 5:0.2431847 6:0.14582525 
1 1:0.63971183 2:0.15471405 3:0.68781373 4:0.094354732 5:0.44330076 6:0.49983259 
1 1:0.31973935 2:0.64533196 3:0.38592089 4:0.8466772 5:0.93255147 6:0.71558868 
1 1:0.40576639 2:0.55673919 3:0.90472253 4:0.16004007 5:0.2192643 6:0.45192988 
1 1:0.55201276 2:0.2852459 3:0.79997603 4:0.52957545 5:0.77356213 6:0.63299463 
1 1:0.10298335 2:0.37487922 3:0.62986983 4:0.66224292 5:0.10766534 6:0.19934811 
1 1:0.76166492 2:0.30237213 3:0.86500186 4:0.67706827 5:0.37283875 6:0.36851097 
1 1:0.2746616 2:0.50423424 3:0.14997256 4:0.60149993 5:0.55973803 6:0.21694152 
1 1:0.50625212 2:0.11519686 3:0.52907899 4:0.74220858 5:0.91379012 6:0.65358277 
1 1:0.4109403 2:0.5822533 3:0.054707467 4:0.52691436 5:0.1818451 6:0.46682212 
1 1:0.34938868 2:0.70498599 3:0.33499129 4:0.15652518 5:0.41829249 6:0.70946152 
1 1:0.79889213 2:0.31798976 3:0.37076533 4:0.6029791 5:0.82538025 6:0.27169446 
1 1:0.2598497 2:0.16920572 3:0.43580752 4:0.60105822 5:0.38706866 6:0.44305298 
1 1:0.28763409 2:0.27561696 3:0.59100409 4:0.47044079 5:0.29412267 6:0.22991217 
1 1:0.64440519 2:0.64577573 3:0.24557801 4:0.091888052 5:0.27024545 6:0.80516107 
1 1:0.69742414 2:0.23218929 3:0.50357152 4:0.35404296 5:0.81258717 6:0.42618109 
1 1:0.39652364 2:0.34909398 3:0.87079892 4:0.81572439 5:0.3504018 6:0.45417838 
1 1:0.44557037 2:0.23690292 3:0.8677065 4:0.19778889 5:0.21742688 6:0.32677421 
1 1:0.25349308 2:0.38651455 3:0.13352347 4:0.42075304 5:0.49026378 6:0.038332842 
1 1:0.8238399 2:0.38103288 3:0.46339099 4:0.24659528 5:0.24499564 6:0.36825419 
1 1:0.42992183 2:0.69661659 3:0.85772316 4:0.51481924 5:0.54054956 6:0.02999892 
1 1:0.51354995 2:0.16624972 3:0.43407723 4:0.44986586 5:0.073516304 6:0.79969566 
0.9347148892564268 1:0.84639656 2:0.41740512 3:0.77176852 4:0.98129133 5:0.59395326 6:0.13232274 
1 1:0.74972375 2:0.59682351 3:0.73044116 4:0.28437269 5:0.24581572 6:0.32384383 
1 1:0.50960143 2:0.49769773 3:0.069235069 4:0.69992097 5:0.54495427 6:0.020971162 
1 1:0.41492611 2:0.73369388 3:0.71732636 4:0.056817435 5:0.41979177 6:0.33647769 
1 1:0.49319987 2:0.25107028 3:0.61902002 4:0.53601014 5:0.51589361 6:0.89554741 
1 1:0.19682665 2:0.25653414 3:0.70133141 4:0.39258493 5:0.80230057 6:0.47343276 
1 1:0.40131635 2:0.72755999 3:0.51746582 4:0.48997483 5:0.20537716 6:0.61773428 
1 1:0.48024162 2:0.6219517 3:0.13629795 4:0.63634035 5:0.6800947 6:0.18904836 
1 1:0.33706204 2:0.84491045 3:0.49431838 4:0.34720648 5:0.35310964 6:0.8877802 
1 1:0.44574781 2:0.74673607 3:0.7083237 4:0.85473277 5:0.17573167 6:0.93441275 
1 1:0.81798729 2:0.67815827 3:0.4379735 4:0.6544561 5:0.25384249 6:0.072432573 
1 1:0.63653424 2:0.32257508 3:0.083563515 4:0.50106661 5:0.53794038 6:0.73040512 
1 1:0.20910059 2:0.69911341 3:0.50248401 4:0.57984506 5:0.69054129 6:0.77716808 
1 1:0.75851042 2:0.41742568 3:0.76100753 4:0.50740729 5:0.41843725 6:0.32533692 
1 1:0.93409901 2:0.42707554 3:0.70224052 4:0.22886873 5:0.6420731 6:0.41358199 
1 1:0.53465545 2:0.23740298 3:0.77542385 4:0.50529159 5:0.93909343 6:0.50133212 
1 1:0.32851956 2:0.2225651 3:0.71862441 4:0.97550703 5:0.38847206 6:0.18032819 
0.2806705008068615 1:0.23037311 2:0.69412851 3:0.2984909 4:0.81442529 5:0.19224298 6:0.99059474 
1 1:0.39228087 2:0.14208072 3:0.73714509 4:0.36702997 5:0.34779433 6:0.58069773 
1 1:0.74413837 2:0.58042717 3:0.2385098 4:0.85960658 5:0.67475943 6:0.91461922 
1 1:0.27993355 2:0.24703661 3:0.36273656 4:0.21570726 5:0.18077726 6:0.93369424 
1 1:0.75403886 2:0.2478768 3:0.74780105 4:0.35037295 5:0.74279068 6:0.56504559 
1 1:0.30377939 2:0.74366849 3:0.43687246 4:0.96424761 5:0.71244154 6:0.72852938 
1 1:0.23252984 2:0.33350884 3:0.20430721 4:0.43612702 5:0.55074519 6:0.93207535 
1 1:0.60907306 2:0.17251098 3:0.6947158 4:0.060224396 5:0.66265557 6:0.99657587 
0.7705582304606862 1:0.75951513 2:0.38614764 3:0.12177145 4:0.23480392 5:0.62315176 6:0.97219232 
1 1:0.81396169 2:0.5034528 3:0.69388711 4:0.89753242 5:0.36807403 6:0.14831587 
1 1:0.49321577 2:0.10250048 3:0.45740793 4:0.92532813 5:0.50834106 6:0.75003566 
1 1:0.31798268 2:0.72544429 3:0.34804088 4:0.55389341 5:0.16226434 6:0.41938259 
1 1:0.59110688 2:0.68244774 3:0.30084813 4:0.21874984 5:0.56342815 6:0.89736876 
1 1:0.39131687 2:0.16710002 3:0.5125717 4:0.88619097 5:0.88366326 6:0.69690172 
1 1:0.25477241 2:0.39460432 3:0.72984872 4:0.85587114 5:0.7167813 6:0.17307398 
1 1:0.86395478 2:0.50754638 3:0.26408728 4:0.83954223 5:0.41806872 6:0.051220317 
1 1:0.39909652 2:0.6953763 3:0.81482453 4:0.56488756 5:0.85854767 6:0.50517952 
1 1:0.20488932 2:0.69756322 3:0.70649014 4:0.46655062 5:0.670231 6:0.6586516 
1 1:0.42422696 2:0.51859527 3:0.93667662 4:0.67405957 5:0.6017998 6:0.26396705 
1 1:0.69631978 2:0.17729924 3:0.33397885 4:0.46076349 5:0.40476548 6:0.16463504 
1 1:0.3460601 2:0.62357988 3:0.10582573 4:0.45088688 5:0.36255382 6:0.17373933 
0.654186337695894 1:0.92779131 2:0.40748881 3:0.41437639 4:0.49424413 5:0.79951796 6:0.99335595 
1 1:0.07890854 2:0.57944102 3:0.61452039 4:0.15910035 5:0.25762963 6:0.48581362 
1 1:0.33077498 2:0.25837887 3:0.28386087 4:0.17807433 5:0.34502336 6:0.88307977 
1 1:0.42916407 2:0.21248997 3:0.62078815 4:0.56799081 5:0.66667591 6:0.79287373 
1 1:0.42247764 2:0.32337487 3:0.11642003 4:0.57928165 5:0.65417211 6:0.74269186 
1 1:0.78872183 2:0.14828796 3:0.46052832 4:0.40202834 5:0.66230653 6:0.75963186 
1 1:0.73858221 2:0.29670554 3:0.67942573 4:0.85531881 5:0.47462215 6:0.43713717 
1 1:0.34694562 2:0.69770193 3:0.80335071 4:0.69406819 5:0.31912161 6:0.69285853 
1 1:0.60933988 2:0.69231517 3:0.79959447 4:0.59403617 5:0.66986946 6:0.81402341 
1 1:0.54899287 2:0.42200447 3:0.92738771 4:0.12220512 5:0.5768397 6:0.35802302 
1 1:0.12054831 2:0.24492097 3:0.34155781 4:0.23248761 5:0.5599155 6:0.62332339 
1 1:0.7005381 2:0.42813279 3:0.046232353 4:0.32185585 5:0.39752355 6:0.65429847 
1 1:0.26614283 2:0.30667621 3:0.76218644 4:0.92751314 5:0.57810681 6:0.50270192 
1 1:0.099861598 2:0.56581532 3:0.2704832 4:0.35793873 5:0.7508215 6:0.41173953 
1 1:0.60444121 2:0.69910735 3:0.61361125 4:0.20404042 5:0.91908214 6:0.037878489 
1 1:0.43865336 2:0.78400233 3:0.52567148 4:0.18372426 5:0.20254311 6:0.53305644 
1 1:0.54865174 2:0.69632105 3:0.84342419 4:0.68902382 5:0.40970314 6:0.76644445 
1 1:0.64601627 2:0.81764083 3:0.40999942 4:0.37614515 5:0.54601077 6:0.60469133 
1 1:0.62643983 2:0.71320976 3:0.2839142 4:0.1088982 5:0.19827256 6:0.53511458 
1 1:0.94677227 2:0.45916864 3:0.33683306 4:0.82161814 5:0.31685087 6:0.49959461 
1 1:0.20784317 2:0.24016125 3:0.73544085 4:0.78690152 5:0.21339754 6:0.25416232 
1 1:0.5746081 2:0.73256263 3:0.33724325 4:0.63158548 5:0.78972365 6:0.72511228 
1 1:0.39358815 2:0.56638916 3:0.88567324 4:0.42752939 5:0.43704169 6:0.17637806 
1 1:0.1044079 2:0.7142368 3:0.54338904 4:0.36221669 5:0.31097167 6:0.64556113 
1 1:0.69731817 2:0.4984209 3:0.8457644 4:0.53263637 5:0.84735654 6:0.25985391 
1 1:0.25447239 2:0.36106685 3:0.38505102 4:0.39501987 5:0.76561223 6:0.99064809 
1 1:0.74152491 2:0.57901683 3:0.15485609 4:0.68951909 5:0.74963932 6:0.36836357 
1 1:0.64056004 2:0.6903845 3:0.78815206 4:0.86050106 5:0.16975258 6:0.29403062 
1 1:0.073508732 2:0.38671074 3:0.43626414 4:0.21863589 5:0.19835289 6:0.93220287 
1 1:0.7230035 2:0.63249277 3:0.8658946 4:0.47946429 5:0.48849065 6:0.54637825 
1 1:0.56787994 2:0.77600171 3:0.56947066 4:0.76691383 5:0.74931853 6:0.83738552 
1 1:0.83018261 2:0.28378702 3:0.37359486 4:0.62025385 5:0.32906269 6:0.86552417 
1 1:0.68205958 2:0.14359673 3:0.5493098 4:0.58220436 5:0.29263584 6:0.38527487 
1 1:0.50506813 2:0.12944131 3:0.64756978 4:0.13370193 5:0.67039999 6:0.7288509 
1 1:0.73543543 2:0.51180136 3:0.16822331 4:0.91326386 5:0.7459915 6:0.37735162 
1 1:0.84673252 2:0.43888496 3:0.72721956 4:0.82419396 5:0.83905002 6:0.67842996 
1 1:0.18952785 2:0.3876831 3:0.31460681 4:0.64605671 5:0.78756586 6:0.6099105 
1 1:0.39108042 2:0.10898399 3:0.31584876 4:0.27250352 5:0.46748537 6:0.77868875 
1 1:0.78757865 2:0.40653598 3:0.13848061 4:0.60100995 5:0.43726384 6:0.28675864 
1 1:0.10416547 2:0.5097514 3:0.62033065 4:0.4213093 5:0.13772751 6:0.31655372 
1 1:0.7092827 2:0.38886099 3:0.79836976 4:0.21989254 5:0.76580082 6:0.58730039 
1 1:0.34236027 2:0.22315595 3:0.50908993 4:0.59831359 5:0.27941365 6:0.59945245 
1 1:0.381037 2:0.4843468 3:0.94980823 4:0.30567582 5:0.31190152 6:0.46557368 
1 1:0.86766191 2:0.68508695 3:0.56275635 4:0.18449298 5:0.54154932 6:0.39141399 
1 1:0.78436471 2:0.28646369 3:0.52390065 4:0.31526852 5:0.31694739 6:0.1701013 
1 1:0.60147064 2:0.57133594 3:0.94808091 4:0.38301599 5:0.53162247 6:0.81169194 
1 1:0.66170431 2:0.60242445 3:0.24279956 4:0.44812907 5:0.71157575 6:0.35816149 
1 1:0.42958251 2:0.70809024 3:0.20452166 4:0.61671131 5:0.20103687 6:0.93744594 
1 1:0.5806395 2:0.43097929 3:0.96391956 4:0.59080982 5:0.51980971 6:0.22065603 
1 1:0.27731659 2:0.66091613 3:0.84219769 4:0.64137294 5:0.19576728 6:0.8195273 
1 1:0.86029256 2:0.53296936 3:0.42409585 4:0.035588023 5:0.44866662 6:0.66817483 
1 1:0.25365645 2:0.26571213 3:0.80445251 4:0.6331887 5:0.14801157 6:0.52862284 
1 1:0.60167958 2:0.73502742 3:0.21894052 4:0.38192576 5:0.33736897 6:0.62782957 
1 1:0.51457148 2:0.77016453 3:0.26439899 4:0.62415266 5:0.71779035 6:0.45844395 
1 1:0.43192822 2:0.84381374 3:0.47692873 4:0.70744912 5:0.64076968 6:0.22158422 
1 1:0.65686442 2:0.42346357 3:0.9097993 4:0.029699601 5:0.33622745 6:0.56347212 
1 1:0.75436768 2:0.8007345 3:0.52822981 4:0.68608852 5:0.54727194 6:0.43330371 
1 1:0.66052757 2:0.14214214 3:0.58997897 4:0.055417453 5:0.3702448 6:0.72440291 
1 1:0.51035229 2:0.86654437 3:0.40137728 4:0.47112011 5:0.56944856 6:0.17434641 
1 1:0.54336978 2:0.78592351 3:0.50651806 4:0.13014374 5:0.75489168 6:0.48638022 
1 1:0.64438665 2:0.76704719 3:0.64904788 4:0.75035207 5:0.49551252 6:0.40337516 
1 1:0.51352288 2:0.12840021 3:0.32068052 4:0.42413637 5:0.51760435 6:0.22093035 
1 1:0.73507058 2:0.35846004 3:0.67258683 4:0.19646996 5:0.031391152 6:0.98978701 
1 1:0.41337654 2:0.76258802 3:0.32163954 4:0.65883651 5:0.5848183 6:0.43962561 
1 1:0.64549061 2:0.50490926 3:0.81832985 4:0.47219098 5:0.67853555 6:0.21361166 
1 1:0.89225189 2:0.21592111 3:0.49418819 4:0.42699857 5:0.52044806 6:0.37002666 
1 1:0.81621149 2:0.33452623 3:0.77862797 4:0.30648546 5:0.56347786 6:0.83685729 
1 1:0.74434223 2:0.66629404 3:0.63794502 4:0.038441929 5:0.54538437 6:0.88599868 
1 1:0.39163408 2:0.68225192 3:0.34310422 4:0.12754924 5:0.51287238 6:0.94992545 
1 1:0.42390524 2:0.54252815 3:0.10188099 4:0.56125887 5:0.86845876 6:0.12168548 
1 1:0.11936005 2:0.56283258 3:0.44809711 4:0.73681258 5:0.20404292 6:0.031602583 
1 1:0.30498524 2:0.61673778 3:0.1115235 4:0.46668573 5:0.42381613 6:0.16989388 
1 1:0.26244018 2:0.22065312 3:0.72363211 4:0.14252347 5:0.30766535 6:0.7525408 
1 1:0.60927968 2:0.30194857 3:0.19896927 4:0.87699337 5:0.62586502 6:0.86208648 
1 1:0.53215114 2:0.12198079 3:0.55754703 4:0.94607723 5:0.44705334 6:0.17463242 
1 1:0.73680567 2:0.67995635 3:0.27783217 4:0.67681775 5:0.81963064 6:0.82584246 
1 1:0.14418269 2:0.70962615 3:0.52423371 4:0.9334542 5:0.46473326 6:0.70574506 
1 1:0.32249997 2:0.33363993 3:0.76325805 4:0.45853631 5:0.53567119 6:0.78266361 
1 1:0.44521046 2:0.4341543 3:0.93359849 4:0.93183125 5:0.68532174 6:0.64823067 
1 1:0.81281426 2:0.67064795 3:0.34573017 4:0.51666619 5:0.72515668 6:0.78656894 
1 1:0.48990961 2:0.42845918 3:0.92386458 4:0.79297112 5:0.72695516 6:0.46654588 
1 1:0.30740343 2:0.67811833 3:0.6368805 4:0.39151813 5:0.86512598 6:0.34183816 
1 1:0.43008492 2:0.45172015 3:0.043546783 4:0.64383218 5:0.37625326 6:0.38175669 
1 1:0.27008669 2:0.4670021 3:0.11725292 4:0.73317456 5:0.50798441 6:0.020600219 
1 1:0.78083289 2:0.3164795 3:0.74850696 4:0.7421205 5:0.36745465 6:0.062441021 
1 1:0.45054615 2:0.32409232 3:0.15225496 4:0.69896352 5:0.47170139 6:0.0075510438 
1 1:0.6133567 2:0.36811127 3:0.89012092 4:0.63623479 5:0.58102624 6:0.54316704 
1 1:0.093361916 2:0.42691917 3:0.32719277 4:0.2310133 5:0.55267037 6:0.94710598 
1 1:0.44163674 2:0.70532149 3:0.29061041 4:0.78829733 5:0.23150561 6:0.92890507 
1 1:0.22023405 2:0.70864976 3:0.35987601 4:0.32151082 5:0.65260317 6:0.25039018 
1 1:0.60101531 2:0.18596524 3:0.30513194 4:0.9330316 5:0.52248252 6:0.20621077 
1 1:0.85985486 2:0.3606139 3:0.60533611 4:0.46775761 5:0.49126933 6:0.65283775 
1 1:0.65666133 2:0.14133657 3:0.37314224 4:0.46660793 5:0.63474934 6:0.94372911 
1 1:0.34485122 2:0.2597515 3:0.15336053 4:0.45931286 5:0.2426276 6:0.039704052 
1 1:0.57516772 2:0.4256267 3:0.91540159 4:0.53400794 5:0.44586589 6:0.73335794 
1 1:0.70129838 2:0.69620949 3:0.57286023 4:0.4726126 5:0.48282036 6:0.28792545 
