svm_type c_svc
kernel_type rbf
gamma 0.166667
nr_class 2
total_sv 3610
rho -11.2459
label -1 1
nr_sv 1811 1799
SV
0.7142107850087197 1:0.13937804 2:0.35034103 3:0.2382884 4:0.77518934 5:0.39843029 6:0.89523871 
1 1:0.5612763 2:0.20680161 3:0.53937499 4:0.17319904 5:0.60624912 6:0.22061392 
1 1:0.38071174 2:0.71596115 3:0.79199649 4:0.54018841 5:0.57749832 6:0.42162611 
1 1:0.53878151 2:0.7130764 3:0.52080964 4:0.79977348 5:0.24987784 6:0.74374087 
1 1:0.2295022 2:0.17506539 3:0.64104492 4:0.18176765 5:0.58785459 6:0.17842888 
1 1:0.047804524 2:0.51005362 3:0.53396974 4:0.32096747 5:0.43364153 6:0.47038772 
1 1:0.081620082 2:0.54881326 3:0.28700522 4:0.62459673 5:0.69203034 6:0.50585683 
1 1:0.63926821 2:0.6232746 3:0.60701032 4:0.118978 5:0.42448651 6:0.81288987 
1 1:0.49516711 2:0.25952231 3:0.83067334 4:0.8220014 5:0.49123728 6:0.90178059 
1 1:0.52320401 2:0.82704902 3:0.38437981 4:0.34397966 5:0.70772775 6:0.12325421 
1 1:0.42382186 2:0.78686332 3:0.71662035 4:0.17808757 5:0.56383637 6:0.61234466 
1 1:0.52727082 2:0.85884224 3:0.60268642 4:0.44095522 5:0.55037614 6:0.73292781 
1 1:0.86099134 2:0.42776828 3:0.22123897 4:0.30016922 5:0.45795209 6:0.60819893 
1 1:0.509967 2:0.8136714 3:0.50992509 4:0.88161209 5:0.69934518 6:0.49873905 
1 1:0.51469677 2:0.79943596 3:0.27696567 4:0.54359706 5:0.48631531 6:0.35866701 
1 1:0.80855941 2:0.56196627 3:0.77392069 4:0.16737922 5:0.34349255 6:0.011045899 
1 1:0.48628672 2:0.26246009 3:0.35049154 4:0.86809784 5:0.37341361 6:0.22097125 
1 1:0.23154614 2:0.73774672 3:0.70861489 4:0.66702889 5:0.67415736 6:0.40414863 
1 1:0.36821918 2:0.20608345 3:0.48277638 4:0.47108888 5:0.82979764 6:0.18975204 
1 1:0.73539302 2:0.35447112 3:0.77341299 4:0.3088852 5:0.31921273 6:0.21441439 
1 1:0.79401676 2:0.28842268 3:0.7182011 4:0.17842097 5:0.3119136 6:0.26866085 
1 1:0.68140964 2:0.1044777 3:0.49521567 4:0.29238663 5:0.21155772 6:0.38279481 
1 1:0.086012144 2:0.44853618 3:0.48522998 4:0.69658068 5:0.80610982 6:0.41967001 
1 1:0.44852173 2:0.14685575 3:0.46562895 4:0.93211074 5:0.37705377 6:0.98311829 
1 1:0.4401576 2:0.28950261 3:0.83626124 4:0.45322569 5:0.60696186 6:0.85251949 
1 1:0.82733285 2:0.26538473 3:0.34195685 4:0.21855604 5:0.4818977 6:0.34560633 
1 1:0.46413995 2:0.76310816 3:0.38585913 4:0.038305664 5:0.86459659 6:0.83086027 
1 1:0.20209696 2:0.75518625 3:0.59136876 4:0.5472976 5:0.6008538 6:0.69188512 
1 1:0.93381391 2:0.3269065 3:0.50845325 4:0.46516697 5:0.46000639 6:0.29010599 
1 1:0.18920637 2:0.32161152 3:0.31188137 4:0.051152697 5:0.59236135 6:0.91944809 
1 1:0.55276032 2:0.56126322 3:0.74370641 4:0.32113375 5:0.70746409 6:0.46366138 
1 1:0.45096633 2:0.40949484 3:0.93323915 4:0.16622434 5:0.81757621 6:0.31424089 
1 1:0.30080312 2:0.60012316 3:0.35170571 4:0.68813379 5:0.73785345 6:0.064622811 
1 1:0.63942676 2:0.7195961 3:0.73419988 4:0.3123988 5:0.54156272 6:0.71555287 
1 1:0.74227486 2:0.18944348 3:0.29694297 4:0.55167845 5:0.38677348 6:0.26765764 
1 1:0.49416545 2:0.17851763 3:0.53503616 4:0.40338583 5:0.42175901 6:0.025049867 
1 1:0.32090351 2:0.28711163 3:0.27062486 4:0.75199297 5:0.13961075 6:0.22130466 
1 1:0.52871562 2:0.1460717 3:0.69880836 4:0.033565382 5:0.36792907 6:0.19937315 
1 1:0.65908047 2:0.62998016 3:0.098941825 4:0.5678684 5:0.72120572 6:0.59628003 
1 1:0.11390815 2:0.66924152 3:0.47480738 4:0.40802428 5:0.66999867 6:0.54980907 
1 1:0.27252554 2:0.70350623 3:0.23569329 4:0.93454281 5:0.54135575 6:0.85512981 
1 1:0.28122999 2:0.48672123 3:0.060068373 4:0.26154768 5:0.3347337 6:0.4582306 
1 1:0.29648846 2:0.16169991 3:0.48058231 4:0.57151978 5:0.27785681 6:0.73809467 
1 1:0.34919472 2:0.1353819 3:0.52319669 4:0.31503979 5:0.46616433 6:0.61787356 
1 1:0.38882921 2:0.19433584 3:0.44762595 4:0.9157216 5:0.86338243 6:0.92385436 
1 1:0.66910691 2:0.32844199 3:0.2627507 4:0.90932044 5:0.11110199 6:0.26347309 
1 1:0.48003564 2:0.6678901 3:0.79077515 4:0.31497348 5:0.25609897 6:0.69025774 
1 1:0.68052173 2:0.24520248 3:0.22174755 4:0.5400137 5:0.85658006 6:0.32181991 
1 1:0.46658142 2:0.18863151 3:0.43942583 4:0.93478281 5:0.38007236 6:0.47004608 
1 1:0.53041364 2:0.65314231 3:0.15166724 4:0.73579146 5:0.79494925 6:0.5896748 
1 1:0.250867 2:0.74498361 3:0.44037677 4:0.59951935 5:0.28248665 6:0.14837457 
1 1:0.5857275 2:0.18287738 3:0.26213123 4:0.2782377 5:0.47943958 6:0.30478728 
1 1:0.52636314 2:0.18828954 3:0.76341059 4:0.73849658 5:0.58871664 6:0.7069173 
1 1:0.94689677 2:0.45611221 3:0.68529937 4:0.54160386 5:0.61214098 6:0.53657652 
1 1:0.71592527 2:0.66583537 3:0.15011003 4:0.63262824 5:0.59597683 6:0.73302832 
1 1:0.1864141 2:0.30565747 3:0.80683026 4:0.47012891 5:0.44316486 6:0.42605554 
1 1:0.30002679 2:0.21257468 3:0.69920754 4:0.64175285 5:0.50417488 6:0.45853137 
1 1:0.59921497 2:0.198355 3:0.77652182 4:0.31269138 5:0.098480058 6:0.69139397 
1 1:0.36102724 2:0.2666154 3:0.79548068 4:0.59395566 5:0.62543138 6:0.46479121 
1 1:0.42743978 2:0.16324777 3:0.51018665 4:0.91591518 5:0.70699574 6:0.09050951 
1 1:0.57928124 2:0.48073213 3:0.057935278 4:0.24242746 5:0.55388835 6:0.33324009 
1 1:0.50215504 2:0.37189206 3:0.16184463 4:0.70901973 5:0.74547199 6:0.81862146 
1 1:0.50118484 2:0.77964724 3:0.67518347 4:0.80427431 5:0.32897285 6:0.79875346 
1 1:0.36018378 2:0.45806807 3:0.9438264 4:0.16927349 5:0.34812857 6:0.15547716 
1 1:0.32093714 2:0.69677738 3:0.77125936 4:0.76266146 5:0.64635215 6:0.18643698 
1 1:0.19320289 2:0.67448212 3:0.34528392 4:0.31309058 5:0.74505849 6:0.53867594 
1 1:0.14295049 2:0.2288465 3:0.52935483 4:0.74666051 5:0.70212331 6:0.77545131 
1 1:0.42349792 2:0.1335937 3:0.71629109 4:0.88559776 5:0.46455615 6:0.62244774 
1 1:0.50832131 2:0.19226672 3:0.82951175 4:0.6677743 5:0.74021844 6:0.50199301 
1 1:0.87800586 2:0.42411138 3:0.32450209 4:0.29914258 5:0.84063141 6:0.31103785 
1 1:0.38933415 2:0.16982417 3:0.50781163 4:0.30671244 5:0.5755701 6:0.87996076 
1 1:0.42856157 2:0.49366283 3:0.9527854 4:0.79685626 5:0.36083288 6:0.58003242 
1 1:0.33834669 2:0.14858835 3:0.2944792 4:0.024010243 5:0.56519584 6:0.32145068 
1 1:0.49345194 2:0.21334721 3:0.5862635 4:0.29405615 5:0.56762848 6:0.61046397 
1 1:0.22741326 2:0.71013084 3:0.26665108 4:0.30874709 5:0.17829119 6:0.51819311 
1 1:0.67238896 2:0.57572696 3:0.13607154 4:0.7326971 5:0.44346502 6:0.97775035 
1 1:0.78740386 2:0.29962438 3:0.23683847 4:0.73185089 5:0.31742469 6:0.47388391 
1 1:0.46500245 2:0.21334824 3:0.43238117 4:0.45520817 5:0.18779075 6:0.84303912 
1 1:0.44872214 2:0.54935135 3:0.057821166 4:0.84639351 5:0.56025595 6:0.66093275 
1 1:0.49747677 2:0.77886744 3:0.71094938 4:0.43435003 5:0.55876901 6:0.45124358 
1 1:0.38168402 2:0.64714041 3:0.23034517 4:0.66023028 5:0.37567248 6:0.57970286 
1 1:0.43525961 2:0.71492751 3:0.79075217 4:0.29223899 5:0.65116083 6:0.015465175 
1 1:0.84690487 2:0.59660633 3:0.78000861 4:0.32064904 5:0.28356213 6:0.69900594 
1 1:0.79815875 2:0.28456597 3:0.67931051 4:0.26880913 5:0.42352966 6:0.22704092 
1 1:0.90777049 2:0.52503068 3:0.53271711 4:0.76256642 5:0.72387788 6:0.90704816 
1 1:0.36500597 2:0.75793522 3:0.4973869 4:0.63871266 5:0.57352234 6:0.38567576 
1 1:0.83498372 2:0.47033544 3:0.78978462 4:0.64413144 5:0.42019496 6:0.66768965 
1 1:0.25771066 2:0.13409062 3:0.39106585 4:0.74467267 5:0.66170124 6:0.44190526 
1 1:0.62199342 2:0.5423377 3:0.10214712 4:0.29865079 5:0.17812017 6:0.91778463 
1 1:0.9293691 2:0.50007339 3:0.46125192 4:0.71545834 5:0.68370948 6:0.89059314 
1 1:0.49740596 2:0.19612587 3:0.17561438 4:0.34580803 5:0.730164 6:0.19523398 
1 1:0.80016364 2:0.15507272 3:0.48099528 4:0.17089535 5:0.59427035 6:0.27390231 
1 1:0.089583492 2:0.32717221 3:0.57084001 4:0.34095926 5:0.46446334 6:0.92485791 
1 1:0.63228406 2:0.61206331 3:0.69898738 4:0.78000945 5:0.45952877 6:0.5941705 
1 1:0.57285819 2:0.37397226 3:0.83857861 4:0.41443956 5:0.41409275 6:0.46947592 
1 1:0.51291342 2:0.67355267 3:0.5771791 4:0.39988712 5:0.63964819 6:0.34938492 
1 1:0.48563205 2:0.30953879 3:0.88585933 4:0.41898317 5:0.90461299 6:0.17123026 
1 1:0.1561807 2:0.56711021 3:0.31358498 4:0.72514139 5:0.17873438 6:0.42673575 
1 1:0.49504876 2:0.56143251 3:0.16425687 4:0.58621419 5:0.59231734 6:0.26276542 
1 1:0.34041008 2:0.73153205 3:0.65179424 4:0.13232392 5:0.35734217 6:0.36636753 
1 1:0.19129858 2:0.37459458 3:0.61316088 4:0.12863111 5:0.41050754 6:0.75552511 
1 1:0.50649047 2:0.30830888 3:0.053433758 4:0.47547693 5:0.71184769 6:0.40459417 
1 1:0.72581607 2:0.52875027 3:0.88824461 4:0.31935593 5:0.54903477 6:0.22902595 
1 1:0.74705464 2:0.26359336 3:0.25826233 4:0.11695048 5:0.21754257 6:0.35296449 
1 1:0.55741857 2:0.21649496 3:0.38979828 4:0.38269694 5:0.52539772 6:0.71943459 
1 1:0.80985429 2:0.725706 3:0.53377121 4:0.24887904 5:0.25909244 6:0.81119232 
1 1:0.080220464 2:0.37637089 3:0.59566512 4:0.45873449 5:0.53726878 6:0.10476189 
1 1:0.9356594 2:0.44420656 3:0.58829299 4:0.21181456 5:0.81231063 6:0.47693124 
1 1:0.48526131 2:0.7621855 3:0.60180439 4:0.220524 5:0.72079275 6:0.21207455 
1 1:0.49909804 2:0.10270793 3:0.72112987 4:0.71146967 5:0.24741865 6:0.68997429 
1 1:0.85027327 2:0.24071059 3:0.66471572 4:0.85704089 5:0.60942694 6:0.37111398 
1 1:0.39971007 2:0.13552603 3:0.30096859 4:0.52001884 5:0.76457998 6:0.53616429 
1 1:0.51262887 2:0.80901896 3:0.60112096 4:0.24088684 5:0.46942609 6:0.73528659 
1 1:0.093624004 2:0.53495247 3:0.31440726 4:0.29246978 5:0.35441924 6:0.66111298 
1 1:0.62789019 2:0.74461751 3:0.22134646 4:0.87502682 5:0.63502783 6:0.69454097 
1 1:0.5235297 2:0.76492808 3:0.27804934 4:0.43328074 5:0.69864925 6:0.33626301 
1 1:0.70541746 2:0.78200973 3:0.61477501 4:0.64972545 5:0.603045 6:0.052597785 
1 1:0.11951291 2:0.37968751 3:0.31401944 4:0.43325956 5:0.63111835 6:0.070222994 
1 1:0.29527354 2:0.70208478 3:0.32944236 4:0.65800672 5:0.71200468 6:0.18160357 
1 1:0.78649947 2:0.57587646 3:0.55757906 4:0.97825309 5:0.43930283 6:0.87745612 
1 1:0.38745041 2:0.74668908 3:0.22128468 4:0.053179478 5:0.68514289 6:0.50464177 
1 1:0.28811843 2:0.39563097 3:0.19707677 4:0.32017534 5:0.35412761 6:0.71780466 
1 1:0.7330957 2:0.13978402 3:0.54955344 4:0.47770384 5:0.18166166 6:0.74153489 
1 1:0.02852342 2:0.3372649 3:0.59935342 4:0.70582973 5:0.50155051 6:0.55827144 
1 1:0.44477214 2:0.69682958 3:0.21680941 4:0.42112897 5:0.64318432 6:0.27231383 
1 1:0.31445015 2:0.4584118 3:0.8168107 4:0.046574044 5:0.06101248 6:0.092111919 
1 1:0.66986713 2:0.81033075 3:0.55565105 4:0.94606276 5:0.56697054 6:0.37013735 
1 1:0.22994653 2:0.21816082 3:0.40777648 4:0.45430123 5:0.81244656 6:0.85242289 
1 1:0.42018443 2:0.79970874 3:0.45575269 4:0.35557928 5:0.43178946 6:0.41085241 
1 1:0.61369305 2:0.7608038 3:0.33636544 4:0.83658703 5:0.71716422 6:0.12668315 
1 1:0.73595541 2:0.329051 3:0.76993498 4:0.57051486 5:0.61013895 6:0.087330566 
1 1:0.74172898 2:0.45083393 3:0.21389025 4:0.2874761 5:0.3019477 6:0.92129221 
1 1:0.19229804 2:0.57582131 3:0.70476352 4:0.65271421 5:0.36000873 6:0.1711946 
1 1:0.84099296 2:0.41992583 3:0.61040124 4:0.0621502 5:0.95337023 6:0.3121125 
1 1:0.36229049 2:0.17074892 3:0.54119864 4:0.52173777 5:0.51203937 6:0.39356977 
1 1:0.2082358 2:0.33691736 3:0.78599575 4:0.54175053 5:0.78688978 6:0.87739405 
1 1:0.61044307 2:0.2229707 3:0.24270166 4:0.27022104 5:0.47560866 6:0.14655007 
1 1:0.43888383 2:0.74851729 3:0.52125962 4:0.041328156 5:0.56013384 6:0.12418434 
1 1:0.65739775 2:0.58563808 3:0.84897495 4:0.56307053 5:0.75268679 6:0.43256742 
1 1:0.48187429 2:0.6495043 3:0.13333403 4:0.22522836 5:0.80978536 6:0.32975534 
1 1:0.37384582 2:0.79979419 3:0.26083752 4:0.15162141 5:0.47550168 6:0.39161282 
1 1:0.47262888 2:0.78116032 3:0.67629924 4:0.49608874 5:0.56932074 6:0.77819003 
1 1:0.82216568 2:0.21777057 3:0.6455786 4:0.51818484 5:0.85892666 6:0.519484 
1 1:0.54862985 2:0.83704029 3:0.59028928 4:0.60121957 5:0.65461309 6:0.66120302 
1 1:0.85938819 2:0.41919561 3:0.35839341 4:0.61962221 5:0.36589115 6:0.34292181 
1 1:0.71996595 2:0.74006056 3:0.73869602 4:0.25582953 5:0.4708983 6:0.37699372 
1 1:0.48638831 2:0.72151771 3:0.81213725 4:0.091212844 5:0.64334291 6:0.6705547 
1 1:0.92011092 2:0.49387801 3:0.37559834 4:0.64599921 5:0.73081767 6:0.93817962 
1 1:0.72877088 2:0.2885554 3:0.30139439 4:0.7030067 5:0.34423625 6:0.60992249 
1 1:0.26912492 2:0.28948972 3:0.1201324 4:0.32779155 5:0.5729702 6:0.24596179 
1 1:0.45506457 2:0.57021864 3:0.071679368 4:0.020672043 5:0.68328531 6:0.68584242 
1 1:0.41759279 2:0.62905317 3:0.18151204 4:0.71456609 5:0.31716305 6:0.02669273 
1 1:0.88666816 2:0.375657 3:0.45368702 4:0.50457529 5:0.51879018 6:0.63067372 
1 1:0.18417855 2:0.51514421 3:0.78964261 4:0.43705831 5:0.39340105 6:0.5450069 
1 1:0.5549775 2:0.76026797 3:0.66411182 4:0.97782815 5:0.53321838 6:0.9456269 
1 1:0.62612997 2:0.78913072 3:0.3132545 4:0.17217837 5:0.47678713 6:0.88019048 
1 1:0.85917894 2:0.26474274 3:0.67773531 4:0.59465566 5:0.59286782 6:0.45736203 
1 1:0.41004678 2:0.58543397 3:0.096181349 4:0.71523385 5:0.63775348 6:0.11887898 
1 1:0.56470479 2:0.70784475 3:0.16680962 4:0.68812106 5:0.30802471 6:0.94393311 
1 1:0.44473588 2:0.22352964 3:0.16880162 4:0.11957967 5:0.59406208 6:0.40221674 
1 1:0.11683036 2:0.38695113 3:0.60495401 4:0.99851174 5:0.28021848 6:0.071530049 
1 1:0.56258653 2:0.15310006 3:0.3379049 4:0.18098589 5:0.27590348 6:0.64896549 
1 1:0.53628361 2:0.68592403 3:0.75830913 4:0.19573671 5:0.41315947 6:0.31381897 
1 1:0.30781348 2:0.62223588 3:0.73945706 4:0.67729483 5:0.23202361 6:0.33728748 
1 1:0.6527667 2:0.62689791 3:0.83412492 4:0.1976761 5:0.74843626 6:0.2268017 
1 1:0.32113592 2:0.33599748 3:0.8510911 4:0.88428787 5:0.53917377 6:0.33438665 
1 1:0.7438125 2:0.421288 3:0.16183816 4:0.13863416 5:0.6257921 6:0.62632278 
1 1:0.56112142 2:0.17805354 3:0.41633815 4:0.028009955 5:0.85356923 6:0.028700442 
1 1:0.37664877 2:0.28182894 3:0.83904375 4:0.1517153 5:0.4498829 6:0.64023862 
1 1:0.46338649 2:0.19757039 3:0.6371515 4:0.65548691 5:0.7846451 6:0.03867671 
1 1:0.15590905 2:0.63601086 3:0.53008151 4:0.77270945 5:0.21570334 6:0.21847347 
1 1:0.69325661 2:0.73366352 3:0.72301448 4:0.084696642 5:0.37991388 6:0.65928114 
1 1:0.6299956 2:0.66396468 3:0.27547403 4:0.077298574 5:0.54157036 6:0.0050779144 
1 1:0.35011731 2:0.41548477 3:0.82168007 4:0.4907079 5:0.27845075 6:0.43924093 
1 1:0.51986373 2:0.73993072 3:0.36416675 4:0.22260117 5:0.68084509 6:0.016608378 
1 1:0.67599257 2:0.73361642 3:0.64310798 4:0.69470138 5:0.64890708 6:0.34357687 
1 1:0.30848811 2:0.54978914 3:0.093550535 4:0.79376659 5:0.79309265 6:0.59401491 
1 1:0.15750225 2:0.30200164 3:0.34821244 4:0.17499106 5:0.11112465 6:0.13832744 
1 1:0.21901019 2:0.2666206 3:0.41033147 4:0.73581603 5:0.67315198 6:0.97317091 
1 1:0.74114693 2:0.41997239 3:0.2295055 4:0.63276889 5:0.60806578 6:0.68557258 
1 1:0.58807827 2:0.73031877 3:0.27663096 4:0.82999114 5:0.42409869 6:0.54904533 
1 1:0.46293353 2:0.77586769 3:0.71672367 4:0.46071771 5:0.64298726 6:0.82905317 
1 1:0.34024583 2:0.45024114 3:0.076060676 4:0.30819458 5:0.61278219 6:0.064960669 
1 1:0.1723713 2:0.26610199 3:0.64046019 4:0.084667457 5:0.61016519 6:0.14813562 
1 1:0.73070433 2:0.31546199 3:0.73565704 4:0.069109921 5:0.44574928 6:0.15243556 
1 1:0.58874053 2:0.28769285 3:0.89217949 4:0.74427535 5:0.31933788 6:0.52104731 
1 1:0.10250064 2:0.35054143 3:0.52017141 4:0.77663907 5:0.78367955 6:0.47298307 
1 1:0.30912389 2:0.72561701 3:0.80816059 4:0.67623958 5:0.2916244 6:0.27775926 
1 1:0.89301007 2:0.53461992 3:0.64840336 4:0.69495582 5:0.64374937 6:0.64172666 
1 1:0.72040793 2:0.66265534 3:0.30590617 4:0.54389995 5:0.68699285 6:0.30286695 
1 1:0.70093202 2:0.24665105 3:0.1260421 4:0.16207883 5:0.47833134 6:0.59894543 
1 1:0.27802635 2:0.63439281 3:0.3428522 4:0.98674389 5:0.20272005 6:0.40420377 
1 1:0.35480637 2:0.2760392 3:0.21031571 4:0.47896981 5:0.55048034 6:0.83627237 
1 1:0.33906006 2:0.77660582 3:0.73093994 4:0.40198849 5:0.76034384 6:0.19396308 
1 1:0.72844683 2:0.22422455 3:0.58487218 4:0.14295911 5:0.481753 6:0.4851577 
1 1:0.46018311 2:0.17300481 3:0.7481047 4:0.047226004 5:0.23947709 6:0.20520673 
1 1:0.50569826 2:0.69357739 3:0.26478461 4:0.47338233 5:0.27160128 6:0.7248336 
1 1:0.59149497 2:0.29538515 3:0.79185133 4:0.92082843 5:0.54764369 6:0.53827219 
1 1:0.28060643 2:0.33430708 3:0.28751589 4:0.047363885 5:0.74684936 6:0.37897381 
1 1:0.5575497 2:0.086802378 3:0.53845791 4:0.30573081 5:0.3133665 6:0.05001944 
1 1:0.55985777 2:0.64505193 3:0.42467072 4:0.93526444 5:0.54491165 6:0.86830479 
1 1:0.54968591 2:0.15424616 3:0.67306211 4:0.83959436 5:0.21381194 6:0.6088824 
1 1:0.12766023 2:0.5931202 3:0.30107314 4:0.6692327 5:0.17819957 6:0.6745613 
1 1:0.081695849 2:0.31763274 3:0.56693483 4:0.72650929 5:0.73568363 6:0.33615525 
1 1:0.24012308 2:0.18579752 3:0.47113682 4:0.20894011 5:0.53138055 6:0.45242427 
1 1:0.11658507 2:0.51941002 3:0.25124533 4:0.77514835 5:0.19492695 6:0.54410298 
1 1:0.68407241 2:0.66207843 3:0.37963827 4:0.81062216 5:0.46372396 6:0.65093637 
1 1:0.19240801 2:0.63701771 3:0.63347287 4:0.48563897 5:0.54793718 6:0.22067249 
1 1:0.32933525 2:0.77691058 3:0.43234122 4:0.022897949 5:0.40895064 6:0.47315269 
1 1:0.57809408 2:0.41701043 3:0.098943791 4:0.62528244 5:0.42170535 6:0.11486368 
1 1:0.10658815 2:0.259497 3:0.62392747 4:0.38692921 5:0.21778724 6:0.40972748 
1 1:0.43934733 2:0.82321609 3:0.46474957 4:0.3893306 5:0.58414626 6:0.036139224 
1 1:0.45909976 2:0.71203424 3:0.54238527 4:0.15982922 5:0.72349925 6:0.67646789 
1 1:0.37707027 2:0.4787144 3:0.043784247 4:0.61577924 5:0.65082418 6:0.38436972 
1 1:0.21436702 2:0.32645778 3:0.69395112 4:0.75393849 5:0.45658405 6:0.47596819 
1 1:0.60537398 2:0.78519202 3:0.49612975 4:0.06207545 5:0.25496251 6:0.006796534 
1 1:0.41395621 2:0.094508112 3:0.54787239 4:0.29527764 5:0.45415926 6:0.026132959 
1 1:0.37257601 2:0.5777818 3:0.9122686 4:0.9318637 5:0.25074877 6:0.22850659 
1 1:0.10883288 2:0.21044759 3:0.50288548 4:0.50204807 5:0.4871244 6:0.70952356 
1 1:0.41510902 2:0.83380169 3:0.59804849 4:0.45554328 5:0.59725332 6:0.56399946 
1 1:0.47131346 2:0.709 3:0.2967936 4:0.74119529 5:0.47398058 6:0.83259386 
1 1:0.53785736 2:0.22447938 3:0.87182427 4:0.78841587 5:0.49777447 6:0.2154564 
1 1:0.4846135 2:0.20850872 3:0.19286616 4:0.96393974 5:0.52819741 6:0.5991408 
1 1:0.66833087 2:0.48836841 3:0.064818808 4:0.12615419 5:0.62895677 6:0.79312779 
1 1:0.88397261 2:0.39376853 3:0.47526906 4:0.93985867 5:0.44021892 6:0.44107577 
1 1:0.71026229 2:0.33289591 3:0.2282001 4:0.73138029 5:0.42401785 6:0.80807189 
0.2295854361286336 1:0.22600087 2:0.32710638 3:0.20182879 4:0.87386965 5:0.10398661 6:0.3526388 
1 1:0.4963095 2:0.37564878 3:0.030781572 4:0.68590259 5:0.37437173 6:0.53506903 
1 1:0.67510807 2:0.68685675 3:0.82634937 4:0.53838772 5:0.46379873 6:0.589371 
1 1:0.42530138 2:0.22658244 3:0.41647091 4:0.45653017 5:0.28466358 6:0.30278568 
1 1:0.60327177 2:0.1379327 3:0.28617579 4:0.58639129 5:0.45605137 6:0.8506219 
1 1:0.76700873 2:0.691233 3:0.34022809 4:0.29931121 5:0.41094951 6:0.68108867 
1 1:0.72044652 2:0.70977901 3:0.69285272 4:0.22222917 5:0.38102746 6:0.31699312 
1 1:0.44065104 2:0.28256854 3:0.80588335 4:0.92257926 5:0.38979161 6:0.50509539 
1 1:0.21858052 2:0.56399125 3:0.14987147 4:0.24073736 5:0.50277846 6:0.42555017 
1 1:0.86437257 2:0.46785476 3:0.46130301 4:0.88905171 5:0.49116074 6:0.57820937 
1 1:0.62737705 2:0.060787887 3:0.41387942 4:0.65722771 5:0.41756202 6:0.41603475 
1 1:0.048688357 2:0.5416441 3:0.46968791 4:0.3960747 5:0.72621106 6:0.29551861 
1 1:0.24671228 2:0.72586193 3:0.72921563 4:0.29633875 5:0.51575971 6:0.39171566 
1 1:0.85411538 2:0.71318753 3:0.52435206 4:0.82207619 5:0.59432417 6:0.22302926 
1 1:0.4572163 2:0.8033943 3:0.63367299 4:0.43384911 5:0.62058239 6:0.30949078 
1 1:0.38023141 2:0.80205617 3:0.55728507 4:0.034878838 5:0.53507483 6:0.29988416 
1 1:0.22998007 2:0.31957178 3:0.7821472 4:0.44017605 5:0.72914604 6:0.89119683 
1 1:0.46765999 2:0.67782932 3:0.34842646 4:0.57593643 5:0.42591385 6:0.057051122 
0.5865774786632362 1:0.85282912 2:0.59232643 3:0.39572731 4:0.051743864 5:0.84133218 6:0.11087284 
1 1:0.21427961 2:0.21546422 3:0.43045631 4:0.091210101 5:0.292453 6:0.30001807 
1 1:0.61064704 2:0.78753057 3:0.53787084 4:0.23784161 5:0.63767206 6:0.32460763 
1 1:0.31526689 2:0.17094769 3:0.39049938 4:0.52224183 5:0.58818924 6:0.76137407 
1 1:0.069847189 2:0.60885655 3:0.67404018 4:0.2215784 5:0.28002444 6:0.45143436 
1 1:0.72353169 2:0.71384138 3:0.42784929 4:0.68291968 5:0.9733016 6:0.28460515 
1 1:0.41010278 2:0.38097253 3:0.95074634 4:0.58556541 5:0.63250946 6:0.79007325 
1 1:0.50472426 2:0.24474152 3:0.34352084 4:0.52125701 5:0.57612459 6:0.94120243 
1 1:0.44241429 2:0.34543879 3:0.22106011 4:0.16029148 5:0.75787082 6:0.40174918 
1 1:0.56969964 2:0.1569488 3:0.61976785 4:0.89696548 5:0.6209181 6:0.16359114 
1 1:0.189226 2:0.70005817 3:0.76735355 4:0.52408044 5:0.42973949 6:0.6871316 
1 1:0.74523097 2:0.18849831 3:0.47489361 4:0.98641004 5:0.80573567 6:0.62190566 
1 1:0.2125792 2:0.6532732 3:0.22974518 4:0.28190197 5:0.40904557 6:0.18657986 
1 1:0.089572612 2:0.58109543 3:0.53568659 4:0.41063147 5:0.81288361 6:0.16469476 
1 1:0.1152701 2:0.43718124 3:0.265048 4:0.15340334 5:0.56568061 6:0.50852909 
1 1:0.86362698 2:0.28811423 3:0.25538864 4:0.32325857 5:0.46324109 6:0.75284068 
1 1:0.84197921 2:0.2673933 3:0.2790498 4:0.70967148 5:0.44559874 6:0.50197949 
1 1:0.67580236 2:0.38458418 3:0.91692138 4:0.4510794 5:0.71187255 6:0.69335905 
1 1:0.71434223 2:0.51471475 3:0.80611288 4:0.614663 5:0.52485213 6:0.3635476 
1 1:0.45883133 2:0.67340371 3:0.48311597 4:0.084309295 5:0.87708746 6:0.71441157 
1 1:0.34441513 2:0.1964623 3:0.2541037 4:0.76188021 5:0.25017907 6:0.34530427 
1 1:0.13815616 2:0.58045263 3:0.3110827 4:0.68264617 5:0.61873207 6:0.83545368 
1 1:0.35697118 2:0.1886877 3:0.81656049 4:0.53075833 5:0.64282987 6:0.75903253 
1 1:0.756582 2:0.62812902 3:0.46177497 4:0.84317275 5:0.3171728 6:0.96873974 
1 1:0.64720676 2:0.1555114 3:0.57751627 4:0.089084035 5:0.80993413 6:0.98096685 
1 1:0.16427324 2:0.66600458 3:0.59888492 4:0.25234801 5:0.68356622 6:0.23458518 
1 1:0.25936725 2:0.59628888 3:0.65551968 4:0.52413421 5:0.7028427 6:0.42895913 
1 1:0.45384101 2:0.46210802 3:0.87541964 4:0.68033866 5:0.7367784 6:0.2985681 
1 1:0.19236614 2:0.22890729 3:0.34114077 4:0.25420665 5:0.52820472 6:0.37597217 
1 1:0.24044784 2:0.66052406 3:0.21504839 4:0.43152359 5:0.27381301 6:0.8565683 
1 1:0.23393205 2:0.47970955 3:0.14371026 4:0.86102372 5:0.37986058 6:0.24771698 
1 1:0.43636012 2:0.45418046 3:0.15641507 4:0.76761544 5:0.75225404 6:0.95106355 
1 1:0.44877829 2:0.65549085 3:0.87248666 4:0.37706482 5:0.4447558 6:0.41620269 
1 1:0.4623428 2:0.36529325 3:0.056499493 4:0.55916127 5:0.24608364 6:0.83893977 
1 1:0.72617233 2:0.42883095 3:0.2036545 4:0.41383704 5:0.54528055 6:0.18053138 
1 1:0.47653528 2:0.25065203 3:0.81307128 4:0.31849218 5:0.72214861 6:0.41818998 
1 1:0.57296884 2:0.84948406 3:0.6627816 4:0.58086696 5:0.6872688 6:0.36700819 
1 1:0.21953983 2:0.23008273 3:0.29508136 4:0.098416435 5:0.48155002 6:0.87873822 
1 1:0.38222969 2:0.23743719 3:0.8697799 4:0.57811172 5:0.3275575 6:0.72223692 
1 1:0.7530124 2:0.65228418 3:0.27522076 4:0.53648032 5:0.93305345 6:0.115237 
1 1:0.45126699 2:0.21014873 3:0.74720301 4:0.5166558 5:0.45132306 6:0.3409735 
0.1886012130012905 1:0.048706337 2:0.56672311 3:0.34706957 4:0.33579322 5:0.59322925 6:0.2095567 
1 1:0.35024093 2:0.40008879 3:0.83757248 4:0.17809926 5:0.71239118 6:0.74384193 
1 1:0.55479436 2:0.20902809 3:0.64068852 4:0.56890865 5:0.35125753 6:0.51077106 
1 1:0.76042588 2:0.58622706 3:0.31291983 4:0.20716594 5:0.29192238 6:0.1079654 
1 1:0.25706837 2:0.60917441 3:0.36390986 4:0.21557671 5:0.34000534 6:0.63061786 
1 1:0.54991591 2:0.13937595 3:0.39830631 4:0.27249642 5:0.67460002 6:0.099642212 
1 1:0.56946695 2:0.61729823 3:0.16813583 4:0.94727074 5:0.54274115 6:0.74564235 
1 1:0.58888684 2:0.13424285 3:0.39284541 4:0.55899779 5:0.52690079 6:0.11877897 
1 1:0.60663287 2:0.22930003 3:0.28211166 4:0.46465575 5:0.55203447 6:0.0030710301 
1 1:0.92378438 2:0.55709368 3:0.40843951 4:0.75794905 5:0.22398383 6:0.58608597 
1 1:0.87087061 2:0.65701125 3:0.46593567 4:0.15042292 5:0.43708274 6:0.090710834 
1 1:0.51021452 2:0.29921699 3:0.9076481 4:0.38265842 5:0.41684908 6:0.65278248 
1 1:0.66620614 2:0.69273384 3:0.37133386 4:0.77335065 5:0.74921546 6:0.60165998 
1 1:0.65990155 2:0.70407378 3:0.74072872 4:0.64123948 5:0.44652342 6:0.035607413 
1 1:0.55311573 2:0.218579 3:0.39024176 4:0.99262912 5:0.61106201 6:0.77802754 
1 1:0.76437321 2:0.16505554 3:0.62645843 4:0.26070235 5:0.39746452 6:0.40030851 
1 1:0.24663617 2:0.6440347 3:0.71741411 4:0.77709928 5:0.70153763 6:0.4601462 
1 1:0.71327686 2:0.1192149 3:0.4230723 4:0.74491944 5:0.38416075 6:0.68771094 
1 1:0.24827086 2:0.64821843 3:0.77233437 4:0.17048247 5:0.50122136 6:0.27115663 
1 1:0.50808716 2:0.17511527 3:0.35573694 4:0.78042403 5:0.76279002 6:0.52846215 
1 1:0.59510604 2:0.24676818 3:0.55216895 4:0.87978712 5:0.49352619 6:0.35856932 
1 1:0.81532736 2:0.40954154 3:0.79564106 4:0.80843257 5:0.35690908 6:0.69476543 
1 1:0.6513816 2:0.43207035 3:0.13372231 4:0.7484161 5:0.73723657 6:0.96757657 
1 1:0.39999912 2:0.7822373 3:0.59447805 4:0.3858206 5:0.2792078 6:0.20495596 
1 1:0.14373133 2:0.3013242 3:0.67702052 4:0.5649786 5:0.34424738 6:0.95065987 
1 1:0.32491052 2:0.70070093 3:0.69165095 4:0.21328491 5:0.41585561 6:0.55380553 
1 1:0.44836802 2:0.75766013 3:0.21330937 4:0.73323665 5:0.39882531 6:0.76665765 
1 1:0.58066248 2:0.14601625 3:0.45864416 4:0.28417155 5:0.27699012 6:0.31619879 
1 1:0.58674621 2:0.59015195 3:0.87575687 4:0.59491827 5:0.86338521 6:0.89042838 
1 1:0.14471529 2:0.25752921 3:0.34270077 4:0.59212873 5:0.26722315 6:0.74542646 
1 1:0.58686688 2:0.37082903 3:0.039293527 4:0.41935593 5:0.45181595 6:0.70067749 
1 1:0.25814087 2:0.29542205 3:0.88796697 4:0.56623896 5:0.46405652 6:0.22758172 
1 1:0.75910496 2:0.72645962 3:0.4790442 4:0.69555727 5:0.65172172 6:0.34091128 
1 1:0.43116628 2:0.79857657 3:0.24009137 4:0.59187954 5:0.73678312 6:0.30111675 
1 1:0.81241586 2:0.23100853 3:0.66360135 4:0.79054454 5:0.14012973 6:0.31587176 
1 1:0.6620374 2:0.43388289 3:0.83711512 4:0.5430813 5:0.51499117 6:0.37945933 
1 1:0.79871657 2:0.70813669 3:0.48360458 4:0.30056625 5:0.46044005 6:0.17535226 
1 1:0.57722128 2:0.76647903 3:0.59098075 4:0.62746963 5:0.7415941 6:0.78528641 
1 1:0.88938327 2:0.63055264 3:0.49856 4:0.0057519138 5:0.48686117 6:0.87521087 
1 1:0.59939993 2:0.71971499 3:0.65903652 4:0.27776271 5:0.63244623 6:0.42250943 
1 1:0.85302781 2:0.61736595 3:0.68220122 4:0.6504353 5:0.39840034 6:0.53263603 
1 1:0.48976923 2:0.47963286 3:0.88633971 4:0.50328931 5:0.74135742 6:0.71232673 
1 1:0.18216387 2:0.53861511 3:0.34601443 4:0.55360264 5:0.8460332 6:0.25450569 
1 1:0.78504168 2:0.51480485 3:0.16346746 4:0.5908895 5:0.81484897 6:0.75212891 
1 1:0.69313519 2:0.80602507 3:0.38235563 4:0.55392337 5:0.72506631 6:0.41037796 
1 1:0.66572423 2:0.80837436 3:0.32188874 4:0.68216287 5:0.55984977 6:0.61212414 
1 1:0.75442333 2:0.68607241 3:0.51833907 4:0.19795225 5:0.18796183 6:0.69677812 
1 1:0.75627873 2:0.44845877 3:0.8415112 4:0.91682598 5:0.43124325 6:0.016059058 
1 1:0.36105227 2:0.73025585 3:0.3447635 4:0.044122829 5:0.64559148 6:0.49999046 
1 1:0.94337578 2:0.47883333 3:0.60652661 4:0.69343577 5:0.2528648 6:0.60651978 
1 1:0.51565492 2:0.60224632 3:0.077959642 4:0.79776946 5:0.43131591 6:0.7587362 
1 1:0.27401575 2:0.19136406 3:0.4239353 4:0.67809763 5:0.91289137 6:0.49617869 
1 1:0.34741912 2:0.20283313 3:0.23134509 4:0.47426714 5:0.90748418 6:0.71616359 
1 1:0.25545861 2:0.21590982 3:0.81627069 4:0.33674036 5:0.44325178 6:0.521036 
1 1:0.82984899 2:0.31263877 3:0.69260739 4:0.56403487 5:0.593068 6:0.86516928 
1 1:0.3625068 2:0.10150266 3:0.59812905 4:0.057140219 5:0.37238126 6:0.74739188 
1 1:0.041797759 2:0.38559621 3:0.46784394 4:0.1510574 5:0.49876247 6:0.49913973 
1 1:0.60737291 2:0.17227964 3:0.71573245 4:0.44491729 5:0.74177003 6:0.80114222 
1 1:0.34115211 2:0.77796265 3:0.30399439 4:0.15404018 5:0.48226672 6:0.8422404 
1 1:0.33487363 2:0.55236089 3:0.93440125 4:0.82515486 5:0.37632311 6:0.66524674 
1 1:0.26698805 2:0.65126769 3:0.27213558 4:0.38065349 5:0.61142144 6:0.98045959 
1 1:0.69833252 2:0.6011296 3:0.74627352 4:0.74656684 5:0.66110444 6:0.75325267 
1 1:0.56936418 2:0.18666058 3:0.53218458 4:0.18099659 5:0.43798164 6:0.99714175 
1 1:0.55631334 2:0.76213541 3:0.68188949 4:0.28476188 5:0.25563858 6:0.15310277 
1 1:0.45926692 2:0.72607228 3:0.38177061 4:0.099588824 5:0.34377834 6:0.79944614 
1 1:0.1682585 2:0.34546457 3:0.35622515 4:0.26978289 5:0.142428 6:0.77591381 
1 1:0.4220019 2:0.52029417 3:0.067844915 4:0.24343042 5:0.28888371 6:0.93965831 
1 1:0.2528279 2:0.37831647 3:0.27619643 4:0.20944469 5:0.76187202 6:0.62059594 
0.6668964271288222 1:0.07562783 2:0.41607508 3:0.56241324 4:0.024430943 5:0.32931951 6:0.90299262 
1 1:0.51841706 2:0.21657222 3:0.18334179 4:0.3097683 5:0.51855548 6:0.015609408 
1 1:0.32388088 2:0.72854953 3:0.69861241 4:0.3261101 5:0.60450021 6:0.86865698 
1 1:0.45950081 2:0.29438369 3:0.12597152 4:0.62892506 5:0.33437853 6:0.030179579 
1 1:0.27757536 2:0.79485152 3:0.49618868 4:0.15027545 5:0.49235362 6:0.29159205 
1 1:0.32043722 2:0.80389563 3:0.5876153 4:0.56980894 5:0.39248911 6:0.94021775 
1 1:0.46269834 2:0.30505539 3:0.90999178 4:0.7488702 5:0.46796362 6:0.069689773 
1 1:0.74386667 2:0.26425324 3:0.16516151 4:0.2653755 5:0.27563032 6:0.57722467 
1 1:0.31347168 2:0.35879999 3:0.2484297 4:0.89322943 5:0.42561492 6:0.95047014 
1 1:0.4473296 2:0.64325216 3:0.8262003 4:0.52163927 5:0.73201136 6:0.11094487 
1 1:0.53154758 2:0.43259251 3:0.049163523 4:0.62791299 5:0.43461401 6:0.078580737 
1 1:0.64673821 2:0.53746339 3:0.1044633 4:0.56514849 5:0.41221731 6:0.65539445 
1 1:0.67247966 2:0.23777959 3:0.33075062 4:0.10925599 5:0.63077767 6:0.27726833 
0.8822732960565929 1:0.49300652 2:0.78237569 3:0.20020719 4:0.18452992 5:0.65856796 6:0.28755168 
0.5503131966982532 1:0.58633009 2:0.49000083 3:0.94572165 4:0.29338613 5:0.68038253 6:0.89187236 
1 1:0.38281196 2:0.84020113 3:0.63506945 4:0.6896145 5:0.40843424 6:0.14977306 
1 1:0.1650628 2:0.33373621 3:0.68334561 4:0.65541774 5:0.69340662 6:0.39390442 
1 1:0.77563651 2:0.28415495 3:0.54608047 4:0.96742152 5:0.33952998 6:0.36379831 
1 1:0.77757892 2:0.5092615 3:0.19853928 4:0.40975813 5:0.55159801 6:0.18841427 
1 1:0.10455883 2:0.61928539 3:0.54680086 4:0.1255828 5:0.71651733 6:0.57990795 
1 1:0.25062279 2:0.53030152 3:0.11633883 4:0.61185991 5:0.4275682 6:0.8653097 
1 1:0.28869744 2:0.17417654 3:0.57339571 4:0.078960076 5:0.13792365 6:0.83370229 
1 1:0.19409612 2:0.32281219 3:0.64760509 4:0.71520609 5:0.34843882 6:0.23962546 
1 1:0.74034202 2:0.57825125 3:0.23580341 4:0.78648688 5:0.26990478 6:0.060061359 
1 1:0.15825913 2:0.40595184 3:0.48137615 4:0.31061937 5:0.41301863 6:0.58986241 
1 1:0.35566344 2:0.26698418 3:0.59193363 4:0.81783146 5:0.50975686 6:0.37428621 
1 1:0.14752409 2:0.28269901 3:0.65575384 4:0.2895477 5:0.22028634 6:0.25310034 
1 1:0.70650902 2:0.60628881 3:0.40158026 4:0.26278382 5:0.48340981 6:0.23393114 
1 1:0.31697298 2:0.37513731 3:0.79840814 4:0.61529875 5:0.5456519 6:0.2770064 
1 1:0.6873391 2:0.16413583 3:0.28349522 4:0.36827705 5:0.22131423 6:0.81597868 
1 1:0.5810132 2:0.74904944 3:0.64638975 4:0.61402117 5:0.72885019 6:0.33880159 
1 1:0.49497618 2:0.70069442 3:0.28686482 4:0.89322935 5:0.29008633 6:0.31819633 
1 1:0.15438487 2:0.70951165 3:0.34354293 4:0.41136618 5:0.6286318 6:0.3944948 
1 1:0.13649059 2:0.3251638 3:0.28076119 4:0.69699838 5:0.15993881 6:0.1688356 
1 1:0.37881699 2:0.18057117 3:0.78618249 4:0.64435615 5:0.35258586 6:0.13725771 
1 1:0.8160397 2:0.72563475 3:0.51758548 4:0.53645482 5:0.54726345 6:0.38282649 
1 1:0.83979481 2:0.27278128 3:0.35034567 4:0.43269786 5:0.77036808 6:0.35877679 
1 1:0.66028522 2:0.18580961 3:0.45826426 4:0.33218405 5:0.2285936 6:0.9687262 
1 1:0.72596836 2:0.23431572 3:0.51818393 4:0.94146227 5:0.87870064 6:0.38051233 
1 1:0.80696566 2:0.39154673 3:0.72815111 4:0.024175697 5:0.15593096 6:0.59123927 
0.9826021439413908 1:0.11042754 2:0.61968279 3:0.76580137 4:0.51652683 5:0.60019869 6:0.39163203 
1 1:0.6495226 2:0.64321367 3:0.16067294 4:0.52355535 5:0.80632387 6:0.77768687 
1 1:0.29361957 2:0.44181916 3:0.080663748 4:0.14066062 5:0.27468952 6:0.51717597 
1 1:0.40255344 2:0.73173457 3:0.22536693 4:0.51364469 5:0.54407651 6:0.13696911 
1 1:0.13139803 2:0.44116439 3:0.46236728 4:0.9687014 5:0.88538949 6:0.65770873 
1 1:0.79151545 2:0.3978356 3:0.39377988 4:0.034623824 5:0.16819252 6:0.17644132 
1 1:0.29482722 2:0.42298235 3:0.22390125 4:0.99949925 5:0.59377782 6:0.95964366 
1 1:0.50832447 2:0.77980817 3:0.65686382 4:0.1437968 5:0.84463671 6:0.30537781 
1 1:0.16567905 2:0.45055737 3:0.6832062 4:0.90760732 5:0.40070059 6:0.1781441 
1 1:0.21280908 2:0.3572487 3:0.19626767 4:0.87107615 5:0.45193552 6:0.71425207 
1 1:0.23930622 2:0.66927559 3:0.50927567 4:0.40922459 5:0.14499371 6:0.64777175 
1 1:0.50912265 2:0.79897067 3:0.562488 4:0.0092049484 5:0.67442607 6:0.86802134 
1 1:0.78759171 2:0.17405381 3:0.33532136 4:0.44173043 5:0.77952346 6:0.54490347 
1 1:0.56316137 2:0.78589457 3:0.54970407 4:0.61976276 5:0.57427289 6:0.696597 
1 1:0.20092917 2:0.75622549 3:0.55337429 4:0.67079383 5:0.61112985 6:0.3914444 
1 1:0.21489967 2:0.13390959 3:0.54247706 4:0.24531294 5:0.42431214 6:0.74424274 
1 1:0.50522959 2:0.82466646 3:0.33237722 4:0.87198554 5:0.72316018 6:0.27846454 
1 1:0.30925506 2:0.74752906 3:0.43644458 4:0.91916066 5:0.79025947 6:0.75504531 
1 1:0.57208676 2:0.79191191 3:0.22019267 4:0.21570098 5:0.65952648 6:0.71765508 
1 1:0.47062935 2:0.60414022 3:0.86322606 4:0.96798344 5:0.42262507 6:0.1418981 
1 1:0.45438835 2:0.72717409 3:0.47409767 4:0.28621264 5:0.41227073 6:0.87378016 
1 1:0.61761934 2:0.7799042 3:0.60440975 4:0.46722639 5:0.83915226 6:0.55111174 
1 1:0.70300251 2:0.63637652 3:0.73094313 4:0.48567876 5:0.22430495 6:0.076742459 
1 1:0.85109458 2:0.36116721 3:0.41714532 4:0.051765025 5:0.2829443 6:0.32241715 
1 1:0.15630243 2:0.7109043 3:0.61729248 4:0.18858529 5:0.49470123 6:0.77512933 
1 1:0.6444677 2:0.11965289 3:0.57173637 4:0.98298365 5:0.36180332 6:0.39703451 
1 1:0.56519189 2:0.69797436 3:0.23538578 4:0.20666577 5:0.63290923 6:0.5596827 
1 1:0.6148095 2:0.14007547 3:0.35053093 4:0.0092241985 5:0.17922249 6:0.30576641 
1 1:0.92114223 2:0.53881291 3:0.37850801 4:0.93847017 5:0.46771961 6:0.65569247 
1 1:0.52210557 2:0.55617201 3:0.090892306 4:0.03977768 5:0.66715637 6:0.43257171 
1 1:0.74811793 2:0.61090712 3:0.53525074 4:0.10151337 5:0.43950288 6:0.57982529 
1 1:0.78241138 2:0.52534865 3:0.79221804 4:0.72893705 5:0.73991904 6:0.81944493 
1 1:0.4865517 2:0.20137202 3:0.16105798 4:0.61284915 5:0.38162972 6:0.55843627 
1 1:0.71229002 2:0.57780981 3:0.88565784 4:0.35861794 5:0.76331592 6:0.56216976 
1 1:0.4843311 2:0.16211986 3:0.78553564 4:0.27725459 5:0.50450353 6:0.99543378 
1 1:0.77958047 2:0.40636972 3:0.25506058 4:0.64091603 5:0.43816046 6:0.40208897 
1 1:0.71282853 2:0.65635704 3:0.51284217 4:0.11050086 5:0.73930401 6:0.74449765 
1 1:0.27256185 2:0.18689677 3:0.33028504 4:0.55023168 5:0.78729686 6:0.30599109 
1 1:0.49094623 2:0.21585003 3:0.79810982 4:0.14405953 5:0.20521226 6:0.011217502 
1 1:0.7815793 2:0.17940763 3:0.57547256 4:0.61432947 5:0.84259548 6:0.16118966 
1 1:0.50045534 2:0.5709899 3:0.90913729 4:0.88259461 5:0.47343465 6:0.18787124 
1 1:0.65893909 2:0.58179959 3:0.81073325 4:0.76523846 5:0.64313479 6:0.047677269 
1 1:0.67965703 2:0.28481426 3:0.4070166 4:0.9336941 5:0.80143483 6:0.96405921 
1 1:0.24274559 2:0.54958365 3:0.84145507 4:0.45513784 5:0.57970845 6:0.40888407 
1 1:0.43604577 2:0.091954941 3:0.57773011 4:0.68110474 5:0.32758254 6:0.91535758 
1 1:0.6076461 2:0.174755 3:0.78217515 4:0.57408708 5:0.43935143 6:0.94947396 
1 1:0.42890165 2:0.64207625 3:0.72390424 4:0.89311247 5:0.20237531 6:0.7768038 
1 1:0.49044924 2:0.12643853 3:0.37183673 4:0.28460559 5:0.48161618 6:0.16822486 
1 1:0.61008114 2:0.6637 3:0.8587124 4:0.19444226 5:0.60107039 6:0.47881124 
1 1:0.71873241 2:0.58548651 3:0.85469264 4:0.72490886 5:0.64568251 6:0.30347066 
1 1:0.3649685 2:0.15140562 3:0.5946302 4:0.24689488 5:0.30790459 6:0.98384091 
1 1:0.076114029 2:0.36497905 3:0.43066704 4:0.18942152 5:0.5145079 6:0.31862223 
1 1:0.63123676 2:0.60808633 3:0.12529534 4:0.57204499 5:0.61318915 6:0.81862043 
1 1:0.23040115 2:0.39335163 3:0.28044216 4:0.58683097 5:0.54625229 6:0.040174854 
1 1:0.40174627 2:0.72427503 3:0.81179917 4:0.43514393 5:0.18799584 6:0.81172072 
1 1:0.60543768 2:0.31905789 3:0.82438448 4:0.55302383 5:0.31396487 6:0.63988042 
1 1:0.28274259 2:0.76525454 3:0.47023976 4:0.059063107 5:0.35393971 6:0.65302802 
1 1:0.3725683 2:0.12368188 3:0.45938458 4:0.88790237 5:0.57178594 6:0.9049498 
1 1:0.67568556 2:0.15456028 3:0.33913602 4:0.6471023 5:0.38575076 6:0.64143307 
1 1:0.83792746 2:0.68809848 3:0.34389067 4:0.35400796 5:0.37136139 6:0.4898433 
1 1:0.44638752 2:0.41429107 3:0.10483202 4:0.58543737 5:0.9796898 6:0.84290598 
1 1:0.4182846 2:0.19237927 3:0.71829413 4:0.73811657 5:0.71059661 6:0.93839173 
0.1444129680992972 1:0.096078963 2:0.44599395 3:0.20768548 4:0.1998741 5:0.52543674 6:0.59055234 
1 1:0.86160503 2:0.59492583 3:0.61966692 4:0.64711879 5:0.45344778 6:0.59011033 
1 1:0.89403297 2:0.5648255 3:0.6685897 4:0.58860139 5:0.69715533 6:0.40405238 
1 1:0.76931759 2:0.27572674 3:0.29326432 4:0.76966065 5:0.32069775 6:0.71436986 
1 1:0.52616419 2:0.76350637 3:0.26039904 4:0.93118051 5:0.55626796 6:0.65499898 
1 1:0.69953833 2:0.38008622 3:0.83636168 4:0.46602856 5:0.41019674 6:0.63799208 
1 1:0.33935346 2:0.67952666 3:0.26467076 4:0.44090013 5:0.62052443 6:0.6229557 
1 1:0.20939943 2:0.41177763 3:0.13379133 4:0.39170631 5:0.7750986 6:0.73286336 
1 1:0.8419627 2:0.21830008 3:0.41387006 4:0.082269889 5:0.38543847 6:0.21700171 
1 1:0.72713854 2:0.28244765 3:0.47575989 4:0.57025626 5:0.78325159 6:0.92355036 
1 1:0.42246558 2:0.63608709 3:0.87211909 4:0.5160537 5:0.49146861 6:0.88815145 
1 1:0.52357931 2:0.80311206 3:0.3602691 4:0.67896172 5:0.37330703 6:0.33237836 
1 1:0.45715189 2:0.1981777 3:0.75086187 4:0.75361204 5:0.53279113 6:0.97149746 
1 1:0.15914783 2:0.34204509 3:0.41559239 4:0.96445965 5:0.37734464 6:0.18760327 
1 1:0.73974648 2:0.61563439 3:0.67101365 4:0.86603614 5:0.67355403 6:0.15687149 
1 1:0.81919306 2:0.69951312 3:0.41797424 4:0.88815252 5:0.68930293 6:0.26456266 
1 1:0.42789896 2:0.13715475 3:0.39360919 4:0.53397066 5:0.58452662 6:0.89274207 
1 1:0.53996539 2:0.2990368 3:0.90142235 4:0.70487378 5:0.26514681 6:0.067689463 
1 1:0.41448324 2:0.39275045 3:0.9505101 4:0.81850925 5:0.41119011 6:0.087112104 
1 1:0.79558596 2:0.18227322 3:0.36119578 4:0.39674848 5:0.7619198 6:0.82483689 
1 1:0.29218572 2:0.21131425 3:0.21925188 4:0.6747838 5:0.60366185 6:0.3737876 
1 1:0.54752677 2:0.42580451 3:0.054476574 4:0.65301444 5:0.5843771 6:0.42859135 
1 1:0.70458386 2:0.74249998 3:0.62912776 4:0.61903906 5:0.72337694 6:0.2455146 
1 1:0.5527947 2:0.69246025 3:0.47488016 4:0.91193504 5:0.74638685 6:0.73879364 
1 1:0.4948842 2:0.70176482 3:0.30700683 4:0.61488121 5:0.2103955 6:0.2534437 
1 1:0.14715692 2:0.24205908 3:0.6584753 4:0.38423109 5:0.67281687 6:0.27995161 
1 1:0.36855239 2:0.82957012 3:0.528803 4:0.17485023 5:0.31101211 6:0.33714399 
1 1:0.64488671 2:0.30806445 3:0.89117225 4:0.80372709 5:0.22477008 6:0.27792269 
1 1:0.055143756 2:0.30908071 3:0.59132053 4:0.72771834 5:0.35397689 6:0.43370601 
1 1:0.22298506 2:0.41027063 3:0.9239571 4:0.41287282 5:0.40503509 6:0.59149346 
1 1:0.43094189 2:0.28123317 3:0.88345597 4:0.17377168 5:0.81416166 6:0.42533418 
1 1:0.10336322 2:0.5859971 3:0.41370352 4:0.28044795 5:0.6695024 6:0.6148699 
1 1:0.94641917 2:0.34814856 3:0.55632382 4:0.56480463 5:0.27275558 6:0.20583641 
1 1:0.819774 2:0.23701007 3:0.36426874 4:0.7258943 5:0.58287433 6:0.75457722 
1 1:0.84431028 2:0.29895694 3:0.68943922 4:0.35889782 5:0.26931458 6:0.056043512 
1 1:0.12965475 2:0.47627951 3:0.73859147 4:0.28447358 5:0.61347886 6:0.31660319 
1 1:0.62896387 2:0.33316769 3:0.099042911 4:0.95991979 5:0.56908431 6:0.3899691 
1 1:0.8166469 2:0.29035251 3:0.27169309 4:0.34631853 5:0.72412722 6:0.67615068 
1 1:0.62083847 2:0.62535623 3:0.80408965 4:0.46996869 5:0.36343633 6:0.11229446 
1 1:0.43260351 2:0.74015439 3:0.87686577 4:0.49275323 5:0.37209586 6:0.44215748 
1 1:0.58987875 2:0.20706938 3:0.80141243 4:0.46995795 5:0.34096633 6:0.9193075 
1 1:0.34005984 2:0.78828143 3:0.44812955 4:0.67053305 5:0.76606473 6:0.329586 
1 1:0.95513283 2:0.54000251 3:0.44205611 4:0.13725908 5:0.69093648 6:0.39381458 
1 1:0.28093624 2:0.66403405 3:0.60564217 4:0.81710155 5:0.50586217 6:0.37471734 
1 1:0.33816812 2:0.63374141 3:0.11570506 4:0.88040349 5:0.29624299 6:0.67117822 
1 1:0.45479888 2:0.4344881 3:0.08368866 4:0.096607106 5:0.44524282 6:0.49863809 
1 1:0.22008298 2:0.19621228 3:0.73877013 4:0.56962263 5:0.71038297 6:0.61819647 
1 1:0.59941118 2:0.71899953 3:0.42025103 4:0.73637321 5:0.22283584 6:0.052111242 
1 1:0.93427055 2:0.43631858 3:0.51523526 4:0.4012262 5:0.29587962 6:0.002393792 
1 1:0.47225508 2:0.46227619 3:0.085655892 4:0.64108002 5:0.56205883 6:0.82826903 
1 1:0.10304544 2:0.5984816 3:0.61370302 4:0.87427282 5:0.54170064 6:0.50874981 
1 1:0.46553407 2:0.76531198 3:0.69783438 4:0.4816963 5:0.61746771 6:0.93486868 
1 1:0.56169334 2:0.62072789 3:0.84775934 4:0.667694 5:0.6598135 6:0.2563781 
1 1:0.37206214 2:0.22220025 3:0.23627136 4:0.050689993 5:0.44592714 6:0.77440061 
1 1:0.74467987 2:0.60326184 3:0.25185922 4:0.58670643 5:0.77619005 6:0.51865414 
1 1:0.68769397 2:0.16455321 3:0.59449458 4:0.85163884 5:0.59467935 6:0.19670717 
1 1:0.30666509 2:0.16416097 3:0.4500527 4:0.82359343 5:0.64690559 6:0.83528123 
1 1:0.56622629 2:0.23275534 3:0.40193482 4:0.48489107 5:0.55409361 6:0.80835718 
1 1:0.17454083 2:0.56302149 3:0.71500375 4:0.72173114 5:0.62375357 6:0.2993772 
1 1:0.92893562 2:0.53886132 3:0.4179974 4:0.79890728 5:0.48924804 6:0.80173151 
1 1:0.7492511 2:0.18510406 3:0.40645513 4:0.03648391 5:0.18936847 6:0.32933028 
1 1:0.40153965 2:0.14181888 3:0.46278377 4:0.1532159 5:0.641004 6:0.66683559 
1 1:0.46119276 2:0.74914587 3:0.47511822 4:0.20901122 5:0.89226742 6:0.0037782973 
1 1:0.70877293 2:0.13904099 3:0.43902164 4:0.61395652 5:0.48028225 6:0.017051936 
1 1:0.48046898 2:0.76010246 3:0.72676241 4:0.47318219 5:0.16143086 6:0.0086408313 
1 1:0.29273542 2:0.6412497 3:0.71762899 4:0.4618968 5:0.11474519 6:0.35630387 
1 1:0.57289073 2:0.18601306 3:0.26982075 4:0.91200095 5:0.28319321 6:0.58368563 
1 1:0.77215163 2:0.25787605 3:0.35069263 4:0.20103606 5:0.54214353 6:0.31271277 
1 1:0.72677283 2:0.20611194 3:0.4647278 4:0.37165182 5:0.42537039 6:0.91560726 
1 1:0.58700118 2:0.18328014 3:0.4030153 4:0.54748745 5:0.4102892 6:0.57547424 
1 1:0.75575981 2:0.62379081 3:0.79151105 4:0 5:0.52733478 6:0.41244014 
1 1:0.51380049 2:0.16992016 3:0.32787374 4:0.71673312 5:0.23515811 6:0.78338817 
1 1:0.35236113 2:0.17682947 3:0.5179281 4:0.16819262 5:0.50806753 6:0.15882815 
1 1:0.20454658 2:0.17517963 3:0.61305373 4:0.73541549 5:0.16226517 6:0.44359734 
1 1:0.3576871 2:0.2604705 3:0.15617127 4:0.14888987 5:0.79924455 6:0.5602033 
1 1:0.17714943 2:0.73374299 3:0.60003964 4:0.62648755 5:0.56480353 6:0.66312014 
1 1:0.85926927 2:0.63654165 3:0.5243655 4:0.15458967 5:0.28881136 6:0.48002854 
1 1:0.54419299 2:0.17438591 3:0.24027854 4:0.59325358 5:0.53297423 6:0.98130301 
1 1:0.31106331 2:0.21492923 3:0.5879531 4:0.19279502 5:0.22714953 6:0.12190203 
1 1:0.65029425 2:0.3831131 3:0.87427208 4:0.60695557 5:0.47060297 6:0.80916414 
1 1:0.61317889 2:0.62600561 3:0.90921039 4:0.13608419 5:0.46701843 6:0.35300084 
1 1:0.15542697 2:0.62782762 3:0.29749423 4:0.93665445 5:0.56958675 6:0.2955484 
0.06555177591144709 1:0.095667272 2:0.49693974 3:0.30348378 4:0.65260169 5:0.10703999 6:0.83260323 
1 1:0.51742482 2:0.1533673 3:0.52932326 4:0.49837625 5:0.60496756 6:0.29402943 
1 1:0.80080049 2:0.46161492 3:0.15117496 4:0.68110424 5:0.50286612 6:0.14678953 
1 1:0.72762268 2:0.71213435 3:0.59894083 4:0.090242729 5:0.51654177 6:0.54396594 
1 1:0.5006283 2:0.19621321 3:0.27149094 4:0.087970547 5:0.56821645 6:0.71493072 
1 1:0.090435362 2:0.37874045 3:0.34617683 4:0.68029306 5:0.44024628 6:0.17091293 
1 1:0.47706296 2:0.095147829 3:0.493143 4:0.20640327 5:0.28168263 6:0.70536145 
1 1:0.4622079 2:0.34583938 3:0.88158329 4:0.99242947 5:0.50170359 6:0.88430149 
1 1:0.70147713 2:0.65071719 3:0.42853078 4:0.94292083 5:0.43185064 6:0.62497782 
1 1:0.79155977 2:0.23090616 3:0.3432516 4:0.16519914 5:0.49173772 6:0.2522821 
1 1:0.7220631 2:0.66959155 3:0.31366561 4:0.81676856 5:0.13747854 6:0.81193202 
1 1:0.55844035 2:0.67577335 3:0.87875514 4:0.21406904 5:0.44114392 6:0.20382737 
1 1:0.33853172 2:0.70406272 3:0.70251997 4:0.00625356 5:0.47536138 6:0.669083 
1 1:0.13112755 2:0.27833229 3:0.50195053 4:0.4084704 5:0.72842863 6:0.2669315 
0.6014160997838273 1:0.47540412 2:0.82117148 3:0.65069289 4:0.23319768 5:0.38751109 6:0.011786181 
1 1:0.53294396 2:0.63401055 3:0.85172554 4:0.44236908 5:0.62100375 6:0.85381337 
1 1:0.53635466 2:0.76202702 3:0.62428914 4:0.76463082 5:0.18269911 6:0.64055183 
1 1:0.6797134 2:0.33932271 3:0.80147452 4:0.71566177 5:0.78378457 6:0.78744721 
1 1:0.65071587 2:0.23650601 3:0.8077015 4:0.33963851 5:0.77812303 6:0.78346426 
1 1:0.67354425 2:0.78263469 3:0.33070454 4:0.44129388 5:0.48978128 6:0.91752204 
1 1:0.22815174 2:0.65802414 3:0.39977387 4:0.142752 5:0.66302754 6:0.8270169 
1 1:0.94910932 2:0.4084923 3:0.35942727 4:0.22650745 5:0.74209363 6:0.58418502 
1 1:0.76884289 2:0.33316569 3:0.63941637 4:0.74957826 5:0.913664 6:0.045195754 
1 1:0.38893593 2:0.24704182 3:0.82531688 4:0.4852428 5:0.84473762 6:0.041106316 
1 1:0.2219911 2:0.58458158 3:0.65389698 4:0.67607505 5:0.32606062 6:0.43583385 
1 1:0.16916648 2:0.44463376 3:0.66972801 4:0.60305836 5:0.35699519 6:0.28276473 
1 1:0.52882563 2:0.60932169 3:0.053166077 4:0.51539823 5:0.66275206 6:0.36042054 
1 1:0.48697001 2:0.54563412 3:0.86035931 4:0.0463649 5:0.53767632 6:0.42286816 
1 1:0.61043204 2:0.15321151 3:0.28703565 4:0.20778605 5:0.41317322 6:0.46888727 
1 1:0.46995391 2:0.8573705 3:0.31363898 4:0.50876928 5:0.42297476 6:0.52263075 
1 1:0.58962166 2:0.24550943 3:0.69132501 4:0.46686362 5:0.40719124 6:0.66156227 
1 1:0.73521223 2:0.66984508 3:0.71745883 4:0.99541299 5:0.63632672 6:0.7692347 
1 1:0.13783114 2:0.25099691 3:0.52898685 4:0.18162152 5:0.87428535 6:0.45676138 
1 1:0.73941509 2:0.57362877 3:0.50450259 4:0.76953368 5:0.80740766 6:0.85105898 
1 1:0.50576767 2:0.28033643 3:0.75356192 4:0.52968768 5:0.36096467 6:0.86902073 
1 1:0.68722856 2:0.12485108 3:0.62153144 4:0.48851852 5:0.37915379 6:0.18473069 
1 1:0.77684332 2:0.57675339 3:0.35115845 4:0.83151365 5:0.33998524 6:0.30710181 
1 1:0.17258479 2:0.71099254 3:0.53171939 4:0.18050611 5:0.3126417 6:0.48860108 
1 1:0.69661328 2:0.38989068 3:0.83257014 4:0.58724609 5:0.60045929 6:0.35721893 
1 1:0.34615413 2:0.81503978 3:0.40105816 4:0.22141368 5:0.22641656 6:0.2082452 
1 1:0.5110088 2:0.37592607 3:0.079072691 4:0.86399443 5:0.54274684 6:0.30393232 
1 1:0.7632373 2:0.56963574 3:0.17528454 4:0.41137938 5:0.26678137 6:0.49090494 
1 1:0.81158478 2:0.28918314 3:0.55742316 4:0.67039125 5:0.38476969 6:0.84065489 
1 1:0.44535359 2:0.12013194 3:0.69650351 4:0.18853693 5:0.43011627 6:0.92178754 
1 1:0.53944659 2:0.4466403 3:0.15640925 4:0.78168594 5:0.82948438 6:0.85401034 
1 1:0.4371595 2:0.3642996 3:0.14283716 4:0.19863166 5:0.61015964 6:0.15409128 
1 1:0.80059473 2:0.76644921 3:0.5030111 4:0.62763138 5:0.64925337 6:0.21444363 
1 1:0.84166835 2:0.38991057 3:0.31876465 4:0.14507553 5:0.23423838 6:0.072615007 
1 1:0.78838924 2:0.38472132 3:0.74480159 4:0.69142177 5:0.19732327 6:0.60518532 
1 1:0.14635954 2:0.68035614 3:0.41492558 4:0.052303553 5:0.31400406 6:0.31453232 
1 1:0.51955535 2:0.76884019 3:0.79239535 4:0.55480759 5:0.53890313 6:0.72120633 
1 1:0.37443021 2:0.41114578 3:0.12964298 4:0.39796362 5:0.8597945 6:0.82218926 
1 1:0.11684266 2:0.40459306 3:0.58529523 4:0.87621611 5:0.65701258 6:0.41526726 
1 1:0.88474373 2:0.54219435 3:0.34090841 4:0.63474817 5:0.7557234 6:0.35778399 
1 1:0.39528759 2:0.67720776 3:0.81349037 4:0.76628818 5:0.82424378 6:0.69198798 
1 1:0.79052841 2:0.66654669 3:0.33988924 4:0.90732586 5:0.71150726 6:0.29036649 
1 1:0.36230599 2:0.50090335 3:0.94894932 4:0.4672268 5:0.59542208 6:0.30972809 
1 1:0.48210448 2:0.57353011 3:0.17527068 4:0.093096513 5:0.23760545 6:0.88384235 
1 1:0.25399659 2:0.29549397 3:0.79577918 4:0.80181405 5:0.57988214 6:0.16454875 
1 1:0.15044719 2:0.25996299 3:0.52947506 4:0.71062105 5:0.25411918 6:0.01003577 
1 1:0.5055388 2:0.25147526 3:0.61128783 4:0.020256403 5:0.50838787 6:0.47540531 
1 1:0.59695138 2:0.76450338 3:0.55662903 4:0.83426066 5:0.35185633 6:0.98197083 
1 1:0.57671081 2:0.20431227 3:0.290639 4:0.27188121 5:0.41799507 6:0.17697993 
1 1:0.45354836 2:0.25486778 3:0.20935623 4:0.099139255 5:0.73530313 6:0.47980009 
1 1:0.31393423 2:0.50596406 3:0.89582004 4:0.31606543 5:0.72729723 6:0.85254303 
1 1:0.60222913 2:0.79078477 3:0.52848658 4:0.44089996 5:0.50999376 6:0.25101529 
1 1:0.55476428 2:0.65795535 3:0.1446766 4:0.61640239 5:0.2014838 6:0.95660595 
1 1:0.77298589 2:0.66778198 3:0.67802938 4:0.4293711 5:0.91925572 6:0.53664492 
1 1:0.31661896 2:0.24219738 3:0.62658662 4:0.10762137 5:0.20715979 6:0.9483566 
1 1:0.36180018 2:0.67142522 3:0.1746717 4:0.93185625 5:0.40650384 6:0.56611655 
1 1:0.77361545 2:0.30217463 3:0.19468152 4:0.46245391 5:0.72056834 6:0.91131281 
1 1:0.74814998 2:0.68664958 3:0.66411821 4:0.35669047 5:0.97288816 6:0.20919088 
1 1:0.3565349 2:0.53045647 3:0.2437008 4:0.27708727 5:0.34789996 6:0.7791321 
0.5293302732702844 1:0.93663457 2:0.51705869 3:0.43417227 4:0.32257817 5:0.18364986 6:0.18173235 
1 1:0.74415524 2:0.42955173 3:0.16188959 4:0.79923626 5:0.64637833 6:0.14093862 
1 1:0.77553537 2:0.31481607 3:0.36412051 4:0.64092999 5:0.69748006 6:0.65844784 
1 1:0.80498376 2:0.59242708 3:0.78769135 4:0.16927745 5:0.2024093 6:0.59450904 
1 1:0.2582312 2:0.81179422 3:0.31179894 4:0.36117269 5:0.42934025 6:0.51639191 
1 1:0.76888998 2:0.6671105 3:0.76984523 4:0.92063359 5:0.42873272 6:0.46966661 
1 1:0.11764779 2:0.51637087 3:0.72248299 4:0.72962968 5:0.17266355 6:0.74608105 
1 1:0.18626344 2:0.25059581 3:0.5649645 4:0.21043499 5:0.52680266 6:0.5847432 
1 1:0.18756321 2:0.46976921 3:0.2239515 4:0.73845642 5:0.25975293 6:0.35539349 
1 1:0.55948174 2:0.81512919 3:0.70973802 4:0.076412152 5:0.52937522 6:0.5041611 
1 1:0.11616646 2:0.41415478 3:0.77042888 4:0.14046125 5:0.4288542 6:0.78675075 
1 1:0.092150662 2:0.36946134 3:0.31922196 4:0.92237682 5:0.5650788 6:0.22570187 
1 1:0.44933015 2:0.581187 3:0.7967805 4:0.4630845 5:0.68491132 6:0.18802257 
1 1:0.23067182 2:0.44342856 3:0.79465252 4:0.58166997 5:0.68392858 6:0.49616257 
1 1:0.19873131 2:0.31830562 3:0.68152148 4:0.079948594 5:0.35268263 6:0.28841017 
1 1:0.20360507 2:0.30020688 3:0.16710061 4:0.48175707 5:0.58214202 6:0.29370125 
1 1:0.46980652 2:0.13664559 3:0.66689041 4:0.18460577 5:0.89307519 6:0.66464776 
1 1:0.39698333 2:0.71978339 3:0.34086279 4:0.79436197 5:0.53654153 6:0.56859033 
1 1:0.42385872 2:0.79396857 3:0.58687762 4:0.65011387 5:0.50513257 6:0.83195101 
1 1:0.57712252 2:0.37581367 3:0.19233388 4:0.19582368 5:0.74484239 6:0.26290448 
1 1:0.34610164 2:0.4961669 3:0.1068919 4:0.14182894 5:0.64638066 6:0.077342957 
1 1:0.24578741 2:0.75883468 3:0.56688769 4:0.24206971 5:0.49111969 6:0.92742119 
1 1:0.37952918 2:0.16956315 3:0.28648495 4:0.14367365 5:0.60799776 6:0.64564281 
1 1:0.27725849 2:0.34096776 3:0.28181739 4:0.49751036 5:0.39802218 6:0.93386954 
1 1:0.8609261 2:0.29551855 3:0.40264311 4:0.43484962 5:0.4868356 6:0.5399436 
1 1:0.5187811 2:0.75746782 3:0.71657214 4:0.15759671 5:0.58223785 6:0.23097634 
1 1:0.171182 2:0.49685124 3:0.22349393 4:0.30839163 5:0.78742373 6:0.37231454 
1 1:0.49622813 2:0.091574235 3:0.39801612 4:0.050147703 5:0.45611832 6:0.24839999 
0.9403516295647021 1:0.86104005 2:0.7231408 3:0.52450639 4:0.82957293 5:0.57070012 6:0.57472709 
1 1:0.75791076 2:0.27481715 3:0.27953864 4:0.65730878 5:0.64466471 6:0.048119769 
1 1:0.34439449 2:0.69259863 3:0.1980497 4:0.27122796 5:0.41810546 6:0.79018052 
1 1:0.61692996 2:0.18962556 3:0.54432439 4:0.072058666 5:0.6447443 6:0.23689978 
1 1:0.8728598 2:0.33182428 3:0.65112067 4:0.38882667 5:0.22852601 6:0.85548881 
1 1:0.41753639 2:0.47789305 3:0.90284741 4:0.42932704 5:0.82553679 6:0.49654848 
1 1:0.54234734 2:0.10490909 3:0.46267483 4:0.62548792 5:0.78084229 6:0.25090021 
1 1:0.51232606 2:0.61931296 3:0.24571899 4:0.70352851 5:0.50462635 6:0.93630852 
1 1:0.55337325 2:0.76725164 3:0.29557574 4:0.68689925 5:0.42360929 6:0.88602784 
1 1:0.45935305 2:0.81447789 3:0.71975222 4:0.41047588 5:0.46665819 6:0.099356528 
1 1:0.92480658 2:0.63023626 3:0.45846404 4:0.57675087 5:0.56554548 6:0.83106295 
1 1:0.13017769 2:0.59428132 3:0.33516232 4:0.49392986 5:0.29498948 6:0.60504222 
1 1:0.76588831 2:0.21944171 3:0.67070007 4:0.16146123 5:0.2040425 6:0.074754313 
1 1:0.20884968 2:0.30220155 3:0.72677489 4:0.89826242 5:0.18184791 6:0.049204056 
1 1:0.8626434 2:0.57878145 3:0.32545031 4:0.37615114 5:0.56864587 6:0.049363206 
1 1:0.16353066 2:0.18369593 3:0.53155665 4:0.58723863 5:0.72796937 6:0.32941161 
1 1:0.78789467 2:0.28639442 3:0.56805992 4:0.19827564 5:0.27042253 6:0.41318164 
1 1:0.75957939 2:0.20416463 3:0.45171899 4:0.52093819 5:0.22206659 6:0.75829705 
1 1:0.22618911 2:0.42750549 3:0.20123832 4:0.7559606 5:0.676089 6:0.025402997 
1 1:0.30682402 2:0.78988827 3:0.54262267 4:0.66744178 5:0.63992933 6:0.64844855 
1 1:0.65940621 2:0.63980514 3:0.79477847 4:0.3432408 5:0.70989445 6:0.43577111 
1 1:0.30027021 2:0.25941674 3:0.5133085 4:0.99228359 5:0.49392308 6:0.075494215 
1 1:0.28218927 2:0.7669097 3:0.51957109 4:0.68086915 5:0.24823351 6:0.78821842 
1 1:0.18190275 2:0.27104667 3:0.36686992 4:0.058448618 5:0.28550876 6:0.16199125 
1 1:0.33763757 2:0.2312529 3:0.31747137 4:0.25592499 5:0.42557182 6:0.066244854 
1 1:0.75916345 2:0.5491057 3:0.72602252 4:0.4753261 5:0.90233869 6:0.65897726 
1 1:0.23641395 2:0.13874438 3:0.38425026 4:0.095867133 5:0.44621017 6:0.21976826 
1 1:0.86546834 2:0.65609397 3:0.39250308 4:0.39624106 5:0.37555723 6:0.1621094 
1 1:0.41693691 2:0.065637823 3:0.51203053 4:0.63357106 5:0.3235902 6:0.33696042 
1 1:0.78295746 2:0.22267187 3:0.64956963 4:0.84100385 5:0.38135562 6:0.50752481 
1 1:0.6595071 2:0.68649005 3:0.72274533 4:0.63546468 5:0.43956399 6:0.12537925 
1 1:0.9384556 2:0.55043348 3:0.433692 4:0.4007385 5:0.7084339 6:0.33759651 
1 1:0.46238619 2:0.76664088 3:0.30665789 4:0.090749992 5:0.3112556 6:0.82716743 
1 1:0.78370105 2:0.66849827 3:0.71504805 4:0.66681633 5:0.31590726 6:0.94222337 
1 1:0.69332491 2:0.65540013 3:0.20179673 4:0.58055659 5:0.36747677 6:0.047801883 
1 1:0.51387184 2:0.6229191 3:0.86831484 4:0.24159701 5:0.24232238 6:0.04551788 
1 1:0.31485115 2:0.49192338 3:0.88295419 4:0.24815236 5:0.45212419 6:0.68063234 
1 1:0.43483516 2:0.74453376 3:0.83755576 4:0.59180804 5:0.66241969 6:0.77869561 
1 1:0.45551201 2:0.68524828 3:0.8958454 4:0.29435931 5:0.66886351 6:0.68934415 
1 1:0.77319532 2:0.66454678 3:0.40238377 4:0.15666681 5:0.38404285 6:0.34568721 
1 1:0.30760711 2:0.60948425 3:0.92708288 4:0.52277868 5:0.40006431 6:0.39672318 
1 1:0.26250155 2:0.17597088 3:0.34347544 4:0.15891497 5:0.31636209 6:0.55611804 
1 1:0.82538713 2:0.68850039 3:0.34930884 4:0.20076021 5:0.57355783 6:0.30392522 
1 1:0.62357359 2:0.19882928 3:0.579371 4:0.095030323 5:0.74885849 6:0.46191956 
1 1:0.74993631 2:0.31250916 3:0.82600069 4:0.50924296 5:0.39212997 6:0.31355552 
1 1:0.14323744 2:0.43491424 3:0.84668939 4:0.5235326 5:0.58099754 6:0.3289514 
1 1:0.25397116 2:0.19565475 3:0.67589165 4:0.70284127 5:0.46685298 6:0.92576385 
1 1:0.059867099 2:0.54772209 3:0.3939655 4:0.70857694 5:0.60909864 6:0.73557674 
1 1:0.80147506 2:0.30837366 3:0.22586129 4:0.13399397 5:0.44446024 6:0.53780948 
1 1:0.49591692 2:0.056374353 3:0.61113141 4:0.31403435 5:0.40521133 6:0.66065482 
1 1:0.37219933 2:0.22266255 3:0.33465719 4:0.29235328 5:0.59576505 6:0.51408674 
1 1:0.31809876 2:0.77205001 3:0.57761792 4:0.58079227 5:0.38493906 6:0.42497747 
1 1:0.27509098 2:0.79851173 3:0.38200134 4:0.35257676 5:0.38515275 6:0.85783012 
1 1:0.87020851 2:0.63865924 3:0.6384901 4:0.29925207 5:0.6248039 6:0.0446877 
1 1:0.77673795 2:0.55802874 3:0.19520238 4:0.22597003 5:0.6278092 6:0.33698092 
1 1:0.42815064 2:0.43722087 3:0.081827445 4:0.71393905 5:0.63486736 6:0.76575047 
1 1:0.56410261 2:0.1964098 3:0.74617919 4:0.78608539 5:0.50691467 6:0.7509978 
1 1:0.34652852 2:0.80974136 3:0.34092554 4:0.24461805 5:0.61811133 6:0.65934027 
1 1:0.35105175 2:0.74509184 3:0.40523022 4:0.61852273 5:0.71300246 6:0.25670553 
1 1:0.55426169 2:0.65853234 3:0.8100672 4:0.90977395 5:0.79737359 6:0.61128706 
1 1:0.85485448 2:0.49470769 3:0.59641728 4:0.71008256 5:0.85903223 6:0.81658768 
1 1:0.40928347 2:0.074325397 3:0.48408303 4:0.4099105 5:0.43579895 6:0.89889116 
1 1:0.84342231 2:0.25802784 3:0.5687138 4:0.15921426 5:0.61284089 6:0.092167044 
1 1:0.066938868 2:0.55172596 3:0.51672564 4:0.40737536 5:0.55669263 6:0.85953143 
1 1:0.44306372 2:0.1845918 3:0.22302877 4:0.38364762 5:0.31886567 6:0.19209773 
1 1:0.50421088 2:0.54230719 3:0.10412048 4:0.92788977 5:0.45463501 6:0.70583011 
1 1:0.3431372 2:0.2205237 3:0.78398043 4:0.91849724 5:0.44248803 6:0.24018388 
1 1:0.59572455 2:0.13774097 3:0.34850859 4:0.67642098 5:0.4400289 6:0.73817347 
1 1:0.87903401 2:0.30822738 3:0.57965658 4:0.16879314 5:0.41814936 6:0.069228388 
1 1:0.5362454 2:0.73620506 3:0.27709775 4:0.74595762 5:0.30636762 6:0.047064416 
1 1:0.62046756 2:0.31253481 3:0.096212705 4:0.55633924 5:0.64329989 6:0.45602592 
1 1:0.33099485 2:0.67346447 3:0.19147755 4:0.094060556 5:0.28252499 6:0.78348646 
1 1:0.55377612 2:0.7331051 3:0.37498421 4:0.81060885 5:0.80919738 6:0.10058182 
1 1:0.14574111 2:0.3752548 3:0.42640085 4:0.65299377 5:0.57262078 6:0.29196525 
1 1:0.55354272 2:0.78986497 3:0.59588159 4:0.29471349 5:0.33401241 6:0.35597409 
1 1:0.81583026 2:0.32121827 3:0.58758343 4:0.69731377 5:0.40662821 6:0.51221945 
1 1:0.16360608 2:0.42745655 3:0.29383311 4:0.62704514 5:0.47828878 6:0.32929782 
1 1:0.86311436 2:0.70309647 3:0.43123632 4:0.64508628 5:0.22122204 6:0.6337774 
1 1:0.25246027 2:0.29873145 3:0.76459136 4:0.93329161 5:0.3120462 6:0.47790531 
1 1:0.35682555 2:0.23616971 3:0.8286043 4:0.55350263 5:0.90739173 6:0.34933017 
1 1:0.68245935 2:0.7015857 3:0.35456396 4:0.16249686 5:0.44565473 6:0.061497187 
1 1:0.09895011 2:0.48935143 3:0.54626087 4:0.73175855 5:0.72055033 6:0.2078079 
1 1:0.24291554 2:0.25994612 3:0.23826297 4:0.88624984 5:0.76250312 6:0.6013153 
1 1:0.90456246 2:0.43654114 3:0.70263122 4:0.45490567 5:0.42410259 6:0.59667227 
1 1:0.56387825 2:0.49277327 3:0.83551932 4:0.086921285 5:0.49980483 6:0.66510867 
1 1:0.31946373 2:0.12919446 3:0.43333069 4:0.21373927 5:0.34755552 6:0.23174014 
1 1:0.47379891 2:0.76495921 3:0.76735928 4:0.67474156 5:0.42200207 6:0.72735638 
1 1:0.29331136 2:0.24574047 3:0.78770862 4:0.98778065 5:0.35144605 6:0.68947146 
1 1:0.18779479 2:0.43652537 3:0.22322029 4:0.39919244 5:0.098901617 6:0.76216927 
1 1:0.58003004 2:0.31501344 3:0.92488553 4:0.81263048 5:0.33306993 6:0.15718273 
1 1:0.80839584 2:0.23983001 3:0.70506864 4:0.80396554 5:0.31891128 6:0.55321237 
1 1:0.66718996 2:0.10920966 3:0.60149817 4:0.34131195 5:0.70440745 6:0.78325311 
1 1:0.55258111 2:0.46591691 3:0.94598896 4:0.62336802 5:0.74154992 6:0.46758851 
1 1:0.40970657 2:0.66010886 3:0.76558537 4:0.5690091 5:0.1650768 6:0.050556972 
1 1:0.70693335 2:0.80752874 3:0.54853238 4:0.08359858 5:0.66536186 6:0.30203753 
1 1:0.6015802 2:0.64131035 3:0.77408678 4:0.85310464 5:0.69108613 6:0.43654416 
1 1:0.74973618 2:0.24670366 3:0.1841834 4:0.38848949 5:0.25802577 6:0.73472486 
1 1:0.1432895 2:0.41315739 3:0.45422692 4:0.97223503 5:0.13996719 6:0.32265731 
1 1:0.72246175 2:0.38597344 3:0.75217913 4:0.41219097 5:0.69196513 6:0.29370762 
1 1:0.60221023 2:0.26360281 3:0.40709033 4:0.86294256 5:0.4475347 6:0.21416861 
1 1:0.81103138 2:0.67109652 3:0.58060771 4:0.013912485 5:0.21766983 6:0.86229253 
1 1:0.21361112 2:0.49791524 3:0.089308976 4:0.58053948 5:0.45244894 6:0.58930275 
1 1:0.27296193 2:0.18295092 3:0.45644469 4:0.021545382 5:0.65650563 6:0.91606683 
1 1:0.19268201 2:0.70613209 3:0.65018695 4:0.62880906 5:0.68239166 6:0.69625641 
1 1:0.27499177 2:0.48919114 3:0.15506342 4:0.12958013 5:0.44814645 6:0.76148673 
1 1:0.16659327 2:0.28535512 3:0.73068997 4:0.37089607 5:0.77008189 6:0.13341396 
0.811526348453478 1:0.65165611 2:0.52504371 3:0.89313854 4:0.96233946 5:0.66572771 6:0.78361586 
1 1:0.62077626 2:0.71846366 3:0.77400812 4:0.062768097 5:0.49901043 6:0.28542804 
1 1:0.21143126 2:0.16189383 3:0.38470204 4:0.15361471 5:0.25829592 6:0.36006898 
1 1:0.72745178 2:0.5878205 3:0.20225568 4:0.86309586 5:0.65626994 6:0.79891224 
1 1:0.81666139 2:0.3385431 3:0.22403445 4:0.37962624 5:0.45335993 6:0.91978563 
1 1:0.51201696 2:0.27385469 3:0.10373304 4:0.55889092 5:0.83449383 6:0.55721949 
1 1:0.33808859 2:0.72667187 3:0.73253615 4:0.20866997 5:0.40974728 6:0.94795525 
1 1:0.14029505 2:0.633641 3:0.28940508 4:0.39014027 5:0.7096041 6:0.85792993 
1 1:0.55192339 2:0.15228799 3:0.47975267 4:0.80645908 5:0.24680078 6:0.070845985 
1 1:0.19434421 2:0.74903139 3:0.45300597 4:0.68321159 5:0.32626272 6:0.86482839 
1 1:0.49983319 2:0.36596864 3:0.093243056 4:0.071208801 5:0.42734357 6:0.96378976 
1 1:0.56895041 2:0.59033126 3:0.08458666 4:0.76988159 5:0.53284942 6:0.85249652 
1 1:0.55352318 2:0.078672883 3:0.32933554 4:0.29294463 5:0.34116408 6:0.7864982 
1 1:0.69150248 2:0.57838293 3:0.18604613 4:0.63086039 5:0.41882919 6:0.14281652 
1 1:0.51208119 2:0.38340941 3:0.9436973 4:0.70782138 5:0.59741364 6:0.52226198 
1 1:0.38650778 2:0.25685073 3:0.19127322 4:0.6330285 5:0.41559948 6:0.78877115 
1 1:0.59330359 2:0.76047781 3:0.43625423 4:0.034887159 5:0.32383899 6:0.25618782 
1 1:0.89545856 2:0.45967795 3:0.64040589 4:0.019789851 5:0.45823429 6:0.55383158 
1 1:0.57078811 2:0.72599774 3:0.53137669 4:0.83503264 5:0.19748408 6:0.95310184 
1 1:0.27008124 2:0.6898211 3:0.41425423 4:0.07681864 5:0.73012254 6:0.78292841 
1 1:0.51826745 2:0.73309296 3:0.12050891 4:0.59116167 5:0.52273709 6:0.69337508 
1 1:0.60828439 2:0.52658225 3:0.83803454 4:0.35918605 5:0.74791338 6:0.43539244 
1 1:0.31283664 2:0.78324935 3:0.398091 4:0.57870095 5:0.75427941 6:0.5771063 
1 1:0.4431806 2:0.26498163 3:0.096285347 4:0.73210902 5:0.47443026 6:0.69296413 
1 1:0.59907716 2:0.69163339 3:0.19263334 4:0.2330965 5:0.43246217 6:0.29502665 
1 1:0.31264941 2:0.51780061 3:0.13602224 4:0.19996375 5:0.55662412 6:0.10841687 
1 1:0.27558668 2:0.14271174 3:0.4031457 4:0.35735343 5:0.66530139 6:0.24588782 
1 1:0.33708698 2:0.68006264 3:0.37346045 4:0.51994344 5:0.23059201 6:0.088652205 
1 1:0.69014026 2:0.3183221 3:0.24047857 4:0.37380557 5:0.23281128 6:0.49284044 
1 1:0.86171323 2:0.23390794 3:0.45150254 4:0.36340937 5:0.32392736 6:0.47410897 
1 1:0.15141972 2:0.69994049 3:0.4423934 4:0.31445259 5:0.60710396 6:0.71836879 
1 1:0.50482485 2:0.15476859 3:0.2665514 4:0.53228636 5:0.62967711 6:0.59245455 
1 1:0.2461712 2:0.23452922 3:0.16689541 4:0.46319433 5:0.53966022 6:0.32413546 
1 1:0.39053276 2:0.506974 3:0.89035925 4:0.7495147 5:0.31955753 6:0.23589007 
1 1:0.72633713 2:0.6403263 3:0.18037061 4:0.62324023 5:0.24291175 6:0.20503285 
1 1:0.28437275 2:0.28780005 3:0.2504443 4:0.076556711 5:0.20070693 6:0.91990248 
1 1:0.51530662 2:0.23366262 3:0.84989548 4:0.99922593 5:0.2556161 6:0.63370503 
1 1:0.7956069 2:0.25136885 3:0.60712867 4:0.72547424 5:0.095921664 6:0.411744 
1 1:0.49036238 2:0.69981765 3:0.53876371 4:0.37356418 5:0.93507046 6:0.59327211 
1 1:0.36873986 2:0.31330089 3:0.83055884 4:0.74406509 5:0.68646107 6:0.34188353 
1 1:0.8474372 2:0.54905695 3:0.4812454 4:0.15241369 5:0.29888947 6:0.53162159 
1 1:0.17585825 2:0.24860097 3:0.39542198 4:0.38157958 5:0.37675866 6:0.78192013 
1 1:0.50743352 2:0.21562422 3:0.29313562 4:0.39332969 5:0.18190899 6:0.6562965 
1 1:0.40582445 2:0.76823069 3:0.48657249 4:0.87241075 5:0.33964644 6:0.32459614 
1 1:0.68104381 2:0.22274914 3:0.77731013 4:0.16127858 5:0.53494595 6:0.081267753 
1 1:0.49528314 2:0.4029292 3:0.098491958 4:0.3257822 5:0.50129481 6:0.20969667 
1 1:0.91823366 2:0.51217968 3:0.66273908 4:0.37165065 5:0.53610712 6:0.22861203 
1 1:0.6274559 2:0.20407952 3:0.82847575 4:0.23630725 5:0.55592547 6:0.64055208 
1 1:0.23788193 2:0.52065283 3:0.88661262 4:0.81268256 5:0.29043381 6:0.55308834 
1 1:0.6351027 2:0.54901744 3:0.79134789 4:0.46038932 5:0.065139727 6:0.2019552 
1 1:0.26703058 2:0.68621949 3:0.22290089 4:0.74371988 5:0.13394658 6:0.2899363 
1 1:0.12857188 2:0.64898313 3:0.74034716 4:0.79882373 5:0.41009202 6:0.66126342 
1 1:0.688245 2:0.15616764 3:0.76623267 4:0.46262086 5:0.44252134 6:0.11748287 
1 1:0.79155448 2:0.19972522 3:0.48946163 4:0.76988087 5:0.79789801 6:0.81198222 
1 1:0.72273825 2:0.17681796 3:0.53734787 4:0.64182199 5:0.076533499 6:0.17292599 
1 1:0.49165022 2:0.7729945 3:0.28419932 4:0.20327928 5:0.86630206 6:0.5954826 
1 1:0.9288685 2:0.4207511 3:0.69067669 4:0.71776926 5:0.54695313 6:0.53116905 
1 1:0.14392344 2:0.40937038 3:0.27863221 4:0.6478981 5:0.66684964 6:0.027029827 
1 1:0.40548408 2:0.84528467 3:0.54140482 4:0.70489625 5:0.50545882 6:0.73732639 
1 1:0.099409258 2:0.46341019 3:0.54443069 4:0.21859393 5:0.75594998 6:0.61574491 
1 1:0.47644953 2:0.24427127 3:0.24187272 4:0.75421944 5:0.91726555 6:0.12857188 
1 1:0.72179959 2:0.67352284 3:0.33296939 4:0.99870902 5:0.12048076 6:0.7235177 
1 1:0.75314119 2:0.76955777 3:0.55627201 4:0.085371958 5:0.55506816 6:0.73642756 
1 1:0.57922613 2:0.79174524 3:0.60713914 4:0.65113043 5:0.64636932 6:0.88451263 
1 1:0.34212892 2:0.65048114 3:0.71254708 4:0.15255584 5:0.92836586 6:0.89150217 
0.7302643107970694 1:0.43637013 2:0.80299638 3:0.56634797 4:0.99748955 5:0.8381652 6:0.71694743 
1 1:0.69530405 2:0.78684769 3:0.36481247 4:0.35134585 5:0.25378395 6:0.59024965 
1 1:0.60812532 2:0.83125402 3:0.42752577 4:0.76012638 5:0.394387 6:0.19657087 
1 1:0.84108694 2:0.51019089 3:0.70992341 4:0.43539834 5:0.81761303 6:0.21611717 
1 1:0.91727475 2:0.53884731 3:0.74017492 4:0.62103603 5:0.3643382 6:0.45158783 
1 1:0.85769761 2:0.39808943 3:0.75752399 4:0.81121331 5:0.74516322 6:0.52963366 
1 1:0.55510398 2:0.76683754 3:0.54211399 4:0.97454716 5:0.62768306 6:0.47654699 
1 1:0.51235602 2:0.44285879 3:0.1489052 4:0.14293409 5:0.81201129 6:0.056406798 
1 1:0.62323703 2:0.34939801 3:0.86921358 4:0.9192179 5:0.36580401 6:0.04575151 
1 1:0.7553875 2:0.2049464 3:0.6347412 4:0.45855719 5:0.93002921 6:0.35846689 
1 1:0.12563541 2:0.65650826 3:0.37955318 4:0.78121476 5:0.68163958 6:0.60253173 
1 1:0.80593409 2:0.52515676 3:0.16437974 4:0.80863152 5:0.41108989 6:0.23975364 
1 1:0.43228311 2:0.28948306 3:0.094306773 4:0.17582331 5:0.70323445 6:0.84446906 
1 1:0.46439502 2:0.6655321 3:0.11925133 4:0.35720067 5:0.35726791 6:0.45223234 
1 1:0.59013589 2:0.25222408 3:0.26045368 4:0.68439983 5:0.024726695 6:0.61735173 
1 1:0.21983727 2:0.4506866 3:0.11079619 4:0.38895965 5:0.42465721 6:0.65859328 
1 1:0.15170023 2:0.46990293 3:0.18225545 4:0.68035681 5:0.69895587 6:0.56312324 
1 1:0.4817972 2:0.28972445 3:0.64717442 4:0.29449447 5:0.62790992 6:0.54437261 
1 1:0.86844375 2:0.68498784 3:0.48083742 4:0.59227126 5:0.26148329 6:0.70838625 
1 1:0.042982833 2:0.34626553 3:0.47189978 4:0.31572422 5:0.62579186 6:0.31209012 
1 1:0.27924278 2:0.15517175 3:0.45173057 4:0.90817837 5:0.39574098 6:0.23507452 
1 1:0.13392558 2:0.59256715 3:0.41793036 4:0.91288701 5:0.24628587 6:0.26074844 
1 1:0.57512464 2:0.23889534 3:0.80157374 4:0.10543461 5:0.67695217 6:0.85984348 
1 1:0.04722688 2:0.49032593 3:0.65803065 4:0.59487601 5:0.31452064 6:0.50974353 
0.8309550214608137 1:0.11528097 2:0.29088586 3:0.7596418 4:0.30205524 5:0.49131454 6:0.60451401 
1 1:0.66423225 2:0.58496409 3:0.14201857 4:0.17973993 5:0.51815423 6:0.22147642 
1 1:0.26134901 2:0.21118712 3:0.46761098 4:0.35563061 5:0.54725579 6:0.89634792 
1 1:0.60513724 2:0.80404534 3:0.38971884 4:0.2028875 5:0.44037394 6:0.35300643 
1 1:0.41652611 2:0.13965766 3:0.54184121 4:0.65073021 5:0.68835555 6:0.45487008 
1 1:0.43389055 2:0.15405819 3:0.60563405 4:0.54538092 5:0.52818593 6:0.1754798 
1 1:0.53309903 2:0.10666401 3:0.60954792 4:0.6682726 5:0.16832055 6:0.043626861 
1 1:0.17575177 2:0.53889919 3:0.24505933 4:0.39386959 5:0.62476017 6:0.10672231 
1 1:0.24386416 2:0.79322022 3:0.50577083 4:0.39051337 5:0.37219616 6:0.11847744 
1 1:0.4079753 2:0.74134 3:0.62000116 4:0.057299115 5:0.5707234 6:0.008040665 
1 1:0.29756575 2:0.70415391 3:0.23515686 4:0.15954211 5:0.593381 6:0.4412956 
1 1:0.94105963 2:0.55462992 3:0.5388798 4:0.35070565 5:0.32469801 6:0.85407751 
1 1:0.51437649 2:0.19180036 3:0.7096148 4:0.80272393 5:0.36300002 6:0.66160037 
1 1:0.85774543 2:0.51193574 3:0.33009788 4:0.97135472 5:0.61021274 6:0.6693879 
1 1:0.52970818 2:0.2346836 3:0.28511945 4:0.92917638 5:0.7568329 6:0.96594771 
1 1:0.4202717 2:0.062537037 3:0.40919567 4:0.25768623 5:0.44782291 6:0.32499293 
1 1:0.11160977 2:0.5506345 3:0.55131396 4:0.44827281 5:0.44645582 6:0.54132488 
1 1:0.22625194 2:0.67262231 3:0.23251264 4:0.20785992 5:0.84403208 6:0.6387594 
1 1:0.26165103 2:0.3721777 3:0.17518816 4:0.30073843 5:0.63906264 6:0.031499986 
1 1:0.42531077 2:0.1700432 3:0.79363362 4:0.4001891 5:0.82146854 6:0.68881547 
1 1:0.29113418 2:0.18090749 3:0.68176385 4:0.70779665 5:0.74160249 6:0.10728772 
1 1:0.76865813 2:0.59504513 3:0.3036527 4:0.91173529 5:0.70021857 6:0.65515716 
1 1:0.49394914 2:0.22001368 3:0.70954882 4:0.11978439 5:0.69167589 6:0.48074956 
1 1:0.80517232 2:0.61463563 3:0.31684504 4:0.089565551 5:0.59384965 6:0.86003785 
1 1:0.22967355 2:0.40558702 3:0.76058772 4:0.18012129 5:0.34262946 6:0.84908846 
1 1:0.72911359 2:0.6915084 3:0.25362841 4:0.22643916 5:0.77931312 6:0.54141959 
1 1:0.32493475 2:0.22742 3:0.75090678 4:0.23544551 5:0.4599859 6:0.46632015 
1 1:0.79236977 2:0.27882507 3:0.82815603 4:0.58967455 5:0.41918027 6:0.22914765 
1 1:0.52705855 2:0.32386058 3:0.16013007 4:0.060791595 5:0.71009171 6:0.03666426 
1 1:0.019999953 2:0.53999604 3:0.59725048 4:0.74486022 5:0.54371045 6:0.62494861 
1 1:0.20955948 2:0.23367446 3:0.49982207 4:0.96925177 5:0.6665064 6:0.32947752 
1 1:0.097187724 2:0.43432012 3:0.58750394 4:0.22926418 5:0.69257446 6:0.92984638 
1 1:0.36238566 2:0.12781811 3:0.57066643 4:0.67850415 5:0.22742822 6:0.056099186 
1 1:0.46184887 2:0.7887718 3:0.4455048 4:0.91639465 5:0.35431763 6:0.028742585 
1 1:0.405554 2:0.18725919 3:0.49467373 4:0.24267179 5:0.68983611 6:0.59166151 
1 1:0.52402343 2:0.1457634 3:0.52638537 4:0.7574163 5:0.63267003 6:0.66487399 
1 1:0.6474654 2:0.80065468 3:0.43379278 4:0.018200542 5:0.57531616 6:0.53665426 
1 1:0.77200657 2:0.73938928 3:0.36574506 4:0.7168473 5:0.54215113 6:0.64671913 
1 1:0.35926111 2:0.1831503 3:0.31450058 4:0.29350079 5:0.67193766 6:0.72543009 
1 1:0.70401683 2:0.17948306 3:0.65164589 4:0.49554886 5:0.49274971 6:0.28954478 
1 1:0.23820028 2:0.71399788 3:0.42114337 4:0.77463779 5:0.13451092 6:0.2505868 
1 1:0.48782472 2:0.78101018 3:0.68738375 4:0.97094762 5:0.27840913 6:0.33208294 
1 1:0.50570328 2:0.76208533 3:0.37262012 4:0.32053952 5:0.78960704 6:0.75484601 
1 1:0.33182166 2:0.59608222 3:0.09931781 4:0.50578572 5:0.49520513 6:0.61450681 
1 1:0.79034928 2:0.34502562 3:0.77951893 4:0.19905286 5:0.29988995 6:0.47112604 
1 1:0.61076253 2:0.81194064 3:0.56030634 4:0.60037634 5:0.55223369 6:0.11265915 
1 1:0.12023129 2:0.68963082 3:0.5111441 4:0.23532877 5:0.38931013 6:0.52696654 
1 1:0.45460923 2:0.15475518 3:0.52998682 4:0.13150201 5:0.63643253 6:0.66687425 
1 1:0.59917909 2:0.47783262 3:0.070644333 4:0.17192338 5:0.64681159 6:0.73707471 
1 1:0.79015297 2:0.50030684 3:0.15944361 4:0.38416939 5:0.24692555 6:0.17123747 
1 1:0.032937201 2:0.4351824 3:0.58658636 4:0.56596813 5:0.43629329 6:0.36671977 
1 1:0.4521644 2:0.078532328 3:0.60988666 4:0.0080304787 5:0.55429944 6:0.59811474 
1 1:0.74075467 2:0.20752142 3:0.33646389 4:0.79308985 5:0.48707363 6:0.66620532 
1 1:0.58659429 2:0.82679443 3:0.62529105 4:0.71057054 5:0.61384124 6:0.051212771 
1 1:0.32828065 2:0.76790961 3:0.6648543 4:0.90965671 5:0.37697328 6:0.57940613 
1 1:0.24960075 2:0.52096228 3:0.86532551 4:0.55981516 5:0.51832756 6:0.59154571 
1 1:0.27790786 2:0.59094248 3:0.10106148 4:0.47254412 5:0.74432428 6:0.63378747 
1 1:0.94051131 2:0.48005185 3:0.52890805 4:0.77933941 5:0.33642426 6:0.38199963 
1 1:0.57781027 2:0.75355675 3:0.23080295 4:0.92939907 5:0.65926125 6:0.51689813 
1 1:0.52238058 2:0.58100313 3:0.82188297 4:0.91602507 5:0.38059074 6:0.83353055 
1 1:0.62747279 2:0.14661406 3:0.47708649 4:0.028155864 5:0.60055493 6:0.37788882 
1 1:0.84373844 2:0.23989087 3:0.54787124 4:0.35888134 5:0.3061344 6:0.72323454 
1 1:0.21028203 2:0.64171907 3:0.2766215 4:0.75491201 5:0.11681281 6:0.24416904 
1 1:0.4991187 2:0.16591091 3:0.56922857 4:0.029542882 5:0.6063421 6:0.94998497 
1 1:0.91673833 2:0.30372765 3:0.51360872 4:0.77173625 5:0.30379998 6:0.64712806 
1 1:0.75774772 2:0.69280447 3:0.38220958 4:0.35180554 5:0.38087325 6:0.21824377 
1 1:0.72120243 2:0.28998667 3:0.13632157 4:0.41062628 5:0.63657448 6:0.47244899 
1 1:0.37120562 2:0.17542307 3:0.33435666 4:0.61001739 5:0.31561363 6:0.52962798 
1 1:0.83603328 2:0.443221 3:0.815901 4:0.38902988 5:0.70400797 6:0.57079959 
1 1:0.51791038 2:0.41030146 3:0.13131152 4:0.6393055 5:0.28473715 6:0.77073138 
1 1:0.65908121 2:0.14138921 3:0.59878149 4:0.74022182 5:0.78300306 6:0.44769665 
1 1:0.16804486 2:0.3758685 3:0.63268865 4:0.8114965 5:0.81707113 6:0.48778549 
1 1:0.047235539 2:0.51624844 3:0.61384218 4:0.12604426 5:0.31039823 6:0.49513365 
1 1:0.24837841 2:0.21862793 3:0.3491825 4:0.44869877 5:0.35349966 6:0.20877198 
1 1:0.28642615 2:0.57970717 3:0.20201808 4:0.6674745 5:0.39402295 6:0.17269164 
1 1:0.87263002 2:0.54759014 3:0.42305152 4:0.75192427 5:0.63813648 6:0.88702446 
1 1:0.7469283 2:0.61431042 3:0.19802869 4:0.49559228 5:0.2794521 6:0.87482658 
1 1:0.25354949 2:0.31418902 3:0.20060417 4:0.90799044 5:0.54878902 6:0.58905941 
1 1:0.45803722 2:0.81402159 3:0.59449322 4:0.92790523 5:0.59226974 6:0.82894269 
1 1:0.58938638 2:0.18103434 3:0.58978778 4:0.032744356 5:0.79794285 6:0.91417464 
1 1:0.23382906 2:0.1350664 3:0.51661224 4:0.52565107 5:0.37737402 6:0.96113095 
1 1:0.69461827 2:0.7734955 3:0.43891034 4:0.75554198 5:0.48918882 6:0.38466405 
1 1:0.65595927 2:0.1877114 3:0.36944779 4:0.24646467 5:0.52906005 6:0.83873012 
1 1:0.45087408 2:0.19664599 3:0.40940448 4:0.89708222 5:0.92654285 6:0.90554468 
1 1:0.43860303 2:0.5109591 3:0.084706122 4:0.61506159 5:0.16633757 6:0.23164983 
1 1:0.55364952 2:0.62977735 3:0.86989852 4:0.4296517 5:0.56788403 6:0.99872385 
1 1:0.12273421 2:0.48861647 3:0.70535427 4:0.2363473 5:0.29677126 6:0.7102921 
1 1:0.61201712 2:0.12623941 3:0.30741171 4:0.2715802 5:0.60175125 6:0.85690886 
1 1:0.33107108 2:0.55255577 3:0.89849441 4:0.62538803 5:0.051830291 6:0.47197441 
0.4684104964511811 1:0.66943827 2:0.78624588 3:0.462204 4:0.39165757 5:0.94256037 6:0.90796657 
1 1:0.43737427 2:0.43648905 3:0.084261293 4:0.39644512 5:0.54583561 6:0.43985801 
1 1:0.34292657 2:0.46124892 3:0.83305101 4:0.36263722 5:0.5340785 6:0.75870262 
1 1:0.3670653 2:0.37626952 3:0.91870992 4:0.13468968 5:0.46150586 6:0.65524684 
1 1:0.50626919 2:0.49763897 3:0.0341525 4:0.17527433 5:0.20562965 6:0.44278391 
1 1:0.45650687 2:0.17477813 3:0.62956275 4:0.92533948 5:0.23586611 6:0.709285 
1 1:0.23774935 2:0.34370097 3:0.86891521 4:0.21551809 5:0.38841195 6:0.81163274 
1 1:0.35319561 2:0.14803963 3:0.59383447 4:0.10603828 5:0.36946909 6:0.80759646 
1 1:0.025283559 2:0.33401448 3:0.4929046 4:0.5903005 5:0.20786759 6:0.55157703 
1 1:0.7930967 2:0.54619501 3:0.31392218 4:0.73352806 5:0.044002936 6:0.6799298 
1 1:0.90140936 2:0.37676015 3:0.6884465 4:0.57427651 5:0.43612783 6:0.097007003 
1 1:0.30284658 2:0.1760958 3:0.42097303 4:0.63278782 5:0.64525669 6:0.2929118 
1 1:0.40812649 2:0.29460226 3:0.2213447 4:0.41632337 5:0.4646129 6:0.36298486 
1 1:0.67698999 2:0.62998623 3:0.75908511 4:0.93505785 5:0.55641914 6:0.50158492 
1 1:0.58814594 2:0.74772293 3:0.56142593 4:0.85570202 5:0.50519543 6:0.99612916 
1 1:0.33849325 2:0.18995241 3:0.20908666 4:0.66466603 5:0.3652671 6:0.12116815 
1 1:0.39450392 2:0.27096558 3:0.55252178 4:0.29778928 5:0.59643188 6:0.66885469 
1 1:0.61746227 2:0.67979232 3:0.81663014 4:0.50893555 5:0.15243739 6:0.64558619 
1 1:0.62549472 2:0.73872966 3:0.80630466 4:0.32029097 5:0.37986102 6:0.12102849 
1 1:0.34177438 2:0.51859025 3:0.94753281 4:0.40949988 5:0.31625338 6:0.40952261 
1 1:0.68225981 2:0.094385244 3:0.32529391 4:0.25321375 5:0.57328989 6:0.44240122 
1 1:0.13084046 2:0.72769643 3:0.49430831 4:0.70074158 5:0.43321789 6:0.59984807 
1 1:0.30566578 2:0.40402329 3:0.17658464 4:0.18742626 5:0.45332771 6:0.079775937 
1 1:0.73602938 2:0.63517194 3:0.45844776 4:0.10506945 5:0.53758537 6:0.8406832 
1 1:0.59176338 2:0.132354 3:0.43939367 4:0.35766905 5:0.34788301 6:0.0053902207 
1 1:0.12810432 2:0.25601349 3:0.5307927 4:0.41866447 5:0.48683962 6:0.39943562 
1 1:0.14905625 2:0.37602855 3:0.56778947 4:0.32182616 5:0.7982672 6:0.59437994 
1 1:0.1717031 2:0.41166006 3:0.76064276 4:0.5664767 5:0.51273683 6:0.35833383 
1 1:0.23590846 2:0.66527066 3:0.41400855 4:0.38855761 5:0.18915226 6:0.22933298 
1 1:0.56916692 2:0.47783976 3:0.9249458 4:0.43022258 5:0.38531556 6:0.5644667 
1 1:0.42941409 2:0.24905358 3:0.46163655 4:0.34818585 5:0.079176432 6:0.052493438 
1 1:0.87125027 2:0.67492228 3:0.40021469 4:0.46062019 5:0.23786266 6:0.86432 
1 1:0.69559056 2:0.17361674 3:0.39731147 4:0.56658725 5:0.69789763 6:0.50328582 
1 1:0.76133257 2:0.3037136 3:0.58519736 4:0.92685913 5:0.260046 6:0.23928004 
1 1:0.50570809 2:0.21260498 3:0.24619077 4:0.42541586 5:0.66077828 6:0.68519964 
1 1:0.90539522 2:0.45344521 3:0.74340141 4:0.47751321 5:0.34235398 6:0.65052691 
1 1:0.56564197 2:0.20107134 3:0.83159458 4:0.62233518 5:0.72245278 6:0.52495979 
1 1:0.34784492 2:0.68410255 3:0.82648809 4:0.39102926 5:0.44270311 6:0.96346959 
1 1:0.77579893 2:0.57591109 3:0.70617638 4:0.53720701 5:0.62685155 6:0.25011118 
1 1:0.20021609 2:0.60612534 3:0.2254699 4:0.11885257 5:0.25189418 6:0.29432057 
1 1:0.18962429 2:0.49907098 3:0.17500981 4:0.29079038 5:0.32307226 6:0.0099119738 
1 1:0.58246952 2:0.1908227 3:0.70241103 4:0.62314137 5:0.65647013 6:0.51870734 
1 1:0.61321861 2:0.21132217 3:0.31052663 4:0.91982409 5:0.72873495 6:0.73612354 
1 1:0.44582292 2:0.23753963 3:0.54067405 4:0.94093936 5:0.33512952 6:0.097701867 
1 1:0.47788213 2:0.55885469 3:0.05159428 4:0.60874115 5:0.33520174 6:0.33197006 
1 1:0.83588876 2:0.52174556 3:0.75712188 4:0.061997411 5:0.45869982 6:0.70984044 
1 1:0.69525648 2:0.78533316 3:0.39121308 4:0.18128233 5:0.18400439 6:0.60067596 
1 1:0.40066701 2:0.14215168 3:0.50339529 4:0.022188911 5:0.60810049 6:0.11105849 
1 1:0.32951755 2:0.3035489 3:0.82716242 4:0.13940057 5:0.67681733 6:0.9495601 
1 1:0.38093194 2:0.72646832 3:0.5808608 4:0.56055423 5:0.13734849 6:0.17170671 
1 1:0.15680803 2:0.66344834 3:0.4266768 4:0.19220813 5:0.13522019 6:0.47375251 
1 1:0.69785273 2:0.10467387 3:0.61060534 4:0.35791254 5:0.39154682 6:0.29184814 
0.6115721228501029 1:0.65536861 2:0.23225462 3:0.18808514 4:0.082724445 5:0.43965871 6:0.96872587 
1 1:0.40863255 2:0.68199969 3:0.44519649 4:0.66894746 5:0.62754301 6:0.24327427 
1 1:0.38899449 2:0.20826395 3:0.27897415 4:0.54256377 5:0.77647289 6:0.29515513 
1 1:0.69675889 2:0.15853891 3:0.43072558 4:0.59721105 5:0.48555132 6:0.39261567 
1 1:0.2480738 2:0.29462497 3:0.32969798 4:0.6362864 5:0.862761 6:0.45734474 
1 1:0.31302731 2:0.66437668 3:0.60903261 4:0.64777913 5:0.22657027 6:0.33994197 
1 1:0.59417035 2:0.69338297 3:0.11152979 4:0.50158397 5:0.6335599 6:0.68777662 
1 1:0.49756846 2:0.11776903 3:0.27284008 4:0.46491042 5:0.31861537 6:0.24730911 
1 1:0.40885627 2:0.2595854 3:0.49193363 4:0.81787816 5:0.66186029 6:0.24328436 
1 1:0.32268637 2:0.097002995 3:0.57246573 4:0.52522092 5:0.55065255 6:0.029445941 
1 1:0.68812971 2:0.24930361 3:0.79056045 4:0.064871418 5:0.35350865 6:0.84203555 
1 1:0.52588651 2:0.84415502 3:0.36143016 4:0.86855406 5:0.64607376 6:0.61977227 
1 1:0.50271009 2:0.24514959 3:0.50260319 4:0.9115904 5:0.74770059 6:0.24745168 
1 1:0.404385 2:0.74391293 3:0.26620266 4:0.30033214 5:0.65701841 6:0.67144022 
1 1:0.4529986 2:0.49252759 3:0.83155066 4:0.52007625 5:0.29050924 6:0.23735733 
1 1:0.71841154 2:0.14736145 3:0.76090791 4:0.2781459 5:0.51313974 6:0.36421785 
1 1:0.57690924 2:0.099008223 3:0.46555948 4:0.91199795 5:0.46498781 6:0.55538259 
1 1:0.66781483 2:0.14572453 3:0.28575797 4:0.045870182 5:0.56420415 6:0.77615598 
1 1:0.57543659 2:0.72610648 3:0.72723399 4:0.24248922 5:0.83433436 6:0.58953542 
1 1:0.32407067 2:0.177114 3:0.56069996 4:0.18627433 5:0.37369452 6:0.46974621 
1 1:0.13675542 2:0.25471743 3:0.32626067 4:0.40036726 5:0.29027126 6:0.27178681 
1 1:0.86305431 2:0.4166166 3:0.28288543 4:0.84556068 5:0.6072078 6:0.81980292 
1 1:0.24367769 2:0.43193561 3:0.24078129 4:0.5071386 5:0.08626538 6:0.43338455 
1 1:0.16021161 2:0.5423851 3:0.27500662 4:0.027153069 5:0.7979801 6:0.63473753 
1 1:0.70187206 2:0.12638146 3:0.53827906 4:0.39541821 5:0.48360025 6:0.37381575 
1 1:0.25099468 2:0.18523722 3:0.43404901 4:0.66973318 5:0.82370334 6:0.27737615 
1 1:0.4359105 2:0.31366183 3:0.86544477 4:0.2073737 5:0.53157328 6:0.44644267 
1 1:0.23518969 2:0.62975237 3:0.19073149 4:0.20386489 5:0.47554557 6:0.31618716 
1 1:0.51106868 2:0.11221749 3:0.4717487 4:0.95691384 5:0.67434024 6:0.55031702 
1 1:0.31541501 2:0.72819287 3:0.70575548 4:0.14296436 5:0.14529516 6:0.094026062 
1 1:0.64688817 2:0.097494219 3:0.55327735 4:0.63875548 5:0.59761459 6:0.86348998 
1 1:0.56896756 2:0.093238227 3:0.60224189 4:0.75241789 5:0.65302501 6:0.37391836 
1 1:0.76219009 2:0.20820128 3:0.59142372 4:0.21774392 5:0.30180323 6:0.17823346 
1 1:0.76299602 2:0.4638271 3:0.12213523 4:0.22900049 5:0.23103678 6:0.43252269 
1 1:0.4940965 2:0.10972754 3:0.67065888 4:0.30290344 5:0.45281784 6:0.89927811 
1 1:0.11032965 2:0.44423632 3:0.35947514 4:0.66309856 5:0.3708516 6:0.18899104 
1 1:0.29130449 2:0.48011631 3:0.22970721 4:0.86910036 5:0.60194985 6:0.17797459 
1 1:0.51804268 2:0.20230673 3:0.3874484 4:0.66479123 5:0.74601757 6:0.8334284 
1 1:0.53364685 2:0.10229343 3:0.74021269 4:0.46242769 5:0.74791311 6:0.42483697 
1 1:0.22462439 2:0.18943128 3:0.73390125 4:0.5369619 5:0.37554306 6:0.85966434 
1 1:0.7860319 2:0.18553443 3:0.67915168 4:0.32462077 5:0.31560821 6:0.53312777 
1 1:0.70340386 2:0.66932008 3:0.74794306 4:0.067766917 5:0.28002109 6:0.33579798 
1 1:0.40061793 2:0.70431448 3:0.73458488 4:0.95930728 5:0.59129563 6:0.77278078 
1 1:0.27805716 2:0.663867 3:0.78089559 4:0.64110739 5:0.55724283 6:0.44765273 
1 1:0.2855957 2:0.27921336 3:0.76491641 4:0.22730525 5:0.65153221 6:0.39192003 
1 1:0.12454136 2:0.50755754 3:0.63927587 4:0.25677863 5:0.39749465 6:0.5138716 
1 1:0.44254782 2:0.1476963 3:0.73522051 4:0.92998075 5:0.49470736 6:0.043616019 
1 1:0.20357815 2:0.20820994 3:0.44205808 4:0.80483914 5:0.73737816 6:0.74340036 
1 1:0.78084978 2:0.673228 3:0.53872202 4:0.24646888 5:0.46595555 6:0.30244194 
1 1:0.57755037 2:0.73479235 3:0.23574101 4:0.70554057 5:0.33021186 6:0.15138814 
1 1:0.32659426 2:0.12273115 3:0.2878605 4:0.69487722 5:0.4120783 6:0.61737837 
1 1:0.7521115 2:0.47193465 3:0.16186982 4:0.58352423 5:0.38541923 6:0.40087304 
1 1:0.61399494 2:0.7407085 3:0.67832325 4:0.64316523 5:0.58163433 6:0.10827604 
1 1:0.66621562 2:0.48149273 3:0.86660956 4:0.60128664 5:0.22843279 6:0.66723732 
1 1:0.58380429 2:0.18177886 3:0.34631399 4:0.76018475 5:0.5586978 6:0.55070497 
1 1:0.44188157 2:0.17788287 3:0.70647995 4:0.48110776 5:0.57919734 6:0.70323196 
1 1:0.23480568 2:0.73824714 3:0.34280844 4:0.93868712 5:0.45503897 6:0.27745478 
1 1:0.91210378 2:0.3131409 3:0.39026324 4:0.64230711 5:0.59287001 6:0.45578626 
1 1:0.43394261 2:0.76083205 3:0.60163512 4:0.49444054 5:0.69996436 6:0.78743471 
1 1:0.6365922 2:0.73203275 3:0.78784399 4:0.41769363 5:0.23700877 6:0.61689449 
1 1:0.23903965 2:0.71975295 3:0.76880784 4:0.59296303 5:0.39625241 6:0.45185902 
1 1:0.31903186 2:0.71627873 3:0.50955489 4:0.7298883 5:0.44590161 6:0.045810001 
1 1:0.49300726 2:0.82777486 3:0.48652386 4:0.45840968 5:0.2941671 6:0.69164299 
1 1:0.075102869 2:0.43181167 3:0.68494734 4:0.76271912 5:0.37874792 6:0.62383716 
1 1:0.89971393 2:0.3979188 3:0.57565052 4:0.11881674 5:0.4042661 6:0.80211709 
1 1:0.50344572 2:0.78953813 3:0.36578074 4:0.6864014 5:0.79608337 6:0.19536523 
1 1:0.6881412 2:0.27714031 3:0.75570823 4:0.22779732 5:0.1441571 6:0.94453424 
1 1:0.73039388 2:0.58279022 3:0.4517584 4:0.93796293 5:0.91632739 6:0.023240352 
1 1:0.82004407 2:0.26443448 3:0.62876783 4:0.77709287 5:0.31825426 6:0.042260605 
1 1:0.33179683 2:0.72076109 3:0.27809631 4:0.30264606 5:0.63727041 6:0.14500255 
1 1:0.3799683 2:0.63250347 3:0.89683574 4:0.36196992 5:0.18536024 6:0.76816821 
1 1:0.14942358 2:0.6951056 3:0.46384333 4:0.8744877 5:0.55055196 6:0.94329519 
1 1:0.56323925 2:0.81075748 3:0.6620272 4:0.29942539 5:0.78587025 6:0.38604467 
1 1:0.63945851 2:0.66155994 3:0.75242582 4:0.71988938 5:0.53544375 6:0.5552756 
1 1:0.28900129 2:0.30582486 3:0.90528947 4:0.46763083 5:0.60845986 6:0.3497029 
1 1:0.68531031 2:0.21209065 3:0.82346044 4:0.63528225 5:0.49518171 6:0.73400689 
1 1:0.35465425 2:0.21835983 3:0.78764712 4:0.21969772 5:0.47444849 6:0.43514035 
1 1:0.12870267 2:0.63111302 3:0.4258532 4:0.29977925 5:0.38995584 6:0.97995671 
1 1:0.60729934 2:0.25110346 3:0.8248925 4:0.40551832 5:0.51917022 6:0.8870506 
1 1:0.62835348 2:0.20910235 3:0.72960259 4:0.066523957 5:0.36812462 6:0.57373569 
1 1:0.82794726 2:0.59356551 3:0.50928245 4:0.19219585 5:0.46136004 6:0.42862835 
1 1:0.37495101 2:0.58291844 3:0.86193547 4:0.55048702 5:0.52916867 6:0.96384285 
1 1:0.27292764 2:0.61515534 3:0.80338114 4:0.56638553 5:0.33031371 6:0.74104454 
1 1:0.61462454 2:0.75818824 3:0.52269649 4:0.99905579 5:0.55937984 6:0.57716624 
1 1:0.15888974 2:0.65757706 3:0.33467751 4:0.33792636 5:0.53021835 6:0.14419744 
1 1:0.49683379 2:0.66462246 3:0.58001947 4:0.26514741 5:0.4072032 6:0.49090196 
1 1:0.68132396 2:0.48518047 3:0.87770682 4:0.33004232 5:0.63986996 6:0.43646523 
1 1:0.81307188 2:0.23106235 3:0.34418402 4:0.62327927 5:0.092632717 6:0.5706093 
1 1:0.22519765 2:0.79227291 3:0.48414699 4:0.88175501 5:0.29360504 6:0.61245112 
1 1:0.85737763 2:0.41543356 3:0.29650055 4:0.58572399 5:0.34952165 6:0.77968953 
0.7691492357014643 1:0.33168239 2:0.63885252 3:0.83737743 4:0.84884974 5:0.2592955 6:0.96402421 
1 1:0.25125217 2:0.25381937 3:0.60881108 4:0.10179089 5:0.74523285 6:0.30610473 
1 1:0.68514346 2:0.60585934 3:0.16498199 4:0.47683412 5:0.38145641 6:0.048910151 
1 1:0.84148381 2:0.23932769 3:0.65171182 4:0.097465365 5:0.53668004 6:0.39696029 
1 1:0.91777699 2:0.52762492 3:0.3384424 4:0.32462484 5:0.78908994 6:0.18803692 
1 1:0.30660655 2:0.33810804 3:0.16195623 4:0.35895815 5:0.40648108 6:0.115056 
1 1:0.1991775 2:0.65895642 3:0.57394549 4:0.86362015 5:0.8143109 6:0.97592088 
1 1:0.21205891 2:0.29859976 3:0.25167471 4:0.22630417 5:0.88193818 6:0.63712443 
1 1:0.69035976 2:0.62876986 3:0.16025316 4:0.98442268 5:0.60354629 6:0.40145829 
1 1:0.45077929 2:0.77230801 3:0.34464748 4:0.25142514 5:0.43550941 6:0.77355355 
1 1:0.35914087 2:0.49514702 3:0.20176183 4:0.97875108 5:0.28207184 6:0.11893879 
1 1:0.83226928 2:0.23877189 3:0.55483669 4:0.84923282 5:0.72890185 6:0.81884474 
1 1:0.42384981 2:0.2089946 3:0.75018425 4:0.52539431 5:0.61289837 6:0.071589314 
1 1:0.26561237 2:0.75050429 3:0.67912187 4:0.78277826 5:0.3222258 6:0.029709834 
1 1:0.54329815 2:0.32632531 3:0.90413252 4:0.57360385 5:0.54900545 6:0.3415686 
1 1:0.43599835 2:0.05205309 3:0.50765001 4:0.26389959 5:0.50363429 6:0.80955354 
1 1:0.34072094 2:0.2974575 3:0.23458135 4:0.62122113 5:0.23911752 6:0.55593871 
1 1:0.80502298 2:0.52400211 3:0.2743551 4:0.48292458 5:0.58923255 6:0.048460661 
1 1:0.91116777 2:0.49327467 3:0.46245234 4:0.083203676 5:0.60024975 6:0.3231943 
1 1:0.65297968 2:0.70550322 3:0.17364243 4:0.028770464 5:0.55740308 6:0.64966828 
1 1:0.15721705 2:0.64957761 3:0.58450342 4:0.79053158 5:0.43495955 6:0.193411 
1 1:0.76337587 2:0.39337485 3:0.74947729 4:0.49736579 5:0.59767069 6:0.4724674 
1 1:0.75291651 2:0.16788749 3:0.37621561 4:0.45046246 5:0.59843139 6:0.054328203 
1 1:0.27029639 2:0.5471365 3:0.82747908 4:0.42063246 5:0.4458509 6:0.72905136 
1 1:0.4885944 2:0.27237719 3:0.74476833 4:0.71585923 5:0.15792389 6:0.38165466 
0.007707209293476838 1:0.67904772 2:0.10325545 3:0.29736388 4:0.35677711 5:0.66215402 6:0.48047157 
1 1:0.7969064 2:0.66184392 3:0.70491726 4:0.10225967 5:0.62737204 6:0.66126731 
1 1:0.37947604 2:0.82572574 3:0.40495248 4:0.80582053 5:0.73941643 6:0.63180388 
1 1:0.29490086 2:0.76018995 3:0.38548538 4:0.67792724 5:0.49211135 6:0.070444322 
1 1:0.70047717 2:0.62848984 3:0.12492164 4:0.31195895 5:0.66260627 6:0.69181574 
1 1:0.66111816 2:0.67725071 3:0.51873191 4:0.63648797 5:0.21396869 6:0.18926909 
1 1:0.72360323 2:0.55386686 3:0.14061179 4:0.2266177 5:0.39045038 6:0.27355006 
1 1:0.4417814 2:0.42610358 3:0.032415245 4:0.66946725 5:0.45218399 6:0.78727492 
1 1:0.70045858 2:0.24178434 3:0.77034255 4:0.34113042 5:0.31038914 6:0.69028837 
1 1:0.69340443 2:0.55935196 3:0.90703313 4:0.53423891 5:0.69375441 6:0.77331667 
1 1:0.12813654 2:0.51951988 3:0.27484988 4:0.065156481 5:0.48219202 6:0.30068279 
1 1:0.57483775 2:0.30698311 3:0.11633329 4:0.60938589 5:0.50588779 6:0.92872636 
1 1:0.52247049 2:0.085871108 3:0.60224419 4:0.69595144 5:0.54976622 6:0.87313053 
1 1:0.85033993 2:0.20877109 3:0.38608045 4:0.47923028 5:0.71911171 6:0.49199444 
1 1:0.5213881 2:0.63794093 3:0.13090672 4:0.78264037 5:0.12045281 6:0.44165958 
1 1:0.6738251 2:0.30075542 3:0.24023539 4:0.18162331 5:0.032919595 6:0.1885024 
1 1:0.91861976 2:0.50028629 3:0.45416279 4:0.71083681 5:0.1476188 6:0.41288781 
1 1:0.48081259 2:0.44533757 3:0.069623452 4:0.23514155 5:0.17162433 6:0.27070864 
1 1:0.47198183 2:0.27674177 3:0.1773761 4:0.33384953 5:0.28635126 6:0.083837049 
1 1:0.91860372 2:0.49818064 3:0.673218 4:0.32668516 5:0.55249131 6:0.3939451 
1 1:0.19273001 2:0.6620944 3:0.73441697 4:0.044226564 5:0.47422623 6:0.29749287 
1 1:0.85379675 2:0.21842932 3:0.35066546 4:0.57372558 5:0.33411926 6:0.68328931 
1 1:0.80731144 2:0.27005988 3:0.56788067 4:0.70037938 5:0.26385734 6:0.23621516 
1 1:0.29024121 2:0.69716991 3:0.67085769 4:0.21485981 5:0.59945974 6:0.56698864 
1 1:0.41781049 2:0.14574126 3:0.41842437 4:0.57925509 5:0.14690231 6:0.27134317 
1 1:0.16145687 2:0.1983999 3:0.38605386 4:0.27916821 5:0.26005239 6:0.18220984 
1 1:0.3549109 2:0.10370369 3:0.54739733 4:0.63554938 5:0.40903691 6:0.041287527 
1 1:0.55935836 2:0.62081349 3:0.20174385 4:0.017872324 5:0.8307841 6:0.99383205 
1 1:0.71234571 2:0.44144579 3:0.8757559 4:0.18448566 5:0.68151795 6:0.47674034 
1 1:0.48643166 2:0.18093905 3:0.12278771 4:0.39393311 5:0.63212225 6:0.46955567 
1 1:0.24677025 2:0.51717459 3:0.92319199 4:0.40203725 5:0.55149177 6:0.31722622 
1 1:0.77490095 2:0.53704322 3:0.26964516 4:0.60361667 5:0.49078601 6:0.82166698 
1 1:0.48715883 2:0.058973226 3:0.52767176 4:0.41424446 5:0.43062101 6:0.85058719 
1 1:0.15155636 2:0.62678769 3:0.40151952 4:0.55706588 5:0.81755554 6:0.18862049 
1 1:0.80892467 2:0.21868691 3:0.45678217 4:0.36763869 5:0.46878328 6:0.49950374 
1 1:0.78700244 2:0.27225099 3:0.74415108 4:0.79790599 5:0.35240655 6:0.69771903 
1 1:0.59254734 2:0.6369444 3:0.12741553 4:0.2623573 5:0.36860366 6:0.83768682 
1 1:0.17315769 2:0.72845238 3:0.679274 4:0.43019464 5:0.60275959 6:0.57299592 
1 1:0.41872393 2:0.1845626 3:0.63306797 4:0.44667118 5:0.90024982 6:0.22979867 
1 1:0.4330426 2:0.73634073 3:0.50136912 4:0.82554707 5:0.34347549 6:0.82442162 
1 1:0.038576459 2:0.44818027 3:0.51702047 4:0.74983992 5:0.58448288 6:0.22254919 
1 1:0.14815623 2:0.39146765 3:0.59585162 4:0.64485031 5:0.49161198 6:0.24314523 
1 1:0.52073256 2:0.73708215 3:0.73779856 4:0.74402344 5:0.54755128 6:0.99516095 
1 1:0.39924835 2:0.26552115 3:0.81296382 4:0.14681438 5:0.51431212 6:0.47927419 
1 1:0.72537014 2:0.24727363 3:0.55097893 4:0.42144893 5:0.46103044 6:0.73351692 
1 1:0.22391555 2:0.74437123 3:0.40534784 4:0.84149134 5:0.5810361 6:0.42709041 
1 1:0.15817431 2:0.38891384 3:0.60220324 4:0.44547944 5:0.64255106 6:0.56625076 
0.8835932865248406 1:0.80551375 2:0.39387847 3:0.13390063 4:0.71721362 5:0.51694747 6:0.31742473 
1 1:0.30543009 2:0.67095532 3:0.77516388 4:0.41835156 5:0.19301765 6:0.28218795 
1 1:0.53151468 2:0.12689545 3:0.37335322 4:0.7586923 5:0.65597052 6:0.92360213 
1 1:0.19935874 2:0.59648281 3:0.86665955 4:0.63155315 5:0.56750652 6:0.36292279 
1 1:0.13947275 2:0.64120427 3:0.33967064 4:0.89744615 5:0.66307455 6:0.73099267 
1 1:0.70813508 2:0.32954899 3:0.79358347 4:0.055021313 5:0.16348046 6:0.59105908 
1 1:0.45733812 2:0.1611722 3:0.46266186 4:0.37791102 5:0.85386534 6:0.21371144 
1 1:0.34851088 2:0.22964234 3:0.24984465 4:0.83074319 5:0.14862658 6:0.7768347 
1 1:0.93947098 2:0.55143926 3:0.41145889 4:0.42559568 5:0.38647391 6:0.1439879 
1 1:0.57504372 2:0.78196123 3:0.53606819 4:0.10355448 5:0.6042316 6:0.040368393 
1 1:0.87116728 2:0.34393611 3:0.61413514 4:0.70056976 5:0.40941992 6:0.7735509 
1 1:0.35466206 2:0.37138841 3:0.11225337 4:0.83804552 5:0.30258396 6:0.086107946 
1 1:0.25458046 2:0.47080484 3:0.10669251 4:0.35888898 5:0.3626857 6:0.11223308 
1 1:0.52204208 2:0.49194111 3:0.98824309 4:0.42660897 5:0.38061588 6:0.36607071 
1 1:0.49287735 2:0.29742815 3:0.87204474 4:0.55935355 5:0.50585425 6:0.67852126 
1 1:0.62755537 2:0.78642297 3:0.43983207 4:0.73942006 5:0.21418061 6:0.47906869 
1 1:0.32027465 2:0.74542105 3:0.35458988 4:0.44152325 5:0.64975484 6:0.8256492 
1 1:0.46316534 2:0.12866742 3:0.6713168 4:0.8922255 5:0.59103306 6:0.17544314 
1 1:0.93342316 2:0.47357533 3:0.4059702 4:0.97462452 5:0.56838698 6:0.44890451 
1 1:0.47253938 2:0.76460007 3:0.3390801 4:0.3174414 5:0.50517157 6:0.43594271 
1 1:0.065958367 2:0.37566553 3:0.64916775 4:0.26366867 5:0.49498374 6:0.52062083 
1 1:0.18580918 2:0.68238173 3:0.64919904 4:0.1076071 5:0.096601253 6:0.31089168 
1 1:0.084785848 2:0.52733213 3:0.34210514 4:0.26889151 5:0.4102052 6:0.89385401 
1 1:0.59679596 2:0.18540687 3:0.74519707 4:0.025012126 5:0.30535973 6:0.7230164 
1 1:0.14309382 2:0.21406647 3:0.59317608 4:0.11085141 5:0.4662263 6:0.61127415 
1 1:0.55533717 2:0.74961195 3:0.66204187 4:0.036843124 5:0.9306758 6:0.3600794 
1 1:0.57913308 2:0.65111351 3:0.13715133 4:0.74112086 5:0.4394453 6:0.49024333 
1 1:0.7878139 2:0.2846707 3:0.57193922 4:0.22664269 5:0.55209034 6:0.13652227 
1 1:0.72790068 2:0.11367179 3:0.50391837 4:0.15163429 5:0.59287933 6:0.26306032 
1 1:0.42049737 2:0.65501563 3:0.1463716 4:0.52650928 5:0.75355777 6:0.34653134 
1 1:0.21215249 2:0.21872477 3:0.63339998 4:0.52155769 5:0.66505602 6:0.091811781 
1 1:0.18119722 2:0.17069206 3:0.49896935 4:0.40060128 5:0.15779803 6:0.20016373 
1 1:0.42569901 2:0.44861148 3:0.88699661 4:0.04926345 5:0.73469485 6:0.24585422 
1 1:0.11479591 2:0.6833552 3:0.61477837 4:0.47746394 5:0.31091743 6:0.31197915 
1 1:0.62983468 2:0.18729939 3:0.30849362 4:0.8547836 5:0.92075623 6:0.50153335 
1 1:0.085912486 2:0.41921532 3:0.36176773 4:0.74909808 5:0.54018727 6:0.2601226 
1 1:0.81925305 2:0.32551719 3:0.71691106 4:0.66479295 5:0.30853637 6:0.11831421 
1 1:0.75160963 2:0.35873183 3:0.15537798 4:0.10030494 5:0.59832537 6:0.7829373 
1 1:0.51607001 2:0.77734026 3:0.22569474 4:0.50265558 5:0.39071691 6:0.4553667 
1 1:0.61341417 2:0.74792597 3:0.79249559 4:0.16758194 5:0.27125004 6:0.60305295 
1 1:0.65086152 2:0.41553959 3:0.066757635 4:0.42660843 5:0.49066222 6:0.4923572 
1 1:0.27547906 2:0.62044748 3:0.81787745 4:0.43666804 5:0.66104404 6:0.56977792 
1 1:0.5137088 2:0.25250804 3:0.75951493 4:0.87334456 5:0.33036022 6:0.50419084 
1 1:0.54607831 2:0.39757034 3:0.14729069 4:0.7249498 5:0.89797445 6:0.96937149 
1 1:0.25114071 2:0.38016809 3:0.78350633 4:0.19941002 5:0.70120781 6:0.027077225 
1 1:0.058522757 2:0.48172166 3:0.50065996 4:0.79676947 5:0.55413734 6:0.37518625 
1 1:0.25798161 2:0.19161103 3:0.70377854 4:0.81204632 5:0.63897463 6:0.78385611 
1 1:0.52695728 2:0.13694875 3:0.37392911 4:0.88551261 5:0.48816745 6:0.92386075 
1 1:0.37895626 2:0.2380563 3:0.50865255 4:0.92357975 5:0.69777977 6:0.053153856 
1 1:0.88665574 2:0.53951736 3:0.25906223 4:0.62080044 5:0.34586293 6:0.32211438 
1 1:0.3336394 2:0.67601656 3:0.8354183 4:0.79121839 5:0.43605773 6:0.2920393 
1 1:0.14086251 2:0.57992178 3:0.71272725 4:0.24977809 5:0.31200871 6:0.98146417 
1 1:0.80603901 2:0.40434726 3:0.87215518 4:0.36367944 5:0.63522466 6:0.70963589 
1 1:0.58133884 2:0.72169532 3:0.77347749 4:0.10738819 5:0.69467153 6:0.3008254 
1 1:0.63428478 2:0.087103591 3:0.35146418 4:0.62880701 5:0.55746892 6:0.37480319 
1 1:0.448475 2:0.83395806 3:0.63529668 4:0.40689765 5:0.41195227 6:0.73133228 
1 1:0.76701135 2:0.20304515 3:0.47688647 4:0.087002045 5:0.68967449 6:0.62081647 
1 1:0.39843757 2:0.86127493 3:0.43474178 4:0.36593842 5:0.59535854 6:0.81288968 
1 1:0.27442397 2:0.38642078 3:0.14480535 4:0.94589222 5:0.51538808 6:0.56246524 
1 1:0.54877254 2:0.15297167 3:0.53008663 4:0.23340664 5:0.54966655 6:0.89832987 
1 1:0.61450526 2:0.36496804 3:0.93750608 4:0.38232969 5:0.42990516 6:0.29306264 
1 1:0.69346471 2:0.421063 3:0.80336234 4:0.14048721 5:0.34229035 6:0.54126939 
1 1:0.16522324 2:0.25590049 3:0.45815202 4:0.38276263 5:0.4219421 6:0.72501356 
1 1:0.55436363 2:0.20753641 3:0.44656498 4:0.66082138 5:0.71880466 6:0.98898713 
1 1:0.78832886 2:0.69849932 3:0.52394785 4:0.35341961 5:0.32067453 6:0.87625965 
1 1:0.32565491 2:0.3819512 3:0.13658865 4:0.10817221 5:0.806875 6:0.76404648 
1 1:0.6024854 2:0.83375584 3:0.42677096 4:0.47327903 5:0.39152059 6:0.74008293 
1 1:0.78948221 2:0.16843014 3:0.41594304 4:0.3534279 5:0.57225228 6:0.76575545 
1 1:0.22219187 2:0.61608753 3:0.29276653 4:0.41902745 5:0.92518867 6:0.14062752 
1 1:0.53569168 2:0.70678499 3:0.16698663 4:0.32354524 5:0.41084226 6:0.13000502 
1 1:0.36036899 2:0.84767393 3:0.62539462 4:0.61689299 5:0.62699406 6:0.37271963 
1 1:0.60599371 2:0.065226396 3:0.52995261 4:0.54361331 5:0.54911164 6:0.39206683 
1 1:0.2855029 2:0.68864364 3:0.41693695 4:0.229194 5:0.12565887 6:0.62184686 
1 1:0.11271314 2:0.30536399 3:0.49847353 4:0.50629202 5:0.61209842 6:0.39291448 
1 1:0.28020525 2:0.69795363 3:0.1356908 4:0.46751967 5:0.39043146 6:0.65059975 
1 1:0.57362054 2:0.67995073 3:0.7984187 4:0.91919185 5:0.78359886 6:0.61039667 
1 1:0.84202937 2:0.67670655 3:0.65674757 4:0.67392756 5:0.5929964 6:0.75076994 
1 1:0.17672013 2:0.30769127 3:0.83206859 4:0.57005284 5:0.30050463 6:0.368228 
1 1:0.18265699 2:0.25662036 3:0.29629037 4:0.90678561 5:0.58189913 6:0.81831671 
1 1:0.43650333 2:0.386079 3:0.83022611 4:0.8380982 5:0.65959737 6:0.49368959 
1 1:0.13621395 2:0.68995671 3:0.44398194 4:0.73549254 5:0.39441675 6:0.47170077 
1 1:0.55316083 2:0.18746692 3:0.7315716 4:0.42712128 5:0.35445314 6:0.71561088 
1 1:0.71814451 2:0.66485217 3:0.7075021 4:0.13898075 5:0.14087899 6:0.57956946 
1 1:0.2114171 2:0.77399011 3:0.58917416 4:0.62803107 5:0.37022862 6:0.92577072 
1 1:0.27345631 2:0.78511483 3:0.59800435 4:0.39135144 5:0.83451877 6:0.58029437 
1 1:0.09767824 2:0.509866 3:0.75492487 4:0.4180513 5:0.43250173 6:0.34742728 
1 1:0.68894058 2:0.77948846 3:0.35441051 4:0.36895762 5:0.34320553 6:0.93266955 
1 1:0.46143398 2:0.71800823 3:0.32798675 4:0.83227179 5:0.71991994 6:0.63601526 
1 1:0.78242268 2:0.55195872 3:0.42141215 4:0.069390477 5:0.35116506 6:0.73554357 
1 1:0.63617393 2:0.65436505 3:0.16519018 4:0.54880554 5:0.71595668 6:0.93112868 
1 1:0.11017296 2:0.44123208 3:0.51039488 4:0.3702027 5:0.24673507 6:0.62726409 
1 1:0.31009285 2:0.72134943 3:0.3513731 4:0.88323008 5:0.41671357 6:0.33793219 
1 1:0.54545468 2:0.81888767 3:0.34047857 4:0.51815599 5:0.25060546 6:0.17721222 
1 1:0.077084499 2:0.54673064 3:0.63366036 4:0.78355476 5:0.37854864 6:0.30506034 
1 1:0.21699405 2:0.27610861 3:0.2961987 4:0.030272397 5:0.68717463 6:0.42926325 
1 1:0.44464484 2:0.69514721 3:0.71261588 4:0.91111143 5:0.26724082 6:0.82760452 
1 1:0.080514422 2:0.58708661 3:0.37251086 4:0.81919458 5:0.39784366 6:0.57814621 
1 1:0.47266538 2:0.41387384 3:0.058151159 4:0.9338831 5:0.70062644 6:0.327728 
1 1:0.66410483 2:0.29804412 3:0.13498891 4:0.2312515 5:0.68335496 6:0.5560777 
