svm_type c_svc
kernel_type rbf
gamma 0.166667
nr_class 2
total_sv 3657
rho -11.4471
label -1 1
nr_sv 1835 1822
SV
1 1:0.38988946 2:0.28335782 3:0.84274977 4:0.59039221 5:0.35841626 6:3.0004537e-05 
1 1:0.67911151 2:0.63467158 3:0.093754752 4:0.24754744 5:0.41094792 6:0.52651787 
1 1:0.34658102 2:0.34687645 3:0.07371673 4:0.40681438 5:0.5315252 6:0.30676403 
1 1:0.71855742 2:0.64561787 3:0.7256509 4:0.51403821 5:0.59006355 6:0.39738457 
1 1:0.13460819 2:0.20131851 3:0.49955161 4:0.29522514 5:0.21085143 6:0.52544629 
1 1:0.40358428 2:0.70860167 3:0.20049576 4:0.58572873 5:0.25523807 6:0.92243455 
1 1:0.86193551 2:0.29435578 3:0.50423328 4:0.34270774 5:0.20263808 6:0.24236842 
1 1:0.70948813 2:0.77549975 3:0.51036952 4:0.63717345 5:0.25337139 6:0.99016201 
1 1:0.85750007 2:0.30646983 3:0.32062862 4:0.63000279 5:0.39092905 6:0.42909499 
1 1:0.55566814 2:0.78316611 3:0.71701803 4:0.10713404 5:0.49044297 6:0.33148974 
1 1:0.13233195 2:0.40665777 3:0.75958463 4:0.23488845 5:0.58841213 6:0.35522998 
1 1:0.46572431 2:0.52191513 3:0.087897389 4:0.083361835 5:0.64473701 6:0.95866118 
1 1:0.78362563 2:0.1947475 3:0.49465148 4:0.6738082 5:0.4242304 6:0.64442824 
1 1:0.74627213 2:0.29800302 3:0.23852134 4:0.71466148 5:0.68147039 6:0.051040621 
1 1:0.41615484 2:0.31786891 3:0.15627307 4:0.45925031 5:0.38299825 6:0.93435548 
1 1:0.83955815 2:0.43493616 3:0.47616098 4:0.89134314 5:0.89543364 6:0.68525676 
1 1:0.74657112 2:0.7128749 3:0.27193032 4:0.86772094 5:0.46126878 6:0.78384863 
1 1:0.91554921 2:0.51231803 3:0.66054113 4:0.70993108 5:0.79825371 6:0.34610403 
1 1:0.51902829 2:0.64937737 3:0.17048796 4:0.67725312 5:0.17276544 6:0.80596125 
1 1:0.66096554 2:0.85050953 3:0.49610588 4:0.49731226 5:0.52355049 6:0.38293668 
1 1:0.59713372 2:0.67878061 3:0.56796253 4:0.38125959 5:0.72716583 6:0.22907613 
1 1:0.43059042 2:0.32321559 3:0.063536509 4:0.72891112 5:0.62292798 6:0.49083862 
1 1:0.43378859 2:0.69605357 3:0.81090122 4:0.43513274 5:0.79719007 6:0.9772533 
1 1:0.13864985 2:0.37525471 3:0.71920029 4:0.55537437 5:0.40439854 6:0.22170314 
1 1:0.82738492 2:0.59598278 3:0.71872269 4:0.56613273 5:0.68664655 6:0.2640227 
1 1:0.64847929 2:0.18606539 3:0.75636632 4:0.91252238 5:0.78433763 6:0.26418898 
1 1:0.76984712 2:0.57897499 3:0.31020133 4:0.70753222 5:0.54644953 6:0.77149659 
1 1:0.60059006 2:0.62477434 3:0.12158741 4:0.40361674 5:0.35985746 6:0.85969245 
1 1:0.47217851 2:0.15394262 3:0.54247354 4:0.57418139 5:0.59000753 6:0.24551616 
1 1:0.38948424 2:0.72324651 3:0.78413301 4:0.9121639 5:0.47844808 6:0.58857435 
1 1:0.39182067 2:0.48491416 3:0.89449509 4:0.89173935 5:0.20028606 6:0.65936516 
1 1:0.19855675 2:0.16322125 3:0.65328759 4:0.49332649 5:0.68441839 6:0.17857549 
1 1:0.4879813 2:0.82395007 3:0.50242031 4:0.34145313 5:0.59576621 6:0.75499323 
1 1:0.48936163 2:0.73803227 3:0.46772415 4:0.37251045 5:0.48362048 6:0.6314684 
1 1:0.33102971 2:0.37804417 3:0.83191974 4:0.25603064 5:0.22787807 6:0.60083575 
1 1:0.2916553 2:0.7281162 3:0.57362961 4:0.18032517 5:0.39283246 6:0.099805334 
1 1:0.3525858 2:0.16311433 3:0.72792005 4:0.39175758 5:0.57988054 6:0.20451123 
1 1:0.80121375 2:0.71988095 3:0.57963101 4:0.43635859 5:0.43468597 6:0.31955871 
1 1:0.23973762 2:0.69628929 3:0.6650984 4:0.88572663 5:0.19169347 6:0.73421292 
1 1:0.67913166 2:0.1574971 3:0.45541783 4:0.50731264 5:0.76975218 6:0.44839411 
1 1:0.76098988 2:0.26594932 3:0.18787247 4:0.094984066 5:0.54593623 6:0.85741823 
1 1:0.93561246 2:0.49486315 3:0.51293903 4:0.29796247 5:0.57724945 6:0.63045918 
1 1:0.52259697 2:0.82086225 3:0.60914896 4:0.48301115 5:0.54603954 6:0.28911022 
1 1:0.33575845 2:0.79264992 3:0.6566502 4:0.71836833 5:0.62610147 6:0.37647 
1 1:0.29073142 2:0.17298277 3:0.23673482 4:0.55908261 5:0.72972673 6:0.81699148 
1 1:0.9192442 2:0.66942944 3:0.46755576 4:0.70495212 5:0.56005593 6:0.58446523 
1 1:0.64554809 2:0.72040699 3:0.20030256 4:0.02883666 5:0.54635954 6:0.20256488 
1 1:0.36859946 2:0.80668828 3:0.45726926 4:0.87838262 5:0.5254012 6:0.42172741 
1 1:0.59519981 2:0.2516675 3:0.86434391 4:0.17272462 5:0.49067748 6:0.17772915 
0.361368756027104 1:0.71279204 2:0.44824727 3:0.89797106 4:0.039082397 5:0.79895047 6:0.67627552 
1 1:0.62998081 2:0.76568102 3:0.67889489 4:0.46987912 5:0.45336801 6:0.61147936 
1 1:0.31547471 2:0.70634887 3:0.74714711 4:0.41941752 5:0.28542191 6:0.98994371 
1 1:0.60049493 2:0.21110698 3:0.67270959 4:0.19820214 5:0.65406171 6:0.45242978 
1 1:0.15636382 2:0.3858757 3:0.73052238 4:0.32356952 5:0.61677948 6:0.11341736 
1 1:0.50370357 2:0.080241999 3:0.64753195 4:0.69814727 5:0.57867655 6:0.62902912 
1 1:0.79896052 2:0.58291887 3:0.27646573 4:0.26334239 5:0.46716454 6:0.027644824 
1 1:0.38490545 2:0.4149201 3:0.84286729 4:0.75223832 5:0.27312522 6:0.59174041 
1 1:0.53028776 2:0.77287181 3:0.39211936 4:0.672378 5:0.27107809 6:0.35269002 
1 1:0.27336673 2:0.39414445 3:0.89365395 4:0.39984398 5:0.3787152 6:0.15249193 
1 1:0.40064494 2:0.73066618 3:0.7963333 4:0.64638891 5:0.13091289 6:0.49236558 
1 1:0.72177254 2:0.31662807 3:0.37810736 4:0.91876363 5:0.35865656 6:0.35906966 
1 1:0.58545415 2:0.190457 3:0.35446598 4:0.63690121 5:0.78869636 6:0.65181944 
1 1:0.45822436 2:0.24117199 3:0.59624956 4:0.33017168 5:0.65822804 6:0.49337074 
0.868074065585302 1:0.41490131 2:0.59895097 3:0.10503237 4:0.80198375 5:0.70761721 6:0.063188069 
1 1:0.18123677 2:0.21117156 3:0.32920782 4:0.66976221 5:0.79096992 6:0.63276878 
1 1:0.61426556 2:0.80302784 3:0.29616862 4:0.16960568 5:0.31583115 6:0.44535659 
1 1:0.63104889 2:0.64356469 3:0.70437803 4:0.82064971 5:0.5488342 6:0.51771786 
1 1:0.14741215 2:0.27319893 3:0.61192517 4:0.72429983 5:0.54741578 6:0.15392907 
1 1:0.47537259 2:0.18705457 3:0.83391342 4:0.52485499 5:0.2696931 6:0.59005442 
1 1:0.59471675 2:0.78600246 3:0.71900645 4:0.22284898 5:0.71333775 6:0.61981073 
1 1:0.6668925 2:0.19699915 3:0.21034092 4:0.77237976 5:0.53185883 6:0.33395714 
1 1:0.25581744 2:0.28748602 3:0.57408236 4:0.70115878 5:0.26140257 6:0.36966514 
1 1:0.21696341 2:0.18331031 3:0.55882554 4:0.75956412 5:0.58159502 6:0.71383498 
1 1:0.70300769 2:0.26668995 3:0.36044022 4:0.21726572 5:0.31749141 6:0.21004006 
1 1:0.18511174 2:0.44289474 3:0.84376568 4:0.3071047 5:0.49542329 6:0.85002606 
1 1:0.66212879 2:0.17341757 3:0.55264471 4:0.98758737 5:0.41695623 6:0.48713969 
1 1:0.51016697 2:0.31959909 3:0.75372012 4:0.38541509 5:0.19719318 6:0.90316304 
1 1:0.33665535 2:0.58857471 3:0.27146835 4:0.82697021 5:0.84919674 6:0.49498142 
1 1:0.66272899 2:0.53136178 3:0.1710735 4:0.057455504 5:0.29307766 6:0.042718781 
1 1:0.57096275 2:0.35360155 3:0.076292913 4:0.55310463 5:0.30770707 6:0.10917279 
1 1:0.68250038 2:0.71362563 3:0.3354571 4:0.39912633 5:0.65821945 6:0.5622758 
1 1:0.7284129 2:0.18525667 3:0.63545962 4:0.52444223 5:0.31032192 6:0.82819525 
0.9178652269834142 1:0.065876445 2:0.56824513 3:0.50384427 4:0.98450704 5:0.35021991 6:0.6577711 
1 1:0.099712896 2:0.327479 3:0.36359985 4:0.70488183 5:0.50213664 6:0.29108229 
1 1:0.89032167 2:0.4728728 3:0.4273802 4:0.70508343 5:0.60074051 6:0.5592157 
1 1:0.50919283 2:0.82849413 3:0.47340951 4:0.17784857 5:0.60692833 6:0.31700621 
1 1:0.67876683 2:0.32427927 3:0.91562549 4:0.71771741 5:0.3584585 6:0.20657614 
1 1:0.57285949 2:0.18652851 3:0.74419574 4:0.99571562 5:0.15365291 6:0.35469236 
1 1:0.56581716 2:0.35149982 3:0.8986502 4:0.10268665 5:0.4243528 6:0.31954198 
1 1:0.54930052 2:0.79632386 3:0.46526382 4:0.052144364 5:0.53339464 6:0.29046412 
1 1:0.37691406 2:0.81636266 3:0.62728514 4:0.38291023 5:0.31468183 6:0.73335288 
1 1:0.2304838 2:0.30323193 3:0.76990569 4:0.78346841 5:0.35662122 6:0.99843591 
1 1:0.80839178 2:0.63906153 3:0.31130827 4:0.0027854184 5:0.73867772 6:0.35173032 
1 1:0.78853566 2:0.63322415 3:0.84485947 4:0.29528312 5:0.55869468 6:0.35516769 
1 1:0.4800414 2:0.74844092 3:0.22895481 4:0.24346482 5:0.26632707 6:0.20795674 
1 1:0.57701225 2:0.65533046 3:0.89163508 4:0.64258554 5:0.36807411 6:0.79880665 
1 1:0.17949436 2:0.32699649 3:0.77854682 4:0.45055481 5:0.40281284 6:0.1836005 
1 1:0.60475201 2:0.17745607 3:0.58466353 4:0.052177998 5:0.1961971 6:0.23640679 
1 1:0.30254187 2:0.49262894 3:0.085559016 4:0.2492148 5:0.754891 6:0.81418292 
1 1:0.71564615 2:0.28726666 3:0.21215253 4:0.13307139 5:0.72472888 6:0.74973082 
1 1:0.92498336 2:0.55023903 3:0.42366139 4:0.71123176 5:0.56812136 6:0.43224993 
1 1:0.35747665 2:0.75177658 3:0.57228603 4:0.27375948 5:0.47211611 6:0.56110543 
1 1:0.24435719 2:0.65407198 3:0.20044424 4:0.24900434 5:0.57521047 6:0.95082064 
1 1:0.43172593 2:0.75706412 3:0.53124231 4:0.38537039 5:0.52463802 6:0.31041711 
1 1:0.77637604 2:0.72446819 3:0.29640839 4:0.2078461 5:0.55687372 6:0.34104079 
1 1:0.63767566 2:0.2663371 3:0.31320092 4:0.15774369 5:0.51591131 6:0.019000351 
1 1:0.77321878 2:0.68968797 3:0.36270608 4:0.74800131 5:0.65776694 6:0.025993642 
1 1:0.16755088 2:0.44517697 3:0.38516682 4:0.63149455 5:0.88278319 6:0.87662592 
1 1:0.13158983 2:0.47335717 3:0.77605257 4:0.80517484 5:0.44599209 6:0.31497824 
1 1:0.076275097 2:0.29863012 3:0.48797565 4:0.78597574 5:0.3642273 6:0.50134287 
1 1:0.25298001 2:0.30736743 3:0.29215873 4:0.90697439 5:0.53437329 6:0.36166208 
1 1:0.22885697 2:0.72200835 3:0.63158109 4:0.93267715 5:0.52870578 6:0.76143018 
1 1:0.45093544 2:0.14872491 3:0.6163692 4:0.34505509 5:0.59256917 6:0.41279642 
1 1:0.73261096 2:0.74306956 3:0.46671001 4:0.19159774 5:0.42888077 6:0.08888259 
1 1:0.75596322 2:0.24940125 3:0.38525662 4:0.85159081 5:0.20332172 6:0.53009744 
1 1:0.34299343 2:0.28039088 3:0.17935338 4:0.48179918 5:0.43950645 6:0.92435945 
1 1:0.41487043 2:0.76731535 3:0.66485381 4:0.7689044 5:0.74707589 6:0.91581442 
1 1:0.18709091 2:0.28305915 3:0.60804265 4:0.31370828 5:0.54604487 6:0.1985145 
1 1:0.7038597 2:0.65949919 3:0.77194561 4:0.044373212 5:0.40753465 6:0.10262146 
1 1:0.23612492 2:0.25617279 3:0.23781967 4:0.35696172 5:0.21284855 6:0.18090214 
1 1:0.52073248 2:0.14082388 3:0.43245793 4:0.878894 5:0.26358513 6:0.092514273 
1 1:0.37556624 2:0.68370101 3:0.42386895 4:0.60347348 5:0.60692882 6:0.43763394 
1 1:0.76396119 2:0.74140499 3:0.3256324 4:0.25338254 5:0.3469761 6:0.26482565 
1 1:0.53229796 2:0.80093381 3:0.40451767 4:0.63674237 5:0.70283349 6:0.59727708 
1 1:0.49486076 2:0.28100289 3:0.084977559 4:0.53601567 5:0.35035968 6:0.033067428 
1 1:0.23301607 2:0.33943031 3:0.82697507 4:0.48269104 5:0.24730159 6:0.82679553 
1 1:0.39193505 2:0.2145254 3:0.83704517 4:0.56762864 5:0.62575011 6:0.37449195 
1 1:0.29839124 2:0.18057406 3:0.53853218 4:0.61773511 5:0.68364431 6:0.82716096 
1 1:0.38570206 2:0.31967107 3:0.13409678 4:0.24459823 5:0.9117639 6:0.28541249 
1 1:0.59126322 2:0.75971169 3:0.35226706 4:0.71797008 5:0.70725317 6:0.54972471 
1 1:0.70530082 2:0.12109663 3:0.70101708 4:0.49313813 5:0.43379439 6:0.2591064 
1 1:0.52019236 2:0.12650419 3:0.57525 4:0.2766919 5:0.61963895 6:0.26040146 
1 1:0.55648945 2:0.32156564 3:0.13208409 4:0.34722947 5:0.58785841 6:0.94087432 
1 1:0.4765779 2:0.11200294 3:0.58571972 4:0.87461945 5:0.33977468 6:0.059306272 
1 1:0.82410582 2:0.47925444 3:0.29321932 4:0.76769718 5:0.37506564 6:0.97906526 
1 1:0.65089692 2:0.1971039 3:0.53056478 4:0.26608153 5:0.23986524 6:0.44196782 
1 1:0.92083263 2:0.39427655 3:0.65689792 4:0.076242262 5:0.6049931 6:0.46728099 
1 1:0.66830531 2:0.24460543 3:0.79976924 4:0.53449287 5:0.44733978 6:0.19093 
1 1:0.54856035 2:0.84582838 3:0.52140373 4:0.45956206 5:0.35154154 6:0.48175907 
1 1:0.13249628 2:0.35513589 3:0.74674975 4:0.6596261 5:0.57184616 6:0.24770379 
1 1:0.69784804 2:0.32358115 3:0.77140589 4:0.471496 5:0.5452021 6:0.64383449 
1 1:0.30964839 2:0.5132692 3:0.77882526 4:0.35104249 5:0.33491068 6:0.68662359 
0.03576979689822442 1:0.04842906 2:0.55018115 3:0.46451105 4:0.22472045 5:0.44966699 6:0.93502408 
1 1:0.73844692 2:0.73366465 3:0.35739667 4:0.46866245 5:0.61121822 6:0.22946661 
1 1:0.9772199 2:0.47786102 3:0.57059626 4:0.61324268 5:0.39727608 6:0.27864882 
1 1:0.63333163 2:0.18768486 3:0.56236646 4:0.78564462 5:0.86382399 6:0.086687875 
1 1:0.40936526 2:0.85994322 3:0.4886006 4:0.50588215 5:0.57751868 6:0.80325136 
1 1:0.12104435 2:0.51907679 3:0.3005979 4:0.76146395 5:0.55427171 6:0.73938545 
1 1:0.57975663 2:0.70358458 3:0.66115259 4:0.82737774 5:0.30750027 6:0.935655 
1 1:0.69616277 2:0.37605426 3:0.13420582 4:0.19778745 5:0.54238132 6:0.5454587 
1 1:0.57743478 2:0.54999471 3:0.14276269 4:0.53362657 5:0.65168098 6:0.19179334 
1 1:0.17552936 2:0.53409105 3:0.80306623 4:0.56864991 5:0.51143776 6:0.44200207 
1 1:0.45214272 2:0.19011179 3:0.7981478 4:0.01380369 5:0.6048084 6:0.38846881 
1 1:0.5725335 2:0.20040168 3:0.36315486 4:0.44041088 5:0.61242861 6:0.1893967 
1 1:0.66339701 2:0.15195257 3:0.62816087 4:0.75016303 5:0.66915585 6:0.79288171 
1 1:0.72659725 2:0.78389656 3:0.60372812 4:0.68513027 5:0.70635813 6:0.72583045 
1 1:0.16955136 2:0.66456089 3:0.28848278 4:0.76133422 5:0.61430297 6:0.81809904 
1 1:0.57940098 2:0.12773001 3:0.71309818 4:0.78829975 5:0.19384469 6:0.089233818 
1 1:0.5551236 2:0.69809266 3:0.20829299 4:0.34955805 5:0.054848226 6:0.57169002 
1 1:0.40773007 2:0.062687754 3:0.42978758 4:0.52519641 5:0.26802397 6:0.77000801 
1 1:0.26076437 2:0.71742079 3:0.69843241 4:0.9934591 5:0.51969639 6:0.25271336 
1 1:0.90827613 2:0.3988254 3:0.48313168 4:0.2799276 5:0.55320332 6:0.3147776 
1 1:0.77826764 2:0.34162922 3:0.20213925 4:0.66345642 5:0.81887135 6:0.11108244 
1 1:0.64682846 2:0.18571212 3:0.21806457 4:0.61877349 5:0.49462558 6:0.07055403 
1 1:0.19929322 2:0.56180112 3:0.20448885 4:0.45029836 5:0.19709426 6:0.4646232 
1 1:0.31205763 2:0.73288079 3:0.49182011 4:0.12125139 5:0.33874827 6:0.50986956 
1 1:0.74045573 2:0.79727322 3:0.52381712 4:0.1115093 5:0.62018768 6:0.36488608 
1 1:0.14486108 2:0.4876302 3:0.40765442 4:0.055138852 5:0.3599882 6:0.9565336 
1 1:0.60230464 2:0.11828998 3:0.44329471 4:0.057771309 5:0.52509522 6:0.19796236 
1 1:0.78603417 2:0.72194002 3:0.50061104 4:0.54189788 5:0.24764823 6:0.8522379 
1 1:0.57477247 2:0.47908292 3:0.10243356 4:0.31811417 5:0.12270768 6:0.93124091 
1 1:0.54023625 2:0.1410271 3:0.33525994 4:0.060347108 5:0.76388312 6:0.053068111 
1 1:0.51942601 2:0.29971417 3:0.19707714 4:0.42701904 5:0.56096321 6:0.72180549 
1 1:0.64716713 2:0.71423579 3:0.62980154 4:0.88200155 5:0.42059038 6:0.85953511 
1 1:0.80493943 2:0.21472716 3:0.375932 4:0.88785221 5:0.19665869 6:0.12982583 
1 1:0.40816436 2:0.67758773 3:0.19795566 4:0.24859883 5:0.54122298 6:0.93528201 
1 1:0.16205948 2:0.45382826 3:0.77270341 4:0.00089038843 5:0.74197104 6:0.7739879 
1 1:0.54946122 2:0.77314144 3:0.77889145 4:0.53539119 5:0.59091865 6:0.37667219 
1 1:0.17186505 2:0.24897596 3:0.53109212 4:0.10028545 5:0.70324475 6:0.40535359 
1 1:0.074023079 2:0.40366243 3:0.30134621 4:0.23489488 5:0.4586843 6:0.36012547 
1 1:0.59706637 2:0.13679763 3:0.69058579 4:0.71573618 5:0.64555812 6:0.55414477 
1 1:0.66767602 2:0.088467524 3:0.4875221 4:0.10825917 5:0.36467889 6:0.37072385 
1 1:0.11794467 2:0.23967383 3:0.39523604 4:0.51295872 5:0.52447431 6:0.47285459 
1 1:0.29147779 2:0.74305992 3:0.45079722 4:0.79441891 5:0.4632174 6:0.58176788 
1 1:0.63280138 2:0.59663324 3:0.84851413 4:0.54269013 5:0.24965442 6:0.20550138 
1 1:0.31617321 2:0.20761722 3:0.83463349 4:0.77486955 5:0.56175486 6:0.50650526 
1 1:0.61247439 2:0.38128944 3:0.9163252 4:0.24091157 5:0.32513694 6:0.93946072 
1 1:0.78353627 2:0.70086774 3:0.29887919 4:0.11645686 5:0.48411618 6:0.34650834 
1 1:0.1885528 2:0.67085956 3:0.60139135 4:0.21889708 5:0.47211948 6:0.75664903 
1 1:0.64775122 2:0.11006872 3:0.51945355 4:0.48908946 5:0.792045 6:0.3526891 
1 1:0.85860039 2:0.29321587 3:0.67093923 4:0.79796786 5:0.75641569 6:0.70895929 
1 1:0.46064208 2:0.18742511 3:0.40593981 4:0.043582186 5:0.21987965 6:0.96716914 
1 1:0.27211809 2:0.29302651 3:0.159264 4:0.5735272 5:0.70512722 6:0.21453194 
1 1:0.84721369 2:0.69478426 3:0.53095786 4:0.77916548 5:0.65607092 6:0.81829395 
1 1:0.90894481 2:0.42558548 3:0.61110329 4:0.63678604 5:0.6089264 6:0.58080663 
1 1:0.51839844 2:0.086623538 3:0.52902233 4:0.010168966 5:0.53129763 6:0.41494965 
1 1:0.54588237 2:0.26385897 3:0.68171978 4:0.82464443 5:0.40839136 6:0.48746235 
1 1:0.66809866 2:0.67854579 3:0.83815063 4:0.91226722 5:0.38649308 6:0.38058171 
1 1:0.53813052 2:0.72031507 3:0.73167377 4:0.91651246 5:0.18976176 6:0.62847294 
1 1:0.12608959 2:0.34308874 3:0.61569271 4:0.84949737 5:0.32392086 6:0.28339474 
1 1:0.57539615 2:0.76720221 3:0.77866361 4:0.37322073 5:0.52776435 6:0.87740762 
1 1:0.23945997 2:0.42821546 3:0.2269527 4:0.19386587 5:0.59623464 6:0.72422861 
1 1:0.11884932 2:0.34521046 3:0.69797266 4:0.36193603 5:0.19833999 6:0.85007081 
1 1:0.75358526 2:0.68506281 3:0.79946863 4:0.68038769 5:0.63063393 6:0.3938977 
1 1:0.31507685 2:0.22493053 3:0.30606654 4:0.4771886 5:0.35454941 6:0.84597049 
1 1:0.72019879 2:0.67884299 3:0.23552018 4:0.95395572 5:0.20059549 6:0.32509172 
1 1:0.57760304 2:0.79856075 3:0.60626348 4:0.65430629 5:0.25347187 6:0.67427937 
1 1:0.47947627 2:0.22602697 3:0.68234031 4:0.45084229 5:0.33851018 6:0.80526778 
1 1:0.3739948 2:0.3332591 3:0.048407372 4:0.15065269 5:0.5066168 6:0.41763817 
1 1:0.49804097 2:0.16161483 3:0.4666462 4:0.48040565 5:0.82073127 6:0.061034336 
1 1:0.77093251 2:0.77994445 3:0.47315814 4:0.22663725 5:0.36682412 6:0.14619864 
0.08288442440939438 1:0.88901806 2:0.2746202 3:0.57815855 4:0.91203538 5:0.20478352 6:0.26254723 
1 1:0.53177985 2:0.52458138 3:0.9270397 4:0.27837436 5:0.87443901 6:0.59254259 
1 1:0.39234128 2:0.38624996 3:0.075665816 4:0.67775294 5:0.49617388 6:0.85018701 
1 1:0.35505487 2:0.79483585 3:0.61679565 4:0.66038861 5:0.37487518 6:0.77595451 
1 1:0.38789632 2:0.1018192 3:0.293989 4:0.56216811 5:0.38817051 6:0.54528116 
1 1:0.43975029 2:0.40537836 3:0.077711325 4:0.90163104 5:0.14299338 6:0.18923279 
1 1:0.39343123 2:0.77935234 3:0.38038459 4:0.15835173 5:0.56503949 6:0.54573417 
1 1:0.66621125 2:0.60520753 3:0.86837666 4:0.078236968 5:0.39968328 6:0.51940107 
1 1:0.37827653 2:0.20956831 3:0.2159931 4:0.49344744 5:0.22643347 6:0.76620298 
1 1:0.75543525 2:0.70917348 3:0.62961079 4:0.1631224 5:0.52018896 6:0.32141618 
1 1:0.50268049 2:0.076506872 3:0.50190444 4:0.18447236 5:0.80591457 6:0.79212547 
1 1:0.31829458 2:0.49441118 3:0.15900836 4:0.77360382 5:0.40607939 6:0.89094006 
1 1:0.54158992 2:0.26812456 3:0.81166444 4:0.75425031 5:0.57702203 6:0.43431322 
1 1:0.14280505 2:0.17648218 3:0.52734852 4:0.33301183 5:0.48537647 6:0.73325895 
1 1:0.1489525 2:0.33652655 3:0.70318105 4:0.93702582 5:0.23868537 6:0.45915145 
1 1:0.83901662 2:0.21309331 3:0.52951304 4:0.30457433 5:0.61947212 6:0.14457086 
1 1:0.62931868 2:0.60583061 3:0.10950069 4:0.65877065 5:0.57068972 6:0.46722033 
1 1:0.34995325 2:0.60444578 3:0.87114766 4:0.081877331 5:0.31625688 6:0.71273386 
1 1:0.3507912 2:0.089396795 3:0.38065273 4:0.53658897 5:0.76534698 6:0.46225144 
1 1:0.62053534 2:0.11617518 3:0.64999994 4:0.28649143 5:0.35507852 6:0.46956403 
1 1:0.83381641 2:0.47916134 3:0.33991326 4:0.73400396 5:0.50757839 6:0.96036115 
1 1:0.74755655 2:0.13960292 3:0.58416626 4:0.64005013 5:0.34560944 6:0.52746564 
1 1:0.56120547 2:0.65479468 3:0.19918011 4:0.022636852 5:0.28590114 6:0.8338072 
1 1:0.53625804 2:0.79820079 3:0.70729231 4:0.55198594 5:0.88406452 6:0.62149132 
1 1:0.68378425 2:0.25749966 3:0.57038588 4:0.29611759 5:0.717443 6:0.68777993 
1 1:0.60281633 2:0.47760939 3:0.83875449 4:0.62181829 5:0.22159996 6:0.74230868 
1 1:0.57531712 2:0.77003258 3:0.72573564 4:0.56267317 5:0.25179898 6:0.48752905 
1 1:0.69701434 2:0.2839687 3:0.4272839 4:0.71387153 5:0.55122914 6:0.67356447 
1 1:0.15830452 2:0.61854169 3:0.43857312 4:0.6599864 5:0.57828273 6:0.81341444 
1 1:0.37851722 2:0.82057736 3:0.49136795 4:0.85018555 5:0.26689857 6:0.33881353 
1 1:0.88609514 2:0.67312398 3:0.44686365 4:0.28637894 5:0.6006078 6:0.65688353 
1 1:0.4592087 2:0.29198591 3:0.90167101 4:0.61850631 5:0.30705657 6:0.7410833 
1 1:0.1003542 2:0.32289853 3:0.64095745 4:0.58868681 5:0.2347152 6:0.73619299 
1 1:0.76419105 2:0.6204686 3:0.64514487 4:0.93400361 5:0.54376302 6:0.2129629 
1 1:0.1704589 2:0.49602145 3:0.19984669 4:0.66951077 5:0.37359209 6:0.31748824 
1 1:0.41179401 2:0.77276851 3:0.49492294 4:0.39065922 5:0.27743473 6:0.51815696 
1 1:0.13558891 2:0.64419335 3:0.47499798 4:0.27380533 5:0.27226175 6:0.5102218 
1 1:0.25339471 2:0.16585492 3:0.64041486 4:0.97296234 5:0.67666232 6:0.44841155 
1 1:0.81029262 2:0.60586881 3:0.39516298 4:0.43261918 5:0.37128231 6:0.67472567 
1 1:0.83228946 2:0.51657864 3:0.82385537 4:0.69386081 5:0.27115987 6:0.15660538 
1 1:0.90617094 2:0.37320748 3:0.57512996 4:0.5016334 5:0.31528965 6:0.99490641 
1 1:0.65729598 2:0.11541049 3:0.58670328 4:0.17519992 5:0.47449032 6:0.57069955 
1 1:0.51983423 2:0.10754881 3:0.52131034 4:0.49819978 5:0.2029436 6:0.18381551 
1 1:0.36024852 2:0.13874141 3:0.60865606 4:0.49357054 5:0.37436519 6:0.90621939 
1 1:0.24747171 2:0.23615289 3:0.3370698 4:0.29808201 5:0.38353873 6:0.57026795 
1 1:0.39939146 2:0.12014318 3:0.36696315 4:0.85912784 5:0.59197488 6:0.095570674 
1 1:0.37171258 2:0.22113013 3:0.28867346 4:0.94752976 5:0.6990731 6:0.3666115 
1 1:0.14750474 2:0.36047545 3:0.70697977 4:0.41715886 5:0.38860656 6:0.11154437 
1 1:0.12085 2:0.38103715 3:0.30432697 4:0.13121529 5:0.62880783 6:0.90837681 
1 1:0.83427854 2:0.67182752 3:0.66847413 4:0.30843924 5:0.25639704 6:0.76954827 
1 1:0.47897969 2:0.71983639 3:0.78464981 4:0.75907088 5:0.8418049 6:0.59896461 
1 1:0.2849512 2:0.70156756 3:0.40043803 4:0.64954219 5:0.55447748 6:0.29333376 
1 1:0.2270229 2:0.17041417 3:0.34097733 4:0.89585947 5:0.36077439 6:0.57492712 
0.881262944526179 1:0.03460736 2:0.35963863 3:0.62870269 4:0.47600623 5:0.63305899 6:0.6441576 
1 1:0.13101711 2:0.39598706 3:0.55796419 4:0.80951292 5:0.55990308 6:0.11166809 
0.0472985063054867 1:0.82812803 2:0.39249289 3:0.86527956 4:0.3323262 5:0.53309249 6:0.47434141 
1 1:0.50791529 2:0.52746494 3:0.80024713 4:0.78550044 5:0.26877944 6:0.55134252 
1 1:0.5606634 2:0.2195302 3:0.82719002 4:0.45453801 5:0.56445172 6:0.67306963 
1 1:0.83092803 2:0.30279438 3:0.74625504 4:0.74034926 5:0.663177 6:0.57474886 
1 1:0.74374895 2:0.22475792 3:0.59312945 4:0.86512523 5:0.77321003 6:0.27488989 
1 1:0.29744473 2:0.66643602 3:0.54839714 4:0.49957932 5:0.56900723 6:0.74670099 
1 1:0.1622514 2:0.41944609 3:0.66493601 4:0.19604307 5:0.7469417 6:0.48953849 
1 1:0.31136694 2:0.59244176 3:0.30861529 4:0.93082602 5:0.38331382 6:0.75494918 
1 1:0.65260494 2:0.12909433 3:0.30403059 4:0.52081583 5:0.42053067 6:0.43579214 
1 1:0.88921676 2:0.46830224 3:0.34655486 4:0.64725672 5:0.48358793 6:0.65031207 
1 1:0.5022016 2:0.20690736 3:0.62624222 4:0.40449944 5:0.46123581 6:0.50634993 
1 1:0.88038603 2:0.43575333 3:0.53828765 4:0.23868969 5:0.61152883 6:0.15607023 
1 1:0.51039095 2:0.72662049 3:0.29341337 4:0.29859853 5:0.49985906 6:0.091926595 
1 1:0.36444909 2:0.70328507 3:0.79346852 4:0.8374251 5:0.63240654 6:0.67764162 
1 1:0.50020794 2:0.099007408 3:0.4926468 4:0.41372032 5:0.68377779 6:0.83815634 
1 1:0.71541107 2:0.15069058 3:0.59603467 4:0.19724389 5:0.71592255 6:0.10122736 
1 1:0.84132698 2:0.4079502 3:0.77490846 4:0.76780367 5:0.82504745 6:0.59147474 
1 1:0.1384183 2:0.3996418 3:0.61238987 4:0.53944253 5:0.71752725 6:0.1098771 
1 1:0.23408254 2:0.17197285 3:0.6914675 4:0.52449108 5:0.56993229 6:0.28475363 
1 1:0.029001696 2:0.4282401 3:0.54520236 4:0.25070092 5:0.4024932 6:0.74790105 
1 1:0.30704053 2:0.23430874 3:0.5541949 4:0.84669183 5:0.51884152 6:0.39462735 
1 1:0.81182968 2:0.23485616 3:0.4542363 4:0.27925727 5:0.3482146 6:0.80353771 
1 1:0.41047719 2:0.7828983 3:0.40119722 4:0.47006761 5:0.35011941 6:0.96720025 
1 1:0.11741664 2:0.33146898 3:0.41155723 4:0.83562348 5:0.51983938 6:0.6266903 
1 1:0.1468299 2:0.27528899 3:0.50883731 4:0.51685935 5:0.24493486 6:0.49384939 
1 1:0.27673875 2:0.51426447 3:0.74490312 4:0.34509732 5:0.66013625 6:0.65316852 
0.06990745683175004 1:0.90476559 2:0.54432141 3:0.57143256 4:0.051864266 5:0.88509577 6:0.84070758 
1 1:0.82140719 2:0.60498908 3:0.45357729 4:0.77335898 5:0.14879639 6:0.87598516 
1 1:0.4163954 2:0.052751659 3:0.48119404 4:0.32188014 5:0.53613309 6:0.85147404 
1 1:0.81969603 2:0.50232116 3:0.42294933 4:0.2409939 5:0.80590556 6:0.38249646 
1 1:0.84954266 2:0.29433514 3:0.72119808 4:0.52291239 5:0.1655188 6:0.56531064 
1 1:0.23767069 2:0.3262055 3:0.71983388 4:0.72105156 5:0.68947119 6:0.36846934 
1 1:0.09547903 2:0.25329518 3:0.53299255 4:0.65101716 5:0.36630542 6:0.84825305 
1 1:0.76453164 2:0.78219986 3:0.48950782 4:0.61550552 5:0.63258534 6:0.4945621 
1 1:0.22111724 2:0.6795426 3:0.23712543 4:0.67827599 5:0.28266585 6:0.22412565 
1 1:0.26933585 2:0.16878811 3:0.54012846 4:0.36585678 5:0.83032554 6:0.0038905178 
1 1:0.099622247 2:0.33516285 3:0.64808651 4:0.34457266 5:0.43200233 6:0.24887712 
1 1:0.51063581 2:0.12155808 3:0.59771315 4:0.81398261 5:0.54693725 6:0.80425144 
1 1:0.52304032 2:0.80352977 3:0.4263967 4:0.86800401 5:0.30929926 6:0.91457548 
1 1:0.29087541 2:0.27591358 3:0.76072266 4:0.34533083 5:0.62112401 6:0.7280304 
1 1:0.53781861 2:0.28908984 3:0.096653029 4:0.38406443 5:0.6220552 6:0.73732998 
1 1:0.27304599 2:0.6179372 3:0.30432836 4:0.072785861 5:0.76581532 6:0.68367697 
1 1:0.47159982 2:0.44760054 3:0.9256776 4:0.61004386 5:0.057532323 6:0.69149313 
1 1:0.31291474 2:0.79011006 3:0.48183331 4:0.80331062 5:0.29034869 6:0.031932901 
1 1:0.25692135 2:0.24802472 3:0.47016577 4:0.34097941 5:0.82222073 6:0.48721848 
1 1:0.71545511 2:0.75963868 3:0.37672497 4:0.94979456 5:0.37201112 6:0.78370155 
1 1:0.47111354 2:0.61663622 3:0.077026333 4:0.83458967 5:0.62538238 6:0.27069375 
1 1:0.50320037 2:0.6914072 3:0.34707586 4:0.53975458 5:0.34279922 6:0.16333962 
1 1:0.30886885 2:0.75358917 3:0.42301656 4:0.63508849 5:0.1989443 6:0.12175518 
1 1:0.77644118 2:0.613282 3:0.20438233 4:0.1532182 5:0.90183669 6:0.63652533 
1 1:0.096569043 2:0.51390842 3:0.46874309 4:0.54676889 5:0.30417733 6:0.11887819 
1 1:0.13877193 2:0.62713346 3:0.55248437 4:0.63845544 5:0.85147569 6:0.41346138 
1 1:0.71409036 2:0.65689417 3:0.21006119 4:0.27087461 5:0.5463859 6:0.55968768 
1 1:0.40814321 2:0.10042466 3:0.54865257 4:0.86873158 5:0.18358289 6:0.55177944 
1 1:0.88001012 2:0.60229484 3:0.41956286 4:0.71849071 5:0.58712105 6:0.7148343 
1 1:0.21964137 2:0.31521685 3:0.39451133 4:0.15241215 5:0.53974429 6:0.7579295 
1 1:0.78007153 2:0.69088399 3:0.62560151 4:0.26370664 5:0.70125983 6:0.14476922 
1 1:0.79045092 2:0.38742658 3:0.84701539 4:0.56219539 5:0.34182065 6:0.98758993 
1 1:0.76385161 2:0.65159668 3:0.80057467 4:0.56230322 5:0.60201335 6:0.33871143 
1 1:0.88838457 2:0.28566439 3:0.37716643 4:0.87286442 5:0.58148725 6:0.72321748 
1 1:0.45694235 2:0.099075943 3:0.6666911 4:0.41957056 5:0.37940492 6:0.032602666 
1 1:0.8607837 2:0.4187683 3:0.7060563 4:0.52953771 5:0.47833401 6:0.55248725 
1 1:0.49469473 2:0.30331403 3:0.76688561 4:0.20474352 5:0.44519426 6:0.4238239 
1 1:0.51197686 2:0.069529966 3:0.52081698 4:0.72894461 5:0.40948868 6:0.40925785 
1 1:0.73302697 2:0.3109105 3:0.18984637 4:0.17766857 5:0.58772478 6:0.38648274 
1 1:0.58461546 2:0.7336556 3:0.81602202 4:0.14788323 5:0.75458031 6:0.56251607 
1 1:0.85701254 2:0.45913265 3:0.56870193 4:0.614488 5:0.40853347 6:0.65999491 
1 1:0.58104648 2:0.15438978 3:0.67912272 4:0.7993026 5:0.83601369 6:0.31738413 
1 1:0.56138155 2:0.84702826 3:0.55002771 4:0.30492896 5:0.55393915 6:0.15095004 
1 1:0.7182252 2:0.77956525 3:0.54811509 4:0.18152643 5:0.21158524 6:0.69268386 
1 1:0.5512478 2:0.59045759 3:0.94162275 4:0.13190194 5:0.62270847 6:0.25331709 
1 1:0.47871266 2:0.76919995 3:0.52438624 4:0.26631137 5:0.56109722 6:0.11076831 
1 1:0.77248055 2:0.2629103 3:0.69889732 4:0.87801664 5:0.5141627 6:0.53628573 
1 1:0.42347439 2:0.41542674 3:0.91242613 4:0.62133181 5:0.16453901 6:0.2516792 
1 1:0.27309934 2:0.10522035 3:0.45560396 4:0.20070792 5:0.79565065 6:0.5240279 
1 1:0.9121648 2:0.58797258 3:0.42457472 4:0.69797668 5:0.60856141 6:0.93558422 
1 1:0.074593435 2:0.28829371 3:0.50434019 4:0.078255546 5:0.72323252 6:0.65361527 
1 1:0.35036941 2:0.14938669 3:0.22512771 4:0.61775871 5:0.62640776 6:0.64472827 
1 1:0.65779547 2:0.17467544 3:0.78104324 4:0.91049694 5:0.52240394 6:0.7555378 
1 1:0.43142362 2:0.50966581 3:0.8897255 4:0.51885833 5:0.6200628 6:0.61565907 
1 1:0.52924596 2:0.20149518 3:0.22175209 4:0.72007825 5:0.72027217 6:0.47434593 
1 1:0.51162362 2:0.50349354 3:0.15659074 4:0.0052575455 5:0.65821608 6:0.14500092 
1 1:0.45787334 2:0.25083354 3:0.80177488 4:0.47101998 5:0.33559796 6:0.25800803 
1 1:0.37458618 2:0.43422779 3:0.071333133 4:0.20146614 5:0.61178257 6:0.93847735 
1 1:0.33900715 2:0.66450771 3:0.19827949 4:0.84661531 5:0.63536874 6:0.59835654 
1 1:0.74612959 2:0.16382795 3:0.55644271 4:0.32338254 5:0.1777975 6:0.8203245 
1 1:0.13467327 2:0.53634962 3:0.76620549 4:0.85435641 5:0.61819865 6:0.33205123 
1 1:0.66994243 2:0.7453715 3:0.44070797 4:0.11872625 5:0.60538991 6:0.25355983 
1 1:0.38930139 2:0.69893864 3:0.86066744 4:0.22529647 5:0.3636866 6:0.65602882 
1 1:0.73947778 2:0.16845794 3:0.55780352 4:0.77275785 5:0.49598696 6:0.7150288 
1 1:0.43957105 2:0.065123271 3:0.41371303 4:0.17630082 5:0.57905245 6:0.57673823 
1 1:0.58496522 2:0.81054144 3:0.33001021 4:0.20051693 5:0.55071657 6:0.39650527 
1 1:0.57112988 2:0.20512006 3:0.23942126 4:0.97384032 5:0.75072302 6:0.14310532 
1 1:0.32072299 2:0.59619959 3:0.10753292 4:0.75156408 5:0.41673719 6:0.35662548 
1 1:0.43577709 2:0.82692922 3:0.49437238 4:0.13630047 5:0.32838233 6:0.38971952 
1 1:0.69391468 2:0.61717108 3:0.15394459 4:0.9573563 5:0.32450089 6:0.25027573 
1 1:0.65757113 2:0.20616838 3:0.39148371 4:0.43068631 5:0.10615074 6:0.23057933 
1 1:0.40890005 2:0.3839919 3:0.93648112 4:0.50513074 5:0.45415689 6:0.2965262 
1 1:0.74867935 2:0.33142144 3:0.32566124 4:0.29625969 5:0.85426367 6:0.49882397 
1 1:0.66718007 2:0.11206719 3:0.65056333 4:0.43638812 5:0.67410938 6:0.89751176 
1 1:0.39412494 2:0.57997456 3:0.86954467 4:0.28349947 5:0.30023446 6:0.92144337 
1 1:0.41238178 2:0.42682264 3:0.9080153 4:0.37391863 5:0.4835826 6:0.59146969 
1 1:0.7515694 2:0.20237286 3:0.54762051 4:0.095878228 5:0.67595844 6:0.060085027 
1 1:0.81058179 2:0.34903835 3:0.20170637 4:0.20777249 5:0.44218812 6:0.30823163 
1 1:0.53445544 2:0.66156173 3:0.25196624 4:0.74760869 5:0.53340032 6:0.90208159 
1 1:0.37786791 2:0.73484392 3:0.28771637 4:0.83012056 5:0.12281132 6:0.61334717 
1 1:0.53083136 2:0.34284118 3:0.8345386 4:0.98799328 5:0.47253995 6:0.65487595 
1 1:0.58351977 2:0.54837524 3:0.13163491 4:0.27129312 5:0.10642225 6:0.96838535 
1 1:0.56202847 2:0.65546074 3:0.92012725 4:0.27072654 5:0.52973521 6:0.34952734 
0.3433657896634607 1:0.52040611 2:0.65651612 3:0.91225482 4:0.16448657 5:0.36900974 6:0.21658714 
1 1:0.85431968 2:0.43868367 3:0.65289994 4:0.088083698 5:0.82328621 6:0.28333791 
1 1:0.54218527 2:0.23834481 3:0.53041908 4:0.46516624 5:0.35524556 6:0.87066898 
1 1:0.47931619 2:0.57047692 3:0.075238255 4:0.84710326 5:0.33405482 6:0.14523428 
1 1:0.17253259 2:0.30234711 3:0.68165329 4:0.92224771 5:0.39214894 6:0.53932673 
1 1:0.66983802 2:0.25092836 3:0.21842445 4:0.64427034 5:0.68881902 6:0.97784518 
1 1:0.30386398 2:0.43556438 3:0.90073101 4:0.14195406 5:0.29849803 6:0.87260703 
1 1:0.16644047 2:0.26021021 3:0.4925878 4:0.55376169 5:0.7081776 6:0.94017639 
1 1:0.49986037 2:0.36475966 3:0.94174493 4:0.48474148 5:0.78724481 6:0.38102825 
1 1:0.3473063 2:0.17075376 3:0.54066994 4:0.69640049 5:0.95736594 6:0.17039783 
1 1:0.32210862 2:0.68498181 3:0.22003577 4:0.83720303 5:0.36268565 6:0.30801847 
1 1:0.059191999 2:0.43529582 3:0.4272518 4:0.3658234 5:0.47610455 6:0.82263858 
1 1:0.52280669 2:0.20194622 3:0.17795073 4:0.48023838 5:0.50641039 6:0.21465518 
1 1:0.71192703 2:0.66853584 3:0.51772665 4:0.014741795 5:0.77851974 6:0.66212593 
1 1:0.59859831 2:0.79331234 3:0.57182816 4:0.88408273 5:0.39933346 6:0.96095803 
1 1:0.37852145 2:0.4238971 3:0.070338524 4:0.25773488 5:0.24326598 6:0.38694226 
1 1:0.54750705 2:0.2144201 3:0.53786675 4:0.72150647 5:0.2745333 6:0.50124825 
1 1:0.28518413 2:0.099175805 3:0.39685856 4:0.45756804 5:0.70227997 6:0.66448083 
1 1:0.67949371 2:0.29239496 3:0.25070368 4:0.60121562 5:0.40066572 6:0.35911874 
1 1:0.14869012 2:0.28805321 3:0.65064259 4:0.89525575 5:0.62902019 6:0.59949309 
1 1:0.70145197 2:0.73255886 3:0.33271628 4:0.43296468 5:0.52655237 6:0.39281798 
1 1:0.27111871 2:0.59719069 3:0.26257399 4:0.97840395 5:0.76298645 6:0.65916128 
1 1:0.90523743 2:0.52236883 3:0.42199952 4:0.85396198 5:0.32591483 6:0.66677489 
1 1:0.75803809 2:0.15767139 3:0.42673545 4:0.11105099 5:0.2128207 6:0.6689772 
1 1:0.67498403 2:0.64426314 3:0.71810567 4:0.7239189 5:0.25563158 6:0.75127587 
1 1:0.59922541 2:0.71554121 3:0.23523384 4:0.77849687 5:0.80845904 6:0.1898111 
1 1:0.43969316 2:0.50787743 3:0.077165438 4:0.45839226 5:0.44097967 6:0.0049445773 
1 1:0.78455393 2:0.17399712 3:0.46458541 4:0.80804608 5:0.60411264 6:0.83004088 
1 1:0.59248311 2:0.73131877 3:0.62104612 4:0.69854538 5:0.067047883 6:0.48078762 
1 1:0.84409088 2:0.24866642 3:0.48110525 4:0.87185854 5:0.84626061 6:0.39856286 
1 1:0.50367456 2:0.099211497 3:0.69095867 4:0.74902873 5:0.6898063 6:0.56809051 
1 1:0.46863195 2:0.77938841 3:0.30099771 4:0.9018634 5:0.33090678 6:0.43091977 
1 1:0.82435119 2:0.32425166 3:0.31861046 4:0.73488701 5:0.66231565 6:0.98452285 
1 1:0.32719912 2:0.67528867 3:0.36254828 4:0.34491593 5:0.4964339 6:0.3729996 
1 1:0.024539855 2:0.5325566 3:0.51343385 4:0.084982745 5:0.5969048 6:0.33184376 
1 1:0.2539575 2:0.25279912 3:0.77905617 4:0.77927798 5:0.35916821 6:0.60040281 
1 1:0.51617682 2:0.1549026 3:0.32106252 4:0.33753766 5:0.6175553 6:0.83966247 
1 1:0.56043377 2:0.46916852 3:0.099985075 4:0.73190383 5:0.53319289 6:0.76402073 
1 1:0.38856861 2:0.558109 3:0.79611711 4:0.90286327 5:0.27376541 6:0.79865255 
1 1:0.30734677 2:0.29038442 3:0.81483883 4:0.068942755 5:0.76893363 6:0.5988474 
1 1:0.68971077 2:0.60575596 3:0.26555378 4:0.61451052 5:0.57655766 6:0.32261041 
1 1:0.56076832 2:0.10134602 3:0.5291334 4:0.15720216 5:0.96042821 6:0.33373187 
1 1:0.5944788 2:0.77244624 3:0.41307506 4:0.082717362 5:0.50680429 6:0.11207747 
1 1:0.28940233 2:0.33914263 3:0.60485868 4:0.20948272 5:0.5463685 6:0.60252558 
1 1:0.16609379 2:0.63269327 3:0.69182861 4:0.43097524 5:0.54507811 6:0.70418895 
1 1:0.28717181 2:0.4820171 3:0.86422716 4:0.20421549 5:0.73342346 6:0.37452807 
1 1:0.75540267 2:0.56145238 3:0.6638262 4:0.81222015 5:0.72638459 6:0.84849539 
1 1:0.77588259 2:0.60420549 3:0.66968982 4:0.87110411 5:0.2543257 6:0.46640682 
1 1:0.75965218 2:0.21992097 3:0.52879096 4:0.10035997 5:0.28454773 6:0.8098084 
1 1:0.24291669 2:0.6128455 3:0.16972585 4:0.65413945 5:0.41037186 6:0.16645136 
1 1:0.72069006 2:0.75614756 3:0.40612077 4:0.84682132 5:0.15565794 6:0.52836514 
1 1:0.29789933 2:0.19063629 3:0.61481996 4:0.67457426 5:0.40938794 6:0.42936353 
1 1:0.57480218 2:0.11677902 3:0.65120623 4:0.796064 5:0.67949206 6:0.85546726 
1 1:0.51040796 2:0.78760013 3:0.38729065 4:0.67070955 5:0.5602328 6:0.0034350918 
1 1:0.75972996 2:0.74409959 3:0.61553673 4:0.32099121 5:0.76313304 6:0.12576371 
1 1:0.78603944 2:0.7451196 3:0.4201448 4:0.23317275 5:0.51100454 6:0.82658472 
1 1:0.53817514 2:0.14827679 3:0.47168546 4:0.93874914 5:0.78003902 6:0.88133532 
1 1:0.28339919 2:0.20470889 3:0.39697948 4:0.34828113 5:0.093534719 6:0.2237098 
1 1:0.6554992 2:0.3120921 3:0.13019495 4:0.19280073 5:0.51333981 6:0.1929755 
1 1:0.28564893 2:0.64644172 3:0.16348958 4:0.32115547 5:0.87570543 6:0.61897497 
1 1:0.57916242 2:0.51226868 3:0.93432123 4:0.66564685 5:0.46289152 6:0.52852881 
1 1:0.30572713 2:0.074627086 3:0.56699554 4:0.27772482 5:0.6758339 6:0.54516999 
1 1:0.78765355 2:0.21531084 3:0.68825888 4:0.74102945 5:0.46259167 6:0.22658361 
1 1:0.10975096 2:0.64648447 3:0.55889756 4:0.81972052 5:0.41995152 6:0.28997822 
1 1:0.14025348 2:0.64827415 3:0.65237444 4:0.12435253 5:0.50156446 6:0.32169788 
1 1:0.17507586 2:0.57826715 3:0.26124727 4:0.21875703 5:0.76706193 6:0.071382104 
1 1:0.16477318 2:0.39786691 3:0.34324255 4:0.48693704 5:0.85856086 6:0.73224274 
1 1:0.29113459 2:0.30861623 3:0.35228725 4:0.77215735 5:0.73963529 6:0.93963537 
1 1:0.044063539 2:0.57061477 3:0.57062045 4:0.67006775 5:0.4380144 6:0.46140052 
1 1:0.23328843 2:0.6125073 3:0.49343441 4:0.38449443 5:0.63618415 6:0.19223737 
1 1:0.87971715 2:0.63874152 3:0.4155733 4:0.14226128 5:0.29356049 6:0.48615637 
1 1:0.67853795 2:0.56271596 3:0.11459204 4:0.058995835 5:0.56179007 6:0.41234973 
1 1:0.89165684 2:0.40001742 3:0.71224735 4:0.76628725 5:0.57665949 6:0.93026568 
1 1:0.61933153 2:0.30371052 3:0.19134791 4:0.45443284 5:0.17103548 6:0.78786667 
1 1:0.64291467 2:0.74550027 3:0.56907104 4:0.62409438 5:0.2320847 6:0.72953451 
1 1:0.61518488 2:0.46328891 3:0.070747393 4:0.3680241 5:0.69092957 6:0.48173868 
1 1:0.45914724 2:0.60126568 3:0.064254988 4:0.5685013 5:0.68081714 6:0.82329516 
1 1:0.47566232 2:0.79587726 3:0.24198445 4:0.32999649 5:0.30857109 6:0.23915333 
1 1:0.74129673 2:0.74366066 3:0.25092133 4:0.3070612 5:0.65889443 6:0.28151902 
1 1:0.58588552 2:0.25543145 3:0.75814842 4:0.29492046 5:0.14620929 6:0.89114398 
1 1:0.51482786 2:0.78424559 3:0.41028541 4:0.90399242 5:0.67471308 6:0.61250377 
1 1:0.83902467 2:0.47804278 3:0.69360355 4:0.63191177 5:0.87468156 6:0.3562249 
1 1:0.11999356 2:0.59538207 3:0.71940481 4:0.055853092 5:0.58957987 6:0.4238318 
1 1:0.65154438 2:0.26041263 3:0.85604914 4:0.70453523 5:0.64982923 6:0.75404879 
1 1:0.88459263 2:0.50440508 3:0.70290498 4:0.45547759 5:0.60348585 6:0.66387114 
1 1:0.61592878 2:0.81813091 3:0.52640405 4:0.50821697 5:0.25585517 6:0.74147184 
1 1:0.50662182 2:0.60479024 3:0.12267991 4:0.85758435 5:0.61453788 6:0.14480835 
1 1:0.13723164 2:0.34648744 3:0.78215676 4:0.15455892 5:0.48240199 6:0.44187912 
1 1:0.45328042 2:0.5940183 3:0.89870057 4:0.53513698 5:0.89051722 6:0.85418308 
1 1:0.095202491 2:0.41462809 3:0.66605553 4:0.33622384 5:0.82393443 6:0.33012155 
1 1:0.74433993 2:0.57202137 3:0.17073652 4:0.15557215 5:0.42061402 6:0.93463789 
1 1:0.49964693 2:0.46370312 3:0.032635836 4:0.30301327 5:0.48504383 6:0.50886825 
1 1:0.16131828 2:0.5498991 3:0.25364966 4:0.13553941 5:0.42609995 6:0.95930818 
1 1:0.11206741 2:0.62409748 3:0.41090158 4:0.33747114 5:0.27826789 6:0.78668202 
1 1:0.24200566 2:0.28084502 3:0.48212726 4:0.7979766 5:0.89351038 6:0.93071037 
1 1:0.8204761 2:0.2980838 3:0.69203785 4:0.53437526 5:0.72845643 6:0.38195666 
1 1:0.59203727 2:0.14574572 3:0.63372934 4:0.98538454 5:0.74096147 6:0.80522754 
1 1:0.7339807 2:0.54117941 3:0.15539936 4:0.53079124 5:0.31411583 6:0.88811108 
1 1:0.50516272 2:0.31199198 3:0.036611384 4:0.55051729 5:0.48250622 6:0.47023745 
1 1:0.85273242 2:0.34197836 3:0.7327705 4:0.30458313 5:0.23774898 6:0.16156278 
1 1:0.49904409 2:0.77305761 3:0.44055005 4:0.80533342 5:0.78023253 6:0.49327929 
1 1:0.16547108 2:0.50562603 3:0.22943772 4:0.32999268 5:0.29102287 6:0.8367684 
1 1:0.56008973 2:0.42645674 3:0.89273198 4:0.8665353 5:0.1894686 6:0.72501821 
1 1:0.68493774 2:0.66140098 3:0.36897704 4:0.057036231 5:0.77092451 6:0.96762205 
1 1:0.43606604 2:0.6634201 3:0.63224473 4:0.61307224 5:0.45613289 6:0.33049339 
1 1:0.56831057 2:0.073412767 3:0.65479661 4:0.77974388 5:0.59370123 6:0.72224226 
1 1:0.52992728 2:0.13119175 3:0.69304035 4:0.058999591 5:0.55333476 6:0.60347404 
1 1:0.84817096 2:0.36345487 3:0.40387631 4:0.89578143 5:0.80825571 6:0.11602266 
1 1:0.45397394 2:0.67959051 3:0.2166073 4:0.90322062 5:0.47372541 6:0.86635648 
1 1:0.5623367 2:0.16121265 3:0.71091421 4:0.89468936 5:0.31882323 6:0.62943598 
1 1:0.75130325 2:0.20458985 3:0.59690663 4:0.71352095 5:0.072214041 6:0.30494414 
1 1:0.55692766 2:0.3556347 3:0.94468895 4:0.40747056 5:0.48554604 6:0.89358949 
1 1:0.63857391 2:0.43169777 3:0.13873156 4:0.5942596 5:0.059764006 6:0.72132513 
1 1:0.053116454 2:0.5976845 3:0.3763172 4:0.26067069 5:0.58143345 6:0.25199 
1 1:0.66272134 2:0.22007411 3:0.2447805 4:0.29722197 5:0.83768536 6:0.016154524 
1 1:0.12392507 2:0.54713918 3:0.42311537 4:0.33131705 5:0.17884694 6:0.50120603 
1 1:0.29278234 2:0.68867329 3:0.47172557 4:0.6877817 5:0.32941062 6:0.9649149 
1 1:0.50242635 2:0.77339664 3:0.28436419 4:0.12798831 5:0.15532928 6:0.25215618 
1 1:0.60578536 2:0.13023188 3:0.45539645 4:0.66659389 5:0.96403484 6:0.67182781 
1 1:0.90317637 2:0.65865633 3:0.60291161 4:0.31044852 5:0.55610935 6:0.5436103 
1 1:0.10644465 2:0.57193345 3:0.57703181 4:0.29817088 5:0.40686874 6:0.73610432 
1 1:0.21122161 2:0.42750998 3:0.7782617 4:0.59201967 5:0.28721399 6:0.20785588 
1 1:0.76972425 2:0.68041095 3:0.72980572 4:0.36026694 5:0.52972214 6:0.70597758 
1 1:0.07957866 2:0.30774171 3:0.41018143 4:0.44881382 5:0.40464772 6:0.54461607 
1 1:0.49573725 2:0.8128294 3:0.51000993 4:0.36323032 5:0.39058287 6:0.10457909 
1 1:0.42709856 2:0.69543334 3:0.31558589 4:0.48047791 5:0.81073181 6:0.65119942 
1 1:0.30105364 2:0.7270055 3:0.65712277 4:0.67607018 5:0.81413436 6:0.71869554 
1 1:0.31784731 2:0.2797625 3:0.79013589 4:0.29657975 5:0.86336434 6:0.70543337 
1 1:0.23002467 2:0.37548154 3:0.21084925 4:0.034233139 5:0.58095789 6:0.8480405 
1 1:0.44223001 2:0.70533263 3:0.25545556 4:0.92266971 5:0.31486673 6:0.43590463 
1 1:0.29963028 2:0.22989513 3:0.24922029 4:0.014608947 5:0.33875212 6:0.47698252 
1 1:0.37338755 2:0.17120435 3:0.51679295 4:0.77841342 5:0.60654475 6:0.11061469 
1 1:0.79823723 2:0.25352568 3:0.26713961 4:0.23038305 5:0.61948826 6:0.064674237 
1 1:0.83580426 2:0.37373993 3:0.53211257 4:0.18561094 5:0.23382105 6:0.42818773 
1 1:0.12597278 2:0.37712685 3:0.72689876 4:0.67484552 5:0.4909239 6:0.56685475 
1 1:0.39637886 2:0.43929468 3:0.12474244 4:0.2637648 5:0.050894477 6:0.82407104 
1 1:0.59972484 2:0.19062772 3:0.24274929 4:0.42494193 5:0.64039152 6:0.33623759 
1 1:0.42589838 2:0.2182804 3:0.13865501 4:0.53530186 5:0.58087304 6:0.064421477 
1 1:0.78605782 2:0.52695254 3:0.82488669 4:0.019240973 5:0.39215689 6:0.9579297 
1 1:0.55668312 2:0.76746794 3:0.42058231 4:0.26368952 5:0.81205541 6:0.1166971 
1 1:0.81002181 2:0.61704295 3:0.43565686 4:0.47026722 5:0.17025286 6:0.38375265 
1 1:0.44460721 2:0.23342971 3:0.81334763 4:0.053411891 5:0.34318286 6:0.61586861 
1 1:0.59790447 2:0.14148111 3:0.61754215 4:0.68787678 5:0.052594662 6:0.35860505 
1 1:0.33491498 2:0.29629264 3:0.80526354 4:0.68680727 5:0.30176039 6:0.96189722 
1 1:0.65896894 2:0.53311385 3:0.065920952 4:0.4269746 5:0.55332188 6:0.42664635 
1 1:0.1893185 2:0.50636782 3:0.17534656 4:0.40589274 5:0.37239614 6:0.94188337 
1 1:0.33864948 2:0.23404048 3:0.56359722 4:0.9337049 5:0.5649599 6:0.21289487 
1 1:0.37595558 2:0.25846076 3:0.8078479 4:0.59163951 5:0.53813658 6:0.87606629 
1 1:0.36270823 2:0.78526044 3:0.70244342 4:0.91325264 5:0.43837271 6:0.1474982 
1 1:0.72478756 2:0.62144508 3:0.30952423 4:0.071515967 5:0.12200884 6:0.61877296 
1 1:0.85112357 2:0.4657431 3:0.27866662 4:0.65802985 5:0.099043297 6:0.67082097 
1 1:0.80244551 2:0.23253697 3:0.50421191 4:0.18009786 5:0.46065275 6:0.68385376 
1 1:0.48756501 2:0.72906858 3:0.44972561 4:0.59471502 5:0.65300672 6:0.25976983 
1 1:0.37412509 2:0.6654341 3:0.22370184 4:0.80343479 5:0.55911082 6:0.1823063 
1 1:0.47825369 2:0.10860791 3:0.32595434 4:0.33873976 5:0.28324498 6:0.44407457 
1 1:0.41856254 2:0.18370894 3:0.4167217 4:0.38826745 5:0.55413391 6:0.9458063 
1 1:0.572589 2:0.79368764 3:0.72014443 4:0.48044309 5:0.50992958 6:0.28434306 
1 1:0.28522174 2:0.66872677 3:0.75664778 4:0.0561554 5:0.64116017 6:0.14617758 
1 1:0.70675147 2:0.19492362 3:0.64860782 4:0.34953135 5:0.43635738 6:0.36296048 
1 1:0.75982655 2:0.63665531 3:0.30959162 4:0.33937788 5:0.67189601 6:0.29324531 
1 1:0.2221668 2:0.15985767 3:0.52129764 4:0.057300189 5:0.4845632 6:0.83310279 
1 1:0.15604218 2:0.31244039 3:0.68392763 4:0.91039942 5:0.53279946 6:0.46634759 
1 1:0.12800233 2:0.54664086 3:0.35438265 4:0.21579043 5:0.44124683 6:0.8194454 
1 1:0.069427257 2:0.57314 3:0.5838187 4:0.22754355 5:0.41446211 6:0.96169171 
1 1:0.63164827 2:0.79465841 3:0.42723235 4:0.54391294 5:0.60774358 6:0.82698046 
1 1:0.75303873 2:0.80332029 3:0.50413538 4:0.29078819 5:0.37638664 6:0.36986438 
1 1:0.82426419 2:0.67471532 3:0.442689 4:0.38345469 5:0.25199086 6:0.5412516 
1 1:0.91864617 2:0.54168917 3:0.57991852 4:0.63872855 5:0.56873329 6:0.51040603 
1 1:0.55363669 2:0.767857 3:0.63705059 4:0.71512796 5:0.65378296 6:0.5848384 
1 1:0.11621447 2:0.5086808 3:0.74853504 4:0.79095824 5:0.17658725 6:0.44674486 
1 1:0.28513035 2:0.29836425 3:0.37277056 4:0.12515204 5:0.43286205 6:0.15645609 
1 1:0.55426177 2:0.698021 3:0.27829686 4:0.80133746 5:0.87411515 6:0.76271261 
1 1:0.65078189 2:0.57767344 3:0.90997269 4:0.32641237 5:0.69277647 6:0.51786895 
1 1:0.46601903 2:0.75005646 3:0.40548573 4:0.79241424 5:0.59992286 6:0.86969345 
1 1:0.41605906 2:0.7540399 3:0.77135783 4:0.24461244 5:0.68142712 6:0.71369342 
1 1:0.15757418 2:0.31657315 3:0.40707888 4:0.8839462 5:0.15675545 6:0.32547211 
1 1:0.3115634 2:0.41812927 3:0.93308777 4:0.51184653 5:0.27902476 6:0.61117209 
1 1:0.69865371 2:0.26900786 3:0.77762036 4:0.74587566 5:0.51849553 6:0.056387936 
1 1:0.38949049 2:0.19729049 3:0.5752071 4:0.58660123 5:0.6126714 6:0.27375338 
1 1:0.40745669 2:0.18484758 3:0.65489317 4:0.48999994 5:0.45010554 6:0.72293844 
1 1:0.13902561 2:0.37720216 3:0.66987157 4:0.68527172 5:0.4076073 6:0.39233835 
1 1:0.85467508 2:0.5355866 3:0.52127368 4:0.91926407 5:0.62527019 6:0.6922498 
1 1:0.14196911 2:0.60557028 3:0.38354008 4:0.59736552 5:0.81276967 6:0.053659014 
1 1:0.73863787 2:0.30285045 3:0.64957556 4:0.9197843 5:0.52138137 6:0.13724217 
1 1:0.080966122 2:0.39831141 3:0.62569222 4:0.41898848 5:0.37439062 6:0.20036175 
1 1:0.86318925 2:0.54291824 3:0.61740023 4:0.79529495 5:0.89047862 6:0.15643947 
1 1:0.70143159 2:0.6080388 3:0.79310834 4:0.97815243 5:0.83287413 6:0.52596923 
1 1:0.36933813 2:0.74663378 3:0.54236036 4:0.4349883 5:0.48915237 6:0.31299266 
1 1:0.40722865 2:0.55252774 3:0.12262029 4:0.6718189 5:0.3280927 6:0.89622948 
1 1:0.60742982 2:0.33965818 3:0.28221692 4:0.33155589 5:0.51689928 6:0.062844341 
1 1:0.15803468 2:0.63410837 3:0.43921683 4:0.38692778 5:0.46945657 6:0.46130496 
1 1:0.15210442 2:0.55278144 3:0.67588248 4:0.77579298 5:0.18846419 6:0.19774085 
1 1:0.27367182 2:0.74203563 3:0.28487046 4:0.5968342 5:0.59851055 6:0.75577303 
1 1:0.59453883 2:0.78956109 3:0.53819618 4:0.064164666 5:0.36763814 6:0.63798957 
1 1:0.21338364 2:0.53491167 3:0.16624787 4:0.17935212 5:0.76924526 6:0.65217251 
1 1:0.12086248 2:0.29482782 3:0.29824808 4:0.69990004 5:0.70977393 6:0.65693984 
1 1:0.59985229 2:0.71186166 3:0.70940178 4:0.93091952 5:0.72948657 6:0.69126835 
1 1:0.46004152 2:0.75813682 3:0.53482947 4:0.22806783 5:0.19951904 6:0.21129686 
1 1:0.30703324 2:0.18102355 3:0.56676142 4:0.15630662 5:0.17927692 6:0.12109941 
1 1:0.64040095 2:0.26540395 3:0.85319937 4:0.17933727 5:0.59698052 6:0.27157293 
1 1:0.94516391 2:0.5580277 3:0.53947046 4:0.26862247 5:0.59396895 6:0.26715429 
1 1:0.41819995 2:0.28417256 3:0.85391509 4:0.48259962 5:0.63757798 6:0.44517386 
1 1:0.21897205 2:0.20707916 3:0.51487968 4:0.41209673 5:0.44133393 6:0.61158046 
1 1:0.71758269 2:0.32535083 3:0.84181091 4:0.39133552 5:0.54123729 6:0.24755166 
1 1:0.47333068 2:0.58616556 3:0.23811586 4:0.93498986 5:0.48366023 6:0.68214809 
1 1:0.47101118 2:0.17880927 3:0.6174207 4:0.8163357 5:0.78942199 6:0.30586729 
1 1:0.84682108 2:0.46544128 3:0.66631917 4:0.93705694 5:0.17691783 6:0.33551003 
1 1:0.73763773 2:0.29917574 3:0.86924063 4:0.67562776 5:0.48149291 6:0.55146073 
1 1:0.67612923 2:0.67578338 3:0.83572192 4:0.22092128 5:0.33485547 6:0.86583571 
1 1:0.45557597 2:0.62153975 3:0.87712768 4:0.94395075 5:0.30495827 6:0.8623763 
1 1:0.82966699 2:0.31699943 3:0.73687523 4:0.78963134 5:0.66050641 6:0.81976816 
1 1:0.22096715 2:0.33327318 3:0.43327047 4:0.25596346 5:0.4793115 6:0.69404859 
1 1:0.86058418 2:0.36012981 3:0.66369349 4:0.24308992 5:0.64256095 6:0.43668404 
1 1:0.65327261 2:0.29566322 3:0.20449588 4:0.28253721 5:0.18445162 6:0.5222636 
1 1:0.358523 2:0.10511483 3:0.65652428 4:0.41051025 5:0.46995663 6:0.12609046 
1 1:0.86078487 2:0.5073107 3:0.76779578 4:0.20255417 5:0.39362916 6:0.085705496 
1 1:0.18738225 2:0.58783327 3:0.3820436 4:0.27883597 5:0.23202317 6:0.81267829 
1 1:0.63076697 2:0.79157599 3:0.31829507 4:0.44745266 5:0.5386156 6:0.0045578883 
1 1:0.73848957 2:0.63354805 3:0.26042315 4:0.61243073 5:0.58694658 6:0.9890088 
1 1:0.46645743 2:0.75667009 3:0.60738347 4:0.42561671 5:0.52042947 6:0.76226567 
0.8502557025171313 1:0.67814442 2:0.1213337 3:0.3636657 4:0.53075005 5:0.1105425 6:0.35919089 
1 1:0.2855436 2:0.33730074 3:0.083398236 4:0.26670987 5:0.48201278 6:0.23470271 
1 1:0.65801009 2:0.26475997 3:0.11816079 4:0.10262068 5:0.38318136 6:0.60709964 
0.1861971562152596 1:0.95313746 2:0.37152131 3:0.61866878 4:0.1901511 5:0.49944204 6:0.77306111 
1 1:0.47869034 2:0.59621504 3:0.12106464 4:0.30391791 5:0.63381297 6:0.2572092 
1 1:0.9621454 2:0.52546199 3:0.42549146 4:0.60322397 5:0.42676459 6:0.6216583 
1 1:0.27963252 2:0.31787625 3:0.86480509 4:0.26501912 5:0.45443841 6:0.0092922941 
1 1:0.7399561 2:0.18742444 3:0.58262586 4:0.19952431 5:0.84792481 6:0.60182707 
1 1:0.70188034 2:0.19352314 3:0.5464352 4:0.85150391 5:0.6946642 6:0.30943404 
1 1:0.10014545 2:0.49964561 3:0.47935168 4:0.67308066 5:0.28616775 6:0.18422977 
1 1:0.88696708 2:0.53738199 3:0.31944371 4:0.48484507 5:0.35918173 6:0.93434404 
1 1:0.54839537 2:0.58615544 3:0.10327866 4:0.64652284 5:0.76864291 6:0.27713194 
1 1:0.75155175 2:0.62091864 3:0.86432189 4:0.19782241 5:0.5522799 6:0.47330417 
1 1:0.4412286 2:0.64027428 3:0.1391368 4:0.87138056 5:0.45419805 6:0.83119034 
1 1:0.26970678 2:0.34273035 3:0.11094715 4:0.46916098 5:0.73007067 6:0.45879858 
1 1:0.78128463 2:0.32497826 3:0.76206121 4:0.90089148 5:0.13232052 6:0.45114614 
1 1:0.15950383 2:0.48702099 3:0.23497648 4:0.73471362 5:0.52627459 6:0.89378161 
1 1:0.73572763 2:0.23169849 3:0.63476901 4:0.89046426 5:0.70144831 6:0.39093813 
1 1:0.66382206 2:0.12982476 3:0.51193974 4:0.58428909 5:0.33539715 6:0.81141143 
1 1:0.79481931 2:0.32470633 3:0.18157956 4:0.14957165 5:0.55076744 6:0.77973112 
1 1:0.16504706 2:0.67858338 3:0.61660859 4:0.51763544 5:0.092229594 6:0.67946951 
0.4788921928478442 1:0.48936101 2:0.042468189 3:0.44877056 4:0.2396804 5:0.49126787 6:0.76479157 
1 1:0.24322229 2:0.26130737 3:0.6874293 4:0.71349545 5:0.61045463 6:0.44774215 
1 1:0.57308 2:0.73684283 3:0.81710758 4:0.66065023 5:0.56959323 6:0.84840017 
1 1:0.5030834 2:0.70354224 3:0.84533478 4:0.46297955 5:0.34897849 6:0.60705917 
1 1:0.19719927 2:0.48486474 3:0.69103959 4:0.94326724 5:0.94439133 6:0.22479536 
1 1:0.46717741 2:0.51535964 3:0.13609585 4:0.50008577 5:0.31171807 6:0.83028628 
1 1:0.60608041 2:0.71687167 3:0.58824886 4:0.8425942 5:0.32224785 6:0.8111496 
1 1:0.33239224 2:0.22128572 3:0.64830193 4:0.25914837 5:0.3457428 6:0.80381257 
1 1:0.88683722 2:0.57831609 3:0.62258574 4:0.24919903 5:0.56584783 6:0.075441335 
1 1:0.51030185 2:0.74244424 3:0.76154203 4:0.63523197 5:0.48789147 6:0.28108028 
1 1:0.22537408 2:0.36709137 3:0.7905123 4:0.14447596 5:0.64750414 6:0.50285172 
1 1:0.48393717 2:0.73245806 3:0.51521795 4:0.41664754 5:0.75102611 6:0.27271324 
1 1:0.43710507 2:0.52564652 3:0.15394689 4:0.15660493 5:0.20114635 6:0.82199468 
1 1:0.64739175 2:0.61079582 3:0.84735437 4:0.83692224 5:0.89227606 6:0.48850498 
1 1:0.7325015 2:0.1313675 3:0.5558253 4:0.6225548 5:0.40845082 6:0.61942615 
1 1:0.85619256 2:0.23398937 3:0.47005585 4:0.38086247 5:0.56685025 6:0.29565951 
1 1:0.88588819 2:0.38939221 3:0.39452638 4:0.049827769 5:0.79293813 6:0.68339415 
1 1:0.38671381 2:0.50742426 3:0.12201906 4:0.36609179 5:0.57074228 6:0.78489415 
1 1:0.79326238 2:0.60359054 3:0.53375865 4:0.60733702 5:0.27779563 6:0.17263363 
1 1:0.48418233 2:0.40863859 3:0.86031163 4:0.9956084 5:0.92203477 6:0.45622355 
1 1:0.19577298 2:0.16558541 3:0.4882369 4:0.33043771 5:0.17143989 6:0.24243211 
1 1:0.55364392 2:0.15601623 3:0.78962408 4:0.52844295 5:0.74507269 6:0.44676153 
1 1:0.26989776 2:0.71497749 3:0.68877301 4:0.78371703 5:0.64201491 6:0.68643705 
0.6447508062457079 1:0.60914565 2:0.17972551 3:0.20483291 4:0.96061853 5:0.58612928 6:0.16402709 
0.6229123154948469 1:0.58115141 2:0.088691103 3:0.60963366 4:0.84230389 5:0.62921204 6:0.8990005 
1 1:0.12171258 2:0.62734193 3:0.33063075 4:0.77208068 5:0.58211402 6:0.54646628 
1 1:0.3812431 2:0.28860348 3:0.79220052 4:0.10572615 5:0.8706541 6:0.26667463 
1 1:0.5475539 2:0.70083318 3:0.84617777 4:0.062667123 5:0.60679953 6:0.10637624 
1 1:0.27800152 2:0.18597831 3:0.25826737 4:0.28287386 5:0.36680516 6:0.24631944 
1 1:0.87661254 2:0.64051142 3:0.3138295 4:0.23618867 5:0.48019964 6:0.8226497 
1 1:0.60102137 2:0.19709045 3:0.23671011 4:0.87995081 5:0.7113482 6:0.85617845 
1 1:0.49522766 2:0.4045277 3:0.017935964 4:0.25875756 5:0.47640469 6:0.54871341 
1 1:0.4164444 2:0.63898653 3:0.19387696 4:0.5663574 5:0.66064006 6:0.037359306 
1 1:0.2371094 2:0.55534533 3:0.20684922 4:0.84142453 5:0.44165953 6:0.94387948 
1 1:0.33212375 2:0.57327486 3:0.083152397 4:0.82643856 5:0.59985456 6:0.33150995 
1 1:0.31331647 2:0.11763889 3:0.64359746 4:0.89351799 5:0.46097678 6:0.75585831 
1 1:0.37799661 2:0.76797961 3:0.4492724 4:0.15911391 5:0.57757776 6:0.74081986 
1 1:0.69462861 2:0.55545563 3:0.15390045 4:0.53447681 5:0.43538819 6:0.55713861 
1 1:0.54185393 2:0.46372645 3:0.11323899 4:0.9384055 5:0.29317331 6:0.13714674 
1 1:0.70272996 2:0.1675429 3:0.37272004 4:0.43787854 5:0.34736814 6:0.35125896 
1 1:0.29588994 2:0.68497611 3:0.32229188 4:0.53387539 5:0.63507436 6:0.37541984 
1 1:0.73346191 2:0.46254211 3:0.12052391 4:0.83379065 5:0.42618133 6:0.64015471 
1 1:0.80804444 2:0.22743096 3:0.54497728 4:0.68805928 5:0.66577005 6:0.92520372 
1 1:0.58396707 2:0.66417543 3:0.74511161 4:0.46381802 5:0.68647686 6:0.42768499 
1 1:0.59930562 2:0.7572942 3:0.44359821 4:0.71988163 5:0.76200972 6:0.79929985 
1 1:0.55286627 2:0.38630678 3:0.91039984 4:0.3925221 5:0.76658657 6:0.39143322 
1 1:0.36459113 2:0.29574517 3:0.23935561 4:0.492636 5:0.57801403 6:0.30115488 
1 1:0.3901642 2:0.12858013 3:0.36707942 4:0.70222139 5:0.57019596 6:0.37594788 
1 1:0.89437286 2:0.56793175 3:0.70037443 4:0.591724 5:0.44142337 6:0.16237913 
1 1:0.12012068 2:0.60074843 3:0.37605412 4:0.017012351 5:0.36395591 6:0.86485653 
1 1:0.22332754 2:0.27757537 3:0.40471499 4:0.47422735 5:0.15665517 6:0.87091179 
1 1:0.13958973 2:0.36093599 3:0.56290859 4:0.68726033 5:0.65183728 6:0.042362104 
1 1:0.77134028 2:0.27361768 3:0.46795421 4:0.71889941 5:0.15549766 6:0.68960303 
1 1:0.61034409 2:0.33443062 3:0.74302753 4:0.31556944 5:0.2273276 6:0.87672495 
1 1:0.72941547 2:0.2187355 3:0.68334354 4:0.83875095 5:0.5593431 6:0.84571687 
1 1:0.81465931 2:0.23240462 3:0.42904746 4:0.057951538 5:0.2273638 6:0.84123032 
1 1:0.43573171 2:0.20630611 3:0.13029427 4:0.60626126 5:0.34121432 6:0.27647419 
1 1:0.62757278 2:0.65329326 3:0.8750901 4:0.1721915 5:0.72099302 6:0.13793996 
1 1:0.10201434 2:0.59651794 3:0.653301 4:0.80800375 5:0.31482624 6:0.42439521 
1 1:0.69954276 2:0.28266982 3:0.44838643 4:0.20581171 5:0.71385394 6:0.46595698 
1 1:0.65551726 2:0.18828177 3:0.63168744 4:0.73706089 5:0.12952801 6:0.41696092 
1 1:0.36768911 2:0.10625537 3:0.38938538 4:0.44300629 5:0.57001523 6:0.57527291 
1 1:0.081735362 2:0.28273735 3:0.54394794 4:0.31982119 5:0.4624577 6:0.32850209 
1 1:0.27666351 2:0.21369863 3:0.35028381 4:0.56736334 5:0.79892906 6:0.046174613 
1 1:0.45595921 2:0.42386933 3:0.10537397 4:0.76846555 5:0.18112759 6:0.8657877 
1 1:0.60156169 2:0.60817095 3:0.099142489 4:0.092350742 5:0.82403463 6:0.38217954 
1 1:0.4571805 2:0.14894634 3:0.47142411 4:0.94261312 5:0.10631745 6:0.84378663 
1 1:0.22957776 2:0.64511538 3:0.22198614 4:0.80108159 5:0.16064457 6:0.58343634 
1 1:0.58094573 2:0.30835334 3:0.77835063 4:0.47607285 5:0.68198189 6:0.49670156 
1 1:0.60888659 2:0.45111978 3:0.9360762 4:0.70320822 5:0.40147204 6:0.53081251 
1 1:0.62436847 2:0.49847008 3:0.1007729 4:0.26164581 5:0.73604939 6:0.25644654 
1 1:0.77519994 2:0.77038849 3:0.5696988 4:0.55492287 5:0.60592384 6:0.78347475 
1 1:0.49132668 2:0.16428843 3:0.68057381 4:0.90680008 5:0.24155572 6:0.042582206 
1 1:0.2178591 2:0.62781136 3:0.70202467 4:0.26795561 5:0.68079452 6:0.60392286 
1 1:0.41742555 2:0.84248478 3:0.51055498 4:0.71387315 5:0.63108927 6:0.71397454 
1 1:0.32731809 2:0.68937819 3:0.58003271 4:0.45580703 5:0.39665618 6:0.33288447 
1 1:0.37705879 2:0.77584065 3:0.37586098 4:0.52765496 5:0.34373017 6:0.083125939 
1 1:0.54652909 2:0.46754973 3:0.98732933 4:0.36477527 5:0.53448972 6:0.65136258 
1 1:0.25543085 2:0.76776472 3:0.70159348 4:0.72218555 5:0.32566059 6:0.48311466 
1 1:0.078468114 2:0.440334 3:0.49365602 4:0.20344689 5:0.50045204 6:0.70974823 
1 1:0.59758392 2:0.32958947 3:0.76286304 4:0.73320611 5:0.74595998 6:0.54822257 
1 1:0.11428991 2:0.34932283 3:0.63630733 4:0.86874745 5:0.55567307 6:0.17179696 
1 1:0.36597097 2:0.75772644 3:0.21164493 4:0.26250739 5:0.62720156 6:0.29174999 
1 1:0.23155989 2:0.67416914 3:0.77874912 4:0.80445852 5:0.39671006 6:0.75862641 
1 1:0.203057 2:0.62925693 3:0.25368889 4:0.23299319 5:0.47485668 6:0.59986776 
1 1:0.067235197 2:0.33121583 3:0.64614258 4:0.51927911 5:0.69946633 6:0.45735452 
1 1:0.38979542 2:0.24324413 3:0.23233697 4:0.1301621 5:0.10635382 6:0.23122178 
1 1:0.48893602 2:0.54444063 3:0.92930783 4:0.75871779 5:0.52681244 6:0.59287962 
1 1:0.30324142 2:0.24369469 3:0.2517304 4:0.60854238 5:0.69560051 6:0.18042054 
1 1:0.22548371 2:0.42065432 3:0.85013548 4:0.81008091 5:0.74371254 6:0.77240381 
1 1:0.12662638 2:0.64409152 3:0.50924555 4:0.54565009 5:0.5291172 6:0.53386653 
1 1:0.25563137 2:0.75696748 3:0.49334194 4:0.44614983 5:0.44591689 6:0.5407926 
1 1:0.77270606 2:0.46045632 3:0.14097473 4:0.15764805 5:0.33183747 6:0.87515083 
1 1:0.27395431 2:0.35129738 3:0.80139591 4:0.08307346 5:0.62660622 6:0.66750558 
1 1:0.89234883 2:0.62378686 3:0.60396204 4:0.31034558 5:0.70133347 6:0.43849246 
1 1:0.77490117 2:0.69017667 3:0.28513191 4:0.75727883 5:0.22244865 6:0.59292428 
1 1:0.90734792 2:0.44472188 3:0.63750889 4:0.71697614 5:0.72350655 6:0.11286828 
1 1:0.67775794 2:0.25556649 3:0.17546965 4:0.52717241 5:0.1834965 6:0.41736887 
1 1:0.51842728 2:0.14968051 3:0.74536424 4:0.36894266 5:0.5030435 6:0.28519512 
1 1:0.42177568 2:0.73838857 3:0.62755196 4:0.1450304 5:0.31118055 6:0.41692092 
1 1:0.5733877 2:0.56539355 3:0.11038108 4:0.041499063 5:0.40559873 6:0.68775959 
1 1:0.71540028 2:0.26332649 3:0.81086808 4:0.60107325 5:0.63068313 6:0.71512677 
1 1:0.19109602 2:0.65849467 3:0.46386188 4:0.73897806 5:0.39313311 6:0.19425701 
1 1:0.72699702 2:0.6480098 3:0.79398265 4:0.14328915 5:0.21807003 6:0.52334355 
1 1:0.1434307 2:0.29320778 3:0.26309508 4:0.0030216095 5:0.46546062 6:0.49958791 
1 1:0.45087928 2:0.80087606 3:0.41207561 4:0.33881292 5:0.51576101 6:0.63330767 
1 1:0.51857817 2:0.2476324 3:0.24187213 4:0.065320213 5:0.45012314 6:0.29191258 
1 1:0.70996724 2:0.14733895 3:0.2601379 4:0.81586917 5:0.49334067 6:0.29641869 
1 1:0.55031218 2:0.22597801 3:0.10534671 4:0.18289536 5:0.40044901 6:0.41962073 
1 1:0.75451964 2:0.20485033 3:0.64106873 4:0.71570521 5:0.34834948 6:0.2966157 
1 1:0.48448365 2:0.16951425 3:0.24309238 4:0.22246996 5:0.78223779 6:0.52842327 
1 1:0.75515206 2:0.73902653 3:0.55115351 4:0.89952466 5:0.75903473 6:0.40606655 
1 1:0.78737635 2:0.61270685 3:0.4009637 4:0.28350473 5:0.93810785 6:0.29314548 
1 1:0.69999829 2:0.17384437 3:0.30263238 4:0.43702526 5:0.74896639 6:0.27373953 
1 1:0.54290895 2:0.18271537 3:0.23229283 4:0.34639297 5:0.84352089 6:0.088757549 
1 1:0.37829778 2:0.19231408 3:0.20848034 4:0.34424711 5:0.29861727 6:0.15184081 
1 1:0.32992332 2:0.74532573 3:0.67909932 4:0.77885381 5:0.23719102 6:0.53502717 
1 1:0.24947244 2:0.19513577 3:0.60459226 4:0.26728805 5:0.51698799 6:0.1786389 
1 1:0.4930798 2:0.1703065 3:0.65743819 4:0.68654743 5:0.84792685 6:0.70711917 
0.1272027510228174 1:0.71814829 2:0.14299958 3:0.61389325 4:0.25633611 5:0.78857228 6:0.11102149 
1 1:0.66644656 2:0.16869116 3:0.49148441 4:0.32568784 5:0.31633857 6:0.83533073 
1 1:0.89716553 2:0.50652068 3:0.70583472 4:0.77032822 5:0.46507894 6:0.69377241 
1 1:0.27026574 2:0.49367776 3:0.86321272 4:0.85769874 5:0.67134863 6:0.52734167 
1 1:0.6415981 2:0.79002136 3:0.59874713 4:0.40579784 5:0.10759423 6:0.16994355 
1 1:0.85991832 2:0.54415899 3:0.69761114 4:0.17392457 5:0.28683192 6:0.60549906 
1 1:0.54879416 2:0.39393511 3:0.94644435 4:0.088855425 5:0.61778839 6:0.48552813 
1 1:0.64344048 2:0.48883398 3:0.048132753 4:0.80836205 5:0.48787845 6:0.51588018 
1 1:0.14067205 2:0.26897971 3:0.58147454 4:0.24584636 5:0.47406604 6:0.94160323 
1 1:0.53031061 2:0.83089084 3:0.58995833 4:0.20509652 5:0.51297331 6:0.63886783 
1 1:0.53762912 2:0.14157281 3:0.38707356 4:0.51170527 5:0.61491365 6:0.38720622 
1 1:0.20871196 2:0.59822267 3:0.66914993 4:0.93647604 5:0.71073872 6:0.50936333 
1 1:0.2797053 2:0.14978876 3:0.66764924 4:0.43266876 5:0.21598046 6:0.57604881 
1 1:0.5076663 2:0.60372884 3:0.10633841 4:0.76239567 5:0.65979976 6:0.72009317 
1 1:0.23136081 2:0.15494131 3:0.60254648 4:0.30706609 5:0.61110093 6:0.017125373 
1 1:0.72052103 2:0.23309041 3:0.6938304 4:0.55190872 5:0.20915529 6:0.30608685 
1 1:0.23251207 2:0.65503361 3:0.82822428 4:0.087073111 5:0.61256146 6:0.60500101 
1 1:0.68865625 2:0.12548065 3:0.66642289 4:0.27495306 5:0.40463933 6:0.25365434 
0.9819419228361062 1:0.82415143 2:0.73455253 3:0.44418939 4:0.32588751 5:0.27860399 6:0.9264208 
1 1:0.44706895 2:0.8225261 3:0.33260179 4:0.48624051 5:0.66091879 6:0.85304153 
1 1:0.79749385 2:0.37497198 3:0.46672655 4:0.15831 5:0.1586781 6:0.44280188 
1 1:0.41248574 2:0.82422584 3:0.58894259 4:0.64135582 5:0.59058894 6:0.63549745 
1 1:0.60536069 2:0.61120924 3:0.78650283 4:0.198941 5:0.24200545 6:0.0087999565 
1 1:0.16481465 2:0.67583607 3:0.52967215 4:0.044408972 5:0.26685436 6:0.89946296 
1 1:0.23147827 2:0.27782376 3:0.71783609 4:0.4269473 5:0.7668721 6:0.81408207 
1 1:0.61369418 2:0.1698032 3:0.18309247 4:0.1753868 5:0.72567509 6:0.36337239 
1 1:0.63461045 2:0.60588069 3:0.14798309 4:0.98616916 5:0.57755244 6:0.14137162 
1 1:0.472357 2:0.09465169 3:0.3391089 4:0.055156577 5:0.26595491 6:0.60037616 
1 1:0.18968857 2:0.55889218 3:0.45905344 4:0.43310033 5:0.055667765 6:0.26221673 
1 1:0.068709878 2:0.37039929 3:0.54770858 4:0.66687087 5:0.38695489 6:0.86539269 
1 1:0.13039229 2:0.36331653 3:0.39773996 4:0.20949085 5:0.50734132 6:0.73214546 
1 1:0.45716944 2:0.098281884 3:0.55220359 4:0.2103385 5:0.40546451 6:0.91896966 
1 1:0.10800492 2:0.52462942 3:0.21537804 4:0.23765047 5:0.36395569 6:0.60640596 
1 1:0.52056653 2:0.18955551 3:0.48344974 4:0.846659 5:0.50641461 6:0.89398074 
1 1:0.34704766 2:0.16194013 3:0.49208207 4:0.41109342 5:0.84694757 6:0.72524173 
1 1:0.83488294 2:0.2801127 3:0.28248413 4:0.63500179 5:0.56917819 6:0.019984579 
1 1:0.32497486 2:0.8443603 3:0.54668281 4:0.24192818 5:0.58375031 6:0.40875003 
1 1:0.43225372 2:0.72135275 3:0.74321591 4:0.91131444 5:0.7748608 6:0.15641466 
1 1:0.27984738 2:0.68787347 3:0.73794728 4:0.27329784 5:0.88643033 6:0.93733712 
1 1:0.63747588 2:0.76996774 3:0.70334402 4:0.55088247 5:0.76177174 6:0.055143878 
1 1:0.87569464 2:0.46782689 3:0.66718943 4:0.089558316 5:0.45814778 6:0.47522396 
1 1:0.39927042 2:0.67463284 3:0.23347781 4:0.45276779 5:0.59439122 6:0.10683608 
1 1:0.65517859 2:0.27853095 3:0.81849161 4:0.70431067 5:0.39381751 6:0.11649612 
1 1:0.35731035 2:0.67886058 3:0.73595771 4:0.33650112 5:0.56570669 6:0.34351849 
1 1:0.74994304 2:0.65810671 3:0.165262 4:0.72561707 5:0.43911648 6:0.62546944 
1 1:0.7079995 2:0.60330631 3:0.20285245 4:0.12827664 5:0.46765108 6:0.99953524 
1 1:0.88928561 2:0.63927191 3:0.50019892 4:0.59833868 5:0.15394693 6:0.79981626 
1 1:0.55235819 2:0.78900241 3:0.46628248 4:0.92816959 5:0.77059579 6:0.020768849 
1 1:0.76852837 2:0.51327591 3:0.70183988 4:0.94402028 5:0.28574667 6:0.8101324 
1 1:0.4726589 2:0.30541639 3:0.90218873 4:0.52184235 5:0.8017704 6:0.96585529 
1 1:0.1711962 2:0.60656068 3:0.80691162 4:0.45817611 5:0.55594468 6:0.32948482 
1 1:0.22413991 2:0.67011781 3:0.3940334 4:0.043096456 5:0.33966478 6:0.6214936 
1 1:0.87803898 2:0.51798321 3:0.32785526 4:0.3032424 5:0.77503399 6:0.46998877 
1 1:0.43588924 2:0.25346968 3:0.18308306 4:0.48199483 5:0.65365936 6:0.9928954 
1 1:0.33309329 2:0.19515276 3:0.5735388 4:0.1105225 5:0.14624247 6:0.59161193 
1 1:0.085091736 2:0.21644906 3:0.49334731 4:0.55558119 5:0.52003996 6:0.31643541 
1 1:0.37726291 2:0.22257816 3:0.40046212 4:0.39972996 5:0.2999792 6:0.76762248 
1 1:0.44097322 2:0.71242464 3:0.77399957 4:0.9735146 5:0.25571579 6:0.21899903 
1 1:0.45524933 2:0.55273451 3:0.12823136 4:0.43797372 5:0.86817931 6:0.92901433 
1 1:0.6751413 2:0.4247372 3:0.063806129 4:0.25649518 5:0.5687142 6:0.66226117 
1 1:0.62483006 2:0.77674847 3:0.2466944 4:0.6867469 5:0.55022736 6:0.8096168 
1 1:0.7450882 2:0.63184478 3:0.56894221 4:0.5998825 5:0.34170283 6:0.29571476 
1 1:0.44028673 2:0.053979387 3:0.37066911 4:0.25651023 5:0.51248913 6:0.33735112 
1 1:0.53732388 2:0.29423265 3:0.20412106 4:0.6082455 5:0.60911098 6:0.89745644 
1 1:0.70024276 2:0.66661616 3:0.3025768 4:0.30097554 5:0.91781696 6:0.20580628 
1 1:0.77665436 2:0.76055942 3:0.67077917 4:0.36842398 5:0.75877585 6:0.44322781 
1 1:0.53890084 2:0.13923486 3:0.65909781 4:0.75771995 5:0.35535706 6:0.12059854 
1 1:0.26765619 2:0.35108796 3:0.71566313 4:0.54282389 5:0.45456173 6:0.78958622 
1 1:0.58414452 2:0.70745697 3:0.66745844 4:0.75869599 5:0.42536501 6:0.65561805 
1 1:0.74740834 2:0.28384094 3:0.48083443 4:0.12911942 5:0.30915659 6:0.34205846 
1 1:0.37503288 2:0.69227012 3:0.22569825 4:0.80641613 5:0.39001728 6:0.062385522 
1 1:0.62604337 2:0.19250032 3:0.74465363 4:0.88637174 5:0.82557448 6:0.34195608 
1 1:0.58108765 2:0.18583828 3:0.31577388 4:0.60747061 5:0.20531721 6:0.59279992 
1 1:0.33887064 2:0.28741481 3:0.85414011 4:0.10525136 5:0.75769141 6:0.69632789 
1 1:0.77647285 2:0.6270295 3:0.62659051 4:0.90589732 5:0.29948145 6:0.17966936 
1 1:0.63033732 2:0.74030078 3:0.54859281 4:0.24396858 5:0.52110684 6:0.92097416 
1 1:0.86952119 2:0.39361649 3:0.73743663 4:0.57795661 5:0.37461333 6:0.48293727 
1 1:0.83873347 2:0.71710948 3:0.53998807 4:0.17416396 5:0.45661506 6:0.13318143 
1 1:0.21349451 2:0.41926668 3:0.12207666 4:0.36500774 5:0.41766444 6:0.43276669 
1 1:0.11204563 2:0.2736249 3:0.57033952 4:0.34999421 5:0.6888396 6:0.10554464 
1 1:0.51330331 2:0.17498114 3:0.38448848 4:0.56669971 5:0.50867706 6:0.21122613 
1 1:0.26974213 2:0.75054566 3:0.50700757 4:0.89019524 5:0.31433396 6:0.065718381 
1 1:0.88283141 2:0.62141795 3:0.5684644 4:0.77427554 5:0.21752111 6:0.23144547 
1 1:0.74203936 2:0.18312308 3:0.50968846 4:0.56566727 5:0.34591128 6:0.47624311 
1 1:0.70839388 2:0.71028719 3:0.6030048 4:0.16197003 5:0.51394526 6:0.63920907 
1 1:0.43016882 2:0.76776721 3:0.32193978 4:0.15295164 5:0.8874061 6:0.96725889 
1 1:0.35987208 2:0.67397523 3:0.84130181 4:0.22035344 5:0.14130284 6:0.46403592 
1 1:0.35579168 2:0.78595297 3:0.72165577 4:0.21627151 5:0.31882722 6:0.17282342 
1 1:0.86762619 2:0.62212172 3:0.64250423 4:0.90192143 5:0.52239226 6:0.80650949 
1 1:0.27529827 2:0.48021436 3:0.19672716 4:0.0046336996 5:0.36859752 6:0.13305164 
1 1:0.71875851 2:0.4639704 3:0.15740756 4:0.84818147 5:0.60307112 6:0.68209523 
1 1:0.23705843 2:0.18533592 3:0.42868015 4:0.47040872 5:0.55083192 6:0.90413741 
1 1:0.8123214 2:0.58902271 3:0.80847411 4:0.73836244 5:0.42003397 6:0.83318664 
1 1:0.58393426 2:0.8451217 3:0.49574625 4:0.41134483 5:0.69030948 6:0.92258427 
1 1:0.65199594 2:0.7532709 3:0.58155921 4:0.24034122 5:0.52742356 6:0.46621243 
1 1:0.37008715 2:0.051793547 3:0.52774164 4:0.36979123 5:0.58817241 6:0.48298978 
1 1:0.6502981 2:0.478659 3:0.09743876 4:0.89646912 5:0.51752964 6:0.85280673 
1 1:0.89106401 2:0.42359417 3:0.42106216 4:0.46006994 5:0.27969379 6:0.011679207 
1 1:0.69608999 2:0.14103542 3:0.54324374 4:0.54746645 5:0.42966909 6:0.9698298 
1 1:0.46064813 2:0.80462389 3:0.55043453 4:0.32696223 5:0.50115484 6:0.96956749 
1 1:0.33885599 2:0.4251701 3:0.85284226 4:0.75760165 5:0.28148599 6:0.64795327 
1 1:0.75692053 2:0.25759744 3:0.76077772 4:0.14959678 5:0.52405884 6:0.4368915 
1 1:0.58320732 2:0.21533106 3:0.098877857 4:0.34476424 5:0.48328315 6:0.50245419 
1 1:0.32264328 2:0.67261331 3:0.75368469 4:0.30634853 5:0.83402412 6:0.97411592 
1 1:0.56222171 2:0.78695207 3:0.24160467 4:0.28529381 5:0.53963366 6:0.26878606 
1 1:0.36655392 2:0.8126118 3:0.41071088 4:0.93055324 5:0.42151864 6:0.30763493 
1 1:0.81158717 2:0.39643346 3:0.47997959 4:0.89432042 5:0.40424152 6:0.79768705 
1 1:0.33684793 2:0.45337017 3:0.91923947 4:0.74639371 5:0.2714211 6:0.58897925 
1 1:0.78317179 2:0.23005026 3:0.59186244 4:0.45949025 5:0.7959139 6:0.39638627 
1 1:0.40585632 2:0.2753933 3:0.62784261 4:0.64578463 5:0.39641829 6:0.53011234 
1 1:0.18713476 2:0.28659052 3:0.35583176 4:0.16946937 5:0.43302377 6:0.79240927 
1 1:0.16537397 2:0.25330398 3:0.58516232 4:0.4905525 5:0.2934703 6:0.21557625 
1 1:0.74516876 2:0.39948469 3:0.84860962 4:0.6341961 5:0.62301938 6:0.68554955 
1 1:0.11427891 2:0.28324066 3:0.64161671 4:0.68149113 5:0.46728795 6:0.040727145 
1 1:0.49025784 2:0.12465274 3:0.68331206 4:0.14421619 5:0.40349379 6:0.4646012 
1 1:0.57439562 2:0.76575323 3:0.22000291 4:0.55386364 5:0.64454239 6:0.12900252 
1 1:0.35533686 2:0.17257007 3:0.40430068 4:0.17074594 5:0.61391741 6:0.7462284 
1 1:0.61668505 2:0.1358505 3:0.6557198 4:0.32828252 5:0.45053776 6:0.84061683 
1 1:0.64883169 2:0.61433044 3:0.70940978 4:0.76478742 5:0.24273829 6:0.79136645 
1 1:0.24367536 2:0.52624543 3:0.23113583 4:0.038731281 5:0.50282443 6:0.84591259 
1 1:0.75416864 2:0.48240863 3:0.24787375 4:0.1402205 5:0.1861639 6:0.27245438 
1 1:0.28777804 2:0.25065856 3:0.39546502 4:0.6159637 5:0.22363435 6:0.44222764 
1 1:0.81865674 2:0.19911152 3:0.66464996 4:0.76457466 5:0.54872188 6:0.28912284 
1 1:0.86553089 2:0.43834472 3:0.19162848 4:0.76299475 5:0.36759785 6:0.5422065 
1 1:0.53378385 2:0.78791345 3:0.76892238 4:0.61182038 5:0.42545294 6:0.21412819 
1 1:0.84954717 2:0.50855198 3:0.46398142 4:0.44839376 5:0.69169862 6:0.53542416 
1 1:0.19208546 2:0.63568277 3:0.57042812 4:0.40179299 5:0.87887284 6:0.91661668 
1 1:0.73625055 2:0.41870966 3:0.88232059 4:0.69176879 5:0.74011397 6:0.5893131 
1 1:0.088807689 2:0.36263207 3:0.48637903 4:0.28500755 5:0.34040827 6:0.94557509 
1 1:0.13803632 2:0.58106645 3:0.54165581 4:0.083005857 5:0.866965 6:0.64424426 
1 1:0.46140992 2:0.77296636 3:0.60362215 4:0.1717538 5:0.39782669 6:0.67567322 
1 1:0.21151456 2:0.32057325 3:0.59624734 4:0.72048649 5:0.31697731 6:0.49915906 
1 1:0.59387548 2:0.69871917 3:0.56798902 4:0.053651692 5:0.39235682 6:0.25993302 
1 1:0.32798359 2:0.44443269 3:0.92671514 4:0.25888056 5:0.58627013 6:0.41832704 
1 1:0.63889324 2:0.11525914 3:0.44127854 4:0.26497283 5:0.68714303 6:0.28333025 
1 1:0.88738964 2:0.38305751 3:0.42723256 4:0.59051655 5:0.94806574 6:0.20525758 
1 1:0.84529242 2:0.41796881 3:0.19537768 4:0.46611256 5:0.44875372 6:0.91106348 
1 1:0.088371568 2:0.50508458 3:0.58424953 4:0.47151877 5:0.16648294 6:0.29788948 
1 1:0.69242536 2:0.70578322 3:0.22648306 4:0.63639696 5:0.18762967 6:0.26025417 
1 1:0.26977784 2:0.78446962 3:0.37081395 4:0.21501456 5:0.6086865 6:0.34738328 
1 1:0.71205451 2:0.83839297 3:0.52613915 4:0.71440221 5:0.45493701 6:0.57228528 
1 1:0.80495789 2:0.52534682 3:0.61683786 4:0.26117545 5:0.42306658 6:0.14873022 
1 1:0.33797474 2:0.19884318 3:0.68680227 4:0.45549879 5:0.28145206 6:0.82343367 
1 1:0.77171086 2:0.44004018 3:0.17410725 4:0.090791864 5:0.54914842 6:0.52052807 
1 1:0.062515746 2:0.41795541 3:0.41186522 4:0.73959867 5:0.30799564 6:0.060555124 
1 1:0.3384663 2:0.65783128 3:0.29877895 4:0.82720954 5:0.85019149 6:0.7048588 
1 1:0.29304633 2:0.74610778 3:0.46326766 4:0.31449054 5:0.32020421 6:0.14886998 
1 1:0.65262545 2:0.61585936 3:0.87453846 4:0.7171535 5:0.64354847 6:0.39145498 
1 1:0.10750611 2:0.58242026 3:0.29733445 4:0.44222521 5:0.50162935 6:0.83048476 
1 1:0.14316403 2:0.37116237 3:0.19455783 4:0.53529022 5:0.6218222 6:0.45252234 
1 1:0.52821511 2:0.20468503 3:0.66227034 4:0.57203311 5:0.17089776 6:0.91804334 
1 1:0.67572523 2:0.15178748 3:0.34904785 4:0.15562292 5:0.7790732 6:0.028542796 
1 1:0.71733369 2:0.68928879 3:0.29478467 4:0.054847221 5:0.23377911 6:0.78416864 
1 1:0.78104476 2:0.51332741 3:0.1140134 4:0.20567396 5:0.60123287 6:0.61459858 
1 1:0.53037818 2:0.73916249 3:0.46743288 4:0.052732489 5:0.62620234 6:0.2463339 
1 1:0.62790309 2:0.34340411 3:0.21522315 4:0.60440778 5:0.77455809 6:0.68159898 
1 1:0.30489954 2:0.20603998 3:0.69491643 4:0.23201026 5:0.55391182 6:0.88052555 
1 1:0.39197722 2:0.61490336 3:0.17958869 4:0.05288703 5:0.5209274 6:0.33539119 
1 1:0.70448063 2:0.57060557 3:0.81867941 4:0.6569608 5:0.6190285 6:0.7692262 
1 1:0.82061305 2:0.35536224 3:0.85134349 4:0.55509799 5:0.48568188 6:0.28909956 
1 1:0.69299533 2:0.38040594 3:0.1355073 4:0.90795295 5:0.56729374 6:0.58891608 
1 1:0.69037215 2:0.40367104 3:0.19544681 4:0.63350498 5:0.91947308 6:0.74953038 
1 1:0.32001923 2:0.61491125 3:0.089112735 4:0.58298067 5:0.57922589 6:0.55592462 
1 1:0.46723134 2:0.095777667 3:0.55987636 4:0.77242439 5:0.81740377 6:0.82789749 
1 1:0.91300718 2:0.56753533 3:0.45218602 4:0.60854866 5:0.55828356 6:0.3458471 
1 1:0.2196215 2:0.67253084 3:0.71855887 4:0.052993382 5:0.43720144 6:0.3479044 
1 1:0.5594029 2:0.39130555 3:0.06526225 4:0.21449325 5:0.37588065 6:0.26515979 
1 1:0.58272689 2:0.76770485 3:0.48390851 4:0.93851505 5:0.45174935 6:0.068791627 
1 1:0.89553373 2:0.55168824 3:0.3622171 4:0.22959643 5:0.32620721 6:0.12497393 
1 1:0.11266032 2:0.63160183 3:0.39778902 4:0.86463046 5:0.51615527 6:0.38833094 
1 1:0.62584353 2:0.27820977 3:0.7854077 4:0.014408795 5:0.43223347 6:0.34280947 
1 1:0.22353565 2:0.66725858 3:0.47414067 4:0.94370063 5:0.061163844 6:0.13363484 
1 1:0.5171415 2:0.47702583 3:0.91546599 4:0.8260281 5:0.52595353 6:0.54841545 
1 1:0.90189936 2:0.53512923 3:0.75997897 4:0.56915602 5:0.35911613 6:0.25033875 
1 1:0.55986331 2:0.12037051 3:0.37606384 4:0.75338629 5:0.40111513 6:0.57861774 
1 1:0.61029404 2:0.79462622 3:0.3354878 4:0.60462342 5:0.086475251 6:0.61914564 
1 1:0.78619879 2:0.4766278 3:0.75530072 4:0.0091431977 5:0.5082655 6:0.29912186 
1 1:0.52997628 2:0.60778356 3:0.18493612 4:0.93847984 5:0.36561663 6:0.84836485 
1 1:0.46447324 2:0.29997941 3:0.11276569 4:0.91994908 5:0.64805124 6:0.68906499 
1 1:0.30497933 2:0.73986774 3:0.38576608 4:0.22130467 5:0.13299297 6:0.16786164 
1 1:0.76504422 2:0.60984897 3:0.274419 4:0.57680416 5:0.30863239 6:0.23471025 
1 1:0.081414089 2:0.65981861 3:0.57507819 4:0.3236352 5:0.41465681 6:0.34509975 
1 1:0.91747156 2:0.57965273 3:0.66162276 4:0.38328331 5:0.64159594 6:0.75128086 
1 1:0.65145301 2:0.82754575 3:0.49882292 4:0.11057188 5:0.66542161 6:0.77936604 
1 1:0.63548846 2:0.683347 3:0.55689011 4:0.39654365 5:0.89310388 6:0.047564079 
1 1:0.054398379 2:0.33795308 3:0.52410074 4:0.31723486 5:0.44171721 6:0.68671487 
1 1:0.72185609 2:0.26353853 3:0.7916165 4:0.19569998 5:0.50266417 6:0.93864372 
1 1:0.25377915 2:0.40055725 3:0.17890318 4:0.15079675 5:0.40194094 6:0.41140934 
1 1:0.69961869 2:0.65734641 3:0.74485703 4:0.38793433 5:0.79800636 6:0.41944768 
1 1:0.45536177 2:0.74889698 3:0.22628312 4:0.07444684 5:0.75188023 6:0.32076985 
1 1:0.14857569 2:0.54566626 3:0.18892414 4:0.47359514 5:0.42060009 6:0.40872954 
1 1:0.14466035 2:0.73237539 3:0.42182143 4:0.39567837 5:0.65375836 6:0.28947263 
1 1:0.94293791 2:0.41012517 3:0.41635556 4:0.47006496 5:0.38748512 6:0.68328719 
1 1:0.20954263 2:0.62659965 3:0.31814763 4:0.59792185 5:0.67528731 6:0.35140089 
1 1:0.19521784 2:0.54510097 3:0.80293516 4:0.11241422 5:0.44097257 6:0.67423438 
1 1:0.64830917 2:0.15925526 3:0.44996589 4:0.34654432 5:0.40392423 6:0.80063878 
1 1:0.30869055 2:0.59619169 3:0.11903407 4:0.34468989 5:0.71025274 6:0.74062009 
1 1:0.64904733 2:0.62773134 3:0.16037382 4:0.68915596 5:0.39065596 6:0.79005712 
1 1:0.60835065 2:0.6927721 3:0.87260855 4:0.5381507 5:0.61961549 6:0.1645867 
1 1:0.21261803 2:0.53459871 3:0.13057494 4:0.10747247 5:0.60041525 6:0.16012881 
1 1:0.76174524 2:0.27351121 3:0.62382616 4:0.73392655 5:0.40791041 6:0.58706039 
1 1:0.34255806 2:0.15521845 3:0.49894937 4:0.43166007 5:0.24997677 6:0.39599536 
1 1:0.50889951 2:0.11863395 3:0.58039449 4:0.38186045 5:0.5053854 6:0.77688511 
1 1:0.099569316 2:0.60250774 3:0.42833396 4:0.83220353 5:0.66527303 6:0.33345861 
1 1:0.088133319 2:0.57200176 3:0.43666215 4:0.54036821 5:0.57297044 6:0.24956873 
1 1:0.33357792 2:0.73859612 3:0.41367485 4:0.52744319 5:0.56365315 6:0.23619674 
1 1:0.42466827 2:0.2274399 3:0.21704731 4:0.53450837 5:0.79888917 6:0.92779635 
1 1:0.49666324 2:0.1203914 3:0.59263435 4:0.41536813 5:0.3488231 6:0.68413614 
1 1:0.23957311 2:0.64316412 3:0.78889856 4:0.72230058 5:0.4894936 6:0.18779686 
1 1:0.44602016 2:0.18044297 3:0.30079871 4:0.50924942 5:0.46151793 6:0.36726132 
1 1:0.15371989 2:0.40353258 3:0.54796074 4:0.7702305 5:0.39059271 6:0.14117198 
1 1:0.29953341 2:0.42991863 3:0.1696775 4:0.17016094 5:0.70977904 6:0.90872533 
1 1:0.26001187 2:0.2522647 3:0.69160736 4:0.13410627 5:0.58091199 6:0.21019819 
1 1:0.18259997 2:0.36417899 3:0.67559053 4:0.95050383 5:0.42828209 6:0.427456 
1 1:0.49424248 2:0.70599152 3:0.66837613 4:0.54048826 5:0.65331429 6:0.049507214 
1 1:0.42666531 2:0.56125612 3:0.14093741 4:0.10815163 5:0.81662918 6:0.7945117 
1 1:0.14077868 2:0.65290714 3:0.43824527 4:0.038219611 5:0.69949812 6:0.051657711 
1 1:0.78104093 2:0.67492663 3:0.63261559 4:0.16018594 5:0.61830777 6:0.93781706 
1 1:0.73727391 2:0.16258457 3:0.48814164 4:0.45703492 5:0.69411756 6:0.77786749 
1 1:0.72768459 2:0.7922167 3:0.55368629 4:0.77425741 5:0.69525224 6:0.51012708 
1 1:0.46956183 2:0.057898287 3:0.48755608 4:0.068307825 5:0.66521088 6:0.52303358 
1 1:0.14734252 2:0.45827218 3:0.42927699 4:0.22557667 5:0.76777656 6:0.87891358 
1 1:0.78933919 2:0.66940064 3:0.50849638 4:0.94928059 5:0.43791958 6:0.21276357 
1 1:0.47470291 2:0.6573609 3:0.86746966 4:0.48114442 5:0.24686144 6:0.35523882 
1 1:0.8392419 2:0.31955437 3:0.57872224 4:0.46013356 5:0.11435005 6:0.99004743 
1 1:0.34363237 2:0.76656639 3:0.47727111 4:0.65208876 5:0.4318401 6:0.35822965 
1 1:0.52157593 2:0.73789253 3:0.34032425 4:0.436757 5:0.57670937 6:0.096579033 
1 1:0.40576204 2:0.15370765 3:0.47301115 4:0.53603935 5:0.15736514 6:0.96614015 
1 1:0.32628838 2:0.66388634 3:0.52099963 4:0.70580356 5:0.70278598 6:0.19832245 
1 1:0.74761345 2:0.81491008 3:0.4632635 4:0.24063838 5:0.33292854 6:0.57549834 
1 1:0.75684154 2:0.67506651 3:0.43820514 4:0.12782224 5:0.26672718 6:0.69518366 
1 1:0.38696121 2:0.6822278 3:0.6362083 4:0.89546624 5:0.32773785 6:0.78101604 
1 1:0.35425868 2:0.2605964 3:0.73085831 4:0.53536206 5:0.55202731 6:0.66635119 
1 1:0.46180441 2:0.1219349 3:0.50931718 4:0.18462493 5:0.82132844 6:0.42806423 
1 1:0.33357143 2:0.37775463 3:0.86118424 4:0.22093647 5:0.63632145 6:0.097679107 
1 1:0.7471687 2:0.29639169 3:0.16899026 4:0.34899433 5:0.21035549 6:0.27765867 
1 1:0.30633398 2:0.51669155 3:0.11215771 4:0.546422 5:0.71899892 6:0.047929059 
1 1:0.60036423 2:0.80805507 3:0.41721589 4:0.645282 5:0.61567119 6:0.83290633 
0.5142941839875834 1:0.18695766 2:0.69534425 3:0.69897038 4:0.25307056 5:0.63643032 6:0.97342101 
1 1:0.43621349 2:0.21536992 3:0.27650349 4:0.10444498 5:0.50610194 6:0.16119256 
1 1:0.221547 2:0.32424925 3:0.2959708 4:0.90205313 5:0.2333866 6:0.99531164 
0.8877421459687104 1:0.22487676 2:0.40621132 3:0.8448548 4:0.71940694 5:0.12369884 6:0.79543204 
1 1:0.34963497 2:0.74613398 3:0.58235549 4:0.77765873 5:0.06625413 6:0.32076115 
1 1:0.23572 2:0.75750329 3:0.56079975 4:0.98382876 5:0.4608051 6:0.22512813 
1 1:0.53809754 2:0.78028457 3:0.64626704 4:0.32911258 5:0.40237261 6:0.17320124 
1 1:0.36324932 2:0.5303352 3:0.89473986 4:0.99393359 5:0.30258876 6:0.63930153 
1 1:0.48975644 2:0.74338504 3:0.47077551 4:0.61043999 5:0.24784128 6:0.23072958 
1 1:0.780945 2:0.17405731 3:0.45342188 4:0.59459804 5:0.85173058 6:0.25475082 
1 1:0.92791865 2:0.36394125 3:0.317375 4:0.69552826 5:0.61679096 6:0.49860308 
1 1:0.4538344 2:0.75178456 3:0.71289817 4:0.36098809 5:0.56011379 6:0.23317889 
1 1:0.6021069 2:0.10720551 3:0.59428344 4:0.25299493 5:0.34466582 6:0.46920716 
1 1:0.18121564 2:0.62673309 3:0.3286064 4:0.49043552 5:0.13210582 6:0.60933682 
1 1:0.66346562 2:0.28233271 3:0.66702742 4:0.32600216 5:0.69565515 6:0.66663298 
1 1:0.64853325 2:0.48832771 3:0.80164216 4:0.60751115 5:0.27603303 6:0.75326637 
1 1:0.94949631 2:0.35097155 3:0.63007525 4:0.61924892 5:0.43075364 6:0.38812541 
1 1:0.70182766 2:0.66232036 3:0.2733985 4:0.6817367 5:0.31798718 6:0.14447853 
1 1:0.094766218 2:0.59744056 3:0.30021582 4:0.42021676 5:0.33092392 6:0.25356007 
1 1:0.87244779 2:0.57934729 3:0.62222106 4:0.58112724 5:0.5029729 6:0.21325613 
1 1:0.78803671 2:0.76532931 3:0.4308546 4:0.15210175 5:0.58496524 6:0.25123215 
1 1:0.23828846 2:0.37822173 3:0.22466854 4:0.05131303 5:0.24020026 6:0.45598728 
1 1:0.6702806 2:0.65500687 3:0.28952173 4:0.46914646 5:0.34135134 6:0.22492357 
1 1:0.4584259 2:0.40732316 3:0.091218101 4:0.29813075 5:0.43035706 6:0.4537244 
1 1:0.66378348 2:0.37339664 3:0.084858996 4:0.7148588 5:0.26158607 6:0.28192951 
1 1:0.61301572 2:0.65798666 3:0.84713107 4:0.38166808 5:0.090801654 6:0.55211486 
1 1:0.48506351 2:0.68131648 3:0.83199931 4:0.52885542 5:0.048111709 6:0.7076209 
1 1:0.52583941 2:0.86119416 3:0.42674505 4:0.58538604 5:0.58913698 6:0.16292064 
1 1:0.51446577 2:0.72874951 3:0.31445779 4:0.046615436 5:0.6691689 6:0.1712876 
1 1:0.78307211 2:0.44536667 3:0.14279432 4:0.8316123 5:0.40741907 6:0.36961391 
1 1:0.82988275 2:0.70007201 3:0.52624651 4:0.98225135 5:0.65661515 6:0.32008952 
1 1:0.51075937 2:0.42120806 3:0.85039664 4:0.1063105 5:0.37836104 6:0.59647221 
1 1:0.5099825 2:0.69521559 3:0.37911337 4:0.28509895 5:0.28868525 6:0.4294285 
1 1:0.16656375 2:0.58926388 3:0.68645979 4:0.21328615 5:0.48012817 6:0.5180701 
1 1:0.11628186 2:0.6358091 3:0.65075084 4:0.50878638 5:0.2074133 6:0.77324629 
1 1:0.59715336 2:0.13709767 3:0.72766106 4:0.12332577 5:0.63791936 6:0.83071 
1 1:0.84059332 2:0.38311539 3:0.5036926 4:0.17042648 5:0.23318182 6:0.44119347 
1 1:0.53989818 2:0.23426487 3:0.7210954 4:0.86441229 5:0.73972439 6:0.22198259 
1 1:0.37964776 2:0.75800543 3:0.61064836 4:0.19931815 5:0.75045323 6:0.93056151 
1 1:0.42306499 2:0.12334765 3:0.47347646 4:0.42368816 5:0.92331063 6:0.6270449 
1 1:0.51313664 2:0.47045185 3:0.97617358 4:0.57169693 5:0.41384241 6:0.11500144 
1 1:0.52096239 2:0.71366034 3:0.208242 4:0.71430224 5:0.6711012 6:0.84297303 
1 1:0.53734914 2:0.27872825 3:0.88180688 4:0.22467372 5:0.53245262 6:0.78442455 
1 1:0.86477137 2:0.24107809 3:0.45222831 4:0.7184207 5:0.61961693 6:0.26338015 
1 1:0.62500003 2:0.75114195 3:0.73493902 4:0.71475144 5:0.38089792 6:0.4070861 
1 1:0.38501008 2:0.51425431 3:0.071549364 4:0.47582047 5:0.50312883 6:0.24256839 
1 1:0.59179453 2:0.13424742 3:0.34894344 4:0.60026727 5:0.54941611 6:0.8721513 
1 1:0.5541753 2:0.57815482 3:0.76714037 4:0.20479406 5:0.56762149 6:0.49156833 
1 1:0.41883779 2:0.22071245 3:0.78878353 4:0.90892793 5:0.32222782 6:0.61796757 
1 1:0.8771346 2:0.26913982 3:0.5691349 4:0.68744894 5:0.74636076 6:0.35274454 
1 1:0.53056356 2:0.19376044 3:0.2407784 4:0.3708622 5:0.59993927 6:0.099372472 
1 1:0.75715196 2:0.76144154 3:0.55402253 4:0.89060985 5:0.7041025 6:0.27370675 
1 1:0.29685227 2:0.44612277 3:0.21410532 4:0.61603162 5:0.41369307 6:0.18312101 
1 1:0.49175988 2:0.62531373 3:0.18869638 4:0.95172981 5:0.33896718 6:0.014762689 
1 1:0.54817584 2:0.091281007 3:0.33795021 4:0.40630871 5:0.50629132 6:0.51754641 
1 1:0.58597061 2:0.83972495 3:0.68410366 4:0.6041068 5:0.50893473 6:0.34801479 
1 1:0.64847167 2:0.10380638 3:0.37403694 4:0.40751114 5:0.51390763 6:0.76929623 
1 1:0.72113512 2:0.33073944 3:0.14224868 4:0.92080963 5:0.248246 6:0.21646074 
1 1:0.3862535 2:0.36534659 3:0.046484936 4:0.53214789 5:0.39282381 6:0.58561539 
1 1:0.71527951 2:0.75989685 3:0.55463693 4:0.74294586 5:0.43383045 6:0.81659607 
1 1:0.37254041 2:0.6790252 3:0.5409266 4:0.028974983 5:0.82764748 6:0.885992 
1 1:0.15190092 2:0.6984632 3:0.57650634 4:0.41785284 5:0.83378145 6:0.65402054 
1 1:0.20281548 2:0.35236563 3:0.72458968 4:0.0045627818 5:0.68758421 6:0.33213419 
1 1:0.10130812 2:0.57949667 3:0.61190555 4:0.098677242 5:0.42426388 6:0.82667711 
1 1:0.41769786 2:0.51813413 3:0.85072292 4:0.82668877 5:0.26324511 6:0.60089225 
1 1:0.81103172 2:0.17054619 3:0.44924736 4:0.55591558 5:0.61422642 6:0.27395011 
1 1:0.39864221 2:0.57781996 3:0.82980514 4:0.79169041 5:0.83025242 6:0.32630362 
1 1:0.60501292 2:0.54733694 3:0.13748052 4:0.46608909 5:0.22571667 6:0.11489806 
1 1:0.32529927 2:0.23379332 3:0.22454157 4:0.32902446 5:0.47407769 6:0.21253709 
1 1:0.8774423 2:0.64609278 3:0.69170817 4:0.4024347 5:0.48281286 6:0.2293723 
1 1:0.4413061 2:0.79663438 3:0.28349223 4:0.92724914 5:0.52474596 6:0.27969527 
1 1:0.5193621 2:0.091243646 3:0.51002209 4:0.93438689 5:0.46884428 6:0.48599409 
1 1:0.6251266 2:0.75176033 3:0.34184499 4:0.14243869 5:0.85974839 6:0.94277579 
1 1:0.46065225 2:0.70240907 3:0.73404776 4:0.022788855 5:0.9040061 6:0.19850495 
1 1:0.52815452 2:0.76593128 3:0.42336348 4:0.69816722 5:0.62213226 6:0.029943861 
1 1:0.12645393 2:0.46866674 3:0.2474727 4:0.74184144 5:0.19070489 6:0.73392186 
1 1:0.59320386 2:0.10775748 3:0.7321078 4:0.73054443 5:0.25772764 6:0.59390614 
1 1:0.17270786 2:0.72417127 3:0.51509206 4:0.45798623 5:0.23559961 6:0.29827554 
1 1:0.23987051 2:0.58161391 3:0.71353279 4:0.91878792 5:0.44921321 6:0.75742348 
1 1:0.14110268 2:0.54387148 3:0.43129453 4:0.32043986 5:0.43606419 6:0.59471489 
1 1:0.74969698 2:0.21115229 3:0.42203699 4:0.37208456 5:0.21393351 6:0.55343354 
1 1:0.68048631 2:0.2493959 3:0.3090291 4:0.28248221 5:0.37237202 6:0.93063387 
1 1:0.4623178 2:0.13380588 3:0.51783393 4:0.844945 5:0.33020254 6:0.6562377 
1 1:0.48581133 2:0.72498001 3:0.45526713 4:0.63953373 5:0.28939241 6:0.60959567 
1 1:0.14909348 2:0.37159289 3:0.35438862 4:0.55536266 5:0.53529781 6:0.72962324 
1 1:0.14308666 2:0.2615903 3:0.67746062 4:0.30355831 5:0.76299196 6:0.87712509 
1 1:0.37901201 2:0.14345147 3:0.65815335 4:0.72619001 5:0.55128883 6:0.96841192 
1 1:0.55608715 2:0.83155707 3:0.55596721 4:0.43031914 5:0.45923931 6:0.50570954 
1 1:0.34754681 2:0.11429176 3:0.71831988 4:0.29543329 5:0.38619075 6:0.7420829 
1 1:0.43069621 2:0.51001014 3:0.028783921 4:0.32774576 5:0.54152738 6:0.58354155 
1 1:0.84157668 2:0.57503114 3:0.79773105 4:0.6417814 5:0.70129426 6:0.66570596 
1 1:0.034551839 2:0.50616011 3:0.54175454 4:0.33190465 5:0.36836528 6:0.21826279 
1 1:0.75377479 2:0.14567355 3:0.59473364 4:0.5960871 5:0.83596953 6:0.43015706 
1 1:0.217979 2:0.39788062 3:0.85734601 4:0.86042385 5:0.50005991 6:0.85064025 
1 1:0.11311157 2:0.33497837 3:0.54120098 4:0.27718508 5:0.58467711 6:0.18219979 
1 1:0.56325092 2:0.64412418 3:0.15712313 4:0.51682191 5:0.79375662 6:0.46227348 
1 1:0.62963454 2:0.71135431 3:0.37607259 4:0.21808631 5:0.53045222 6:0.84110496 
1 1:0.56904665 2:0.27043403 3:0.89234249 4:0.86763901 5:0.6208988 6:0.41573181 
1 1:0.91516067 2:0.34327306 3:0.54185438 4:0.27230854 5:0.21933714 6:0.34150347 
1 1:0.66873566 2:0.57280478 3:0.25734966 4:0.68386099 5:0.35135188 6:0.78757926 
1 1:0.43702507 2:0.14180203 3:0.71176249 4:0.6956245 5:0.47906327 6:0.74545178 
1 1:0.71071965 2:0.47258362 3:0.17333143 4:0.82200617 5:0.43330064 6:0.70824997 
1 1:0.65235594 2:0.66507725 3:0.82013715 4:0.62976679 5:0.22962883 6:0.50700493 
1 1:0.45522771 2:0.59002843 3:0.90741902 4:0.087161644 5:0.4696134 6:0.66627785 
1 1:0.33518167 2:0.23671477 3:0.38301066 4:0.44336402 5:0.69190411 6:0.2504777 
1 1:0.63930652 2:0.39628522 3:0.81806139 4:0.61697662 5:0.18333746 6:0.81257598 
1 1:0.64950939 2:0.58750932 3:0.16652588 4:0.96993613 5:0.57419295 6:0.44641534 
1 1:0.69620551 2:0.37157231 3:0.082103218 4:0.35144207 5:0.40770176 6:0.23758399 
1 1:0.91174664 2:0.39649467 3:0.63192084 4:0.99800258 5:0.29962779 6:0.38785477 
1 1:0.85684009 2:0.28943058 3:0.57936066 4:0.49791908 5:0.81739159 6:0.36753569 
1 1:0.54411327 2:0.54383429 3:0.15408955 4:0.29983057 5:0.89253483 6:0.2402946 
1 1:0.13178389 2:0.62615909 3:0.62423624 4:0.58138072 5:0.66684256 6:0.30824903 
1 1:0.47662208 2:0.73260927 3:0.29838956 4:0.47460215 5:0.33398656 6:0.80206192 
1 1:0.49111954 2:0.37719377 3:0.10678895 4:0.13153808 5:0.37192543 6:0.20677489 
1 1:0.2145797 2:0.6347898 3:0.27052039 4:0.76544311 5:0.27708332 6:0.21500812 
1 1:0.29269865 2:0.19724171 3:0.70378418 4:0.069326876 5:0.46720993 6:0.23024747 
1 1:0.22970967 2:0.25698898 3:0.60654342 4:0.4161541 5:0.36360141 6:0.96647809 
1 1:0.56316118 2:0.29116414 3:0.84684223 4:0.9716636 5:0.49978032 6:0.80874401 
1 1:0.59524175 2:0.10345961 3:0.31869256 4:0.41816551 5:0.47416417 6:0.83730441 
1 1:0.64440716 2:0.63389257 3:0.099995159 4:0.48904517 5:0.34396453 6:0.43084085 
1 1:0.6874457 2:0.62726105 3:0.71809314 4:0.83753413 5:0.43011916 6:0.84590397 
1 1:0.76569439 2:0.22129019 3:0.50386247 4:0.38099006 5:0.46361032 6:0.9140398 
1 1:0.16859489 2:0.37821366 3:0.73897389 4:0.017978253 5:0.42779504 6:0.56301396 
1 1:0.37251966 2:0.25996637 3:0.070480825 4:0.43134376 5:0.58703316 6:0.36980324 
1 1:0.85924381 2:0.43216202 3:0.52103494 4:0.21192008 5:0.65865101 6:0.7673444 
1 1:0.84857376 2:0.63600426 3:0.28426514 4:0.25873744 5:0.28142381 6:0.62803199 
1 1:0.40669966 2:0.33136554 3:0.14222459 4:0.69297748 5:0.5685226 6:0.12660916 
1 1:0.41799954 2:0.18698957 3:0.48831095 4:0.14191094 5:0.074566712 6:0.02619957 
1 1:0.41439548 2:0.18646985 3:0.76896605 4:0.76222451 5:0.77686501 6:0.53237471 
1 1:0.35641221 2:0.21555575 3:0.73803091 4:0.67776256 5:0.57497083 6:0.59931497 
1 1:0.50958318 2:0.4916491 3:0.07397848 4:0.74716108 5:0.42857659 6:0.48983354 
1 1:0.89450933 2:0.4465253 3:0.55757612 4:0.016350729 5:0.22779085 6:0.49380775 
1 1:0.39677394 2:0.63562916 3:0.23585353 4:0.94949479 5:0.31852076 6:0.67468986 
1 1:0.90313072 2:0.41933523 3:0.43921002 4:0.2706604 5:0.68340299 6:0.19125577 
1 1:0.37473012 2:0.15712087 3:0.34740219 4:0.18807957 5:0.16642496 6:0.96229778 
1 1:0.1828227 2:0.52778603 3:0.40028654 4:0.86204428 5:0.3198984 6:0.31606813 
1 1:0.29331397 2:0.1414046 3:0.46709875 4:0.57855596 5:0.55414968 6:0.31371569 
1 1:0.26288035 2:0.63085176 3:0.684608 4:0.3594688 5:0.72174859 6:0.10461936 
1 1:0.24124443 2:0.24227792 3:0.44838387 4:0.27662677 5:0.11751508 6:0.38878444 
1 1:0.64146433 2:0.17637611 3:0.3855444 4:0.52530607 5:0.37331225 6:0.46882489 
1 1:0.58613626 2:0.46499629 3:0.93659623 4:0.27423322 5:0.61888511 6:0.74752166 
1 1:0.69535399 2:0.64025318 3:0.72368401 4:0.66396958 5:0.077725864 6:0.10943535 
1 1:0.64661638 2:0.77370439 3:0.75670784 4:0.76697152 5:0.4546244 6:0.22796922 
1 1:0.59572557 2:0.13263354 3:0.34284345 4:0.70399516 5:0.63988117 6:0.32396175 
1 1:0.47664958 2:0.29136752 3:0.75557384 4:0.40835396 5:0.19813897 6:0.91923731 
1 1:0.15227603 2:0.55529643 3:0.53301121 4:0.32813449 5:0.80186619 6:0.71348393 
1 1:0.64542774 2:0.13501948 3:0.46881341 4:0.68111267 5:0.78270654 6:0.92934885 
1 1:0.058971625 2:0.58698374 3:0.44284386 4:0.19439212 5:0.29506072 6:0.2549549 
1 1:0.78979427 2:0.26111875 3:0.69430976 4:0.040481526 5:0.34706301 6:0.78371431 
1 1:0.47907483 2:0.79603138 3:0.5765205 4:0.25676259 5:0.08408631 6:0.25605001 
1 1:0.42342325 2:0.17909607 3:0.73491829 4:0.1067932 5:0.24351921 6:0.75230545 
1 1:0.25416839 2:0.64145351 3:0.3995048 4:0.056442399 5:0.5935543 6:0.94061513 
1 1:0.94062369 2:0.51705835 3:0.59812931 4:0.60760167 5:0.3059424 6:0.69869984 
1 1:0.4484003 2:0.8375131 3:0.64020739 4:0.6070404 5:0.4246878 6:0.18025992 
1 1:0.12724983 2:0.5641335 3:0.35310562 4:0.79735467 5:0.57814505 6:0.084507812 
1 1:0.24847544 2:0.74602738 3:0.68540349 4:0.42577546 5:0.3233808 6:0.49506675 
1 1:0.49471959 2:0.72381695 3:0.72018741 4:0.24676494 5:0.78569993 6:0.99843141 
1 1:0.41172999 2:0.77903332 3:0.35798225 4:0.83642385 5:0.67757764 6:0.15829692 
1 1:0.42992362 2:0.65501139 3:0.84861154 4:0.2617464 5:0.40677921 6:0.10872529 
1 1:0.90365693 2:0.65145736 3:0.46426451 4:0.47329397 5:0.29856559 6:0.57773977 
1 1:0.47318631 2:0.18615381 3:0.37880089 4:0.55182913 5:0.67565437 6:0.92103962 
1 1:0.053602924 2:0.56312161 3:0.38253975 4:0.67091661 5:0.54251428 6:0.16369943 
1 1:0.4496402 2:0.67378711 3:0.18724756 4:0.30017991 5:0.93751595 6:0.22523641 
1 1:0.58536868 2:0.72666115 3:0.36713234 4:0.86706713 5:0.83093728 6:0.85184905 
1 1:0.35918171 2:0.63932686 3:0.6697019 4:0.71725573 5:0.5158323 6:0.51004985 
1 1:0.49081307 2:0.79169695 3:0.50898532 4:0.16679621 5:0.044819372 6:0.5693083 
1 1:0.41416063 2:0.25417641 3:0.91347762 4:0.63541613 5:0.34523711 6:0.42285457 
1 1:0.77493627 2:0.67840756 3:0.76847537 4:0.18202475 5:0.40624924 6:0.69745333 
1 1:0.41649582 2:0.73139442 3:0.4839376 4:0.4540214 5:0.4398117 6:0.43766872 
1 1:0.6453816 2:0.4198289 3:0.045003175 4:0.15467624 5:0.42347073 6:0.40850472 
1 1:0.37907984 2:0.63604952 3:0.17750631 4:0.85066116 5:0.74609168 6:0.61963621 
1 1:0.39660142 2:0.1608639 3:0.75354479 4:0.96946449 5:0.28996715 6:0.17754805 
1 1:0.49687291 2:0.71641854 3:0.87012876 4:0.43582188 5:0.4156624 6:0.51592696 
1 1:0.8175622 2:0.64567183 3:0.68383801 4:0.59497023 5:0.62479893 6:0.70562155 
1 1:0.27016987 2:0.79275504 3:0.47278048 4:0.053213161 5:0.42692226 6:0.48811663 
1 1:0.86450241 2:0.68036085 3:0.39033815 4:0.089212201 5:0.70559389 6:0.78115154 
1 1:0.2631745 2:0.35401783 3:0.14697253 4:0.52076243 5:0.56601488 6:0.7384827 
1 1:0.19088139 2:0.47785257 3:0.40216647 4:0.91881251 5:0.42122515 6:0.20889333 
1 1:0.49745181 2:0.77447455 3:0.6007386 4:0.80981408 5:0.85906532 6:0.99442446 
1 1:0.79285666 2:0.75250892 3:0.55138625 4:0.11438992 5:0.30769393 6:0.29996778 
1 1:0.37075266 2:0.70410495 3:0.77117906 4:0.36379294 5:0.66305618 6:0.73701261 
1 1:0.30685357 2:0.81302489 3:0.51558157 4:0.75717351 5:0.59883778 6:0.39655922 
1 1:0.38358564 2:0.69988719 3:0.51684436 4:0.38410209 5:0.35708569 6:0.21374734 
1 1:0.21132952 2:0.66131905 3:0.75926784 4:0.47420387 5:0.3558752 6:0.53680858 
1 1:0.67625435 2:0.21062072 3:0.36352078 4:0.91349772 5:0.48688712 6:0.71515117 
1 1:0.48534546 2:0.17828274 3:0.65052457 4:0.12636809 5:0.19256355 6:0.80068903 
1 1:0.37412796 2:0.44276891 3:0.94855743 4:0.43212307 5:0.5803827 6:0.8580126 
1 1:0.50224724 2:0.76909868 3:0.30293018 4:0.3096084 5:0.3787809 6:0.83419714 
1 1:0.28107505 2:0.13702594 3:0.61565731 4:0.93929752 5:0.46287053 6:0.38460242 
1 1:0.31532194 2:0.51891795 3:0.8696359 4:0.46785043 5:0.20329008 6:0.38373193 
1 1:0.56364667 2:0.20558042 3:0.81247868 4:0.050578445 5:0.25409927 6:0.50115196 
1 1:0.46546406 2:0.25459081 3:0.11341073 4:0.81689436 5:0.40638127 6:0.22960406 
1 1:0.27076517 2:0.18534538 3:0.54659216 4:0.28981523 5:0.45750519 6:0.19914543 
1 1:0.59768974 2:0.69090157 3:0.48341773 4:0.58588936 5:0.51843054 6:0.38032169 
1 1:0.41612579 2:0.1743731 3:0.43036694 4:0.6555693 5:0.3043384 6:0.86362819 
1 1:0.59755118 2:0.16003128 3:0.2480053 4:0.54062968 5:0.49030296 6:0.99394761 
1 1:0.44532546 2:0.79857082 3:0.37613459 4:0.55666432 5:0.5078676 6:0.24023069 
1 1:0.40271631 2:0.75851628 3:0.34085811 4:0.807137 5:0.38514964 6:0.18591146 
1 1:0.48820366 2:0.25322951 3:0.86840132 4:0.20086969 5:0.65307252 6:0.78854359 
1 1:0.038330767 2:0.29709057 3:0.47947511 4:0.22136694 5:0.59443293 6:0.45662858 
1 1:0.18980192 2:0.71564641 3:0.64824212 4:0.19480963 5:0.60038687 6:0.067404891 
1 1:0.59438697 2:0.786399 3:0.71075536 4:0.56583468 5:0.5852406 6:0.40912008 
1 1:0.38736562 2:0.17543877 3:0.25372204 4:0.55688836 5:0.40743863 6:0.98916647 
1 1:0.61043718 2:0.4324911 3:0.10788407 4:0.47089254 5:0.31936008 6:0.15165572 
1 1:0.41134819 2:0.19130572 3:0.40707439 4:0.40742193 5:0.21244228 6:0.080454083 
1 1:0.85204581 2:0.61964177 3:0.46673802 4:0.4591015 5:0.69871648 6:0.1648043 
1 1:0.39789681 2:0.1434952 3:0.21816922 4:0.25520318 5:0.75235887 6:0.60493673 
1 1:0.50293272 2:0.14272023 3:0.27617684 4:0.73137486 5:0.59298945 6:0.63419897 
1 1:0.38375795 2:0.68165174 3:0.85810005 4:0.18878334 5:0.47726707 6:0.70817586 
1 1:0.39092894 2:0.22699341 3:0.74495221 4:0.88921368 5:0.38119942 6:0.32294141 
1 1:0.53773143 2:0.56883337 3:0.95824018 4:0.26065104 5:0.42449764 6:0.91297645 
1 1:0.20740128 2:0.68626734 3:0.54164427 4:0.77050619 5:0.75792818 6:0.81936528 
1 1:0.31880193 2:0.2911962 3:0.85371982 4:0.24285794 5:0.66266645 6:0.94316168 
1 1:0.06433058 2:0.50930673 3:0.34001987 4:0.51123282 5:0.44300737 6:0.016676217 
1 1:0.36456724 2:0.1001247 3:0.28440002 4:0.63698541 5:0.6784465 6:0.43322535 
1 1:0.73795267 2:0.65767545 3:0.30519816 4:0.4571701 5:0.68348198 6:0.97534059 
1 1:0.32120391 2:0.18587794 3:0.30124625 4:0.61910913 5:0.50013168 6:0.66744967 
1 1:0.51682716 2:0.82428476 3:0.54438771 4:0.98607018 5:0.3446876 6:0.35397738 
1 1:0.58655486 2:0.6489172 3:0.67601404 4:0.64869855 5:0.23598636 6:0.98478133 
1 1:0.26589913 2:0.74837405 3:0.72498782 4:0.029299734 5:0.63466841 6:0.62294937 
1 1:0.18016551 2:0.45368482 3:0.18824191 4:0.56249924 5:0.63888112 6:0.21279167 
1 1:0.20175096 2:0.15838107 3:0.55156539 4:0.70342719 5:0.45297951 6:0.5331933 
1 1:0.74605645 2:0.55148058 3:0.91886426 4:0.60017003 5:0.55284983 6:0.56745208 
1 1:0.46935571 2:0.70552563 3:0.14750226 4:0.28324216 5:0.40947173 6:0.77743005 
1 1:0.1148083 2:0.34181858 3:0.55088408 4:0.61538517 5:0.60217321 6:0.83281599 
1 1:0.23890185 2:0.68348175 3:0.37778074 4:0.30564477 5:0.21477984 6:0.45416802 
1 1:0.82875098 2:0.27756996 3:0.41292322 4:0.79773738 5:0.39855888 6:0.68610411 
1 1:0.86796044 2:0.41612104 3:0.3558312 4:0.38500345 5:0.45706777 6:0.25624657 
1 1:0.36338207 2:0.62185213 3:0.84085173 4:0.0015332312 5:0.53779525 6:0.19668353 
1 1:0.47262929 2:0.7443705 3:0.21988295 4:0.77070865 5:0.66704491 6:0.84580081 
1 1:0.63110314 2:0.20828084 3:0.67796226 4:0.2820352 5:0.44972613 6:0.97645925 
1 1:0.56174888 2:0.5076799 3:0.80721044 4:0.47121927 5:0.59542672 6:0.66642959 
1 1:0.54919667 2:0.34596557 3:0.9522957 4:0.14382354 5:0.59922293 6:0.41856022 
1 1:0.56695511 2:0.24329108 3:0.25245596 4:0.78870594 5:0.63331885 6:0.23085466 
1 1:0.70640386 2:0.7670961 3:0.50422175 4:0.49708644 5:0.077209178 6:0.65128446 
1 1:0.38309842 2:0.19434892 3:0.21661064 4:0.54070468 5:0.14764649 6:0.88678661 
1 1:0.31726269 2:0.16189904 3:0.78022218 4:0.2222055 5:0.62363512 6:0.23360011 
1 1:0.29914991 2:0.26491627 3:0.79488513 4:0.093894702 5:0.7752439 6:0.65155979 
1 1:0.15584668 2:0.53286411 3:0.24106276 4:0.63168808 5:0.49407582 6:0.24948887 
1 1:0.51588787 2:0.37916576 3:0.11253833 4:0.40009557 5:0.1222806 6:0.061662761 
1 1:0.52359687 2:0.23941492 3:0.81570253 4:0.56089208 5:0.39629682 6:0.6585007 
1 1:0.87133133 2:0.47083792 3:0.23800862 4:0.11810269 5:0.37261112 6:0.3902852 
1 1:0.47280686 2:0.19626661 3:0.85080903 4:0.73867813 5:0.53100687 6:0.71729765 
1 1:0.45528142 2:0.5642716 3:0.9695025 4:0.82691369 5:0.46974601 6:0.56503135 
1 1:0.16914019 2:0.44625137 3:0.78387037 4:0.4945494 5:0.23763046 6:0.67783536 
1 1:0.30166767 2:0.64394831 3:0.55701665 4:0.91264433 5:0.58724446 6:0.50383288 
1 1:0.83037672 2:0.27568128 3:0.4541698 4:0.49803666 5:0.43284442 6:0.033484628 
1 1:0.35257855 2:0.73434033 3:0.39857559 4:0.90410888 5:0.52168179 6:0.55451426 
1 1:0.67896318 2:0.73022042 3:0.39616836 4:0.065931394 5:0.42710033 6:0.64920428 
1 1:0.923679 2:0.41514601 3:0.53239335 4:0.6923335 5:0.55662 6:0.12223232 
1 1:0.31926935 2:0.16056124 3:0.56194404 4:0.61566329 5:0.40478576 6:0.042421474 
1 1:0.93744072 2:0.4710134 3:0.63040768 4:0.40834804 5:0.23892617 6:0.52682954 
1 1:0.84667368 2:0.40530043 3:0.7765982 4:0.15898884 5:0.61709979 6:0.24904768 
1 1:0.62332283 2:0.14080884 3:0.4656175 4:0.65862825 5:0.38676598 6:0.90481582 
1 1:0.53673954 2:0.72648355 3:0.67872439 4:0.8222695 5:0.71991892 6:0.59940024 
1 1:0.90308849 2:0.35130928 3:0.28161174 4:0.26549534 5:0.32214917 6:0.4785993 
1 1:0.25487051 2:0.25009669 3:0.70793407 4:0.10382699 5:0.70269629 6:0.37645313 
1 1:0.20778347 2:0.635957 3:0.72997575 4:0.19600598 5:0.45288397 6:0.84500061 
1 1:0.58474613 2:0.12746501 3:0.65694419 4:0.2983675 5:0.3587397 6:0.97573131 
1 1:0.86815907 2:0.52064169 3:0.61354549 4:0.50265217 5:0.16459225 6:0.14722202 
1 1:0.11027039 2:0.33044181 3:0.69813352 4:0.22288724 5:0.7126908 6:0.18143735 
1 1:0.80129287 2:0.3084884 3:0.18027347 4:0.42524405 5:0.51579702 6:0.51904388 
