svm_type c_svc
kernel_type rbf
gamma 0.166667
nr_class 2
total_sv 3629
rho -12.189
label -1 1
nr_sv 1822 1807
SV
1 1:0.76123008 2:0.39496025 3:0.85952349 4:0.34260839 5:0.54923353 6:0.11103829 
1 1:0.31188992 2:0.6558418 3:0.82541337 4:0.53707895 5:0.45916116 6:0.76482196 
1 1:0.56497053 2:0.2678906 3:0.57759607 4:0.74167248 5:0.76145618 6:0.85050702 
1 1:0.56478397 2:0.47892059 3:0.91549027 4:0.76500414 5:0.47372609 6:0.56048054 
1 1:0.40267977 2:0.14277495 3:0.38973967 4:0.50808764 5:0.32442712 6:0.033114548 
1 1:0.23063801 2:0.24739346 3:0.75119079 4:0.45514218 5:0.17766848 6:0.88484553 
1 1:0.73589775 2:0.65310316 3:0.20066297 4:0.27284787 5:0.2661978 6:0.93108553 
1 1:0.67205236 2:0.735269 3:0.4979543 4:0.26683649 5:0.472126 6:0.83095398 
1 1:0.090382608 2:0.38691056 3:0.69707913 4:0.26530426 5:0.23269845 6:0.59170852 
1 1:0.42562864 2:0.77462725 3:0.2972751 4:0.72760712 5:0.57393965 6:0.65975141 
1 1:0.42110603 2:0.13261985 3:0.40307868 4:0.1781245 5:0.30435762 6:0.36020285 
1 1:0.37569604 2:0.16949025 3:0.49610428 4:0.98159209 5:0.69380592 6:0.11192362 
1 1:0.86091702 2:0.40434114 3:0.65964175 4:0.35956406 5:0.62761467 6:0.50387853 
1 1:0.92019889 2:0.50740832 3:0.32790092 4:0.83112146 5:0.38750259 6:0.82988455 
1 1:0.46746144 2:0.59734825 3:0.87074528 4:0.92106576 5:0.4258698 6:0.39914153 
1 1:0.72252062 2:0.55560809 3:0.77884111 4:0.68815544 5:0.34757176 6:0.43006308 
1 1:0.33470572 2:0.68432193 3:0.84582973 4:0.39395988 5:0.30341637 6:0.94219506 
1 1:0.39844715 2:0.41661343 3:0.86207778 4:0.16745239 5:0.888999 6:0.41033419 
1 1:0.18175865 2:0.66608805 3:0.55813254 4:0.7722368 5:0.32041506 6:0.25262049 
1 1:0.6287895 2:0.18124348 3:0.15623524 4:0.1023105 5:0.49906955 6:0.46433737 
1 1:0.18546996 2:0.33849744 3:0.71821129 4:0.69981931 5:0.60249416 6:0.52406536 
1 1:0.38702415 2:0.80741533 3:0.34686091 4:0.40897346 5:0.32872642 6:0.84364979 
1 1:0.75763635 2:0.69798212 3:0.80602713 4:0.45882797 5:0.67586877 6:0.48980468 
1 1:0.2591926 2:0.32110412 3:0.18839896 4:0.56307393 5:0.19324009 6:0.66330247 
0.9608616464145714 1:0.4445805 2:0.05495841 3:0.62262437 4:0.7309184 5:0.40289747 6:0.24610713 
1 1:0.67495498 2:0.55442087 3:0.1152163 4:0.54791166 5:0.46814134 6:0.87753749 
1 1:0.68265735 2:0.72207308 3:0.76401456 4:0.15234666 5:0.72175856 6:0.25640434 
1 1:0.87700211 2:0.44959325 3:0.53664849 4:0.03979189 5:0.46764876 6:0.34646679 
1 1:0.73646036 2:0.2964845 3:0.69115195 4:0.12241457 5:0.57889439 6:0.34970288 
1 1:0.80225889 2:0.25547722 3:0.60687349 4:0.80286664 5:0.024485202 6:0.31168554 
1 1:0.29444861 2:0.29940685 3:0.14157796 4:0.21262359 5:0.73351034 6:0.75186024 
1 1:0.32750739 2:0.74280535 3:0.46070176 4:0.47960673 5:0.36977477 6:0.84659474 
1 1:0.24643781 2:0.25782429 3:0.61293238 4:0.097279583 5:0.6703135 6:0.61051141 
1 1:0.57660528 2:0.8392077 3:0.62145712 4:0.84874672 5:0.53939167 6:0.19718325 
1 1:0.33598107 2:0.74357598 3:0.69805936 4:0.81995669 5:0.55136757 6:0.93191917 
1 1:0.52235037 2:0.76622948 3:0.73006324 4:0.9069752 5:0.56359356 6:0.69734571 
0.4259072634982235 1:0.39083797 2:0.65576174 3:0.82526551 4:0.56955278 5:0.92120126 6:0.76072614 
1 1:0.24512162 2:0.216161 3:0.66587155 4:0.5276929 5:0.1748685 6:0.96739321 
1 1:0.17614231 2:0.42971812 3:0.20997862 4:0.81843701 5:0.77651313 6:0.68114445 
1 1:0.39302405 2:0.35052777 3:0.88744526 4:0.83838946 5:0.70682389 6:0.65563422 
1 1:0.48253228 2:0.76098894 3:0.27076633 4:0.62191852 5:0.65341941 6:0.98967538 
1 1:0.28238232 2:0.18606686 3:0.31866933 4:0.62016892 5:0.11250464 6:0.81929375 
1 1:0.30763915 2:0.54239266 3:0.89748842 4:0.46139968 5:0.25902363 6:0.53041905 
1 1:0.33131552 2:0.79772067 3:0.34053707 4:0.46332453 5:0.46499798 6:0.95860844 
1 1:0.51028256 2:0.74776103 3:0.51675812 4:0.56821428 5:0.57952642 6:0.42860937 
1 1:0.43383862 2:0.48122053 3:0.8958308 4:0.21852107 5:0.48524647 6:0.3760093 
1 1:0.63985396 2:0.72066668 3:0.25753048 4:0.18020463 5:0.70216014 6:0.59876104 
1 1:0.75719047 2:0.57555118 3:0.16175851 4:0.064088169 5:0.28343991 6:0.7357575 
1 1:0.76323179 2:0.2192285 3:0.41817552 4:0.50721258 5:0.42496357 6:0.60147432 
1 1:0.55416669 2:0.7604347 3:0.25357794 4:0.26547187 5:0.16902952 6:0.8415028 
1 1:0.051150368 2:0.53126804 3:0.65013213 4:0.80212463 5:0.68732655 6:0.4695372 
1 1:0.63962656 2:0.66242691 3:0.86292988 4:0.72350377 5:0.66367426 6:0.63548101 
1 1:0.5629108 2:0.10757804 3:0.33799833 4:0.27088719 5:0.57122219 6:0.15043228 
1 1:0.3539083 2:0.23501537 3:0.71983607 4:0.58588038 5:0.47003247 6:0.81868305 
1 1:0.56840115 2:0.18588879 3:0.63678904 4:0.098565511 5:0.29754193 6:0.34351968 
1 1:0.86347812 2:0.65583581 3:0.58580311 4:0.84381627 5:0.34115913 6:0.28463605 
1 1:0.16154963 2:0.56518895 3:0.64962831 4:0.44491213 5:0.58281526 6:0.12683487 
1 1:0.45123916 2:0.46717779 3:0.85608996 4:0.11155604 5:0.42153852 6:0.32613929 
1 1:0.70313273 2:0.22556493 3:0.34745591 4:0.066202877 5:0.43594684 6:0.075969767 
1 1:0.79955626 2:0.65209294 3:0.73730524 4:0.36962853 5:0.29234337 6:0.54561428 
1 1:0.66159827 2:0.20230819 3:0.33540793 4:0.80870716 5:0.39449135 6:0.3284835 
1 1:0.8979444 2:0.58575447 3:0.48475875 4:0.12366806 5:0.43830244 6:0.41110275 
1 1:0.28205286 2:0.33533103 3:0.7647865 4:0.046574624 5:0.77979409 6:0.67953198 
1 1:0.055589893 2:0.63981132 3:0.39490734 4:0.61169142 5:0.39006142 6:0.49290226 
1 1:0.94244265 2:0.50920663 3:0.34419349 4:0.79713546 5:0.41054965 6:0.23828096 
1 1:0.55331668 2:0.71828856 3:0.72049648 4:0.17316712 5:0.33782659 6:0.071751294 
1 1:0.47948764 2:0.59320315 3:0.87169236 4:0.19175096 5:0.1788214 6:0.6789167 
0.9813804640042739 1:0.45698892 2:0.58709294 3:0.89368225 4:0.86482931 5:0.70230397 6:0.025293354 
1 1:0.47836552 2:0.75881411 3:0.21734642 4:0.35071468 5:0.57702197 6:0.50191094 
1 1:0.2524721 2:0.22652611 3:0.56983957 4:0.43194728 5:0.75457515 6:0.23999201 
1 1:0.45020433 2:0.12381523 3:0.42056713 4:0.49626558 5:0.58653824 6:0.92514414 
1 1:0.43063704 2:0.64530741 3:0.88172432 4:0.39869438 5:0.24084213 6:0.75143722 
1 1:0.55370248 2:0.12040015 3:0.63476623 4:0.50957677 5:0.22937572 6:0.23899907 
1 1:0.4700028 2:0.67555758 3:0.13420887 4:0.53063684 5:0.452268 6:0.56309336 
1 1:0.84729783 2:0.60525123 3:0.20404731 4:0.62323334 5:0.44659836 6:0.72562532 
1 1:0.60228452 2:0.82245872 3:0.3798704 4:0.88786246 5:0.38893919 6:0.48860971 
1 1:0.42933923 2:0.1611928 3:0.59506166 4:0.72940931 5:0.0034283606 6:0.37342624 
1 1:0.77743683 2:0.36381338 3:0.32415497 4:0.79417346 5:0.42377575 6:0.88018164 
1 1:0.89618914 2:0.38091304 3:0.37270181 4:0.66294806 5:0.43795841 6:0.54500524 
1 1:0.182893 2:0.19322636 3:0.64036674 4:0.68248833 5:0.64012594 6:0.19464147 
1 1:0.82747553 2:0.24605047 3:0.41307841 4:0.54926135 5:0.75705728 6:0.87187959 
1 1:0.43321934 2:0.85343284 3:0.62359554 4:0.27431539 5:0.22610912 6:0.31355362 
1 1:0.81751078 2:0.71599065 3:0.66701046 4:0.26531235 5:0.56666663 6:0.81561871 
1 1:0.34855109 2:0.49190049 3:0.10235734 4:0.52907084 5:0.81386668 6:0.20340671 
1 1:0.52793681 2:0.20859406 3:0.27619228 4:0.73248129 5:0.38920445 6:0.55596592 
1 1:0.75118844 2:0.54066862 3:0.80124505 4:0.12798787 5:0.58883589 6:0.70096019 
1 1:0.85745951 2:0.53390872 3:0.236763 4:0.65929186 5:0.6067099 6:0.75481421 
1 1:0.095806369 2:0.58707817 3:0.5849592 4:0.67031809 5:0.42257666 6:0.040718657 
1 1:0.10764408 2:0.33762017 3:0.69587721 4:0.21516566 5:0.32412315 6:0.61075853 
1 1:0.37844178 2:0.23513339 3:0.79303538 4:0.26463129 5:0.08667936 6:0.77713703 
1 1:0.84460606 2:0.19588521 3:0.57021782 4:0.3719901 5:0.26934752 6:0.610304 
1 1:0.7113421 2:0.21445134 3:0.25932133 4:0.78752831 5:0.51998307 6:0.29066884 
1 1:0.39452518 2:0.78976845 3:0.65219197 4:0.72060127 5:0.33270742 6:0.31161073 
1 1:0.55185746 2:0.11178012 3:0.46019099 4:0.26259445 5:0.31309944 6:0.94466508 
1 1:0.63042558 2:0.73208543 3:0.39978712 4:0.32843136 5:0.9051139 6:0.039389188 
1 1:0.83306854 2:0.34522921 3:0.58963147 4:0.48149291 5:0.77495573 6:0.69228005 
1 1:0.71345471 2:0.47676935 3:0.20153476 4:0.73914998 5:0.81871392 6:0.63473262 
1 1:0.43783158 2:0.70324641 3:0.18766688 4:0.55472966 5:0.27020519 6:0.01768641 
1 1:0.38854202 2:0.40008855 3:0.0095064401 4:0.48981544 5:0.50634992 6:0.26581741 
1 1:0.5597795 2:0.81264054 3:0.27557186 4:0.7288546 5:0.68808683 6:0.26043999 
1 1:0.79458626 2:0.39140551 3:0.87951991 4:0.3753417 5:0.40748216 6:0.6498672 
1 1:0.023546221 2:0.37383128 3:0.36404025 4:0.70905019 5:0.48669791 6:0.68088973 
1 1:0.14275502 2:0.56362546 3:0.42425453 4:0.010365356 5:0.34879236 6:0.78165253 
1 1:0.77798109 2:0.18000464 3:0.58482599 4:0.9381992 5:0.34402596 6:0.82700055 
1 1:0.89567432 2:0.4123923 3:0.38480165 4:0.95975632 5:0.14201617 6:0.6124252 
1 1:0.92781628 2:0.47342304 3:0.39579783 4:0.30466157 5:0.45893009 6:0.19717503 
1 1:0.7259328 2:0.74896536 3:0.62253409 4:0.41031455 5:0.22418701 6:0.36317435 
1 1:0.79312238 2:0.67313243 3:0.36614309 4:0.92718049 5:0.51082765 6:0.30824819 
1 1:0.30927419 2:0.26663031 3:0.86256562 4:0.31746035 5:0.39305314 6:0.70408732 
1 1:0.49821921 2:0.8713161 3:0.51508817 4:0.60979606 5:0.61157005 6:0.79193929 
1 1:0.68515483 2:0.19658225 3:0.16212408 4:0.5964849 5:0.6624899 6:0.29779664 
1 1:0.66386955 2:0.73153456 3:0.59664164 4:0.55930287 5:0.4911366 6:0.77006476 
1 1:0.079473893 2:0.49219719 3:0.62705772 4:0.88930905 5:0.70642501 6:0.80526171 
1 1:0.41400673 2:0.76822969 3:0.47205526 4:0.35306653 5:0.63841821 6:0.39504095 
1 1:0.40020786 2:0.069325938 3:0.30327478 4:0.39318636 5:0.5763018 6:0.43725702 
1 1:0.75153202 2:0.55971315 3:0.85867363 4:0.68893618 5:0.23876933 6:0.57172346 
1 1:0.15454768 2:0.64666738 3:0.32635931 4:0.29399971 5:0.43748559 6:0.19318808 
1 1:0.89396097 2:0.53054904 3:0.53199061 4:0.89816513 5:0.3359011 6:0.85925754 
1 1:0.76187958 2:0.56186572 3:0.72900081 4:0.46109906 5:0.46973942 6:0.48195771 
1 1:0.4131538 2:0.51825278 3:0.80946192 4:0.59852248 5:0.69726367 6:0.257181 
1 1:0.66268843 2:0.40148735 3:0.93337732 4:0.63736416 5:0.63753336 6:0.39257803 
1 1:0.43350645 2:0.19681318 3:0.72393 4:0.63541868 5:0.63994137 6:0.99346761 
1 1:0.10571859 2:0.62736499 3:0.52137979 4:0.28977928 5:0.306201 6:0.13485501 
1 1:0.12982869 2:0.58274879 3:0.26503975 4:0.28068 5:0.3780804 6:0.42363019 
1 1:0.45449566 2:0.85000569 3:0.302705 4:0.57773947 5:0.2472456 6:0.58665209 
1 1:0.9319065 2:0.39832145 3:0.63937264 4:0.37840457 5:0.24124118 6:0.69915889 
1 1:0.092938647 2:0.54198879 3:0.57554229 4:0.26273586 5:0.81736951 6:0.3235882 
1 1:0.51254316 2:0.16923693 3:0.33476731 4:0.84092059 5:0.86196076 6:0.43675256 
1 1:0.1979686 2:0.67165713 3:0.74299544 4:0.76866688 5:0.77676306 6:0.47678104 
1 1:0.87580754 2:0.29741778 3:0.52129004 4:0.36776269 5:0.45699916 6:0.049940163 
1 1:0.1658368 2:0.3872664 3:0.38571872 4:0.18541527 5:0.49191203 6:0.99756236 
1 1:0.64157886 2:0.5065389 3:0.82196161 4:0.095916449 5:0.17473732 6:0.63163203 
1 1:0.64180004 2:0.28080249 3:0.87310567 4:0.61539207 5:0.58044659 6:0.031339868 
1 1:0.17164863 2:0.56155349 3:0.82158873 4:0.45867598 5:0.42580009 6:0.60716787 
1 1:0.16530646 2:0.45760419 3:0.66360895 4:0.054891012 5:0.20181666 6:0.063895891 
1 1:0.81016199 2:0.42964418 3:0.77280057 4:0.28444697 5:0.26819568 6:0.34220629 
1 1:0.42423346 2:0.73371929 3:0.15779431 4:0.38477455 5:0.7586579 6:0.6283678 
1 1:0.41384084 2:0.24744892 3:0.62223448 4:0.78055756 5:0.7091574 6:0.19267681 
1 1:0.82053242 2:0.75861166 3:0.40146287 4:0.62402647 5:0.28422617 6:0.75831603 
1 1:0.17170933 2:0.49810556 3:0.80187219 4:0.50570075 5:0.40398478 6:0.24522069 
1 1:0.1524185 2:0.58871629 3:0.36945617 4:0.25676762 5:0.61314315 6:0.93166763 
1 1:0.077333502 2:0.55410178 3:0.61722584 4:0.30156164 5:0.60308411 6:0.92811436 
1 1:0.59509039 2:0.21490918 3:0.7691706 4:0.68348732 5:0.23031725 6:0.65321083 
1 1:0.21612691 2:0.19999661 3:0.53358154 4:0.21945228 5:0.78480347 6:0.45873999 
1 1:0.66213702 2:0.47485882 3:0.80449371 4:0.023552798 5:0.63431251 6:0.58207249 
1 1:0.36426721 2:0.10142682 3:0.65163635 4:0.62457868 5:0.72022131 6:0.3647706 
1 1:0.40672198 2:0.78926029 3:0.34698863 4:0.41252339 5:0.71695329 6:0.91658007 
1 1:0.32578872 2:0.70416243 3:0.27199691 4:0.71779125 5:0.090033207 6:0.25128652 
1 1:0.34908013 2:0.41103014 3:0.13137031 4:0.4967156 5:0.80529442 6:0.15570209 
1 1:0.52324403 2:0.71547268 3:0.20190249 4:0.93455069 5:0.14986512 6:0.48420395 
1 1:0.1573467 2:0.57517648 3:0.20796465 4:0.57215998 5:0.43216462 6:0.76612893 
1 1:0.22510991 2:0.20321469 3:0.37817213 4:0.9757291 5:0.54173884 6:0.36837197 
1 1:0.73395804 2:0.12901264 3:0.49053515 4:0.99258527 5:0.59572103 6:0.42742189 
1 1:0.44497614 2:0.42399466 3:0.065076447 4:0.55885115 5:0.34130117 6:0.55665092 
1 1:0.23436815 2:0.44037741 3:0.19945338 4:0.69506913 5:0.61840097 6:0.91916037 
1 1:0.42270744 2:0.25577363 3:0.42007061 4:0.40702503 5:0.67350126 6:0.53450701 
1 1:0.26082646 2:0.28444813 3:0.5038838 4:0.95482396 5:0.70417211 6:0.12960703 
1 1:0.707079 2:0.29770077 3:0.59111823 4:0.26514069 5:0.39186354 6:0.34437123 
1 1:0.56870242 2:0.63529325 3:0.83553582 4:0.14688033 5:0.59873841 6:0.53915091 
1 1:0.067101982 2:0.32672452 3:0.39271607 4:0.25421422 5:0.62984429 6:0.51377108 
1 1:0.48110465 2:0.87707227 3:0.5920173 4:0.38051369 5:0.48674425 6:0.34697307 
1 1:0.65174999 2:0.32910678 3:0.18428316 4:0.91025944 5:0.62168706 6:0.14357687 
1 1:0.51945746 2:0.29897309 3:0.19327944 4:0.25873444 5:0.47484155 6:0.19307887 
1 1:0.37476791 2:0.62663971 3:0.72475289 4:0.81588071 5:0.59937033 6:0.4448554 
1 1:0.44826641 2:0.67836801 3:0.20774701 4:0.98731737 5:0.64277727 6:0.54939872 
1 1:0.63362163 2:0.1147696 3:0.45800812 4:0.40582924 5:0.028463521 6:0.29802044 
1 1:0.50798801 2:0.21132867 3:0.76989746 4:0.17261634 5:0.57455739 6:0.63045603 
1 1:0.40274592 2:0.16517452 3:0.39253823 4:0.68680749 5:0.63406386 6:0.76376081 
1 1:0.49436244 2:0.51436061 3:0.068337479 4:0.42111004 5:0.45973149 6:0.55488928 
1 1:0.26598669 2:0.15923549 3:0.26807652 4:0.42355662 5:0.15155664 6:0.40055857 
1 1:0.58783164 2:0.22388398 3:0.5880847 4:0.74518069 5:0.35425786 6:0.52636228 
1 1:0.63474335 2:0.65473903 3:0.88706407 4:0.19682058 5:0.56063075 6:0.53192105 
1 1:0.41823311 2:0.088184482 3:0.51502333 4:0.74848534 5:0.37014702 6:0.95966364 
1 1:0.76156265 2:0.64978515 3:0.8274046 4:0.13036613 5:0.48834306 6:0.44467725 
1 1:0.42020596 2:0.39110715 3:0.83015034 4:0.39988882 5:0.25310006 6:0.49960412 
1 1:0.97413653 2:0.48712983 3:0.37922499 4:0.69534074 5:0.31313798 6:0.59922527 
1 1:0.43769207 2:0.76683555 3:0.59755997 4:0.83078293 5:0.78793293 6:0.42993636 
1 1:0.066516973 2:0.49202468 3:0.38381557 4:0.37445757 5:0.73799228 6:0.13150593 
1 1:0.44866834 2:0.44053204 3:0.13233479 4:0.92623972 5:0.70313758 6:0.85760401 
1 1:0.76214399 2:0.52664842 3:0.75701035 4:0.96344902 5:0.34661957 6:0.48217161 
1 1:0.6601944 2:0.21334006 3:0.25336705 4:0.48843014 5:0.38263007 6:0.42414782 
1 1:0.44465532 2:0.075382134 3:0.67392986 4:0.37326244 5:0.62867277 6:0.35651486 
1 1:0.46795231 2:0.46013984 3:0.94680019 4:0.16980044 5:0.63363949 6:0.66678903 
1 1:0.84046281 2:0.56335442 3:0.34897594 4:0.35085375 5:0.26011179 6:0.27027984 
1 1:0.17933252 2:0.33406602 3:0.83653458 4:0.88994992 5:0.40916785 6:0.44735507 
1 1:0.27391689 2:0.51971975 3:0.20460473 4:0.33568918 5:0.56662158 6:0.13274195 
1 1:0.77553058 2:0.53368655 3:0.20356732 4:0.60563755 5:0.73157408 6:0.5095128 
1 1:0.60041473 2:0.2109861 3:0.23292406 4:0.58142694 5:0.49766795 6:0.53251125 
1 1:0.53025601 2:0.092327445 3:0.4614798 4:0.39201768 5:0.59454395 6:0.67529736 
1 1:0.10126779 2:0.3736713 3:0.56505265 4:0.093083718 5:0.29035937 6:0.87790906 
1 1:0.66844549 2:0.56209018 3:0.83114642 4:0.79757201 5:0.74130724 6:0.59674559 
1 1:0.63005444 2:0.12941123 3:0.41344094 4:0.51359292 5:0.42587292 6:0.42311523 
1 1:0.83657323 2:0.55696118 3:0.58751786 4:0.99889077 5:0.4145424 6:0.73583574 
1 1:0.61951037 2:0.26993383 3:0.11331761 4:0.14585873 5:0.64891468 6:0.32213922 
1 1:0.66179887 2:0.71205427 3:0.27208229 4:0.75896471 5:0.67058188 6:0.70088967 
1 1:0.83371941 2:0.36528947 3:0.77624451 4:0.584271 5:0.7654914 6:0.54005927 
1 1:0.57681754 2:0.16803978 3:0.20599787 4:0.73311938 5:0.60213446 6:0.15540042 
1 1:0.80285804 2:0.35188397 3:0.808325 4:0.75894494 5:0.27747257 6:0.77931373 
1 1:0.35301 2:0.30152517 3:0.13904306 4:0.62008698 5:0.70126179 6:0.81145983 
1 1:0.39728041 2:0.61414704 3:0.6558182 4:0.069744355 5:0.67722982 6:0.56051855 
1 1:0.24601709 2:0.18482484 3:0.63471778 4:0.93973309 5:0.48066972 6:0.67149047 
1 1:0.21135094 2:0.45048107 3:0.78389738 4:0.83144202 5:0.62518316 6:0.58524851 
1 1:0.26474709 2:0.66283647 3:0.6425755 4:0.014112147 5:0.83132084 6:0.71277653 
1 1:0.70297342 2:0.53282017 3:0.16043786 4:0.63697311 5:0.65192517 6:0.76963565 
1 1:0.10348764 2:0.6615756 3:0.50842511 4:0.10833008 5:0.60781815 6:0.66442598 
1 1:0.92410552 2:0.55198954 3:0.34677107 4:0.52926991 5:0.37810414 6:0.41742202 
1 1:0.36633021 2:0.77361971 3:0.30410635 4:0.55199758 5:0.56052839 6:0.046538298 
1 1:0.34169314 2:0.36746179 3:0.89121552 4:0.40029754 5:0.30591176 6:0.73550583 
1 1:0.49404089 2:0.69010817 3:0.26686879 4:0.56066868 5:0.35106233 6:0.27708057 
1 1:0.082700679 2:0.32620259 3:0.25729969 4:0.78769827 5:0.38235905 6:0.616474 
1 1:0.39915612 2:0.72709451 3:0.16254565 4:0.13321162 5:0.47287835 6:0.68682643 
1 1:0.43593037 2:0.10619237 3:0.51338385 4:0.28959408 5:0.65760151 6:0.52901783 
1 1:0.25401636 2:0.20521628 3:0.45029727 4:0.9733401 5:0.69744001 6:0.12068122 
1 1:0.53088378 2:0.35620704 3:0.090340852 4:0.90683397 5:0.59455856 6:0.071494783 
1 1:0.24234135 2:0.36231702 3:0.21964343 4:0.080814706 5:0.88703347 6:0.27886154 
1 1:0.5484927 2:0.68885411 3:0.40708186 4:0.75075975 5:0.33651139 6:0.88774111 
1 1:0.25144899 2:0.42386581 3:0.68951077 4:0.030437617 5:0.64173593 6:0.65396537 
1 1:0.4071109 2:0.64756122 3:0.7778998 4:0.5228868 5:0.26793638 6:0.49030857 
1 1:0.12606928 2:0.58773692 3:0.6381423 4:0.50454843 5:0.41007005 6:0.21155209 
1 1:0.17516107 2:0.33107129 3:0.3890079 4:0.34254634 5:0.33884373 6:0.89920206 
0.2282578226027799 1:0.13537385 2:0.59250102 3:0.70673783 4:0.93677338 5:0.79976456 6:0.56004323 
1 1:0.53997994 2:0.5032889 3:0.90017919 4:0.56981644 5:0.49172862 6:0.67257506 
1 1:0.474313 2:0.40611564 3:0.06283688 4:0.36192144 5:0.32168205 6:0.99335242 
1 1:0.11102936 2:0.43649206 3:0.47490159 4:0.25470046 5:0.19530992 6:0.20161354 
1 1:0.80189381 2:0.23813307 3:0.38452415 4:0.83088231 5:0.5553875 6:0.8829845 
1 1:0.75566526 2:0.26444819 3:0.78413117 4:0.22219689 5:0.68671758 6:0.7279423 
1 1:0.26814289 2:0.73472436 3:0.40015816 4:0.44879331 5:0.20742284 6:0.26871708 
1 1:0.27642296 2:0.7361768 3:0.1913293 4:0.383886 5:0.30384983 6:0.26364485 
1 1:0.24340909 2:0.25663541 3:0.58273172 4:0.025330442 5:0.51202286 6:0.30034021 
1 1:0.82687155 2:0.59462397 3:0.5909578 4:0.31529591 5:0.59426881 6:0.1878933 
1 1:0.56033996 2:0.8082458 3:0.63622145 4:0.015474917 5:0.36251867 6:0.69288743 
1 1:0.68248148 2:0.27896918 3:0.20597155 4:0.4313812 5:0.25989093 6:0.11064355 
1 1:0.74096953 2:0.21464666 3:0.70610831 4:0.60321435 5:0.4372663 6:0.56574844 
1 1:0.19227243 2:0.36320166 3:0.13401936 4:0.71842628 5:0.32499805 6:0.57826265 
1 1:0.37745894 2:0.057358177 3:0.59734476 4:0.38723855 5:0.55615742 6:0.397394 
1 1:0.85314339 2:0.63958496 3:0.53784968 4:0.95866999 5:0.38455418 6:0.59335884 
1 1:0.10683185 2:0.41786862 3:0.7475805 4:0.67103646 5:0.50503036 6:0.50174434 
1 1:0.18583028 2:0.2541201 3:0.47207507 4:0.8405526 5:0.44396755 6:0.22796665 
1 1:0.58066738 2:0.1680168 3:0.76189384 4:0.69431332 5:0.54431208 6:0.049990249 
1 1:0.44589992 2:0.22667436 3:0.5745037 4:0.12332665 5:0.44700866 6:0.034432764 
1 1:0.38966998 2:0.074277323 3:0.45454266 4:0.81185311 5:0.6568797 6:0.40682114 
1 1:0.59967343 2:0.56950751 3:0.83512032 4:0.38200754 5:0.75939634 6:0.58007628 
1 1:0.59524844 2:0.22534954 3:0.23525833 4:0.85171054 5:0.46531336 6:0.38351279 
1 1:0.41212379 2:0.488876 3:0.18887081 4:0.74138821 5:0.87319867 6:0.032899641 
1 1:0.26877961 2:0.2398156 3:0.61113951 4:0.20495332 5:0.39928545 6:0.10992822 
1 1:0.71602854 2:0.22263206 3:0.46729667 4:0.76702005 5:0.6755926 6:0.84824788 
1 1:0.58237281 2:0.49179174 3:0.88453756 4:0.22576698 5:0.4457942 6:0.48170596 
1 1:0.39633843 2:0.7930904 3:0.44255149 4:0.70833674 5:0.60999448 6:0.088422925 
1 1:0.75135025 2:0.23704816 3:0.49742321 4:0.60373034 5:0.41814248 6:0.93790477 
1 1:0.78588336 2:0.73822932 3:0.56314975 4:0.40495044 5:0.66376357 6:0.92639795 
1 1:0.216868 2:0.61359779 3:0.28606168 4:0.33406231 5:0.61433983 6:0.87345992 
1 1:0.24951941 2:0.1548889 3:0.70076257 4:0.75837777 5:0.54807224 6:0.27689284 
1 1:0.87998249 2:0.34057519 3:0.32034065 4:0.50914498 5:0.58862713 6:0.87523059 
1 1:0.45155505 2:0.31392063 3:0.070832887 4:0.75022437 5:0.3309356 6:0.14361103 
1 1:0.23828291 2:0.27907312 3:0.24798531 4:0.63391104 5:0.71499721 6:0.52237381 
1 1:0.37320496 2:0.22368933 3:0.74189182 4:0.22200258 5:0.47811978 6:0.70378001 
1 1:0.73683432 2:0.46875822 3:0.092901209 4:0.52427888 5:0.37513261 6:0.36805613 
1 1:0.47645496 2:0.73073322 3:0.73574468 4:0.011916616 5:0.39716335 6:0.17196696 
1 1:0.23478891 2:0.68302555 3:0.66718558 4:0.04033034 5:0.57367529 6:0.69832992 
1 1:0.4952106 2:0.45588781 3:0.086527286 4:0.31960708 5:0.30166103 6:0.85891619 
1 1:0.56565243 2:0.63930109 3:0.78626744 4:0.14025422 5:0.38264629 6:0.44009979 
1 1:0.71238846 2:0.76945182 3:0.45275311 4:0.51017256 5:0.71711131 6:0.97758793 
1 1:0.80604492 2:0.29790236 3:0.17669315 4:0.17932675 5:0.25344573 6:0.58941578 
1 1:0.71666159 2:0.64117597 3:0.14921288 4:0.4113418 5:0.40255377 6:0.7923538 
1 1:0.59053476 2:0.83058487 3:0.61351428 4:0.51366534 5:0.61471411 6:0.073632865 
1 1:0.35246128 2:0.62796872 3:0.76357134 4:0.10018881 5:0.55876947 6:0.61895998 
1 1:0.32663847 2:0.66956243 3:0.81180149 4:0.70812318 5:0.79749877 6:0.53319618 
1 1:0.48459789 2:0.24790311 3:0.84479016 4:0.30949228 5:0.80662105 6:0.68837706 
1 1:0.38482962 2:0.15130598 3:0.68296834 4:0.53832556 5:0.47849219 6:0.45786583 
1 1:0.59696344 2:0.68560417 3:0.4000004 4:0.36039429 5:0.52360803 6:0.24730052 
1 1:0.78610703 2:0.31139507 3:0.57133662 4:0.96112403 5:0.10163428 6:0.26646223 
1 1:0.18892155 2:0.45028283 3:0.80378494 4:0.62069006 5:0.42626248 6:0.66352139 
1 1:0.61743198 2:0.84281977 3:0.38149936 4:0.57768494 5:0.72747912 6:0.64103719 
1 1:0.17898177 2:0.4382079 3:0.58778497 4:0.843802 5:0.54820933 6:0.48935968 
1 1:0.1638952 2:0.65732323 3:0.38912116 4:0.21402789 5:0.79051881 6:0.49978791 
1 1:0.36536816 2:0.32855599 3:0.070549013 4:0.70749451 5:0.41928478 6:0.29786142 
1 1:0.59551868 2:0.21411062 3:0.76584059 4:0.30529157 5:0.12527386 6:0.11071967 
1 1:0.66003893 2:0.066377936 3:0.58094506 4:0.57998278 5:0.37994278 6:0.37203882 
1 1:0.49512958 2:0.27135348 3:0.91444528 4:0.41589227 5:0.37356679 6:0.75178263 
1 1:0.37658724 2:0.24404834 3:0.76433334 4:0.50383727 5:0.26929114 6:0.090153701 
1 1:0.82043908 2:0.31483522 3:0.37628751 4:0.70526897 5:0.54365839 6:0.29399986 
1 1:0.16486806 2:0.2188455 3:0.34835045 4:0.053169177 5:0.41559915 6:0.51274454 
1 1:0.61462433 2:0.081428347 3:0.50638125 4:0.44790089 5:0.44159269 6:0.49871933 
1 1:0.43316252 2:0.14742909 3:0.39910205 4:0.8491631 5:0.7214713 6:0.31012565 
1 1:0.40358756 2:0.61506236 3:0.86215703 4:0.67175407 5:0.65797917 6:0.95329184 
1 1:0.54228399 2:0.46792192 3:0.003424654 4:0.70254481 5:0.41070092 6:0.57009493 
1 1:0.32873445 2:0.81504361 3:0.57138813 4:0.15868616 5:0.76612098 6:0.51014691 
1 1:0.65078737 2:0.22050723 3:0.79187951 4:0.64198489 5:0.32772259 6:0.20793218 
1 1:0.09358946 2:0.27432784 3:0.38627957 4:0.5774801 5:0.56034745 6:0.60729186 
1 1:0.32963222 2:0.79877396 3:0.46618432 4:0.15413152 5:0.85707616 6:0.62492724 
1 1:0.16513111 2:0.53117401 3:0.38554145 4:0.42827511 5:0.57457735 6:0.15727451 
1 1:0.54065661 2:0.72250774 3:0.31244969 4:0.66814122 5:0.32989425 6:0.076438548 
1 1:0.8343074 2:0.40592174 3:0.23112844 4:0.20649174 5:0.21337429 6:0.61633071 
1 1:0.36376132 2:0.32746396 3:0.87497099 4:0.62475831 5:0.43687067 6:0.39830629 
1 1:0.88257758 2:0.35040617 3:0.31252746 4:0.79676699 5:0.68924408 6:0.60430456 
1 1:0.61458954 2:0.2533377 3:0.53157001 4:0.40216605 5:0.70509145 6:0.85189561 
1 1:0.15897739 2:0.58284334 3:0.73916179 4:0.21008788 5:0.12132132 6:0.44274113 
1 1:0.55619756 2:0.17971176 3:0.74936785 4:0.20915907 5:0.78239898 6:0.3330292 
1 1:0.85417299 2:0.6553654 3:0.52973496 4:0.41307938 5:0.84189751 6:0.5462892 
1 1:0.59120656 2:0.72288742 3:0.61600781 4:0.066517832 5:0.54360315 6:0.69509413 
1 1:0.43535945 2:0.7465355 3:0.54680954 4:0.81223736 5:0.78664506 6:0.74992959 
1 1:0.84389766 2:0.66876426 3:0.65157569 4:0.59915463 5:0.29798266 6:0.1590393 
1 1:0.71837173 2:0.53201579 3:0.85183316 4:0.53415448 5:0.23408507 6:0.30520866 
1 1:0.52458907 2:0.75762498 3:0.69457495 4:0.026223143 5:0.34355639 6:0.7691466 
1 1:0.60856981 2:0.6429449 3:0.79255035 4:0.48252787 5:0.62346193 6:0.21741971 
1 1:0.54189978 2:0.77054822 3:0.52557962 4:0.47725522 5:0.55361515 6:0.34430149 
1 1:0.88211521 2:0.40096626 3:0.70073215 4:0.63942641 5:0.33942264 6:0.1800637 
1 1:0.89222459 2:0.4331858 3:0.54721885 4:0.37103843 5:0.78736435 6:0.28328239 
1 1:0.90961602 2:0.4328255 3:0.39131925 4:0.43900664 5:0.13721373 6:0.44318746 
1 1:0.5465176 2:0.095994489 3:0.43337978 4:0.78821825 5:0.59993915 6:0.020046241 
1 1:0.83876339 2:0.63546692 3:0.41261433 4:0.96909858 5:0.61326123 6:0.78839149 
1 1:0.69345551 2:0.70759764 3:0.30413677 4:0.12006286 5:0.93116266 6:0.4323423 
1 1:0.16120613 2:0.5099933 3:0.76070768 4:0.84311552 5:0.27146496 6:0.13078997 
1 1:0.38651436 2:0.22801053 3:0.43205982 4:0.48667033 5:0.25068845 6:0.22162432 
1 1:0.4525102 2:0.73719552 3:0.40177234 4:0.24524668 5:0.75935524 6:0.70537045 
1 1:0.92634084 2:0.34159037 3:0.53415601 4:0.50383813 5:0.23565629 6:0.82198385 
1 1:0.7003372 2:0.23638561 3:0.83507216 4:0.76367145 5:0.57274513 6:0.57597389 
1 1:0.32704973 2:0.679368 3:0.77930304 4:0.72177982 5:0.64701735 6:0.93829294 
1 1:0.37349855 2:0.23189756 3:0.86493025 4:0.96491428 5:0.3257292 6:0.52069084 
1 1:0.75842349 2:0.7756938 3:0.35033161 4:0.21229407 5:0.57681131 6:0.76962124 
1 1:0.69728784 2:0.67071272 3:0.31137328 4:0.27620352 5:0.47481084 6:0.31048016 
1 1:0.2653323 2:0.73371748 3:0.50788599 4:0.56565257 5:0.2188517 6:0.12386292 
1 1:0.36433005 2:0.71375603 3:0.32261233 4:0.3393678 5:0.8347622 6:0.88968516 
1 1:0.34863222 2:0.55075087 3:0.82642983 4:0.51752848 5:0.65402481 6:0.45780806 
1 1:0.66504458 2:0.8175078 3:0.46577864 4:0.52804361 5:0.34899797 6:0.62757037 
1 1:0.89792769 2:0.67149873 3:0.55872452 4:0.69443905 5:0.67544283 6:0.68990009 
1 1:0.77704742 2:0.72359532 3:0.7683354 4:0.52928521 5:0.62742193 6:0.41341232 
1 1:0.67646693 2:0.26852832 3:0.65156869 4:0.9661346 5:0.49167189 6:0.45485986 
1 1:0.10036028 2:0.25363344 3:0.63717784 4:0.64170285 5:0.5846412 6:0.46766443 
1 1:0.94419876 2:0.45669649 3:0.38559154 4:0.68056191 5:0.2602552 6:0.62824814 
1 1:0.29897616 2:0.67414248 3:0.58503301 4:0.17676773 5:0.069341287 6:0.41214224 
1 1:0.38832622 2:0.56105836 3:0.072417983 4:0.63301889 5:0.36703639 6:0.53870885 
1 1:0.43580161 2:0.75075415 3:0.7771644 4:0.0080281173 5:0.6161151 6:0.32216804 
1 1:0.37685155 2:0.10701612 3:0.47261118 4:0.30394278 5:0.54950293 6:0.85925973 
1 1:0.54556489 2:0.89196281 3:0.50310234 4:0.71962274 5:0.50935661 6:0.40963594 
1 1:0.22316426 2:0.73603625 3:0.3629152 4:0.25535618 5:0.63529056 6:0.84514901 
1 1:0.12556674 2:0.59730105 3:0.63089658 4:0.16197067 5:0.40822797 6:0.65699759 
1 1:0.33150654 2:0.84697669 3:0.56487113 4:0.70685634 5:0.4909948 6:0.46083737 
0.5794767459841322 1:0.7811644 2:0.41791958 3:0.16949399 4:0.78243763 5:0.84756427 6:0.61931605 
1 1:0.19717113 2:0.40281462 3:0.77586834 4:0.52723 5:0.6199137 6:0.58327318 
1 1:0.77321694 2:0.69676386 3:0.59779808 4:0.91684726 5:0.10240237 6:0.49922402 
1 1:0.19704415 2:0.35143951 3:0.24402877 4:0.78538316 5:0.36630647 6:0.33140517 
1 1:0.75683276 2:0.73778775 3:0.38468876 4:0.93646934 5:0.71823821 6:0.5688396 
1 1:0.49324821 2:0.15075141 3:0.60526745 4:0.72685477 5:0.44882738 6:0.70530153 
1 1:0.16504644 2:0.36278982 3:0.77083017 4:0.56549602 5:0.60361481 6:0.97280727 
1 1:0.61990539 2:0.71058994 3:0.22385842 4:0.14309856 5:0.53345602 6:0.51738479 
1 1:0.20897455 2:0.69713307 3:0.60852006 4:0.58204305 5:0.49764537 6:0.39612974 
1 1:0.41376572 2:0.1708175 3:0.52205742 4:0.24966104 5:0.057028207 6:0.24854872 
1 1:0.70358708 2:0.46252333 3:0.13184388 4:0.48510452 5:0.58009434 6:0.78077844 
1 1:0.68831639 2:0.20225188 3:0.34088735 4:0.86388188 5:0.42075123 6:0.18845844 
1 1:0.93864034 2:0.46694158 3:0.59850469 4:0.48441057 5:0.5693265 6:0.73456706 
1 1:0.12507279 2:0.20108256 3:0.55554474 4:0.16236056 5:0.4119101 6:0.44769304 
1 1:0.67134869 2:0.54320827 3:0.10448982 4:0.11393788 5:0.75525592 6:0.5610954 
1 1:0.52384891 2:0.8053238 3:0.66175777 4:0.90319495 5:0.70762095 6:0.64851449 
1 1:0.6240089 2:0.1846895 3:0.29250647 4:0.45083347 5:0.78482217 6:0.97545245 
1 1:0.19866366 2:0.4831664 3:0.66413266 4:0.55747695 5:0.24618112 6:0.54806693 
1 1:0.53656149 2:0.75467532 3:0.18422512 4:0.71869535 5:0.47173072 6:0.71561373 
1 1:0.87001254 2:0.26012357 3:0.28049458 4:0.60770617 5:0.5021327 6:0.60670357 
1 1:0.4493551 2:0.064021604 3:0.54678974 4:0.85023904 5:0.53975701 6:0.67188883 
1 1:0.66378391 2:0.3198826 3:0.11027279 4:0.61331252 5:0.71835521 6:0.59895803 
1 1:0.48822157 2:0.19164532 3:0.36645715 4:0.21495199 5:0.49028379 6:0.95028834 
1 1:0.2370719 2:0.31018117 3:0.42789201 4:0.61886328 5:0.54511869 6:0.70409411 
1 1:0.12151643 2:0.57380508 3:0.35808708 4:0.80281452 5:0.54432611 6:0.46429688 
1 1:0.88879363 2:0.6614397 3:0.41199758 4:0.40890239 5:0.64871833 6:0.60534333 
1 1:0.13415297 2:0.41571361 3:0.68721842 4:0.15740522 5:0.67075044 6:0.58845248 
1 1:0.72001444 2:0.22669358 3:0.20093196 4:0.15878623 5:0.3233903 6:0.22004283 
1 1:0.32761243 2:0.37029069 3:0.83025999 4:0.64735962 5:0.23274943 6:0.99747728 
1 1:0.34816333 2:0.23899476 3:0.710306 4:0.80146984 5:0.55462914 6:0.19808376 
1 1:0.42243182 2:0.48519068 3:0.1337782 4:0.028901766 5:0.42611044 6:0.87592478 
1 1:0.84022082 2:0.59414487 3:0.78287335 4:0.50898784 5:0.58945419 6:0.28780036 
1 1:0.40106863 2:0.10639324 3:0.40356286 4:0.70725373 5:0.36202729 6:0.45746122 
1 1:0.43304516 2:0.72506898 3:0.6409036 4:0.59382702 5:0.60569987 6:0.49761875 
1 1:0.63325632 2:0.68596091 3:0.51595172 4:0.050027306 5:0.70734157 6:0.93044606 
1 1:0.21287403 2:0.18375137 3:0.69816243 4:0.10920763 5:0.47842189 6:0.51806345 
1 1:0.2652195 2:0.52476655 3:0.91587569 4:0.69579094 5:0.41561824 6:0.53694799 
1 1:0.39854751 2:0.71937699 3:0.33133698 4:0.93298201 5:0.49793344 6:0.56943157 
1 1:0.33132893 2:0.23950638 3:0.80073731 4:0.92404008 5:0.71773112 6:0.44995538 
1 1:0.60795503 2:0.77861339 3:0.38448305 4:0.62340999 5:0.05898042 6:0.21890159 
1 1:0.21005115 2:0.71488748 3:0.47713752 4:0.53371745 5:0.57320837 6:0.81876517 
1 1:0.60419798 2:0.10759454 3:0.62937807 4:0.60241231 5:0.54773716 6:0.86005804 
1 1:0.72402475 2:0.64292662 3:0.52179704 4:0.66847355 5:0.83875293 6:0.63114275 
1 1:0.66755176 2:0.14926655 3:0.57554983 4:0.21267691 5:0.47845737 6:0.7939094 
1 1:0.36699881 2:0.8017872 3:0.65998853 4:0.65901877 5:0.32134203 6:0.035031326 
1 1:0.66771999 2:0.17657848 3:0.59213456 4:0.74648451 5:0.46931129 6:0.65571949 
1 1:0.43631526 2:0.092235504 3:0.49645698 4:0.97681033 5:0.63330038 6:0.51626276 
1 1:0.21349102 2:0.28870714 3:0.63929836 4:0.35614953 5:0.38620557 6:0.77984517 
1 1:0.78056369 2:0.18800072 3:0.67541935 4:0.88928408 5:0.47996461 6:0.21941178 
1 1:0.79916822 2:0.39882853 3:0.78808349 4:0.50530657 5:0.86470292 6:0.50657017 
1 1:0.64979309 2:0.30669262 3:0.88300732 4:0.23613709 5:0.65031188 6:0.46988718 
1 1:0.35458274 2:0.79015058 3:0.65229266 4:0.13479628 5:0.29442165 6:0.67268693 
1 1:0.30936966 2:0.73467424 3:0.43457174 4:0.64348411 5:0.89503192 6:0.60282119 
1 1:0.50318971 2:0.11247494 3:0.35433471 4:0.43633107 5:0.44010316 6:0.10108192 
1 1:0.10587815 2:0.46689081 3:0.49244362 4:0.15956284 5:0.39332577 6:0.7404953 
1 1:0.96580108 2:0.51945806 3:0.60847449 4:0.29109236 5:0.41042008 6:0.55094427 
1 1:0.46264754 2:0.73048365 3:0.80155971 4:0.60777009 5:0.17572309 6:0.40310639 
1 1:0.3308203 2:0.2985311 3:0.096887054 4:0.32130289 5:0.57104136 6:0.57834851 
1 1:0.23572412 2:0.58890067 3:0.33504933 4:0.27194563 5:0.56903499 6:0.80293411 
1 1:0.65203743 2:0.62565717 3:0.22453376 4:0.75516647 5:0.45197044 6:0.13509787 
1 1:0.065281208 2:0.40290658 3:0.50299656 4:0.20461054 5:0.52536909 6:0.12327676 
1 1:0.92281465 2:0.3259048 3:0.5211351 4:0.54565968 5:0.028307049 6:0.62137968 
1 1:0.76724559 2:0.72860041 3:0.316444 4:0.35958737 5:0.6219612 6:0.72058424 
1 1:0.099087 2:0.35779918 3:0.42166415 4:0.42503517 5:0.44970379 6:0.81045788 
1 1:0.51930752 2:0.5912566 3:0.92312318 4:0.69024864 5:0.26655479 6:0.51153955 
1 1:0.87628705 2:0.39924858 3:0.66957837 4:0.73961959 5:0.38980798 6:0.17634753 
1 1:0.25967456 2:0.52526435 3:0.25530683 4:0.32029424 5:0.81319177 6:0.10707144 
1 1:0.54808085 2:0.35743773 3:0.16438945 4:0.16827688 5:0.87263221 6:0.15193261 
1 1:0.65906328 2:0.24123345 3:0.81086926 4:0.80210806 5:0.20772572 6:0.74269704 
1 1:0.80324916 2:0.65376642 3:0.37079901 4:0.65041202 5:0.4367535 6:0.17317643 
1 1:0.22972101 2:0.23741413 3:0.74040327 4:0.77098467 5:0.61133037 6:0.73315342 
1 1:0.3816975 2:0.59367387 3:0.23439356 4:0.94127594 5:0.91562027 6:0.52942576 
1 1:0.17806348 2:0.64660111 3:0.61533872 4:0.86355196 5:0.15993251 6:0.079678583 
1 1:0.59755463 2:0.10627108 3:0.40874276 4:0.076377701 5:0.69261199 6:0.66355634 
1 1:0.71198628 2:0.12169177 3:0.52915063 4:0.30601212 5:0.80987808 6:0.45040027 
1 1:0.14467335 2:0.40474642 3:0.33365626 4:0.25351652 5:0.70263155 6:0.87959054 
1 1:0.67570121 2:0.57016704 3:0.1076246 4:0.48627462 5:0.37522642 6:0.093780961 
1 1:0.33987056 2:0.64717296 3:0.46146355 4:0.51214184 5:0.34249164 6:0.43245658 
1 1:0.71784284 2:0.20789001 3:0.35921596 4:0.4535501 5:0.31763809 6:0.7271987 
1 1:0.56275086 2:0.72176254 3:0.58572424 4:0.44136695 5:0.47303087 6:0.71408657 
1 1:0.36289829 2:0.79087268 3:0.594078 4:0.66286039 5:0.38812591 6:0.43699378 
1 1:0.87647345 2:0.55873947 3:0.64499478 4:0.49422404 5:0.75198431 6:0.61369958 
1 1:0.39287336 2:0.35995871 3:0.21854137 4:0.86034776 5:0.37351012 6:0.028171772 
1 1:0.31561598 2:0.7462797 3:0.49392118 4:0.2565691 5:0.35255442 6:0.7695091 
1 1:0.49601172 2:0.85993276 3:0.66090887 4:0.3398412 5:0.65945735 6:0.34851276 
1 1:0.89887972 2:0.3341688 3:0.25184046 4:0.53622739 5:0.26349173 6:0.66364474 
1 1:0.12936753 2:0.65080595 3:0.3200495 4:0.77909394 5:0.24540185 6:0.44053905 
1 1:0.34062516 2:0.72481015 3:0.75124288 4:0.62407127 5:0.78020677 6:0.63670498 
1 1:0.65747016 2:0.7774843 3:0.38243424 4:0.1595837 5:0.3425226 6:0.20824446 
1 1:0.3627205 2:0.7328014 3:0.59715006 4:0.21081422 5:0.53607924 6:0.84470356 
1 1:0.11822096 2:0.52157707 3:0.73818253 4:0.56653708 5:0.27017597 6:0.85364197 
1 1:0.46317977 2:0.18311343 3:0.78934025 4:0.4702613 5:0.81115543 6:0.31397255 
1 1:0.28553384 2:0.28719572 3:0.14363915 4:0.5191711 5:0.57390596 6:0.73946304 
1 1:0.85981415 2:0.35821013 3:0.38602346 4:0.50592797 5:0.4819808 6:0.077948082 
1 1:0.59515391 2:0.10421102 3:0.31561107 4:0.66936843 5:0.64920271 6:0.5576852 
1 1:0.58852529 2:0.15550952 3:0.69799695 4:0.2809087 5:0.5087312 6:0.45254813 
1 1:0.90179146 2:0.49490787 3:0.34267421 4:0.65877883 5:0.55389282 6:0.98604259 
1 1:0.075486201 2:0.37720267 3:0.38675976 4:0.5214286 5:0.67195174 6:0.24386464 
1 1:0.35411359 2:0.43566996 3:0.90644043 4:0.98841443 5:0.5943413 6:0.68273147 
1 1:0.32672871 2:0.81806573 3:0.31826585 4:0.37227237 5:0.44059403 6:0.49382568 
1 1:0.58007516 2:0.23360064 3:0.53827009 4:0.95597562 5:0.36035736 6:0.2186609 
1 1:0.23634335 2:0.64133357 3:0.72958455 4:0.10646014 5:0.51411505 6:0.89989882 
1 1:0.20368307 2:0.79089593 3:0.60858942 4:0.53177746 5:0.37362871 6:0.28146619 
1 1:0.7860162 2:0.45603556 3:0.15507245 4:0.3344913 5:0.33645221 6:0.48842721 
1 1:0.67551552 2:0.45214843 3:0.83646849 4:0.80022892 5:0.70743355 6:0.62972377 
1 1:0.07643697 2:0.5635476 3:0.54627283 4:0.58242153 5:0.26237009 6:0.19472548 
1 1:0.72011225 2:0.22298299 3:0.57866573 4:0.16803747 5:0.23004306 6:0.36909598 
1 1:0.48320474 2:0.41826662 3:0.87311631 4:0.86959573 5:0.27150301 6:0.40349606 
1 1:0.43511989 2:0.49799566 3:0.17303698 4:0.54138811 5:0.69499128 6:0.19578451 
1 1:0.74962185 2:0.4807058 3:0.28626189 4:0.091707903 5:0.38107756 6:0.099103947 
1 1:0.57000819 2:0.24280411 3:0.67147034 4:0.025574032 5:0.43553956 6:0.77659963 
1 1:0.64367246 2:0.34469784 3:0.82261954 4:0.65599299 5:0.74540776 6:0.53450792 
1 1:0.82434813 2:0.27166214 3:0.7155826 4:0.40637325 5:0.56070712 6:0.061291839 
1 1:0.56388816 2:0.71053109 3:0.8439453 4:0.85680944 5:0.5469343 6:0.51126975 
1 1:0.73249151 2:0.21008324 3:0.6102957 4:0.019280564 5:0.56205665 6:0.45072091 
1 1:0.34825038 2:0.72662992 3:0.82692842 4:0.78040416 5:0.70931751 6:0.539008 
1 1:0.6044724 2:0.28065068 3:0.15338152 4:0.67648866 5:0.059647952 6:0.79370937 
1 1:0.75340923 2:0.59826138 3:0.77270461 4:0.68494989 5:0.7542304 6:0.35017434 
1 1:0.84204419 2:0.62553028 3:0.48022564 4:0.54651201 5:0.40033782 6:0.095144376 
1 1:0.5535177 2:0.68228013 3:0.81813604 4:0.52897025 5:0.61983612 6:0.29756969 
1 1:0.54596534 2:0.19641248 3:0.45746146 4:0.83124385 5:0.14449201 6:0.1911372 
1 1:0.20577128 2:0.61974859 3:0.74113455 4:0.66413026 5:0.59663636 6:0.5731842 
1 1:0.54820662 2:0.51150992 3:0.93383674 4:0.86533514 5:0.59260972 6:0.31120108 
0.821144765327784 1:0.28097989 2:0.83855019 3:0.58005056 4:0.7231367 5:0.40174608 6:0.28794337 
1 1:0.30596747 2:0.22731132 3:0.40157336 4:0.867078 5:0.66464811 6:0.22256184 
1 1:0.31707105 2:0.34521572 3:0.086106839 4:0.77493024 5:0.63056012 6:0.31915647 
1 1:0.4249364 2:0.14862307 3:0.47074537 4:0.25711645 5:0.5216588 6:0.21043923 
1 1:0.9411149 2:0.43628684 3:0.55805143 4:0.87843759 5:0.39080371 6:0.57059132 
1 1:0.58620357 2:0.22941871 3:0.58529961 4:0.11880178 5:0.18780126 6:0.13543377 
1 1:0.84276928 2:0.44739416 3:0.37685486 4:0.027364719 5:0.3379484 6:0.16856358 
1 1:0.17230075 2:0.24660765 3:0.75916708 4:0.56879828 5:0.29367857 6:0.40409406 
1 1:0.65690147 2:0.73181025 3:0.4933314 4:0.022181811 5:0.92821826 6:0.59055638 
1 1:0.48790557 2:0.57241215 3:0.12337205 4:0.9065662 5:0.76391874 6:0.75831381 
1 1:0.43597983 2:0.16906627 3:0.76758143 4:0.3406056 5:0.39461652 6:0.020951256 
1 1:0.72392777 2:0.75106402 3:0.28117957 4:0.9138237 5:0.46343454 6:0.56578145 
1 1:0.59921856 2:0.21584057 3:0.70065376 4:0.58644273 5:0.91182563 6:0.93018534 
1 1:0.873941 2:0.31663133 3:0.38541218 4:0.84227086 5:0.75477168 6:0.38276362 
1 1:0.071482907 2:0.55343699 3:0.43085515 4:0.1955366 5:0.45336389 6:0.269584 
1 1:0.35893962 2:0.52030045 3:0.14507054 4:0.75159005 5:0.47824894 6:0.15888421 
1 1:0.24587357 2:0.35217479 3:0.84749546 4:0.10028871 5:0.62071541 6:0.40458087 
1 1:0.24445851 2:0.61187894 3:0.81250499 4:0.48282192 5:0.52366401 6:0.040763859 
1 1:0.8902265 2:0.53122 3:0.34490507 4:0.12767878 5:0.69023766 6:0.58153868 
1 1:0.53430783 2:0.2148357 3:0.2857031 4:0.2482472 5:0.22533029 6:0.023445613 
1 1:0.60737419 2:0.54509383 3:0.093995249 4:0.38323273 5:0.65585042 6:0.98000054 
1 1:0.20677376 2:0.46758715 3:0.82136297 4:0.85406924 5:0.15109703 6:0.25916395 
1 1:0.30312454 2:0.51072193 3:0.059355572 4:0.56272334 5:0.46445804 6:0.80046894 
1 1:0.31479128 2:0.1240857 3:0.61939335 4:0.3037734 5:0.41934432 6:0.71858896 
1 1:0.45278674 2:0.17639011 3:0.6982449 4:0.44267988 5:0.57982515 6:0.04293968 
1 1:0.48108895 2:0.13111577 3:0.5333795 4:0.71633306 5:0.42121091 6:0.37582245 
0.4453266417079544 1:0.6838586 2:0.56785871 3:0.87234081 4:0.07665017 5:0.34088227 6:0.88060963 
1 1:0.11741773 2:0.52799585 3:0.69613351 4:0.65347611 5:0.6620207 6:0.00049320707 
1 1:0.44245386 2:0.71253426 3:0.8372709 4:0.33378666 5:0.62774442 6:0.4049114 
1 1:0.51586359 2:0.26930737 3:0.58986944 4:0.30925787 5:0.77056304 6:0.4360266 
1 1:0.56533227 2:0.7065885 3:0.87590261 4:0.30490353 5:0.43692481 6:0.39520104 
1 1:0.80550057 2:0.29312167 3:0.4675297 4:0.98152015 5:0.66579538 6:0.0016358693 
1 1:0.15627086 2:0.31128983 3:0.69456678 4:0.82614222 5:0.52493379 6:0.51572334 
1 1:0.66198007 2:0.27440199 3:0.78025498 4:0.83265955 5:0.51875769 6:0.40167731 
1 1:0.26130818 2:0.29707076 3:0.17766851 4:0.48058742 5:0.8363196 6:0.30021331 
1 1:0.82268279 2:0.21967996 3:0.60922339 4:0.67757984 5:0.54586762 6:0.9210949 
1 1:0.81928969 2:0.45678104 3:0.77508679 4:0.75056568 5:0.16585061 6:0.69309641 
1 1:0.36129783 2:0.81446177 3:0.58915372 4:0.58962649 5:0.36501641 6:0.59114938 
1 1:0.55863346 2:0.88571829 3:0.42270502 4:0.29790769 5:0.45902992 6:0.59728667 
1 1:0.36402534 2:0.19268016 3:0.57388927 4:0.26555386 5:0.15596384 6:0.80464054 
1 1:0.64608758 2:0.11654805 3:0.52877338 4:0.44091511 5:0.29192269 6:0.15335941 
0.8963920582649867 1:0.6049062 2:0.35797479 3:0.036569596 4:0.29923608 5:0.17544978 6:0.5688527 
1 1:0.46333333 2:0.3400078 3:0.7832449 4:0.45568228 5:0.39950051 6:0.42740111 
1 1:0.46748393 2:0.53392998 3:0.95408445 4:0.60256909 5:0.46696534 6:0.20228758 
1 1:0.43009904 2:0.67883022 3:0.24543137 4:0.085535497 5:0.77691136 6:0.80410423 
1 1:0.47579559 2:0.74973832 3:0.71891298 4:0.16536192 5:0.57265581 6:0.095682372 
1 1:0.43288524 2:0.050810523 3:0.46964148 4:0.73155117 5:0.46172298 6:0.30745954 
1 1:0.69251094 2:0.12302301 3:0.57978042 4:0.46747273 5:0.19277757 6:0.80876032 
1 1:0.89834445 2:0.30338631 3:0.33056973 4:0.55237741 5:0.42991798 6:0.25475138 
1 1:0.22577188 2:0.65573739 3:0.16372017 4:0.67374215 5:0.34023564 6:0.59405363 
1 1:0.66048785 2:0.22108675 3:0.62173353 4:0.86439257 5:0.57721569 6:0.083491129 
1 1:0.72786741 2:0.21572505 3:0.78526416 4:0.53160782 5:0.45962128 6:0.94266415 
1 1:0.6439696 2:0.30624731 3:0.093396271 4:0.50530436 5:0.22527783 6:0.48584493 
1 1:0.56101794 2:0.76559102 3:0.59481666 4:0.68781329 5:0.67949173 6:0.15983782 
1 1:0.23939309 2:0.66732586 3:0.21512538 4:0.1372464 5:0.6896966 6:0.17765867 
1 1:0.81647261 2:0.52243168 3:0.12912996 4:0.33305929 5:0.3713328 6:0.64380032 
1 1:0.45135042 2:0.22720676 3:0.3338979 4:0.6410264 5:0.57876105 6:0.86060657 
1 1:0.56746862 2:0.20915189 3:0.83038092 4:0.70937792 5:0.47645031 6:0.14563926 
1 1:0.31564484 2:0.22447334 3:0.38638837 4:0.34496958 5:0.23602924 6:0.94169233 
1 1:0.93409573 2:0.4945243 3:0.38275222 4:0.66112638 5:0.72549363 6:0.20232497 
1 1:0.55929353 2:0.2422802 3:0.16776222 4:0.3023325 5:0.55755119 6:0.82377425 
1 1:0.21345329 2:0.27034739 3:0.45414947 4:0.5589599 5:0.80937406 6:0.10005376 
1 1:0.6036009 2:0.61965389 3:0.92125063 4:0.70287836 5:0.37068952 6:0.71176335 
1 1:0.56261257 2:0.20751015 3:0.25557439 4:0.48934353 5:0.72496384 6:0.30398653 
1 1:0.059657583 2:0.43287322 3:0.23536794 4:0.47941639 5:0.46704684 6:0.46663817 
1 1:0.55700099 2:0.40983274 3:0.86951335 4:0.48459229 5:0.74331403 6:0.74418364 
1 1:0.45248335 2:0.21840057 3:0.66412149 4:0.49212583 5:0.99161216 6:0.62779726 
1 1:0.34729465 2:0.73786638 3:0.22491527 4:0.056465219 5:0.37959776 6:0.35500528 
1 1:0.74087936 2:0.53248782 3:0.69495119 4:0.51177418 5:0.54147356 6:0.60155532 
1 1:0.47742221 2:0.64832721 3:0.13556324 4:0.4330072 5:0.57184736 6:0.58336703 
1 1:0.92005634 2:0.51676832 3:0.50972367 4:0.63615043 5:0.84088765 6:0.45998843 
1 1:0.62471837 2:0.35379429 3:0.1560092 4:0.012249683 5:0.58320437 6:0.23332766 
1 1:0.12384921 2:0.43767436 3:0.44384857 4:0.31497421 5:0.54325368 6:0.65621094 
1 1:0.81051647 2:0.529004 3:0.31623046 4:0.28498915 5:0.12179846 6:0.45322309 
1 1:0.64331689 2:0.62188099 3:0.8643731 4:0.63149502 5:0.5127736 6:0.29226206 
1 1:0.7359773 2:0.25679191 3:0.38726437 4:0.51845564 5:0.89234544 6:0.27029344 
1 1:0.71168729 2:0.38245926 3:0.1031996 4:0.51658481 5:0.16105272 6:0.7821377 
1 1:0.697177 2:0.15350271 3:0.41751595 4:0.88631661 5:0.4574872 6:0.077481827 
1 1:0.54290221 2:0.64624645 3:0.17701761 4:0.10538424 5:0.10577451 6:0.4930097 
1 1:0.64032269 2:0.76222915 3:0.22807941 4:0.490742 5:0.36002666 6:0.75589317 
1 1:0.60711059 2:0.079283721 3:0.41743404 4:0.22031416 5:0.30631369 6:0.4010771 
1 1:0.39262311 2:0.15126664 3:0.41397647 4:0.25718188 5:0.17452269 6:0.3503102 
1 1:0.46976804 2:0.11433475 3:0.2943984 4:0.22789227 5:0.51112266 6:0.46866035 
1 1:0.23035295 2:0.19920029 3:0.62207027 4:0.77018905 5:0.75771007 6:0.39786286 
1 1:0.82983474 2:0.18211267 3:0.47317246 4:0.62038484 5:0.44606047 6:0.14244891 
1 1:0.70221894 2:0.762529 3:0.53604824 4:0.70468539 5:0.17785589 6:0.96845341 
1 1:0.68972923 2:0.45826867 3:0.12089773 4:0.4223857 5:0.86698057 6:0.64815138 
1 1:0.80706717 2:0.53910815 3:0.81459573 4:0.7885947 5:0.24183479 6:0.5789694 
1 1:0.34283945 2:0.80047487 3:0.45913683 4:0.34364681 5:0.51320791 6:0.9517623 
1 1:0.31223859 2:0.18699263 3:0.52327747 4:0.085026756 5:0.41339643 6:0.21951764 
1 1:0.14611727 2:0.71945944 3:0.59127188 4:0.49343716 5:0.3979528 6:0.50857567 
1 1:0.53256644 2:0.80181223 3:0.40370799 4:0.69653335 5:0.47353616 6:0.98463768 
1 1:0.35791943 2:0.57645608 3:0.91548142 4:0.25185492 5:0.49556541 6:0.40145405 
1 1:0.85901435 2:0.64119432 3:0.47778491 4:0.048045971 5:0.42728368 6:0.40201417 
1 1:0.35937321 2:0.37431546 3:0.13703371 4:0.26409788 5:0.46366701 6:0.94980022 
1 1:0.31398196 2:0.55551448 3:0.91633979 4:0.51301753 5:0.43187603 6:0.73676398 
1 1:0.48429606 2:0.69938125 3:0.62563729 4:0.74127762 5:0.56023087 6:0.61160069 
1 1:0.44568898 2:0.698024 3:0.85246241 4:0.83767275 5:0.26955757 6:0.39378841 
1 1:0.169232 2:0.49032753 3:0.29018131 4:0.23479244 5:0.58098809 6:0.06342152 
1 1:0.20635587 2:0.71087393 3:0.37853314 4:0.79683292 5:0.73044126 6:0.84000426 
1 1:0.65179405 2:0.70737784 3:0.19484583 4:0.78835931 5:0.37137632 6:0.8583526 
1 1:0.86395972 2:0.42148876 3:0.23760999 4:0.46833152 5:0.35179859 6:0.87137804 
1 1:0.15094157 2:0.63227624 3:0.41129522 4:0.47244398 5:0.4295463 6:0.44989276 
1 1:0.60165197 2:0.31372862 3:0.093144369 4:0.65101778 5:0.68303946 6:0.78795019 
1 1:0.80942923 2:0.40902273 3:0.28299118 4:0.95639691 5:0.71737215 6:0.79083669 
1 1:0.26305031 2:0.21681628 3:0.31770973 4:0.63067177 5:0.4098254 6:0.23677872 
0.2399275816362405 1:0.62228344 2:0.18903944 3:0.78403372 4:0.58003904 5:0.85498263 6:0.65168621 
1 1:0.28352587 2:0.66811455 3:0.57791472 4:0.90525592 5:0.49974546 6:0.80122625 
1 1:0.89912243 2:0.52694725 3:0.55281167 4:0.10724875 5:0.32593313 6:0.36987129 
1 1:0.39678923 2:0.11833442 3:0.27539015 4:0.37441579 5:0.41008092 6:0.6114175 
1 1:0.71506239 2:0.77055642 3:0.46114635 4:0.75347316 5:0.8300271 6:0.59851374 
1 1:0.69633921 2:0.82011918 3:0.4096248 4:0.80761156 5:0.33470717 6:0.68425039 
1 1:0.28506724 2:0.43475583 3:0.8863985 4:0.58363798 5:0.6429878 6:0.48647595 
1 1:0.45071284 2:0.86083164 3:0.417424 4:0.61275029 5:0.33986089 6:0.61511509 
1 1:0.50532271 2:0.15218018 3:0.49383317 4:0.096430829 5:0.53767627 6:0.18496386 
1 1:0.6620914 2:0.20726888 3:0.19320569 4:0.26177583 5:0.16882202 6:0.67461145 
1 1:0.91333525 2:0.48875571 3:0.56495448 4:0.47569324 5:0.60985538 6:0.54383542 
1 1:0.58454433 2:0.23571924 3:0.44647409 4:0.84295731 5:0.81542091 6:0.89588792 
1 1:0.76363532 2:0.26585474 3:0.32315432 4:0.26581626 5:0.81959665 6:0.24375532 
1 1:0.15537063 2:0.61528843 3:0.6811596 4:0.051432779 5:0.28478604 6:0.77219129 
1 1:0.72335957 2:0.2995013 3:0.52634516 4:0.74644875 5:0.85831885 6:0.068129323 
1 1:0.50802462 2:0.12420861 3:0.65747325 4:0.19835409 5:0.10883743 6:0.84181545 
1 1:0.45268757 2:0.28618674 3:0.11340632 4:0.70228978 5:0.39281665 6:0.5374719 
1 1:0.22046783 2:0.73307195 3:0.24581096 4:0.17809788 5:0.32940755 6:0.35133684 
1 1:0.22835011 2:0.30882506 3:0.29586451 4:0.80795375 5:0.20060347 6:0.14151081 
1 1:0.28152959 2:0.63943276 3:0.72804338 4:0.99834247 5:0.61349774 6:0.75894115 
1 1:0.27849605 2:0.72781877 3:0.79558751 4:0.60167341 5:0.57912642 6:0.72116421 
1 1:0.83252341 2:0.23892007 3:0.74435799 4:0.61428394 5:0.45135987 6:0.33263027 
1 1:0.84538334 2:0.59586781 3:0.25798407 4:0.14233235 5:0.4175871 6:0.74204244 
1 1:0.2116644 2:0.7479576 3:0.45947475 4:0.59519423 5:0.42386738 6:0.53487026 
1 1:0.21412557 2:0.80921657 3:0.5191135 4:0.73422019 5:0.64262366 6:0.54418008 
1 1:0.37479595 2:0.6132988 3:0.21059642 4:0.56441602 5:0.38081134 6:0.15061489 
1 1:0.59162182 2:0.32344213 3:0.10602997 4:0.80330242 5:0.6329113 6:0.80099874 
1 1:0.29745663 2:0.19094961 3:0.38685872 4:0.30788729 5:0.13591522 6:0.79152617 
1 1:0.76492451 2:0.8001982 3:0.39408841 4:0.61048217 5:0.56247638 6:0.67849938 
1 1:0.51949708 2:0.8257513 3:0.48668702 4:0.30025942 5:0.26134016 6:0.21323007 
1 1:0.65136423 2:0.65168896 3:0.76146315 4:0.67540959 5:0.45289127 6:0.58442592 
1 1:0.74666065 2:0.25032245 3:0.45600974 4:0.05199271 5:0.19340236 6:0.17387773 
1 1:0.32748346 2:0.77529163 3:0.48075373 4:0.67251135 5:0.90972865 6:0.61738086 
1 1:0.40691185 2:0.65990345 3:0.15369858 4:0.84901764 5:0.42422613 6:0.35439231 
1 1:0.74633108 2:0.61682185 3:0.19324774 4:0.62323228 5:0.66640531 6:0.81296887 
1 1:0.57807453 2:0.18304233 3:0.44122899 4:0.87325373 5:0.16347736 6:0.78995249 
1 1:0.54698487 2:0.65838173 3:0.35954038 4:0.16814066 5:0.37694359 6:0.71660168 
1 1:0.79878955 2:0.27490442 3:0.31266532 4:0.039541624 5:0.77024053 6:0.51797744 
1 1:0.46046014 2:0.5661998 3:0.18903615 4:0.47902409 5:0.63294044 6:0.89224642 
1 1:0.2700621 2:0.1895892 3:0.57338224 4:0.39371557 5:0.75468484 6:0.44688089 
1 1:0.38664845 2:0.66008626 3:0.2197399 4:0.37258282 5:0.60704228 6:0.053361079 
1 1:0.54455228 2:0.1522843 3:0.47104421 4:0.22031643 5:0.7813289 6:0.4888446 
1 1:0.42132716 2:0.32156554 3:0.091444777 4:0.10390803 5:0.63283523 6:0.66584897 
1 1:0.50628784 2:0.50878394 3:0.20137589 4:0.12055672 5:0.29273764 6:0.083207584 
1 1:0.23168843 2:0.42437434 3:0.90952134 4:0.55908212 5:0.38317573 6:0.62780902 
1 1:0.67477256 2:0.26514756 3:0.67755275 4:0.0011893933 5:0.73864565 6:0.1474543 
1 1:0.61010881 2:0.69369815 3:0.57054552 4:0.074169331 5:0.80817741 6:0.92443265 
1 1:0.30035504 2:0.69564378 3:0.19895453 4:0.46602601 5:0.49639277 6:0.80100813 
1 1:0.77767839 2:0.2034132 3:0.40432065 4:0.78758751 5:0.49963151 6:0.92560613 
1 1:0.68539614 2:0.285826 3:0.66518969 4:0.78315075 5:0.51916291 6:0.72076416 
1 1:0.40799951 2:0.59815021 3:0.13778572 4:0.085483131 5:0.41917855 6:0.88091657 
1 1:0.21301028 2:0.71584065 3:0.26147669 4:0.73481591 5:0.5746216 6:0.36958326 
1 1:0.75515062 2:0.31632453 3:0.82224858 4:0.45297346 5:0.48883949 6:0.21794913 
1 1:0.17926499 2:0.76673663 3:0.53607213 4:0.7220925 5:0.35689909 6:0.64171615 
1 1:0.046709787 2:0.37646017 3:0.4539491 4:0.48364224 5:0.57866214 6:0.16544394 
1 1:0.23206881 2:0.36570937 3:0.65441237 4:0.86411537 5:0.89548021 6:0.51668776 
1 1:0.88756431 2:0.32019518 3:0.68797239 4:0.41995334 5:0.58082625 6:0.47535215 
1 1:0.33900917 2:0.80226621 3:0.28585531 4:0.71176973 5:0.41365474 6:0.71789891 
1 1:0.54582609 2:0.4997636 3:0.086854289 4:0.87167184 5:0.54896327 6:0.77134762 
0.9805752859914513 1:0.078326427 2:0.68496956 3:0.42349457 4:0.16824481 5:0.34050087 6:0.41079093 
1 1:0.33427336 2:0.068288086 3:0.59841671 4:0.41897025 5:0.48287211 6:0.27539145 
1 1:0.070253943 2:0.43417248 3:0.47327854 4:0.64858316 5:0.48598542 6:0.27701895 
1 1:0.12453577 2:0.52019196 3:0.55106779 4:0.59570175 5:0.47014586 6:0.16774975 
1 1:0.43180809 2:0.77038628 3:0.50780586 4:0.97760474 5:0.46415817 6:0.75585212 
1 1:0.44754216 2:0.63596715 3:0.76452834 4:0.52059982 5:0.51270453 6:0.17350973 
1 1:0.52141485 2:0.11069125 3:0.23168736 4:0.57639084 5:0.40950588 6:0.63333968 
1 1:0.53154322 2:0.12531036 3:0.61154194 4:0.36317399 5:0.56111721 6:0.77996941 
1 1:0.32393325 2:0.48064517 3:0.094653549 4:0.51836018 5:0.39800048 6:0.17461966 
1 1:0.36493503 2:0.49854536 3:0.10835243 4:0.45679867 5:0.57915286 6:0.16243837 
1 1:0.68933809 2:0.193325 3:0.46835304 4:0.56092301 5:0.82699296 6:0.57582616 
1 1:0.70799099 2:0.1788092 3:0.74917892 4:0.59152483 5:0.54383175 6:0.74660217 
1 1:0.30775455 2:0.30878855 3:0.84387368 4:0.3771488 5:0.6026632 6:0.97067232 
1 1:0.51933031 2:0.63618644 3:0.72005614 4:0.74444562 5:0.47123373 6:0.56861337 
1 1:0.4338043 2:0.1965766 3:0.33802125 4:0.42523165 5:0.40013861 6:0.73392671 
1 1:0.090341091 2:0.28469596 3:0.35569799 4:0.72934485 5:0.54554775 6:0.85157025 
1 1:0.46102653 2:0.45612762 3:0.0070005112 4:0.7318185 5:0.47773337 6:0.48391253 
1 1:0.46682779 2:0.53181999 3:0.17355549 4:0.37240213 5:0.5777943 6:0.21885277 
1 1:0.77858888 2:0.5639628 3:0.70945301 4:0.68416801 5:0.090753298 6:0.072757111 
1 1:0.30140789 2:0.1884535 3:0.45640548 4:0.70435647 5:0.1616253 6:0.1794515 
1 1:0.40100172 2:0.66887422 3:0.84621906 4:0.29991662 5:0.78696035 6:0.35069763 
1 1:0.58161745 2:0.1594083 3:0.3439763 4:0.5225412 5:0.2465318 6:0.54923713 
1 1:0.60672752 2:0.50200104 3:0.94342901 4:0.65009686 5:0.57435077 6:0.91774453 
1 1:0.64938767 2:0.42764748 3:0.14850726 4:0.2263053 5:0.41652295 6:0.97345313 
1 1:0.267345 2:0.70272019 3:0.73666985 4:0.4796904 5:0.8255835 6:0.26012777 
1 1:0.408804 2:0.10415539 3:0.6248767 4:0.81307279 5:0.23204722 6:0.43424953 
1 1:0.34630692 2:0.39067088 3:0.14863952 4:0.59452611 5:0.45321226 6:0.17434373 
1 1:0.32988673 2:0.10889743 3:0.36686849 4:0.49832431 5:0.79975687 6:0.4435727 
1 1:0.86547187 2:0.26164071 3:0.54541479 4:0.18081754 5:0.71606601 6:0.6718773 
1 1:0.54768234 2:0.78419453 3:0.72017303 4:0.48653807 5:0.86601387 6:0.460433 
1 1:0.3142119 2:0.4359147 3:0.81698243 4:0.70893829 5:0.31673906 6:0.62977398 
1 1:0.33398848 2:0.71382869 3:0.15940524 4:0.73838611 5:0.37999486 6:0.40147362 
1 1:0.34589724 2:0.5531205 3:0.16637442 4:0.33145213 5:0.83190657 6:0.8322396 
1 1:0.89080396 2:0.53400855 3:0.72994469 4:0.59976215 5:0.44951384 6:0.80649227 
1 1:0.58692518 2:0.68964103 3:0.78924596 4:0.049519734 5:0.20127187 6:0.56063854 
1 1:0.21620184 2:0.63068188 3:0.53065398 4:0.83863481 5:0.83635826 6:0.73268384 
1 1:0.3889867 2:0.2553544 3:0.80737732 4:0.44913325 5:0.67470699 6:0.10580899 
1 1:0.4316419 2:0.086403554 3:0.28146244 4:0.22861822 5:0.4601903 6:0.35101063 
1 1:0.33120954 2:0.21586284 3:0.2968871 4:0.78577906 5:0.14558363 6:0.3312989 
1 1:0.88307684 2:0.33767867 3:0.74908975 4:0.63736845 5:0.67262319 6:0.35415959 
1 1:0.46542559 2:0.13726114 3:0.47078071 4:0.86608637 5:0.45817222 6:0.8139336 
1 1:0.80004376 2:0.43984976 3:0.68774149 4:0.91217623 5:0.0977019 6:0.79692397 
1 1:0.51870425 2:0.83784809 3:0.31440919 4:0.42776095 5:0.2003358 6:0.41410757 
1 1:0.21354149 2:0.5727074 3:0.79775884 4:0.30475317 5:0.69724553 6:0.54661465 
1 1:0.29599987 2:0.22306721 3:0.72441014 4:0.10601725 5:0.34063778 6:0.27001207 
1 1:0.60133731 2:0.30299985 3:0.91706693 4:0.26256627 5:0.47346049 6:0.61644494 
1 1:0.49922504 2:0.1697202 3:0.55833036 4:0.41182737 5:0.45312848 6:0.17943479 
1 1:0.41910218 2:0.14598542 3:0.32006564 4:0.44842889 5:0.36154051 6:0.45758748 
1 1:0.44415197 2:0.11945462 3:0.18318778 4:0.59329945 5:0.45475865 6:0.49220296 
1 1:0.43764301 2:0.58102488 3:0.87863851 4:0.94591616 5:0.46200044 6:0.41663391 
1 1:0.69648126 2:0.81543016 3:0.41222821 4:0.85920194 5:0.45057817 6:0.17715406 
1 1:0.23750842 2:0.17241881 3:0.38684242 4:0.81108607 5:0.56593011 6:0.90832746 
1 1:0.57822 2:0.12676845 3:0.55127146 4:0.57128961 5:0.829636 6:0.37768604 
1 1:0.55581019 2:0.35905872 3:0.89283128 4:0.38154029 5:0.55138101 6:0.04421881 
1 1:0.10497521 2:0.37555337 3:0.42981506 4:0.31136202 5:0.55611531 6:0.7450857 
1 1:0.1301624 2:0.57314532 3:0.69253984 4:0.9716799 5:0.44625847 6:0.47703082 
1 1:0.47425766 2:0.13925209 3:0.59352836 4:0.85666067 5:0.31022552 6:0.37664786 
1 1:0.84977169 2:0.64475348 3:0.32127592 4:0.36155149 5:0.52331545 6:0.17517675 
1 1:0.37217546 2:0.23545546 3:0.82665242 4:0.31524481 5:0.44024055 6:0.32342176 
1 1:0.42997209 2:0.80461838 3:0.27626599 4:0.87106457 5:0.58040009 6:0.62641105 
1 1:0.94066723 2:0.51095824 3:0.40607048 4:0.55156092 5:0.25159247 6:0.5162335 
1 1:0.55357469 2:0.50741253 3:0.19715633 4:0.63376491 5:0.6772642 6:0.85981481 
1 1:0.54618943 2:0.71597508 3:0.1863488 4:0.39917258 5:0.083504562 6:0.34393852 
1 1:0.7502636 2:0.6057685 3:0.83939317 4:0.48970798 5:0.39445012 6:0.47809858 
1 1:0.84484393 2:0.47695613 3:0.4205279 4:0.96475316 5:0.63188171 6:0.69385801 
1 1:0.33385094 2:0.18102538 3:0.61968842 4:0.78394027 5:0.17393528 6:0.94508852 
1 1:0.34190966 2:0.59912098 3:0.85135604 4:0.17063964 5:0.35778275 6:0.84984249 
1 1:0.23698963 2:0.31991751 3:0.35800976 4:0.7866434 5:0.60398445 6:0.96410318 
1 1:0.63678095 2:0.79140933 3:0.27174621 4:0.26546062 5:0.35350374 6:0.74524495 
1 1:0.30536588 2:0.11168573 3:0.45220894 4:0.52456681 5:0.86513675 6:0.53354742 
1 1:0.58664399 2:0.33656681 3:0.90906587 4:0.92259865 5:0.69201721 6:0.59008711 
1 1:0.81381516 2:0.69189331 3:0.53359144 4:0.87298649 5:0.56229261 6:0.74747739 
1 1:0.90157414 2:0.70797177 3:0.58722642 4:0.48368612 5:0.37459112 6:0.44496586 
1 1:0.60047418 2:0.25276623 3:0.32695574 4:0.88848554 5:0.4247566 6:0.07178378 
1 1:0.21471274 2:0.45139625 3:0.77056256 4:0.82459732 5:0.82695568 6:0.50397334 
1 1:0.46624288 2:0.12325831 3:0.41449015 4:0.64926101 5:0.082332986 6:0.80310461 
1 1:0.69740909 2:0.51569294 3:0.92606745 4:0.37320328 5:0.59701732 6:0.342546 
1 1:0.27053233 2:0.17167831 3:0.34755875 4:0.37743916 5:0.53289511 6:0.17993626 
1 1:0.30686928 2:0.7162694 3:0.40979802 4:0.81694519 5:0.53595092 6:0.74253347 
0.7304748092524269 1:0.31073987 2:0.092394702 3:0.32353194 4:0.69939691 5:0.63716931 6:0.34177413 
1 1:0.24609518 2:0.71006521 3:0.42874468 4:0.93572783 5:0.56336142 6:0.84102691 
1 1:0.19768863 2:0.41255383 3:0.80181688 4:0.81557176 5:0.7635692 6:0.3097651 
1 1:0.62495501 2:0.74776277 3:0.42830493 4:0.13256872 5:0.35595038 6:0.68682481 
1 1:0.75232508 2:0.20538966 3:0.66553131 4:0.80064672 5:0.14195688 6:0.85653972 
0.4102300275446843 1:0.74380518 2:0.25079972 3:0.74775507 4:0.13754529 5:0.7368792 6:0.72234369 
1 1:0.60520361 2:0.21330031 3:0.39720686 4:0.99494921 5:0.30206646 6:0.81602201 
1 1:0.72585875 2:0.24733553 3:0.75809618 4:0.61798515 5:0.41720152 6:0.86442959 
1 1:0.27479273 2:0.64305632 3:0.33162092 4:0.97158747 5:0.45365237 6:0.89796487 
1 1:0.76777132 2:0.28111775 3:0.74329582 4:0.92022038 5:0.60904535 6:0.48719779 
1 1:0.18153109 2:0.68648031 3:0.57153924 4:0.064746369 5:0.47354021 6:0.99264999 
1 1:0.74362819 2:0.32363549 3:0.80596778 4:0.52563163 5:0.70503371 6:0.45139536 
0.3891080355131387 1:0.72388738 2:0.63427286 3:0.79330797 4:0.24549274 5:0.75018542 6:0.070408365 
1 1:0.91702065 2:0.55244847 3:0.66147756 4:0.77456607 5:0.24973285 6:0.70461674 
1 1:0.18026184 2:0.1874471 3:0.44489798 4:0.061010434 5:0.27405739 6:0.46711516 
1 1:0.33265961 2:0.66672544 3:0.43995355 4:0.90368235 5:0.326055 6:0.045772063 
1 1:0.51029514 2:0.40300073 3:0.96825482 4:0.80750119 5:0.40294578 6:0.69846781 
1 1:0.75908734 2:0.216462 3:0.54726533 4:0.48608207 5:0.49072306 6:0.80375098 
1 1:0.45550537 2:0.73323185 3:0.28874385 4:0.94403691 5:0.54823655 6:0.39937307 
1 1:0.12295996 2:0.32757325 3:0.50135996 4:0.50714327 5:0.56195655 6:0.99036452 
1 1:0.56996414 2:0.78878249 3:0.59601935 4:0.70294983 5:0.26375607 6:0.078886872 
1 1:0.50542003 2:0.20236182 3:0.74377128 4:0.69971464 5:0.076313561 6:0.90321432 
1 1:0.44026986 2:0.56495198 3:0.87691339 4:0.69972859 5:0.10789293 6:0.35421458 
1 1:0.68969174 2:0.75317292 3:0.63019931 4:0.67056903 5:0.35206375 6:0.60912445 
1 1:0.82461809 2:0.54863373 3:0.7151119 4:0.75029783 5:0.80460009 6:0.16302463 
1 1:0.35662974 2:0.21608433 3:0.12957375 4:0.83258895 5:0.41596326 6:0.58433843 
1 1:0.7960857 2:0.62697325 3:0.44381934 4:0.40086112 5:0.4866417 6:0.75910194 
1 1:0.22100898 2:0.63676687 3:0.28186128 4:0.65878257 5:0.4246869 6:0.90582864 
1 1:0.77011489 2:0.63443602 3:0.85634232 4:0.52566705 5:0.63436495 6:0.37164698 
1 1:0.63501791 2:0.35010364 3:0.047207154 4:0.33765669 5:0.32881349 6:0.329892 
1 1:0.21781464 2:0.16961553 3:0.46748341 4:0.15571386 5:0.3186678 6:0.78651388 
1 1:0.424995 2:0.16771533 3:0.24491274 4:0.023968365 5:0.38436761 6:0.73156562 
1 1:0.17492992 2:0.70471444 3:0.33762716 4:0.31197658 5:0.45269162 6:0.64516612 
1 1:0.17661089 2:0.6636196 3:0.78484166 4:0.55900928 5:0.69640738 6:0.62018364 
1 1:0.3540654 2:0.72780965 3:0.31641264 4:0.79888277 5:0.64420487 6:0.5522484 
1 1:0.12293298 2:0.3080404 3:0.68307111 4:0.60017708 5:0.61713404 6:0.86529657 
1 1:0.55020222 2:0.67537299 3:0.41626094 4:0.48653982 5:0.69762034 6:0.10271769 
1 1:0.64237942 2:0.41359842 3:0.94944033 4:0.31794171 5:0.50226489 6:0.67901971 
1 1:0.48172891 2:0.37447268 3:0.10974043 4:0.17924414 5:0.9043094 6:0.53890622 
1 1:0.41452988 2:0.69606654 3:0.22623479 4:0.095269083 5:0.60945025 6:0.9340932 
1 1:0.3891487 2:0.53350577 3:0.1051439 4:0.67850224 5:0.17148904 6:0.9752644 
1 1:0.78025544 2:0.42199702 3:0.25063003 4:0.032102479 5:0.55499655 6:0.97135983 
1 1:0.22710052 2:0.51299611 3:0.74615294 4:0.57978862 5:0.60691447 6:0.2601757 
1 1:0.60733493 2:0.7727407 3:0.40070406 4:0.092174395 5:0.60838865 6:0.51977038 
1 1:0.56711361 2:0.22184066 3:0.12568628 4:0.32166651 5:0.63326638 6:0.30629361 
1 1:0.27134263 2:0.64485448 3:0.36206502 4:0.163945 5:0.31754922 6:0.89366335 
1 1:0.43675414 2:0.62877987 3:0.11888171 4:0.20607286 5:0.33193905 6:0.91782995 
1 1:0.74317678 2:0.69167812 3:0.38671631 4:0.22112658 5:0.45900293 6:0.092227257 
0.02790667546669268 1:0.38803898 2:0.73679851 3:0.41760767 4:0.12508037 5:0.93264897 6:0.86514493 
1 1:0.46277488 2:0.59784096 3:0.78763983 4:0.22504401 5:0.81688251 6:0.99878686 
1 1:0.79246579 2:0.56173274 3:0.17850619 4:0.41309916 5:0.4395008 6:0.80667785 
1 1:0.80395208 2:0.6099018 3:0.20519275 4:0.014474235 5:0.55219811 6:0.64162982 
1 1:0.42810156 2:0.77050519 3:0.39760777 4:0.95912836 5:0.57003423 6:0.43421735 
1 1:0.085961485 2:0.60517475 3:0.6252312 4:0.83338199 5:0.35801312 6:0.72581053 
1 1:0.85408623 2:0.40253914 3:0.52354488 4:0.49392814 5:0.32705032 6:0.93688581 
1 1:0.70385471 2:0.19131853 3:0.81731911 4:0.29639429 5:0.38700767 6:0.49223018 
1 1:0.27333901 2:0.75611598 3:0.49714535 4:0.68347091 5:0.36236403 6:0.47091341 
1 1:0.92585764 2:0.63723069 3:0.62396651 4:0.40024558 5:0.51914393 6:0.21281776 
1 1:0.6271304 2:0.68834944 3:0.11726051 4:0.34564746 5:0.3097553 6:0.37597486 
1 1:0.15150118 2:0.68370008 3:0.30857046 4:0.39429067 5:0.79415205 6:0.64860813 
1 1:0.25341601 2:0.24351826 3:0.31946735 4:0.60207923 5:0.41694866 6:0.87161478 
1 1:0.87480099 2:0.33716618 3:0.65128332 4:0.76940825 5:0.19684509 6:0.4853985 
1 1:0.24257813 2:0.53497562 3:0.20698515 4:0.32300698 5:0.93005492 6:0.087821667 
1 1:0.54894971 2:0.24646162 3:0.83247931 4:0.79639033 5:0.48105154 6:0.67037231 
1 1:0.70132075 2:0.74481645 3:0.35820291 4:0.39294683 5:0.58198109 6:0.11120353 
1 1:0.37717667 2:0.562277 3:0.80416754 4:0.56099126 5:0.083417188 6:0.41248978 
1 1:0.33183655 2:0.76557848 3:0.41014759 4:0.36682818 5:0.56156722 6:0.086308559 
1 1:0.5032582 2:0.8214782 3:0.38589625 4:0.81300223 5:0.39211374 6:0.14451261 
1 1:0.32206929 2:0.38832135 3:0.85793386 4:0.97064034 5:0.18982437 6:0.39841346 
1 1:0.25736432 2:0.44834376 3:0.87681114 4:0.61174746 5:0.40112488 6:0.37609478 
1 1:0.20281162 2:0.60297533 3:0.48227865 4:0.55084437 5:0.42965829 6:0.45081665 
1 1:0.68775884 2:0.21690894 3:0.47323609 4:0.48527887 5:0.1058292 6:0.2246115 
1 1:0.76252352 2:0.23482307 3:0.66599732 4:0.20686161 5:0.22919896 6:0.25143756 
1 1:0.1453924 2:0.42705505 3:0.73013664 4:0.40870362 5:0.5549778 6:0.4554713 
1 1:0.9007744 2:0.50044958 3:0.44216517 4:0.051568908 5:0.21676656 6:0.69692298 
1 1:0.1886103 2:0.18550489 3:0.70691668 4:0.49769683 5:0.51666023 6:0.60921084 
1 1:0.72779035 2:0.32347437 3:0.81022866 4:0.13971404 5:0.30118184 6:0.15617392 
1 1:0.13009585 2:0.59028044 3:0.56461007 4:0.27408082 5:0.71884165 6:0.75202384 
1 1:0.32426341 2:0.75380547 3:0.41839974 4:0.73929484 5:0.87068866 6:0.018174036 
1 1:0.28238153 2:0.75609713 3:0.46691932 4:0.89921265 5:0.28145655 6:0.59514082 
1 1:0.72503297 2:0.47223015 3:0.17559614 4:0.75017898 5:0.27618486 6:0.84561262 
1 1:0.30691463 2:0.5376386 3:0.27235442 4:0.89985384 5:0.25075782 6:0.20336702 
1 1:0.80804789 2:0.72651029 3:0.61818761 4:0.30920135 5:0.67150468 6:0.41918131 
1 1:0.098950263 2:0.46829685 3:0.32312824 4:0.42395737 5:0.19148496 6:0.5474851 
1 1:0.72622496 2:0.69071219 3:0.46434788 4:0.91937414 5:0.14284842 6:0.62079617 
1 1:0.29765863 2:0.70161908 3:0.60159502 4:0.86418544 5:0.69816987 6:0.38361634 
1 1:0.11872004 2:0.60197218 3:0.7466347 4:0.64049592 5:0.74851732 6:0.62510619 
1 1:0.66543805 2:0.23446641 3:0.26216398 4:0.82489805 5:0.51719436 6:0.76121618 
1 1:0.51857722 2:0.33397737 3:0.94004945 4:0.26811228 5:0.33326497 6:0.45273831 
1 1:0.55096405 2:0.35786538 3:0.11605821 4:0.32329674 5:0.60464393 6:0.16721243 
1 1:0.45777233 2:0.6585279 3:0.88576098 4:0.83467887 5:0.63846936 6:0.48758753 
1 1:0.31585251 2:0.11543449 3:0.51246131 4:0.30265981 5:0.26974556 6:0.74938276 
1 1:0.81024684 2:0.19686415 3:0.61579149 4:0.6882909 5:0.36240474 6:0.92123493 
1 1:0.12942271 2:0.28675586 3:0.46424047 4:0.52950773 5:0.4108493 6:0.88452889 
1 1:0.16012855 2:0.55189294 3:0.62412127 4:0.30586019 5:0.46208102 6:0.59372307 
1 1:0.57568491 2:0.70758037 3:0.59328592 4:0.60297626 5:0.76311691 6:0.36977179 
1 1:0.64445423 2:0.77699469 3:0.50131128 4:0.20362922 5:0.80020945 6:0.37972421 
1 1:0.85743005 2:0.35857485 3:0.25743224 4:0.67725845 5:0.46667229 6:0.74651059 
1 1:0.71989154 2:0.6844355 3:0.27051778 4:0.24308899 5:0.58260641 6:0.48171215 
1 1:0.81311454 2:0.73817934 3:0.57580532 4:0.45650793 5:0.37711254 6:0.77542006 
1 1:0.68083478 2:0.57170975 3:0.84284142 4:0.84292234 5:0.76862478 6:0.57211292 
1 1:0.52844994 2:0.72947611 3:0.24082446 4:0.80463286 5:0.23578942 6:0.50720872 
1 1:0.25281259 2:0.73840607 3:0.73435279 4:0.12684433 5:0.31108741 6:0.67073248 
1 1:0.27084363 2:0.40181514 3:0.18916346 4:0.89287998 5:0.52418671 6:0.062518277 
1 1:0.45181164 2:0.68122771 3:0.25850461 4:0.3881269 5:0.090198418 6:0.45080659 
1 1:0.48119287 2:0.24431074 3:0.72836391 4:0.98324708 5:0.58885031 6:0.52149615 
0.195697218879175 1:0.050230024 2:0.41084271 3:0.61668737 4:0.26630193 5:0.58330598 6:0.88106384 
1 1:0.75741783 2:0.16207302 3:0.48012127 4:0.54535109 5:0.86049909 6:0.23367671 
1 1:0.39439432 2:0.4707964 3:0.12514043 4:0.7453586 5:0.46457133 6:0.16764702 
1 1:0.4245828 2:0.21649126 3:0.17172848 4:0.31498725 5:0.78239484 6:0.52425714 
1 1:0.45259698 2:0.73270047 3:0.80924944 4:0.48287798 5:0.18650852 6:0.97643545 
1 1:0.40009733 2:0.81999382 3:0.4344094 4:0.55884618 5:0.27605907 6:0.91901329 
1 1:0.39901438 2:0.083779537 3:0.66987031 4:0.29917192 5:0.44439241 6:0.7398426 
1 1:0.093071674 2:0.29461794 3:0.44907077 4:0.73590525 5:0.32081539 6:0.4455434 
1 1:0.39949 2:0.66356561 3:0.87375918 4:0.6595163 5:0.49225422 6:0.90029826 
1 1:0.57701945 2:0.67769222 3:0.64507151 4:0.32977121 5:0.56495886 6:0.34297214 
1 1:0.63877769 2:0.59291371 3:0.13517861 4:0.84140056 5:0.71409944 6:0.072801687 
1 1:0.67457035 2:0.3671601 3:0.13709317 4:0.22966622 5:0.90976546 6:0.36728879 
1 1:0.85813012 2:0.67662057 3:0.39410578 4:0.91615902 5:0.41660344 6:0.77793899 
1 1:0.54481721 2:0.72493255 3:0.43018601 4:0.98215613 5:0.12908561 6:0.57819334 
1 1:0.18152822 2:0.60279966 3:0.49264681 4:0.50888854 5:0.16221346 6:0.42217951 
1 1:0.20458998 2:0.77313664 3:0.67221456 4:0.35842679 5:0.41650716 6:0.36892231 
1 1:0.71780784 2:0.16126884 3:0.59914092 4:0.48820769 5:0.73758769 6:0.69141113 
1 1:0.23257038 2:0.66055992 3:0.77746621 4:0.45542556 5:0.77418449 6:0.51137861 
1 1:0.38124904 2:0.6549158 3:0.36359938 4:0.71603985 5:0.65133895 6:0.36939799 
1 1:0.36400828 2:0.72718774 3:0.69263284 4:0.3537324 5:0.98174405 6:0.60487056 
1 1:0.73327392 2:0.28587101 3:0.18725906 4:0.83035364 5:0.32834391 6:0.15800027 
1 1:0.89997592 2:0.52631807 3:0.31169158 4:0.47166121 5:0.18121498 6:0.82420073 
1 1:0.42815848 2:0.78200876 3:0.38393408 4:0.90137961 5:0.27539185 6:0.044422064 
1 1:0.49153801 2:0.21182584 3:0.21917412 4:0.20591282 5:0.58067379 6:0.8871702 
1 1:0.24482769 2:0.19647576 3:0.35851532 4:0.75527238 5:0.6495861 6:0.43077043 
1 1:0.25403099 2:0.33033472 3:0.6174082 4:0.03767266 5:0.68729333 6:0.60999674 
1 1:0.89093888 2:0.70477924 3:0.46710358 4:0.4772332 5:0.4089208 6:0.7954881 
1 1:0.17841406 2:0.41176106 3:0.3968229 4:0.14926071 5:0.58475011 6:0.63360369 
1 1:0.53198933 2:0.75785091 3:0.21169095 4:0.74970916 5:0.65367274 6:0.72825937 
1 1:0.79168451 2:0.59674363 3:0.74212412 4:0.32338397 5:0.47907363 6:0.77618723 
1 1:0.54697903 2:0.080969916 3:0.58455509 4:0.13588045 5:0.48763664 6:0.77907669 
1 1:0.067843559 2:0.35068613 3:0.55696231 4:0.9259568 5:0.54911532 6:0.2514022 
1 1:0.1972166 2:0.43874361 3:0.22694851 4:0.91451955 5:0.26816552 6:0.55189054 
1 1:0.12072458 2:0.56143078 3:0.30428767 4:0.53737865 5:0.453022 6:0.57898556 
1 1:0.41619882 2:0.77554653 3:0.67707681 4:0.018090645 5:0.7076355 6:0.53142537 
1 1:0.84602685 2:0.30626482 3:0.24713582 4:0.31548847 5:0.53370539 6:0.20028951 
1 1:0.65375951 2:0.46674349 3:0.059291921 4:0.557932 5:0.69793907 6:0.66815173 
1 1:0.42038986 2:0.20250645 3:0.61736375 4:0.0047741211 5:0.74041756 6:0.33968435 
1 1:0.44394518 2:0.45765857 3:0.030120265 4:0.60648869 5:0.54592995 6:0.70075287 
1 1:0.4773355 2:0.2454112 3:0.7589612 4:0.56060883 5:0.72807663 6:0.82247087 
1 1:0.08478002 2:0.53011087 3:0.69381913 4:0.42430274 5:0.37392434 6:0.80103435 
1 1:0.51789885 2:0.18401543 3:0.31507406 4:0.58775602 5:0.3443453 6:0.95325559 
1 1:0.73650843 2:0.51962799 3:0.77710283 4:0.18629888 5:0.1590432 6:0.55484561 
1 1:0.49182861 2:0.14360426 3:0.43388582 4:0.9936641 5:0.18231146 6:0.50258066 
1 1:0.54667605 2:0.18664313 3:0.48333715 4:0.6093022 5:0.64279991 6:0.083415274 
1 1:0.35218235 2:0.83501484 3:0.50356791 4:0.68107571 5:0.69972647 6:0.69630383 
1 1:0.546076 2:0.78111532 3:0.70789176 4:0.34954835 5:0.73181547 6:0.15326442 
1 1:0.053895197 2:0.38462756 3:0.68551861 4:0.59748916 5:0.63099771 6:0.6983781 
1 1:0.38191637 2:0.23035528 3:0.31540827 4:0.59815542 5:0.32728719 6:0.88082915 
1 1:0.59461168 2:0.2576893 3:0.83987085 4:0.32255311 5:0.190589 6:0.95574728 
1 1:0.6957298 2:0.7754055 3:0.70955069 4:0.6640754 5:0.60903005 6:0.83860554 
1 1:0.64062219 2:0.28405999 3:0.12576172 4:0.013448119 5:0.53248118 6:0.24101543 
1 1:0.6904179 2:0.62100891 3:0.24922394 4:0.43854627 5:0.83539475 6:0.31189994 
1 1:0.73060431 2:0.40952672 3:0.25797995 4:0.60530026 5:0.44976619 6:0.70726855 
1 1:0.29560586 2:0.70118898 3:0.5662282 4:0.98736736 5:0.70463676 6:0.75254475 
1 1:0.5294355 2:0.56974066 3:0.12928272 4:0.44027169 5:0.57131515 6:0.13963902 
1 1:0.46942291 2:0.20224603 3:0.38072906 4:0.45340728 5:0.7862141 6:0.72649235 
1 1:0.15180492 2:0.64591565 3:0.40066809 4:0.32998763 5:0.078835189 6:0.34742707 
1 1:0.34090742 2:0.60339863 3:0.12607523 4:0.28373935 5:0.52341054 6:0.15390956 
1 1:0.50693953 2:0.52123682 3:0.093251757 4:0.013191804 5:0.55753491 6:0.041065211 
1 1:0.19343534 2:0.35694946 3:0.8071224 4:0.52447935 5:0.4596914 6:0.63601947 
1 1:0.21665491 2:0.24863189 3:0.31521338 4:0.68928759 5:0.49811782 6:0.23625016 
1 1:0.61639516 2:0.66165921 3:0.67566553 4:0.50429805 5:0.79739435 6:0.79609767 
1 1:0.78394814 2:0.75216509 3:0.46437289 4:0.82529109 5:0.75114792 6:0.42502014 
1 1:0.7119722 2:0.14188002 3:0.69684955 4:0.6756684 5:0.61314038 6:0.70034574 
1 1:0.73383663 2:0.69031253 3:0.43472725 4:0.22368638 5:0.34596888 6:0.63708608 
1 1:0.58557744 2:0.20056394 3:0.17898056 4:0.0087599725 5:0.56417645 6:0.24766239 
1 1:0.41804307 2:0.20138993 3:0.2010322 4:0.71815952 5:0.24451659 6:0.80709281 
1 1:0.5801013 2:0.83782713 3:0.46587429 4:0.71238998 5:0.56814475 6:0.86060115 
1 1:0.67821777 2:0.2053728 3:0.4053135 4:0.81606959 5:0.77151069 6:0.30650785 
1 1:0.34258701 2:0.20816106 3:0.72603084 4:0.40639632 5:0.13309163 6:0.028571523 
1 1:0.88063217 2:0.561033 3:0.66048665 4:0.41563762 5:0.50766737 6:0.71662697 
1 1:0.60479914 2:0.79451339 3:0.42343243 4:0.66379617 5:0.81112789 6:0.73949575 
1 1:0.39461203 2:0.38757499 3:0.064630811 4:0.6729773 5:0.27909923 6:0.4263698 
1 1:0.44162966 2:0.23794504 3:0.63028596 4:0.63008916 5:0.23197079 6:0.68626674 
1 1:0.37924004 2:0.43428919 3:0.092028092 4:0.5236529 5:0.51899173 6:0.063875652 
1 1:0.44255969 2:0.20230675 3:0.63168511 4:0.44868879 5:0.62242606 6:0.6033242 
1 1:0.20335663 2:0.33179598 3:0.72857661 4:0.52527656 5:0.90508372 6:0.65486891 
1 1:0.25732629 2:0.55714408 3:0.91683858 4:0.59232145 5:0.32768002 6:0.40842261 
1 1:0.042134175 2:0.50319417 3:0.42416988 4:0.45431776 5:0.60192834 6:0.48263117 
1 1:0.4307017 2:0.09696325 3:0.69308967 4:0.65934707 5:0.68493901 6:0.45261052 
1 1:0.29414621 2:0.20416288 3:0.61732411 4:0.0076149505 5:0.52401076 6:0.77975205 
1 1:0.28255541 2:0.52191558 3:0.19790784 4:0.69487932 5:0.57408411 6:0.95309172 
1 1:0.42360919 2:0.22603042 3:0.38529897 4:0.86674658 5:0.76097944 6:0.28409397 
1 1:0.099255214 2:0.3963774 3:0.53188412 4:0.49540039 5:0.063533696 6:0.82202529 
1 1:0.14507776 2:0.5510793 3:0.75122085 4:0.33744824 5:0.50052219 6:0.62985126 
1 1:0.33916101 2:0.4568836 3:0.078038933 4:0.48670377 5:0.5108028 6:0.32820666 
1 1:0.48940863 2:0.30718484 3:0.85283244 4:0.53869357 5:0.68141503 6:0.90523662 
1 1:0.35651504 2:0.12907185 3:0.35696335 4:0.64884221 5:0.12980493 6:0.56819557 
1 1:0.13870965 2:0.22956746 3:0.33512934 4:0.33661124 5:0.76671054 6:0.56890896 
1 1:0.54667655 2:0.37705599 3:0.95585837 4:0.206499 5:0.40871533 6:0.54666314 
1 1:0.20189515 2:0.35864734 3:0.85146479 4:0.76013891 5:0.33221805 6:0.80213788 
1 1:0.76679045 2:0.27150965 3:0.3138321 4:0.51012825 5:0.71616204 6:0.92234824 
1 1:0.18511621 2:0.36510947 3:0.30374391 4:0.83309157 5:0.91307717 6:0.35195418 
1 1:0.17715648 2:0.32296724 3:0.22905473 4:0.48095476 5:0.75174806 6:0.30170236 
1 1:0.46287866 2:0.78372164 3:0.37656913 4:0.29855386 5:0.63520951 6:0.92151172 
1 1:0.90797472 2:0.62866778 3:0.42894542 4:0.76864831 5:0.32325389 6:0.65242546 
1 1:0.74914462 2:0.62343511 3:0.34786072 4:0.16509537 5:0.47245995 6:0.20219262 
1 1:0.35500245 2:0.1650096 3:0.57057743 4:0.79685019 5:0.34641818 6:0.722147 
1 1:0.73100706 2:0.34941316 3:0.69163292 4:0.76026342 5:0.54630629 6:0.74678366 
1 1:0.54773138 2:0.19596134 3:0.47658179 4:0.11192698 5:0.060760361 6:0.50246167 
1 1:0.9045404 2:0.38152511 3:0.73347107 4:0.224957 5:0.43343207 6:0.64917125 
1 1:0.73689776 2:0.17099118 3:0.59622542 4:0.54858088 5:0.56166131 6:0.27306624 
1 1:0.47208699 2:0.077939383 3:0.63886879 4:0.4617472 5:0.64346875 6:0.78977993 
1 1:0.2547571 2:0.61637388 3:0.39303912 4:0.077182491 5:0.74211405 6:0.95754892 
1 1:0.40929145 2:0.090001718 3:0.5747116 4:0.87904713 5:0.35568301 6:0.52280533 
1 1:0.12031847 2:0.37681917 3:0.53173555 4:0.78383083 5:0.86352677 6:0.70306341 
1 1:0.45986593 2:0.24941649 3:0.24367864 4:0.97612774 5:0.60313135 6:0.93427879 
1 1:0.37121742 2:0.72418664 3:0.76004428 4:0.48281237 5:0.55600426 6:0.29732971 
1 1:0.78384932 2:0.68195886 3:0.31674497 4:0.49473707 5:0.38218004 6:0.54007497 
1 1:0.48508169 2:0.41775665 3:0.020368865 4:0.75099814 5:0.53471465 6:0.28314562 
1 1:0.47893718 2:0.69928188 3:0.6362175 4:0.062941181 5:0.83931885 6:0.71890016 
1 1:0.7625451 2:0.30911081 3:0.55032787 4:0.88378972 5:0.84042781 6:0.22509187 
1 1:0.77845721 2:0.3650811 3:0.57004307 4:0.046051136 5:0.27253051 6:0.1450145 
1 1:0.8608874 2:0.29844385 3:0.4408114 4:0.53199406 5:0.78804504 6:0.83940826 
1 1:0.83145134 2:0.59273053 3:0.30169287 4:0.73741267 5:0.47370432 6:0.95923857 
1 1:0.4045252 2:0.82302897 3:0.38088073 4:0.57459905 5:0.5722958 6:0.23105112 
1 1:0.23608613 2:0.23971971 3:0.71157963 4:0.36088002 5:0.48039998 6:0.99494615 
1 1:0.70242127 2:0.39165645 3:0.17347828 4:0.087250551 5:0.4547952 6:0.23879003 
1 1:0.6306541 2:0.29208284 3:0.91811928 4:0.44277128 5:0.43316964 6:0.48808029 
1 1:0.25234479 2:0.71581581 3:0.67067352 4:0.6923528 5:0.29945582 6:0.86531826 
1 1:0.37383957 2:0.36146814 3:0.83799631 4:0.21723895 5:0.73655361 6:0.62123101 
1 1:0.66093719 2:0.45304538 3:0.12372685 4:0.58691774 5:0.41901046 6:0.90238661 
1 1:0.24500909 2:0.54482264 3:0.80761554 4:0.70675372 5:0.68907991 6:0.19474613 
1 1:0.29394433 2:0.11158026 3:0.41902188 4:0.68700621 5:0.79040644 6:0.68823167 
1 1:0.47259911 2:0.59974589 3:0.15755872 4:0.63288624 5:0.38355753 6:0.86442453 
1 1:0.45150373 2:0.41996109 3:0.89815136 4:0.97034168 5:0.49702296 6:0.24753489 
1 1:0.38334099 2:0.23091922 3:0.25704632 4:0.9485024 5:0.24282794 6:0.24680589 
1 1:0.30391785 2:0.19476715 3:0.3725106 4:0.83796824 5:0.46837221 6:0.65980722 
1 1:0.38542725 2:0.1531683 3:0.53005693 4:0.85994923 5:0.67509436 6:0.24604417 
1 1:0.87028807 2:0.52813491 3:0.61406855 4:0.28687296 5:0.22499149 6:0.53412716 
1 1:0.073832591 2:0.49615297 3:0.57117134 4:0.67784655 5:0.61285553 6:0.80835512 
1 1:0.37989456 2:0.65244934 3:0.15690536 4:0.6611156 5:0.61557439 6:0.70266108 
1 1:0.88536547 2:0.53398352 3:0.25487244 4:0.44986931 5:0.62560948 6:0.24613934 
1 1:0.20377957 2:0.1324732 3:0.55126428 4:0.18985587 5:0.4650561 6:0.31167371 
1 1:0.67759588 2:0.16015322 3:0.46247449 4:0.94185666 5:0.67024816 6:0.80606461 
1 1:0.19945404 2:0.29130259 3:0.73158124 4:0.41539279 5:0.65808635 6:0.070241271 
1 1:0.28244132 2:0.66008283 3:0.8292784 4:0.5543852 5:0.29470022 6:0.42031941 
1 1:0.58002909 2:0.87234749 3:0.59229853 4:0.66836641 5:0.50706594 6:0.61814525 
1 1:0.40916628 2:0.43201225 3:0.87362957 4:0.36480855 5:0.7517867 6:0.45097469 
1 1:0.25019144 2:0.38932279 3:0.86302717 4:0.26103546 5:0.74674561 6:0.45169575 
1 1:0.58549432 2:0.29369375 3:0.26314551 4:0.54807033 5:0.029331984 6:0.90319418 
1 1:0.77461841 2:0.42261112 3:0.75238248 4:0.14404271 5:0.149886 6:0.61357316 
1 1:0.70983271 2:0.2798291 3:0.74693054 4:0.93453322 5:0.51313285 6:0.20924715 
1 1:0.14952618 2:0.57580636 3:0.24699341 4:0.68693767 5:0.80650144 6:0.7131039 
1 1:0.49508491 2:0.15354135 3:0.69143127 4:0.71997548 5:0.75088171 6:0.20167244 
1 1:0.66768381 2:0.62480297 3:0.80039009 4:0.49012481 5:0.51940539 6:0.44167369 
1 1:0.71575631 2:0.19099678 3:0.41035649 4:0.7051606 5:0.048356573 6:0.80128073 
1 1:0.21514911 2:0.25283998 3:0.28193594 4:0.95188483 5:0.33147671 6:0.63421894 
1 1:0.91363421 2:0.58091187 3:0.57336915 4:0.35029358 5:0.58225506 6:0.092647678 
1 1:0.72740132 2:0.7501386 3:0.2515692 4:0.13705092 5:0.4349782 6:0.49238185 
1 1:0.22425634 2:0.59089512 3:0.2981682 4:0.89920868 5:0.26843508 6:0.13650152 
1 1:0.1940094 2:0.68562968 3:0.3810391 4:0.72164711 5:0.13351118 6:0.34363604 
1 1:0.6477588 2:0.84225385 3:0.56767099 4:0.54184837 5:0.64901397 6:0.48770572 
1 1:0.62062147 2:0.17221269 3:0.40078867 4:0.037034688 5:0.58056656 6:0.048383262 
1 1:0.40373031 2:0.3689559 3:0.8846915 4:0.30683984 5:0.6755864 6:0.43771754 
1 1:0.46305618 2:0.24813325 3:0.27740921 4:0.92872237 5:0.19601219 6:0.18826012 
1 1:0.78459274 2:0.22589715 3:0.29465192 4:0.35874108 5:0.70954787 6:0.45684189 
1 1:0.32296076 2:0.5259225 3:0.94657657 4:0.68041726 5:0.6620807 6:0.37528097 
1 1:0.65622777 2:0.69575076 3:0.29722422 4:0.13723462 5:0.28314495 6:0.93790968 
1 1:0.57962845 2:0.52779678 3:0.18392479 4:0.63631016 5:0.97017575 6:0.44762291 
1 1:0.65169038 2:0.69883135 3:0.26951022 4:0.92348188 5:0.47792906 6:0.024559025 
1 1:0.23486849 2:0.32412667 3:0.25565858 4:0.079041638 5:0.63762071 6:0.96649558 
1 1:0.45137634 2:0.84647072 3:0.44333337 4:0.30993083 5:0.42819691 6:0.92832351 
1 1:0.26374501 2:0.59348543 3:0.61221418 4:0.82570767 5:0.5305879 6:0.37100681 
1 1:0.15489286 2:0.59103661 3:0.77748932 4:0.63629785 5:0.26367767 6:0.78481953 
1 1:0.85871791 2:0.69768395 3:0.48047522 4:0.59446696 5:0.63808704 6:0.016023146 
1 1:0.26489692 2:0.22828244 3:0.54358503 4:0.71211429 5:0.27521939 6:0.37269797 
1 1:0.69091291 2:0.17682113 3:0.46742713 4:0.10917028 5:0.57164664 6:0.34085684 
1 1:0.081455805 2:0.59873625 3:0.68004711 4:0.42214631 5:0.65399873 6:0.55746546 
1 1:0.49025423 2:0.25999471 3:0.7539173 4:0.81815655 5:0.7371152 6:0.114152 
1 1:0.64957247 2:0.47121575 3:0.11531624 4:0.0082318343 5:0.61895897 6:0.44082378 
1 1:0.70343949 2:0.62155286 3:0.23921628 4:0.23733072 5:0.77829308 6:0.81820683 
1 1:0.61967321 2:0.13731689 3:0.70516323 4:0.61252842 5:0.5680323 6:0.086792208 
1 1:0.36383414 2:0.84552022 3:0.34283339 4:0.4380669 5:0.51872215 6:0.73553679 
1 1:0.84219319 2:0.29066631 3:0.24079107 4:0.56949089 5:0.53588417 6:0.63218247 
1 1:0.16276445 2:0.43610097 3:0.38423051 4:0.4938118 5:0.63141844 6:0.89928858 
1 1:0.31940913 2:0.77310064 3:0.39904429 4:0.61646147 5:0.044170023 6:0.76700548 
1 1:0.16049276 2:0.22615781 3:0.45594114 4:0.25446445 5:0.83900887 6:0.53218137 
1 1:0.1897544 2:0.32181354 3:0.20119653 4:0.66604072 5:0.28256103 6:0.38599157 
1 1:0.093911428 2:0.57503019 3:0.60485717 4:0.95274855 5:0.34904698 6:0.33536761 
1 1:0.87870451 2:0.38446227 3:0.68523102 4:0.75151556 5:0.2203837 6:0.70417794 
1 1:0.45488014 2:0.035085284 3:0.5503204 4:0.50396202 5:0.40638653 6:0.28223848 
1 1:0.78911122 2:0.35462154 3:0.76418946 4:0.089442759 5:0.42611529 6:0.511555 
1 1:0.70777154 2:0.67670276 3:0.72027737 4:0.17447817 5:0.86920129 6:0.72458851 
1 1:0.37924656 2:0.17844058 3:0.71806621 4:0.34067654 5:0.80270373 6:0.077734937 
1 1:0.43811301 2:0.1175046 3:0.40773323 4:0.44471399 5:0.53514703 6:0.10950102 
1 1:0.70075979 2:0.60009617 3:0.084378142 4:0.48029594 5:0.45201033 6:0.52465937 
0.026872345318179 1:0.40188974 2:0.81130635 3:0.45481607 4:0.92185175 5:0.36879297 6:0.97216388 
1 1:0.6468817 2:0.15733514 3:0.70925108 4:0.34485771 5:0.79724817 6:0.72930014 
1 1:0.69243782 2:0.79404797 3:0.71904506 4:0.73010157 5:0.39130251 6:0.56654682 
1 1:0.54724911 2:0.44149574 3:0.014384041 4:0.24080229 5:0.36647528 6:0.63474809 
1 1:0.89987152 2:0.65519356 3:0.56958178 4:0.58595613 5:0.57048156 6:0.76800484 
1 1:0.45696955 2:0.51161319 3:0.88950533 4:0.025261328 5:0.40837146 6:0.36575323 
1 1:0.20671346 2:0.65039242 3:0.72812328 4:0.51788807 5:0.56274104 6:0.77988627 
1 1:0.73263215 2:0.13592242 3:0.64872412 4:0.30570442 5:0.66617111 6:0.62688114 
1 1:0.42137257 2:0.24564417 3:0.44911636 4:0.85783607 5:0.60678779 6:0.13457229 
1 1:0.32683082 2:0.67411538 3:0.38121223 4:0.91909783 5:0.72440412 6:0.76220982 
1 1:0.08963935 2:0.49136688 3:0.43679949 4:0.20851486 5:0.55205352 6:0.25592149 
1 1:0.5925956 2:0.20517968 3:0.31888224 4:0.44448329 5:0.54972087 6:0.91313083 
1 1:0.2396553 2:0.59711781 3:0.8355756 4:0.75445564 5:0.65638144 6:0.36112297 
1 1:0.45821891 2:0.68965665 3:0.68033981 4:0.1369187 5:0.60117563 6:0.83598832 
1 1:0.48126296 2:0.256461 3:0.85981242 4:0.55575113 5:0.65062222 6:0.7949595 
1 1:0.17297421 2:0.59288587 3:0.14256182 4:0.31684386 5:0.62162552 6:0.41684899 
1 1:0.27331248 2:0.76457188 3:0.740912 4:0.74908633 5:0.31227666 6:0.64227117 
1 1:0.9608588 2:0.50994098 3:0.46838591 4:0.63316081 5:0.48150141 6:0.86345484 
1 1:0.58417528 2:0.16495421 3:0.74106703 4:0.74887437 5:0.74902962 6:0.4471919 
0.5166186525954656 1:0.81087535 2:0.30760134 3:0.82928173 4:0.78446757 5:0.59208874 6:0.26617411 
1 1:0.69996627 2:0.2654206 3:0.37997055 4:0.91464628 5:0.82315176 6:0.88103973 
1 1:0.14437019 2:0.62577906 3:0.40821426 4:0.18375599 5:0.13983822 6:0.93720264 
1 1:0.81343377 2:0.70242831 3:0.47722925 4:0.89828242 5:0.6809963 6:0.70155067 
1 1:0.50508907 2:0.70545706 3:0.86759301 4:0.42670772 5:0.62518163 6:0.74298502 
1 1:0.37959813 2:0.25007558 3:0.11800543 4:0.29168422 5:0.51230476 6:0.22805192 
1 1:0.23639066 2:0.7015228 3:0.52922946 4:0.98547626 5:0.31809606 6:0.80703222 
1 1:0.15761539 2:0.56223773 3:0.24522791 4:0.38403989 5:0.35034527 6:0.71006489 
1 1:0.6677482 2:0.4419774 3:0.13392616 4:0.13103564 5:0.61048887 6:0.83333877 
1 1:0.89060751 2:0.26398033 3:0.46334859 4:0.87463028 5:0.49555929 6:0.094635533 
1 1:0.59768041 2:0.18574984 3:0.23685977 4:0.7223439 5:0.26727638 6:0.55995207 
1 1:0.64313027 2:0.2367884 3:0.75047013 4:0.37477129 5:0.19329724 6:0.79531409 
0.7293856693781549 1:0.55121051 2:0.05433685 3:0.45008242 4:0.95108956 5:0.35957495 6:0.58419011 
1 1:0.45106539 2:0.35751533 3:0.91577463 4:0.63090408 5:0.62385963 6:0.0027377306 
1 1:0.49954788 2:0.57428467 3:0.83645698 4:0.68927998 5:0.43496523 6:0.53537078 
1 1:0.74945734 2:0.32525773 3:0.49684733 4:0.41450941 5:0.53807717 6:0.71193393 
1 1:0.61339114 2:0.21188931 3:0.75247746 4:0.20932379 5:0.5741327 6:0.94649637 
1 1:0.10602165 2:0.70490901 3:0.52741658 4:0.29002415 5:0.36333663 6:0.29089748 
1 1:0.4565457 2:0.84732153 3:0.62413104 4:0.78371894 5:0.27785554 6:0.21025685 
1 1:0.41373691 2:0.69979 3:0.1620381 4:0.047411163 5:0.47329249 6:0.53839337 
1 1:0.20854919 2:0.21404976 3:0.63187278 4:0.44322611 5:0.48992037 6:0.8713042 
1 1:0.16488674 2:0.59082553 3:0.5622653 4:0.46508966 5:0.27668515 6:0.44797074 
1 1:0.52359097 2:0.49447995 3:0.062994931 4:0.63796586 5:0.41177823 6:0.71766915 
1 1:0.39954805 2:0.73233607 3:0.65460169 4:0.42780716 5:0.7338435 6:0.071178231 
1 1:0.71414439 2:0.66444598 3:0.62031833 4:0.4559214 5:0.30922875 6:0.12468273 
1 1:0.81656066 2:0.47461759 3:0.34037332 4:0.54029499 5:0.43951651 6:0.089431908 
1 1:0.71147947 2:0.26294437 3:0.22654762 4:0.55281111 5:0.64740799 6:0.9093191 
1 1:0.68047091 2:0.37818907 3:0.90574958 4:0.10853232 5:0.51465278 6:0.50014424 
1 1:0.66075167 2:0.34802862 3:0.86036435 4:0.45502644 5:0.62599169 6:0.15420586 
1 1:0.80739689 2:0.45427171 3:0.74556506 4:0.82820037 5:0.19069593 6:0.51028438 
1 1:0.69909563 2:0.21364208 3:0.32681923 4:0.11122568 5:0.3038485 6:0.011953028 
1 1:0.45570872 2:0.14424107 3:0.35873774 4:0.86551947 5:0.78156506 6:0.40740181 
1 1:0.87058712 2:0.71006061 3:0.43700638 4:0.28737324 5:0.44893072 6:0.60989019 
1 1:0.65992927 2:0.47307005 3:0.082735053 4:0.37537013 5:0.171508 6:0.62854859 
1 1:0.82578675 2:0.62426193 3:0.59779473 4:0.60164397 5:0.80053797 6:0.24098146 
1 1:0.73864005 2:0.49278004 3:0.87328243 4:0.43489159 5:0.45536988 6:0.57745735 
1 1:0.80815193 2:0.56522089 3:0.60704092 4:0.60281462 5:0.18768796 6:0.19255948 
1 1:0.17748633 2:0.31994918 3:0.59250791 4:0.13430787 5:0.9706604 6:0.42540806 
1 1:0.47658347 2:0.67005365 3:0.11003424 4:0.50913304 5:0.39396464 6:0.061429574 
1 1:0.77388896 2:0.77450874 3:0.43313005 4:0.64726919 5:0.52666893 6:0.50693542 
1 1:0.52370741 2:0.33552052 3:0.14737215 4:0.669524 5:0.30347125 6:0.96502172 
1 1:0.5770485 2:0.80723575 3:0.486866 4:0.96469158 5:0.50803672 6:0.64329277 
1 1:0.87903388 2:0.67039732 3:0.49110039 4:0.48565877 5:0.27552376 6:0.18227504 
1 1:0.4259477 2:0.73598307 3:0.25591136 4:0.36404486 5:0.64288034 6:0.68158499 
1 1:0.51954059 2:0.3007124 3:0.22676953 4:0.23583783 5:0.68946071 6:0.016327986 
1 1:0.39825689 2:0.72391022 3:0.27097574 4:0.85196975 5:0.45316935 6:0.043479057 
1 1:0.13353255 2:0.45617746 3:0.36104398 4:0.47914653 5:0.97490836 6:0.18499212 
1 1:0.15460032 2:0.70288613 3:0.28575797 4:0.61702247 5:0.66977851 6:0.45152028 
1 1:0.30721196 2:0.5014687 3:0.11074534 4:0.36895346 5:0.10765572 6:0.67851555 
1 1:0.47155714 2:0.23455624 3:0.14165527 4:0.035697277 5:0.22959043 6:0.24421053 
1 1:0.66666894 2:0.68742947 3:0.40572346 4:0.96292858 5:0.15881036 6:0.29114562 
1 1:0.56608998 2:0.85762796 3:0.66714181 4:0.4274504 5:0.51972163 6:0.41562528 
1 1:0.44715254 2:0.34658444 3:0.88680467 4:0.93459877 5:0.34646345 6:0.18636007 
1 1:0.1642511 2:0.50724689 3:0.58890353 4:0.39215144 5:0.093114871 6:0.35685925 
1 1:0.67610566 2:0.7063476 3:0.35720433 4:0.46033445 5:0.82054669 6:0.80610883 
1 1:0.57194318 2:0.14891728 3:0.19031223 4:0.61158463 5:0.63103152 6:0.69539875 
1 1:0.7444537 2:0.75742756 3:0.54507009 4:0.26534053 5:0.7803696 6:0.3535485 
1 1:0.72588498 2:0.6204098 3:0.1848389 4:0.74396986 5:0.095614015 6:0.75301619 
1 1:0.42316178 2:0.83008398 3:0.65237593 4:0.71279458 5:0.16442376 6:0.40447253 
1 1:0.074851022 2:0.64043069 3:0.49744879 4:0.60556728 5:0.47438063 6:0.47341194 
1 1:0.73902519 2:0.16507062 3:0.43194445 4:0.95221083 5:0.38539252 6:0.44618662 
1 1:0.49119225 2:0.43920246 3:0.90318052 4:0.49573599 5:0.31517872 6:0.46427987 
1 1:0.17401947 2:0.21778662 3:0.30719834 4:0.38136824 5:0.49287781 6:0.59841722 
1 1:0.047132662 2:0.59163473 3:0.47322701 4:0.65098511 5:0.37276214 6:0.55033219 
1 1:0.63740398 2:0.19683536 3:0.55927009 4:0.14332549 5:0.52620854 6:0.20864207 
1 1:0.01313632 2:0.36555293 3:0.40972057 4:0.32114865 5:0.53469576 6:0.48133674 
1 1:0.71250588 2:0.66714289 3:0.21743023 4:0.10830813 5:0.31061427 6:0.08366691 
1 1:0.51728821 2:0.51324794 3:0.15253582 4:0.44866125 5:0.80841198 6:0.22367109 
1 1:0.60402135 2:0.39344039 3:0.17162337 4:0.010045749 5:0.78442316 6:0.25338212 
1 1:0.38707206 2:0.183375 3:0.37672088 4:0.8800742 5:0.61323051 6:0.42041919 
1 1:0.57435041 2:0.77767597 3:0.62746026 4:0.61706628 5:0.39706305 6:0.96593608 
1 1:0.52261155 2:0.37437283 3:0.93832639 4:0.77353936 5:0.53681614 6:0.037870843 
1 1:0.36233258 2:0.13632314 3:0.52322343 4:0.88570425 5:0.64487948 6:0.49874417 
1 1:0.71981785 2:0.74406658 3:0.28768566 4:0.6147652 5:0.57870678 6:0.36708137 
1 1:0.6411133 2:0.73139395 3:0.27018786 4:0.56458604 5:0.86857205 6:0.7527177 
1 1:0.50730562 2:0.72241585 3:0.17479559 4:0.57911204 5:0.72493991 6:0.77412284 
1 1:0.59853855 2:0.72511204 3:0.25612528 4:0.99280908 5:0.41968026 6:0.47813281 
1 1:0.74165656 2:0.35644416 3:0.8038256 4:0.26150599 5:0.50535936 6:0.43090879 
1 1:0.77730394 2:0.37060096 3:0.70855192 4:0.067583726 5:0.75062811 6:0.21598058 
1 1:0.86505717 2:0.50970493 3:0.25232047 4:0.83800009 5:0.33196346 6:0.8552734 
1 1:0.88075248 2:0.39209477 3:0.3679831 4:0.18246918 5:0.47162537 6:0.40824692 
1 1:0.91171529 2:0.59234636 3:0.58200957 4:0.95058059 5:0.36146083 6:0.35343785 
1 1:0.4519633 2:0.19770282 3:0.17108216 4:0.48493488 5:0.48094037 6:0.13453159 
1 1:0.80606015 2:0.5915348 3:0.64888484 4:0.72510117 5:0.16077329 6:0.83381776 
1 1:0.65355164 2:0.13632227 3:0.54507119 4:0.52193803 5:0.54208001 6:0.19853805 
1 1:0.54298884 2:0.11762425 3:0.70613966 4:0.51848072 5:0.64644373 6:0.55057739 
1 1:0.49838085 2:0.15052182 3:0.75977306 4:0.48755986 5:0.21286541 6:0.36217136 
1 1:0.34738785 2:0.22675571 3:0.60430104 4:0.26674773 5:0.4866978 6:0.62800748 
1 1:0.65377944 2:0.76491884 3:0.52836136 4:0.57794316 5:0.60790408 6:0.90590996 
1 1:0.17471586 2:0.54606168 3:0.25934984 4:0.61682488 5:0.71372918 6:0.67892775 
1 1:0.75773072 2:0.21235036 3:0.30017618 4:0.66538506 5:0.40689143 6:0.78366481 
1 1:0.73677277 2:0.38194835 3:0.83958149 4:0.39589087 5:0.18773714 6:0.05256883 
1 1:0.2097588 2:0.34056423 3:0.81288177 4:0.85543576 5:0.16645545 6:0.58371647 
1 1:0.45517459 2:0.16581061 3:0.81427105 4:0.54084611 5:0.68246393 6:0.40067912 
1 1:0.50467979 2:0.25376392 3:0.26349935 4:0.83132833 5:0.34036976 6:0.16006128 
1 1:0.029759853 2:0.54522004 3:0.50615653 4:0.19265436 5:0.62169671 6:0.54600668 
1 1:0.46538807 2:0.67196294 3:0.21581329 4:0.91560183 5:0.59247859 6:0.85852979 
1 1:0.56625798 2:0.18118378 3:0.40296164 4:0.60984146 5:0.3443913 6:0.069458839 
1 1:0.93729388 2:0.37503512 3:0.44502059 4:0.7034699 5:0.83542593 6:0.35851706 
1 1:0.95825062 2:0.50514328 3:0.63226095 4:0.43965005 5:0.12441612 6:0.54906662 
1 1:0.93205191 2:0.47927582 3:0.3776421 4:0.40065294 5:0.42586883 6:0.20653616 
0.7699590615852762 1:0.4653573 2:0.83013756 3:0.43257114 4:0.11766671 5:0.11681259 6:0.24628676 
1 1:0.66532925 2:0.20177846 3:0.43681715 4:0.38035155 5:0.83157271 6:0.86657354 
1 1:0.67136886 2:0.1748828 3:0.6310809 4:0.72636982 5:0.86173868 6:0.16795562 
1 1:0.35934664 2:0.21307535 3:0.34166889 4:0.93542362 5:0.28675745 6:0.19691303 
1 1:0.94587463 2:0.54701406 3:0.48836441 4:0.29601218 5:0.47808466 6:0.87842111 
1 1:0.42781591 2:0.26425524 3:0.31396777 4:0.44384191 5:0.47630015 6:0.99822508 
1 1:0.46518233 2:0.16851019 3:0.20789197 4:0.17656883 5:0.64573601 6:0.15408321 
1 1:0.38456929 2:0.60351658 3:0.16510514 4:0.20899596 5:0.28536525 6:0.040861209 
1 1:0.23086201 2:0.76049605 3:0.37293238 4:0.57958576 5:0.80136408 6:0.2959825 
1 1:0.42801664 2:0.21829081 3:0.78004355 4:0.68863081 5:0.62414054 6:0.83447548 
1 1:0.32630202 2:0.62944189 3:0.78695374 4:0.70752381 5:0.50573201 6:0.26490766 
1 1:0.59553907 2:0.13191486 3:0.64754695 4:0.1520197 5:0.17624255 6:0.70297092 
1 1:0.87578778 2:0.3722872 3:0.33486354 4:0.85692056 5:0.62479171 6:0.030126123 
1 1:0.56354936 2:0.21908518 3:0.55936322 4:0.36329975 5:0.56021808 6:0.54232723 
1 1:0.053988993 2:0.47644801 3:0.40116608 4:0.35925198 5:0.55013924 6:0.78564569 
1 1:0.12633386 2:0.43864182 3:0.2751385 4:0.34809461 5:0.21826001 6:0.8586675 
1 1:0.56054652 2:0.32819495 3:0.89777391 4:0.23296575 5:0.7578383 6:0.63436794 
1 1:0.79647859 2:0.696117 3:0.43679103 4:0.75528688 5:0.35082709 6:0.7044636 
1 1:0.82984041 2:0.4186248 3:0.44211297 4:0.98659585 5:0.9009761 6:0.17222782 
1 1:0.28103299 2:0.71717022 3:0.24040303 4:0.1878246 5:0.45095024 6:0.26002593 
1 1:0.26737414 2:0.59678067 3:0.19263943 4:0.33706804 5:0.64944285 6:0.86836975 
1 1:0.59458969 2:0.76847183 3:0.62077825 4:0.77872411 5:0.12450285 6:0.274465 
1 1:0.31495776 2:0.4196473 3:0.87600251 4:0.010513088 5:0.69152894 6:0.50450983 
1 1:0.63669159 2:0.16459288 3:0.27139571 4:0.73750711 5:0.41697502 6:0.91552138 
1 1:0.36655004 2:0.13965631 3:0.57505501 4:0.39333648 5:0.45018824 6:0.47489943 
1 1:0.27009035 2:0.29694397 3:0.37095657 4:0.8151708 5:0.78753085 6:0.286697 
1 1:0.57263218 2:0.74216829 3:0.51369109 4:0.26959967 5:0.081891226 6:0.02850786 
1 1:0.85394757 2:0.24827418 3:0.39267162 4:0.30754191 5:0.38609617 6:0.55698033 
1 1:0.15123155 2:0.51262584 3:0.42676479 4:0.84222206 5:0.70253787 6:0.33991728 
1 1:0.41472688 2:0.7223189 3:0.71062928 4:0.85194875 5:0.46274987 6:0.52894405 
1 1:0.41955125 2:0.55605689 3:0.11732807 4:0.50912949 5:0.42539696 6:0.25099003 
1 1:0.68934881 2:0.27318437 3:0.88563396 4:0.32860865 5:0.47844524 6:0.3412233 
1 1:0.19923835 2:0.22783479 3:0.28222779 4:0.54510118 5:0.52396084 6:0.693818 
1 1:0.89084984 2:0.39198465 3:0.23256878 4:0.68112016 5:0.69372722 6:0.30646019 
1 1:0.79622587 2:0.6537673 3:0.73053553 4:0.22930009 5:0.52387882 6:0.38720275 
1 1:0.61750896 2:0.5600993 3:0.83753788 4:0.52587629 5:0.88135466 6:0.58670374 
1 1:0.49139683 2:0.71728806 3:0.66543165 4:0.42117002 5:0.59717117 6:0.14715645 
1 1:0.81539643 2:0.62650058 3:0.55990985 4:0.11581398 5:0.36926564 6:0.69190134 
1 1:0.86603292 2:0.54232282 3:0.25275899 4:0.43197921 5:0.47276511 6:0.085368788 
1 1:0.54636548 2:0.31468763 3:0.14866839 4:0.53355825 5:0.42234247 6:0.91833636 
1 1:0.82232248 2:0.68142482 3:0.40206743 4:0.22151835 5:0.57083441 6:0.51132718 
1 1:0.76187431 2:0.47352335 3:0.19734299 4:0.58185917 5:0.51990921 6:0.98454897 
1 1:0.39060162 2:0.81838566 3:0.36606637 4:0.74571693 5:0.30141342 6:0.13305564 
1 1:0.75815779 2:0.59026632 3:0.80760938 4:0.27620933 5:0.3864601 6:0.91181712 
1 1:0.37155459 2:0.085094678 3:0.28898213 4:0.47420537 5:0.3817449 6:0.33993931 
1 1:0.61490834 2:0.43064335 3:0.91166507 4:0.43988953 5:0.53870506 6:0.69585164 
1 1:0.56383638 2:0.12285691 3:0.5024231 4:0.28355283 5:0.2643582 6:0.17159987 
1 1:0.17727068 2:0.55435531 3:0.78289755 4:0.78102381 5:0.11627382 6:0.48138628 
1 1:0.75894401 2:0.23355063 3:0.41796982 4:0.27688444 5:0.50731116 6:0.30478763 
1 1:0.42834957 2:0.33974304 3:0.93652127 4:0.37503588 5:0.3463344 6:0.42932214 
1 1:0.61439694 2:0.068993534 3:0.482582 4:0.35652022 5:0.67681549 6:0.57377761 
1 1:0.64891283 2:0.80786987 3:0.35755807 4:0.47437885 5:0.4814375 6:0.14461178 
1 1:0.11989472 2:0.33280892 3:0.45175615 4:0.047675717 5:0.18732285 6:0.77947904 
1 1:0.77319314 2:0.27693279 3:0.15871856 4:0.29649633 5:0.57026145 6:0.32450127 
1 1:0.41124713 2:0.19601553 3:0.53454151 4:0.28749309 5:0.46997326 6:0.77103519 
1 1:0.2440721 2:0.72122552 3:0.19977955 4:0.27096569 5:0.38738119 6:0.32756711 
1 1:0.25458338 2:0.4845361 3:0.8245049 4:0.091797543 5:0.16216236 6:0.63891596 
1 1:0.79064361 2:0.48388829 3:0.28475023 4:0.13208942 5:0.87394344 6:0.88685862 
1 1:0.48602993 2:0.034765131 3:0.45899734 4:0.48052754 5:0.37656359 6:0.72241331 
1 1:0.23562871 2:0.49903614 3:0.90694068 4:0.55979678 5:0.43277243 6:0.27310909 
1 1:0.11026997 2:0.72538613 3:0.47812404 4:0.52554378 5:0.34885503 6:0.69115329 
1 1:0.16781696 2:0.39898091 3:0.35839418 4:0.64189052 5:0.25839803 6:0.39973022 
1 1:0.74465581 2:0.53444034 3:0.68703554 4:0.079025381 5:0.78892265 6:0.86652406 
1 1:0.3590505 2:0.22175953 3:0.69066252 4:0.39441708 5:0.63905805 6:0.1420294 
1 1:0.096189151 2:0.4338049 3:0.65158282 4:0.95794268 5:0.32413778 6:0.31776534 
1 1:0.33219181 2:0.22593158 3:0.76490095 4:0.93068014 5:0.71600664 6:0.62416076 
1 1:0.73341813 2:0.69750318 3:0.74818561 4:0.15507681 5:0.54851618 6:0.85342827 
1 1:0.16719622 2:0.57439366 3:0.49408647 4:0.24553148 5:0.44185331 6:0.84726144 
1 1:0.34017256 2:0.28391585 3:0.080915479 4:0.31956241 5:0.2772036 6:0.56727109 
1 1:0.87424322 2:0.7199864 3:0.52023948 4:0.45862837 5:0.33165343 6:0.24949305 
1 1:0.14626031 2:0.46141077 3:0.63693544 4:0.018059789 5:0.77100374 6:0.29994248 
1 1:0.89241147 2:0.53215004 3:0.44909553 4:0.90384267 5:0.71537144 6:0.6336921 
1 1:0.17163366 2:0.19038496 3:0.64584194 4:0.90837641 5:0.45454624 6:0.72195888 
1 1:0.72391238 2:0.62238768 3:0.76971453 4:0.68628286 5:0.33076523 6:0.87890966 
1 1:0.91423947 2:0.6661257 3:0.49960132 4:0.58823917 5:0.36241612 6:0.18925899 
1 1:0.6890483 2:0.13621034 3:0.42130177 4:0.67268608 5:0.23354531 6:0.20347808 
1 1:0.38449888 2:0.77102768 3:0.37876627 4:0.78654274 5:0.64582478 6:0.73418926 
1 1:0.12848117 2:0.70853622 3:0.38163542 4:0.52052346 5:0.40268458 6:0.81117599 
1 1:0.5194753 2:0.48286299 3:0.17151212 4:0.94186372 5:0.29838958 6:0.84221467 
1 1:0.55989305 2:0.70737283 3:0.15444184 4:0.76450502 5:0.64268808 6:0.7969558 
1 1:0.38470874 2:0.55582037 3:0.07588603 4:0.5724472 5:0.17654278 6:0.8594861 
1 1:0.26676307 2:0.27581339 3:0.17889516 4:0.32818469 5:0.19399609 6:0.3683139 
1 1:0.52304856 2:0.7224991 3:0.24487454 4:0.63065265 5:0.16381085 6:0.82316833 
1 1:0.4870898 2:0.20215833 3:0.63396376 4:0.10723088 5:0.60059425 6:0.12828965 
1 1:0.7352732 2:0.70551679 3:0.33644694 4:0.93735321 5:0.49946235 6:0.79063196 
1 1:0.51532474 2:0.22033746 3:0.19231915 4:0.80202678 5:0.30089538 6:0.060157046 
1 1:0.39910008 2:0.58207198 3:0.94604717 4:0.78016777 5:0.56252885 6:0.45773071 
1 1:0.21780541 2:0.51571497 3:0.15129227 4:0.89349289 5:0.3649068 6:0.79682278 
1 1:0.81064356 2:0.59549588 3:0.24206524 4:0.48749283 5:0.24476543 6:0.74344299 
1 1:0.61098815 2:0.11691226 3:0.58336155 4:0.12422222 5:0.75061689 6:0.50183988 
1 1:0.52556051 2:0.69283166 3:0.51722937 4:0.95890861 5:0.44444201 6:0.30276574 
1 1:0.69767622 2:0.74668466 3:0.47854427 4:0.35172623 5:0.60734068 6:0.8460703 
1 1:0.59422436 2:0.25756733 3:0.23241933 4:0.85193608 5:0.31986161 6:0.25375323 
1 1:0.6765428 2:0.26142239 3:0.71154696 4:0.2010098 5:0.13881322 6:0.20713581 
1 1:0.54306753 2:0.16261222 3:0.25119711 4:0.57460657 5:0.16276118 6:0.64935604 
1 1:0.071910059 2:0.39645406 3:0.5688921 4:0.11278478 5:0.22856352 6:0.38792243 
1 1:0.40910333 2:0.29548425 3:0.18571933 4:0.61053848 5:0.54509674 6:0.92824883 
1 1:0.64346396 2:0.78114859 3:0.54117503 4:0.065477437 5:0.11804806 6:0.15281725 
1 1:0.26387839 2:0.17224278 3:0.41483892 4:0.71524846 5:0.72376204 6:0.012075488 
1 1:0.76092558 2:0.20841952 3:0.5098862 4:0.52354389 5:0.61598419 6:0.21758994 
1 1:0.22311488 2:0.34591039 3:0.62982076 4:0.2179669 5:0.46961651 6:0.72864891 
1 1:0.55335723 2:0.18008824 3:0.61564588 4:0.35595256 5:0.64156127 6:0.23166221 
1 1:0.58324468 2:0.55796348 3:0.96392066 4:0.48980695 5:0.52724767 6:0.75318654 
1 1:0.49018852 2:0.67105477 3:0.17079228 4:0.52906484 5:0.62063655 6:0.0070470351 
1 1:0.28440189 2:0.65389301 3:0.47470796 4:0.98568909 5:0.39458476 6:0.98623622 
0.02534965751698646 1:0.91412487 2:0.37705012 3:0.53289537 4:0.9999395 5:0.11493466 6:0.55510312 
1 1:0.30261254 2:0.53454332 3:0.86696402 4:0.47671408 5:0.27683289 6:0.52136203 
1 1:0.19308051 2:0.68259826 3:0.43043035 4:0.85457263 5:0.2737539 6:0.59708452 
1 1:0.54108341 2:0.27829393 3:0.71351071 4:0.05536218 5:0.53332666 6:0.11227362 
1 1:0.70185982 2:0.69111808 3:0.71884634 4:0.087308517 5:0.57868011 6:0.96830834 
1 1:0.71633851 2:0.69196567 3:0.52531216 4:0.12135227 5:0.18337574 6:0.58269285 
1 1:0.56903466 2:0.73791625 3:0.16866399 4:0.67838451 5:0.61074842 6:0.57336865 
1 1:0.62732855 2:0.7785203 3:0.44108965 4:0.74864273 5:0.22598241 6:0.41196248 
1 1:0.43838462 2:0.41109157 3:0.85202722 4:0.47117472 5:0.22009011 6:0.31134611 
1 1:0.44099378 2:0.78834254 3:0.59015836 4:0.77788714 5:0.25560563 6:0.2797904 
0.2574162847794154 1:0.80997374 2:0.16465547 3:0.50166373 4:0.82154214 5:0.4160658 6:0.86029165 
