svm_type c_svc
kernel_type rbf
gamma 0.166667
nr_class 2
total_sv 4676
rho -16.7277
label -1 1
nr_sv 2346 2330
SV
1 1:0.54219905 2:0.44747129 3:0.19851173 4:0.79421858 5:0.61654763 6:0.97202054 
1 1:0.88192923 2:0.50906071 3:0.77061581 4:0.22021413 5:0.59201939 6:0.12626359 
1 1:0.72040924 2:0.78847784 3:0.49877666 4:0.95956741 5:0.23321877 6:0.27708331 
1 1:0.69429492 2:0.48125471 3:0.76482491 4:0.051264911 5:0.26665109 6:0.4412796 
1 1:0.44492591 2:0.68831198 3:0.19675918 4:0.57158978 5:0.40580548 6:0.72015039 
1 1:0.79262769 2:0.47567801 3:0.2568238 4:0.18095671 5:0.56164123 6:0.69075511 
1 1:0.7503104 2:0.53572297 3:0.82124164 4:0.73016627 5:0.33048304 6:0.29060805 
1 1:0.67071368 2:0.80947475 3:0.76127355 4:0.40506026 5:0.94834376 6:0.75079145 
1 1:0.62305895 2:0.57974351 3:0.2061643 4:0.55663469 5:0.55739331 6:0.48247508 
1 1:0.75907097 2:0.35895364 3:0.28038053 4:0.14338738 5:0.36671699 6:0.019634846 
1 1:0.34901378 2:0.030044798 3:0.52452995 4:0.33821729 5:0.84484183 6:0.1670773 
1 1:0.33693294 2:0.013077757 3:0.49600152 4:0.91777883 5:0.48456843 6:0.54489524 
1 1:0.87116175 2:0.19664433 3:0.51520686 4:0.22057413 5:0.56700631 6:0.74026548 
1 1:0.83212427 2:0.41319329 3:0.27876966 4:0.1918888 5:0.53599169 6:0.77292337 
1 1:0.83641792 2:0.41263604 3:0.27122392 4:0.76785926 5:0.61380778 6:0.55734356 
1 1:0.94399894 2:0.70893749 3:0.4760366 4:0.56925712 5:0.90858384 6:0.62258938 
1 1:0.9455788 2:0.59896878 3:0.52578469 4:0.25542832 5:0.77573855 6:0.8218578 
1 1:0.48796758 2:0.35137438 3:0.81255909 4:0.31662601 5:0.30553273 6:0.71606869 
1 1:0.8152338 2:0.52016468 3:0.80464146 4:0.81676654 5:0.13213752 6:0.2270438 
1 1:0.16292583 2:0.45488334 3:0.3850932 4:0.21736103 5:0.37174242 6:0.32284339 
1 1:0.38886607 2:0.27061468 3:0.86848916 4:0.70589187 5:0.76702827 6:0.41975877 
1 1:0.75752673 2:0.27887543 3:0.38540044 4:0.27434597 5:0.25023928 6:0.6935123 
1 1:0.4255387 2:0.83030645 3:0.63786465 4:0.30324126 5:0.065688969 6:0.43860367 
1 1:0.4861116 2:0.61708694 3:0.8102708 4:0.43935122 5:0.39147667 6:0.77615147 
1 1:0.36546584 2:0.80111074 3:0.84815142 4:0.38933048 5:0.69964031 6:0.21211639 
1 1:0.88552981 2:0.67098729 3:0.37542422 4:0.83306242 5:0.66264436 6:0.49720378 
1 1:0.23154432 2:0.44853313 3:0.88112442 4:0.75147683 5:0.6387579 6:0.75762959 
1 1:0.681521 2:0.32488393 3:0.19900519 4:0.41705438 5:0.4995563 6:0.87018856 
1 1:0.07011484 2:0.62137438 3:0.75318335 4:0.56232514 5:0.29793557 6:0.46899908 
1 1:0.40744839 2:0.82445186 3:0.59632085 4:0.037654534 5:0.39103491 6:0.207862 
1 1:0.19094115 2:0.67191942 3:0.70987593 4:0.31951291 5:0.33257628 6:0.48003171 
1 1:0.68397921 2:0.41479508 3:0.23907624 4:0.20647281 5:0.40758413 6:0.16580531 
1 1:0.19308487 2:0.6175461 3:0.40824328 4:0.90674676 5:0.38945201 6:0.53554329 
1 1:0.5945825 2:0.73079072 3:0.86889254 4:0.79620131 5:0.72767294 6:0.598657 
1 1:0.47488458 2:0.4093658 3:0.094550622 4:0.64185962 5:0.5402984 6:0.22301678 
1 1:0.5986478 2:0.96508072 3:0.67469158 4:0.55554017 5:0.54348772 6:0.87265946 
1 1:0.75646995 2:0.45682438 3:0.1446725 4:0.55220389 5:0.33332724 6:0.93362592 
1 1:0.86060954 2:0.74406437 3:0.35348511 4:0.28754156 5:0.91874362 6:0.48653729 
1 1:0.37647186 2:0.59829937 3:0.78004427 4:0.85515961 5:0.44121123 6:0.63838105 
1 1:0.41145607 2:0.93995125 3:0.58570537 4:0.89592924 5:0.71885946 6:0.65620512 
1 1:0.72294848 2:0.34755379 3:0.28624284 4:0.1536318 5:0.38521497 6:0.66793465 
1 1:0.37685641 2:0.37117527 3:0.15075407 4:0.78130595 5:0.69935832 6:0.72790198 
1 1:0.85832253 2:0.22120732 3:0.68925012 4:0.40287937 5:0.73265311 6:0.5806839 
1 1:0.23943647 2:0.1165752 3:0.51710747 4:0.58299716 5:0.70455016 6:0.023755885 
1 1:0.82374125 2:0.53363059 3:0.82484935 4:0.390658 5:0.52708464 6:0.91610347 
1 1:0.2530455 2:0.71107564 3:0.22176919 4:0.73151528 5:0.63991104 6:0.45283995 
1 1:0.57284809 2:0.28142515 3:0.20479837 4:0.7546467 5:0.69834395 6:0.89526571 
1 1:0.35810359 2:0.43285253 3:0.82552692 4:0.68804547 5:0.63402153 6:0.5383999 
1 1:0.17999794 2:0.54021269 3:0.19857914 4:0.87831448 5:0.31833067 6:0.44177976 
1 1:0.34946168 2:0.60440219 3:0.12592725 4:0.44285416 5:0.40563153 6:0.012635356 
1 1:0.51424921 2:0.8555773 3:0.54683926 4:0.73273888 5:0.81829775 6:0.49927839 
1 1:0.21587774 2:0.64956499 3:0.73364623 4:0.14312632 5:0.93694311 6:0.69706217 
1 1:0.93120719 2:0.64324337 3:0.61968149 4:0.74848955 5:0.34021834 6:0.29068049 
1 1:0.055458849 2:0.543938 3:0.70121603 4:0.36426935 5:0.63143753 6:0.76241179 
1 1:0.4182718 2:0.97638328 3:0.43416481 4:0.84302029 5:0.53576798 6:0.30666491 
1 1:0.62864018 2:0.21118347 3:0.29371805 4:0.65905498 5:0.3855693 6:0.35411122 
1 1:0.63895297 2:0.098043666 3:0.49963086 4:0.21046947 5:0.2813281 6:0.08584399 
1 1:0.69116385 2:0.11765415 3:0.2702016 4:0.427396 5:0.14336053 6:0.69658188 
1 1:0.6288233 2:0.056733964 3:0.64988273 4:0.20250291 5:0.37677672 6:0.17266576 
1 1:0.39546529 2:0.22087419 3:0.37001865 4:0.46509364 5:0.48446407 6:0.26525069 
1 1:0.95335831 2:0.47130646 3:0.56804708 4:0.67026553 5:0.45843276 6:0.61441451 
1 1:0.16592144 2:0.13797641 3:0.63517081 4:0.60988769 5:0.12601227 6:0.43711103 
1 1:0.7421023 2:0.12986448 3:0.49208761 4:0.79199244 5:0.082748676 6:0.1451838 
1 1:0.77335696 2:0.241867 3:0.72763391 4:0.72464788 5:0.47328938 6:0.12112748 
1 1:0.59431485 2:0.51252011 3:0.23560291 4:0.93658571 5:0.32931612 6:0.42045512 
1 1:0.23546836 2:0.22677418 3:0.23121236 4:0.74738787 5:0.47089905 6:0.31162739 
1 1:0.93484689 2:0.65302127 3:0.66421616 4:0.25073783 5:0.78169465 6:0.37984045 
1 1:0.29196088 2:0.22635469 3:0.80330973 4:0.5180356 5:0.37310473 6:0.91481801 
1 1:0.63806466 2:0.57657243 3:0.13613759 4:0.28900593 5:0.51947334 6:0.43700873 
1 1:0.89058302 2:0.74213013 3:0.26842485 4:0.30655062 5:0.62246771 6:0.42317068 
1 1:0.95708417 2:0.44100984 3:0.72057816 4:0.69916765 5:0.37235273 6:0.3343397 
1 1:0.48121397 2:0.91199295 3:0.27928041 4:0.22847311 5:0.44495077 6:0.82435982 
1 1:0.19777166 2:0.67917743 3:0.24266743 4:0.85705407 5:0.38135768 6:0.57339712 
1 1:0.73057961 2:0.39425336 3:0.30592777 4:0.27397441 5:0.28046749 6:0.14402022 
1 1:0.69506472 2:0.43219526 3:0.77542036 4:0.63025045 5:0.90431846 6:0.16107415 
1 1:0.083880542 2:0.64811555 3:0.6584996 4:0.20863652 5:0.41740609 6:0.6637704 
1 1:0.83214684 2:0.87581866 3:0.55069609 4:0.42358109 5:0.75410974 6:0.81027563 
1 1:0.45029411 2:0.5007764 3:0.73510909 4:0.36299129 5:0.30282022 6:0.051096878 
1 1:0.68544216 2:0.75640472 3:0.26827374 4:0.67749272 5:0.7073256 6:0.87062235 
1 1:0.60130991 2:0.74008124 3:0.29783588 4:0.2817302 5:0.3967029 6:0.54599656 
1 1:0.96280635 2:0.39563155 3:0.58745919 4:0.60662724 5:0.58704006 6:0.33647042 
1 1:0.37127444 2:0.55659281 3:0.10837904 4:0.34992092 5:0.54420474 6:0.66066667 
1 1:0.64967877 2:0.41494474 3:0.88159673 4:0.34409501 5:0.91874748 6:0.38161387 
1 1:0.71109862 2:0.30294417 3:0.41375048 4:0.64844629 5:0.64333723 6:0.82767125 
1 1:0.98500379 2:0.47002188 3:0.41729529 4:0.29083015 5:0.65494981 6:0.094202767 
1 1:0.79288765 2:0.70049442 3:0.29072517 4:0.74568632 5:0.71562657 6:0.3166352 
1 1:0.76218329 2:0.16828082 3:0.36544127 4:0.70966962 5:0.56928573 6:0.24387118 
1 1:0.34368497 2:0.31018745 3:0.83564157 4:0.10227542 5:0.93424671 6:0.38862057 
1 1:0.57217244 2:0.40629433 3:0.13378313 4:0.64572873 5:0.32736401 6:0.39107945 
1 1:0.5622989 2:0.17757884 3:0.24610405 4:0.99915254 5:0.26174139 6:0.63279841 
1 1:0.14698236 2:0.2538557 3:0.67682968 4:0.31615646 5:0.52316686 6:0.026340789 
1 1:0.85053152 2:0.37497951 3:0.24717694 4:0.020167049 5:0.69572542 6:0.68243547 
1 1:0.34146955 2:0.53419419 3:0.079932235 4:0.58026391 5:0.55718178 6:0.44979448 
1 1:0.67803771 2:0.827547 3:0.73620713 4:0.92797036 5:0.25082383 6:0.05550114 
1 1:0.91836124 2:0.28841538 3:0.62679052 4:0.37942839 5:0.72777734 6:0.85182849 
1 1:0.49902212 2:0.27445685 3:0.1244726 4:0.5908383 5:0.61414835 6:0.032325613 
1 1:0.83241615 2:0.89099422 3:0.48259132 4:0.30343196 5:0.446227 6:0.77992344 
1 1:0.55386483 2:0.10302733 3:0.73308952 4:0.81112397 5:0.68951497 6:0.078378291 
1 1:0.42705749 2:0.81719007 3:0.73050871 4:0.024159981 5:0.34922901 6:0.56318961 
1 1:0.16984008 2:0.20140314 3:0.51900377 4:0.55458607 5:0.7408668 6:0.48405327 
1 1:0.74460249 2:0.58431667 3:0.23039694 4:0.68741563 5:0.77370838 6:0.4514409 
1 1:0.036060806 2:0.4557143 3:0.3176425 4:0.66247402 5:0.59458814 6:0.79201695 
1 1:0.74133951 2:0.11042083 3:0.6668178 4:0.51243037 5:0.41859964 6:0.24255223 
1 1:0.84532298 2:0.64204929 3:0.5734682 4:0.25467735 5:0.31307157 6:0.8284684 
1 1:0.26264993 2:0.56738811 3:0.26144647 4:0.76700362 5:0.14920311 6:0.44666152 
1 1:0.70059922 2:0.61922425 3:0.17461427 4:0.39144458 5:0.17146041 6:0.094131212 
1 1:0.47021049 2:0.80595159 3:0.71639292 4:0.61818634 5:0.64932881 6:0.92663798 
1 1:0.36532176 2:0.040721927 3:0.56104785 4:0.52895739 5:0.56262698 6:0.38723985 
1 1:0.65499441 2:0.60074836 3:0.86075178 4:0.43018798 5:0.7177693 6:0.036830206 
0.9851383245075251 1:0.90217369 2:0.7898775 3:0.57499094 4:0.36946122 5:0.94007684 6:0.49683387 
1 1:0.37508876 2:0.94312556 3:0.68484398 4:0.020949687 5:0.43675924 6:0.48571574 
1 1:0.71338417 2:0.35197108 3:0.83259619 4:0.21007164 5:0.6878798 6:0.73577986 
1 1:0.29684031 2:0.74211811 3:0.37380029 4:0.59403068 5:0.62179654 6:0.54406234 
1 1:0.30451975 2:0.76955455 3:0.38618314 4:0.072176045 5:0.12411839 6:0.78784057 
1 1:0.67951305 2:0.59026654 3:0.20777013 4:0.23771252 5:0.49273577 6:0.35108019 
1 1:0.3702818 2:0.073644717 3:0.63318817 4:0.62469987 5:0.54921208 6:0.26310948 
1 1:0.79641641 2:0.47083632 3:0.40589673 4:0.60073298 5:0.32616322 6:0.92208737 
1 1:0.77185046 2:0.45473789 3:0.30364397 4:0.39239355 5:0.24797789 6:0.95774213 
1 1:0.19370853 2:0.61074843 3:0.67252333 4:0.82050019 5:0.74386087 6:0.41392631 
1 1:0.83424582 2:0.86027113 3:0.43180377 4:0.29633488 5:0.59004774 6:0.18873308 
1 1:0.55858044 2:0.90845018 3:0.28380239 4:0.22814862 5:0.334386 6:0.088461753 
1 1:0.31069636 2:0.41569701 3:0.71464814 4:0.31014795 5:0.41685797 6:0.0087013165 
1 1:0.27158993 2:0.67266924 3:0.79821299 4:0.52251781 5:0.18817011 6:0.72525189 
1 1:0.20964251 2:0.2059823 3:0.72898631 4:0.79832635 5:0.22275707 6:0.63995074 
1 1:0.23881682 2:0.54016207 3:0.83151754 4:0.56833396 5:0.55890097 6:0.83081533 
1 1:0.76978331 2:0.17206226 3:0.41508276 4:0.022196148 5:0.64898616 6:0.75070539 
0.5569230469740075 1:0.29004347 2:0.78346596 3:0.256476 4:0.99747498 5:0.3636761 6:0.85082995 
1 1:0.31543608 2:0.86372043 3:0.79508005 4:0.53198338 5:0.74773549 6:0.32255097 
1 1:0.17225887 2:0.17014643 3:0.57681108 4:0.73523732 5:0.23055494 6:0.13107906 
1 1:0.91686869 2:0.3344882 3:0.6986846 4:0.15421286 5:0.28895827 6:0.39591391 
1 1:0.4127922 2:0.98299546 3:0.45848776 4:0.45331145 5:0.10337062 6:0.19764648 
1 1:0.85745924 2:0.4754126 3:0.66727497 4:0.3061284 5:0.79629133 6:0.38968515 
1 1:0.48844476 2:0.55904373 3:0.80284417 4:0.75860419 5:0.62631096 6:0.94416457 
1 1:0.74175418 2:0.41389647 3:0.84679811 4:0.14389475 5:0.71003315 6:0.7254659 
1 1:0.25039697 2:0.53503366 3:0.15912513 4:0.44901935 5:0.52519004 6:0.89538809 
1 1:0.84817049 2:0.43377396 3:0.27129902 4:0.46509089 5:0.71696159 6:0.062340016 
1 1:0.13123504 2:0.25994043 3:0.48097258 4:0.82868917 5:0.7017281 6:0.55810811 
1 1:0.36568149 2:0.78515906 3:0.19061949 4:0.015254523 5:0.4454947 6:0.61778798 
1 1:0.32104595 2:0.87277211 3:0.61171731 4:0.51901473 5:0.86220881 6:0.15381634 
1 1:0.76848655 2:0.14106062 3:0.45545465 4:0.5796232 5:0.82022287 6:0.29535404 
1 1:0.58651932 2:0.84858091 3:0.24200832 4:0.21823462 5:0.88280633 6:0.40363601 
1 1:0.32027368 2:0.50094166 3:0.78760132 4:0.82911889 5:0.53317258 6:0.069880181 
1 1:0.49558288 2:0.95196484 3:0.37021518 4:0.62203061 5:0.68059921 6:0.98271965 
1 1:0.20051257 2:0.82851793 3:0.55076057 4:0.68006412 5:0.34931899 6:0.30702221 
1 1:0.16740775 2:0.86783577 3:0.45455854 4:0.52483504 5:0.3689503 6:0.62028582 
1 1:0.52493032 2:0.69818811 3:0.20077003 4:0.76895708 5:0.71181478 6:0.41701183 
1 1:0.30666121 2:0.65181156 3:0.83832046 4:0.15364171 5:0.60791837 6:0.4503091 
1 1:0.03440928 2:0.509104 3:0.54928777 4:0.3789018 5:0.45939635 6:0.5449944 
1 1:0.16497683 2:0.75761449 3:0.42640998 4:0.29069054 5:0.64462249 6:0.94408114 
1 1:0.59595663 2:0.077599991 3:0.63029507 4:0.54000404 5:0.78087615 6:0.052341752 
1 1:0.56589005 2:0.79971015 3:0.26655678 4:0.71831439 5:0.44199233 6:0.4984274 
1 1:0.43193318 2:0.47866029 3:0.89960031 4:0.31004528 5:0.18025519 6:0.19314685 
1 1:0.34043079 2:0.039913789 3:0.37095416 4:0.78409492 5:0.81655962 6:0.4642792 
1 1:0.7394398 2:0.28118892 3:0.24874635 4:0.047869547 5:0.63055822 6:0.63807345 
1 1:0.92203356 2:0.67828999 3:0.59287501 4:0.84113219 5:0.7510591 6:0.44656564 
1 1:0.68410122 2:0.036303101 3:0.55910293 4:0.10122849 5:0.41431233 6:0.5051619 
1 1:0.54117298 2:0.47387561 3:0.87755291 4:0.1858787 5:0.81156403 6:0.83642604 
1 1:0.16730896 2:0.70039379 3:0.22809073 4:0.69739931 5:0.44309758 6:0.78398091 
1 1:0.55844063 2:0.48173121 3:0.95728886 4:0.4302454 5:0.38317752 6:0.51740214 
1 1:0.11368394 2:0.63254418 3:0.53121622 4:0.79138156 5:0.72932123 6:0.90774867 
1 1:0.2583809 2:0.54880754 3:0.7832193 4:0.1568993 5:0.67878605 6:0.18740901 
1 1:0.30820701 2:0.14047194 3:0.47001183 4:0.283955 5:0.41213247 6:0.2993152 
1 1:0.12929362 2:0.52861243 3:0.7790737 4:0.11147677 5:0.79748381 6:0.67813973 
1 1:0.39656639 2:0.081566291 3:0.7214007 4:0.19030245 5:0.78606601 6:0.39217083 
1 1:0.3468689 2:0.086000444 3:0.39054254 4:0.52011286 5:0.20288303 6:0.21587559 
1 1:0.34660711 2:0.13244593 3:0.45768253 4:0.8733152 5:0.49805527 6:0.79809657 
1 1:0.67244583 2:0.49777418 3:0.7375242 4:0.55284117 5:0.57496957 6:0.52840518 
1 1:0.56524391 2:0.34910158 3:0.78412266 4:0.78378331 5:0.23233655 6:0.77832605 
1 1:0.62993719 2:0.22760543 3:0.7933959 4:0.38847096 5:0.60858811 6:0.54669382 
1 1:0.34910484 2:0.4070947 3:0.20167399 4:0.87037312 5:0.30584574 6:0.0616812 
1 1:0.2310015 2:0.64495936 3:0.30676342 4:0.70231008 5:0.30249028 6:0.45805452 
1 1:0.7778124 2:0.72173774 3:0.30521241 4:0.25762982 5:0.77185329 6:0.69833116 
1 1:0.72544164 2:0.94113986 3:0.57474225 4:0.15230805 5:0.56259003 6:0.58559487 
1 1:0.071200864 2:0.47561132 3:0.69567391 4:0.1457742 5:0.71139723 6:0.1197721 
1 1:0.52846244 2:0.065654253 3:0.58680749 4:0.76083562 5:0.899287 6:0.52134437 
1 1:0.30215349 2:0.93585714 3:0.52142653 4:0.12034281 5:0.65390722 6:0.89353696 
1 1:0.66356608 2:0.70640187 3:0.3649423 4:0.87190298 5:0.54441104 6:0.48750761 
1 1:0.18479437 2:0.89927006 3:0.45616697 4:0.45290786 5:0.57501692 6:0.073658393 
1 1:0.43445113 2:0.26285769 3:0.9144458 4:0.73186342 5:0.55037322 6:0.42807421 
1 1:0.69106697 2:0.45803172 3:0.16622063 4:0.48715642 5:0.7198911 6:0.94542708 
1 1:0.86685895 2:0.53779581 3:0.35270585 4:0.039000467 5:0.75829858 6:0.67219644 
0.2936848253417957 1:0.3868079 2:0.7950442 3:0.1737773 4:0.3335864 5:0.65008203 6:0.074295939 
1 1:0.25291078 2:0.65672781 3:0.81820921 4:0.45429356 5:0.43554973 6:0.67966965 
1 1:0.67501993 2:0.82067437 3:0.35316231 4:0.97762707 5:0.61350604 6:0.24744618 
1 1:0.6520493 2:0.47421346 3:0.85843772 4:0.30823786 5:0.63661603 6:0.16881963 
1 1:0.52475116 2:0.54004556 3:0.78860047 4:0.75428555 5:0.23527064 6:0.56980838 
1 1:0.94370957 2:0.5702129 3:0.42844793 4:0.34072275 5:0.074457776 6:0.018232492 
1 1:0.33581893 2:0.69768862 3:0.14515724 4:0.95198175 5:0.35048958 6:0.35199032 
1 1:0.55969201 2:0.41246901 3:0.81491645 4:0.67331564 5:0.88543472 6:0.74951002 
1 1:0.34634841 2:0.49243333 3:0.76114785 4:0.94899532 5:0.42722276 6:0.0098703574 
1 1:0.57901769 2:0.76918195 3:0.18213726 4:0.76992517 5:0.3409257 6:0.88847498 
1 1:0.7482413 2:0.93369491 3:0.59065236 4:0.7080749 5:0.38778449 6:0.36115843 
0.4499972118735696 1:0.92282805 2:0.53073748 3:0.75081297 4:0.85996103 5:0.40958911 6:0.17306099 
1 1:0.76399059 2:0.2911099 3:0.20115198 4:0.3583976 5:0.46070423 6:0.78694109 
1 1:0.68599143 2:0.7762569 3:0.79209687 4:0.27819765 5:0.65046045 6:0.15159481 
1 1:0.82683327 2:0.54924301 3:0.26778949 4:0.012215758 5:0.31592497 6:0.20979574 
1 1:0.11522871 2:0.72694894 3:0.58822492 4:0.81730945 5:0.6397918 6:0.82346117 
1 1:0.34401285 2:0.57201146 3:0.78224149 4:0.58671343 5:0.26030948 6:0.62618399 
1 1:0.40430905 2:0.35303381 3:0.11644362 4:0.55261469 5:0.62775494 6:0.87926685 
1 1:0.76042523 2:0.26115003 3:0.24834536 4:0.66409299 5:0.83648626 6:0.02452644 
1 1:0.35057674 2:0.76935712 3:0.58810829 4:0.09444327 5:0.71394143 6:0.75489025 
1 1:0.3988894 2:0.40985823 3:0.84813862 4:0.73864469 5:0.77209827 6:0.77492229 
1 1:0.53203929 2:0.093786331 3:0.33257748 4:0.50127883 5:0.17092247 6:0.93023513 
1 1:0.29318209 2:0.35702709 3:0.19576497 4:0.54568358 5:0.80335377 6:0.75210831 
1 1:0.38151139 2:0.40787157 3:0.17856715 4:0.97225796 5:0.22105749 6:0.81203455 
1 1:0.91382988 2:0.25860897 3:0.30606527 4:0.26029263 5:0.38658061 6:0.52436454 
1 1:0.7801939 2:0.93599019 3:0.53839611 4:0.27816515 5:0.45931551 6:0.79331564 
1 1:0.63334185 2:0.12509767 3:0.75338739 4:0.57623276 5:0.51139896 6:0.61815933 
1 1:0.98199193 2:0.6025519 3:0.40692508 4:0.52672174 5:0.39476503 6:0.6819084 
1 1:0.6226037 2:0.21665046 3:0.73475839 4:0.40617651 5:0.45849519 6:0.53274975 
0.1330907419763659 1:0.85955105 2:0.79245672 3:0.48996953 4:0.25194028 5:0.79756931 6:0.97202826 
1 1:0.56991481 2:0.43589094 3:0.87237419 4:0.213742 5:0.78779815 6:0.42386171 
1 1:0.82744473 2:0.77901112 3:0.63016038 4:0.30586058 5:0.6647476 6:0.73956229 
1 1:0.66495175 2:0.037536058 3:0.55944226 4:0.35739982 5:0.41808538 6:0.28361747 
1 1:0.11980543 2:0.67306192 3:0.37437735 4:0.73721449 5:0.56421664 6:0.16129172 
1 1:0.91622511 2:0.36305931 3:0.32869426 4:0.11388125 5:0.704058 6:0.19218017 
1 1:0.89419233 2:0.39336848 3:0.73309909 4:0.75791218 5:0.56796755 6:0.70123901 
1 1:0.75144495 2:0.71049446 3:0.80176385 4:0.26094807 5:0.33472018 6:0.89715572 
1 1:0.68046509 2:0.24380624 3:0.27056755 4:0.087257397 5:0.74830957 6:0.14216349 
1 1:0.6296113 2:0.76743287 3:0.19358124 4:0.62015459 5:0.65355834 6:0.39504938 
1 1:0.6230813 2:0.027315833 3:0.5978145 4:0.069894482 5:0.66704963 6:0.29263429 
1 1:0.22531065 2:0.84156998 3:0.46851903 4:0.28249746 5:0.69883222 6:0.53938572 
1 1:0.2901965 2:0.9238043 3:0.5187354 4:0.26165947 5:0.35175366 6:0.50157653 
1 1:0.2985474 2:0.78347486 3:0.77257852 4:0.70000753 5:0.88294036 6:0.21584739 
1 1:0.49591962 2:0.48098211 3:0.1908699 4:0.26108723 5:0.5083371 6:0.88518955 
1 1:0.99190113 2:0.35277566 3:0.42728454 4:0.72174329 5:0.65509058 6:0.16428193 
1 1:0.72929914 2:0.6203515 3:0.76611483 4:0.48326021 5:0.24187281 6:0.98553358 
1 1:0.12966901 2:0.67084404 3:0.25787793 4:0.14738567 5:0.58976226 6:0.5982016 
1 1:0.8263308 2:0.16555995 3:0.59157842 4:0.51921671 5:0.42914304 6:0.96920875 
1 1:0.49144579 2:0.14919757 3:0.71415212 4:0.52605936 5:0.16345119 6:0.075847315 
1 1:0.29642108 2:0.07577968 3:0.4107131 4:0.46072146 5:0.39238465 6:0.72482344 
1 1:0.74648547 2:0.8125841 3:0.35168697 4:0.82638828 5:0.15420147 6:0.29245948 
1 1:0.33245116 2:0.53100758 3:0.16136265 4:0.70001291 5:0.66807196 6:0.80384655 
1 1:0.29812998 2:0.39096446 3:0.74919853 4:0.23070643 5:0.57320274 6:0.96464827 
1 1:0.8335203 2:0.45537646 3:0.18161368 4:0.35021997 5:0.31898485 6:0.25812777 
1 1:0.11838896 2:0.20016496 3:0.52016015 4:0.54532481 5:0.43885393 6:0.048783078 
1 1:0.20959145 2:0.63552912 3:0.85905082 4:0.54316374 5:0.34261628 6:0.57566208 
1 1:0.15102076 2:0.38517767 3:0.66869302 4:0.38475814 5:0.68869516 6:0.30387358 
1 1:0.82737067 2:0.58486411 3:0.71296167 4:0.70724208 5:0.5498394 6:0.22304329 
1 1:0.56964864 2:0.54424038 3:0.18110653 4:0.018326407 5:0.19601529 6:0.51487201 
1 1:0.51412205 2:0.91693556 3:0.61623896 4:0.19954003 5:0.24912907 6:0.018078097 
1 1:0.96166956 2:0.52728486 3:0.58847832 4:0.27655694 5:0.30536443 6:0.71955485 
1 1:0.28400605 2:0.3949201 3:0.18915372 4:0.9252056 5:0.57190954 6:0.66704156 
1 1:0.1871696 2:0.50609838 3:0.23322963 4:0.71859638 5:0.24343251 6:0.37008443 
1 1:0.61991294 2:0.26347885 3:0.20099152 4:0.71094818 5:0.69542361 6:0.31127714 
1 1:0.6755705 2:0.67204038 3:0.85285444 4:0.79496847 5:0.6232586 6:0.33082179 
1 1:0.24290831 2:0.40243702 3:0.24897811 4:0.011375843 5:0.33425981 6:0.98454819 
1 1:0.25394074 2:0.31631945 3:0.25718596 4:0.46132691 5:0.79992543 6:0.65715637 
1 1:0.63458261 2:0.60605877 3:0.1561651 4:0.33802053 5:0.83050848 6:0.10784712 
1 1:0.24697251 2:0.68732639 3:0.54407981 4:0.62590722 5:0.1606071 6:0.7430305 
1 1:0.55683125 2:0.11168766 3:0.42654304 4:0.65086215 5:0.53381072 6:0.37255937 
1 1:0.30143881 2:0.70816794 3:0.20475105 4:0.24565548 5:0.54503846 6:0.24420719 
1 1:0.50376217 2:0.48215945 3:0.79631617 4:0.75177212 5:0.34487958 6:0.99364597 
1 1:0.62376888 2:0.711639 3:0.79984512 4:0.73915269 5:0.32972621 6:0.73977215 
1 1:0.7022028 2:0.76938111 3:0.57034766 4:0.89023197 5:0.33182893 6:0.21967725 
1 1:0.378347 2:0.48341893 3:0.8055868 4:0.18259942 5:0.39097815 6:0.17368416 
1 1:0.16835074 2:0.41052802 3:0.77279198 4:0.3180725 5:0.22449417 6:0.3693825 
1 1:0.63319716 2:0.94111957 3:0.35430221 4:0.68740831 5:0.91355116 6:0.27568323 
1 1:0.31274261 2:0.6004337 3:0.29572798 4:0.80186585 5:0.21580928 6:0.613685 
1 1:0.27765695 2:0.15928401 3:0.30422737 4:0.64742787 5:0.45692036 6:0.36514174 
1 1:0.25107328 2:0.39697067 3:0.1882859 4:0.93733253 5:0.54183042 6:0.56764106 
1 1:0.31713443 2:0.93280635 3:0.54595401 4:0.37806792 5:0.41393916 6:0.49040625 
1 1:0.20010508 2:0.83665701 3:0.35793846 4:0.22627188 5:0.42367059 6:0.28366368 
1 1:0.41916447 2:0.4665805 3:0.86969421 4:0.32035091 5:0.23511583 6:0.64613778 
1 1:0.9589497 2:0.57713603 3:0.2988237 4:0.54274281 5:0.50615853 6:0.19169341 
1 1:0.7724822 2:0.084961208 3:0.58641924 4:0.76671808 5:0.2548251 6:0.43120848 
1 1:0.25734469 2:0.15171689 3:0.33419218 4:0.55751648 5:0.55828008 6:0.26131193 
1 1:0.9266925 2:0.41487017 3:0.56038921 4:0.65536844 5:0.32727683 6:0.7717003 
1 1:0.7540705 2:0.43271024 3:0.82365164 4:0.42144264 5:0.40085351 6:0.85813864 
1 1:0.88467198 2:0.58575446 3:0.32844955 4:0.90375932 5:0.45505419 6:0.14252236 
1 1:0.24987768 2:0.58490469 3:0.15609626 4:0.60627919 5:0.47785804 6:0.78240529 
1 1:0.95423352 2:0.62335256 3:0.54133078 4:0.86376034 5:0.27762043 6:0.82274677 
1 1:0.25480792 2:0.38427388 3:0.25362465 4:0.97944019 5:0.5870538 6:0.083481989 
1 1:0.79450874 2:0.34704328 3:0.24723681 4:0.84098686 5:0.49166051 6:0.56690725 
1 1:0.45100453 2:0.77698907 3:0.8027191 4:0.71458051 5:0.57244625 6:0.6415015 
1 1:0.74972407 2:0.16067253 3:0.52151346 4:0.87069842 5:0.79054645 6:0.043651511 
1 1:0.37925464 2:0.91592788 3:0.3539091 4:0.77038821 5:0.86846171 6:0.29192014 
1 1:0.65778196 2:0.22637662 3:0.77262034 4:0.26139546 5:0.43103088 6:0.59042669 
1 1:0.61472369 2:0.89984508 3:0.37631066 4:0.40353038 5:0.56600202 6:0.52090353 
1 1:0.48810444 2:0.4478639 3:0.85756782 4:0.74537584 5:0.40865735 6:0.024641352 
1 1:0.853934 2:0.16237382 3:0.53797842 4:0.20515776 5:0.83205878 6:0.21205583 
1 1:0.46080381 2:0.12692138 3:0.62218215 4:0.47605401 5:0.77848765 6:0.66880053 
1 1:0.78174606 2:0.097525472 3:0.41323269 4:0.74244266 5:0.54997673 6:0.13734302 
1 1:0.56380877 2:0.57261855 3:0.85623581 4:0.23472171 5:0.91150522 6:0.46420687 
1 1:0.68893839 2:0.65928334 3:0.85474141 4:0.71506021 5:0.59287186 6:0.75085791 
1 1:0.10647121 2:0.3421598 3:0.76265505 4:0.28616384 5:0.37370392 6:0.63292087 
1 1:0.8239297 2:0.16436453 3:0.400913 4:0.48560855 5:0.77570417 6:0.81532893 
1 1:0.58858722 2:0.39120601 3:0.1561738 4:0.11623388 5:0.47790599 6:0.75868 
1 1:0.19259137 2:0.65325426 3:0.65444097 4:0.71300594 5:0.36966046 6:0.25600453 
1 1:0.20377068 2:0.53299526 3:0.20171412 4:0.25667594 5:0.68954617 6:0.51570449 
1 1:0.5289873 2:0.74288078 3:0.80255713 4:0.077119561 5:0.30819557 6:0.3085982 
1 1:0.34216735 2:0.5827667 3:0.23337719 4:0.37766336 5:0.27144274 6:0.76643766 
1 1:0.66225681 2:0.51889878 3:0.2743597 4:0.88436809 5:0.54201109 6:0.48381377 
1 1:0.080332795 2:0.67341467 3:0.41041668 4:0.95020255 5:0.63367807 6:0.11670912 
1 1:0.33140507 2:0.29033404 3:0.22395295 4:0.33899749 5:0.67830689 6:0.30914163 
1 1:0.48464092 2:0.53412645 3:0.8106675 4:0.070105037 5:0.69207651 6:0.35131096 
1 1:0.53009074 2:0.70968744 3:0.86885211 4:0.24511478 5:0.33917445 6:0.94407525 
1 1:0.40850554 2:0.84980279 3:0.56703825 4:0.99289792 5:0.46719756 6:0.72663709 
1 1:0.11351595 2:0.46759134 3:0.31104355 4:0.13812312 5:0.12895565 6:0.35641648 
1 1:0.58656438 2:0.074385076 3:0.30030196 4:0.51275568 5:0.38061677 6:0.9093069 
1 1:0.39706126 2:0.92960596 3:0.38272489 4:0.52381583 5:0.39122841 6:0.28616149 
1 1:0.80456966 2:0.78320477 3:0.47887984 4:0.75496342 5:0.51569407 6:0.32813601 
1 1:0.54977034 2:0.90287125 3:0.26193596 4:0.32354109 5:0.71858748 6:0.80281349 
1 1:0.88519322 2:0.6992115 3:0.37280204 4:0.34166985 5:0.92371089 6:0.81387495 
1 1:0.54931434 2:0.088871517 3:0.35351534 4:0.68163599 5:0.34337859 6:0.21406962 
1 1:0.54105937 2:0.02502709 3:0.48915535 4:0.15775095 5:0.34396292 6:0.22380014 
1 1:0.62381405 2:0.11321727 3:0.38486481 4:0.5778541 5:0.24258066 6:0.82416414 
1 1:0.18022244 2:0.1257692 3:0.42747308 4:0.64475713 5:0.54254316 6:0.5946159 
1 1:0.51109305 2:0.85775094 3:0.34252476 4:0.21258857 5:0.70013123 6:0.51294657 
1 1:0.15801056 2:0.48786357 3:0.75038489 4:0.66079888 5:0.14069487 6:0.79842387 
1 1:0.65969777 2:0.44909599 3:0.24920903 4:0.91724784 5:0.46075176 6:0.74210089 
1 1:0.66962239 2:0.11492503 3:0.62350783 4:0.528684 5:0.57857589 6:0.13635572 
1 1:0.2454346 2:0.85450125 3:0.63960817 4:0.39513886 5:0.39115136 6:0.10454408 
1 1:0.8075068 2:0.73215315 3:0.72438444 4:0.089387553 5:0.27493581 6:0.54009845 
1 1:0.25437212 2:0.87707 3:0.36237339 4:0.98015192 5:0.75419372 6:0.6448868 
1 1:0.19714728 2:0.57025758 3:0.68124972 4:0.40110003 5:0.14699209 6:0.5993394 
1 1:0.040465036 2:0.38293569 3:0.3928461 4:0.73268989 5:0.6057203 6:0.47275029 
1 1:0.8959473 2:0.6183922 3:0.34996958 4:0.2653717 5:0.5696472 6:0.68280617 
1 1:0.32006727 2:0.92636003 3:0.52815557 4:0.014686504 5:0.47656538 6:0.055023171 
1 1:0.22320545 2:0.80968246 3:0.64137156 4:0.38889702 5:0.16932619 6:0.46395174 
1 1:0.41684401 2:0.51158569 3:0.083762188 4:0.24344566 5:0.78908948 6:0.46848242 
1 1:0.5550524 2:0.76850169 3:0.72694298 4:0.12146434 5:0.30640314 6:0.024468392 
1 1:0.57093586 2:0.384822 3:0.86343828 4:0.29110508 5:0.76772663 6:0.47343686 
1 1:0.21261501 2:0.31853591 3:0.29100192 4:0.75904662 5:0.41163992 6:0.367083 
1 1:0.80739343 2:0.23123384 3:0.72584416 4:0.84160196 5:0.10658057 6:0.53252429 
1 1:0.75409682 2:0.91797771 3:0.52577539 4:0.87181792 5:0.70355163 6:0.86202416 
1 1:0.29589547 2:0.17475538 3:0.25365047 4:0.71494387 5:0.45334987 6:0.30610066 
1 1:0.11593278 2:0.44960581 3:0.37941363 4:0.0055057 5:0.34139735 6:0.0071500599 
1 1:0.45212484 2:0.54353298 3:0.18547838 4:0.83510026 5:0.672321 6:0.12597354 
0.9692428916765924 1:0.72223794 2:0.72223836 3:0.15312752 4:0.78103518 5:0.7932695 6:0.53881567 
1 1:0.46384742 2:0.59000717 3:0.18381315 4:0.44727737 5:0.57914285 6:0.13784655 
1 1:0.31927974 2:0.23822732 3:0.29574376 4:0.88305678 5:0.20299552 6:0.11017022 
1 1:0.45404807 2:0.94272787 3:0.50229286 4:0.13266265 5:0.57501864 6:0.76923277 
1 1:0.20052912 2:0.14896431 3:0.49169157 4:0.88831499 5:0.19502275 6:0.49458165 
1 1:0.18690222 2:0.28650784 3:0.7931191 4:0.66881449 5:0.69552133 6:0.68815391 
0.6324449309348651 1:0.28464918 2:0.94019531 3:0.31022387 4:0.66411825 5:0.62266902 6:0.47158948 
1 1:0.60923326 2:0.42109371 3:0.11329684 4:0.36543256 5:0.56380872 6:0.26529187 
1 1:0.38331895 2:0.21429197 3:0.23380823 4:0.90443402 5:0.60137504 6:0.81686999 
1 1:0.23036037 2:0.18037901 3:0.34048325 4:0.59950007 5:0.3159435 6:0.27252312 
1 1:0.44016842 2:0.91103288 3:0.2989287 4:0.48087229 5:0.79156148 6:0.0013807782 
1 1:0.077024631 2:0.39171591 3:0.42979405 4:0.24306753 5:0.47239564 6:0.97152467 
1 1:0.2748321 2:0.80032652 3:0.29040201 4:0.47512971 5:0.54831031 6:0.39121918 
0.7935638599057345 1:0.23127788 2:0.67353446 3:0.21268907 4:0.18843617 5:0.065457683 6:0.32793014 
1 1:0.77145165 2:0.59516926 3:0.72922154 4:0.85651816 5:0.46767684 6:0.94590342 
1 1:0.36194647 2:0.33120585 3:0.14193307 4:0.46161354 5:0.073336339 6:0.1600465 
1 1:0.32773775 2:0.94760874 3:0.63291692 4:0.34767993 5:0.31789829 6:0.50868606 
1 1:0.76034178 2:0.25799197 3:0.21670214 4:0.884839 5:0.52821323 6:0.2107476 
1 1:0.80064679 2:0.58779716 3:0.26731414 4:0.041393545 5:0.20469849 6:0.82548449 
1 1:0.26837092 2:0.45033362 3:0.80756915 4:0.94415084 5:0.6168111 6:0.62997064 
1 1:0.38130699 2:0.009749889 3:0.52416683 4:0.84875633 5:0.34968026 6:0.65114182 
1 1:0.40694501 2:0.72230196 3:0.20625533 4:0.29356743 5:0.34277281 6:0.27109978 
1 1:0.05381717 2:0.41592434 3:0.2944379 4:0.70024407 5:0.29958013 6:0.55695004 
1 1:0.60990838 2:0.60254189 3:0.22737837 4:0.58153918 5:0.12598239 6:0.49141486 
1 1:0.52074677 2:0.60931546 3:0.85597861 4:0.6444879 5:0.29458448 6:0.71070333 
1 1:0.41759118 2:0.32638899 3:0.16963537 4:0.51417687 5:0.43739428 6:0.048845792 
1 1:0.093441837 2:0.57066968 3:0.25978199 4:0.86731258 5:0.57942712 6:0.27951426 
1 1:0.21115164 2:0.12175272 3:0.43593245 4:0.20605005 5:0.57704757 6:0.6022791 
1 1:0.49642594 2:0.12571353 3:0.18089258 4:0.38088305 5:0.6597195 6:0.48508473 
1 1:0.81006502 2:0.20763605 3:0.2560738 4:0.62632512 5:0.59666744 6:0.2542447 
1 1:0.6304605 2:0.56961656 3:0.87819594 4:0.55033411 5:0.27973539 6:0.87570756 
1 1:0.39932921 2:0.84145341 3:0.30253885 4:0.91807 5:0.47812932 6:0.8832612 
1 1:0.5813948 2:0.23877302 3:0.81764109 4:0.71194832 5:0.61573268 6:0.066239486 
1 1:0.63367073 2:0.62288476 3:0.20678916 4:0.96230137 5:0.58470765 6:0.32638372 
1 1:0.86743135 2:0.34770744 3:0.26494872 4:0.4020484 5:0.69644332 6:0.64035217 
1 1:0.6233903 2:0.40946593 3:0.86664046 4:0.60026286 5:0.49933364 6:0.73853323 
1 1:0.4886626 2:0.22122123 3:0.78112148 4:0.41056132 5:0.33435186 6:0.99454691 
1 1:0.9625448 2:0.7071577 3:0.65429373 4:0.6088453 5:0.639565 6:0.55155888 
1 1:0.19534171 2:0.65545178 3:0.65067075 4:0.32800412 5:0.27243642 6:0.0030144546 
1 1:0.37720907 2:0.056359241 3:0.61917778 4:0.5154612 5:0.56337159 6:0.20491886 
1 1:0.5418305 2:0.09319156 3:0.31439711 4:0.6910518 5:0.64416279 6:0.84325121 
1 1:0.55436136 2:0.8999199 3:0.76870832 4:0.7594814 5:0.24879204 6:0.31052176 
1 1:0.47323038 2:0.61319356 3:0.7865977 4:0.90124474 5:0.86230231 6:0.26313574 
1 1:0.86141106 2:0.19806731 3:0.58395235 4:0.90161691 5:0.39039466 6:0.82033504 
1 1:0.22882317 2:0.62508901 3:0.81069174 4:0.32426155 5:0.71609994 6:0.62096924 
1 1:0.42608692 2:0.584185 3:0.15952685 4:0.059245677 5:0.8185519 6:0.30797155 
1 1:0.40211881 2:0.0065178313 3:0.37354401 4:0.73860103 5:0.27002066 6:0.34373322 
1 1:0.27210121 2:0.059752347 3:0.49107529 4:0.8905346 5:0.49772821 6:0.10597784 
1 1:0.34811122 2:0.79832808 3:0.25139427 4:0.50212077 5:0.16847382 6:0.5399851 
1 1:0.87752804 2:0.5287171 3:0.31688191 4:0.21281809 5:0.71799598 6:0.85149482 
1 1:0.85410745 2:0.7694568 3:0.51642599 4:0.77854534 5:0.45837316 6:0.86974539 
1 1:0.14453274 2:0.89034835 3:0.49251181 4:0.62710186 5:0.36085156 6:0.24176641 
1 1:0.80613217 2:0.32785329 3:0.25777362 4:0.35430521 5:0.8735461 6:0.61752407 
1 1:0.26151844 2:0.81354982 3:0.71084912 4:0.57893352 5:0.51954497 6:0.7563763 
1 1:0.77090099 2:0.14443973 3:0.48633424 4:0.97462487 5:0.64970248 6:0.64195034 
1 1:0.72159289 2:0.5939156 3:0.8337986 4:0.078493319 5:0.50183475 6:0.42423219 
1 1:0.01365207 2:0.50466328 3:0.61996119 4:0.81127393 5:0.29607813 6:0.39007951 
1 1:0.17854581 2:0.48327793 3:0.81200525 4:0.62254936 5:0.44125197 6:0.19242164 
1 1:0.47764124 2:0.71263797 3:0.2426085 4:0.28589288 5:0.70472862 6:0.47687368 
1 1:0.091707783 2:0.38920613 3:0.69077911 4:0.072681259 5:0.63709033 6:0.26171719 
1 1:0.63901537 2:0.26381484 3:0.79734933 4:0.72633252 5:0.91585739 6:0.47754162 
1 1:0.63157661 2:0.56322171 3:0.75465161 4:0.043222948 5:0.68306849 6:0.46723682 
1 1:0.77022214 2:0.18733836 3:0.27563142 4:0.78164428 5:0.27465749 6:0.74643725 
1 1:0.71909676 2:0.75615814 3:0.46873422 4:0.48596498 5:0.87528313 6:0.84210736 
1 1:0.69826435 2:0.12232881 3:0.52818575 4:0.041275498 5:0.93794066 6:0.66173981 
1 1:0.92855099 2:0.56478005 3:0.72935627 4:0.72271626 5:0.5220947 6:0.44295522 
1 1:0.66668694 2:0.62208864 3:0.74100218 4:0.8961822 5:0.50334294 6:0.54434757 
1 1:0.32204747 2:0.38527919 3:0.11706831 4:0.61861957 5:0.42380699 6:0.49799885 
1 1:0.21003032 2:0.2103558 3:0.52438403 4:0.7832303 5:0.64068353 6:0.23619997 
1 1:0.36272632 2:0.72825723 3:0.21690114 4:0.7642065 5:0.31459225 6:0.52056234 
1 1:0.38149391 2:0.80403853 3:0.82352078 4:0.59816813 5:0.47128654 6:0.037984993 
1 1:0.85851992 2:0.46096935 3:0.22670518 4:0.63447502 5:0.5944225 6:0.14695048 
1 1:0.72930584 2:0.40315774 3:0.22881462 4:0.13571429 5:0.89681102 6:0.22978392 
1 1:0.51099907 2:0.40804886 3:0.86940114 4:0.7741234 5:0.70313805 6:0.88073867 
1 1:0.40867764 2:0.54934516 3:0.78051777 4:0.80862742 5:0.37792884 6:0.23131741 
1 1:0.18888927 2:0.62753959 3:0.40549462 4:0.70409635 5:0.28978135 6:0.15247842 
1 1:0.31157081 2:0.37912448 3:0.20622382 4:0.45456783 5:0.65306031 6:0.90370774 
1 1:0.37823578 2:0.12437612 3:0.5139572 4:0.35970608 5:0.096505738 6:0.80101828 
1 1:0.40463251 2:0.52586061 3:0.88504499 4:0.0094516799 5:0.35774912 6:0.044788378 
1 1:0.63023693 2:0.090221066 3:0.69797603 4:0.39572326 5:0.68994028 6:0.5686783 
1 1:0.53736175 2:0.86702145 3:0.75206113 4:0.21077849 5:0.55240974 6:0.25104975 
1 1:0.15534405 2:0.58666458 3:0.25593434 4:0.21645514 5:0.17148997 6:0.78123801 
1 1:0.30250568 2:0.49628578 3:0.78654336 4:0.728813 5:0.49804873 6:0.090704286 
1 1:0.5531129 2:0.80761627 3:0.75329577 4:0.090431699 5:0.31629732 6:0.67445932 
1 1:0.4994926 2:0.97289023 3:0.66473819 4:0.97897067 5:0.5160296 6:0.52428277 
1 1:0.80731349 2:0.21267867 3:0.65896153 4:0.57079029 5:0.76746564 6:0.26842828 
1 1:0.62354714 2:0.034312984 3:0.39156697 4:0.58914978 5:0.26761297 6:0.2721365 
1 1:0.52909117 2:0.77001497 3:0.80343412 4:0.74848088 5:0.18358626 6:0.14880535 
1 1:0.53183473 2:0.12746057 3:0.60516547 4:0.66339079 5:0.24201565 6:0.53176321 
1 1:0.52562231 2:0.49275786 3:0.09325516 4:0.45853497 5:0.6965743 6:0.49323429 
1 1:0.10015952 2:0.44086612 3:0.31528416 4:0.18959885 5:0.49855785 6:0.69449074 
1 1:0.79576994 2:0.2689444 3:0.65468754 4:0.60214273 5:0.095483217 6:0.29119932 
1 1:0.083028446 2:0.47189685 3:0.43015437 4:0.45563341 5:0.59441145 6:0.49080523 
1 1:0.96656848 2:0.67206969 3:0.49951279 4:0.98376276 5:0.60927309 6:0.4453962 
1 1:0.73435686 2:0.386462 3:0.26926062 4:0.22423982 5:0.61370366 6:0.2420231 
1 1:0.28901261 2:0.96499803 3:0.58101425 4:0.28368422 5:0.52485914 6:0.53660268 
1 1:0.57111777 2:0.81472389 3:0.32635532 4:0.041069756 5:0.66821816 6:0.93375426 
1 1:0.57710736 2:0.67389177 3:0.89204408 4:0.34438718 5:0.67683995 6:0.39942893 
1 1:0.35588912 2:0.033991025 3:0.54100633 4:0.92212948 5:0.63807782 6:0.73832962 
1 1:0.52845546 2:0.9424151 3:0.69533392 4:0.92864761 5:0.43778604 6:0.17623199 
1 1:0.41687842 2:0.67249776 3:0.30096395 4:0.70881183 5:0.42175917 6:0.54290621 
1 1:0.88266792 2:0.50444544 3:0.49871697 4:0.15536309 5:0.52646016 6:0.65876897 
1 1:0.42747941 2:0.9999024 3:0.40039867 4:0.2177183 5:0.56889451 6:0.28756939 
1 1:0.34035783 2:0.28466477 3:0.81593662 4:0.81085787 5:0.31393923 6:0.23118285 
1 1:0.56057581 2:0.8720114 3:0.27011517 4:0.26156537 5:0.84171468 6:0.29193247 
1 1:0.38097849 2:0.39843025 3:0.17426293 4:0.8790348 5:0.17295536 6:0.61815347 
1 1:0.5392828 2:0.91129038 3:0.33349209 4:0.53882925 5:0.87623219 6:0.19067699 
1 1:0.44398675 2:0.066039428 3:0.60096534 4:0.52401188 5:0.62498087 6:0.30861463 
1 1:0.66300764 2:0.75257825 3:0.23510978 4:0.14655635 5:0.79478866 6:0.39809035 
1 1:0.33509242 2:0.80866395 3:0.48782897 4:0.70648461 5:0.14062911 6:0.54631099 
1 1:0.45803391 2:0.60326387 3:0.85755298 4:0.24568008 5:0.71737171 6:0.10216771 
1 1:0.40650267 2:0.077045958 3:0.68650759 4:0.48067329 5:0.51420138 6:0.58942325 
1 1:0.33576218 2:0.65036547 3:0.16791386 4:0.56594035 5:0.36559507 6:0.72772566 
1 1:0.97474111 2:0.284051 3:0.45000846 4:0.59909533 5:0.28682324 6:0.62133755 
1 1:0.77215035 2:0.62087059 3:0.75228396 4:0.9779342 5:0.397651 6:0.53052937 
1 1:0.75208793 2:0.40827208 3:0.20783843 4:0.59239727 5:0.63515871 6:0.49060172 
1 1:0.80003581 2:0.25987452 3:0.26907261 4:0.10071006 5:0.37637752 6:0.87891689 
1 1:0.41552594 2:0.95324731 3:0.39411128 4:0.83320095 5:0.16078997 6:0.42359098 
1 1:0.63817707 2:0.74058054 3:0.86876183 4:0.6405938 5:0.42903472 6:0.52161521 
1 1:0.28678073 2:0.089292345 3:0.58754764 4:0.74169622 5:0.16944729 6:0.79394776 
1 1:0.66620649 2:0.29047291 3:0.81769445 4:0.39786384 5:0.39879283 6:0.93836577 
1 1:0.40665991 2:0.16497821 3:0.20029613 4:0.16191422 5:0.3486006 6:0.4128242 
1 1:0.69411988 2:0.5735985 3:0.83704557 4:0.42067256 5:0.60437672 6:0.50745567 
1 1:0.67058589 2:0.84480024 3:0.27749687 4:0.36887322 5:0.37857194 6:0.76668772 
1 1:0.29362566 2:0.50498636 3:0.21311986 4:0.17710751 5:0.55504006 6:0.16020853 
1 1:0.44566243 2:0.31261986 3:0.82803715 4:0.93569143 5:0.64743224 6:0.65738761 
1 1:0.2100688 2:0.71514179 3:0.20783506 4:0.75820019 5:0.60826169 6:0.74064373 
1 1:0.5777305 2:0.62572308 3:0.77616699 4:0.1887595 5:0.69736531 6:0.26281386 
1 1:0.006070172 2:0.31634113 3:0.61260687 4:0.34021668 5:0.64313685 6:0.38447478 
1 1:0.61336503 2:0.35649724 3:0.82093556 4:0.28461944 5:0.22576939 6:0.19422297 
1 1:0.36352868 2:0.68646912 3:0.82769167 4:0.7064242 5:0.62909478 6:0.41412988 
1 1:0.86309843 2:0.49773163 3:0.37907282 4:0.25843726 5:0.37953238 6:0.58674733 
1 1:0.16914682 2:0.61682012 3:0.75569438 4:0.30391818 5:0.73871068 6:0.55836483 
1 1:0.30272731 2:0.26033392 3:0.25478091 4:0.79409851 5:0.89539993 6:0.91272737 
1 1:0.66554001 2:0.11550777 3:0.36047581 4:0.62988478 5:0.91725876 6:0.48172708 
1 1:0.22050511 2:0.69234583 3:0.41258042 4:0.22089462 5:0.68383517 6:0.41312647 
1 1:0.14204122 2:0.70826552 3:0.73732554 4:0.85480013 5:0.83410925 6:0.43459759 
1 1:0.84002863 2:0.66957184 3:0.79536848 4:0.40082085 5:0.62572513 6:0.65392224 
1 1:0.54534961 2:0.14584222 3:0.40618287 4:0.89424994 5:0.61796195 6:0.093134315 
1 1:0.54499492 2:0.093237706 3:0.80692171 4:0.42452809 5:0.48605212 6:0.48344588 
1 1:0.22654585 2:0.4620701 3:0.78113155 4:0.47383792 5:0.31736249 6:0.21831289 
1 1:0.26474337 2:0.13114203 3:0.64458502 4:0.13834198 5:0.41037127 6:0.11552846 
1 1:0.30426164 2:0.77795618 3:0.26750895 4:0.56340603 5:0.253539 6:0.85078017 
1 1:0.47138686 2:0.73931326 3:0.16385439 4:0.42025815 5:0.32133314 6:0.95708076 
1 1:0.41340964 2:0.74822616 3:0.76694394 4:0.45882382 5:0.46576917 6:0.074108377 
1 1:0.41018402 2:0.16059976 3:0.72812962 4:0.83757752 5:0.51211513 6:0.40408786 
1 1:0.8073132 2:0.75653283 3:0.7492892 4:0.6157379 5:0.37369614 6:0.67164508 
1 1:0.16788149 2:0.14310805 3:0.4715283 4:0.9903712 5:0.30101974 6:0.36392575 
1 1:0.043041709 2:0.48111223 3:0.64612083 4:0.29964405 5:0.61582206 6:0.5455662 
1 1:0.45952748 2:0.15121597 3:0.79555228 4:0.063415124 5:0.35017306 6:0.44106544 
1 1:0.34984627 2:0.48608146 3:0.24444101 4:0.27260739 5:0.35181171 6:0.37325429 
1 1:0.22107687 2:0.27270378 3:0.30533299 4:0.41857685 5:0.25890614 6:0.38373442 
1 1:0.72424039 2:0.96450774 3:0.61990243 4:0.38638158 5:0.57522438 6:0.20014171 
1 1:0.56948196 2:0.76962866 3:0.18067324 4:0.20693956 5:0.32418645 6:0.48206791 
1 1:0.535497 2:0.022723826 3:0.63427294 4:0.062790819 5:0.3767779 6:0.21231403 
1 1:0.14117981 2:0.2775531 3:0.72758585 4:0.28788678 5:0.70000404 6:0.37908915 
1 1:0.35472274 2:0.87185726 3:0.34319012 4:0.24981269 5:0.74114567 6:0.0079438464 
1 1:0.42014495 2:0.49294955 3:0.84314918 4:0.25883932 5:0.029287033 6:0.86744309 
1 1:0.48436324 2:0.36723913 3:0.19080287 4:0.71022994 5:0.52708193 6:0.098155384 
1 1:0.3677383 2:0.66024179 3:0.80259116 4:0.57700135 5:0.3590876 6:0.94997013 
1 1:0.54623665 2:0.93878328 3:0.71048065 4:0.37196971 5:0.51311464 6:0.16178879 
1 1:0.3981717 2:0.53418606 3:0.7907682 4:0.44771039 5:0.074650586 6:0.650906 
1 1:0.2336188 2:0.82156301 3:0.63801451 4:0.085137068 5:0.20759041 6:0.3782934 
1 1:0.78622511 2:0.8229059 3:0.67923821 4:0.17795474 5:0.44570155 6:0.40528878 
1 1:0.76582456 2:0.55385583 3:0.76227277 4:0.085789784 5:0.49724177 6:0.41718291 
1 1:0.31868296 2:0.18595042 3:0.80845043 4:0.56072775 5:0.80013247 6:0.21529334 
1 1:0.57050855 2:0.47564275 3:0.75625956 4:0.2298129 5:0.4608756 6:0.38478104 
1 1:0.94051412 2:0.54161374 3:0.51204528 4:0.2218543 5:0.18291209 6:0.22493352 
1 1:0.50874442 2:0.23491606 3:0.29519611 4:0.67614963 5:0.4606007 6:0.42389816 
1 1:0.12625446 2:0.42682234 3:0.74741909 4:0.12470887 5:0.74449367 6:0.096368143 
0.04084790379786421 1:0.20377789 2:0.096393289 3:0.34838585 4:0.61649648 5:0.69915135 6:0.62113392 
1 1:0.32878343 2:0.71164053 3:0.86381835 4:0.51310853 5:0.38279891 6:0.25649456 
1 1:0.90957285 2:0.60070004 3:0.22663367 4:0.44660378 5:0.54368963 6:0.19341013 
1 1:0.2976949 2:0.34659845 3:0.18673582 4:0.42295272 5:0.42206785 6:0.25489821 
0.9880502648253147 1:0.49039246 2:0.27335747 3:0.89737556 4:0.63712615 5:0.36883463 6:0.049005022 
1 1:0.50238258 2:0.87276154 3:0.72861307 4:0.41411571 5:0.51552058 6:0.80474428 
1 1:0.4343384 2:0.58865034 3:0.27633462 4:0.0002496294 5:0.50671731 6:0.59908059 
1 1:0.93186749 2:0.69145289 3:0.56944497 4:0.19770568 5:0.6402626 6:0.068694824 
1 1:0.53530269 2:0.79536085 3:0.79781007 4:0.29984253 5:0.22211411 6:0.83788336 
1 1:0.68683565 2:0.19671453 3:0.81944468 4:0.72137467 5:0.67644507 6:0.18134771 
1 1:0.31879845 2:0.16731384 3:0.33500082 4:0.69852237 5:0.79121396 6:0.57491138 
1 1:0.56518242 2:0.54561102 3:0.20192618 4:0.91975786 5:0.56848964 6:0.82773238 
1 1:0.57358604 2:0.78650607 3:0.22075038 4:0.053479958 5:0.22044147 6:0.15919135 
1 1:0.1229589 2:0.4942952 3:0.71471689 4:0.62337465 5:0.20094024 6:0.36136379 
1 1:0.61304318 2:0.71194803 3:0.29606392 4:0.36249402 5:0.56122438 6:0.68746605 
1 1:0.91950066 2:0.42161338 3:0.30537753 4:0.0032972629 5:0.53462804 6:0.67117332 
1 1:0.06705613 2:0.75114597 3:0.45603367 4:0.6191537 5:0.1658232 6:0.38096387 
1 1:0.4696801 2:0.12345673 3:0.65142157 4:0.13466189 5:0.74573324 6:0.41470329 
1 1:0.27722999 2:0.9148165 3:0.42796788 4:0.081362483 5:0.27365363 6:0.37590121 
1 1:0.064022849 2:0.61571878 3:0.65868588 4:0.40359829 5:0.11246174 6:0.36003997 
1 1:0.074065423 2:0.74730406 3:0.48936449 4:0.078633334 5:0.24586461 6:0.6066684 
1 1:0.68367108 2:0.8888365 3:0.33020772 4:0.61613413 5:0.96025061 6:0.37710196 
1 1:0.92982234 2:0.63385377 3:0.44232866 4:0.58544538 5:0.45441918 6:0.21443713 
1 1:0.27398127 2:0.067614562 3:0.66186369 4:0.46427428 5:0.66894671 6:0.39541377 
1 1:0.53092544 2:0.50852853 3:0.77938658 4:0.75999605 5:0.26194087 6:0.79761973 
1 1:0.4867966 2:0.7940079 3:0.18257747 4:0.26589739 5:0.73659201 6:0.090910296 
1 1:0.3949153 2:0.89825582 3:0.30160603 4:0.41263166 5:0.34128723 6:0.5521775 
1 1:0.38275907 2:0.60379993 3:0.82688079 4:0.70616222 5:0.89463547 6:0.88439544 
1 1:0.23380251 2:0.46920837 3:0.19368358 4:0.1003404 5:0.31246085 6:0.80292786 
1 1:0.10597986 2:0.6056725 3:0.58729286 4:0.81996742 5:0.55632966 6:0.39742146 
1 1:0.30376622 2:0.60839398 3:0.8676632 4:0.75247479 5:0.31691704 6:0.16378506 
1 1:0.52738532 2:0.38900269 3:0.80999625 4:0.82848832 5:0.56983028 6:0.85578894 
1 1:0.31899936 2:0.74312053 3:0.79261341 4:0.84191563 5:0.76625659 6:0.64154369 
1 1:0.88849067 2:0.64997553 3:0.7719082 4:0.77432048 5:0.3210286 6:0.56299767 
1 1:0.17322268 2:0.46564373 3:0.76199111 4:0.89598496 5:0.29936991 6:0.3469632 
1 1:0.88847558 2:0.21376774 3:0.40528449 4:0.4868205 5:0.72987006 6:0.25534403 
1 1:0.59616711 2:0.8171439 3:0.76910717 4:0.57213526 5:0.67446752 6:0.16140413 
1 1:0.26537571 2:0.79447504 3:0.63254497 4:0.12761054 5:0.5685352 6:0.67283344 
1 1:0.11159922 2:0.77750182 3:0.46976586 4:0.36656489 5:0.52443859 6:0.77831313 
1 1:0.11501479 2:0.44098698 3:0.62078386 4:0.26448853 5:0.68070671 6:0.27972651 
1 1:0.76046739 2:0.67853923 3:0.21119368 4:0.12344678 5:0.45849268 6:0.51658079 
1 1:0.15617958 2:0.80335346 3:0.57946566 4:0.83578267 5:0.40920787 6:0.89699438 
1 1:0.7299422 2:0.4917678 3:0.75478261 4:0.49784708 5:0.50416371 6:0.91000318 
1 1:0.44432219 2:0.72939024 3:0.27570832 4:0.59786409 5:0.27332299 6:0.5288393 
1 1:0.46901923 2:0.66117978 3:0.17950466 4:0.39578733 5:0.61703812 6:0.59071219 
1 1:0.39580008 2:0.42085612 3:0.79703309 4:0.29969497 5:0.71092831 6:0.095392631 
1 1:0.43390017 2:0.83198141 3:0.28369376 4:0.64303818 5:0.77417355 6:0.81625526 
1 1:0.49083773 2:0.16543965 3:0.78222719 4:0.34343942 5:0.40315906 6:0.9830222 
1 1:0.52394646 2:0.33871099 3:0.84430713 4:0.4310393 5:0.77847016 6:0.68391438 
1 1:0.67369204 2:0.53877487 3:0.25159733 4:0.62032703 5:0.22016267 6:0.26971258 
1 1:0.078999817 2:0.31557226 3:0.59038393 4:0.8243784 5:0.59265661 6:0.38784437 
1 1:0.67047047 2:0.82632299 3:0.53489959 4:0.59934395 5:0.81502347 6:0.85002114 
1 1:0.078551262 2:0.40195545 3:0.39379975 4:0.77744756 5:0.26984437 6:0.73093772 
1 1:0.55215363 2:0.26026983 3:0.78036089 4:0.92622736 5:0.5664637 6:0.76703316 
1 1:0.70496404 2:0.93275623 3:0.50287084 4:0.69101178 5:0.91004233 6:0.1916669 
1 1:0.41815193 2:0.14471016 3:0.60124563 4:0.98422399 5:0.57916646 6:0.95498858 
1 1:0.54193987 2:0.29441777 3:0.23382659 4:0.29114393 5:0.33463266 6:0.10702458 
1 1:0.53381014 2:0.88213817 3:0.26071237 4:0.62512894 5:0.51806614 6:0.47101109 
1 1:0.56999941 2:0.81921946 3:0.22758618 4:0.42931701 5:0.53277636 6:0.57637443 
1 1:0.30524382 2:0.29948458 3:0.30450651 4:0.01404808 5:0.43247787 6:0.47284219 
1 1:0.94432064 2:0.55149147 3:0.33652945 4:0.83954691 5:0.45964331 6:0.60014214 
0.6690942294037978 1:0.8573212 2:0.11841568 3:0.56282826 4:0.77315298 5:0.67502534 6:0.69586767 
1 1:0.14474297 2:0.72226567 3:0.49645009 4:0.64237533 5:0.50193397 6:0.71880132 
1 1:0.8408735 2:0.80994757 3:0.57072729 4:0.25590863 5:0.63549133 6:0.1224151 
1 1:0.15654183 2:0.55990205 3:0.73034669 4:0.18978192 5:0.50975525 6:0.051423827 
1 1:0.39395699 2:0.95990006 3:0.44534953 4:0.51174602 5:0.7978734 6:0.4649587 
1 1:0.24268099 2:0.063332328 3:0.52701647 4:0.23807336 5:0.57618494 6:0.12122255 
0.7778169558643035 1:0.63945044 2:0.24643541 3:0.85351027 4:0.50368385 5:0.89524088 6:0.23255046 
1 1:0.56455057 2:0.78357911 3:0.76214108 4:0.82575755 5:0.29770951 6:0.0084552671 
1 1:0.63884854 2:0.60757671 3:0.919213 4:0.55018505 5:0.35282792 6:0.24760115 
1 1:0.26977692 2:0.13973607 3:0.42738971 4:0.1122231 5:0.78088251 6:0.4659429 
1 1:0.73061833 2:0.58756839 3:0.78637436 4:0.92547575 5:0.62110262 6:0.72456466 
1 1:0.8659383 2:0.56078082 3:0.22854069 4:0.56374819 5:0.84842142 6:0.38681981 
1 1:0.40445859 2:0.40793158 3:0.80421519 4:0.97433372 5:0.75771452 6:0.88954434 
1 1:0.31749185 2:0.6885604 3:0.16074978 4:0.064630454 5:0.70365445 6:0.51049696 
1 1:0.79163199 2:0.13269551 3:0.68192207 4:0.67291863 5:0.17569609 6:0.47348644 
1 1:0.15068543 2:0.34003661 3:0.68797383 4:0.37056178 5:0.26086259 6:0.11006196 
1 1:0.53135844 2:0.68931083 3:0.91486445 4:0.62415858 5:0.80018309 6:0.65769837 
1 1:0.8296732 2:0.66972463 3:0.28005881 4:0.83431449 5:0.24671326 6:0.53348243 
1 1:0.73690635 2:0.34752826 3:0.7890854 4:0.15594384 5:0.46346198 6:0.28403285 
1 1:0.72521183 2:0.9794679 3:0.56862858 4:0.44621376 5:0.37219699 6:0.62072043 
0.08285666739321725 1:0.69604635 2:0.18562948 3:0.26573624 4:0.83690613 5:0.92360345 6:0.79397484 
1 1:0.84748882 2:0.3173011 3:0.71823053 4:0.090707279 5:0.6829116 6:0.63551041 
1 1:0.27020213 2:0.5740375 3:0.88128296 4:0.48606242 5:0.4590763 6:0.63805733 
1 1:0.45192347 2:0.57102984 3:0.84042287 4:0.15658966 5:0.93475506 6:0.92965192 
1 1:0.40417026 2:0.88258139 3:0.34216847 4:0.2244158 5:0.19342311 6:0.16105862 
1 1:0.32080947 2:0.29173545 3:0.84576456 4:0.65017105 5:0.40973603 6:0.22430205 
1 1:0.66395606 2:0.67418431 3:0.21928047 4:0.11429665 5:0.73676459 6:0.13831014 
1 1:0.13169035 2:0.52051809 3:0.20301558 4:0.19853996 5:0.47549192 6:0.27932694 
1 1:0.18717883 2:0.44346244 3:0.80444842 4:0.3188786 5:0.48366422 6:0.44422535 
1 1:0.78566363 2:0.6324663 3:0.81600548 4:0.90820152 5:0.40837745 6:0.19988422 
1 1:0.28750209 2:0.21258573 3:0.74423843 4:0.70788604 5:0.5879675 6:0.71459756 
1 1:0.25858253 2:0.37982778 3:0.37829715 4:0.6166513 5:0.6988567 6:0.037903182 
1 1:0.22941291 2:0.21309434 3:0.34441286 4:0.3969082 5:0.59750752 6:0.42641756 
1 1:0.57970339 2:0.86215922 3:0.26512018 4:0.82369742 5:0.48521648 6:0.27430299 
1 1:0.32951484 2:0.3781718 3:0.77660469 4:0.85696567 5:0.3382352 6:0.027298356 
1 1:0.60181199 2:0.51782824 3:0.18651675 4:0.5210409 5:0.66235098 6:0.354453 
1 1:0.32835987 2:0.51368754 3:0.10996345 4:0.20149379 5:0.61901158 6:0.59071175 
1 1:0.36708847 2:0.50316752 3:0.74909805 4:0.93393398 5:0.45331518 6:0.50390872 
1 1:0.39438817 2:0.21949658 3:0.86196309 4:0.26392736 5:0.44767811 6:0.59916915 
1 1:0.31089203 2:0.84846014 3:0.73701501 4:0.42080696 5:0.33244012 6:0.27466094 
1 1:0.37873882 2:0.12593244 3:0.77590597 4:0.45692394 5:0.3500641 6:0.54725927 
1 1:0.93358635 2:0.3113225 3:0.30558518 4:0.53422561 5:0.21304204 6:0.38672484 
1 1:0.62678222 2:0.63292581 3:0.2492277 4:0.62716308 5:0.26403289 6:0.0010794812 
1 1:0.71843773 2:0.2423313 3:0.77285412 4:0.98371288 5:0.77109362 6:0.23854669 
1 1:0.67051796 2:0.17671034 3:0.58209642 4:0.14237886 5:0.22133512 6:0.67740943 
1 1:0.72864964 2:0.71520078 3:0.73727367 4:0.80098108 5:0.36674668 6:0.51453415 
1 1:0.93362288 2:0.54405227 3:0.47091223 4:0.24314668 5:0.76575883 6:0.62988157 
1 1:0.17456897 2:0.41765889 3:0.27266474 4:0.78096441 5:0.84166466 6:0.22192355 
1 1:0.92468245 2:0.48556538 3:0.35733362 4:0.35522524 5:0.26236105 6:0.2535292 
1 1:0.62924114 2:0.17970519 3:0.31947078 4:0.31483671 5:0.43583503 6:0.45424183 
1 1:0.57882797 2:0.062147266 3:0.63052622 4:0.028277094 5:0.58625614 6:0.27724596 
1 1:0.50689385 2:0.27210473 3:0.16797449 4:0.072855203 5:0.44123416 6:0.80054085 
1 1:0.33988166 2:0.18346158 3:0.18804176 4:0.2690349 5:0.68135959 6:0.51608806 
1 1:0.55424775 2:0.6256384 3:0.88251924 4:0.067713919 5:0.21479689 6:0.74235514 
1 1:0.41443466 2:0.43779573 3:0.17596552 4:0.7907275 5:0.71755794 6:0.64797812 
1 1:0.74626692 2:0.77189966 3:0.43111354 4:0.45504646 5:0.95867983 6:0.27612311 
1 1:0.64295826 2:0.15803874 3:0.25906239 4:0.76412625 5:0.56368514 6:0.51166018 
1 1:0.14982449 2:0.46507484 3:0.23473347 4:0.51058628 5:0.79289371 6:0.060552832 
1 1:0.33132626 2:0.18400624 3:0.27864208 4:0.074091666 5:0.42646477 6:0.43453443 
1 1:0.28503506 2:0.40034145 3:0.77962364 4:0.14707864 5:0.4627514 6:0.39847479 
1 1:0.31877487 2:0.72111628 3:0.27664699 4:0.91671428 5:0.16492748 6:0.41760656 
1 1:0.38460037 2:0.030783985 3:0.56201947 4:0.38116014 5:0.30373414 6:0.7494138 
1 1:0.45586822 2:0.065121953 3:0.76459779 4:0.41972391 5:0.69900243 6:0.52821632 
1 1:0.57481602 2:0.67546737 3:0.79164961 4:0.85335706 5:0.14864559 6:0.71833702 
1 1:0.46911058 2:0.72771743 3:0.74501147 4:0.74918613 5:0.48037654 6:0.052859391 
1 1:0.86214469 2:0.40776907 3:0.75198248 4:0.27501325 5:0.67199839 6:0.38550381 
1 1:0.05121214 2:0.74943153 3:0.57886763 4:0.57519825 5:0.30918816 6:0.61824981 
1 1:0.85330037 2:0.65117469 3:0.65178026 4:0.34487425 5:0.25164373 6:0.31062143 
1 1:0.75229284 2:0.42430028 3:0.18514991 4:0.30472699 5:0.81888459 6:0.71631155 
1 1:0.33335315 2:0.95179427 3:0.56699208 4:0.79195104 5:0.40908123 6:0.77372945 
1 1:0.56524729 2:0.090329146 3:0.59856768 4:0.37950283 5:0.092533367 6:0.97134753 
1 1:0.61557325 2:0.1151124 3:0.37492656 4:0.8783307 5:0.57338977 6:0.56913069 
1 1:0.94971117 2:0.61626448 3:0.64835896 4:0.59866536 5:0.72089074 6:0.49907354 
1 1:0.89953837 2:0.66889509 3:0.67078086 4:0.42842485 5:0.52098356 6:0.46208366 
1 1:0.38911198 2:0.21965749 3:0.17349164 4:0.52422871 5:0.67697907 6:0.74012043 
1 1:0.32495841 2:0.026618129 3:0.54663755 4:0.35256239 5:0.56763701 6:0.038692591 
1 1:0.57104411 2:0.49147782 3:0.09857363 4:0.55496749 5:0.21495253 6:0.68341393 
1 1:0.550041 2:0.32880676 3:0.87657398 4:0.41060622 5:0.87481425 6:0.501456 
0.05543772933542155 1:0.72440641 2:0.10757606 3:0.71803435 4:0.89695777 5:0.64946148 6:0.28348463 
1 1:0.48134466 2:0.65774251 3:0.79865974 4:0.62829712 5:0.28058723 6:0.63311649 
1 1:0.44645404 2:0.50801238 3:0.81629327 4:0.20032695 5:0.018867552 6:0.9217949 
1 1:0.25612595 2:0.20087367 3:0.31215795 4:0.38516779 5:0.54288089 6:0.15061805 
1 1:0.76599369 2:0.14800222 3:0.58022548 4:0.95969811 5:0.4382671 6:0.68828585 
1 1:0.15078371 2:0.59989889 3:0.28299313 4:0.67657837 5:0.39697839 6:0.32049859 
1 1:0.82811603 2:0.56950751 3:0.46384253 4:0.72508058 5:0.77533391 6:0.22125498 
1 1:0.47878695 2:0.93177425 3:0.69716636 4:0.83441587 5:0.65527297 6:0.26977225 
1 1:0.52382771 2:0.90185781 3:0.40507532 4:0.63626956 5:0.17886407 6:0.49870083 
1 1:0.33038044 2:0.88454521 3:0.37338303 4:0.77164581 5:0.40706449 6:0.70158747 
1 1:0.48908742 2:0.72740999 3:0.82458269 4:0.458212 5:0.81575065 6:0.09012239 
1 1:0.75112801 2:0.76056276 3:0.62858379 4:0.11132101 5:0.19521895 6:0.44353797 
1 1:0.59647692 2:0.94363743 3:0.54562857 4:0.61746421 5:0.48209207 6:0.48766385 
1 1:0.35219264 2:0.76781446 3:0.80904097 4:0.04434507 5:0.80735715 6:0.74025372 
1 1:0.50978036 2:0.75626119 3:0.8330514 4:0.83840058 5:0.33733255 6:0.65744477 
1 1:0.69258934 2:0.83097313 3:0.26236716 4:0.68091832 5:0.58087642 6:0.51543706 
1 1:0.23561014 2:0.33641799 3:0.25736827 4:0.14524153 5:0.70085664 6:0.9042929 
1 1:0.17701857 2:0.24317605 3:0.73718733 4:0.4614374 5:0.85871655 6:0.11730825 
1 1:0.69369935 2:0.71491954 3:0.3764235 4:0.33785068 5:0.57603393 6:0.55377071 
1 1:0.35653597 2:0.65850957 3:0.8558438 4:0.64817758 5:0.36777614 6:0.99234015 
1 1:0.41390998 2:0.30588472 3:0.26049415 4:0.4402079 5:0.66815072 6:0.30416933 
1 1:0.31543541 2:0.88083723 3:0.63078696 4:0.6356082 5:0.41499937 6:0.73009563 
1 1:0.19919132 2:0.41530504 3:0.23469584 4:0.72120135 5:0.61340938 6:0.1811683 
1 1:0.76777135 2:0.21487051 3:0.28488836 4:0.20715613 5:0.80064872 6:0.46163543 
1 1:0.52336544 2:0.55614773 3:0.7485071 4:0.75424266 5:0.38474915 6:0.046046312 
1 1:0.46233841 2:0.96192217 3:0.31665809 4:0.65837034 5:0.75270529 6:0.38662107 
1 1:0.094437622 2:0.6777092 3:0.3374431 4:0.28244518 5:0.7503964 6:0.1233529 
1 1:0.91137352 2:0.35929711 3:0.3559203 4:0.8074278 5:0.9340471 6:0.35628772 
1 1:0.34451387 2:0.73335736 3:0.79902403 4:0.017456762 5:0.88098657 6:0.43158817 
1 1:0.31858898 2:0.22673641 3:0.25553522 4:0.48012102 5:0.4161557 6:0.14590561 
1 1:0.62324331 2:0.48575652 3:0.18064636 4:0.55382877 5:0.35038676 6:0.1501436 
1 1:0.79185178 2:0.86754585 3:0.65125285 4:0.83288179 5:0.70650513 6:0.83119342 
1 1:0.72752288 2:0.88879157 3:0.40957503 4:0.2344228 5:0.21328045 6:0.5445447 
1 1:0.62952756 2:0.29051461 3:0.83030906 4:0.6749305 5:0.20337327 6:0.6722252 
1 1:0.40914372 2:0.51794614 3:0.13300643 4:0.78149362 5:0.69704582 6:0.99171639 
1 1:0.44835905 2:0.97974947 3:0.46550029 4:0.41674844 5:0.43408881 6:0.057142361 
1 1:0.38671753 2:0.26611899 3:0.84318852 4:0.38286919 5:0.33401478 6:0.82355819 
1 1:0.079524723 2:0.42813743 3:0.51030953 4:0.71494065 5:0.2840775 6:0.24724906 
1 1:0.2801715 2:0.23976765 3:0.77216843 4:0.83989606 5:0.29017704 6:0.021875395 
1 1:0.34340056 2:0.21184308 3:0.29335216 4:0.274792 5:0.19987121 6:0.99187121 
1 1:0.63485796 2:0.32250184 3:0.84333115 4:0.1215444 5:0.062154316 6:0.75463765 
1 1:0.2690719 2:0.47813207 3:0.24358407 4:0.5194973 5:0.30394669 6:0.92023644 
1 1:0.38745934 2:0.70367159 3:0.84427567 4:0.50160107 5:0.57199319 6:0.70023915 
1 1:0.29364741 2:0.54950599 3:0.24941757 4:0.79130297 5:0.73506666 6:0.60702466 
1 1:0.57218153 2:0.66466149 3:0.78637142 4:0.65278422 5:0.35814198 6:0.60361304 
1 1:0.77556273 2:0.89493563 3:0.5724588 4:0.25279119 5:0.68215672 6:0.86575996 
1 1:0.45290499 2:0.5986605 3:0.86984239 4:0.77451652 5:0.64337721 6:0.26457386 
1 1:0.39167183 2:0.67876944 3:0.85399096 4:0.94994212 5:0.79647049 6:0.24451988 
1 1:0.44326527 2:0.73675053 3:0.27943412 4:0.79945324 5:0.37362181 6:0.05763743 
1 1:0.54995639 2:0.67115403 3:0.26569209 4:0.53789869 5:0.32726741 6:0.41981493 
1 1:0.16656368 2:0.59378305 3:0.6309812 4:0.87031177 5:0.71870838 6:0.0059848032 
1 1:0.8351018 2:0.43176621 3:0.19688673 4:0.6425738 5:0.62974802 6:0.27273303 
1 1:0.45353504 2:0.58063883 3:0.10473322 4:0.95006691 5:0.6662253 6:0.73992898 
1 1:0.47030217 2:0.64596534 3:0.8642735 4:0.52182223 5:0.63255488 6:0.87093212 
1 1:0.45138674 2:0.97620085 3:0.59541766 4:0.23472356 5:0.64784225 6:0.31005537 
1 1:0.011788022 2:0.66471387 3:0.55940914 4:0.46885901 5:0.41064634 6:0.41170556 
1 1:0.3242491 2:0.43146166 3:0.23504269 4:0.90820179 5:0.77685942 6:0.5424124 
1 1:0.14015055 2:0.3148216 3:0.75049106 4:0.77050358 5:0.79663988 6:0.17912746 
1 1:0.13053924 2:0.66555506 3:0.75045713 4:0.23089257 5:0.6275598 6:0.36831207 
1 1:0.46332981 2:0.48739988 3:0.79881767 4:0.060870615 5:0.71283781 6:0.14382575 
1 1:0.55025875 2:0.78550083 3:0.77575055 4:0.49070143 5:0.63494162 6:0.53300819 
1 1:0.27518808 2:0.4397647 3:0.88808286 4:0.82490006 5:0.41280267 6:0.64491334 
1 1:0.76854977 2:0.17231928 3:0.78132864 4:0.25892008 5:0.6138888 6:0.51247944 
1 1:0.14569229 2:0.46503435 3:0.23714491 4:0.56463698 5:0.52561948 6:0.86325272 
1 1:0.95217834 2:0.65169058 3:0.45065327 4:0.46245132 5:0.952255 6:0.37808259 
1 1:0.67341933 2:0.65529259 3:0.78028422 4:0.75451064 5:0.27730988 6:0.61827003 
1 1:0.23462585 2:0.24790835 3:0.27192503 4:0.42976868 5:0.46418133 6:0.45444573 
1 1:0.2602561 2:0.57194287 3:0.76458448 4:0.26310129 5:0.44772242 6:0.39384302 
1 1:0.50893515 2:0.52890453 3:0.19948015 4:0.78225146 5:0.42815648 6:0.23555741 
1 1:0.68250589 2:0.076679367 3:0.34019342 4:0.33335583 5:0.31994778 6:0.19697375 
1 1:0.57537196 2:0.12218519 3:0.20719961 4:0.58437988 5:0.51467691 6:0.14900438 
1 1:0.69782233 2:0.54773305 3:0.14950085 4:0.13470424 5:0.79003108 6:0.67298524 
1 1:0.58615945 2:0.79915718 3:0.14484571 4:0.28201244 5:0.29056261 6:0.56059511 
1 1:0.91083579 2:0.512268 3:0.75248815 4:0.38634855 5:0.23970508 6:0.42883877 
1 1:0.71361113 2:0.35032352 3:0.18279176 4:0.92942565 5:0.7923889 6:0.78131621 
1 1:0.80896233 2:0.79878744 3:0.34998041 4:0.51151432 5:0.31677142 6:0.28074163 
1 1:0.26081372 2:0.52668852 3:0.14036298 4:0.80809775 5:0.51017302 6:0.63261254 
1 1:0.16164978 2:0.76897919 3:0.67043045 4:0.80673572 5:0.79849733 6:0.72289764 
1 1:0.36646088 2:0.92937462 3:0.33261948 4:0.84090939 5:0.67326706 6:0.41252175 
1 1:0.31060312 2:0.31382912 3:0.15041082 4:0.63001516 5:0.49211554 6:0.49167946 
1 1:0.011551557 2:0.48957231 3:0.37850905 4:0.56135594 5:0.53475616 6:0.31159105 
1 1:0.50602244 2:0.33877358 3:0.15568582 4:0.47828414 5:0.45251025 6:0.097650571 
1 1:0.92164001 2:0.65531999 3:0.51431022 4:0.28755716 5:0.59486105 6:0.52906588 
1 1:0.77356973 2:0.61406683 3:0.16007446 4:0.7819996 5:0.70335251 6:0.84367495 
1 1:0.71750163 2:0.18159456 3:0.53878153 4:0.5565248 5:0.71582643 6:0.12975251 
1 1:0.51816447 2:0.77548269 3:0.81721893 4:0.57210306 5:0.59389073 6:0.38761796 
1 1:0.51530339 2:0.64125862 3:0.13975543 4:0.25492104 5:0.60766163 6:0.53894427 
1 1:0.41914245 2:0.9691272 3:0.34450544 4:0.5132882 5:0.75130692 6:0.81247407 
1 1:0.93820773 2:0.52286736 3:0.46463876 4:0.07312566 5:0.03349437 6:0.51340447 
1 1:0.38353858 2:0.40536733 3:0.85904108 4:0.92942777 5:0.42287965 6:0.8038022 
1 1:0.43722595 2:0.015716343 3:0.32693106 4:0.5150669 5:0.4914295 6:0.7594132 
1 1:0.9673778 2:0.44824316 3:0.40584903 4:0.087486886 5:0.29280259 6:0.79756454 
1 1:0.72579388 2:0.52235255 3:0.19919273 4:0.24275027 5:0.76095447 6:0.34900623 
1 1:0.36678628 2:0.095685959 3:0.27948895 4:0.49672179 5:0.58763842 6:0.7345535 
1 1:0.9759899 2:0.3575969 3:0.63216415 4:0.70052784 5:0.71617329 6:0.63120747 
1 1:0.33898224 2:0.64800111 3:0.85503801 4:0.29656628 5:0.27016047 6:0.21613487 
1 1:0.46320032 2:0.17470634 3:0.24625658 4:0.019737728 5:0.26258456 6:0.17716761 
1 1:0.51782331 2:0.8140417 3:0.19347373 4:0.57059947 5:0.52965477 6:0.082879378 
1 1:0.69824447 2:0.08959818 3:0.52143345 4:0.79306992 5:0.46411927 6:0.92728253 
1 1:0.71473366 2:0.59381477 3:0.80914259 4:0.48019502 5:0.5935364 6:0.25555563 
1 1:0.48867984 2:0.57086819 3:0.20860191 4:0.57136688 5:0.59738213 6:0.047612455 
1 1:0.88937289 2:0.67804493 3:0.64680174 4:0.48081688 5:0.33451653 6:0.60742044 
1 1:0.76415489 2:0.79332051 3:0.78613051 4:0.78982083 5:0.59553376 6:0.48727604 
1 1:0.54845353 2:0.4771156 3:0.87172714 4:0.55997611 5:0.75928914 6:0.20899655 
1 1:0.46300136 2:0.78675273 3:0.77642461 4:0.84020761 5:0.54808658 6:0.16777646 
1 1:0.81584911 2:0.72348909 3:0.59996571 4:0.60754637 5:0.048037108 6:0.00036316843 
1 1:0.14711085 2:0.55818625 3:0.61037898 4:0.22664013 5:0.42909796 6:0.20439264 
1 1:0.75160596 2:0.44148001 3:0.15708318 4:0.63308666 5:0.70651038 6:0.89265288 
1 1:0.36886159 2:0.0087477083 3:0.55063858 4:0.49184929 5:0.66542915 6:0.64541845 
1 1:0.1213859 2:0.36445232 3:0.51387658 4:0.66360587 5:0.15405927 6:0.39106304 
1 1:0.53267285 2:0.44398734 3:0.81005964 4:0.30547349 5:0.92125255 6:0.27085357 
1 1:0.24737858 2:0.60067669 3:0.75564542 4:0.6920579 5:0.44246853 6:0.57496252 
1 1:0.73268042 2:0.28875743 3:0.67155859 4:0.92779886 5:0.29674487 6:0.5181874 
1 1:0.10608365 2:0.45037326 3:0.39797673 4:0.10551331 5:0.85244815 6:0.64880766 
1 1:0.89812309 2:0.47531537 3:0.65410252 4:0.78322694 5:0.62622614 6:0.12198716 
1 1:0.14743554 2:0.36714607 3:0.63200174 4:0.31101578 5:0.45526497 6:0.29803907 
1 1:0.32076826 2:0.75063552 3:0.27893938 4:0.3962572 5:0.7956443 6:0.022051492 
1 1:0.19346356 2:0.43496635 3:0.33745184 4:0.4339384 5:0.61071625 6:0.037647755 
1 1:0.51516823 2:0.037186632 3:0.44973931 4:0.26080003 5:0.32406314 6:0.41557614 
1 1:0.12921914 2:0.61347447 3:0.30152865 4:0.44726268 5:0.53329878 6:0.0019619743 
1 1:0.40539025 2:0.53150169 3:0.75866672 4:0.27851822 5:0.46377347 6:0.038164682 
1 1:0.50970933 2:0.5908054 3:0.81283331 4:0.86501896 5:0.22504188 6:0.11444688 
1 1:0.74934834 2:0.68079042 3:0.45696968 4:0.78956726 5:0.3270805 6:0.35309672 
1 1:0.80270056 2:0.62378606 3:0.19845826 4:0.33405567 5:0.46516103 6:0.93893749 
1 1:0.94872741 2:0.54717111 3:0.60059188 4:0.27489166 5:0.17098507 6:0.88870341 
1 1:0.42393934 2:0.68188517 3:0.13412103 4:0.41282272 5:0.28270529 6:0.61729029 
0.3865380642781717 1:0.9223178 2:0.72036762 3:0.43654722 4:0.92353801 5:0.62059311 6:0.90893571 
1 1:0.24572823 2:0.80861655 3:0.81350303 4:0.50794874 5:0.68683152 6:0.61496338 
1 1:0.97100027 2:0.4468405 3:0.52870749 4:0.21133909 5:0.44097515 6:0.79292616 
1 1:0.56089201 2:0.69210148 3:0.21646272 4:0.29959737 5:0.25762144 6:0.68154036 
1 1:0.55193131 2:0.20833581 3:0.28312491 4:0.39552918 5:0.4291475 6:0.37201707 
1 1:0.02319531 2:0.65840519 3:0.49995847 4:0.29584897 5:0.79286927 6:0.74808021 
1 1:0.15053622 2:0.82315928 3:0.36381047 4:0.43486309 5:0.62021892 6:0.51599191 
1 1:0.84589158 2:0.25645045 3:0.34199286 4:0.050198176 5:0.24608531 6:0.55978992 
0.3344174177396346 1:0.076992199 2:0.30826339 3:0.64766206 4:0.2099408 5:0.65269402 6:0.9072885 
1 1:0.016588626 2:0.47125221 3:0.41073302 4:0.61006266 5:0.29476621 6:0.58858374 
1 1:0.96821598 2:0.57239184 3:0.53300799 4:0.12172541 5:0.38369034 6:0.75656915 
1 1:0.44458159 2:0.80176077 3:0.77444527 4:0.14758875 5:0.34096319 6:0.3899434 
1 1:0.3803902 2:0.81369208 3:0.80964257 4:0.50622327 5:0.49839664 6:0.59517898 
1 1:0.15440142 2:0.836036 3:0.34594824 4:0.18452547 5:0.53978797 6:0.62588757 
1 1:0.43835788 2:0.91428685 3:0.55803176 4:0.079390102 5:0.25789913 6:0.088666054 
1 1:0.45245089 2:0.94467539 3:0.29275229 4:0.32772987 5:0.4444924 6:0.4113864 
1 1:0.17660667 2:0.17035341 3:0.55488948 4:0.43518356 5:0.94581414 6:0.42715962 
1 1:0.30173401 2:0.28445567 3:0.28760239 4:0.81374245 5:0.60006254 6:0.58979989 
1 1:0.64174186 2:0.19709799 3:0.38971572 4:0.057295985 5:0.10436008 6:0.79244446 
1 1:0.20866531 2:0.60859229 3:0.23863823 4:0.85870755 5:0.42387733 6:0.28311642 
1 1:0.34890473 2:0.10940166 3:0.27816368 4:0.46425246 5:0.25562739 6:0.65209465 
1 1:0.39650139 2:0.85746143 3:0.74335907 4:0.4989448 5:0.2030661 6:0.95251425 
1 1:0.67406372 2:0.84998348 3:0.25138779 4:0.56479678 5:0.54366234 6:0.55148158 
1 1:0.84335914 2:0.79022576 3:0.36445604 4:0.070683122 5:0.18966845 6:0.50061485 
1 1:0.8364827 2:0.36841835 3:0.26977525 4:0.30645494 5:0.69641816 6:0.80622452 
0.01837999329176784 1:0.2449536 2:0.10609093 3:0.30394153 4:0.6577313 5:0.61001887 6:0.16923879 
1 1:0.30648023 2:0.44990995 3:0.16422604 4:0.76559514 5:0.42658899 6:0.73399834 
1 1:0.24162811 2:0.10121704 3:0.62361187 4:0.15042733 5:0.46923707 6:0.11411878 
1 1:0.86781921 2:0.47762024 3:0.79656412 4:0.94795096 5:0.58183075 6:0.41867955 
1 1:0.055220123 2:0.33436104 3:0.32863856 4:0.78685028 5:0.46421806 6:0.24900587 
1 1:0.6323989 2:0.78164571 3:0.82406642 4:0.57854699 5:0.20105888 6:0.51592896 
1 1:0.71475866 2:0.74254409 3:0.76565038 4:0.36731782 5:0.60042307 6:0.058586362 
1 1:0.2636284 2:0.32178063 3:0.21248865 4:0.33957136 5:0.77497907 6:0.51408059 
1 1:0.39919862 2:0.1457119 3:0.75679575 4:0.57303402 5:0.61453372 6:0.53009512 
1 1:0.74698047 2:0.081655792 3:0.38232128 4:0.4437377 5:0.51294856 6:0.45387803 
1 1:0.40713081 2:0.91667237 3:0.51243492 4:0.12292591 5:0.85050901 6:0.25402173 
1 1:0.38690066 2:0.11857341 3:0.32496784 4:0.27639499 5:0.13278766 6:0.18186129 
1 1:0.36516412 2:0.82626226 3:0.29774485 4:0.70962412 5:0.40641254 6:0.087782467 
1 1:0.15806391 2:0.78425641 3:0.69767887 4:0.29039279 5:0.65213348 6:0.43896208 
1 1:0.51960744 2:0.69932846 3:0.81510067 4:0.54206464 5:0.60387989 6:0.070877985 
1 1:0.38140017 2:0.45827711 3:0.92255207 4:0.57548156 5:0.72701769 6:0.3011051 
1 1:0.70438719 2:0.20084377 3:0.22109179 4:0.89403223 5:0.22369361 6:0.68051563 
1 1:0.53612454 2:0.22956656 3:0.87341681 4:0.24038026 5:0.39283586 6:0.20781934 
1 1:0.47413582 2:0.064762083 3:0.50637369 4:0.43409358 5:0.23297413 6:0.2736547 
1 1:0.71682107 2:0.23271856 3:0.17356706 4:0.30548948 5:0.42750824 6:0.45597928 
1 1:0.29423746 2:0.71215377 3:0.74473235 4:0.47575668 5:0.64756936 6:0.074662384 
1 1:0.28961318 2:0.58622941 3:0.82445482 4:0.0041604934 5:0.66857106 6:0.68701284 
1 1:0.70247739 2:0.88251575 3:0.24515135 4:0.53226423 5:0.49013707 6:0.80305858 
1 1:0.43425795 2:0.88442036 3:0.2940444 4:0.94904084 5:0.88461792 6:0.43015137 
1 1:0.4776126 2:0.020282373 3:0.4934823 4:0.26646866 5:0.42173267 6:0.52186383 
1 1:0.57050308 2:0.45200452 3:0.90348704 4:0.89955018 5:0.57803742 6:0.077554459 
1 1:0.13626466 2:0.65154826 3:0.42106619 4:0.69496591 5:0.59644395 6:0.10926891 
1 1:0.60866148 2:0.22005238 3:0.64091775 4:0.61300084 5:0.33289966 6:0.062355106 
1 1:0.50781209 2:0.11031415 3:0.28966499 4:0.85224592 5:0.36419114 6:0.92045935 
1 1:0.6631096 2:0.57202995 3:0.81576164 4:0.82118886 5:0.80338295 6:0.72842307 
1 1:0.93517151 2:0.68919097 3:0.33299033 4:0.2403825 5:0.4766697 6:0.20026589 
1 1:0.50771497 2:0.050437534 3:0.37414174 4:0.33046287 5:0.51666631 6:0.56730437 
1 1:0.27531294 2:0.081403002 3:0.65379201 4:0.30207901 5:0.22284742 6:0.63694605 
1 1:0.27310634 2:0.081436176 3:0.57565329 4:0.41532853 5:0.5633371 6:0.26523475 
1 1:0.65039953 2:0.33872897 3:0.77589447 4:0.52886384 5:0.46026103 6:0.49158086 
1 1:0.57005508 2:0.14324419 3:0.19986885 4:0.62513813 5:0.41296317 6:0.17041379 
1 1:0.72282575 2:0.49328832 3:0.73168891 4:0.36024185 5:0.55822325 6:0.86347101 
1 1:0.11861409 2:0.75708807 3:0.37523099 4:0.59351957 5:0.44437002 6:0.51843963 
1 1:0.45513399 2:0.83935174 3:0.40135052 4:0.52056886 5:0.43835824 6:0.76591141 
1 1:0.94477811 2:0.64946979 3:0.36568359 4:0.50141442 5:0.29438016 6:0.14277399 
1 1:0.42161075 2:0.17806116 3:0.80748412 4:0.91832732 5:0.14984313 6:0.33684764 
1 1:0.46423889 2:0.049616448 3:0.40628294 4:0.055785044 5:0.51272325 6:0.57874291 
1 1:0.22767912 2:0.73702158 3:0.23212845 4:0.29197069 5:0.53038862 6:0.26103606 
1 1:0.42381933 2:0.84745554 3:0.20421402 4:0.84572255 5:0.28006643 6:0.68694872 
1 1:0.89297896 2:0.62200302 3:0.73122423 4:0.35418282 5:0.37826793 6:0.13518758 
1 1:0.0015515996 2:0.43853188 3:0.51765858 4:0.28303939 5:0.83627096 6:0.70975595 
1 1:0.82074319 2:0.68266584 3:0.5453258 4:0.77000798 5:0.56583831 6:0.21023318 
1 1:0.37189917 2:0.83843511 3:0.8574923 4:0.62211903 5:0.49585664 6:0.44957201 
1 1:0.3434747 2:0.092816482 3:0.34203449 4:0.86905763 5:0.50383908 6:0.92505724 
1 1:0.5065853 2:0.54080842 3:0.10511177 4:0.36589003 5:0.33834614 6:0.90515096 
1 1:0.68185594 2:0.48347585 3:0.90128548 4:0.79244386 5:0.60626579 6:0.77649569 
1 1:0.4352648 2:0.44677217 3:0.76320252 4:0.89742854 5:0.50133125 6:0.37152348 
1 1:0.58061182 2:0.50415892 3:0.11854373 4:0.4148265 5:0.42091724 6:0.18833797 
1 1:0.98341303 2:0.32857154 3:0.47433113 4:0.30655043 5:0.18596087 6:0.6008725 
1 1:0.32184062 2:0.13476505 3:0.68222223 4:0.87959771 5:0.65892079 6:0.96407098 
1 1:0.86847504 2:0.45429207 3:0.80163638 4:0.18444856 5:0.3587336 6:0.66201134 
1 1:0.33110318 2:0.54398044 3:0.88741777 4:0.9327682 5:0.15970437 6:0.569813 
1 1:0.57496941 2:0.9729318 3:0.3742364 4:0.49195018 5:0.28181661 6:0.88039599 
1 1:0.55161022 2:0.33053756 3:0.80241758 4:0.46116445 5:0.48843346 6:0.087086421 
1 1:0.1978473 2:0.74027029 3:0.74881813 4:0.14052783 5:0.46252765 6:0.10551033 
1 1:0.83435868 2:0.69639339 3:0.7812784 4:0.60761731 5:0.13124142 6:0.34412184 
1 1:0.80115383 2:0.13092159 3:0.48429517 4:0.5435274 5:0.56416376 6:0.99896592 
1 1:0.57878065 2:0.87603195 3:0.78224155 4:0.79253768 5:0.23463926 6:0.70535719 
1 1:0.22771678 2:0.38778819 3:0.78186522 4:0.79264586 5:0.32532775 6:0.58702358 
1 1:0.33301295 2:0.14854749 3:0.27611434 4:0.29706562 5:0.57789322 6:0.97023167 
1 1:0.23151655 2:0.13908732 3:0.33985446 4:0.22009563 5:0.50434574 6:0.41481299 
1 1:0.76871932 2:0.59378201 3:0.78384087 4:0.3612469 5:0.33556717 6:0.54268313 
1 1:0.1160443 2:0.64711878 3:0.72052986 4:0.23407333 5:0.62250663 6:0.13957748 
1 1:0.24039106 2:0.39652522 3:0.83510697 4:0.3499916 5:0.29538313 6:0.81412217 
1 1:0.8647639 2:0.37701566 3:0.30446758 4:0.79786433 5:0.73854988 6:0.28936179 
1 1:0.52475221 2:0.57007927 3:0.076832026 4:0.57787491 5:0.66221789 6:0.68445286 
1 1:0.91722791 2:0.54529664 3:0.72813873 4:0.90250784 5:0.56358405 6:0.099855522 
1 1:0.35647362 2:0.72226857 3:0.17761534 4:0.39008723 5:0.26857916 6:0.30918771 
1 1:0.8709273 2:0.38315169 3:0.58901115 4:0.62845435 5:0.52554249 6:0.23167389 
1 1:0.3828551 2:0.96018174 3:0.55760956 4:0.28059372 5:0.078584415 6:0.64050851 
1 1:0.75752299 2:0.79714361 3:0.74809587 4:0.041565139 5:0.32671338 6:0.68922975 
1 1:0.50148088 2:0.54282457 3:0.9473149 4:0.31508394 5:0.34705241 6:0.74502217 
1 1:0.19861432 2:0.78449819 3:0.28157961 4:0.51647772 5:0.63373922 6:0.87288845 
1 1:0.76381865 2:0.098112307 3:0.537475 4:0.72530441 5:0.52419388 6:0.28920359 
1 1:0.52654732 2:0.24454828 3:0.3302488 4:0.73635724 5:0.65634408 6:0.48128963 
1 1:0.42869066 2:0.36911168 3:0.10962821 4:0.46568589 5:0.4130347 6:0.57365154 
1 1:0.6558065 2:0.36626611 3:0.81235865 4:0.14208364 5:0.53295589 6:0.81359899 
1 1:0.61180123 2:0.67748577 3:0.23518976 4:0.26589757 5:0.33093165 6:0.49732244 
1 1:0.73808724 2:0.39280735 3:0.12850672 4:0.8884921 5:0.42820645 6:0.57529316 
1 1:0.78453627 2:0.22724591 3:0.73451105 4:0.42243094 5:0.55352713 6:0.77875248 
1 1:0.54480982 2:0.11102517 3:0.29790049 4:0.35739003 5:0.7128027 6:0.30915428 
1 1:0.42222694 2:0.43356061 3:0.08660747 4:0.51285055 5:0.38210442 6:0.87198997 
0.4360740332328721 1:0.50895545 2:0.98590372 3:0.37773202 4:0.20707999 5:0.8140717 6:0.35209387 
1 1:0.35687524 2:0.60334784 3:0.19743385 4:0.83787537 5:0.30074597 6:0.73588228 
1 1:0.60992571 2:0.29626772 3:0.80912353 4:0.91996216 5:0.7122301 6:0.8692518 
1 1:0.14575744 2:0.24628971 3:0.75522504 4:0.13588091 5:0.52096624 6:0.54661612 
1 1:0.61592151 2:0.93501012 3:0.71457602 4:0.30664207 5:0.60972571 6:0.50705521 
1 1:0.85838482 2:0.2753152 3:0.35574998 4:0.40404894 5:0.62088828 6:0.5146556 
1 1:0.1319425 2:0.71833138 3:0.28110767 4:0.41228851 5:0.35922267 6:0.11515734 
1 1:0.3564594 2:0.35339274 3:0.69699044 4:0.58342586 5:0.56135272 6:0.95997684 
1 1:0.88560722 2:0.27400061 3:0.65885758 4:0.77210232 5:0.86952718 6:0.19320561 
1 1:0.87428115 2:0.29489723 3:0.29451231 4:0.39423542 5:0.58320173 6:0.11706896 
1 1:0.17841876 2:0.81978159 3:0.68247276 4:0.074397218 5:0.61116469 6:0.70362935 
1 1:0.53889571 2:0.503782 3:0.80190282 4:0.87563539 5:0.057933184 6:0.73716384 
1 1:0.86290374 2:0.13995283 3:0.46112912 4:0.4358089 5:0.45190255 6:0.16061844 
1 1:0.5069718 2:0.12052106 3:0.27326792 4:0.56325956 5:0.42297656 6:0.12337684 
1 1:0.1977804 2:0.50384896 3:0.80628506 4:0.62785711 5:0.58169967 6:0.19477246 
1 1:0.65564802 2:0.29660357 3:0.85726055 4:0.59624004 5:0.31009131 6:0.66048033 
1 1:0.85678812 2:0.71412751 3:0.69171274 4:0.67092197 5:0.56034648 6:0.66301893 
1 1:0.8396141 2:0.8224959 3:0.44074743 4:0.99035736 5:0.44908425 6:0.43185461 
1 1:0.29836963 2:0.28413008 3:0.83964193 4:0.37896581 5:0.73048404 6:0.56402841 
1 1:0.59319688 2:0.50948784 3:0.7763454 4:0.57845707 5:0.64862194 6:0.84258677 
1 1:0.8812185 2:0.66229223 3:0.41221942 4:0.19839878 5:0.5599932 6:0.19062324 
1 1:0.74262276 2:0.28695201 3:0.67262054 4:0.15157679 5:0.33373545 6:0.77727526 
1 1:0.50269092 2:0.44201669 3:0.77133492 4:0.9595088 5:0.37428736 6:0.076707527 
1 1:0.20635181 2:0.19865139 3:0.63359126 4:0.011738364 5:0.93658094 6:0.35608773 
1 1:0.81309461 2:0.76880634 3:0.57257682 4:0.27096675 5:0.74971328 6:0.71995401 
1 1:0.15604961 2:0.40776631 3:0.56692941 4:0.5376297 5:0.23437375 6:0.48877972 
1 1:0.78325066 2:0.59280587 3:0.85168385 4:0.71945202 5:0.39734284 6:0.70989178 
1 1:0.6198404 2:0.97258174 3:0.63234349 4:0.64642555 5:0.47796631 6:0.10064079 
1 1:0.62467157 2:0.0039447313 3:0.57686447 4:0.2182685 5:0.54994089 6:0.44531291 
1 1:0.1382328 2:0.23101298 3:0.63277414 4:0.97290757 5:0.56989521 6:0.70298281 
1 1:0.58836332 2:0.76193692 3:0.87937399 4:0.35808443 5:0.24905567 6:0.68595116 
1 1:0.36458402 2:0.5255671 3:0.1602521 4:0.8590295 5:0.65658149 6:0.17510516 
1 1:0.72660248 2:0.45211861 3:0.20111081 4:0.30343861 5:0.77901684 6:0.44130406 
1 1:0.91364509 2:0.45335131 3:0.50240559 4:0.14907315 5:0.34745619 6:0.89504104 
1 1:0.69096261 2:0.52206518 3:0.89951031 4:0.70819913 5:0.13211714 6:0.4492747 
1 1:0.77506137 2:0.8464157 3:0.56545753 4:0.62717591 5:0.3415636 6:0.46152325 
1 1:0.10991852 2:0.56883279 3:0.24981785 4:0.80984173 5:0.49647959 6:0.62914606 
1 1:0.48348782 2:0.080772741 3:0.46888834 4:0.53553801 5:0.5333874 6:0.72033431 
1 1:0.62082791 2:0.65626399 3:0.26245688 4:0.053429734 5:0.60634661 6:0.10223945 
1 1:0.049117958 2:0.41956283 3:0.53147186 4:0.85928329 5:0.27299153 6:0.53116696 
1 1:0.27269188 2:0.7346188 3:0.19408737 4:0.13509867 5:0.5018011 6:0.48613812 
1 1:0.1375029 2:0.61643067 3:0.33359503 4:0.36872416 5:0.58237754 6:0.56712451 
1 1:0.44364395 2:0.60485217 3:0.12911822 4:0.82955316 5:0.75373837 6:0.84841807 
1 1:0.3649393 2:0.85903481 3:0.72573583 4:0.013198591 5:0.42675228 6:0.63629633 
1 1:0.74656366 2:0.42683099 3:0.73119544 4:0.048281462 5:0.44483065 6:0.42191672 
1 1:0.43238535 2:0.14139425 3:0.75264175 4:0.1972912 5:0.34716597 6:0.038444465 
1 1:0.2547196 2:0.16900569 3:0.23183464 4:0.34848058 5:0.66776413 6:0.5047222 
1 1:0.9318399 2:0.31953229 3:0.51578901 4:0.48616407 5:0.51937987 6:0.12665353 
1 1:0.68069595 2:0.80013805 3:0.37379841 4:0.48936977 5:0.12118705 6:0.15928398 
1 1:0.49413074 2:0.47928901 3:0.74157837 4:0.28020268 5:0.36831412 6:0.5256777 
0.03425556242375105 1:0.53652536 2:0.98185346 3:0.59949088 4:0.71450646 5:0.65147101 6:0.0087989864 
1 1:0.74022389 2:0.48646456 3:0.20928211 4:0.75369978 5:0.28191084 6:0.44432522 
1 1:0.32688104 2:0.93443834 3:0.43091868 4:0.74203972 5:0.37173223 6:0.23104682 
1 1:0.036111094 2:0.54036135 3:0.66078912 4:0.2941355 5:0.15011512 6:0.68430863 
1 1:0.48006666 2:0.59074647 3:0.11571854 4:0.33305471 5:0.31798799 6:0.55083976 
1 1:0.53201746 2:0.44805586 3:0.079348254 4:0.39438404 5:0.26311036 6:0.28363872 
1 1:0.63806359 2:0.64624824 3:0.16513569 4:0.88358694 5:0.14946193 6:0.81348432 
1 1:0.38088625 2:0.059776501 3:0.68909777 4:0.65705723 5:0.41516277 6:0.72191321 
0.1793347662210103 1:0.057143551 2:0.37711194 3:0.31999106 4:0.1771217 5:0.75773125 6:0.54691611 
1 1:0.64659135 2:0.14662912 3:0.29733567 4:0.83027383 5:0.096591578 6:0.45401273 
1 1:0.95051541 2:0.69098283 3:0.57247991 4:0.21222846 5:0.40864141 6:0.66479357 
1 1:0.43154207 2:0.047603998 3:0.35379637 4:0.52959283 5:0.62945557 6:0.12915083 
1 1:0.030693009 2:0.53662756 3:0.44250267 4:0.28595194 5:0.70372742 6:0.27665489 
1 1:0.35819226 2:0.27025033 3:0.24222475 4:0.30276561 5:0.22181929 6:0.80940197 
1 1:0.86748093 2:0.35194736 3:0.70979567 4:0.38977202 5:0.72907241 6:0.32820208 
1 1:0.07709532 2:0.41634914 3:0.42716615 4:0.65968094 5:0.71366605 6:0.63476806 
1 1:0.52366534 2:0.72469963 3:0.26795626 4:0.63398527 5:0.47596984 6:0.072422589 
1 1:0.58221027 2:0.41120251 3:0.11348151 4:0.24758872 5:0.47643604 6:0.69040689 
1 1:0.30538978 2:0.70592222 3:0.84370227 4:0.89852492 5:0.39041044 6:0.76093201 
1 1:0.32213038 2:0.92070119 3:0.67047146 4:0.27136252 5:0.40401386 6:0.56495439 
1 1:0.3131103 2:0.4374689 3:0.82960155 4:0.68996763 5:0.051197354 6:0.85105733 
1 1:0.74288121 2:0.26813757 3:0.77321699 4:0.90760734 5:0.69602068 6:0.10938331 
1 1:0.14649633 2:0.33821252 3:0.32172687 4:0.11490893 5:0.62818241 6:0.32283705 
1 1:0.065841098 2:0.40255524 3:0.68610908 4:0.67678575 5:0.58898281 6:0.62023259 
1 1:0.96244148 2:0.58767898 3:0.57717878 4:0.034627078 5:0.17395186 6:0.62900688 
1 1:0.86423214 2:0.6639088 3:0.28006622 4:0.59444273 5:0.79449071 6:0.42083876 
1 1:0.18809972 2:0.77496616 3:0.63348056 4:0.083235508 5:0.54649058 6:0.82359471 
1 1:0.72417551 2:0.65799623 3:0.21246358 4:0.85971093 5:0.71141408 6:0.33856481 
1 1:0.17388893 2:0.79139589 3:0.62379471 4:0.49760359 5:0.42021823 6:0.44486276 
1 1:0.056593245 2:0.30544778 3:0.44978087 4:0.71526899 5:0.3661439 6:0.30958313 
1 1:0.81343058 2:0.3045791 3:0.70430848 4:0.46510045 5:0.56448262 6:0.17114349 
1 1:0.7838806 2:0.19665744 3:0.38696457 4:0.62976254 5:0.96179554 6:0.23508217 
1 1:0.43827396 2:0.22429081 3:0.67027453 4:0.99587296 5:0.6797609 6:0.80704531 
1 1:0.3600111 2:0.79682181 3:0.1678633 4:0.69408519 5:0.37534374 6:0.51518096 
1 1:0.71044365 2:0.092263291 3:0.71357732 4:0.7097494 5:0.20324096 6:0.61202089 
1 1:0.11992958 2:0.45328558 3:0.31127095 4:0.38235274 5:0.52238394 6:0.4621389 
1 1:0.12886532 2:0.6381318 3:0.77303557 4:0.2213294 5:0.57366004 6:0.43857887 
1 1:0.58763871 2:0.91459682 3:0.43100372 4:0.58014528 5:0.37086504 6:0.581159 
1 1:0.58239988 2:0.63709872 3:0.79489896 4:0.065506828 5:0.37163378 6:0.41472268 
1 1:0.023627185 2:0.60447987 3:0.55066345 4:0.31263891 5:0.34483509 6:0.35385972 
1 1:0.23394131 2:0.21709624 3:0.5787869 4:0.7719073 5:0.3404493 6:0.30185955 
1 1:0.58495319 2:0.48625004 3:0.1868622 4:0.33406252 5:0.68699586 6:0.4860428 
1 1:0.88630363 2:0.72660115 3:0.56498808 4:0.99083443 5:0.58840987 6:0.29844082 
1 1:0.66606909 2:0.40949503 3:0.112206 4:0.23594488 5:0.6476649 6:0.78443748 
1 1:0.44559194 2:0.94032071 3:0.37586631 4:0.81851504 5:0.4017766 6:0.24425224 
1 1:0.76431957 2:0.87593187 3:0.38949836 4:0.61757827 5:0.76357316 6:0.79564209 
1 1:0.071729378 2:0.67485378 3:0.33174001 4:0.57150042 5:0.73202626 6:0.25886849 
1 1:0.55892553 2:0.82015351 3:0.65167042 4:0.65145644 5:0.75181303 6:0.91682938 
1 1:0.82213837 2:0.72577581 3:0.24982007 4:0.98215464 5:0.35262823 6:0.60278313 
1 1:0.34307969 2:0.6276244 3:0.85355279 4:0.64636936 5:0.41257705 6:0.34048092 
1 1:0.34272477 2:0.67809231 3:0.26644062 4:0.23313491 5:0.25281553 6:0.84222961 
1 1:0.31006786 2:0.85029601 3:0.74381306 4:0.98718441 5:0.666184 6:0.51424138 
1 1:0.74623068 2:0.57962395 3:0.24967565 4:0.29680836 5:0.014311535 6:0.068893804 
1 1:0.89945368 2:0.5742992 3:0.60188637 4:0.709818 5:0.11745681 6:0.86784505 
1 1:0.36463928 2:0.44565893 3:0.8392222 4:0.09673512 5:0.237987 6:0.15708982 
1 1:0.75086895 2:0.86464518 3:0.46825238 4:0.27482648 5:0.41147979 6:0.72890035 
1 1:0.81577196 2:0.44363383 3:0.16403759 4:0.83979473 5:0.56026862 6:0.7232797 
1 1:0.33719828 2:0.92250355 3:0.34235865 4:0.538868 5:0.14992857 6:0.47621906 
1 1:0.99648171 2:0.55722563 3:0.49637526 4:0.73843155 5:0.24350303 6:0.61190296 
1 1:0.91475237 2:0.61585053 3:0.43357971 4:0.5073899 5:0.97773616 6:0.49221485 
1 1:0.9708799 2:0.48251104 3:0.58132367 4:0.75405389 5:0.62317344 6:0.62635567 
1 1:0.33428958 2:0.90834598 3:0.42682608 4:0.46825835 5:0.91424094 6:0.14018507 
1 1:0.14340277 2:0.31364624 3:0.30402441 4:0.22309617 5:0.46824017 6:0.76666297 
1 1:0.76657938 2:0.60257887 3:0.26662342 4:0.062636473 5:0.31270484 6:0.98730754 
1 1:0.76693749 2:0.72629445 3:0.67445331 4:0.89545877 5:0.27552836 6:0.59594147 
1 1:0.71029643 2:0.073914079 3:0.63843153 4:0.43394019 5:0.4276473 6:0.45910509 
1 1:0.44499157 2:0.30632881 3:0.77712954 4:0.6204465 5:0.51908587 6:0.51308544 
1 1:0.21555927 2:0.6975899 3:0.74896529 4:0.57804976 5:0.4607873 6:0.91928537 
1 1:0.64589855 2:0.9426778 3:0.58580386 4:0.37286697 5:0.30135665 6:0.89511166 
1 1:0.81200421 2:0.24463154 3:0.71277379 4:0.90981949 5:0.36271693 6:0.3431117 
1 1:0.54608536 2:0.2431562 3:0.78117321 4:0.021603626 5:0.7040232 6:0.67247165 
1 1:0.69856834 2:0.5290647 3:0.88835644 4:0.83047395 5:0.49015688 6:0.2803819 
1 1:0.68533202 2:0.19901411 3:0.29069496 4:0.90646628 5:0.51087408 6:0.12268914 
1 1:0.69322152 2:0.27955415 3:0.87242466 4:0.50007481 5:0.38705541 6:0.55604821 
1 1:0.51567585 2:0.34827995 3:0.90435028 4:0.99881653 5:0.39315876 6:0.68221691 
1 1:0.56607366 2:0.29925459 3:0.8323969 4:0.9835773 5:0.53273076 6:0.29103799 
1 1:0.37801047 2:0.59932676 3:0.85938936 4:0.11893758 5:0.48625703 6:0.61903684 
1 1:0.91206463 2:0.8035478 3:0.48431538 4:0.37314611 5:0.52449437 6:0.29121636 
1 1:0.45047944 2:0.89844415 3:0.62800318 4:0.98488338 5:0.39566247 6:0.16027378 
1 1:0.36703222 2:0.158521 3:0.35715217 4:0.4751847 5:0.35006585 6:0.34298381 
1 1:0.35357355 2:0.44671332 3:0.17965779 4:0.82689208 5:0.10256947 6:0.18892556 
1 1:0.52457076 2:0.27984494 3:0.88231644 4:0.12348844 5:0.47650084 6:0.65434858 
1 1:0.71620123 2:0.70661914 3:0.27816229 4:0.59640833 5:0.42777958 6:0.91641612 
1 1:0.52077796 2:0.71519901 3:0.73164623 4:0.9239497 5:0.47186706 6:0.46320993 
1 1:0.27420182 2:0.3475649 3:0.2659691 4:0.082513345 5:0.48694508 6:0.82382087 
1 1:0.43491179 2:0.49354216 3:0.20068034 4:0.59677697 5:0.73743035 6:0.27136128 
1 1:0.31458404 2:0.86333277 3:0.34493433 4:0.51318393 5:0.29722369 6:0.9725104 
1 1:0.71861345 2:0.92002762 3:0.66737532 4:0.38244916 5:0.17481213 6:0.19153102 
1 1:0.80435963 2:0.90882573 3:0.56801503 4:0.6984129 5:0.55014462 6:0.5971881 
1 1:0.48314485 2:0.73758835 3:0.24049135 4:0.011826614 5:0.35813018 6:0.86023322 
1 1:0.2752822 2:0.67629983 3:0.72687301 4:0.14791172 5:0.56697279 6:0.11457522 
1 1:0.5571717 2:0.51092887 3:0.90773396 4:0.2413987 5:0.80428644 6:0.72805712 
1 1:0.27721771 2:0.75476812 3:0.36517933 4:0.842164 5:0.36052777 6:0.61036055 
1 1:0.20236903 2:0.26432313 3:0.54649337 4:0.22663085 5:0.11090765 6:0.81742933 
1 1:0.6543886 2:0.79450099 3:0.25675543 4:0.18387597 5:0.2393608 6:0.54932987 
1 1:0.08219004 2:0.49372188 3:0.36920848 4:0.34486258 5:0.056106383 6:0.80634712 
1 1:0.65371302 2:0.7850355 3:0.44834023 4:0.868322 5:0.59870642 6:0.32418547 
1 1:0.27243266 2:0.81915298 3:0.34322759 4:0.086633372 5:0.4222131 6:0.32739677 
1 1:0.0070374559 2:0.45641 3:0.47300271 4:0.68346574 5:0.32507754 6:0.4688039 
1 1:0.34984873 2:0.10276194 3:0.37167883 4:0.67593799 5:0.70642252 6:0.29894271 
1 1:0.59226701 2:0.77631229 3:0.22605464 4:0.041810739 5:0.5395322 6:0.50167476 
1 1:0.8154225 2:0.56074725 3:0.79879856 4:0.044229189 5:0.25469445 6:0.69228577 
1 1:0.79622163 2:0.72154227 3:0.29442233 4:0.42303155 5:0.50944468 6:0.33788537 
1 1:0.38177276 2:0.52291324 3:0.72624458 4:0.19273133 5:0.35808607 6:0.98978187 
1 1:0.95258816 2:0.24324005 3:0.58949738 4:0.36660001 5:0.44414919 6:0.38567461 
1 1:0.073329209 2:0.34365257 3:0.27690134 4:0.4361823 5:0.30865022 6:0.63141381 
1 1:0.86068374 2:0.31343301 3:0.64008046 4:0.79863464 5:0.53550602 6:0.052977568 
1 1:0.50899607 2:0.17780232 3:0.33469994 4:0.20314859 5:0.17830006 6:0.010280053 
1 1:0.85791023 2:0.60826776 3:0.28254709 4:0.016966466 5:0.54334204 6:0.82413009 
1 1:0.60471486 2:0.7527449 3:0.88459686 4:0.47446144 5:0.75814039 6:0.52793823 
1 1:0.91908659 2:0.32935293 3:0.49112095 4:0.66259338 5:0.4682158 6:0.78582971 
1 1:0.19277967 2:0.30226349 3:0.34999233 4:0.81024734 5:0.64591479 6:0.17128988 
1 1:0.42127976 2:0.38430202 3:0.84903639 4:0.037601709 5:0.63897407 6:0.054196641 
1 1:0.43605844 2:0.38511314 3:0.2360476 4:0.68165704 5:0.49522767 6:0.067810435 
1 1:0.40200199 2:0.636184 3:0.8980453 4:0.82845093 5:0.86623186 6:0.38454923 
1 1:0.44667073 2:0.1881499 3:0.70512855 4:0.75733665 5:0.17520437 6:0.94215303 
1 1:0.36755464 2:0.34089632 3:0.86556413 4:0.71331028 5:0.81580169 6:0.90246842 
1 1:0.40392428 2:0.17307938 3:0.78802451 4:0.38636975 5:0.67458579 6:0.4914355 
1 1:0.67161088 2:0.24197967 3:0.72374199 4:0.24507658 5:0.49979944 6:0.86593781 
1 1:0.025818719 2:0.30782274 3:0.62592093 4:0.3260309 5:0.50007238 6:0.33111808 
1 1:0.8832818 2:0.67490394 3:0.60969455 4:0.42861758 5:0.34113151 6:0.18134407 
1 1:0.92113021 2:0.52669254 3:0.51636172 4:0.081744193 5:0.79554654 6:0.15955094 
1 1:0.63255924 2:0.59545935 3:0.29696374 4:0.84510948 5:0.68111598 6:0.95496957 
1 1:0.94711829 2:0.56807094 3:0.68329852 4:0.56466872 5:0.22380076 6:0.48356405 
1 1:0.15504923 2:0.43426753 3:0.54202761 4:0.45578056 5:0.23334439 6:0.55742244 
1 1:0.23911798 2:0.26662292 3:0.76322124 4:0.18343619 5:0.718567 6:0.86141259 
1 1:0.07790714 2:0.70107232 3:0.35534826 4:0.86518735 5:0.56935513 6:0.24634414 
1 1:0.10285344 2:0.45237953 3:0.26255297 4:0.66211832 5:0.41128056 6:0.16342123 
1 1:0.37404134 2:0.31568677 3:0.14979926 4:0.724526 5:0.50095274 6:0.74159238 
1 1:0.41308512 2:0.041928152 3:0.54792949 4:0.50425711 5:0.38555942 6:0.96257397 
1 1:0.88368231 2:0.48194666 3:0.30035887 4:0.43467118 5:0.46168581 6:0.94380457 
1 1:0.95753195 2:0.34466979 3:0.41475758 4:0.66464975 5:0.71231177 6:0.70275555 
1 1:0.27277551 2:0.31785665 3:0.40167506 4:0.2400382 5:0.31340463 6:0.4144106 
1 1:0.11424292 2:0.52926378 3:0.66391546 4:0.8230879 5:0.60413517 6:0.93605614 
1 1:0.70301699 2:0.32656156 3:0.15216267 4:0.2972175 5:0.86287435 6:0.36833275 
1 1:0.7362436 2:0.50075697 3:0.75071318 4:0.29835142 5:0.38315603 6:0.43579646 
1 1:0.48958076 2:0.94580694 3:0.35779664 4:0.48463601 5:0.21293156 6:0.017117163 
1 1:0.74136792 2:0.4154699 3:0.33677322 4:0.28805756 5:0.48606711 6:0.042814984 
1 1:0.37756745 2:0.1085823 3:0.60991674 4:0.15515906 5:0.088213916 6:0.96724944 
1 1:0.30586119 2:0.61730988 3:0.21333923 4:0.15022924 5:0.75977566 6:0.45423349 
1 1:0.76743356 2:0.43750167 3:0.74852602 4:0.99098547 5:0.32254488 6:0.89426942 
1 1:0.46495628 2:0.84883966 3:0.22764699 4:0.37922995 5:0.74852416 6:0.89128491 
1 1:0.42627101 2:0.27023819 3:0.77335394 4:0.5403808 5:0.068178004 6:0.15316139 
1 1:0.82179806 2:0.22754703 3:0.49923258 4:0.97950113 5:0.12916001 6:0.020262513 
1 1:0.027332017 2:0.37083642 3:0.62394526 4:0.24760791 5:0.27471567 6:0.47806706 
1 1:0.71714559 2:0.55198439 3:0.25027349 4:0.74955762 5:0.62375208 6:0.28062202 
1 1:0.22508603 2:0.16308448 3:0.27690579 4:0.37626129 5:0.33619596 6:0.60989556 
1 1:0.50703127 2:0.64220981 3:0.13034713 4:0.93580717 5:0.36304679 6:0.4211697 
1 1:0.21107289 2:0.76003244 3:0.75549129 4:0.68759582 5:0.59022506 6:0.38637032 
1 1:0.48130482 2:0.059243593 3:0.69282502 4:0.25032766 5:0.48341874 6:0.7826858 
1 1:0.2227913 2:0.79751786 3:0.57770051 4:0.94192599 5:0.63590556 6:0.15372736 
1 1:0.78466945 2:0.86508517 3:0.59325065 4:0.16473132 5:0.26976598 6:0.4220155 
1 1:0.89334425 2:0.65174328 3:0.60425509 4:0.28336917 5:0.52751724 6:0.34891136 
1 1:0.26629164 2:0.13104043 3:0.47902463 4:0.79185118 5:0.67603895 6:0.63005383 
1 1:0.64298982 2:0.4221694 3:0.80566973 4:0.069234124 5:0.65535386 6:0.90811334 
1 1:0.58220132 2:0.77823495 3:0.87672878 4:0.76520007 5:0.46425598 6:0.73189868 
1 1:0.55156638 2:0.17751713 3:0.78707539 4:0.77367414 5:0.80359419 6:0.87963503 
1 1:0.81255724 2:0.20693118 3:0.40475606 4:0.87259931 5:0.58437006 6:0.52440191 
1 1:0.9579519 2:0.46893904 3:0.31293047 4:0.74344224 5:0.41624323 6:0.26234788 
1 1:0.30524755 2:0.10948781 3:0.43250092 4:0.15429622 5:0.95698748 6:0.56278338 
1 1:0.70343353 2:0.84075615 3:0.27154827 4:0.80253202 5:0.18000677 6:0.12384645 
1 1:0.11808736 2:0.7406566 3:0.2941757 4:0.63708681 5:0.6677542 6:0.72176594 
1 1:0.85286605 2:0.21251454 3:0.38962929 4:0.37858449 5:0.6134282 6:0.45088107 
1 1:0.21955852 2:0.4249704 3:0.20948789 4:0.29133324 5:0.7850556 6:0.60702294 
1 1:0.44513711 2:0.9433397 3:0.33446122 4:0.075854124 5:0.56139805 6:0.41483948 
1 1:0.74526379 2:0.70256405 3:0.14987182 4:0.63932662 5:0.56417641 6:0.68489625 
1 1:0.47123965 2:0.30530465 3:0.77997564 4:0.49120167 5:0.75678269 6:0.60147025 
1 1:0.2692272 2:0.91613429 3:0.6612657 4:0.36336588 5:0.60342963 6:0.84127343 
1 1:0.11283729 2:0.59191435 3:0.28971083 4:0.65607843 5:0.51325577 6:0.6392374 
1 1:0.55613312 2:0.39087888 3:0.88143388 4:0.37087941 5:0.59845607 6:0.67092706 
1 1:0.27263498 2:0.17494477 3:0.33932025 4:0.050079825 5:0.56665812 6:0.0093282463 
1 1:0.60259471 2:0.52364106 3:0.15598766 4:0.97307941 5:0.71704225 6:0.96667007 
1 1:0.83605908 2:0.58869396 3:0.60152686 4:0.33868809 5:0.70409747 6:0.8260442 
1 1:0.58635665 2:0.38006679 3:0.79170836 4:0.013820031 5:0.85079085 6:0.9098464 
1 1:0.83158035 2:0.63170554 3:0.7430283 4:0.097500156 5:0.8143215 6:0.60721122 
1 1:0.043240118 2:0.29052601 3:0.48400502 4:0.75388037 5:0.46876496 6:0.74024014 
1 1:0.28512276 2:0.18239494 3:0.6651726 4:0.37773343 5:0.35379389 6:0.79110544 
1 1:0.27334416 2:0.81137809 3:0.31887804 4:0.31862174 5:0.44243123 6:0.78009873 
1 1:0.37489216 2:0.059907811 3:0.29458595 4:0.54836674 5:0.27109027 6:0.60815832 
1 1:0.82081323 2:0.46709814 3:0.83874585 4:0.53078729 5:0.79720277 6:0.54690039 
1 1:0.29964948 2:0.87500355 3:0.26053868 4:0.65525621 5:0.70747883 6:0.28794514 
1 1:0.36542564 2:0.94336312 3:0.34327055 4:0.78442522 5:0.46731659 6:0.50933168 
1 1:0.075872006 2:0.75100047 3:0.45481201 4:0.46806362 5:0.2334407 6:0.21132635 
1 1:0.19245877 2:0.33202991 3:0.75394196 4:0.32040016 5:0.092753366 6:0.12713335 
1 1:0.42090008 2:0.53536012 3:0.94503678 4:0.26276176 5:0.54664734 6:0.65214638 
1 1:0.80282709 2:0.55858627 3:0.22911357 4:0.35621898 5:0.86323167 6:0.24977209 
1 1:0.34892203 2:0.80299428 3:0.23385692 4:0.24270761 5:0.62864734 6:0.03148406 
1 1:0.30165227 2:0.54880144 3:0.92502411 4:0.6665645 5:0.45363758 6:0.43105231 
1 1:0.082018749 2:0.58496478 3:0.4566036 4:0.62814949 5:0.14057095 6:0.80070631 
1 1:0.0014134202 2:0.51471241 3:0.39465912 4:0.15155054 5:0.55253229 6:0.54542916 
1 1:0.16439465 2:0.54083824 3:0.44784481 4:0.9784963 5:0.18231473 6:0.53108737 
1 1:0.90845325 2:0.4668149 3:0.5637194 4:0.16781013 5:0.28329604 6:0.35985988 
1 1:0.67223316 2:0.14518856 3:0.65194898 4:0.72019494 5:0.23288461 6:0.11099945 
1 1:0.90765762 2:0.73643011 3:0.41521391 4:0.91007369 5:0.44568103 6:0.071506769 
1 1:0.84636887 2:0.2518631 3:0.63824072 4:0.45878443 5:0.27003117 6:0.38940002 
1 1:0.35025636 2:0.53075967 3:0.86306991 4:0.5191149 5:0.30530068 6:0.7089717 
1 1:0.6498841 2:0.14176851 3:0.41185804 4:0.98393439 5:0.15006233 6:0.71193031 
1 1:0.78516547 2:0.46137655 3:0.83558678 4:0.74433274 5:0.58072115 6:0.90165034 
1 1:0.92662123 2:0.58023655 3:0.26306607 4:0.53302881 5:0.30747807 6:0.24165625 
1 1:0.56555242 2:0.59483732 3:0.21522318 4:0.6730796 5:0.51774242 6:0.4212443 
1 1:0.29685543 2:0.46064066 3:0.14608714 4:0.43094434 5:0.85276416 6:0.3184937 
1 1:0.75022726 2:0.73573868 3:0.77659426 4:0.045307452 5:0.57661903 6:0.12082736 
1 1:0.13721126 2:0.30344912 3:0.66134713 4:0.41701552 5:0.15243335 6:0.13373269 
1 1:0.67321818 2:0.76894374 3:0.80597324 4:0.11054167 5:0.48012242 6:0.70548152 
1 1:0.20592471 2:0.14470601 3:0.38255356 4:0.57813429 5:0.67187047 6:0.39119545 
1 1:0.44028428 2:0.68889118 3:0.79760115 4:0.60834069 5:0.46219172 6:0.61139462 
1 1:0.18580802 2:0.60839537 3:0.28958922 4:0.17483238 5:0.29423766 6:0.24793233 
1 1:0.76582939 2:0.29874445 3:0.22097755 4:0.5235473 5:0.2593705 6:0.032426237 
1 1:0.095013463 2:0.60044185 3:0.44041313 4:0.1069246 5:0.44148766 6:0.29609026 
1 1:0.22581838 2:0.12575525 3:0.39424503 4:0.79460155 5:0.28517667 6:0.23259848 
1 1:0.15987847 2:0.1579616 3:0.47534173 4:0.024221819 5:0.69534155 6:0.52467436 
1 1:0.73938334 2:0.27101236 3:0.49845563 4:0.070983904 5:0.47960777 6:0.74702713 
1 1:0.51477264 2:0.97447183 3:0.53042096 4:0.6222228 5:0.35254767 6:0.49799595 
1 1:0.91060638 2:0.23327348 3:0.4382721 4:0.60477785 5:0.3754998 6:0.33774717 
1 1:0.62459768 2:0.43733278 3:0.11458782 4:0.99872081 5:0.4550324 6:0.38428792 
1 1:0.69561006 2:0.23183198 3:0.798391 4:0.52408797 5:0.81627253 6:0.87849976 
1 1:0.47264186 2:0.90767112 3:0.65477388 4:0.055280521 5:0.36408286 6:0.11110492 
1 1:0.64268399 2:0.32086423 3:0.80315265 4:0.44924038 5:0.55171157 6:0.17643564 
1 1:0.61515212 2:0.95038141 3:0.60696346 4:0.28194735 5:0.57827395 6:0.92944453 
1 1:0.53717984 2:0.15450339 3:0.78023867 4:0.63807797 5:0.72756936 6:0.43998727 
1 1:0.76475642 2:0.55394896 3:0.2562938 4:0.41480917 5:0.75588446 6:0.39066081 
1 1:0.39934387 2:0.38496086 3:0.17137917 4:0.0099959595 5:0.482084 6:0.93332352 
1 1:0.26865198 2:0.11373273 3:0.34304218 4:0.33319621 5:0.65867346 6:0.58916694 
1 1:0.82078161 2:0.18480099 3:0.34466786 4:0.97066833 5:0.52973141 6:0.8046383 
1 1:0.31702538 2:0.57764543 3:0.71586924 4:0.24928011 5:0.44389796 6:0.94976771 
1 1:0.096361708 2:0.26259842 3:0.60886433 4:0.3025372 5:0.48822219 6:0.099937478 
1 1:0.94933232 2:0.70930036 3:0.34086778 4:0.44389686 5:0.44062786 6:0.40654613 
1 1:0.75549891 2:0.13486571 3:0.25366564 4:0.49975751 5:0.43574986 6:0.50180068 
1 1:0.049627982 2:0.48556713 3:0.44616444 4:0.78736458 5:0.28752427 6:0.56414211 
1 1:0.60678875 2:0.40413277 3:0.1087795 4:0.4467895 5:0.45779321 6:0.90202983 
1 1:0.37140553 2:0.49854601 3:0.18305207 4:0.46315505 5:0.35664838 6:0.95438458 
1 1:0.42653323 2:0.45831371 3:0.85441094 4:0.34547112 5:0.61103638 6:0.71325668 
1 1:0.3566061 2:0.83734176 3:0.28646117 4:0.68299577 5:0.47667282 6:0.98732915 
1 1:0.10724036 2:0.76224087 3:0.5005698 4:0.42704158 5:0.42297942 6:0.64083599 
1 1:0.042373986 2:0.33264606 3:0.47470889 4:0.12705486 5:0.38086846 6:0.39687557 
1 1:0.75418308 2:0.50935502 3:0.85574899 4:0.13637206 5:0.45390416 6:0.83796044 
1 1:0.28446304 2:0.22695591 3:0.32699236 4:0.083141096 5:0.36467306 6:0.92511456 
1 1:0.2667594 2:0.80334548 3:0.2432965 4:0.60488917 5:0.13659223 6:0.23973729 
1 1:0.68517954 2:0.47015711 3:0.25468923 4:0.39831442 5:0.056211392 6:0.53255517 
1 1:0.35312048 2:0.022839583 3:0.49708582 4:0.93278136 5:0.61174925 6:0.17665579 
1 1:0.62456521 2:0.68293169 3:0.84338004 4:0.95703448 5:0.33349162 6:0.52892953 
1 1:0.20441838 2:0.20592262 3:0.44158687 4:0.86626459 5:0.074867143 6:0.16573193 
1 1:0.74257757 2:0.33426032 3:0.16886147 4:0.42035585 5:0.64145211 6:0.2521715 
1 1:0.54851833 2:0.27643362 3:0.25599234 4:0.33315215 5:0.29947377 6:0.96318263 
1 1:0.33592304 2:0.30503607 3:0.15460225 4:0.53641535 5:0.56576208 6:0.66082838 
1 1:0.47143088 2:0.13055028 3:0.68229591 4:0.53577815 5:0.61953721 6:0.65643699 
1 1:0.56345824 2:0.23419478 3:0.81383531 4:0.93582386 5:0.44659964 6:0.73430951 
1 1:0.89163369 2:0.64139128 3:0.64611503 4:0.35928087 5:0.58752716 6:0.92593919 
1 1:0.55980692 2:0.62007732 3:0.76498666 4:0.66552929 5:0.25142941 6:0.88275093 
1 1:0.49735959 2:0.76473803 3:0.66209307 4:0.13936837 5:0.43347656 6:0.032312957 
1 1:0.042066926 2:0.55204551 3:0.35647594 4:0.45567782 5:0.52087156 6:0.21657431 
1 1:0.22016965 2:0.37896398 3:0.33766044 4:0.88542885 5:0.17949182 6:0.72203215 
1 1:0.7517212 2:0.90287546 3:0.46579695 4:0.13407602 5:0.69942986 6:0.63256642 
1 1:0.17260615 2:0.7975892 3:0.63614324 4:0.60750746 5:0.65782158 6:0.045765302 
1 1:0.059880892 2:0.57286831 3:0.45302444 4:0.25988296 5:0.4813874 6:0.33678338 
1 1:0.62595436 2:0.086537222 3:0.34657068 4:0.35266995 5:0.65424199 6:0.80562759 
1 1:0.63057627 2:0.49252401 3:0.18940249 4:0.017146736 5:0.20146012 6:0.52277973 
1 1:0.62041969 2:0.5040301 3:0.76359823 4:0.22907445 5:0.73268467 6:0.10943064 
1 1:0.17995588 2:0.83409485 3:0.52387385 4:0.3913342 5:0.5780668 6:0.38288874 
1 1:0.22007158 2:0.7701249 3:0.78743537 4:0.55014155 5:0.67706137 6:0.24781468 
1 1:0.6095328 2:0.88775948 3:0.24211678 4:0.92414803 5:0.5033598 6:0.32268182 
1 1:0.80510864 2:0.40442149 3:0.83975459 4:0.61023074 5:0.54297727 6:0.56468245 
1 1:0.36433273 2:0.34924123 3:0.80033951 4:0.25897142 5:0.66306729 6:0.50060664 
1 1:0.64445048 2:0.081778133 3:0.28138191 4:0.54811678 5:0.47144628 6:0.86854391 
1 1:0.4939379 2:0.12032629 3:0.74155628 4:0.061570855 5:0.7595737 6:0.399137 
1 1:0.34249872 2:0.89617226 3:0.47019203 4:0.73889075 5:0.096673548 6:0.59545114 
1 1:0.81024713 2:0.17788003 3:0.34025712 4:0.76532059 5:0.46426814 6:0.53627042 
1 1:0.064241251 2:0.35077933 3:0.36913752 4:0.5143358 5:0.45761692 6:0.76930188 
1 1:0.4189339 2:0.20561919 3:0.15866357 4:0.31672237 5:0.59941041 6:0.1659713 
1 1:0.13699726 2:0.28907748 3:0.51814931 4:0.92016535 5:0.034657598 6:0.24035507 
1 1:0.47854392 2:0.89720166 3:0.75736929 4:0.16898916 5:0.57634119 6:0.72833853 
1 1:0.63448643 2:0.6904241 3:0.15966599 4:0.32551393 5:0.44876185 6:0.16493099 
1 1:0.92630879 2:0.32901439 3:0.4080816 4:0.18793817 5:0.41772149 6:0.16351577 
1 1:0.39665431 2:0.48948888 3:0.91063375 4:0.05962085 5:0.34903587 6:0.6497244 
1 1:0.7166984 2:0.060355536 3:0.46304055 4:0.81071261 5:0.13720631 6:0.32056284 
1 1:0.43004349 2:0.052550233 3:0.38278353 4:0.64706884 5:0.90461146 6:0.38737063 
1 1:0.57234821 2:0.7905556 3:0.73403482 4:0.57277147 5:0.56200037 6:0.8919965 
1 1:0.90689252 2:0.74000256 3:0.66145968 4:0.55343415 5:0.46006306 6:0.11686577 
1 1:0.57635853 2:0.579327 3:0.80344924 4:0.21646807 5:0.80849857 6:0.13013607 
1 1:0.66113982 2:0.53531928 3:0.18103832 4:0.46256292 5:0.40082893 6:0.90925726 
1 1:0.96677959 2:0.40691171 3:0.3105433 4:0.22321857 5:0.65150088 6:0.39622485 
1 1:0.49398044 2:0.49550427 3:0.88178147 4:0.36523459 5:0.71583093 6:0.26053144 
1 1:0.44565611 2:0.88994141 3:0.36600258 4:0.65821853 5:0.47220882 6:0.077532011 
1 1:0.69822855 2:0.24486091 3:0.1865378 4:0.71447102 5:0.41221073 6:0.3331459 
1 1:0.38565409 2:0.56315155 3:0.90946153 4:0.66126443 5:0.55019522 6:0.068551871 
1 1:0.86894748 2:0.4785175 3:0.23732028 4:0.22715246 5:0.5917702 6:0.44608546 
1 1:0.46076052 2:0.73512636 3:0.87316163 4:0.34880846 5:0.74937553 6:0.64760435 
1 1:0.81820797 2:0.59820803 3:0.17908362 4:0.60067538 5:0.53258148 6:0.23154883 
1 1:0.40574852 2:0.24185653 3:0.19246912 4:0.5398308 5:0.55127154 6:0.88054797 
1 1:0.35460767 2:0.11034725 3:0.34685587 4:0.87737006 5:0.40877525 6:0.98826771 
1 1:0.67346798 2:0.92378612 3:0.64199464 4:0.58546269 5:0.60372498 6:0.11793909 
1 1:0.69902444 2:0.54377834 3:0.76572712 4:0.37664015 5:0.46448259 6:0.48737178 
1 1:0.52449592 2:0.98871064 3:0.5446834 4:0.61316603 5:0.56034717 6:0.61138245 
1 1:0.76825706 2:0.22338407 3:0.27750831 4:0.50204457 5:0.56446763 6:0.026273706 
1 1:0.68395461 2:0.042768154 3:0.48160005 4:0.84057287 5:0.39176143 6:0.18311935 
1 1:0.14096565 2:0.14912353 3:0.45188311 4:0.30717786 5:0.25491911 6:0.43564682 
1 1:0.13136107 2:0.21579837 3:0.58976633 4:0.44007219 5:0.62268027 6:0.41251051 
1 1:0.6608218 2:0.35519892 3:0.15739076 4:0.6497299 5:0.73289446 6:0.052373175 
1 1:0.70097126 2:0.10401555 3:0.71394421 4:0.28802149 5:0.4230968 6:0.37823734 
1 1:0.22349021 2:0.5712384 3:0.75471202 4:0.30942139 5:0.33272147 6:0.090288586 
1 1:0.79105891 2:0.44122569 3:0.80758756 4:0.64734237 5:0.33839478 6:0.46001733 
1 1:0.65995245 2:0.84524668 3:0.66113741 4:0.34240327 5:0.63347802 6:0.74727983 
1 1:0.96381911 2:0.53419787 3:0.55959609 4:0.58341653 5:0.50174487 6:0.34327863 
1 1:0.80309048 2:0.70895829 3:0.30313904 4:0.95272865 5:0.80876768 6:0.93110779 
1 1:0.50809568 2:0.65895009 3:0.92220571 4:0.44416616 5:0.26718276 6:0.301362 
1 1:0.45518566 2:0.35313108 3:0.81859612 4:0.99553991 5:0.80705548 6:0.55427707 
1 1:0.5969631 2:0.18625421 3:0.78529568 4:0.33276983 5:0.46854771 6:0.19418585 
1 1:0.74221518 2:0.21468543 3:0.69195209 4:0.046936703 5:0.62943876 6:0.26894095 
