svm_type c_svc
kernel_type rbf
gamma 0.166667
nr_class 2
total_sv 4734
rho -18.5984
label -1 1
nr_sv 2372 2362
SV
1 1:0.26207789 2:0.19227569 3:0.59469995 4:0.83152936 5:0.33964566 6:0.74598074 
1 1:0.95942889 2:0.64263933 3:0.50160641 4:0.23653447 5:0.6135088 6:0.083844077 
1 1:0.19340422 2:0.54928243 3:0.80620723 4:0.53401074 5:0.64077414 6:0.60778679 
1 1:0.36459309 2:0.67640168 3:0.87125762 4:0.46641626 5:0.61531604 6:0.26552173 
1 1:0.55331683 2:0.63932951 3:0.21825549 4:0.31531768 5:0.29708221 6:0.68937361 
1 1:0.77531443 2:0.70078512 3:0.79795816 4:0.66078123 5:0.20673579 6:0.36338749 
1 1:0.61373352 2:0.57508123 3:0.17374675 4:0.05496826 5:0.96698544 6:0.95170131 
1 1:0.36790914 2:0.41967121 3:0.77869186 4:0.36779249 5:0.53981931 6:0.22739199 
1 1:0.32716284 2:0.9150874 3:0.61523227 4:0.1241158 5:0.47009226 6:0.80159553 
1 1:0.21782226 2:0.25919513 3:0.6449068 4:0.81509241 5:0.6814681 6:0.6725053 
1 1:0.71775059 2:0.28289229 3:0.6762632 4:0.14002296 5:0.96231525 6:0.81547514 
1 1:0.73939191 2:0.83661692 3:0.61745443 4:0.27342753 5:0.11549334 6:0.73504134 
1 1:0.35587623 2:0.48237636 3:0.16079212 4:0.8142313 5:0.32555 6:0.50584263 
1 1:0.83789286 2:0.48612509 3:0.76847776 4:0.24704462 5:0.71921449 6:0.96197476 
1 1:0.51162761 2:0.78497717 3:0.31580995 4:0.66717161 5:0.48924565 6:0.65136048 
1 1:0.80869881 2:0.75078838 3:0.47633762 4:0.76129763 5:0.62004362 6:0.15021206 
1 1:0.40043582 2:0.50198748 3:0.74629906 4:0.2976889 5:0.26778044 6:0.93189311 
1 1:0.89464127 2:0.7646562 3:0.59058847 4:0.96394655 5:0.51940318 6:0.25205639 
1 1:0.45349277 2:0.85772533 3:0.28473019 4:0.14665717 5:0.71744438 6:0.28398816 
1 1:0.32936243 2:0.72061957 3:0.81328079 4:0.80999927 5:0.72461786 6:0.95307156 
1 1:0.15769269 2:0.63837769 3:0.81929038 4:0.78653048 5:0.43646099 6:0.36556229 
1 1:0.80153303 2:0.79508358 3:0.33856921 4:0.37686435 5:0.41706354 6:0.61681013 
1 1:0.70173952 2:0.85773638 3:0.35655415 4:0.80017808 5:0.56967354 6:0.92920857 
1 1:0.57648763 2:0.6286868 3:0.14704704 4:0.22123292 5:0.6488066 6:0.91261556 
1 1:0.16748467 2:0.47726436 3:0.28482918 4:0.35000066 5:0.52401671 6:0.08843105 
1 1:0.20498782 2:0.05504897 3:0.50324166 4:0.67740816 5:0.67684765 6:0.50161222 
1 1:0.41051122 2:0.31574598 3:0.87000462 4:0.52664035 5:0.36723165 6:0.56704194 
1 1:0.66588768 2:0.8142511 3:0.21368632 4:0.63826885 5:0.79984447 6:0.66504325 
1 1:0.68303111 2:0.2673608 3:0.24832229 4:0.4088928 5:0.37500944 6:0.631382 
1 1:0.6512914 2:0.82940188 3:0.19581632 4:0.68417965 5:0.48898553 6:0.9096477 
1 1:0.60945203 2:0.025255529 3:0.5117487 4:0.53907825 5:0.82250552 6:0.43937045 
1 1:0.34276161 2:0.0035001813 3:0.57945456 4:0.68549653 5:0.37166992 6:0.40550214 
1 1:0.75192338 2:0.25582517 3:0.39745345 4:0.69259349 5:0.54479483 6:0.31372062 
1 1:0.50250294 2:0.42071475 3:0.83605438 4:0.78564132 5:0.59242157 6:0.050705145 
1 1:0.35781079 2:0.23807094 3:0.30346767 4:0.62679552 5:0.92730122 6:0.46865252 
1 1:0.19143361 2:0.095876285 3:0.51209786 4:0.62416512 5:0.18763172 6:0.2546764 
1 1:0.44180824 2:0.24700052 3:0.19803693 4:0.062575149 5:0.59261688 6:0.063013048 
1 1:0.79537468 2:0.71272261 3:0.2696551 4:0.45586945 5:0.65186745 6:0.70845938 
1 1:0.36505825 2:0.11857876 3:0.57581099 4:0.5372649 5:0.58977492 6:0.30283833 
1 1:0.60247145 2:0.74599946 3:0.80032676 4:0.25539587 5:0.49235665 6:0.39379127 
1 1:0.91696356 2:0.7907841 3:0.57192785 4:0.77081146 5:0.60541437 6:0.64351039 
1 1:0.34728174 2:0.42679713 3:0.17635117 4:0.88799062 5:0.43945822 6:0.68951794 
1 1:0.53258315 2:0.74772382 3:0.86056705 4:0.92493628 5:0.69351153 6:0.28960245 
1 1:0.38395145 2:0.4225527 3:0.79028816 4:0.62293638 5:0.39002439 6:0.83367731 
1 1:0.78878875 2:0.65255491 3:0.23718342 4:0.4391768 5:0.46472542 6:0.29871089 
1 1:0.67644969 2:0.4802855 3:0.25970547 4:0.69541078 5:0.66377295 6:0.10283858 
1 1:0.68566987 2:0.077343675 3:0.71128847 4:0.64090472 5:0.4558348 6:0.48795432 
1 1:0.30648708 2:0.22807084 3:0.71237746 4:0.77357707 5:0.44405082 6:0.45730856 
1 1:0.2869452 2:0.8779423 3:0.66402566 4:0.51226549 5:0.53934684 6:0.90856929 
1 1:0.25528998 2:0.66739826 3:0.85205968 4:0.74180178 5:0.8191125 6:0.79250188 
1 1:0.66448977 2:0.91878993 3:0.4727154 4:0.14341695 5:0.48093494 6:0.057437906 
1 1:0.33672518 2:0.50054641 3:0.15105933 4:0.78962183 5:0.3663063 6:0.16268087 
1 1:0.7758548 2:0.22347022 3:0.70598262 4:0.52041251 5:0.28425057 6:0.64193015 
1 1:0.43915022 2:0.56228116 3:0.76552834 4:0.44543124 5:0.54114725 6:0.42493256 
1 1:0.60205829 2:0.70517949 3:0.85049407 4:0.87726858 5:0.33740897 6:0.98987954 
1 1:0.37337939 2:0.34783178 3:0.15958432 4:0.38498833 5:0.63542425 6:0.60960663 
1 1:0.56879555 2:0.2219424 3:0.18808209 4:0.38512981 5:0.5245131 6:0.2403095 
1 1:0.52531493 2:0.39256546 3:0.15735202 4:0.48462249 5:0.31195905 6:0.27296919 
1 1:0.61830976 2:0.46862439 3:0.13994278 4:0.51647504 5:0.46564053 6:0.72885792 
1 1:0.25723445 2:0.22461966 3:0.19267202 4:0.51412543 5:0.7174794 6:0.20871286 
1 1:0.74128748 2:0.25129043 3:0.20373649 4:0.69284823 5:0.46946358 6:0.34179941 
1 1:0.24731929 2:0.22027955 3:0.27111173 4:0.19722047 5:0.53472675 6:0.711408 
1 1:0.2526672 2:0.72844059 3:0.46908659 4:0.059824637 5:0.72416863 6:0.21266952 
1 1:0.32499538 2:0.055071355 3:0.34205797 4:0.36089537 5:0.4501794 6:0.43582312 
1 1:0.28091415 2:0.91794917 3:0.42702231 4:0.90223626 5:0.45529259 6:0.27319939 
1 1:0.45027229 2:0.46051298 3:0.10623635 4:0.85899388 5:0.47448559 6:0.33198317 
1 1:0.20095835 2:0.48115716 3:0.74372824 4:0.17488569 5:0.62253523 6:0.97220778 
1 1:0.15295693 2:0.3635996 3:0.39867142 4:0.48863223 5:0.60458494 6:0.51272121 
1 1:0.73740851 2:0.38211096 3:0.20323379 4:0.94623465 5:0.59094879 6:0.38562064 
1 1:0.67030179 2:0.61680943 3:0.19596687 4:0.093792259 5:0.75337348 6:0.21805989 
1 1:0.54737559 2:0.079835452 3:0.30837881 4:0.34653882 5:0.28370434 6:0.93871807 
1 1:0.72698692 2:0.95446528 3:0.43206515 4:0.43483315 5:0.56749238 6:0.54464518 
1 1:0.61629784 2:0.86243058 3:0.60365373 4:0.10630347 5:0.19514428 6:0.04027836 
1 1:0.23481029 2:0.86750544 3:0.62035209 4:0.31280082 5:0.44401369 6:0.57516416 
1 1:0.74298226 2:0.95277102 3:0.55694174 4:0.61180139 5:0.60497899 6:0.47739568 
1 1:0.7779859 2:0.8716444 3:0.63166596 4:0.26401509 5:0.3372401 6:0.68443513 
1 1:0.15817998 2:0.88837124 3:0.52220535 4:0.33317563 5:0.72462754 6:0.3603663 
1 1:0.67466549 2:0.43608916 3:0.21773822 4:0.45965332 5:0.7793738 6:0.83548248 
1 1:0.59644927 2:0.91189401 3:0.27876064 4:0.56252392 5:0.49341014 6:0.42515169 
1 1:0.62303173 2:0.38935157 3:0.79395649 4:0.64580988 5:0.53642445 6:0.12869666 
1 1:0.72311752 2:0.26239147 3:0.7929257 4:0.77684008 5:0.76169803 6:0.27132517 
1 1:0.38493739 2:0.52289335 3:0.83932283 4:0.25601802 5:0.58580113 6:0.54897207 
1 1:0.31508031 2:0.89363962 3:0.62460861 4:0.16999958 5:0.33148569 6:0.027987353 
1 1:0.86272399 2:0.25496392 3:0.69898643 4:0.22844096 5:0.74546515 6:0.68525239 
1 1:0.35115697 2:0.38839303 3:0.8620428 4:0.13147476 5:0.87183738 6:0.50024964 
1 1:0.74221514 2:0.16475027 3:0.30137915 4:0.6376527 5:0.7333169 6:0.69034522 
1 1:0.32553224 2:0.4171315 3:0.23644842 4:0.69052268 5:0.56054659 6:0.67374186 
1 1:0.77152303 2:0.33419953 3:0.75172052 4:0.92405416 5:0.61525654 6:0.4224985 
1 1:0.082386202 2:0.34430754 3:0.4339613 4:0.82772695 5:0.19145061 6:0.10292674 
1 1:0.95505456 2:0.66160418 3:0.46147768 4:0.26096414 5:0.88418395 6:0.64838783 
1 1:0.69875969 2:0.96843542 3:0.50650507 4:0.2529093 5:0.77613222 6:0.40227188 
1 1:0.22080597 2:0.20578593 3:0.62294953 4:0.89678567 5:0.68806936 6:0.28176444 
1 1:0.22748733 2:0.70389881 3:0.70641125 4:0.8045691 5:0.78787531 6:0.96401201 
1 1:0.17047691 2:0.42826138 3:0.45197791 4:0.86972779 5:0.40161873 6:0.69829589 
1 1:0.29822843 2:0.76709768 3:0.30198145 4:0.64928507 5:0.57192807 6:0.51512253 
1 1:0.52160972 2:0.65666437 3:0.86533324 4:0.85138769 5:0.71466545 6:0.011356824 
1 1:0.70303723 2:0.65624737 3:0.32561068 4:0.26152252 5:0.30164277 6:0.49656282 
1 1:0.41838863 2:0.85430916 3:0.20059022 4:0.23581699 5:0.3719932 6:0.53316541 
1 1:0.48333725 2:0.40225678 3:0.87998274 4:0.55724991 5:0.60087291 6:0.65973322 
1 1:0.73468683 2:0.61394669 3:0.3247177 4:0.71690098 5:0.45459108 6:0.47011459 
1 1:0.33293689 2:0.91342913 3:0.65137594 4:0.20024397 5:0.65334865 6:0.030040618 
1 1:0.26885929 2:0.43826449 3:0.20461575 4:0.74905543 5:0.37398476 6:0.22719708 
1 1:0.21479552 2:0.5869205 3:0.88320431 4:0.44572583 5:0.559644 6:0.88104397 
1 1:0.19844255 2:0.22977699 3:0.75174455 4:0.65985723 5:0.4570953 6:0.40737009 
1 1:0.07735424 2:0.27578852 3:0.42800516 4:0.81193832 5:0.79914013 6:0.52011842 
1 1:0.88064293 2:0.56612744 3:0.56628176 4:0.36680298 5:0.62411754 6:0.2698912 
1 1:0.078091623 2:0.671034 3:0.41978406 4:0.63830117 5:0.26124402 6:0.17474701 
1 1:0.057714912 2:0.63878933 3:0.5467317 4:0.77503208 5:0.27524286 6:0.81334419 
1 1:0.090982177 2:0.42957839 3:0.29428512 4:0.63752419 5:0.7197815 6:0.27682998 
1 1:0.83252244 2:0.85419686 3:0.63074649 4:0.21014587 5:0.28416057 6:0.54534467 
1 1:0.34901126 2:0.20741441 3:0.76983986 4:0.15020789 5:0.84133812 6:0.94847969 
1 1:0.064127585 2:0.68546226 3:0.42712634 4:0.13334548 5:0.46805351 6:0.34726323 
1 1:0.5248804 2:0.38071804 3:0.75946336 4:0.25358059 5:0.21676685 6:0.033386413 
1 1:0.15161595 2:0.15530996 3:0.61101254 4:0.83004999 5:0.6125243 6:0.48548301 
1 1:0.86974554 2:0.36310427 3:0.56520305 4:0.13525555 5:0.3586711 6:0.80879851 
1 1:0.59447534 2:0.20583186 3:0.81297619 4:0.82363129 5:0.60201139 6:0.46968431 
1 1:0.80620163 2:0.81709064 3:0.27563188 4:0.70119727 5:0.65012459 6:0.15676748 
1 1:0.30124305 2:0.40807349 3:0.9156269 4:0.28414486 5:0.51021766 6:0.65281972 
1 1:0.65516626 2:0.051201466 3:0.35537689 4:0.50177015 5:0.60296832 6:0.083471934 
1 1:0.16883547 2:0.38170669 3:0.82028843 4:0.072827417 5:0.79825599 6:0.65700933 
0.1427357779667159 1:0.69106146 2:0.53663672 3:0.93979836 4:0.45814318 5:0.30530551 6:0.39528806 
1 1:0.15713668 2:0.22569557 3:0.5283739 4:0.93991198 5:0.4056798 6:0.12195303 
1 1:0.068640853 2:0.56532684 3:0.26914839 4:0.42939955 5:0.84633179 6:0.69185783 
1 1:0.81124096 2:0.28819151 3:0.69256546 4:0.89857746 5:0.19470902 6:0.42424387 
1 1:0.88598521 2:0.84694809 3:0.60176888 4:0.17156965 5:0.57943264 6:0.32470293 
1 1:0.38924081 2:0.35959772 3:0.81889119 4:0.72785081 5:0.49645215 6:0.032801064 
1 1:0.64998247 2:0.57082894 3:0.86190741 4:0.47312729 5:0.95491039 6:0.86569148 
1 1:0.49483389 2:0.025126777 3:0.4966177 4:0.67703188 5:0.57891401 6:0.62670448 
1 1:0.28759089 2:0.21324957 3:0.23044584 4:0.87335716 5:0.6505822 6:0.24790961 
1 1:0.72542914 2:0.33292361 3:0.7279638 4:0.98394844 5:0.51976052 6:0.043920583 
1 1:0.64693995 2:0.86124303 3:0.46983411 4:0.010472753 5:0.84167252 6:0.33196725 
1 1:0.3437565 2:0.168505 3:0.27841507 4:0.11784716 5:0.47330013 6:0.78199825 
1 1:0.60568576 2:0.071096081 3:0.54585487 4:0.072560598 5:0.36347278 6:0.8914742 
1 1:0.15709987 2:0.77618703 3:0.46715297 4:0.026982844 5:0.43849291 6:0.35360373 
1 1:0.40102714 2:0.52517921 3:0.87902471 4:0.75948424 5:0.37434395 6:0.22406013 
1 1:0.34351996 2:0.83760476 3:0.81831096 4:0.31978478 5:0.51019955 6:0.34057236 
1 1:0.19054208 2:0.59933818 3:0.32155575 4:0.62250739 5:0.54289369 6:0.62798802 
1 1:0.45083917 2:0.5343259 3:0.87341422 4:0.24229992 5:0.73533047 6:0.016710753 
1 1:0.55544153 2:0.34244368 3:0.31177709 4:0.68144774 5:0.54290701 6:0.44316869 
1 1:0.66864548 2:0.45554521 3:0.9176048 4:0.80516205 5:0.2817919 6:0.67380466 
1 1:0.61862662 2:0.29414964 3:0.89508604 4:0.82116114 5:0.52271218 6:0.696734 
1 1:0.051495377 2:0.39482736 3:0.6221579 4:0.7821665 5:0.38218281 6:0.096494455 
1 1:0.52637085 2:0.049428418 3:0.48154242 4:0.90371218 5:0.42191677 6:0.25052519 
1 1:0.87783111 2:0.88185893 3:0.49043795 4:0.41674582 5:0.59151647 6:0.23613003 
1 1:0.83417374 2:0.20804215 3:0.64881084 4:0.70767935 5:0.45317312 6:0.43474759 
1 1:0.43160455 2:0.15487586 3:0.29935551 4:0.8297098 5:0.56036556 6:0.092378553 
1 1:0.5421916 2:0.56449042 3:0.93784794 4:0.89184331 5:0.72185045 6:0.36800576 
1 1:0.40432348 2:0.36222437 3:0.82366972 4:0.74035825 5:0.64840244 6:0.47947984 
1 1:0.27887402 2:0.65475227 3:0.8408736 4:0.93990996 5:0.3738051 6:0.78000474 
1 1:0.73457426 2:0.10447437 3:0.44654012 4:0.26785047 5:0.63944725 6:0.49225158 
1 1:0.46611171 2:0.37200904 3:0.7773542 4:0.66423598 5:0.74480826 6:0.40173418 
1 1:0.54240332 2:0.202937 3:0.26383406 4:0.63240676 5:0.59116768 6:0.94593428 
1 1:0.57075863 2:0.2608893 3:0.16855303 4:0.24048884 5:0.79272163 6:0.8841719 
1 1:0.94857999 2:0.69800612 3:0.44297714 4:0.34621251 5:0.84735958 6:0.79785306 
1 1:0.42306949 2:0.6963579 3:0.90000252 4:0.42421972 5:0.88579628 6:0.59378752 
1 1:0.47659491 2:0.14221358 3:0.75026112 4:0.56805747 5:0.070863305 6:0.41884059 
1 1:0.77815654 2:0.52291271 3:0.78606909 4:0.81776654 5:0.56596036 6:0.19528048 
1 1:0.15085292 2:0.15632226 3:0.4632017 4:0.51198921 5:0.65038964 6:0.92921406 
1 1:0.91790704 2:0.31102777 3:0.6068187 4:0.517962 5:0.097603265 6:0.35183461 
1 1:0.40159563 2:0.65839491 3:0.90128048 4:0.41173199 5:0.65389624 6:0.66284436 
1 1:0.8372565 2:0.40804503 3:0.28020808 4:0.86993946 5:0.36062302 6:0.60802813 
1 1:0.52658276 2:0.31875862 3:0.84151242 4:0.21276338 5:0.76965718 6:0.44984994 
1 1:0.4371799 2:0.13752308 3:0.71118587 4:0.66478315 5:0.31915995 6:0.15077745 
1 1:0.27537917 2:0.091176247 3:0.58730551 4:0.65443517 5:0.34340222 6:0.04711798 
1 1:0.33096949 2:0.76165724 3:0.30685821 4:0.10750369 5:0.46102563 6:0.80943081 
1 1:0.21076161 2:0.84366316 3:0.28954326 4:0.37842575 5:0.51842965 6:0.23963584 
1 1:0.5702278 2:0.47078577 3:0.12697968 4:0.59124671 5:0.68549542 6:0.22261976 
1 1:0.22161356 2:0.097253082 3:0.535171 4:0.24532994 5:0.58346178 6:0.45446169 
1 1:0.54278986 2:0.49645785 3:0.185598 4:0.67704094 5:0.47709778 6:0.8353526 
1 1:0.25358325 2:0.3879293 3:0.31045359 4:0.27242406 5:0.47391305 6:0.59437343 
1 1:0.71670235 2:0.8365448 3:0.25679691 4:0.76878902 5:0.23419676 6:0.50815675 
1 1:0.77433523 2:0.82156511 3:0.73123155 4:0.6769543 5:0.37387338 6:0.91515616 
1 1:0.92516082 2:0.44393794 3:0.35152102 4:0.46281697 5:0.49280483 6:0.11125715 
1 1:0.26340459 2:0.79013942 3:0.25563447 4:0.41806289 5:0.10620193 6:0.67111196 
1 1:0.05034864 2:0.2730841 3:0.4618671 4:0.22794791 5:0.67921725 6:0.21144918 
1 1:0.73334477 2:0.36556896 3:0.82349217 4:0.797559 5:0.35073019 6:0.49045299 
1 1:0.32613755 2:0.039185167 3:0.51901967 4:0.33695578 5:0.61631808 6:0.27450183 
1 1:0.32555775 2:0.27989315 3:0.21184474 4:0.71741423 5:0.385026 6:0.91626149 
1 1:0.25232016 2:0.59211497 3:0.83094592 4:0.07119536 5:0.65369511 6:0.91852553 
1 1:0.48629249 2:0.21591183 3:0.1699934 4:0.75332212 5:0.76316197 6:0.74712678 
1 1:0.29985146 2:0.25683848 3:0.29335984 4:0.9608971 5:0.38778717 6:0.51074148 
1 1:0.082798251 2:0.2639408 3:0.45730628 4:0.46636428 5:0.57657341 6:0.083892805 
0.06781382021365175 1:0.81878639 2:0.84379896 3:0.34085057 4:0.015286301 5:0.68005326 6:0.6564474 
1 1:0.74610382 2:0.44546011 3:0.86867042 4:0.30672728 5:0.57983816 6:0.63755257 
1 1:0.63824692 2:0.029562794 3:0.51091232 4:0.58059141 5:0.56346141 6:0.29171342 
1 1:0.14430389 2:0.58171367 3:0.80163538 4:0.29503744 5:0.60754312 6:0.27304509 
1 1:0.38171439 2:0.63287885 3:0.13094723 4:0.48478021 5:0.75026698 6:0.28526812 
1 1:0.57649177 2:0.7274951 3:0.13660391 4:0.28660625 5:0.36733388 6:0.16857808 
1 1:0.62784659 2:0.51082479 3:0.91633618 4:0.58960419 5:0.68582224 6:0.45062371 
1 1:0.62058979 2:0.58252499 3:0.83455417 4:0.34205748 5:0.13325301 6:0.9109449 
1 1:0.35806483 2:0.086610175 3:0.56238231 4:0.70308197 5:0.18255393 6:0.92149546 
1 1:0.49895652 2:0.10750078 3:0.36986443 4:0.89470672 5:0.78632857 6:0.69445164 
1 1:0.63625287 2:0.33543896 3:0.23622012 4:0.67931116 5:0.70012622 6:0.25679127 
1 1:0.73845235 2:0.96402144 3:0.59348964 4:0.38432655 5:0.44486177 6:0.43212204 
1 1:0.7718314 2:0.570749 3:0.87541672 4:0.17321709 5:0.55620235 6:0.37989651 
1 1:0.66433789 2:0.51576852 3:0.13572303 4:0.63534595 5:0.51619718 6:0.12667638 
1 1:0.74625328 2:0.1968605 3:0.22535896 4:0.51640115 5:0.36083681 6:0.41345405 
1 1:0.55486387 2:0.77161128 3:0.79959819 4:0.84649866 5:0.60576413 6:0.82916352 
1 1:0.3696591 2:0.66201447 3:0.86301278 4:0.93878195 5:0.62363269 6:0.19366648 
1 1:0.44035526 2:0.03756311 3:0.41673427 4:0.93660526 5:0.69726317 6:0.60437128 
1 1:0.17173222 2:0.66279468 3:0.42338554 4:0.044898586 5:0.8551106 6:0.15665246 
1 1:0.29720874 2:0.51246075 3:0.8278185 4:0.27731257 5:0.64394545 6:0.8947817 
1 1:0.79240902 2:0.63362568 3:0.74042404 4:0.68312338 5:0.46572503 6:0.049423095 
1 1:0.1786285 2:0.26480747 3:0.81545463 4:0.7109351 5:0.67840763 6:0.3922144 
1 1:0.21192048 2:0.08649078 3:0.45963621 4:0.79702966 5:0.47443544 6:0.7532342 
1 1:0.44166086 2:0.87343706 3:0.76400754 4:0.48617761 5:0.45199679 6:0.28016497 
1 1:0.42547355 2:0.16515033 3:0.19900956 4:0.45797163 5:0.23318916 6:0.89592036 
1 1:0.97719897 2:0.62735875 3:0.5591141 4:0.42515647 5:0.46206904 6:0.84185884 
1 1:0.87760636 2:0.35573051 3:0.54182716 4:0.77312818 5:0.99406989 6:0.2711594 
1 1:0.24858737 2:0.41959009 3:0.20436648 4:0.71392345 5:0.41304545 6:0.63917045 
1 1:0.20033726 2:0.62511611 3:0.78683385 4:0.203485 5:0.42349331 6:0.95321127 
1 1:0.63924156 2:0.22122276 3:0.78700544 4:0.60803935 5:0.19233332 6:0.10541198 
1 1:0.93733384 2:0.63725198 3:0.67580724 4:0.62716543 5:0.48838691 6:0.51670049 
1 1:0.6261793 2:0.94016073 3:0.61511466 4:0.88458992 5:0.62517958 6:0.21761141 
1 1:0.23195549 2:0.24361133 3:0.20809975 4:0.76281539 5:0.18424175 6:0.40976711 
1 1:0.1163124 2:0.31552184 3:0.36939 4:0.94404384 5:0.83349107 6:0.33802818 
1 1:0.73016017 2:0.83497621 3:0.4809846 4:0.34071714 5:0.69182107 6:0.74055323 
1 1:0.77432739 2:0.80094873 3:0.46679203 4:0.051697507 5:0.76508756 6:0.85010085 
1 1:0.78252191 2:0.11425923 3:0.49299302 4:0.54412258 5:0.64709406 6:0.32534578 
1 1:0.79378582 2:0.60678645 3:0.24344841 4:0.57373383 5:0.66059109 6:0.72260334 
1 1:0.59626859 2:0.47984805 3:0.79332405 4:0.88741287 5:0.1914909 6:0.42086597 
1 1:0.22665833 2:0.86028884 3:0.52775567 4:0.84664344 5:0.22148629 6:0.23509033 
1 1:0.12555789 2:0.75525406 3:0.63650712 4:0.16635003 5:0.63447634 6:0.55705755 
1 1:0.061422981 2:0.26129216 3:0.4829603 4:0.10186987 5:0.38826659 6:0.82874723 
1 1:0.42301874 2:0.93506185 3:0.56900634 4:0.74249858 5:0.73115017 6:0.80348246 
1 1:0.64907308 2:0.93110505 3:0.43172291 4:0.92348457 5:0.504376 6:0.4351344 
1 1:0.57865436 2:0.39402976 3:0.81089325 4:0.96130594 5:0.68132711 6:0.85827516 
1 1:0.4635398 2:0.22766731 3:0.18737926 4:0.74112059 5:0.63390564 6:0.9463182 
1 1:0.31518286 2:0.83962582 3:0.68373767 4:0.81532642 5:0.45961274 6:0.039680162 
1 1:0.4703712 2:0.84127573 3:0.73329942 4:0.42496338 5:0.24137559 6:0.33019265 
1 1:0.6815738 2:0.96876215 3:0.31829954 4:0.47626137 5:0.48724602 6:0.59604762 
1 1:0.56682237 2:0.76661306 3:0.22024775 4:0.48228718 5:0.54315339 6:0.97342121 
1 1:0.24452494 2:0.26997457 3:0.22407403 4:0.90913546 5:0.59569351 6:0.78978035 
1 1:0.241991 2:0.41773793 3:0.1341059 4:0.87835342 5:0.48991546 6:0.56752291 
1 1:0.30310915 2:0.23819492 3:0.80807978 4:0.62569436 5:0.35133223 6:0.98644368 
1 1:0.11466766 2:0.80857119 3:0.52590907 4:0.91264648 5:0.37510334 6:0.36149299 
1 1:0.63778408 2:0.71634018 3:0.23025898 4:0.39486696 5:0.35801001 6:0.6718294 
1 1:0.13925892 2:0.42364018 3:0.249623 4:0.78920361 5:0.27136447 6:0.75800782 
1 1:0.77771864 2:0.6594953 3:0.74712748 4:0.15183984 5:0.23726759 6:0.52765258 
1 1:0.95459283 2:0.39477387 3:0.52468187 4:0.11153384 5:0.68380208 6:0.59091171 
1 1:0.52610136 2:0.1327649 3:0.76436766 4:0.73557046 5:0.95642266 6:0.57903497 
1 1:0.088687048 2:0.69240832 3:0.44046503 4:0.88912299 5:0.52476552 6:0.37704867 
1 1:0.69068656 2:0.93284875 3:0.42473782 4:0.86669264 5:0.72885081 6:0.22449502 
1 1:0.91388532 2:0.43023184 3:0.73646769 4:0.74524901 5:0.462486 6:0.78038234 
1 1:0.99749147 2:0.5296569 3:0.48026166 4:0.40440365 5:0.30744147 6:0.57008796 
0.09998212573740804 1:0.75551327 2:0.75459937 3:0.27343586 4:0.15953251 5:0.20772469 6:0.11204431 
1 1:0.25580942 2:0.081164135 3:0.41249286 4:0.45275971 5:0.62026055 6:0.069742538 
1 1:0.76965365 2:0.20991845 3:0.30711821 4:0.59305007 5:0.20932843 6:0.41928064 
1 1:0.12831217 2:0.7155854 3:0.34768728 4:0.2071178 5:0.24587062 6:0.56007374 
1 1:0.42906082 2:0.19442004 3:0.86945995 4:0.77164112 5:0.39827335 6:0.63944515 
1 1:0.35072426 2:0.2520989 3:0.19967143 4:0.63150934 5:0.49566259 6:0.99353866 
1 1:0.6495561 2:0.18304391 3:0.77318424 4:0.17346638 5:0.49438222 6:0.84458433 
1 1:0.86571181 2:0.46092714 3:0.29686025 4:0.8136689 5:0.43709363 6:0.26969533 
1 1:0.35943621 2:0.042859743 3:0.62656259 4:0.66582273 5:0.62843506 6:0.6481076 
1 1:0.64352159 2:0.85629895 3:0.27952813 4:0.91509087 5:0.25705091 6:0.32539505 
1 1:0.19385225 2:0.74059285 3:0.31124488 4:0.26928048 5:0.29427092 6:0.83885188 
1 1:0.6167445 2:0.22296786 3:0.20513927 4:0.78403633 5:0.62738348 6:0.093993852 
1 1:0.38761009 2:0.4556161 3:0.12795927 4:0.19478997 5:0.72226734 6:0.36965427 
1 1:0.80464948 2:0.26033687 3:0.300774 4:0.79966846 5:0.9113095 6:0.29382055 
1 1:0.50798715 2:0.50755077 3:0.81488552 4:0.085016697 5:0.82554547 6:0.47166636 
1 1:0.57856316 2:0.27344019 3:0.11041764 4:0.47607189 5:0.60227809 6:0.32246891 
1 1:0.66289358 2:0.097400593 3:0.40451179 4:0.44233023 5:0.85702394 6:0.14500008 
1 1:0.32641262 2:0.075139972 3:0.63593371 4:0.23295568 5:0.294492 6:0.37729491 
1 1:0.56423338 2:0.77805217 3:0.26118044 4:0.69588232 5:0.43531759 6:0.034685153 
1 1:0.1072303 2:0.59204069 3:0.52975897 4:0.0767051 5:0.26335349 6:0.31056484 
1 1:0.87549399 2:0.63896968 3:0.25798866 4:0.79798643 5:0.40898978 6:0.43367372 
1 1:0.22607866 2:0.17962109 3:0.47123897 4:0.034181453 5:0.46667273 6:0.58263943 
1 1:0.74741547 2:0.38988547 3:0.768324 4:0.6550365 5:0.42600625 6:0.45144949 
1 1:0.89708426 2:0.59801692 3:0.64312937 4:0.040728884 5:0.35789434 6:0.54753524 
1 1:0.79296551 2:0.25628725 3:0.5203453 4:0.089413197 5:0.82049608 6:0.76772008 
1 1:0.67852848 2:0.17830808 3:0.23622435 4:0.53660131 5:0.53983156 6:0.042412676 
1 1:0.17931088 2:0.73315638 3:0.66734765 4:0.15252951 5:0.079296295 6:0.28790591 
1 1:0.75510169 2:0.36838743 3:0.35467709 4:0.36411461 5:0.24233732 6:0.46749877 
1 1:0.54312358 2:0.81288766 3:0.83699168 4:0.16963382 5:0.69694329 6:0.58844354 
1 1:0.63086507 2:0.58620282 3:0.87382332 4:0.13860218 5:0.74991768 6:0.52663038 
0.8045985568408975 1:0.24003194 2:0.048676041 3:0.39623364 4:0.39453191 5:0.23034886 6:0.70841786 
1 1:0.70167065 2:0.83757973 3:0.24292104 4:0.62885534 5:0.53848167 6:0.60143652 
1 1:0.17482691 2:0.27313668 3:0.7133457 4:0.22662734 5:0.72544328 6:0.57446425 
1 1:0.22780739 2:0.82533061 3:0.3125888 4:0.53057347 5:0.37481789 6:0.31400305 
1 1:0.41133377 2:0.27748992 3:0.15930231 4:0.55386163 5:0.70827278 6:0.55142676 
1 1:0.80323146 2:0.10669339 3:0.53678023 4:0.79350945 5:0.35127049 6:0.29036815 
1 1:0.18178945 2:0.4089704 3:0.1975769 4:0.83458679 5:0.20858933 6:0.51961488 
1 1:0.77512246 2:0.54635761 3:0.29743516 4:0.057317283 5:0.4457349 6:0.97076261 
1 1:0.89811614 2:0.28704855 3:0.30716963 4:0.23751452 5:0.58527908 6:0.85764833 
1 1:0.9790996 2:0.54991238 3:0.5380404 4:0.21535518 5:0.28740385 6:0.73422898 
1 1:0.36585182 2:0.48503064 3:0.18172221 4:0.40252951 5:0.62001158 6:0.5660214 
1 1:0.4574819 2:0.31590284 3:0.25064485 4:0.731536 5:0.51324987 6:0.58794605 
1 1:0.98751904 2:0.53817027 3:0.66716728 4:0.80645433 5:0.52498427 6:0.75150229 
1 1:0.94659048 2:0.4451767 3:0.45927597 4:0.56742797 5:0.46540691 6:0.33615222 
1 1:0.46807204 2:0.39975134 3:0.83677334 4:0.15090834 5:0.44457066 6:0.47475623 
1 1:0.84813367 2:0.68597765 3:0.45312526 4:0.94414496 5:0.70478592 6:0.24659186 
1 1:0.25594396 2:0.96647848 3:0.434451 4:0.60373955 5:0.69449475 6:0.41377275 
1 1:0.80454149 2:0.18225442 3:0.7135589 4:0.63279654 5:0.60876524 6:0.5136487 
1 1:0.52308188 2:0.57869157 3:0.87653593 4:0.094233994 5:0.61559874 6:0.93526306 
1 1:0.77265712 2:0.89655276 3:0.45573843 4:0.31163459 5:0.42404492 6:0.65743048 
1 1:0.43074514 2:0.95258875 3:0.46161114 4:0.13363939 5:0.48069643 6:0.70554156 
1 1:0.86360272 2:0.56981786 3:0.35714741 4:0.80679363 5:0.65953169 6:0.52277112 
1 1:0.71551324 2:0.28587523 3:0.79824023 4:0.063445109 5:0.18671799 6:0.69790415 
1 1:0.52300004 2:0.57462819 3:0.17849171 4:0.43409547 5:0.19789602 6:0.18332741 
1 1:0.2211599 2:0.54158383 3:0.82134425 4:0.74924413 5:0.26632577 6:0.66347681 
1 1:0.86652691 2:0.83008776 3:0.33159659 4:0.72527035 5:0.51350916 6:0.35971712 
1 1:0.044063147 2:0.72270972 3:0.65883141 4:0.20721297 5:0.47515461 6:0.50624749 
1 1:0.20945233 2:0.5173263 3:0.78171958 4:0.78670849 5:0.60673109 6:0.64552629 
1 1:0.49924358 2:0.86902419 3:0.85842323 4:0.51431369 5:0.69326007 6:0.56216046 
1 1:0.49177343 2:0.36524488 3:0.1358221 4:0.247937 5:0.35801832 6:0.35005097 
1 1:0.018576649 2:0.6637319 3:0.58046091 4:0.31979931 5:0.70885682 6:0.18054302 
1 1:0.29468104 2:0.79154841 3:0.24226346 4:0.54621327 5:0.19162979 6:0.51907496 
1 1:0.11862771 2:0.72893392 3:0.71564116 4:0.50859276 5:0.84965426 6:0.37570128 
1 1:0.38458059 2:0.67158601 3:0.16393858 4:0.48489009 5:0.15293924 6:0.55207033 
1 1:0.33260221 2:0.65916654 3:0.82909062 4:0.79546366 5:0.80041865 6:0.2505722 
1 1:0.91506384 2:0.62998671 3:0.35128344 4:0.77660769 5:0.63641407 6:0.18011743 
1 1:0.6994394 2:0.71315138 3:0.83572231 4:0.97932627 5:0.34587808 6:0.75365707 
1 1:0.37512187 2:0.98380938 3:0.39481827 4:0.46817057 5:0.34038051 6:0.77074136 
1 1:0.34475389 2:0.62672925 3:0.18893844 4:0.35773914 5:0.74899549 6:0.024395417 
1 1:0.96545584 2:0.60867638 3:0.65556991 4:0.44779415 5:0.6093198 6:0.15068281 
1 1:0.61629826 2:0.69108016 3:0.748992 4:0.28998304 5:0.46098501 6:0.034386149 
1 1:0.18631255 2:0.17766693 3:0.54372003 4:0.088881356 5:0.73864173 6:0.40426072 
1 1:0.59686198 2:0.94987752 3:0.70033289 4:0.22753471 5:0.3967766 6:0.51634374 
1 1:0.35882334 2:0.026728208 3:0.48745605 4:0.5748244 5:0.74221213 6:0.20699971 
1 1:0.034381419 2:0.6100089 3:0.43845396 4:0.27697467 5:0.60328731 6:0.34726614 
1 1:0.20417153 2:0.65335587 3:0.31839661 4:0.90648261 5:0.29539877 6:0.64268183 
1 1:0.34853783 2:0.38524113 3:0.14266633 4:0.24539266 5:0.46304971 6:0.94830893 
1 1:0.39782222 2:0.33141169 3:0.89192579 4:0.64725351 5:0.85423058 6:0.42499784 
1 1:0.62267215 2:0.97016283 3:0.52873393 4:0.250151 5:0.32989659 6:0.20999847 
1 1:0.20476539 2:0.71614668 3:0.31767953 4:0.69511837 5:0.56129353 6:0.70993663 
1 1:0.16212334 2:0.36075892 3:0.80767482 4:0.49242605 5:0.62219403 6:0.47958838 
1 1:0.32425813 2:0.85556764 3:0.41048296 4:0.20134024 5:0.27180465 6:0.17957512 
1 1:0.79796867 2:0.44391276 3:0.71324712 4:0.3632427 5:0.38901546 6:0.95672606 
0.08307873053401156 1:0.63117219 2:0.17910594 3:0.23441407 4:0.53422088 5:0.081491555 6:0.19196543 
1 1:0.79965738 2:0.20329679 3:0.76716505 4:0.83394019 5:0.53460325 6:0.52412848 
1 1:0.2742595 2:0.12351623 3:0.68206496 4:0.77352334 5:0.21469065 6:0.52399398 
1 1:0.39631897 2:0.25551026 3:0.22851785 4:0.53693028 5:0.79210501 6:0.048978336 
1 1:0.37953105 2:0.63002535 3:0.1159014 4:0.022929622 5:0.67261528 6:0.52750526 
1 1:0.42522301 2:0.86589196 3:0.78383135 4:0.9582195 5:0.62801803 6:0.39760509 
1 1:0.69354078 2:0.67630261 3:0.8114006 4:0.97909552 5:0.4536198 6:0.40133548 
1 1:0.43054338 2:0.99952108 3:0.68904162 4:0.51100128 5:0.68839582 6:0.67221598 
1 1:0.94521895 2:0.65036597 3:0.56818981 4:0.49090512 5:0.7847348 6:0.62132714 
1 1:0.59469166 2:0.03201264 3:0.37277185 4:0.47553415 5:0.40759035 6:0.52239268 
1 1:0.67999099 2:0.043307234 3:0.60108419 4:0.37805698 5:0.61455744 6:0.36290243 
1 1:0.98306147 2:0.54299366 3:0.38601994 4:0.39696459 5:0.52825808 6:0.23824016 
1 1:0.20721259 2:0.63689513 3:0.20631625 4:0.17176326 5:0.65445427 6:0.76448301 
1 1:0.52284719 2:0.0061280312 3:0.49567116 4:0.6497593 5:0.30701952 6:0.33812619 
1 1:0.27399123 2:0.44909151 3:0.8084051 4:0.18222403 5:0.20072192 6:0.19025934 
1 1:0.53263658 2:0.60663256 3:0.80052899 4:0.31576484 5:0.46275881 6:0.88554795 
1 1:0.37509812 2:0.9219808 3:0.27887477 4:0.58807006 5:0.63573113 6:0.38689188 
1 1:0.52620828 2:0.50076472 3:0.29346842 4:0.2166189 5:0.4665407 6:0.9917356 
1 1:0.3137647 2:0.44794677 3:0.20072479 4:0.010378525 5:0.60963312 6:0.28731562 
1 1:0.62092794 2:0.89675979 3:0.43617573 4:0.45702217 5:0.35730721 6:0.57697845 
1 1:0.39239592 2:0.89798273 3:0.65913166 4:0.94889116 5:0.37941508 6:0.23461534 
1 1:0.44609555 2:0.12643356 3:0.74254586 4:0.12139578 5:0.68455887 6:0.23363812 
0.7320419352587338 1:0.61738319 2:0.032781697 3:0.37729073 4:0.18314364 5:0.19676224 6:0.55226704 
1 1:0.36797805 2:0.83646812 3:0.81002147 4:0.33510191 5:0.58244603 6:0.084400847 
1 1:0.45290175 2:0.70088225 3:0.78336938 4:0.62909127 5:0.63404917 6:0.81249774 
1 1:0.27753132 2:0.76016878 3:0.46354771 4:0.58593513 5:0.5327071 6:0.66485883 
1 1:0.80434317 2:0.20620114 3:0.28035329 4:0.3535252 5:0.47993473 6:0.31791635 
1 1:0.9764883 2:0.42700551 3:0.42376002 4:0.56639146 5:0.3751377 6:0.0915597 
1 1:0.13023079 2:0.77658139 3:0.33552213 4:0.54583678 5:0.60082671 6:0.16714388 
1 1:0.80802271 2:0.31495325 3:0.16190296 4:0.65809426 5:0.42561484 6:0.46363458 
1 1:0.68053475 2:0.42256191 3:0.17511287 4:0.18648663 5:0.93100975 6:0.42139718 
1 1:0.96329951 2:0.42027004 3:0.5756174 4:0.54286987 5:0.60061285 6:0.46379121 
1 1:0.71707577 2:0.24939529 3:0.77339477 4:0.40121072 5:0.51050635 6:0.75573126 
1 1:0.49560402 2:0.055614489 3:0.6243644 4:0.51937997 5:0.82473555 6:0.20594076 
1 1:0.55650313 2:0.076466811 3:0.41739907 4:0.06308512 5:0.18306868 6:0.32491633 
1 1:0.13989456 2:0.83958822 3:0.42727916 4:0.40335627 5:0.41465048 6:0.54384697 
1 1:0.76143388 2:0.23726781 3:0.55077038 4:0.48110934 5:0.83891687 6:0.055969022 
1 1:0.37109634 2:0.38143131 3:0.82039492 4:0.58895407 5:0.42748409 6:0.010434299 
1 1:0.42077099 2:0.96855085 3:0.42326615 4:0.97743526 5:0.42963436 6:0.51025789 
1 1:0.4737037 2:0.96497842 3:0.44878932 4:0.53443423 5:0.26273548 6:0.54423621 
1 1:0.54360642 2:0.78984394 3:0.74321962 4:0.96093909 5:0.40535719 6:0.45750468 
1 1:0.12610098 2:0.74229314 3:0.35052833 4:0.3343464 5:0.32037308 6:0.063156298 
1 1:0.28080712 2:0.55489367 3:0.91671304 4:0.28055139 5:0.49391378 6:0.65872084 
1 1:0.69598457 2:0.93059314 3:0.50307448 4:0.088668269 5:0.17603982 6:0.60053552 
1 1:0.14802217 2:0.80341256 3:0.51959432 4:0.77162959 5:0.70508794 6:0.21503471 
1 1:0.77207713 2:0.24563182 3:0.67660912 4:0.7063539 5:0.32530722 6:0.099533914 
1 1:0.46723156 2:0.60964453 3:0.8969912 4:0.86245387 5:0.6237019 6:0.90134107 
1 1:0.59428367 2:0.11411198 3:0.79514097 4:0.21787326 5:0.46396278 6:0.6670851 
1 1:0.79039029 2:0.29743348 3:0.4009175 4:0.65770562 5:0.40209323 6:0.25884799 
1 1:0.36947717 2:0.60451381 3:0.85734411 4:0.53487582 5:0.68831953 6:0.2710082 
1 1:0.58098278 2:0.50748626 3:0.84292253 4:0.21541163 5:0.48352455 6:0.97384196 
1 1:0.25643327 2:0.28199455 3:0.26031218 4:0.57003313 5:0.69682896 6:0.76797731 
1 1:0.48693196 2:0.34876591 3:0.18595469 4:0.96410439 5:0.29234845 6:0.87436266 
1 1:0.23794151 2:0.57413118 3:0.18796402 4:0.98460513 5:0.19458997 6:0.39827299 
1 1:0.80055571 2:0.31362242 3:0.63294819 4:0.21424445 5:0.65230419 6:0.93536093 
1 1:0.49824327 2:0.357545 3:0.8917177 4:0.48062555 5:0.81006885 6:0.27769501 
1 1:0.10015238 2:0.66526314 3:0.36734059 4:0.20963774 5:0.042918622 6:0.57821616 
1 1:0.87607732 2:0.16720043 3:0.44049244 4:0.51811651 5:0.51199382 6:0.21285827 
1 1:0.096789782 2:0.76964605 3:0.41806347 4:0.26200724 5:0.86167657 6:0.43831513 
1 1:0.13148214 2:0.85409672 3:0.40978404 4:0.64967314 5:0.57088583 6:0.73545441 
1 1:0.89173253 2:0.54770596 3:0.67515664 4:0.73547316 5:0.72051157 6:0.17773488 
1 1:0.68951215 2:0.34038078 3:0.77349979 4:0.83307432 5:0.25381468 6:0.59514522 
1 1:0.33643333 2:0.98964127 3:0.37673624 4:0.35822923 5:0.41818363 6:0.44703292 
1 1:0.1211537 2:0.18786998 3:0.56914125 4:0.74255889 5:0.71936012 6:0.84747189 
1 1:0.98766747 2:0.53405426 3:0.64715983 4:0.59325548 5:0.39055689 6:0.7320758 
1 1:0.069253484 2:0.33175837 3:0.42532853 4:0.34985973 5:0.63187275 6:0.46552986 
1 1:0.34539732 2:0.3167244 3:0.84884092 4:0.89598649 5:0.60097304 6:0.76763618 
1 1:0.031207398 2:0.60490922 3:0.62328848 4:0.70113442 5:0.29637884 6:0.58808408 
1 1:0.35495149 2:0.54583247 3:0.26386921 4:0.53320433 5:0.37656762 6:0.55594859 
1 1:0.18943102 2:0.79421008 3:0.37573843 4:0.10566281 5:0.68159462 6:0.741297 
1 1:0.36865447 2:0.39635606 3:0.1188178 4:0.4458515 5:0.35629909 6:0.72481037 
1 1:0.61107378 2:0.14979864 3:0.68574414 4:0.42820902 5:0.91773012 6:0.70721821 
1 1:0.66256664 2:0.3357448 3:0.17479453 4:0.92476838 5:0.19738454 6:0.64699158 
1 1:0.56258449 2:0.41830267 3:0.79065162 4:0.42030164 5:0.50364329 6:0.050954098 
1 1:0.53388863 2:0.49131635 3:0.91410768 4:0.29951124 5:0.629872 6:0.6640907 
1 1:0.81286894 2:0.34718783 3:0.33541353 4:0.81643947 5:0.66243085 6:0.53359546 
1 1:0.60109486 2:0.20102196 3:0.19958756 4:0.74051565 5:0.74182205 6:0.075058422 
1 1:0.71256731 2:0.062573072 3:0.56584391 4:0.26497544 5:0.72724161 6:0.376176 
1 1:0.62822471 2:0.30270694 3:0.88829251 4:0.70490815 5:0.62831049 6:0.36572321 
1 1:0.17723167 2:0.64364951 3:0.21150046 4:0.49539423 5:0.87571281 6:0.69483812 
1 1:0.63341981 2:0.86931484 3:0.38939424 4:0.52782309 5:0.81308417 6:0.31300732 
1 1:0.58687973 2:0.038291436 3:0.43522653 4:0.4956082 5:0.31685063 6:0.44517349 
1 1:0.87870026 2:0.83762555 3:0.47133055 4:0.87855066 5:0.41329173 6:0.53679884 
1 1:0.1717927 2:0.78787237 3:0.34762393 4:0.10988824 5:0.30001071 6:0.82158161 
1 1:0.55003013 2:0.054800668 3:0.45291093 4:0.87080673 5:0.44734709 6:0.63099176 
1 1:0.064980567 2:0.70355899 3:0.6386564 4:0.70803664 5:0.40462435 6:0.20560939 
1 1:0.8398617 2:0.7883225 3:0.66570723 4:0.59150228 5:0.34063564 6:0.042903131 
1 1:0.46063137 2:0.15209247 3:0.23652209 4:0.19359615 5:0.61094439 6:0.21769265 
1 1:0.70710364 2:0.58878527 3:0.13750007 4:0.49026191 5:0.93545161 6:0.22459113 
1 1:0.54816334 2:0.46298284 3:0.84209572 4:0.10330776 5:0.53122453 6:0.0097362181 
1 1:0.86994945 2:0.68453222 3:0.74818165 4:0.6801115 5:0.6760398 6:0.14102862 
1 1:0.54379434 2:0.74974887 3:0.82165049 4:0.79556155 5:0.53748042 6:0.15217972 
1 1:0.17994932 2:0.23414353 3:0.37425308 4:0.45923728 5:0.94613525 6:0.98404833 
1 1:0.93194318 2:0.47955194 3:0.53472742 4:0.63030992 5:0.49254701 6:0.70045661 
1 1:0.37384051 2:0.18683949 3:0.20344163 4:0.73644026 5:0.58588769 6:0.22333901 
1 1:0.8006862 2:0.44259618 3:0.85110014 4:0.41796539 5:0.54875804 6:0.81499806 
1 1:0.56364965 2:0.92240164 3:0.2942363 4:0.34440462 5:0.14382714 6:0.70488787 
1 1:0.78335341 2:0.56683232 3:0.29591012 4:0.21126885 5:0.69616851 6:0.18033191 
1 1:0.53144161 2:0.20003626 3:0.21868588 4:0.86766205 5:0.70933407 6:0.18371044 
1 1:0.18347653 2:0.48181311 3:0.29564093 4:0.67872925 5:0.40336065 6:0.47726382 
1 1:0.76958515 2:0.16085745 3:0.45087572 4:0.20710923 5:0.72101507 6:0.27171028 
1 1:0.40746659 2:0.60639673 3:0.16448923 4:0.16151578 5:0.7484124 6:0.57429646 
1 1:0.042268369 2:0.33916261 3:0.39049153 4:0.51294318 5:0.75057731 6:0.56756739 
1 1:0.89651352 2:0.3119338 3:0.53596108 4:0.6262029 5:0.4618844 6:0.80310626 
1 1:0.18601466 2:0.79741301 3:0.64537577 4:0.20556922 5:0.49996952 6:0.16155288 
1 1:0.33655648 2:0.080894556 3:0.70199443 4:0.6636901 5:0.79504663 6:0.34933591 
1 1:0.50691103 2:0.21063679 3:0.22003662 4:0.16731435 5:0.39186495 6:0.17515207 
1 1:0.025284394 2:0.35373084 3:0.59345781 4:0.3912641 5:0.30684856 6:0.6272525 
1 1:0.5064557 2:0.10339367 3:0.56807159 4:0.84466585 5:0.0854026 6:0.34116316 
1 1:0.42639489 2:0.60183638 3:0.24621798 4:0.29369312 5:0.2540282 6:0.40747862 
1 1:0.75791644 2:0.88429912 3:0.35999567 4:0.60985358 5:0.51841286 6:0.86273215 
1 1:0.48493006 2:0.58539889 3:0.82048721 4:0.86439586 5:0.98347454 6:0.60919091 
1 1:0.58567579 2:0.60741155 3:0.81395109 4:0.63423213 5:0.46456489 6:0.87468272 
1 1:0.56932496 2:0.37855375 3:0.81231387 4:0.74775385 5:0.24804318 6:0.86153644 
1 1:0.43960673 2:0.50097532 3:0.88078431 4:0.59131046 5:0.56887684 6:0.64606174 
1 1:0.55943218 2:0.75235327 3:0.88010607 4:0.42058898 5:0.5048254 6:0.64445049 
1 1:0.19059893 2:0.16026938 3:0.52258522 4:0.55844191 5:0.2683096 6:0.046266637 
1 1:0.64192231 2:0.65839302 3:0.86043879 4:0.76125633 5:0.13241873 6:0.25187517 
1 1:0.73297528 2:0.40393178 3:0.85336091 4:0.7583554 5:0.70125867 6:0.50811415 
1 1:0.90458152 2:0.47707985 3:0.43909887 4:0.6937526 5:0.34508314 6:0.74924944 
1 1:0.8526979 2:0.89168001 3:0.55114407 4:0.40440335 5:0.53357281 6:0.59499082 
1 1:0.33635415 2:0.46733076 3:0.77850511 4:0.014538355 5:0.77017658 6:0.73252798 
1 1:0.39022994 2:0.55874189 3:0.82927813 4:0.56083463 5:0.40121543 6:0.2255244 
1 1:0.26026224 2:0.53767162 3:0.29117874 4:0.049061504 5:0.66315297 6:0.9834548 
1 1:0.61412734 2:0.52056255 3:0.21235291 4:0.77103439 5:0.41689226 6:0.88371368 
1 1:0.42308923 2:0.76695885 3:0.88691732 4:0.49123605 5:0.6967228 6:0.35067512 
1 1:0.22941633 2:0.21262578 3:0.43332531 4:0.89336075 5:0.38401778 6:0.62612299 
1 1:0.7706126 2:0.88548095 3:0.40881947 4:0.36299444 5:0.77788959 6:0.93065112 
1 1:0.49130997 2:0.13144066 3:0.34761167 4:0.51302526 5:0.48169756 6:0.95624342 
1 1:0.14887761 2:0.62809204 3:0.22832553 4:0.36308303 5:0.25265664 6:0.54865006 
1 1:0.27362608 2:0.34161025 3:0.25025362 4:0.44499606 5:0.50813831 6:0.2649627 
1 1:0.43819819 2:0.7879411 3:0.16014279 4:0.53949866 5:0.61413741 6:0.35474535 
1 1:0.34496176 2:0.14510109 3:0.56479763 4:0.5425637 5:0.73514848 6:0.38781801 
1 1:0.41016543 2:0.079220493 3:0.33598954 4:0.75832321 5:0.74155144 6:0.37310255 
1 1:0.76765857 2:0.94241221 3:0.44458804 4:0.36984936 5:0.67396217 6:0.10306544 
1 1:0.73274739 2:0.21449778 3:0.5696059 4:0.57254572 5:0.55277248 6:0.22582152 
1 1:0.24344046 2:0.73195975 3:0.26473901 4:0.62953839 5:0.35539558 6:0.64794077 
1 1:0.85288327 2:0.86644575 3:0.54949734 4:0.52880227 5:0.84280206 6:0.83201644 
1 1:0.37200804 2:0.46977584 3:0.88308061 4:0.53182173 5:0.4821806 6:0.15095034 
1 1:0.53121078 2:0.54375544 3:0.20087777 4:0.51206172 5:0.55316411 6:0.30839125 
1 1:0.38008575 2:0.96945039 3:0.43746082 4:0.5267978 5:0.709806 6:0.61045348 
1 1:0.87234673 2:0.36446864 3:0.75926548 4:0.46472896 5:0.59763134 6:0.53284303 
1 1:0.73153947 2:0.3855112 3:0.8296449 4:0.071005575 5:0.60714402 6:0.47862491 
1 1:0.37437206 2:0.30738107 3:0.76114197 4:0.69644274 5:0.44118608 6:0.38847144 
1 1:0.56772927 2:0.10810961 3:0.37321793 4:0.71488023 5:0.92511701 6:0.43882521 
1 1:0.59166647 2:0.4829895 3:0.29671662 4:0.11718679 5:0.63958473 6:0.070011601 
1 1:0.61819629 2:0.056514759 3:0.45581504 4:0.46707359 5:0.096542569 6:0.67574038 
1 1:0.31384496 2:0.97606717 3:0.47939171 4:0.47259888 5:0.48267187 6:0.89562266 
1 1:0.1932719 2:0.53580712 3:0.15265252 4:0.3659318 5:0.51964639 6:0.22203029 
1 1:0.74176529 2:0.836282 3:0.69383912 4:0.58377247 5:0.55723551 6:0.5394355 
1 1:0.35534413 2:0.65831387 3:0.79620257 4:0.19741406 5:0.4351717 6:0.72441386 
1 1:0.15320209 2:0.90146385 3:0.57618981 4:0.3101721 5:0.33771575 6:0.30914548 
1 1:0.46697561 2:0.44665236 3:0.86118936 4:0.17741401 5:0.31781461 6:0.15429273 
1 1:0.68104095 2:0.8863379 3:0.30775254 4:0.66249929 5:0.61990443 6:0.84812612 
1 1:0.44251026 2:0.437184 3:0.85485344 4:0.6494051 5:0.40993554 6:0.38065813 
1 1:0.0045675291 2:0.37457143 3:0.48237286 4:0.54093902 5:0.39162826 6:0.59622418 
1 1:0.58367229 2:0.56316103 3:0.24270431 4:0.24878602 5:0.44925668 6:0.036748906 
1 1:0.6061449 2:0.3314227 3:0.12676846 4:0.68824991 5:0.59170522 6:0.88014835 
1 1:0.65142325 2:0.25271784 3:0.25320756 4:0.64423685 5:0.62068965 6:0.4185129 
1 1:0.70792088 2:0.33632808 3:0.81473418 4:0.21084678 5:0.60132295 6:0.79712339 
1 1:0.87263378 2:0.39392346 3:0.29331817 4:0.11441755 5:0.59351121 6:0.48543572 
1 1:0.8973937 2:0.3249086 3:0.33081869 4:0.50827163 5:0.89570448 6:0.46588061 
1 1:0.60315126 2:0.76468666 3:0.1913723 4:0.86334025 5:0.40396509 6:0.10902518 
1 1:0.96481814 2:0.41670149 3:0.42829221 4:0.66382622 5:0.40743878 6:0.20228623 
1 1:0.36764354 2:0.86795528 3:0.71295787 4:0.27779331 5:0.41081543 6:0.43555781 
1 1:0.53626951 2:0.25192929 3:0.18808645 4:0.78593511 5:0.53059962 6:0.25557062 
1 1:0.31877606 2:0.574617 3:0.21202959 4:0.85285031 5:0.66210666 6:0.89578649 
1 1:0.2544178 2:0.75821958 3:0.29614046 4:0.59847447 5:0.43328289 6:0.84485539 
1 1:0.15730635 2:0.89065764 3:0.64094728 4:0.44014558 5:0.57454523 6:0.5230166 
1 1:0.40704109 2:0.48715224 3:0.190227 4:0.81411243 5:0.42067101 6:0.17172183 
1 1:0.47943399 2:0.5048188 3:0.85648276 4:0.27735255 5:0.32492333 6:0.22697434 
1 1:0.56044129 2:0.55348139 3:0.92981894 4:0.0064306028 5:0.62816821 6:0.67330738 
1 1:0.90915445 2:0.44865569 3:0.44503319 4:0.73057314 5:0.2202405 6:0.22289004 
1 1:0.41519821 2:0.51949303 3:0.091950542 4:0.84912329 5:0.60506159 6:0.6228876 
1 1:0.20305331 2:0.60068273 3:0.24978541 4:0.92232871 5:0.44375235 6:0.72748582 
1 1:0.1864348 2:0.66848269 3:0.58029058 4:0.19403688 5:0.57378113 6:0.15721273 
1 1:0.12440294 2:0.341399 3:0.5308523 4:0.020123227 5:0.18735105 6:0.62996804 
0.9006425596500346 1:0.18752196 2:0.65534656 3:0.21673166 4:0.25585172 5:0.14711253 6:0.27887499 
1 1:0.12506242 2:0.38330003 3:0.28489561 4:0.27775369 5:0.67330416 6:0.78130944 
1 1:0.21445437 2:0.86296155 3:0.48429382 4:0.90216854 5:0.36336177 6:0.21771934 
1 1:0.73459297 2:0.92875161 3:0.54856613 4:0.41942106 5:0.42704744 6:0.044545995 
1 1:0.78829786 2:0.45264678 3:0.84197262 4:0.41478791 5:0.19717969 6:0.35255914 
1 1:0.17746347 2:0.20757155 3:0.45733744 4:0.76024531 5:0.72740385 6:0.69028309 
1 1:0.56123163 2:0.72884431 3:0.86639736 4:0.37840048 5:0.53574168 6:0.23868736 
1 1:0.44594737 2:0.62003548 3:0.12190161 4:0.8133273 5:0.38026361 6:0.33580819 
1 1:0.75905226 2:0.068271716 3:0.50234355 4:0.56760677 5:0.84126694 6:0.2768352 
1 1:0.59241726 2:0.81004019 3:0.31579417 4:0.011544797 5:0.42461127 6:0.23665274 
1 1:0.95654429 2:0.57617625 3:0.50119008 4:0.82591252 5:0.8094171 6:0.49190468 
1 1:0.86212751 2:0.77539542 3:0.36998445 4:0.050356298 5:0.71281803 6:0.61752287 
1 1:0.58703644 2:0.19817852 3:0.27257471 4:0.15655435 5:0.82793674 6:0.29270508 
1 1:0.53439002 2:0.57100069 3:0.062452346 4:0.082370394 5:0.62591791 6:0.56997142 
1 1:0.84501401 2:0.19237632 3:0.3136199 4:0.74899709 5:0.30756001 6:0.60335811 
1 1:0.9750702 2:0.70618236 3:0.50987267 4:0.95555487 5:0.57197034 6:0.50484009 
1 1:0.38731836 2:0.93386216 3:0.78987946 4:0.35956544 5:0.47526551 6:0.5128947 
1 1:0.11142884 2:0.71061164 3:0.45458903 4:0.2409277 5:0.60744061 6:0.76470872 
1 1:0.91449946 2:0.7056928 3:0.25189509 4:0.44916214 5:0.52996957 6:0.45625088 
1 1:0.29594299 2:0.25998506 3:0.38731875 4:0.39789749 5:0.57841646 6:0.86884378 
1 1:0.92939873 2:0.70811533 3:0.70376398 4:0.55264185 5:0.56437581 6:0.80087846 
1 1:0.19561285 2:0.77016212 3:0.4367749 4:0.11799721 5:0.31132654 6:0.34731161 
1 1:0.5524842 2:0.91127132 3:0.78391685 4:0.13512911 5:0.46609356 6:0.72475742 
1 1:0.50294303 2:0.2008101 3:0.30846792 4:0.69148253 5:0.5280352 6:0.88821331 
1 1:0.15126354 2:0.38179932 3:0.29101695 4:0.73916304 5:0.25035111 6:0.018787414 
1 1:0.93859854 2:0.47547268 3:0.39343871 4:0.93934127 5:0.60426516 6:0.22281493 
1 1:0.094915662 2:0.63074866 3:0.65925948 4:0.26332903 5:0.75824789 6:0.19967362 
1 1:0.81382848 2:0.1670883 3:0.64404288 4:0.00041641904 5:0.4625474 6:0.61868243 
1 1:0.16033918 2:0.81886653 3:0.69139518 4:0.41786053 5:0.55585893 6:0.71691472 
1 1:0.31973693 2:0.72701196 3:0.7528699 4:0.5185916 5:0.45077276 6:0.12560076 
1 1:0.18259249 2:0.73879619 3:0.51662404 4:0.53224997 5:0.6468887 6:0.70769159 
1 1:0.62490492 2:0.53742826 3:0.9243339 4:0.86289249 5:0.49335571 6:0.45860905 
1 1:0.1740896 2:0.19030998 3:0.75434129 4:0.34915588 5:0.77498862 6:0.55074224 
1 1:0.37988746 2:0.15964836 3:0.72338866 4:0.65967603 5:0.28541937 6:0.38886518 
1 1:0.44437075 2:0.73789649 3:0.2190412 4:0.9264929 5:0.33632968 6:0.11625206 
1 1:1 2:0.37986007 3:0.5752708 4:0.7902081 5:0.72861197 6:0.54601232 
1 1:0.56591843 2:0.031648849 3:0.56267233 4:0.71750825 5:0.13213512 6:0.3759068 
1 1:0.1509469 2:0.29285871 3:0.29512614 4:0.68712614 5:0.50816485 6:0.30373691 
1 1:0.80290582 2:0.14329065 3:0.56465833 4:0.87584736 5:0.50773803 6:0.8517854 
1 1:0.80910128 2:0.83854975 3:0.55837112 4:0.035106436 5:0.73319574 6:0.49760492 
1 1:0.398898 2:0.08317667 3:0.40231827 4:0.80765337 5:0.37951455 6:0.46449721 
1 1:0.63908642 2:0.87391255 3:0.3216806 4:0.98322358 5:0.24704164 6:0.81601945 
1 1:0.10900095 2:0.41882003 3:0.67997267 4:0.38828272 5:0.20133917 6:0.045879794 
1 1:0.49086894 2:0.7675941 3:0.14699313 4:0.31248444 5:0.67370715 6:0.79710872 
1 1:0.35732375 2:0.40860274 3:0.12578413 4:0.66262249 5:0.52821771 6:0.14108353 
0.2113018739416732 1:0.16116242 2:0.87649581 3:0.46735575 4:0.72098808 5:0.21336092 6:0.82644378 
1 1:0.33109617 2:0.71104789 3:0.75808669 4:0.051202407 5:0.3426178 6:0.5998511 
1 1:0.3886522 2:0.56967232 3:0.87498007 4:0.19882401 5:0.3942275 6:0.95878453 
0.4756089684434524 1:0.24282494 2:0.13862411 3:0.62290247 4:0.13629719 5:0.7280827 6:0.027209794 
1 1:0.84166703 2:0.69500517 3:0.83383238 4:0.6849749 5:0.41569049 6:0.47257954 
1 1:0.82294281 2:0.45482127 3:0.31914821 4:0.24823366 5:0.5448436 6:0.66247043 
1 1:0.31252885 2:0.53281716 3:0.22078398 4:0.96331759 5:0.31304905 6:0.8054386 
1 1:0.79174592 2:0.5079876 3:0.18063028 4:0.71406909 5:0.22004532 6:0.21489293 
1 1:0.8056604 2:0.46668964 3:0.85865027 4:0.82623863 5:0.44112307 6:0.29643802 
1 1:0.78793594 2:0.19826592 3:0.37101119 4:0.5975142 5:0.41467837 6:0.16071843 
1 1:0.82829096 2:0.73375663 3:0.64058158 4:0.2745858 5:0.36130537 6:0.68963514 
1 1:0.57747156 2:0.75864606 3:0.23191244 4:0.45718434 5:0.40582399 6:0.65415272 
1 1:0.083180797 2:0.51465647 3:0.29712419 4:0.13430685 5:0.5901079 6:0.54396453 
1 1:0.52122248 2:0.3238654 3:0.85067739 4:0.29129662 5:0.40103407 6:0.26630541 
1 1:0.3921924 2:0.51817903 3:0.76328207 4:0.64586678 5:0.53673965 6:0.46810319 
1 1:0.26981171 2:0.92106939 3:0.26696507 4:0.33067681 5:0.53681708 6:0.54825501 
1 1:0.83625585 2:0.4848277 3:0.22507402 4:0.4879524 5:0.26249731 6:0.98501654 
0.9346187671911546 1:0.68138815 2:0.37325868 3:0.91317999 4:0.86907702 5:0.56425895 6:0.40475187 
1 1:0.59603711 2:0.93292444 3:0.76803346 4:0.73258585 5:0.55733775 6:0.30740379 
1 1:0.85436202 2:0.51604217 3:0.37054035 4:0.25370854 5:0.55326059 6:0.98589343 
1 1:0.38425471 2:0.66489187 3:0.88138699 4:0.61611796 5:0.58997305 6:0.8911697 
1 1:0.65546924 2:0.051930942 3:0.48408586 4:0.13281009 5:0.82372842 6:0.82520182 
1 1:0.23239505 2:0.88814733 3:0.58608008 4:0.25523238 5:0.58136477 6:0.10445968 
1 1:0.15123622 2:0.1118085 3:0.54939054 4:0.47664359 5:0.76601288 6:0.66568456 
1 1:0.62340078 2:0.60932339 3:0.71252301 4:0.30385087 5:0.49520051 6:0.9655545 
1 1:0.43075981 2:0.77820951 3:0.83962025 4:0.67571302 5:0.9072111 6:0.75238363 
1 1:0.92865257 2:0.70270682 3:0.66456496 4:0.32632024 5:0.51125864 6:0.27713144 
1 1:0.80105983 2:0.42051992 3:0.76930564 4:0.47212704 5:0.78259016 6:0.79857762 
1 1:0.099816459 2:0.41862193 3:0.7040852 4:0.90805126 5:0.60693634 6:0.67630555 
1 1:0.6477759 2:0.51924202 3:0.15601041 4:0.6606166 5:0.66345374 6:0.92728086 
1 1:0.36949073 2:0.24425402 3:0.20997807 4:0.59643164 5:0.14493276 6:0.54399663 
1 1:0.94460283 2:0.7250585 3:0.4895578 4:0.69088683 5:0.26646414 6:0.33070042 
1 1:0.24540797 2:0.46647817 3:0.20794733 4:0.37241787 5:0.64413623 6:0.56077469 
1 1:0.70560657 2:0.76340378 3:0.75202628 4:0.77045934 5:0.5778412 6:0.7008972 
1 1:0.39771037 2:0.45963909 3:0.20715783 4:0.27703621 5:0.95648378 6:0.15409054 
1 1:0.34015282 2:0.14123441 3:0.5992357 4:0.97364148 5:0.22996312 6:0.19739009 
1 1:0.61296291 2:0.78559526 3:0.88423046 4:0.49642797 5:0.53419457 6:0.20612559 
1 1:0.32730415 2:0.19947611 3:0.21099301 4:0.49583014 5:0.7871794 6:0.076072667 
1 1:0.013099303 2:0.38399448 3:0.57747774 4:0.27318726 5:0.4327105 6:0.76754505 
1 1:0.21375632 2:0.66970549 3:0.78609528 4:0.63888266 5:0.099575988 6:0.40609735 
1 1:0.6983907 2:0.2641194 3:0.37757369 4:0.82346729 5:0.71433124 6:0.91686559 
1 1:0.57175175 2:0.94927564 3:0.48661462 4:0.74733325 5:0.67567192 6:0.79895478 
1 1:0.63162111 2:0.40099086 3:0.12980839 4:0.32306861 5:0.79562703 6:0.67416075 
1 1:0.31549856 2:0.55783613 3:0.12669975 4:0.25258599 5:0.42844473 6:0.57665724 
1 1:0.51287097 2:0.76672905 3:0.67435943 4:0.068344141 5:0.30050533 6:0.072991001 
1 1:0.78599748 2:0.67681343 3:0.43870944 4:0.81504957 5:0.35430586 6:0.74935336 
1 1:0.59469808 2:0.25680432 3:0.80537055 4:0.66101828 5:0.76653265 6:0.82574753 
1 1:0.25962205 2:0.19812872 3:0.52766146 4:0.014100117 5:0.24106221 6:0.56819941 
1 1:0.75192471 2:0.66021973 3:0.78101112 4:0.64168333 5:0.44416831 6:0.2846633 
1 1:0.52729301 2:0.16854456 3:0.7871589 4:0.43369426 5:0.16935702 6:0.42836132 
1 1:0.54984546 2:0.43535586 3:0.21799707 4:0.82218804 5:0.59034991 6:0.47205234 
1 1:0.087342349 2:0.55591601 3:0.8074451 4:0.76316161 5:0.56896112 6:0.54546699 
1 1:0.16493978 2:0.46363138 3:0.30228339 4:0.2791861 5:0.16140616 6:0.80516094 
1 1:0.59361823 2:0.63785308 3:0.17043831 4:0.19110014 5:0.72288465 6:0.029886199 
1 1:0.29539302 2:0.98220146 3:0.55598798 4:0.41476832 5:0.83410405 6:0.42874058 
1 1:0.14427054 2:0.79830778 3:0.60349234 4:0.92055572 5:0.42444168 6:0.26843781 
1 1:0.18621399 2:0.24068767 3:0.42083505 4:0.10036702 5:0.13630309 6:0.64906276 
1 1:0.66887743 2:0.85969599 3:0.78992343 4:0.53397698 5:0.39415047 6:0.60251583 
1 1:0.57394578 2:0.77166548 3:0.201812 4:0.65680139 5:0.26801746 6:0.61820777 
1 1:0.22830644 2:0.27995982 3:0.25025672 4:0.32303247 5:0.82123602 6:0.56561487 
1 1:0.87001412 2:0.50589576 3:0.64226876 4:0.75666965 5:0.35155453 6:0.17764918 
1 1:0.59153655 2:0.32736478 3:0.23888155 4:0.64889944 5:0.4267422 6:0.0095301148 
1 1:0.57801325 2:0.071778332 3:0.35880295 4:0.13924211 5:0.56996494 6:0.25499797 
1 1:0.5933219 2:0.66686011 3:0.8427599 4:0.27193019 5:0.53884987 6:0.72670477 
1 1:0.77685354 2:0.70728465 3:0.79267294 4:0.30197369 5:0.27136218 6:0.73684291 
1 1:0.35893802 2:0.634987 3:0.21555661 4:0.80710992 5:0.21362639 6:0.33865485 
1 1:0.56747803 2:0.50907875 3:0.8278368 4:0.35948486 5:0.57089508 6:0.8132216 
1 1:0.3223108 2:0.51885076 3:0.82801845 4:0.90785506 5:0.50909145 6:0.80864733 
1 1:0.75866808 2:0.30283132 3:0.82267226 4:0.23702026 5:0.64989355 6:0.25967772 
1 1:0.69047262 2:0.057738092 3:0.63325641 4:0.68727123 5:0.65393234 6:0.50212581 
1 1:0.21926168 2:0.61293868 3:0.77487511 4:0.39301188 5:0.35507895 6:0.98751885 
1 1:0.22310657 2:0.71886267 3:0.38340515 4:0.16960808 5:0.72103901 6:0.30692488 
1 1:0.57059579 2:0.32491579 3:0.92609953 4:0.31540367 5:0.79801798 6:0.448989 
1 1:0.61961531 2:0.82776739 3:0.24126623 4:0.63680168 5:0.47439646 6:0.74269792 
1 1:0.29020919 2:0.35901888 3:0.79008464 4:0.30202069 5:0.15619047 6:0.25793269 
1 1:0.47817924 2:0.43569476 3:0.10700588 4:0.69649338 5:0.27574764 6:0.23356076 
1 1:0.56845215 2:0.21155239 3:0.7306796 4:0.66933854 5:0.48589372 6:0.60521864 
1 1:0.26228169 2:0.53073366 3:0.26783157 4:0.0036143298 5:0.72718232 6:0.63485207 
1 1:0.63496618 2:0.49697345 3:0.89308329 4:0.62963841 5:0.5750009 6:0.54772952 
1 1:0.46012414 2:0.61496609 3:0.771914 4:0.20038127 5:0.68652534 6:0.49069286 
1 1:0.57498665 2:0.31977917 3:0.79041102 4:0.051002833 5:0.14823859 6:0.091276259 
1 1:0.57505159 2:0.3420651 3:0.80751581 4:0.69274257 5:0.87527484 6:0.4976864 
1 1:0.17618645 2:0.21446006 3:0.72479372 4:0.82660449 5:0.39955502 6:0.76895674 
1 1:0.34403654 2:0.47548872 3:0.12826001 4:0.21188466 5:0.40526574 6:0.94938355 
1 1:0.49701947 2:0.076356102 3:0.73245037 4:0.1362454 5:0.63150314 6:0.42828236 
1 1:0.70347416 2:0.68693151 3:0.2588205 4:0.024345906 5:0.61267013 6:0.14761701 
1 1:0.15096604 2:0.70020889 3:0.69907062 4:0.33074215 5:0.9167796 6:0.43565367 
1 1:0.35326658 2:0.044403759 3:0.40193944 4:0.77166686 5:0.6005415 6:0.91854075 
1 1:0.5270099 2:0.28957719 3:0.79667399 4:0.25988194 5:0.4630374 6:0.63941774 
1 1:0.40206486 2:0.78868869 3:0.8054998 4:0.43936712 5:0.35521528 6:0.5003868 
1 1:0.64725246 2:0.82443244 3:0.63556755 4:0.9417647 5:0.49526382 6:0.20904581 
1 1:0.78459902 2:0.85065368 3:0.45360179 4:0.053434736 5:0.22882496 6:0.57715499 
1 1:0.27586542 2:0.67237747 3:0.25782789 4:0.51996232 5:0.57716689 6:0.8088437 
1 1:0.5168695 2:0.68634988 3:0.133983 4:0.73687904 5:0.11662716 6:0.81740562 
1 1:0.69782497 2:0.49849848 3:0.84051642 4:0.6798387 5:0.85805135 6:0.14836797 
1 1:0.14777726 2:0.4579547 3:0.24668943 4:0.90284251 5:0.31960999 6:0.75688242 
1 1:0.5972826 2:0.51136269 3:0.1956859 4:0.75048188 5:0.67430368 6:0.91640649 
1 1:0.1863869 2:0.35696331 3:0.26787076 4:0.64652789 5:0.82774549 6:0.17709391 
1 1:0.54947521 2:0.1023856 3:0.5216142 4:0.07472607 5:0.39653 6:0.12643063 
1 1:0.24696047 2:0.30257997 3:0.20192051 4:0.96781708 5:0.54791235 6:0.36913309 
1 1:0.4974162 2:0.75825538 3:0.15677239 4:0.40120018 5:0.79738363 6:0.16443346 
1 1:0.86228619 2:0.70677873 3:0.36740078 4:0.26658542 5:0.30184559 6:0.43423057 
1 1:0.49948733 2:0.93843119 3:0.23294948 4:0.27797845 5:0.49335165 6:0.65794491 
1 1:0.16223807 2:0.5896251 3:0.46079522 4:0.74714454 5:0.73405067 6:0.24020685 
1 1:0.37838202 2:0.49811393 3:0.86434191 4:0.44934145 5:0.64422078 6:0.69939354 
1 1:0.65420827 2:0.77007216 3:0.23066794 4:0.47850254 5:0.56086657 6:0.25247353 
1 1:0.14235811 2:0.31536149 3:0.77744909 4:0.15810784 5:0.39224329 6:0.68536104 
1 1:0.86014616 2:0.3899528 3:0.34908593 4:0.58888252 5:0.091617054 6:0.93042254 
1 1:0.5584882 2:0.98181789 3:0.48548658 4:0.23494488 5:0.84621999 6:0.54414581 
1 1:0.12458516 2:0.57334371 3:0.56087426 4:0.24240244 5:0.51434722 6:0.32745996 
1 1:0.94290938 2:0.53567946 3:0.75405202 4:0.41002266 5:0.47365901 6:0.58445248 
1 1:0.43244057 2:0.56813402 3:0.7922947 4:0.14715126 5:0.54557062 6:0.14869007 
1 1:0.71724958 2:0.8139961 3:0.26350673 4:0.80433873 5:0.39984469 6:0.9432459 
1 1:0.33447676 2:0.51825325 3:0.19629854 4:0.18532208 5:0.50320763 6:0.77099766 
1 1:0.72114699 2:0.83127734 3:0.73240444 4:0.48857877 5:0.42541867 6:0.4641481 
1 1:0.62067188 2:0.15978938 3:0.32486662 4:0.66440422 5:0.66710954 6:0.47823163 
1 1:0.18589232 2:0.25551284 3:0.62584747 4:0.88873004 5:0.6868758 6:0.91696874 
1 1:0.14169948 2:0.58246844 3:0.80205942 4:0.84350126 5:0.41290662 6:0.68611143 
1 1:0.98025862 2:0.4107117 3:0.49866968 4:0.48195573 5:0.20647703 6:0.51532279 
1 1:0.68023533 2:0.59195986 3:0.22062376 4:0.28829234 5:0.039962982 6:0.81478689 
1 1:0.58128271 2:0.31112441 3:0.88988905 4:0.62242659 5:0.17941399 6:0.58009236 
1 1:0.096808638 2:0.52699912 3:0.31597273 4:0.51195491 5:0.20375378 6:0.10623762 
1 1:0.64202612 2:0.90677178 3:0.36483538 4:0.35174744 5:0.45460373 6:0.032044719 
1 1:0.63055204 2:0.48496815 3:0.79158912 4:0.8247782 5:0.31822414 6:0.75046549 
1 1:0.33576846 2:0.4802839 3:0.77802458 4:0.21826732 5:0.23809853 6:0.080238165 
1 1:0.86853223 2:0.54931646 3:0.6944852 4:0.84517719 5:0.70213265 6:0.66723384 
1 1:0.68776133 2:0.82824927 3:0.2112277 4:0.83523547 5:0.51498733 6:0.20198935 
1 1:0.42589236 2:0.96077866 3:0.39030246 4:0.86217111 5:0.34818021 6:0.32918135 
1 1:0.17296476 2:0.40766752 3:0.85408068 4:0.75372461 5:0.32186489 6:0.43446659 
0.04712883364114293 1:0.29823273 2:0.57369863 3:0.91726144 4:0.81699474 5:0.35533265 6:0.75575436 
1 1:0.068189514 2:0.66094788 3:0.46522753 4:0.53385648 5:0.84457654 6:0.72885983 
1 1:0.49458163 2:0.43951175 3:0.19347815 4:0.7595091 5:0.26433576 6:0.12655992 
1 1:0.44183414 2:0.31245008 3:0.17417223 4:0.27629673 5:0.32640517 6:0.7376893 
1 1:0.75776622 2:0.48156731 3:0.30126311 4:0.40067194 5:0.46563065 6:0.93927162 
1 1:0.72425735 2:0.80427032 3:0.51957944 4:0.42842172 5:0.58582342 6:0.19618974 
1 1:0.098029705 2:0.30777602 3:0.34398325 4:0.2544428 5:0.72399732 6:0.32635464 
1 1:0.78510313 2:0.088626735 3:0.54580673 4:0.56695194 5:0.52504791 6:0.25339867 
1 1:0.39866227 2:0.56291866 3:0.19104654 4:0.67633657 5:0.55555002 6:0.79548267 
1 1:0.41235954 2:0.70369724 3:0.21393941 4:0.85210287 5:0.72502124 6:0.010652704 
1 1:0.47352095 2:0.94663151 3:0.28668106 4:0.099852854 5:0.39115362 6:0.58020904 
1 1:0.76110636 2:0.35822529 3:0.88626957 4:0.7342105 5:0.54035053 6:0.68201667 
1 1:0.038626203 2:0.5345346 3:0.58781167 4:0.32325545 5:0.54360756 6:0.50622164 
1 1:0.53824409 2:0.38504922 3:0.17938272 4:0.43701715 5:0.43763895 6:0.71661849 
1 1:0.50133252 2:0.56860689 3:0.12196261 4:0.50013132 5:0.43611205 6:0.29221305 
1 1:0.48874934 2:0.47355025 3:0.14866613 4:0.19969162 5:0.19078779 6:0.069919498 
1 1:0.76326662 2:0.60203377 3:0.28547718 4:0.84798247 5:0.48882313 6:0.8467928 
1 1:0.66249907 2:0.22913666 3:0.14814194 4:0.40048671 5:0.33695735 6:0.28267752 
1 1:0.51334445 2:0.17517125 3:0.28166057 4:0.093501506 5:0.7699922 6:0.61499668 
1 1:0.77644833 2:0.13899263 3:0.38182925 4:0.62621338 5:0.83715647 6:0.45815917 
1 1:0.36702512 2:0.38443742 3:0.83214074 4:0.32627803 5:0.44619083 6:0.69108819 
1 1:0.57847541 2:0.43689256 3:0.23795414 4:0.96342859 5:0.3148941 6:0.55770212 
1 1:0.78646837 2:0.27325425 3:0.23571289 4:0.35521615 5:0.9560407 6:0.58716048 
1 1:0.52357934 2:0.95148584 3:0.65833983 4:0.47550876 5:0.62610873 6:0.051341939 
1 1:0.75273316 2:0.89918509 3:0.68702055 4:0.74776623 5:0.41692038 6:0.53203154 
1 1:0.5778189 2:0.057882443 3:0.66086158 4:0.48719229 5:0.37101046 6:0.85056968 
1 1:0.62851548 2:0.15783433 3:0.23541304 4:0.95875759 5:0.58473744 6:0.72241994 
1 1:0.35014413 2:0.43677685 3:0.77520293 4:0.87467594 5:0.51623377 6:0.21867668 
1 1:0.43904295 2:0.52909334 3:0.1734938 4:0.57716523 5:0.76593111 6:0.56685279 
1 1:0.027595481 2:0.44729147 3:0.66223201 4:0.53154065 5:0.38212819 6:0.17140552 
1 1:0.8568468 2:0.31125754 3:0.71863187 4:0.56579915 5:0.53607892 6:0.13418414 
1 1:0.23486543 2:0.16747618 3:0.42425276 4:0.44452635 5:0.41569925 6:0.13801147 
1 1:0.048129796 2:0.60685217 3:0.52739221 4:0.16505883 5:0.56019672 6:0.49299962 
1 1:0.18287475 2:0.50793954 3:0.19037222 4:0.64981548 5:0.37305766 6:0.14906863 
1 1:0.3719935 2:0.51058342 3:0.95434204 4:0.80031253 5:0.41344498 6:0.39619445 
1 1:0.37662124 2:0.24997538 3:0.81020194 4:0.30982202 5:0.6249557 6:0.13121825 
1 1:0.80624792 2:0.24232481 3:0.3053664 4:0.34390188 5:0.72265455 6:0.81400701 
1 1:0.50248583 2:0.49279862 3:0.72111441 4:0.2005562 5:0.40241098 6:0.43529424 
1 1:0.58164901 2:0.78764434 3:0.79370272 4:0.72184674 5:0.71130265 6:0.34373642 
1 1:0.97082797 2:0.47971843 3:0.51183918 4:0.2845368 5:0.5937111 6:0.38720598 
1 1:0.33693748 2:0.45875331 3:0.83924563 4:0.77618188 5:0.3003825 6:0.21551756 
1 1:0.18013383 2:0.6151179 3:0.31071132 4:0.44448987 5:0.40055303 6:0.59015168 
1 1:0.55773375 2:0.063331503 3:0.37045735 4:0.019021462 5:0.79016235 6:0.51644943 
1 1:0.066805745 2:0.2324984 3:0.5525247 4:0.83313535 5:0.35535093 6:0.7387529 
1 1:0.11060918 2:0.33249048 3:0.73557707 4:0.11269076 5:0.69726855 6:0.63753845 
1 1:0.89921388 2:0.25332903 3:0.47563016 4:0.23018763 5:0.47706707 6:0.62377951 
1 1:0.31811347 2:0.77252163 3:0.79042635 4:0.8867095 5:0.61359191 6:0.17484765 
1 1:0.72858522 2:0.5432585 3:0.79913501 4:0.16646018 5:0.34609721 6:0.98906684 
1 1:0.37554877 2:0.91276788 3:0.58665838 4:0.50994478 5:0.38990174 6:0.42465663 
1 1:0.60197711 2:0.79413782 3:0.76910929 4:0.76011487 5:0.59693653 6:0.56262348 
1 1:0.2149987 2:0.20005939 3:0.75029353 4:0.73505451 5:0.41203881 6:0.64029847 
1 1:0.74684474 2:0.44699744 3:0.78667415 4:0.92625374 5:0.54921176 6:0.98984865 
1 1:0.56713133 2:0.49586913 3:0.96912757 4:0.46956642 5:0.59552216 6:0.52315776 
1 1:0.19034552 2:0.57532879 3:0.31008158 4:0.77347841 5:0.50995813 6:0.91308179 
1 1:0.53440114 2:0.17667016 3:0.24664502 4:0.031457632 5:0.35220787 6:0.24353586 
1 1:0.23577341 2:0.21566577 3:0.77500544 4:0.10967821 5:0.46621077 6:0.74483482 
1 1:0.25040614 2:0.51039522 3:0.226163 4:0.63612668 5:0.22881066 6:0.1784294 
1 1:0.80600797 2:0.48917819 3:0.67750314 4:0.89292396 5:0.26549756 6:0.091598736 
1 1:0.49187003 2:0.49939157 3:0.87324042 4:0.1750791 5:0.44959155 6:0.16156428 
1 1:0.46193933 2:0.4769301 3:0.10905604 4:0.15390479 5:0.47288181 6:0.54654402 
1 1:0.50690497 2:0.30177501 3:0.16490164 4:0.3312721 5:0.62083909 6:0.63188213 
1 1:0.41892747 2:0.5848103 3:0.17943694 4:0.55037383 5:0.64716661 6:0.94275341 
1 1:0.15707242 2:0.4502893 3:0.27098434 4:0.37534313 5:0.66846992 6:0.27688868 
1 1:0.83051391 2:0.90715532 3:0.47097941 4:0.77954762 5:0.75863263 6:0.28978536 
1 1:0.79717962 2:0.52243057 3:0.17489192 4:0.45791744 5:0.61699567 6:0.87818954 
1 1:0.54820115 2:0.70635963 3:0.16277053 4:0.29751475 5:0.62532247 6:0.63893496 
1 1:0.36047424 2:0.1834192 3:0.24182086 4:0.11797886 5:0.2264115 6:0.61605214 
1 1:0.18203029 2:0.3009071 3:0.80293265 4:0.425356 5:0.61358366 6:0.61014871 
1 1:0.6634779 2:0.23559205 3:0.77830833 4:0.559261 5:0.36822634 6:0.97755824 
1 1:0.40850569 2:0.83394058 3:0.41063272 4:0.99748073 5:0.23047769 6:0.26586851 
1 1:0.91263778 2:0.5205763 3:0.36505641 4:0.85488641 5:0.25879004 6:0.40741328 
1 1:0.26521566 2:0.12019734 3:0.34421926 4:0.60828215 5:0.55944944 6:0.49982974 
1 1:0.49685678 2:0.030876373 3:0.49085 4:0.66135661 5:0.33337986 6:0.26492677 
1 1:0.3948358 2:0.40439727 3:0.84389496 4:0.040363771 5:0.47342035 6:0.32467101 
1 1:0.84450137 2:0.3997338 3:0.36868308 4:0.14118508 5:0.45786918 6:0.020842654 
1 1:0.64666873 2:0.866767 3:0.30081844 4:0.068665244 5:0.62403873 6:0.77762936 
1 1:0.2455836 2:0.14516983 3:0.59761181 4:0.013316717 5:0.29140345 6:0.61427154 
1 1:0.051764156 2:0.32196643 3:0.4735031 4:0.21669756 5:0.79078972 6:0.62282916 
1 1:0.78897021 2:0.83955867 3:0.73362942 4:0.73148299 5:0.3605343 6:0.33326229 
1 1:0.74447268 2:0.9368025 3:0.47082853 4:0.19885594 5:0.41595182 6:0.29520014 
1 1:0.84934292 2:0.46545344 3:0.7116003 4:0.14952869 5:0.40348489 6:0.27521658 
1 1:0.39682611 2:0.56131541 3:0.17099036 4:0.49678655 5:0.69557266 6:0.32498407 
1 1:0.51046962 2:0.42580018 3:0.78249243 4:0.17575273 5:0.76034269 6:0.23052936 
1 1:0.37327397 2:0.33940703 3:0.78126623 4:0.2666954 5:0.28930271 6:0.97064258 
1 1:0.67912006 2:0.95683351 3:0.50333752 4:0.83304046 5:0.26241725 6:0.88769112 
1 1:0.59307917 2:0.4680242 3:0.84915673 4:0.86076791 5:0.36009134 6:0.50325685 
1 1:0.40112791 2:0.46952193 3:0.78969324 4:0.75578524 5:0.3593317 6:0.95557326 
1 1:0.50681761 2:0.5971457 3:0.80253576 4:0.6497117 5:0.56001297 6:0.78242314 
1 1:0.86790398 2:0.27251973 3:0.46991228 4:0.63044702 5:0.32199048 6:0.30935733 
1 1:0.91361695 2:0.51539377 3:0.31238128 4:0.44944054 5:0.16256291 6:0.11958114 
1 1:0.24980018 2:0.73994852 3:0.3490359 4:0.1105167 5:0.41778083 6:0.74438433 
1 1:0.22876235 2:0.73856083 3:0.45149637 4:0.38343794 5:0.73907474 6:0.0071691544 
1 1:0.28557801 2:0.18373848 3:0.7142318 4:0.27946827 5:0.65249757 6:0.47149582 
1 1:0.50736894 2:0.29425883 3:0.2670068 4:0.63076433 5:0.6585007 6:0.35502444 
1 1:0.38562744 2:0.22179556 3:0.74303789 4:0.82462612 5:0.42595828 6:0.3516792 
1 1:0.3467297 2:0.33777477 3:0.78954348 4:0.18873998 5:0.33491809 6:0.30382735 
1 1:0.66347442 2:0.083493585 3:0.41778054 4:0.064190931 5:0.3165391 6:0.18159638 
1 1:0.73415184 2:0.056229303 3:0.50041055 4:0.30039139 5:0.41363386 6:0.16616652 
1 1:0.18418936 2:0.31938274 3:0.80575381 4:0.29408098 5:0.77638728 6:0.6090277 
1 1:0.56484228 2:0.8910568 3:0.31604351 4:0.2298725 5:0.53474429 6:0.81146122 
1 1:0.81651444 2:0.43611335 3:0.82582445 4:0.51041613 5:0.68554203 6:0.92732192 
1 1:0.095277541 2:0.45348142 3:0.71326446 4:0.97937765 5:0.54600775 6:0.3136243 
1 1:0.32438994 2:0.14130981 3:0.74371989 4:0.51943192 5:0.29441038 6:0.53662877 
1 1:0.39565441 2:0.041374321 3:0.54893776 4:0.0066235774 5:0.51721222 6:0.69201031 
1 1:0.41255657 2:0.61363828 3:0.79786641 4:0.18889573 5:0.34515174 6:0.057768645 
1 1:0.41017859 2:0.088989812 3:0.4442393 4:0.68225982 5:0.1329237 6:0.10118537 
1 1:0.51834101 2:0.74622278 3:0.89168843 4:0.38883953 5:0.4386802 6:0.17636823 
1 1:0.8349978 2:0.318735 3:0.26296541 4:0.60498185 5:0.52370977 6:0.72658854 
1 1:0.62574565 2:0.19419324 3:0.7338567 4:0.8142084 5:0.65308387 6:0.4739309 
1 1:0.62211157 2:0.29164134 3:0.9168605 4:0.77897313 5:0.58525017 6:0.50798149 
1 1:0.78724373 2:0.55070971 3:0.24067627 4:0.58353517 5:0.86566182 6:0.87569576 
1 1:0.265291 2:0.76527415 3:0.33532208 4:0.37918918 5:0.45919205 6:0.56447395 
1 1:0.15769372 2:0.4262131 3:0.78236935 4:0.39787256 5:0.47111604 6:0.99274597 
1 1:0.57873131 2:0.52523206 3:0.19265448 4:0.69998426 5:0.43681109 6:0.56229502 
1 1:0.512174 2:0.15187092 3:0.18034329 4:0.25813274 5:0.32991348 6:0.69837466 
1 1:0.21944242 2:0.6870219 3:0.71954515 4:0.45389188 5:0.10098048 6:0.89867364 
1 1:0.55848422 2:0.27887748 3:0.85804941 4:0.98054719 5:0.38237062 6:0.18961611 
1 1:0.1021636 2:0.6203472 3:0.26579421 4:0.80370234 5:0.60232336 6:0.62844877 
1 1:0.19334808 2:0.71438003 3:0.75301439 4:0.366648 5:0.74685842 6:0.99206863 
1 1:0.85997181 2:0.46195492 3:0.23634464 4:0.20802871 5:0.8308612 6:0.42706252 
1 1:0.30200337 2:0.19788188 3:0.36618519 4:0.80043114 5:0.49893129 6:0.60510263 
1 1:0.26781133 2:0.90903998 3:0.46380386 4:0.67798181 5:0.87660387 6:0.084258263 
1 1:0.25286269 2:0.49821299 3:0.15793268 4:0.85059815 5:0.23108358 6:0.60003719 
1 1:0.12295342 2:0.57857606 3:0.64205353 4:0.087912855 5:0.58670683 6:0.50797357 
1 1:0.26671099 2:0.29028561 3:0.24102788 4:0.42886567 5:0.7693039 6:0.96379521 
1 1:0.54288426 2:0.89043375 3:0.70430115 4:0.45856579 5:0.25416876 6:0.38917532 
1 1:0.47212091 2:0.2028279 3:0.6420776 4:0.49340144 5:0.60556571 6:0.19394204 
1 1:0.82279095 2:0.77473277 3:0.4012163 4:0.36737463 5:0.36817195 6:0.07936448 
1 1:0.85354436 2:0.26636778 3:0.71844436 4:0.11625474 5:0.58460946 6:0.35064335 
1 1:0.19971038 2:0.79886464 3:0.3011822 4:0.88125424 5:0.41098374 6:0.48341109 
1 1:0.58406551 2:0.3644427 3:0.82648461 4:0.87076657 5:0.70166263 6:0.20052979 
1 1:0.38683459 2:0.15531362 3:0.32185385 4:0.67181159 5:0.54223521 6:0.53439998 
1 1:0.76587726 2:0.30371687 3:0.34700001 4:0.69473969 5:0.8234329 6:0.83713782 
1 1:0.76136673 2:0.12289183 3:0.72449557 4:0.47845855 5:0.5446729 6:0.54577106 
1 1:0.23565663 2:0.11715171 3:0.54145095 4:0.30848157 5:0.68321299 6:0.14317969 
1 1:0.50147102 2:0.56725346 3:0.21107307 4:0.41394268 5:0.36553753 6:0.057317968 
1 1:0.99302038 2:0.6072934 3:0.65188977 4:0.40299592 5:0.40103717 6:0.28624792 
1 1:0.77049352 2:0.81702648 3:0.74171981 4:0.76668731 5:0.20584072 6:0.20977798 
1 1:0.29235756 2:0.84299029 3:0.28186731 4:0.40385009 5:0.63658524 6:0.67671798 
1 1:0.54213092 2:0.34202919 3:0.77356035 4:0.73872453 5:0.070571106 6:0.76204559 
1 1:0.50234612 2:0.7961334 3:0.88543746 4:0.58359359 5:0.60227543 6:0.66235987 
1 1:0.71471726 2:0.78055173 3:0.74612612 4:0.47890529 5:0.83267123 6:0.3053379 
1 1:0.59213755 2:0.65786132 3:0.17279498 4:0.84820361 5:0.19616811 6:0.95978332 
1 1:0.25973436 2:0.76292584 3:0.26689488 4:0.49705455 5:0.67038854 6:0.84594686 
1 1:0.1368486 2:0.3213869 3:0.71558102 4:0.51487683 5:0.91121096 6:0.43120257 
1 1:0.098021717 2:0.46952989 3:0.75779774 4:0.17661278 5:0.31663083 6:0.54800852 
1 1:0.34986564 2:0.44437142 3:0.17368119 4:0.055821399 5:0.86608516 6:0.23439053 
1 1:0.30495549 2:0.93500303 3:0.31615566 4:0.44841689 5:0.72951648 6:0.63778237 
1 1:0.29114027 2:0.29852469 3:0.84230809 4:0.75439567 5:0.73182914 6:0.90014876 
1 1:0.75537446 2:0.26285965 3:0.77738639 4:0.64672772 5:0.32233762 6:0.22358158 
1 1:0.14984056 2:0.33820144 3:0.38281668 4:0.5830832 5:0.76874059 6:0.4675963 
1 1:0.82319813 2:0.76646525 3:0.26870433 4:0.85956002 5:0.46030191 6:0.50416868 
1 1:0.31383359 2:0.85766385 3:0.45239503 4:0.18548819 5:0.6767358 6:0.21944869 
1 1:0.31073661 2:0.65170439 3:0.75898857 4:0.63752805 5:0.49597748 6:0.90239199 
1 1:0.86524691 2:0.55638431 3:0.59557267 4:0.24162694 5:0.37066976 6:0.77358009 
1 1:0.13051969 2:0.37850496 3:0.45439906 4:0.82373676 5:0.51006928 6:0.67632911 
1 1:0.31563072 2:0.55178245 3:0.12308739 4:0.14874179 5:0.64058801 6:0.35694334 
1 1:0.25377502 2:0.93537012 3:0.40886862 4:0.66412325 5:0.6077681 6:0.74254556 
1 1:0.78578198 2:0.22890702 3:0.56956314 4:0.44763552 5:0.76302405 6:0.55296453 
1 1:0.5071818 2:0.6282386 3:0.84719201 4:0.57883652 5:0.18348027 6:0.84461742 
1 1:0.5800327 2:0.4328176 3:0.15985184 4:0.4337107 5:0.18765079 6:0.84686619 
1 1:0.61133682 2:0.72201462 3:0.26352873 4:0.34954307 5:0.95866353 6:0.78049708 
1 1:0.095644919 2:0.40743922 3:0.41290402 4:0.75658667 5:0.86316149 6:0.57392432 
1 1:0.18990415 2:0.3238822 3:0.77502761 4:0.94768232 5:0.62695503 6:0.83893729 
1 1:0.56243738 2:0.80645853 3:0.26276973 4:0.71035909 5:0.9170114 6:0.02025871 
1 1:0.52216735 2:0.50136274 3:0.83618698 4:0.19038603 5:0.48574123 6:0.060769529 
1 1:0.029871664 2:0.32556814 3:0.5587171 4:0.010484271 5:0.50505984 6:0.33544855 
1 1:0.98229302 2:0.48453608 3:0.54773889 4:0.98913851 5:0.59764605 6:0.7336013 
1 1:0.36633612 2:0.92980565 3:0.69520031 4:0.78686796 5:0.39414344 6:0.74613928 
1 1:0.79261516 2:0.24328094 3:0.62776276 4:0.38760466 5:0.65518724 6:0.5089626 
1 1:0.50827794 2:0.75387476 3:0.12873428 4:0.59576935 5:0.41984835 6:0.51501244 
1 1:0.2730816 2:0.095450335 3:0.54977188 4:0.27805661 5:0.58064588 6:0.65711287 
1 1:0.98013626 2:0.51170609 3:0.62605023 4:0.13512255 5:0.4165723 6:0.50150566 
1 1:0.80223042 2:0.69579733 3:0.41992756 4:0.55039568 5:0.29467191 6:0.58351195 
1 1:0.57590626 2:0.71683308 3:0.27281394 4:0.083794293 5:0.80616091 6:0.54149787 
1 1:0.72435089 2:0.1617981 3:0.57626439 4:0.44513754 5:0.6800512 6:0.10859567 
1 1:0.24478644 2:0.60754969 3:0.33706595 4:0.51184466 5:0.3351361 6:0.49846531 
1 1:0.12656849 2:0.5455192 3:0.79214388 4:0.5605657 5:0.56175908 6:0.2177533 
1 1:0.4546123 2:0.70942528 3:0.8688573 4:0.36584668 5:0.62907431 6:0.91347889 
1 1:0.51483101 2:0.18847714 3:0.32854195 4:0.21673266 5:0.17313971 6:0.081714367 
1 1:0.093274649 2:0.38784878 3:0.44512665 4:0.82724738 5:0.64651446 6:0.86179352 
1 1:0.74410757 2:0.91749716 3:0.41010525 4:0.76529036 5:0.78826028 6:0.38438759 
1 1:0.11730937 2:0.78026441 3:0.70846074 4:0.27116838 5:0.50147121 6:0.49201427 
1 1:0.78453163 2:0.18539351 3:0.52618295 4:0.071290494 5:0.86549806 6:0.10793606 
1 1:0.57031111 2:0.91530435 3:0.64751725 4:0.90846134 5:0.56386205 6:0.24140203 
1 1:0.753685 2:0.50347386 3:0.85605288 4:0.29999544 5:0.5373301 6:0.079693513 
1 1:0.71299136 2:0.80785713 3:0.30588196 4:0.61076031 5:0.12853046 6:0.68064397 
1 1:0.78940158 2:0.54600582 3:0.84188093 4:0.86097206 5:0.55253265 6:0.54748153 
1 1:0.16439561 2:0.39536204 3:0.22442947 4:0.87731793 5:0.30558034 6:0.72933155 
1 1:0.44157937 2:0.65542724 3:0.9047836 4:0.96168756 5:0.28693316 6:0.45090467 
1 1:0.87520727 2:0.39307216 3:0.30080515 4:0.82434218 5:0.11651952 6:0.21543904 
1 1:0.78658786 2:0.27983436 3:0.3776239 4:0.10483778 5:0.2716762 6:0.61113188 
1 1:0.34737229 2:0.8549822 3:0.58826876 4:0.031917894 5:0.44953218 6:0.11782114 
1 1:0.31203284 2:0.087040305 3:0.62648214 4:0.47869986 5:0.15246599 6:0.1595562 
1 1:0.75522936 2:0.61621491 3:0.83724049 4:0.85823756 5:0.91101897 6:0.65833364 
1 1:0.54817813 2:0.2409899 3:0.84488801 4:0.8248884 5:0.4488244 6:0.27151199 
1 1:0.71312119 2:0.800422 3:0.73184607 4:0.30197985 5:0.74126712 6:0.91180042 
1 1:0.09886085 2:0.73621317 3:0.55517044 4:0.83241351 5:0.48730578 6:0.14659289 
1 1:0.46111279 2:0.64869162 3:0.13753613 4:0.40734997 5:0.54928302 6:0.12620109 
1 1:0.76061278 2:0.4155946 3:0.85009324 4:0.84770093 5:0.4795474 6:0.76032156 
1 1:0.57972317 2:0.25397188 3:0.27296954 4:0.7739062 5:0.64835488 6:0.97546608 
1 1:0.36542693 2:0.61660193 3:0.099486421 4:0.62556955 5:0.63465679 6:0.55641443 
1 1:0.50061906 2:0.49150789 3:0.12847956 4:0.83381801 5:0.63786058 6:0.53777772 
1 1:0.89476024 2:0.52590868 3:0.29123689 4:0.81190724 5:0.45710069 6:0.62918061 
1 1:0.33276385 2:0.46512582 3:0.83863306 4:0.42162176 5:0.56906814 6:0.22099454 
1 1:0.20070069 2:0.17559238 3:0.37167933 4:0.67681531 5:0.62578755 6:0.46304037 
1 1:0.72823803 2:0.43803697 3:0.25956961 4:0.54011698 5:0.5086247 6:0.83903196 
1 1:0.36433268 2:0.042018303 3:0.35015479 4:0.59515406 5:0.53067065 6:0.8763224 
1 1:0.93098037 2:0.30621134 3:0.34130375 4:0.63170785 5:0.38276056 6:0.25445086 
1 1:0.21109801 2:0.8611634 3:0.55072267 4:0.49626592 5:0.195174 6:0.33025266 
1 1:0.48223988 2:0.050225257 3:0.70555013 4:0.72740896 5:0.50830637 6:0.8852111 
1 1:0.78534761 2:0.65044583 3:0.74458595 4:0.96647269 5:0.22969303 6:0.62730919 
1 1:0.54131844 2:0.30840215 3:0.25408337 4:0.80773607 5:0.80111518 6:0.52095973 
1 1:0.4606327 2:0.6286548 3:0.1508443 4:0.74394679 5:0.11044092 6:0.13246673 
1 1:0.7721652 2:0.079741669 3:0.54589164 4:0.59039801 5:0.33791032 6:0.73911463 
1 1:0.17699282 2:0.19525388 3:0.68289746 4:0.20500282 5:0.5922223 6:0.31276138 
1 1:0.089853542 2:0.29332761 3:0.57069523 4:0.25801468 5:0.73463527 6:0.310718 
1 1:0.17880731 2:0.40052089 3:0.73444213 4:0.20146615 5:0.56481625 6:0.51929452 
1 1:0.27357283 2:0.77036976 3:0.22772751 4:0.21663029 5:0.55807074 6:0.37883476 
1 1:0.11862061 2:0.44623962 3:0.84848258 4:0.45514821 5:0.61135948 6:0.42568394 
1 1:0.57561122 2:0.21310141 3:0.78835326 4:0.37533512 5:0.18618935 6:0.092040344 
1 1:0.92883806 2:0.57710601 3:0.73929948 4:0.19308062 5:0.71512636 6:0.31203884 
1 1:0.58917532 2:0.4481346 3:0.055101223 4:0.3003955 5:0.742857 6:0.51648142 
1 1:0.78978491 2:0.25578038 3:0.3823219 4:0.54853166 5:0.63720772 6:0.41409299 
1 1:0.49823026 2:0.70578404 3:0.84344877 4:0.60262332 5:0.38696418 6:0.54155566 
1 1:0.81103082 2:0.81150643 3:0.67580116 4:0.86703736 5:0.81500394 6:0.44330078 
1 1:0.6806175 2:0.99657854 3:0.47628989 4:0.64311729 5:0.51373193 6:0.13072747 
1 1:0.60836111 2:0.46864446 3:0.26186216 4:0.5955867 5:0.53824678 6:0.44085127 
1 1:0.34756176 2:0.47175519 3:0.86836471 4:0.28943137 5:0.39647447 6:0.89672251 
1 1:0.57645271 2:0.76521571 3:0.85696756 4:0.59543824 5:0.68689038 6:0.7847101 
1 1:0.67247446 2:0.32580154 3:0.15797248 4:0.05091556 5:0.71959494 6:0.89661306 
1 1:0.93407638 2:0.70302622 3:0.32739766 4:0.70351733 5:0.65823323 6:0.76078581 
1 1:0.60175269 2:0.2468767 3:0.1609181 4:0.71945084 5:0.61968625 6:0.35957387 
1 1:0.46779161 2:0.96019119 3:0.42559391 4:0.61532035 5:0.71422834 6:0.69727929 
1 1:0.38970522 2:0.93122778 3:0.44790137 4:0.65168776 5:0.10138085 6:0.55897489 
1 1:0.20966681 2:0.15727985 3:0.5623165 4:0.76522151 5:0.52882591 6:0.76438996 
1 1:0.10380126 2:0.36142084 3:0.28808844 4:0.61921268 5:0.52672683 6:0.67206545 
1 1:0.94702672 2:0.57640936 3:0.44477496 4:0.046372072 5:0.23248775 6:0.69470934 
1 1:0.33001273 2:0.19713661 3:0.24776908 4:0.56534392 5:0.54239732 6:0.38667008 
1 1:0.22698271 2:0.21076838 3:0.33067143 4:0.37214816 5:0.26877586 6:0.39058366 
1 1:0.44137378 2:0.50816424 3:0.086040582 4:0.24041366 5:0.53810724 6:0.57741092 
1 1:0.73088464 2:0.47612891 3:0.18658848 4:0.3970109 5:0.24553886 6:0.063220832 
1 1:0.64552714 2:0.96228038 3:0.41993043 4:0.52392289 5:0.69460241 6:0.13826234 
1 1:0.65180691 2:0.4906671 3:0.19472357 4:0.84280114 5:0.72554086 6:0.39680336 
1 1:0.14932298 2:0.68599183 3:0.32381257 4:0.035313375 5:0.38891293 6:0.86155261 
1 1:0.37640311 2:0.43577172 3:0.6982064 4:0.47903022 5:0.34647668 6:0.028420769 
1 1:0.91718102 2:0.15499757 3:0.49746928 4:0.68095288 5:0.59800393 6:0.40556305 
1 1:0.55026664 2:0.70920554 3:0.78684276 4:0.96591587 5:0.1824864 6:0.042257426 
1 1:0.59396093 2:0.21588005 3:0.88835275 4:0.67617067 5:0.52103518 6:0.36962616 
1 1:0.80302959 2:0.17560414 3:0.60090801 4:0.17145424 5:0.20104031 6:0.87516855 
1 1:0.6906216 2:0.62968402 3:0.13572924 4:0.66033002 5:0.33644094 6:0.40387268 
1 1:0.59158581 2:0.39186832 3:0.78896787 4:0.61255797 5:0.36156882 6:0.35643949 
1 1:0.22714985 2:0.94470791 3:0.62524115 4:0.35030105 5:0.57823543 6:0.2853127 
1 1:0.57766456 2:0.4328084 3:0.24253577 4:0.39907606 5:0.44325508 6:0.1454011 
1 1:0.14045654 2:0.71070402 3:0.80278518 4:0.29048099 5:0.66718818 6:0.55290886 
1 1:0.58787611 2:0.95605974 3:0.73460083 4:0.51608787 5:0.5366941 6:0.83558047 
1 1:0.3624907 2:0.40302471 3:0.20997328 4:0.87835901 5:0.42212823 6:0.61041171 
1 1:0.69595105 2:0.34489807 3:0.84589373 4:0.84436563 5:0.63713536 6:0.64652631 
1 1:0.10807344 2:0.49943335 3:0.28339162 4:0.51466936 5:0.70320376 6:0.73234821 
1 1:0.91708827 2:0.33899494 3:0.65325235 4:0.1796836 5:0.67230805 6:0.12163668 
1 1:0.13319997 2:0.57638283 3:0.25689193 4:0.52640545 5:0.49315197 6:0.2966947 
1 1:0.78106876 2:0.6036506 3:0.26771623 4:0.17762782 5:0.9382777 6:0.88941865 
1 1:0.85895095 2:0.53800199 3:0.41409384 4:0.23159992 5:0.63834457 6:0.62707657 
1 1:0.34204706 2:0.93616831 3:0.379162 4:0.6498308 5:0.67689159 6:0.75975036 
1 1:0.10830429 2:0.31996179 3:0.69740872 4:0.42957867 5:0.59617209 6:0.50267525 
1 1:0.4056395 2:0.44403251 3:0.11299931 4:0.26413615 5:0.74660987 6:0.4207838 
1 1:0.15922521 2:0.59610876 3:0.20132268 4:0.4642708 5:0.70004808 6:0.57753644 
1 1:0.12597244 2:0.77849648 3:0.56836289 4:0.24266462 5:0.81281793 6:0.45047829 
1 1:0.50860253 2:0.5635911 3:0.8685861 4:0.40523445 5:0.74549025 6:0.4368033 
1 1:0.42894468 2:0.58826902 3:0.84223648 4:0.29547961 5:0.36995461 6:0.046716103 
0.3477626268633524 1:0.24190926 2:0.5691798 3:0.88600252 4:0.23250469 5:0.32083599 6:0.85333456 
1 1:0.71504187 2:0.38338124 3:0.17619782 4:0.97715587 5:0.74872435 6:0.28375998 
1 1:0.40295425 2:0.97827222 3:0.43051757 4:0.79521286 5:0.41296844 6:0.10140439 
1 1:0.30632442 2:0.19602325 3:0.70950082 4:0.81106974 5:0.63695027 6:0.93164179 
1 1:0.86977056 2:0.3894786 3:0.75381314 4:0.76863047 5:0.37734421 6:0.14091938 
1 1:0.487036 2:0.29837751 3:0.71067342 4:0.7458586 5:0.38273571 6:0.048285718 
1 1:0.73681472 2:0.60320193 3:0.78505419 4:0.017601606 5:0.53256821 6:0.88827366 
1 1:0.82592281 2:0.69821457 3:0.34722561 4:0.8334929 5:0.3617196 6:0.71225819 
1 1:0.38844376 2:0.80421364 3:0.84161357 4:0.17757462 5:0.40984496 6:0.69568994 
1 1:0.29737734 2:0.093207493 3:0.35479226 4:0.86616487 5:0.43342891 6:0.86409552 
1 1:0.61132954 2:0.41140861 3:0.83069078 4:0.016498434 5:0.62680691 6:0.095186122 
0.7592450297089691 1:0.85250183 2:0.22605554 3:0.45281721 4:0.82405253 5:0.89329104 6:0.85485964 
1 1:0.23356154 2:0.33791873 3:0.79038809 4:0.52170111 5:0.78635545 6:0.88782604 
1 1:0.86769303 2:0.87536807 3:0.62647573 4:0.69748488 5:0.66993089 6:0.52952159 
1 1:0.44212634 2:0.9590635 3:0.62918001 4:0.15435683 5:0.6457366 6:0.36023657 
1 1:0.49295794 2:0.7901139 3:0.73914094 4:0.91140949 5:0.41168756 6:0.4540108 
1 1:0.8474589 2:0.74437761 3:0.25585225 4:0.70293987 5:0.64756333 6:0.56951467 
1 1:0.70475475 2:0.62424043 3:0.24924159 4:0.21985923 5:0.86665771 6:0.99837972 
1 1:0.29317348 2:0.49821768 3:0.8193387 4:0.54610324 5:0.13829869 6:0.44079796 
1 1:0.56744066 2:0.9112882 3:0.25956544 4:0.33387324 5:0.75214712 6:0.48025499 
1 1:0.67653484 2:0.1831403 3:0.29114381 4:0.45277022 5:0.8985946 6:0.16993683 
1 1:0.68148649 2:0.6458103 3:0.24633177 4:0.59614453 5:0.8176957 6:0.40380981 
1 1:0.11047393 2:0.46133503 3:0.28711487 4:0.85765624 5:0.53635364 6:0.59687965 
1 1:0.41322985 2:0.24058024 3:0.76785774 4:0.53317419 5:0.3771302 6:0.66646533 
1 1:0.35136573 2:0.0018189623 3:0.4541089 4:0.51279457 5:0.56115828 6:0.192642 
1 1:0.66361299 2:0.54376954 3:0.1364644 4:0.71936584 5:0.1788886 6:0.72457404 
1 1:0.73882003 2:0.31863812 3:0.25650279 4:0.024356512 5:0.45513129 6:0.59367805 
1 1:0.68389678 2:0.54909134 3:0.87086591 4:0.88125484 5:0.87437524 6:0.27061088 
1 1:0.45083017 2:0.81624636 3:0.8221221 4:0.44755256 5:0.23523011 6:0.78856098 
1 1:0.75434589 2:0.11456586 3:0.41583231 4:0.11045937 5:0.30558206 6:0.39225251 
1 1:0.30544279 2:0.86694955 3:0.5074914 4:0.9438543 5:0.70078055 6:0.64041003 
1 1:0.83668243 2:0.49157123 3:0.71531493 4:0.93444786 5:0.5852003 6:0.034225178 
1 1:0.32598833 2:0.82243146 3:0.39223514 4:0.63965242 5:0.28589329 6:0.71549439 
1 1:0.32686891 2:0.27828946 3:0.165456 4:0.80558969 5:0.42611874 6:0.43922617 
1 1:0.23782887 2:0.55111731 3:0.29279694 4:0.17135665 5:0.53111401 6:0.30145352 
1 1:0.80442226 2:0.62324165 3:0.81772834 4:0.60206282 5:0.063260779 6:0.63370983 
1 1:0.31427263 2:0.16241816 3:0.35162018 4:0.22677896 5:0.28883381 6:0.47259876 
1 1:0.49329784 2:0.1207474 3:0.81417858 4:0.47616947 5:0.25967408 6:0.49238447 
1 1:0.49259941 2:0.94284405 3:0.54449815 4:0.96529245 5:0.89418498 6:0.24412949 
1 1:0.49972649 2:0.33587158 3:0.17026836 4:0.43207554 5:0.38998562 6:0.78967075 
1 1:0.039180767 2:0.62110593 3:0.42130807 4:0.26188676 5:0.31702856 6:0.70499885 
1 1:0.6810059 2:0.52603766 3:0.13660014 4:0.71306513 5:0.88431467 6:0.36379229 
1 1:0.25617371 2:0.80880229 3:0.73077377 4:0.55022685 5:0.66899552 6:0.46948714 
1 1:0.13108245 2:0.65039916 3:0.4051128 4:0.14107455 5:0.27480427 6:0.21105666 
1 1:0.98512043 2:0.4445304 3:0.57623121 4:0.60833718 5:0.3931611 6:0.46369246 
1 1:0.61167845 2:0.5273513 3:0.85543993 4:0.62425073 5:0.3376735 6:0.39027664 
1 1:0.57776457 2:0.59935768 3:0.16499218 4:0.26393472 5:0.46139428 6:0.2002518 
1 1:0.054041264 2:0.39835571 3:0.65191064 4:0.55148693 5:0.53083643 6:0.92148042 
1 1:0.87742391 2:0.74188363 3:0.49106853 4:0.4242077 5:0.31607351 6:0.25766645 
1 1:0.42706919 2:0.38924453 3:0.13567111 4:0.41805931 5:0.38122339 6:0.46929978 
1 1:0.54785064 2:0.89313062 3:0.27634921 4:0.51375123 5:0.84955057 6:0.96615555 
1 1:0.11572886 2:0.63565002 3:0.35782388 4:0.43051309 5:0.72972567 6:0.31426049 
1 1:0.64049047 2:0.016726834 3:0.57637936 4:0.61346718 5:0.48722251 6:0.72544789 
1 1:0.5774726 2:0.65216452 3:0.84030634 4:0.1845569 5:0.51294077 6:0.7383521 
1 1:0.30518606 2:0.68458435 3:0.82578359 4:0.96093231 5:0.42434105 6:0.55218579 
1 1:0.82537996 2:0.75772536 3:0.28917132 4:0.17197132 5:0.725619 6:0.23189956 
1 1:0.51875373 2:0.24378565 3:0.29354454 4:0.97789732 5:0.37562063 6:0.55234224 
1 1:0.62820419 2:0.79024564 3:0.86184923 4:0.32223972 5:0.67330472 6:0.77793292 
1 1:0.66917199 2:0.75466646 3:0.71613659 4:0.21190669 5:0.39237176 6:0.54477443 
1 1:0.72266745 2:0.63696719 3:0.85215644 4:0.54114596 5:0.24339608 6:0.49573508 
1 1:0.42924351 2:0.90124734 3:0.23040706 4:0.56515747 5:0.52623241 6:0.21761082 
1 1:0.77256757 2:0.66848764 3:0.16657967 4:0.32168052 5:0.61601719 6:0.33256699 
1 1:0.39115185 2:0.88806669 3:0.72863207 4:0.1445032 5:0.41251809 6:0.17615235 
1 1:0.11170295 2:0.56598074 3:0.63196961 4:0.47554747 5:0.43468558 6:0.48671285 
1 1:0.99270591 2:0.56924652 3:0.62399434 4:0.85536526 5:0.59825512 6:0.59448179 
1 1:0.71847618 2:0.11841513 3:0.38323123 4:0.63485488 5:0.28560577 6:0.23555886 
1 1:0.7925573 2:0.50219181 3:0.29071003 4:0.6096874 5:0.38709314 6:0.99698777 
1 1:0.34893674 2:0.064875722 3:0.5804129 4:0.31090442 5:0.16286268 6:0.62263218 
1 1:0.76924223 2:0.94809124 3:0.47965081 4:0.76799856 5:0.42868793 6:0.31697584 
1 1:0.43841465 2:0.90047407 3:0.74827894 4:0.7058404 5:0.39939003 6:0.35308171 
1 1:0.52212578 2:0.55954782 3:0.080808872 4:0.063276438 5:0.77332391 6:0.63219776 
1 1:0.72253751 2:0.20864635 3:0.80225572 4:0.18475233 5:0.5378128 6:0.83857921 
1 1:0.51709155 2:0.29324905 3:0.13189194 4:0.57108453 5:0.54498802 6:0.77023549 
1 1:0.42183236 2:0.68422799 3:0.23378321 4:0.78960307 5:0.50686148 6:0.077594546 
1 1:0.43964312 2:0.12263592 3:0.24382119 4:0.093942344 5:0.42855948 6:0.52972482 
1 1:0.36308675 2:0.30097356 3:0.85614568 4:0.32815857 5:0.10944102 6:0.63331528 
1 1:0.3484989 2:0.76324164 3:0.17514005 4:0.83116507 5:0.63834503 6:0.55110383 
1 1:0.89979037 2:0.81056754 3:0.5996472 4:0.50631462 5:0.79343569 6:0.14299808 
1 1:0.11733878 2:0.55909413 3:0.28912672 4:0.26615839 5:0.84084879 6:0.9627285 
1 1:0.87900852 2:0.2842937 3:0.30594921 4:0.4055296 5:0.35845453 6:0.23673735 
1 1:0.55316274 2:0.49697788 3:0.91112226 4:0.30021841 5:0.67301085 6:0.16750652 
1 1:0.2923032 2:0.80418574 3:0.32296448 4:0.0047021895 5:0.25599253 6:0.87935832 
1 1:0.9812203 2:0.45186012 3:0.54587978 4:0.43658333 5:0.51535802 6:0.703104 
1 1:0.71070735 2:0.54063728 3:0.17386103 4:0.41699594 5:0.87844556 6:0.30538662 
1 1:0.071095661 2:0.48651083 3:0.49805313 4:0.22056764 5:0.14950187 6:0.31779794 
1 1:0.22839333 2:0.32044954 3:0.80097378 4:0.50879923 5:0.31703904 6:0.83985448 
1 1:0.4256033 2:0.42777353 3:0.7461111 4:0.12026341 5:0.70919721 6:0.097819453 
1 1:0.58842707 2:0.11561183 3:0.37153564 4:0.54231802 5:0.51615228 6:0.85223854 
1 1:0.65469129 2:0.73077084 3:0.8479309 4:0.10262927 5:0.32110821 6:0.24027685 
1 1:0.6791484 2:0.20692146 3:0.20602942 4:0.41995016 5:0.30093325 6:0.70275955 
1 1:0.86295572 2:0.34534434 3:0.68869092 4:0.79112113 5:0.47106541 6:0.96649322 
1 1:0.58672655 2:0.52162854 3:0.95597258 4:0.30611754 5:0.2673929 6:0.53696346 
1 1:0.79816403 2:0.84131262 3:0.56199989 4:0.24588487 5:0.18293104 6:0.72605416 
1 1:0.47521266 2:0.93885698 3:0.60168164 4:0.9898322 5:0.4627172 6:0.76383491 
1 1:0.688406 2:0.55346178 3:0.86602879 4:0.50249451 5:0.33701766 6:0.51472894 
1 1:0.45850142 2:0.49540866 3:0.22967868 4:0.62920424 5:0.2008326 6:0.62597976 
1 1:0.63920239 2:0.17029762 3:0.76386359 4:0.37923891 5:0.7485181 6:0.54062177 
1 1:0.54261503 2:0.29601427 3:0.13875796 4:0.60269354 5:0.61930794 6:0.82445454 
1 1:0.85412366 2:0.76501636 3:0.40757348 4:0.33022938 5:0.55071844 6:0.45987442 
1 1:0.11255771 2:0.32191555 3:0.2833604 4:0.59682807 5:0.24323608 6:0.22366789 
1 1:0.188851 2:0.80599382 3:0.61661054 4:0.54387582 5:0.42903717 6:0.65264179 
1 1:0.65387839 2:0.47457161 3:0.10138261 4:0.73164962 5:0.48469693 6:0.61074027 
1 1:0.33144256 2:0.52029163 3:0.18455891 4:0.88768279 5:0.42494419 6:0.17478918 
1 1:0.18614879 2:0.65514304 3:0.3388875 4:0.76521185 5:0.26906528 6:0.045081433 
1 1:0.53319353 2:0.92043285 3:0.29186002 4:0.71185443 5:0.78035739 6:0.74923146 
1 1:0.014144128 2:0.48528508 3:0.6340258 4:0.620475 5:0.36046834 6:0.23223159 
1 1:0.39961028 2:0.71405124 3:0.84814764 4:0.42507325 5:0.68724093 6:0.2483073 
1 1:0.21892299 2:0.44182033 3:0.74655645 4:0.20617132 5:0.53009242 6:0.17795781 
1 1:0.77457424 2:0.65215501 3:0.32733795 4:0.61130326 5:0.34435304 6:0.01828323 
1 1:0.61663847 2:0.7684608 3:0.85106578 4:0.52744986 5:0.66954102 6:0.54442722 
1 1:0.85068965 2:0.69486058 3:0.2341516 4:0.70810454 5:0.29675211 6:0.35041524 
1 1:0.47198967 2:0.56636281 3:0.8283116 4:0.71969325 5:0.71759007 6:0.56786564 
1 1:0.28192187 2:0.51756266 3:0.80932704 4:0.74209154 5:0.5285163 6:0.92861558 
1 1:0.53035793 2:0.2877515 3:0.69321318 4:0.34689367 5:0.51774601 6:0.047924342 
1 1:0.40301835 2:0.084096526 3:0.39320948 4:0.62278058 5:0.15470563 6:0.67290852 
1 1:0.25081081 2:0.24543689 3:0.25284018 4:0.42286387 5:0.53101379 6:0.59864996 
1 1:0.15663376 2:0.44423955 3:0.22609787 4:0.76728608 5:0.21534114 6:0.61770884 
1 1:0.78785778 2:0.59852611 3:0.71399874 4:0.13841927 5:0.3576109 6:0.83920496 
1 1:0.79353094 2:0.51308142 3:0.85439226 4:0.39546382 5:0.57779227 6:0.79276654 
1 1:0.82073994 2:0.11558085 3:0.52125264 4:0.42233971 5:0.29374408 6:0.35108233 
1 1:0.45086403 2:0.57968322 3:0.86246874 4:0.19525095 5:0.78318706 6:0.48673641 
1 1:0.77660032 2:0.80762359 3:0.65790853 4:0.80442116 5:0.7276305 6:0.24903875 
1 1:0.81062279 2:0.46931158 3:0.2690366 4:0.39285772 5:0.51022453 6:0.68831519 
1 1:0.060407859 2:0.81842607 3:0.41323834 4:0.47271126 5:0.56556246 6:0.48187736 
1 1:0.58514518 2:0.12452207 3:0.26329426 4:0.25075842 5:0.74378181 6:0.42833735 
1 1:0.61689557 2:0.41941698 3:0.81965455 4:0.21212092 5:0.25903848 6:0.91437311 
1 1:0.54852025 2:0.58504691 3:0.76232667 4:0.47076184 5:0.57270395 6:0.40806984 
1 1:0.941322 2:0.25274545 3:0.47474783 4:0.25379056 5:0.69827709 6:0.43554804 
1 1:0.10559535 2:0.25849862 3:0.48607765 4:0.29438054 5:0.3188032 6:0.67698772 
1 1:0.34989568 2:0.012813375 3:0.60132886 4:0.73383496 5:0.6425769 6:0.47922841 
1 1:0.80268794 2:0.17253495 3:0.57286892 4:0.42135121 5:0.68572991 6:0.54664109 
1 1:0.34037669 2:0.59900302 3:0.17751844 4:0.50376904 5:0.21226712 6:0.068116429 
1 1:0.25022219 2:0.58297318 3:0.88494376 4:0.24402955 5:0.81062834 6:0.74391397 
1 1:0.7171234 2:0.25217694 3:0.37189434 4:0.65077906 5:0.45999745 6:0.84995455 
1 1:0.55995542 2:0.72690281 3:0.8580063 4:0.56557658 5:0.5998097 6:0.81231076 
1 1:0.62266253 2:0.2982553 3:0.24227884 4:0.87139173 5:0.65872812 6:0.89910659 
1 1:0.74996706 2:0.54517175 3:0.19639569 4:0.42372635 5:0.78765255 6:0.90437241 
1 1:0.78806281 2:0.48367773 3:0.19007019 4:0.17845927 5:0.5833307 6:0.56284972 
1 1:0.094824232 2:0.74262755 3:0.3377127 4:0.13819667 5:0.41668877 6:0.5821672 
1 1:0.47405814 2:0.36746533 3:0.20614443 4:0.81006747 5:0.185037 6:0.46067038 
1 1:0.4583056 2:0.37999053 3:0.10805587 4:0.25019606 5:0.69379357 6:0.97495341 
1 1:0.71564824 2:0.31364716 3:0.73334386 4:0.13337773 5:0.50820635 6:0.47704789 
1 1:0.98149943 2:0.59994082 3:0.57183443 4:0.4118705 5:0.41831649 6:0.23883951 
1 1:0.59514243 2:0.65299525 3:0.68959522 4:0.78505081 5:0.62655743 6:0.56014722 
1 1:0.95669281 2:0.37108474 3:0.6898511 4:0.27400055 5:0.59599647 6:0.29707083 
1 1:0.63889824 2:0.65961309 3:0.80650795 4:0.96279181 5:0.53556184 6:0.86222655 
1 1:0.49133719 2:0.76178364 3:0.14445582 4:0.56197867 5:0.42984819 6:0.083260157 
1 1:0.35333562 2:0.84643716 3:0.57578015 4:0.75201915 5:0.70382691 6:0.90865126 
1 1:0.089375377 2:0.24189541 3:0.60056119 4:0.46335226 5:0.14886589 6:0.66570126 
1 1:0.41697897 2:0.21288052 3:0.67349158 4:0.43678108 5:0.56683698 6:0.51008165 
1 1:0.11704891 2:0.54256721 3:0.29313707 4:0.824069 5:0.43070819 6:0.40933376 
1 1:0.69431399 2:0.33121275 3:0.20299339 4:0.40571899 5:0.14227117 6:0.18315878 
1 1:0.21708516 2:0.92237019 3:0.37628893 4:0.51294288 5:0.49478495 6:0.36193459 
1 1:0.85649883 2:0.53552329 3:0.81989206 4:0.26679705 5:0.60486683 6:0.4117581 
1 1:0.71924324 2:0.79726921 3:0.34641473 4:0.35126239 5:0.43864785 6:0.21959966 
1 1:0.84840846 2:0.14303631 3:0.45732148 4:0.80177985 5:0.3236216 6:0.63897967 
0.1693186395481503 1:0.50884872 2:0.97314771 3:0.29474071 4:0.53857279 5:0.77471828 6:0.244323 
1 1:0.30891036 2:0.29557917 3:0.80809432 4:0.028042158 5:0.4251439 6:0.67000969 
1 1:0.69675563 2:0.1362749 3:0.44469575 4:0.813472 5:0.72508236 6:0.44851733 
1 1:0.7097994 2:0.21711211 3:0.33503442 4:0.84740821 5:0.75853187 6:0.52625574 
1 1:0.15878709 2:0.22177704 3:0.36236231 4:0.50975862 5:0.86741918 6:0.24924969 
1 1:0.73430702 2:0.90698494 3:0.3640087 4:0.65287489 5:0.69304937 6:0.24447959 
1 1:0.41610482 2:0.89175124 3:0.39603753 4:0.63375391 5:0.48476934 6:0.136812 
1 1:0.95718826 2:0.5488541 3:0.45580943 4:0.63906629 5:0.42422723 6:0.63251795 
1 1:0.55837645 2:0.32523249 3:0.84702466 4:0.743211 5:0.45084215 6:0.8236923 
1 1:0.74578486 2:0.46452452 3:0.91869568 4:0.34167284 5:0.59400699 6:0.32440945 
1 1:0.5503357 2:0.59272939 3:0.09176065 4:0.77565345 5:0.58359946 6:0.69419772 
1 1:0.34698753 2:0.50946032 3:0.90214874 4:0.72681003 5:0.44445975 6:0.60610346 
1 1:0.42343032 2:0.32708689 3:0.75424952 4:0.73528367 5:0.68525065 6:0.43667359 
1 1:0.26408551 2:0.35464439 3:0.17810443 4:0.97014461 5:0.52617405 6:0.29857869 
1 1:0.2009121 2:0.57890116 3:0.20875588 4:0.14704837 5:0.48403875 6:0.31449032 
1 1:0.062324958 2:0.70519502 3:0.59604894 4:0.62359268 5:0.84002389 6:0.23382446 
1 1:0.47066458 2:0.44319851 3:0.78625513 4:0.44377229 5:0.4564411 6:0.06342967 
1 1:0.30615229 2:0.93704149 3:0.46411651 4:0.69702487 5:0.40552482 6:0.65580055 
1 1:0.5075923 2:0.14338829 3:0.61303305 4:0.047551573 5:0.59759089 6:0.74926045 
1 1:0.58898683 2:0.2356375 3:0.84534525 4:0.73549215 5:0.49414498 6:0.4479451 
1 1:0.72181912 2:0.41465183 3:0.1475094 4:0.14815484 5:0.52012343 6:0.3538547 
1 1:0.60568753 2:0.5417372 3:0.89566692 4:0.12567824 5:0.56533181 6:0.78239389 
1 1:0.16264341 2:0.20146545 3:0.41846453 4:0.13303636 5:0.77109595 6:0.11825023 
1 1:0.35883378 2:0.1696502 3:0.46256457 4:0.43661594 5:0.57067653 6:0.84286847 
1 1:0.58384734 2:0.12736139 3:0.27655427 4:0.45713209 5:0.95575283 6:0.67225804 
1 1:0.47908208 2:0.38149541 3:0.2135356 4:0.19437641 5:0.39207271 6:0.8725512 
1 1:0.31339958 2:0.90342279 3:0.55641246 4:0.30750594 5:0.82470999 6:0.99625386 
1 1:0.52487669 2:0.1955723 3:0.23584982 4:0.88300985 5:0.4853244 6:0.39195284 
1 1:0.4035798 2:0.40227385 3:0.8727205 4:0.89457341 5:0.48706416 6:0.70001602 
1 1:0.25007302 2:0.065771123 3:0.34613953 4:0.19249989 5:0.41125267 6:0.46358059 
1 1:0.74437964 2:0.2925842 3:0.33172889 4:0.93884147 5:0.58567446 6:0.062655767 
1 1:0.4730968 2:0.4145691 3:0.82079979 4:0.36926124 5:0.23004393 6:0.37380657 
1 1:0.55508287 2:0.88620757 3:0.665194 4:0.95318943 5:0.64974758 6:0.26335646 
1 1:0.40040121 2:0.51223685 3:0.80700249 4:0.97225483 5:0.30511751 6:0.5131435 
1 1:0.75363148 2:0.71209229 3:0.8481617 4:0.38155264 5:0.7773807 6:0.7988629 
1 1:0.62592891 2:0.23643253 3:0.13973007 4:0.47017791 5:0.44646545 6:0.84369941 
1 1:0.72844269 2:0.5832279 3:0.25350738 4:0.2717429 5:0.75014914 6:0.3906002 
1 1:0.56142808 2:0.61335107 3:0.1691091 4:0.22118879 5:0.71107745 6:0.74766641 
1 1:0.26268472 2:0.61626768 3:0.19623776 4:0.86228046 5:0.3783188 6:0.12532419 
1 1:0.31866795 2:0.097371669 3:0.68091561 4:0.84158609 5:0.50652319 6:0.33606208 
1 1:0.91317081 2:0.54954663 3:0.54424729 4:0.2975972 5:0.61956047 6:0.32433523 
1 1:0.69179729 2:0.85487081 3:0.43124896 4:0.99808419 5:0.18759735 6:0.075910175 
1 1:0.85322328 2:0.63675102 3:0.2569934 4:0.8418816 5:0.71241557 6:0.88810465 
1 1:0.37188306 2:0.91045313 3:0.47918045 4:0.16883092 5:0.63011251 6:0.44676035 
1 1:0.28720175 2:0.71412301 3:0.67900413 4:0.0074891544 5:0.43476883 6:0.99388016 
1 1:0.14635885 2:0.19868966 3:0.5199781 4:0.5793778 5:0.59134373 6:0.96509268 
1 1:0.29618988 2:0.35930884 3:0.13200397 4:0.51567157 5:0.26679954 6:0.71462143 
1 1:0.73378687 2:0.19278439 3:0.22793688 4:0.78055487 5:0.75523124 6:0.56070757 
1 1:0.39023114 2:0.71612547 3:0.12530923 4:0.22244521 5:0.56295657 6:0.62417529 
1 1:0.22663578 2:0.69445616 3:0.21201368 4:0.29141527 5:0.533843 6:0.27489284 
0.3080207659075574 1:0.49552216 2:0.59443769 3:0.072914332 4:0.66034145 5:0.20552689 6:0.72772039 
1 1:0.47632572 2:0.4144184 3:0.12401805 4:0.40205726 5:0.33050114 6:0.38983127 
1 1:0.93944114 2:0.53321592 3:0.39497032 4:0.50377404 5:0.61611336 6:0.81672355 
1 1:0.81272026 2:0.34425294 3:0.19239098 4:0.45822627 5:0.26866453 6:0.4216602 
1 1:0.028148426 2:0.42809228 3:0.48989804 4:0.66378831 5:0.40380493 6:0.50581925 
1 1:0.23502887 2:0.88636771 3:0.39774459 4:0.69499819 5:0.28165335 6:0.76696551 
1 1:0.25200348 2:0.76496231 3:0.7499581 4:0.63324623 5:0.33593384 6:0.019522571 
1 1:0.54075484 2:0.80702974 3:0.19727079 4:0.94065873 5:0.1579163 6:0.52527745 
1 1:0.54076143 2:0.081979534 3:0.36718102 4:0.1904054 5:0.42491939 6:0.61666737 
1 1:0.84682851 2:0.51313522 3:0.44014274 4:0.82308122 5:0.82901503 6:0.23793081 
1 1:0.58159566 2:0.50421765 3:0.20683214 4:0.72715611 5:0.4400794 6:0.42400458 
1 1:0.2059835 2:0.80425342 3:0.37654435 4:0.069172945 5:0.34831866 6:0.98139561 
1 1:0.50715995 2:0.91194622 3:0.2716246 4:0.27351302 5:0.77350859 6:0.21499163 
1 1:0.52426367 2:0.31407642 3:0.89913939 4:0.61134118 5:0.38149785 6:0.24752567 
1 1:0.21841578 2:0.55640983 3:0.83225301 4:0.36256082 5:0.548339 6:0.83361791 
1 1:0.37253669 2:0.98907577 3:0.66272248 4:0.45089771 5:0.59042862 6:0.78615021 
1 1:0.29513654 2:0.71566705 3:0.77205664 4:0.57785194 5:0.42922388 6:0.12746836 
1 1:0.2170204 2:0.20055497 3:0.34686534 4:0.33610396 5:0.46402398 6:0.86991154 
1 1:0.55610158 2:0.52324486 3:0.1593579 4:0.5019158 5:0.30317479 6:0.70600476 
1 1:0.76947427 2:0.32932736 3:0.19588692 4:0.74104822 5:0.55269406 6:0.48286803 
1 1:0.6940811 2:0.70386329 3:0.77834829 4:0.45009027 5:0.75443473 6:0.77833246 
1 1:0.87731667 2:0.28942402 3:0.30114608 4:0.4857086 5:0.78416001 6:0.18966082 
1 1:0.3652487 2:0.89506985 3:0.79004495 4:0.34544653 5:0.72766852 6:0.40558169 
1 1:0.85084371 2:0.5926259 3:0.5011467 4:0.7357908 5:0.65813366 6:0.16803418 
1 1:0.37718435 2:0.51730798 3:0.95311045 4:0.34074651 5:0.77236223 6:0.43298815 
1 1:0.30691856 2:0.98018208 3:0.34825979 4:0.40164625 5:0.50622293 6:0.38882098 
1 1:0.76055858 2:0.49493445 3:0.83298551 4:0.71211769 5:0.79248184 6:0.80940445 
1 1:0.17767373 2:0.22499507 3:0.65149596 4:0.35642463 5:0.56462325 6:0.59277985 
1 1:0.84031537 2:0.38550665 3:0.2477572 4:0.18884197 5:0.88827805 6:0.7578567 
1 1:0.28262432 2:0.26987289 3:0.85790623 4:0.6502235 5:0.43586724 6:0.14194033 
1 1:0.46228769 2:0.88220744 3:0.32198914 4:0.90840853 5:0.54804335 6:0.35409984 
1 1:0.64106073 2:0.76791343 3:0.17963489 4:0.10749468 5:0.37480699 6:0.6805164 
1 1:0.43922082 2:0.32041227 3:0.89557623 4:0.7039278 5:0.3498744 6:0.49884447 
1 1:0.82482939 2:0.49857494 3:0.24958717 4:0.66939488 5:0.62916316 6:0.83344034 
1 1:0.71294271 2:0.15551064 3:0.6280151 4:0.16636817 5:0.4235723 6:0.2618514 
1 1:0.3132098 2:0.23687523 3:0.16525264 4:0.81734425 5:0.44331783 6:0.65857736 
1 1:0.6642156 2:0.33366674 3:0.86245719 4:0.11600958 5:0.76756561 6:0.20718323 
1 1:0.12665939 2:0.19080061 3:0.56796022 4:0.47050668 5:0.14077732 6:0.64109434 
1 1:0.054226431 2:0.72692571 3:0.47944856 4:0.48123478 5:0.19019187 6:0.89647898 
1 1:0.56604366 2:0.47807046 3:0.098801772 4:0.57426098 5:0.19796401 6:0.47388049 
1 1:0.19496713 2:0.65121554 3:0.28167222 4:0.46545368 5:0.15150127 6:0.31011245 
1 1:0.65578802 2:0.49591636 3:0.79542835 4:0.59903855 5:0.4233838 6:0.49526392 
1 1:0.57958145 2:0.7484268 3:0.81616989 4:0.6708893 5:0.29882016 6:0.02648963 
1 1:0.21328905 2:0.3224966 3:0.81272076 4:0.10174342 5:0.59820667 6:0.64477577 
1 1:0.76511134 2:0.91975871 3:0.3971406 4:0.5733433 5:0.39450646 6:0.76942525 
1 1:0.3112781 2:0.1885171 3:0.30501407 4:0.28999392 5:0.6069439 6:0.82444802 
1 1:0.2160014 2:0.70056416 3:0.2343608 4:0.37688164 5:0.77602739 6:0.096788366 
1 1:0.089076322 2:0.29231695 3:0.60164613 4:0.33842072 5:0.5603415 6:0.67624567 
1 1:0.35458356 2:0.088905985 3:0.61197572 4:0.72202499 5:0.37936661 6:0.43853462 
1 1:0.50483278 2:0.1788312 3:0.18150202 4:0.19705029 5:0.38946152 6:0.41039571 
1 1:0.63807647 2:0.81156391 3:0.26844619 4:0.26277931 5:0.095852671 6:0.77711266 
1 1:0.39092584 2:0.57982209 3:0.90692686 4:0.22171917 5:0.53997042 6:0.03954442 
1 1:0.23412087 2:0.76964095 3:0.66894591 4:0.85458991 5:0.80557754 6:0.096841492 
1 1:0.24189421 2:0.75154373 3:0.3947392 4:0.57603979 5:0.059742055 6:0.86988825 
1 1:0.51347758 2:0.92604512 3:0.38470607 4:0.58345865 5:0.52277659 6:0.46192242 
1 1:0.64331927 2:0.35778716 3:0.13644814 4:0.31437276 5:0.70821485 6:0.66485897 
1 1:0.46302143 2:0.5700359 3:0.1417705 4:0.77215627 5:0.44651734 6:0.13272981 
1 1:0.85740715 2:0.63926297 3:0.75002084 4:0.6665751 5:0.27597497 6:0.13967432 
1 1:0.42973479 2:0.33788038 3:0.13701412 4:0.76006421 5:0.52477224 6:0.96259799 
1 1:0.14658135 2:0.20760307 3:0.52418424 4:0.13007323 5:0.67789301 6:0.19373882 
1 1:0.64916678 2:0.85975647 3:0.5644198 4:0.98264104 5:0.087206831 6:0.25583412 
1 1:0.23258822 2:0.35368339 3:0.37265326 4:0.80637417 5:0.72015776 6:0.1598412 
1 1:0.31233639 2:0.31381328 3:0.1505873 4:0.069838951 5:0.34352891 6:0.68838423 
1 1:0.1772752 2:0.82602495 3:0.62614919 4:0.87972701 5:0.40890134 6:0.33335835 
1 1:0.063840228 2:0.68283359 3:0.36840461 4:0.017538148 5:0.7338809 6:0.69556561 
1 1:0.81831714 2:0.64885865 3:0.61295176 4:0.19423208 5:0.073543308 6:0.96052435 
1 1:0.21100591 2:0.62907024 3:0.80376974 4:0.6281626 5:0.67949621 6:0.029672933 
1 1:0.75205737 2:0.69886358 3:0.14962559 4:0.54433522 5:0.4748295 6:0.21460457 
1 1:0.80454298 2:0.7542613 3:0.2457104 4:0.53520472 5:0.62324279 6:0.84735032 
1 1:0.45193035 2:0.18006948 3:0.76594522 4:0.89931099 5:0.45729248 6:0.37459134 
1 1:0.61199478 2:0.18830843 3:0.31826114 4:0.32500374 5:0.2660041 6:0.4925746 
1 1:0.47660937 2:0.27044028 3:0.18218434 4:0.72831282 5:0.61225205 6:0.60500873 
1 1:0.64641344 2:0.6405074 3:0.67301427 4:0.95679822 5:0.4968004 6:0.99685836 
1 1:0.66448924 2:0.64993413 3:0.21430348 4:0.10625663 5:0.60992992 6:0.70979666 
1 1:0.70927535 2:0.17061713 3:0.24859022 4:0.16351821 5:0.75560378 6:0.48048742 
1 1:0.51556071 2:0.81817844 3:0.80352266 4:0.67315293 5:0.62772258 6:0.92341497 
1 1:0.030532019 2:0.65446908 3:0.55712533 4:0.60740966 5:0.36468835 6:0.27456963 
1 1:0.27325608 2:0.6373249 3:0.82531101 4:0.33671884 5:0.52565861 6:0.74418898 
1 1:0.72634709 2:0.35002001 3:0.87406305 4:0.5390592 5:0.8141369 6:0.36695479 
1 1:0.099368557 2:0.19339915 3:0.4851524 4:0.13682257 5:0.36461248 6:0.56348032 
1 1:0.79521892 2:0.49338708 3:0.18557825 4:0.40244363 5:0.63698438 6:0.83015867 
1 1:0.89078654 2:0.59330681 3:0.57187126 4:0.51569338 5:0.079316149 6:0.50611256 
