svm_type c_svc
kernel_type rbf
gamma 0.166667
nr_class 2
total_sv 566
rho -1.11717
label -1 1
nr_sv 314 252
SV
0.409235539602836 1:0.50231583 2:0.69480203 3:0.59808194 4:0.38317186 5:0.44282685 6:0.80231196 
0.07194748996971444 1:0.59719912 2:0.6288938 3:0.50955282 4:0.80414099 5:0.60886716 6:0.91646764 
1 1:0.46565442 2:0.5567995 3:0.41619889 4:0.25580926 5:0.87718549 6:0.1957295 
1 1:0.63055367 2:0.62385232 3:0.71035601 4:0.44125649 5:0.65077886 6:0.57890559 
1 1:0.58782478 2:0.45541414 3:0.41421679 4:0.53641855 5:0.78810863 6:0.62229903 
1 1:0.34339474 2:0.58582507 3:0.4886915 4:0.068850597 5:0.45308312 6:0.057916127 
1 1:0.31929495 2:0.37664491 3:0.68075602 4:0.8047284 5:0.6359188 6:0.8903209 
1 1:0.43944274 2:0.57792383 3:0.63109187 4:0.8640553 5:0.55660434 6:0.42127433 
0.7002493000628475 1:0.485771 2:0.56096753 3:0.87361996 4:0.051447632 5:0.23704697 6:0.12569756 
1 1:0.59931365 2:0.62742395 3:0.55449556 4:0.59649663 5:0.57614135 6:0.42231147 
1 1:0.62830881 2:0.47715191 3:0.50811326 4:0.35697325 5:0.61631422 6:0.4272402 
1 1:0.58679241 2:0.62705345 3:0.62032657 4:0.54515864 5:0.12519212 6:0.1923552 
1 1:0.43594938 2:0.54662506 3:0.77782884 4:0.36778634 5:0.6117939 6:0.50302488 
1 1:0.61854308 2:0.54324367 3:0.45205062 4:0.93376788 5:0.19270204 6:0.67684143 
1 1:0.6276765 2:0.55584985 3:0.58751727 4:0.78845232 5:0.85786575 6:0.46565343 
0.4914842771480832 1:0.63127468 2:0.69409236 3:0.58771135 4:0.35084083 5:0.95101639 6:0.50043758 
1 1:0.42425522 2:0.40316495 3:0.70392207 4:0.6357914 5:0.68763246 6:0.78649325 
1 1:0.46207435 2:0.38077195 3:0.83688935 4:0.8159205 5:0.85130053 6:0.83851111 
0.09977725394716197 1:0.7209802 2:0.49598534 3:0.63552294 4:0.00081932191 5:0.43859341 6:0.065497844 
0.6923221840063277 1:0.61399101 2:0.3537224 3:0.57795679 4:0.97710769 5:0.64678766 6:0.87405478 
1 1:0.47028666 2:0.38938297 3:0.40074092 4:0.53195097 5:0.47926144 6:0.12120576 
1 1:0.71671589 2:0.4475233 3:0.62083849 4:0.039395517 5:0.42128205 6:0.22006542 
1 1:0.5586946 2:0.35712754 3:0.76775748 4:0.1415847 5:0.15192548 6:0.26932161 
1 1:0.57271221 2:0.53904682 3:0.81314689 4:0.5984195 5:0.16346124 6:0.25788379 
1 1:0.58761726 2:0.515131 3:0.58066205 4:0.63558569 5:0.30709223 6:0.72497932 
1 1:0.59942691 2:0.43045214 3:0.49237706 4:0.83390635 5:0.091232853 6:0.78485347 
0.9057148053137802 1:0.66093556 2:0.48235442 3:0.48765745 4:0.87747721 5:0.71643454 6:0.064636633 
1 1:0.64407229 2:0.43385196 3:0.74400724 4:0.56756861 5:0.50541332 6:0.15906332 
0.7878052119090323 1:0.46464417 2:0.44726629 3:0.38983177 4:0.88463006 5:0.68863374 6:0.18886061 
1 1:0.31773108 2:0.56514721 3:0.61814527 4:0.378766 5:0.3060804 6:0.91561079 
0.6101387818904566 1:0.36583697 2:0.45092565 3:0.72317485 4:0.62436128 5:0.18313237 6:0.1451858 
1 1:0.42657468 2:0.5426466 3:0.36653105 4:0.44169035 5:0.15414401 6:0.46487865 
0.159189539243575 1:0.6693943 2:0.57151348 3:0.49615471 4:0.41792998 5:0.64739423 6:0.30309068 
1 1:0.52288874 2:0.62842237 3:0.59650613 4:0.12509645 5:0.043825426 6:0.46263294 
0.06389305865249184 1:0.55773365 2:0.58932973 3:0.84959788 4:0.70189585 5:0.25095847 6:0.92113235 
1 1:0.43258497 2:0.64046253 3:0.58620716 4:0.13528176 5:0.31026656 6:0.59881821 
1 1:0.58595921 2:0.32404178 3:0.62292308 4:0.74435243 5:0.69737226 6:0.68299654 
0.5968806100448574 1:0.61687178 2:0.66251883 3:0.69887157 4:0.80638108 5:0.36113125 6:0.13195025 
1 1:0.40404304 2:0.49128289 3:0.73173081 4:0.089011793 5:0.65803048 6:0.39956794 
1 1:0.58438554 2:0.57254839 3:0.46637497 4:0.42516673 5:0.55546981 6:0.94574732 
0.1047439800988618 1:0.62049606 2:0.39570607 3:0.78035694 4:0.94669497 5:0.44432882 6:0.23745899 
1 1:0.39779595 2:0.50411678 3:0.43595643 4:0.61099025 5:0.20585947 6:0.23286136 
0.03778727224171873 1:0.60714722 2:0.42931979 3:0.7904435 4:0.015632327 5:0.48159963 6:0.37512966 
1 1:0.45718216 2:0.49164733 3:0.80434404 4:0.8025645 5:0.64582147 6:0.2724127 
1 1:0.56971588 2:0.42532641 3:0.63525583 4:0.48109379 5:0.91657431 6:0.87392506 
1 1:0.46069893 2:0.40912578 3:0.39020139 4:0.014584101 5:0.35339909 6:0.92781248 
1 1:0.40378669 2:0.64110967 3:0.65045644 4:0.037078207 5:0.39788634 6:0.87950195 
1 1:0.54001574 2:0.59372484 3:0.40815716 4:0.54174313 5:0.80575494 6:0.84752532 
1 1:0.67201079 2:0.57450254 3:0.67117613 4:0.53095579 5:0.43749585 6:0.13751397 
1 1:0.64348195 2:0.58313864 3:0.67540529 4:0.18200107 5:0.75554321 6:0.3945401 
1 1:0.42894628 2:0.6563493 3:0.50709852 4:0.42140271 5:0.33164084 6:0.25177918 
1 1:0.51327766 2:0.59392446 3:0.74433453 4:0.13728479 5:0.71577051 6:0.69084671 
1 1:0.55504811 2:0.36838551 3:0.71813817 4:0.94736633 5:0.12783198 6:0.42668353 
0.008417421526107902 1:0.44984099 2:0.32368113 3:0.74495725 4:0.5945555 5:0.38901925 6:0.98391882 
1 1:0.31375352 2:0.48624379 3:0.47074773 4:0.20890171 5:0.26892692 6:0.66329027 
1 1:0.64290167 2:0.54218646 3:0.58536469 4:0.48514688 5:0.44933742 6:0.16608113 
0.9594801779319414 1:0.66809767 2:0.56864537 3:0.6757772 4:0.052733979 5:0.767731 6:0.74726565 
0.8512240895183517 1:0.5502074 2:0.32151534 3:0.66661102 4:0.58199954 5:0.76267418 6:0.49848307 
1 1:0.56795444 2:0.31569637 3:0.6897737 4:0.10448242 5:0.53940126 6:0.2365248 
1 1:0.41927329 2:0.40888113 3:0.4340926 4:0.18672131 5:0.61305962 6:0.54884395 
0.9138372888509765 1:0.65256097 2:0.4307488 3:0.78262591 4:0.11395287 5:0.48584278 6:0.16403788 
1 1:0.47303419 2:0.63770154 3:0.55395379 4:0.83216832 5:0.19297013 6:0.79392036 
1 1:0.5461905 2:0.49349433 3:0.84403956 4:0.61042502 5:0.30560241 6:0.95117411 
0.4723000258647898 1:0.47640169 2:0.65009383 3:0.41715148 4:0.58135447 5:0.76535898 6:0.43142262 
0.7134610112605178 1:0.55229118 2:0.67327836 3:0.65382713 4:0.64087881 5:0.63335846 6:0.8236697 
1 1:0.37978813 2:0.54270626 3:0.74894215 4:0.91946388 5:0.29822886 6:0.46460141 
1 1:0.44850458 2:0.59572166 3:0.76397782 4:0.030478285 5:0.34336028 6:0.46101152 
1 1:0.39555077 2:0.38924253 3:0.57920922 4:0.16442422 5:0.62993023 6:0.41743246 
1 1:0.40498563 2:0.4205114 3:0.65119979 4:0.60452184 5:0.38361847 6:0.76964961 
1 1:0.42452179 2:0.34915799 3:0.51033318 4:0.87980838 5:0.11015279 6:0.639655 
1 1:0.47023969 2:0.339915 3:0.66965763 4:0.63438248 5:0.19537323 6:0.41453725 
0.7054839072596033 1:0.59670393 2:0.39028321 3:0.83579839 4:0.36992165 5:0.030816838 6:0.95296564 
0.50228547963425 1:0.52831079 2:0.6612066 3:0.40880367 4:0.28011431 5:0.20885023 6:0.54995245 
1 1:0.46669193 2:0.62408454 3:0.42193456 4:0.39959186 5:0.62527364 6:0.18047727 
1 1:0.632581 2:0.45150561 3:0.58134205 4:0.97594397 5:0.53715967 6:0.55270288 
1 1:0.41695177 2:0.62581599 3:0.69082248 4:0.43534789 5:0.2999831 6:0.12963805 
1 1:0.3810553 2:0.4037105 3:0.72586517 4:0.017404118 5:0.52314127 6:0.037232094 
0.1393340042264416 1:0.44654521 2:0.58934286 3:0.34004245 4:0.04664506 5:0.46146319 6:0.28734808 
1 1:0.61090415 2:0.41501523 3:0.65182612 4:0.69052927 5:0.76295994 6:0.53947774 
1 1:0.59177074 2:0.44330497 3:0.60596632 4:0.57932876 5:0.37397503 6:0.62431416 
1 1:0.23518819 2:0.43406015 3:0.65160778 4:0.96020708 5:0.47893334 6:0.97042093 
1 1:0.65706965 2:0.49397771 3:0.6715384 4:0.1187741 5:0.72150682 6:0.81457287 
1 1:0.32699604 2:0.48158852 3:0.56422617 4:0.87978073 5:0.71225168 6:0.41705546 
0.3633988597232137 1:0.45800169 2:0.63253829 3:0.34376853 4:0.17858468 5:0.48173059 6:0.56562852 
1 1:0.59830747 2:0.52252626 3:0.80406955 4:0.67448545 5:0.64831725 6:0.60806679 
1 1:0.6020238 2:0.43679929 3:0.73372181 4:0.22386259 5:0.69152855 6:0.45531712 
1 1:0.64597223 2:0.51147917 3:0.5890465 4:0.84669555 5:0.33571082 6:0.76979434 
0.403817972776928 1:0.52059751 2:0.47927154 3:0.80805432 4:0.89147041 5:0.92458969 6:0.098489276 
1 1:0.37917508 2:0.63305153 3:0.59390147 4:0.59491743 5:0.64447331 6:0.25928182 
1 1:0.66258903 2:0.50829238 3:0.52815713 4:0.71119564 5:0.52886595 6:0.71357882 
1 1:0.52874738 2:0.61888315 3:0.46389493 4:0.12332704 5:0.27359455 6:0.57351479 
1 1:0.56428376 2:0.43268548 3:0.76048026 4:0.72957663 5:0.53475266 6:0.83523802 
0.1204478306255178 1:0.63847605 2:0.63237716 3:0.66794001 4:0.3264336 5:0.78530744 6:0.88718738 
1 1:0.47737306 2:0.29591469 3:0.42119441 4:0.017902895 5:0.34267366 6:0.5062042 
1 1:0.48205817 2:0.56637483 3:0.41755329 4:0.27775975 5:0.2755152 6:0.30470626 
1 1:0.46161066 2:0.61563049 3:0.64261954 4:0.96414324 5:0.36363185 6:0.95286084 
1 1:0.46354571 2:0.36409947 3:0.73894051 4:0.20043107 5:0.31592399 6:0.60365559 
1 1:0.48431382 2:0.28434029 3:0.637711 4:0.32375728 5:0.3294629 6:0.44151905 
0.1623525784189087 1:0.60749572 2:0.59388251 3:0.45579503 4:0.91296237 5:0.47878755 6:0.74939263 
1 1:0.64990954 2:0.60567646 3:0.61324358 4:0.76321701 5:0.21635124 6:0.95699837 
0.5168875331540886 1:0.53277143 2:0.33312717 3:0.74395085 4:0.47666122 5:0.22647174 6:0.15967855 
0.2247697544982971 1:0.34601907 2:0.47436828 3:0.38665271 4:0.73886295 5:0.52969151 6:0.9740284 
0.145930168608204 1:0.66484539 2:0.6036705 3:0.58900741 4:0.68453225 5:0.09687731 6:0.82010009 
1 1:0.62180076 2:0.55041195 3:0.46739484 4:0.59643962 5:0.066518122 6:0.8272271 
0.2712076362698966 1:0.39744518 2:0.4390427 3:0.78156974 4:0.11366184 5:0.35648727 6:0.43314606 
1 1:0.62459026 2:0.60083052 3:0.69718965 4:0.43631213 5:0.33162172 6:0.48730689 
1 1:0.62592205 2:0.45611619 3:0.46291545 4:0.43153098 5:0.43236048 6:0.64928354 
1 1:0.42154555 2:0.53448736 3:0.74928123 4:0.86359851 5:0.29014604 6:0.4257729 
0.7661837090619468 1:0.55684447 2:0.38154106 3:0.42049542 4:0.90461871 5:0.60812848 6:0.93989744 
1 1:0.55512577 2:0.32100028 3:0.59188216 4:0.86837819 5:0.24032043 6:0.4723154 
1 1:0.53328294 2:0.64991994 3:0.52881055 4:0.18809806 5:0.39131951 6:0.25315862 
1 1:0.36040019 2:0.36847742 3:0.58790634 4:0.29259529 5:0.43844308 6:0.038119372 
1 1:0.4316551 2:0.6629863 3:0.56084449 4:0.95132559 5:0.040204719 6:0.61204206 
0.1141538011567891 1:0.58338464 2:0.30151004 3:0.6450267 4:0.96130729 5:0.3363673 6:0.63864374 
1 1:0.34801102 2:0.62033456 3:0.55331995 4:0.45433315 5:0.3740252 6:0.84374732 
1 1:0.62683221 2:0.44983488 3:0.57852285 4:0.66894105 5:0.35504589 6:0.78408847 
1 1:0.46265004 2:0.67378821 3:0.50294577 4:0.67408364 5:0.39501094 6:0.85559386 
0.03004464539864708 1:0.32746937 2:0.34634907 3:0.54868355 4:0.022416828 5:0.58510965 6:0.16235533 
0.5443848333216411 1:0.5898027 2:0.6645823 3:0.63558155 4:0.46460407 5:0.47314487 6:0.33769543 
1 1:0.58205085 2:0.42274105 3:0.41005092 4:0.51155115 5:0.57374516 6:0.86144804 
1 1:0.57981906 2:0.58439311 3:0.46279669 4:0.25055504 5:0.18727297 6:0.34643454 
1 1:0.33654511 2:0.48200189 3:0.56188782 4:0.82260329 5:0.71953762 6:0.66916531 
1 1:0.31180798 2:0.50037939 3:0.57249062 4:0.24962033 5:0.72874891 6:0.89121247 
0.9461105288345051 1:0.3674371 2:0.38027447 3:0.61501041 4:0.91913992 5:0.36013728 6:0.081531863 
1 1:0.5917525 2:0.44369325 3:0.70054847 4:0.26903776 5:0.67190066 6:0.096134311 
1 1:0.37309508 2:0.44516756 3:0.62560206 4:0.48237762 5:0.52717454 6:0.99755383 
0.3952524218778412 1:0.60028601 2:0.63022572 3:0.48200718 4:0.67836972 5:0.32247807 6:0.3451862 
1 1:0.36543701 2:0.43266614 3:0.56732073 4:0.55229887 5:0.58169402 6:0.044525457 
1 1:0.40734421 2:0.56645781 3:0.75233875 4:0.15312115 5:0.47419713 6:0.44401999 
1 1:0.35142321 2:0.59446003 3:0.50040463 4:0.061145285 5:0.26074411 6:0.043090045 
0.8959037487970712 1:0.46979998 2:0.64063037 3:0.78125608 4:0.33716063 5:0.37795804 6:0.65030996 
1 1:0.36090617 2:0.55039466 3:0.57672256 4:0.79505249 5:0.70642074 6:0.53452463 
0.8688395795618187 1:0.42510396 2:0.39872266 3:0.31636703 4:0.079901965 5:0.884405 6:0.61115653 
1 1:0.40809417 2:0.58695237 3:0.44771906 4:0.83455189 5:0.59714515 6:0.7037851 
1 1:0.53595603 2:0.66502265 3:0.61004548 4:0.21658809 5:0.46353977 6:0.44352769 
1 1:0.62706791 2:0.61855529 3:0.7267481 4:0.68173986 5:0.38677479 6:0.033362345 
1 1:0.66254329 2:0.52241896 3:0.55695683 4:0.3106752 5:0.34865787 6:0.92479862 
1 1:0.29371713 2:0.38377299 3:0.62963324 4:0.60175498 5:0.54913069 6:0.90502972 
0.1652189690656756 1:0.46449511 2:0.48289275 3:0.34786512 4:0.28498586 5:0.18921667 6:0.13234316 
1 1:0.57730183 2:0.34977217 3:0.68000096 4:0.51195032 5:0.46002994 6:0.61170824 
1 1:0.40139415 2:0.42279014 3:0.76431074 4:0.9511461 5:0.52395954 6:0.39564371 
0.8923415245248059 1:0.43588928 2:0.64489622 3:0.52904659 4:0.76497264 5:0.59008393 6:0.10463879 
0.06717448473169345 1:0.40470781 2:0.53187192 3:0.41543213 4:0.49290236 5:0.1986903 6:0.017025517 
1 1:0.62968873 2:0.60130504 3:0.61045109 4:0.97102829 5:0.39905067 6:0.73268591 
1 1:0.52713738 2:0.37855258 3:0.41818511 4:0.6302242 5:0.55194174 6:0.69297134 
1 1:0.52698118 2:0.28789879 3:0.65993039 4:0.26593995 5:0.25368999 6:0.7214572 
0.8679425415888855 1:0.45541693 2:0.3079263 3:0.40243942 4:0.12501261 5:0.30883044 6:0.21930419 
1 1:0.54207856 2:0.66738074 3:0.61579445 4:0.0094867301 5:0.86179816 6:0.097147127 
1 1:0.52366492 2:0.66922878 3:0.60983647 4:0.014577007 5:0.2533292 6:0.58036948 
0.3527610373633593 1:0.38683737 2:0.47253852 3:0.80398789 4:0.3924007 5:0.41049817 6:0.62150923 
1 1:0.39137681 2:0.56653215 3:0.60726224 4:0.7866978 5:0.87464503 6:0.44469854 
1 1:0.60896757 2:0.44054363 3:0.43044218 4:0.052436079 5:0.11692979 6:0.25097554 
1 1:0.61749604 2:0.60202825 3:0.67322043 4:0.13213062 5:0.25765981 6:0.42849468 
1 1:0.54111798 2:0.34511988 3:0.51859164 4:0.76745863 5:0.67405565 6:0.22526541 
0.5545924557242452 1:0.50420602 2:0.33139873 3:0.57654987 4:0.90360631 5:0.74670769 6:0.12313156 
1 1:0.37195042 2:0.58227035 3:0.60955145 4:0.76180501 5:0.28958663 6:0.22277293 
0.4967931368650706 1:0.42043117 2:0.46151685 3:0.3169425 4:0.81274414 5:0.095964499 6:0.65538501 
1 1:0.48927011 2:0.3900572 3:0.38655785 4:0.35150261 5:0.56529476 6:0.17131887 
1 1:0.57665032 2:0.51937675 3:0.44758442 4:0.29626385 5:0.71049253 6:0.28419219 
0.6261983147990878 1:0.50502901 2:0.32074771 3:0.45696935 4:0.65243448 5:0.93852924 6:0.96623351 
1 1:0.57399323 2:0.59916779 3:0.45573732 4:0.329176 5:0.32091148 6:0.11597862 
1 1:0.37612437 2:0.43211698 3:0.50518657 4:0.5160841 5:0.59304268 6:0.16844335 
0.3453353835527794 1:0.36911294 2:0.45348216 3:0.40238708 4:0.34362466 5:0.66608345 6:0.94930449 
1 1:0.37089629 2:0.59850916 3:0.71011933 4:0.47910748 5:0.37370262 6:0.63091829 
0.9859040757272519 1:0.35125099 2:0.37212139 3:0.69643084 4:0.1420615 5:0.59096453 6:0.24701259 
1 1:0.43328228 2:0.66890716 3:0.53100912 4:0.0094042181 5:0.46131565 6:0.054304854 
0.1412689102310758 1:0.65813864 2:0.54539584 3:0.48418045 4:0.9947105 5:0.34377466 6:0.67449963 
0.03067413429273711 1:0.40007519 2:0.65553556 3:0.5918666 4:0.49582926 5:0.53194005 6:0.21167576 
1 1:0.39499546 2:0.50023521 3:0.44839052 4:0.4061336 5:0.065151996 6:0.81424096 
1 1:0.4424082 2:0.34060372 3:0.70834159 4:0.24079756 5:0.32235449 6:0.80456411 
1 1:0.56715555 2:0.62255697 3:0.70873928 4:0.60861256 5:0.21962287 6:0.01505963 
1 1:0.43736149 2:0.48749719 3:0.7712305 4:0.91825141 5:0.48505452 6:0.72605206 
1 1:0.52992666 2:0.54304723 3:0.36210016 4:0.69922183 5:0.19291157 6:0.64175539 
1 1:0.41088084 2:0.57944741 3:0.69924435 4:0.085999267 5:0.7817102 6:0.88069794 
0.9059839080672608 1:0.70420597 2:0.50238307 3:0.45141197 4:0.1899061 5:0.09163824 6:0.91306665 
1 1:0.43117019 2:0.57615962 3:0.78516866 4:0.12044076 5:0.5731989 6:0.70594035 
0.3056250683141725 1:0.539247 2:0.53214928 3:0.82667852 4:0.33195637 5:0.91048706 6:0.19322346 
1 1:0.34043574 2:0.50234286 3:0.59632105 4:0.49529751 5:0.49449118 6:0.7533295 
0.2414246863734214 1:0.42079851 2:0.46440013 3:0.81448138 4:0.60831621 5:0.52098911 6:0.76773129 
0.7395039744754847 1:0.44148396 2:0.66261059 3:0.74191539 4:0.95651529 5:0.69189851 6:0.60953456 
1 1:0.53921738 2:0.34737774 3:0.74746838 4:0.20248759 5:0.43503133 6:0.27555886 
1 1:0.49471911 2:0.33593474 3:0.56608972 4:0.27177344 5:0.16652357 6:0.059102884 
1 1:0.5423489 2:0.63997191 3:0.66282251 4:0.92058384 5:0.22774494 6:0.08351661 
1 1:0.40212144 2:0.61478343 3:0.41433771 4:0.3101181 5:0.46292068 6:0.43914272 
0.6155281725112395 1:0.59883529 2:0.65913483 3:0.73899135 4:0.82679696 5:0.74071976 6:0.79161183 
1 1:0.36099244 2:0.37851789 3:0.52719055 4:0.52559199 5:0.29124102 6:0.2634151 
1 1:0.54196407 2:0.64386267 3:0.69234739 4:0.39059351 5:0.63808672 6:0.20216282 
1 1:0.46109618 2:0.68413231 3:0.6216068 4:0.82583886 5:0.66026484 6:0.78759127 
1 1:0.45211349 2:0.37600496 3:0.68605537 4:0.9137531 5:0.65536477 6:0.086065926 
1 1:0.59192199 2:0.35914789 3:0.56985693 4:0.93359504 5:0.73794834 6:0.78013719 
1 1:0.40524049 2:0.60653342 3:0.4367387 4:0.24820558 5:0.62373473 6:0.85023467 
0.9010376556482556 1:0.56587766 2:0.52004913 3:0.33290647 4:0.97719974 5:0.71591494 6:0.68239359 
0.3641756462791297 1:0.6482229 2:0.37156952 3:0.65309714 4:0.95558005 5:0.75180714 6:0.20021122 
1 1:0.62351751 2:0.41421934 3:0.51456746 4:0.31783672 5:0.61061039 6:0.21585789 
1 1:0.31353951 2:0.47317396 3:0.59808521 4:0.44550062 5:0.81990448 6:0.85110192 
1 1:0.6212128 2:0.36542034 3:0.52585373 4:0.50531621 5:0.23903159 6:0.50922603 
1 1:0.58919439 2:0.38496075 3:0.69631648 4:0.30657884 5:0.31647214 6:0.77232671 
0.2752235570090862 1:0.30626769 2:0.3138771 3:0.53690885 4:0.48869643 5:0.12321255 6:0.96201835 
1 1:0.37241157 2:0.49658944 3:0.65972626 4:0.52252679 5:0.49286717 6:0.56584808 
0.01139750255876503 1:0.5371763 2:0.30685546 3:0.44772839 4:0.78434225 5:0.087372635 6:0.75942843 
0.02120120212545363 1:0.33754072 2:0.51524161 3:0.88551286 4:0.99606556 5:0.93407377 6:0.97191887 
0.02054432713624851 1:0.40864477 2:0.44515948 3:0.79831183 4:0.6696235 5:0.80208574 6:0.46440384 
0.9355366083544642 1:0.47066201 2:0.34532025 3:0.38024096 4:0.917157 5:0.28767649 6:0.86605301 
0.5987774846710203 1:0.45414688 2:0.69103262 3:0.69761432 4:0.56862143 5:0.59888231 6:0.97291465 
1 1:0.38697906 2:0.45194885 3:0.69277378 4:0.85718882 5:0.91783431 6:0.38860609 
0.6292079162648807 1:0.53752064 2:0.43326069 3:0.82979382 4:0.81330913 5:0.77574598 6:0.0013997064 
1 1:0.43122054 2:0.61754116 3:0.61197738 4:0.51292639 5:0.92114118 6:0.18313763 
1 1:0.30729762 2:0.48640606 3:0.58040033 4:0.057984526 5:0.57752541 6:0.75146254 
0.2466415746604843 1:0.59551747 2:0.60500851 3:0.46251536 4:0.89471262 5:0.3704824 6:0.034369329 
1 1:0.55245838 2:0.29541572 3:0.55802066 4:0.037420509 5:0.47083282 6:0.46414687 
1 1:0.58936374 2:0.58049703 3:0.67042064 4:0.95578534 5:0.3843511 6:0.56239291 
0.4539286972514717 1:0.3837351 2:0.53716452 3:0.34275289 4:0.99316342 5:0.63735966 6:0.83934563 
1 1:0.57817114 2:0.37072433 3:0.40322478 4:0.018956383 5:0.35140151 6:0.78499738 
0.2545014650891871 1:0.43121277 2:0.32224162 3:0.73552079 4:0.76799779 5:0.65660736 6:0.88123566 
1 1:0.46996982 2:0.52189657 3:0.80758765 4:0.71852575 5:0.49744685 6:0.28772104 
0.8991999295489013 1:0.52442307 2:0.63936208 3:0.43008149 4:0.63059229 5:0.58830196 6:0.85639512 
1 1:0.36223045 2:0.44422728 3:0.51052709 4:0.7286303 5:0.33424004 6:0.13659043 
0.7534125846707441 1:0.57613378 2:0.63494736 3:0.74436801 4:0.43910622 5:0.15069882 6:0.023290789 
1 1:0.46870701 2:0.58213825 3:0.7994778 4:0.14043501 5:0.066982849 6:0.87293216 
1 1:0.42713792 2:0.56833534 3:0.61560413 4:0.12230916 5:0.70138826 6:0.95207728 
1 1:0.45584725 2:0.47047824 3:0.36617373 4:0.72817457 5:0.44092952 6:0.3607654 
1 1:0.42732846 2:0.35630116 3:0.72597153 4:0.30434613 5:0.40386907 6:0.38986928 
0.5387445348623605 1:0.43619512 2:0.51844043 3:0.82251993 4:0.66553801 5:0.75242669 6:0.18751949 
0.3733993699022355 1:0.65901642 2:0.43592216 3:0.49667841 4:0.77742559 5:0.69309602 6:0.62885256 
1 1:0.59140359 2:0.35291478 3:0.59139298 4:0.73069338 5:0.53661053 6:0.27431844 
1 1:0.6653176 2:0.43819802 3:0.54935623 4:0.74227204 5:0.75987512 6:0.58882484 
0.1968985322170982 1:0.64514589 2:0.46838075 3:0.75821519 4:0.1239654 5:0.78092384 6:0.034953033 
1 1:0.3624822 2:0.54942731 3:0.48792455 4:0.51858939 5:0.79260238 6:0.2321841 
0.3910947387484034 1:0.2167091 2:0.40722289 3:0.5824646 4:0.8141545 5:0.14866415 6:0.88258003 
0.08336356855287536 1:0.46391035 2:0.30458125 3:0.67900983 4:0.46727939 5:0.32943362 6:0.07276518 
0.8138917240628243 1:0.51684812 2:0.69235415 3:0.46698357 4:0.31207285 5:0.8799203 6:0.77400936 
0.5539960794908187 1:0.66787416 2:0.56842068 3:0.44725209 4:0.91323715 5:0.103027 6:0.15999556 
1 1:0.51860194 2:0.36490307 3:0.45825491 4:0.22699496 5:0.82923669 6:0.11160165 
1 1:0.50634844 2:0.49608085 3:0.37129313 4:0.42921324 5:0.57039143 6:0.22913169 
0.1736843787683423 1:0.63633796 2:0.35153266 3:0.54856749 4:0.63065357 5:0.41338558 6:0.66933145 
1 1:0.43600467 2:0.67203181 3:0.47394558 4:0.75813498 5:0.64438391 6:0.56360408 
0.9411920380242849 1:0.58394209 2:0.35616654 3:0.40586325 4:0.7604754 5:0.30852934 6:0.56587732 
0.4046976878518605 1:0.66378134 2:0.46839786 3:0.73082266 4:0.44018999 5:0.73405676 6:0.10666243 
0.1302433796644357 1:0.60613015 2:0.3587255 3:0.69306722 4:0.22916267 5:0.38978745 6:0.99022851 
0.4990537010083129 1:0.41843319 2:0.63991544 3:0.73513122 4:0.64400016 5:0.69609588 6:0.62680114 
0.005324664521476983 1:0.61511171 2:0.4518332 3:0.79758319 4:0.47203462 5:0.24033978 6:0.37490642 
1 1:0.47561533 2:0.28368893 3:0.62369413 4:0.98989258 5:0.58808095 6:0.61470063 
1 1:0.6378118 2:0.57332887 3:0.61158681 4:0.019950818 5:0.16476005 6:0.86300024 
0.1361609495383892 1:0.49442969 2:0.64161557 3:0.78560255 4:0.54106189 5:0.65594501 6:0.68630369 
1 1:0.49353129 2:0.65419589 3:0.49015384 4:0.14676695 5:0.32723875 6:0.015630769 
1 1:0.59205634 2:0.57224954 3:0.7243572 4:0.60094099 5:0.07640204 6:0.75226777 
0.3961414611252613 1:0.50082173 2:0.70810844 3:0.6731705 4:0.15495397 5:0.41103186 6:0.40106858 
1 1:0.45172829 2:0.30571301 3:0.5420222 4:0.66094997 5:0.45354112 6:0.66758953 
1 1:0.45585008 2:0.28081346 3:0.67300816 4:0.94292447 5:0.29783265 6:0.98804536 
1 1:0.49835989 2:0.39058633 3:0.68410297 4:0.9776982 5:0.28292528 6:0.45172744 
1 1:0.40322935 2:0.4471792 3:0.71922327 4:0.33426076 5:0.69657075 6:0.58510218 
1 1:0.60418233 2:0.47432107 3:0.56198026 4:0.9385642 5:0.38347221 6:0.81013803 
1 1:0.5897825 2:0.4736533 3:0.40136545 4:0.64254459 5:0.8860744 6:0.30584199 
0.01285727253316294 1:0.50154404 2:0.45492899 3:0.38371544 4:0.30990485 5:0.72900596 6:0.011515225 
1 1:0.53503288 2:0.33365176 3:0.46516512 4:0.9736707 5:0.5403886 6:0.36810705 
0.6504003917547214 1:0.41546529 2:0.48388566 3:0.4166494 4:0.78562443 5:0.16952938 6:0.10225356 
1 1:0.58873183 2:0.45951212 3:0.37499648 4:0.67920343 5:0.78977998 6:0.62257914 
1 1:0.48875186 2:0.49037306 3:0.39905357 4:0.78997377 5:0.66205207 6:0.19371581 
1 1:0.55153456 2:0.38445501 3:0.71091854 4:0.7067873 5:0.54655694 6:0.92687474 
0.01191475006816959 1:0.32294922 2:0.52030297 3:0.44165297 4:0.42986296 5:0.24871117 6:0.45192715 
1 1:0.33694953 2:0.44954663 3:0.41203828 4:0.58251383 5:0.8049139 6:0.42619749 
1 1:0.63404314 2:0.46172214 3:0.55432103 4:0.6367762 5:0.12394642 6:0.97020174 
0.5496412912591077 1:0.37624063 2:0.47103072 3:0.38866464 4:0.23751797 5:0.5783243 6:0.089620598 
1 1:0.53836848 2:0.46797526 3:0.37440513 4:0.1152484 5:0.53890389 6:0.018178696 
1 1:0.46692286 2:0.31766197 3:0.49791808 4:0.74628382 5:0.63867724 6:0.62485923 
0.03304589598008694 1:0.37686788 2:0.3863237 3:0.7368512 4:0.38280859 5:0.50626559 6:0.93112245 
1 1:0.35557736 2:0.5380882 3:0.73290664 4:0.54538338 5:0.78023472 6:0.7127261 
0.6155608819672912 1:0.69317287 2:0.42718118 3:0.54850653 4:0.88684356 5:0.44459553 6:0.029640711 
1 1:0.47807487 2:0.60065205 3:0.65509315 4:0.29730346 5:0.86180764 6:0.2488838 
1 1:0.59080591 2:0.62809725 3:0.64316255 4:0.22323465 5:0.49153049 6:0.16336916 
0.9170194488328129 1:0.49678252 2:0.27679059 3:0.66663375 4:0.021060704 5:0.22256853 6:0.66232381 
0.2695972254683738 1:0.38707181 2:0.45252992 3:0.36779291 4:0.41872721 5:0.65906622 6:0.84880016 
0.03056842297636801 1:0.67307415 2:0.61767112 3:0.4510741 4:0.035992221 5:0.2345263 6:0.63938471 
1 1:0.41056749 2:0.29604659 3:0.51254433 4:0.72239714 5:0.44686807 6:0.8363848 
1 1:0.33743785 2:0.53121348 3:0.52887169 4:0.16796547 5:0.14112904 6:0.45278201 
0.1846444813609312 1:0.49333442 2:0.6443889 3:0.41104513 4:0.012977174 5:0.1401615 6:0.20854607 
1 1:0.662194 2:0.52426744 3:0.51895912 4:0.66745215 5:0.70031762 6:0.01532653 
0.01067828431465632 1:0.31655664 2:0.57521812 3:0.67855537 4:0.33859537 5:0.3886815 6:0.053658874 
0.1252931629485718 1:0.48756292 2:0.31551279 3:0.41455144 4:0.055759701 5:0.037908439 6:0.16947737 
1 1:0.54427208 2:0.35505908 3:0.64321084 4:0.79822198 5:0.77034322 6:0.25398216 
1 1:0.559737 2:0.52914786 3:0.40408161 4:0.44569687 5:0.23085511 6:0.97325932 
0.4630247865918449 1:0.6903782 2:0.40778716 3:0.5847599 4:0.75155829 5:0.68765989 6:0.15429603 
1 1:0.33394274 2:0.41052021 3:0.56159399 4:0.037559558 5:0.30301783 6:0.30109531 
1 1:0.59941189 2:0.5171033 3:0.62287038 4:0.53583139 5:0.3938412 6:0.69165043 
1 1:0.3638489 2:0.4510369 3:0.55237331 4:0.96872247 5:0.22685269 6:0.21063808 
1 1:0.46210661 2:0.59802136 3:0.41891928 4:0.12481126 5:0.71542588 6:0.14737653 
1 1:0.38524143 2:0.59839903 3:0.45079658 4:0.37005913 5:0.17677454 6:0.41517319 
1 1:0.4467961 2:0.49450939 3:0.79609543 4:0.8663344 5:0.16326911 6:0.49579766 
1 1:0.41208784 2:0.54186011 3:0.74923718 4:0.8582409 5:0.5380283 6:0.19919319 
1 1:0.34765691 2:0.54237656 3:0.60193253 4:0.89738604 5:0.46430341 6:0.46440872 
1 1:0.4166565 2:0.31245394 3:0.61087537 4:0.95152417 5:0.66555731 6:0.49781461 
0.2576086598430914 1:0.32354729 2:0.46596156 3:0.67191389 4:0.60936673 5:0.4750926 6:0.33334961 
1 1:0.55260003 2:0.36462802 3:0.61510013 4:0.074127735 5:0.75993002 6:0.26495918 
1 1:0.64843855 2:0.41169209 3:0.64139152 4:0.92257844 5:0.61938456 6:0.20556019 
0.7002350230270963 1:0.59928801 2:0.44664308 3:0.39316802 4:0.93719923 5:0.8890637 6:0.24940172 
1 1:0.64516465 2:0.50715905 3:0.73085121 4:0.58706326 5:0.41499745 6:0.1554293 
1 1:0.5887787 2:0.58367019 3:0.68151656 4:0.68004148 5:0.33704115 6:0.6408777 
0.186754642630995 1:0.60918906 2:0.54922151 3:0.37655959 4:0.55230376 5:0.84458874 6:0.41871597 
1 1:0.3953511 2:0.59885234 3:0.42988621 4:0.9267728 5:0.75141508 6:0.51521948 
1 1:0.5154782 2:0.38506973 3:0.63946985 4:0.57353187 5:0.77919448 6:0.65048576 
0.4043094975762966 1:0.68855852 2:0.44369519 3:0.50294044 4:0.31346771 5:0.46872632 6:0.25885691 
1 1:0.39664662 2:0.39164778 3:0.76176922 4:0.81693332 5:0.71257671 6:0.70843288 
0.04915464719241834 1:0.32710044 2:0.35777684 3:0.52355772 4:0.57329087 5:0.58465347 6:0.88099763 
0.5662613351679132 1:0.26465705 2:0.38584289 3:0.5791445 4:0.91404664 5:0.58803778 6:0.85151284 
1 1:0.441653 2:0.40706547 3:0.38203479 4:0.92115219 5:0.11463607 6:0.98968709 
1 1:0.59340358 2:0.49241287 3:0.38522173 4:0.30291486 5:0.83389656 6:0.82201136 
1 1:0.42238741 2:0.3550067 3:0.54135595 4:0.24748128 5:0.37776485 6:0.065846916 
0.0752100628889804 1:0.63299172 2:0.48327077 3:0.75651195 4:0.50590722 5:0.54713111 6:0.64689498 
0.669813857350874 1:0.49094637 2:0.68094258 3:0.61126516 4:0.24764464 5:0.88273824 6:0.034377743 
0.9248184694944549 1:0.3472187 2:0.59298522 3:0.57613504 4:0.12020639 5:0.4808256 6:0.94255122 
1 1:0.59206161 2:0.6035131 3:0.58813377 4:0.6534474 5:0.25525281 6:0.19540431 
1 1:0.5498905 2:0.64708807 3:0.47571052 4:0.083870466 5:0.78864868 6:0.80375686 
0.1879654586664215 1:0.54611033 2:0.30013946 3:0.5351453 4:0.62194799 5:0.15778875 6:0.94083288 
1 1:0.32449257 2:0.47975332 3:0.63681676 4:0.50733304 5:0.53176594 6:0.64534403 
-1 1:0.65672318 2:0.39950589 3:0.62009299 4:0.23702012 5:0.44455717 6:0.7813882 
-1 1:0.38330544 2:0.74490954 3:0.62447431 4:0.15397251 5:0.8386207 6:0.35525351 
-1 1:0.52674832 2:0.42221792 3:0.53670217 4:0.47739317 5:0.5032885 6:0.41555155 
-1 1:0.40965486 2:0.4362142 3:0.50264174 4:0.67055864 5:0.6774412 6:0.77473801 
-1 1:0.42381327 2:0.48392075 3:0.44345441 4:0.060315595 5:0.46033727 6:0.064245272 
-1 1:0.43409638 2:0.69113606 3:0.77981222 4:0.11743154 5:0.43032532 6:0.10143784 
-1 1:0.49917449 2:0.49617473 3:0.4503025 4:0.84204424 5:0.50367587 6:0.047322088 
-1 1:0.42904227 2:0.47455971 3:0.64123746 4:0.22090508 5:0.47334303 6:0.82083783 
-1 1:0.32906411 2:0.33171274 3:0.80665847 4:0.77662025 5:0.28511354 6:0.85305478 
-1 1:0.48516334 2:0.61224453 3:0.74651208 4:0.22994357 5:0.16843445 6:0.040586791 
-1 1:0.46069234 2:0.57362618 3:0.67575721 4:0.64419653 5:0.011706832 6:0.94199574 
-1 1:0.50536241 2:0.40892136 3:0.50978033 4:0.2771602 5:0.80696379 6:0.75591887 
-1 1:0.5800875 2:0.38793712 3:0.52503624 4:0.68854864 5:0.24378244 6:0.21056128 
-1 1:0.74359093 2:0.6082358 3:0.5284879 4:0.76598866 5:0.68511666 6:0.19450464 
-1 1:0.4157044 2:0.43946476 3:0.62754439 4:0.93237593 5:0.93077743 6:0.83442934 
-1 1:0.47995582 2:0.44138029 3:0.69054552 4:0.7556236 5:0.79860366 6:0.63659689 
-1 1:0.40558744 2:0.4384117 3:0.74761245 4:0.4576268 5:0.34656001 6:0.98962946 
-1 1:0.56102705 2:0.59236238 3:0.58866101 4:0.9505076 5:0.042148129 6:0.62442183 
-1 1:0.30426123 2:0.40168991 3:0.58833997 4:0.96285625 5:0.791285 6:0.88873572 
-1 1:0.40574368 2:0.21482215 3:0.5053314 4:0.94280448 5:0.4425632 6:0.74834016 
-1 1:0.54509366 2:0.56124549 3:0.59254923 4:0.71475146 5:0.75866789 6:0.38673933 
-1 1:0.45189963 2:0.48568361 3:0.505422 4:0.26810978 5:0.19382823 6:0.63981035 
-1 1:0.48173283 2:0.42936075 3:0.44197949 4:0.53193534 5:0.076370974 6:0.30032557 
-1 1:0.49181378 2:0.40305464 3:0.57881656 4:0.80039451 5:0.20832781 6:0.84102118 
-1 1:0.54901678 2:0.52357312 3:0.65786221 4:0.98411801 5:0.23435897 6:0.38948396 
-1 1:0.58232453 2:0.48857713 3:0.69483885 4:0.44303935 5:0.75268192 6:0.66983293 
-1 1:0.47928877 2:0.55476017 3:0.69965242 4:0.18045752 5:0.53712039 6:0.23692299 
-1 1:0.53573852 2:0.45591099 3:0.57985643 4:0.15569956 5:0.19978382 6:0.2548357 
-1 1:0.52714876 2:0.56245616 3:0.4663885 4:0.91428227 5:0.54725533 6:0.49087345 
-1 1:0.5643896 2:0.50201158 3:0.82715814 4:0.10590029 5:0.51080372 6:0.065897406 
-1 1:0.64015128 2:0.57179974 3:0.6296385 4:0.58422282 5:0.24761503 6:0.55677123 
-1 1:0.44366616 2:0.40720725 3:0.55381606 4:0.0049934254 5:0.48800871 6:0.32002664 
-1 1:0.49873832 2:0.4595419 3:0.74504575 4:0.18480459 5:0.71222562 6:0.87669282 
-1 1:0.29149897 2:0.29152814 3:0.50564725 4:0.86309601 5:0.30175218 6:0.72591143 
-1 1:0.61033727 2:0.42622913 3:0.62168045 4:0.8373774 5:0.34192958 6:0.20584764 
-1 1:0.41930293 2:0.50284955 3:0.43609916 4:0.39801758 5:0.039181987 6:0.062253768 
-1 1:0.43268119 2:0.40260744 3:0.47950648 4:0.9554342 5:0.23979822 6:0.54842412 
-1 1:0.59827241 2:0.53655201 3:0.73080436 4:0.9198696 5:0.33935808 6:0.14580086 
-1 1:0.5831778 2:0.54374958 3:0.47923553 4:0.86817608 5:0.33542975 6:0.53650973 
-1 1:0.61054895 2:0.34829942 3:0.50262886 4:0.15386129 5:0.10323872 6:0.60636846 
-1 1:0.48763056 2:0.42103882 3:0.69737701 4:0.50348654 5:0.41050535 6:0.6210455 
-1 1:0.42888834 2:0.39341779 3:0.67622988 4:0.022568525 5:0.56935393 6:0.91406743 
-1 1:0.43928125 2:0.35144657 3:0.67032916 4:0.8430991 5:0.46691341 6:0.9398159 
-1 1:0.51628324 2:0.51681492 3:0.43095764 4:0.94091871 5:0.42664548 6:0.29954251 
-1 1:0.43824228 2:0.53108862 3:0.44642848 4:0.22244976 5:0.86888845 6:0.92069642 
-1 1:0.44018048 2:0.595444 3:0.67551818 4:0.034340802 5:0.54851116 6:0.28960882 
-1 1:0.59156576 2:0.41814398 3:0.66929383 4:0.92483913 5:0.69865318 6:0.64094347 
-1 1:0.35093523 2:0.32741873 3:0.64307854 4:0.34076771 5:0.55495937 6:0.17646754 
-1 1:0.44947978 2:0.5258776 3:0.43585164 4:0.44225213 5:0.299907 6:0.20108171 
-1 1:0.40535568 2:0.50710006 3:0.65097364 4:0.17692464 5:0.38542339 6:0.5093681 
-1 1:0.46358388 2:0.43652662 3:0.55721983 4:0.82388415 5:0.29780827 6:0.44327851 
-1 1:0.39384121 2:0.56431827 3:0.55315439 4:0.73103703 5:0.53726792 6:0.8463902 
-1 1:0.52168726 2:0.45578447 3:0.75713291 4:0.27023881 5:0.40115992 6:0.77965031 
-1 1:0.47895697 2:0.69354003 3:0.49033028 4:0.095097686 5:0.89432915 6:0.31240573 
-1 1:0.41340917 2:0.59428961 3:0.52868 4:0.82070156 5:0.32197986 6:0.50852548 
-1 1:0.56841544 2:0.45525903 3:0.74916115 4:0.21692238 5:0.34691572 6:0.86663173 
-1 1:0.47589982 2:0.61878393 3:0.37245384 4:0.4048671 5:0.4736708 6:0.56649121 
-1 1:0.50792988 2:0.56141088 3:0.44807794 4:0.30315989 5:0.5737042 6:0.028985653 
-1 1:0.59710551 2:0.35285011 3:0.71978469 4:0.89212013 5:0.16753849 6:0.95956737 
-1 1:0.63245513 2:0.48183774 3:0.79762777 4:0.98771333 5:0.17373915 6:0.91854777 
-1 1:0.4685761 2:0.38263531 3:0.54022605 4:0.90351024 5:0.60810528 6:0.060239844 
-1 1:0.63410228 2:0.52624347 3:0.83334261 4:0.73141083 5:0.54166972 6:0.1647907 
-1 1:0.47673293 2:0.58772722 3:0.57364615 4:0.65482998 5:0.69068894 6:0.95818411 
-1 1:0.43072706 2:0.51690555 3:0.74998346 4:0.66616652 5:0.22680747 6:0.58436497 
-1 1:0.55040066 2:0.43509475 3:0.60784394 4:0.908786 5:0.72580756 6:0.55385856 
-1 1:0.69554424 2:0.63993496 3:0.40354012 4:0.23306938 5:0.67556632 6:0.60205038 
-1 1:0.36806788 2:0.63335303 3:0.83419838 4:0.55242729 5:0.44835623 6:0.8889477 
-1 1:0.47627769 2:0.25277736 3:0.42085095 4:0.1044319 5:0.27707086 6:0.60131067 
-1 1:0.47843992 2:0.35847618 3:0.50546562 4:0.93608533 5:0.74802763 6:0.73227082 
-1 1:0.41816861 2:0.52800666 3:0.73607255 4:0.38250728 5:0.42958969 6:0.55268662 
-1 1:0.70844021 2:0.66162522 3:0.49395129 4:0.3756992 5:0.63445751 6:0.76395242 
-1 1:0.561567 2:0.59401516 3:0.50780566 4:0.093677201 5:0.17108188 6:0.82934951 
-1 1:0.52632667 2:0.56920009 3:0.560825 4:0.16775104 5:0.17310645 6:0.38212596 
-1 1:0.53530855 2:0.39322662 3:0.49401953 4:0.73752558 5:0.030828714 6:0.83029975 
-1 1:0.41092743 2:0.46183712 3:0.51320262 4:0.10123776 5:0.58446915 6:0.30932195 
-1 1:0.31062144 2:0.55239537 3:0.53201362 4:0.67504811 5:0.33222997 6:0.82563471 
-1 1:0.61873961 2:0.5120661 3:0.67786241 4:0.85546947 5:0.45335467 6:0.73670991 
-1 1:0.40240462 2:0.44323986 3:0.39929437 4:0.80164589 5:0.62474999 6:0.70468762 
-1 1:0.54988633 2:0.57851544 3:0.57290471 4:0.034576134 5:0.4259839 6:0.018070132 
-1 1:0.33671807 2:0.48499345 3:0.61123562 4:0.17583929 5:0.4732236 6:0.22025499 
-1 1:0.47437073 2:0.37362265 3:0.79812142 4:0.75565628 5:0.31064501 6:0.014163783 
-1 1:0.46271683 2:0.53992185 3:0.7391058 4:0.36963931 5:0.19668046 6:0.14304252 
-1 1:0.51308199 2:0.4769787 3:0.76108559 4:0.3925728 5:0.76581554 6:0.1086609 
-1 1:0.49336559 2:0.50761925 3:0.5983922 4:0.9659767 5:0.44553056 6:0.93975257 
-1 1:0.57411023 2:0.3407764 3:0.51346346 4:0.15918117 5:0.65209218 6:0.85395144 
-1 1:0.44678756 2:0.48568334 3:0.52735448 4:0.95209289 5:0.88654046 6:0.79697684 
-1 1:0.54367547 2:0.71587486 3:0.51317869 4:0.19138129 5:0.90268215 6:0.41532628 
-1 1:0.3879247 2:0.55258426 3:0.4206008 4:0.79395073 5:0.36187858 6:0.59477178 
-1 1:0.46363573 2:0.48658522 3:0.62511046 4:0.80177844 5:0.80170707 6:0.91972502 
-1 1:0.53831149 2:0.58461513 3:0.31813612 4:0.16531367 5:0.56242497 6:0.49204369 
-1 1:0.36474878 2:0.40885885 3:0.63132028 4:0.81694413 5:0.20049018 6:0.72661087 
-1 1:0.45856662 2:0.44052339 3:0.50520054 4:0.68267303 5:0.86724254 6:0.56566801 
-1 1:0.54666133 2:0.40106661 3:0.58981344 4:0.6361112 5:0.18104774 6:0.23600747 
-1 1:0.54807654 2:0.48455933 3:0.5638205 4:0.81293239 5:0.70316018 6:0.36910397 
-1 1:0.73631438 2:0.63633746 3:0.54281637 4:0.20360898 5:0.12681085 6:0.88012232 
-1 1:0.42606536 2:0.58414156 3:0.71001487 4:0.5111395 5:0.70258539 6:0.62190225 
-1 1:0.51100615 2:0.48245225 3:0.62900603 4:0.93546487 5:0.75319726 6:0.63116072 
-1 1:0.46056704 2:0.57201188 3:0.54725486 4:0.5505053 5:0.67768267 6:0.33285275 
-1 1:0.280279 2:0.62392877 3:0.68512429 4:0.50693435 5:0.1236169 6:0.89436568 
-1 1:0.39711067 2:0.54937626 3:0.35933872 4:0.9163298 5:0.1295172 6:0.60231696 
-1 1:0.43181422 2:0.54944002 3:0.54216188 4:0.56042009 5:0.44741864 6:0.75384179 
-1 1:0.56495666 2:0.32397333 3:0.70081434 4:0.032542706 5:0.45479363 6:0.92631593 
-1 1:0.43630637 2:0.61980895 3:0.46860121 4:0.5500784 5:0.65813742 6:0.78500549 
-1 1:0.28220836 2:0.38460534 3:0.32763337 4:0.82673626 5:0.6358802 6:0.64734988 
-1 1:0.54761324 2:0.44863704 3:0.73667559 4:0.851524 5:0.54520729 6:0.095723523 
-1 1:0.60657214 2:0.50818655 3:0.32240017 4:0.49544568 5:0.29518699 6:0.58077806 
-1 1:0.59503425 2:0.4730929 3:0.76947718 4:0.7943424 5:0.61931397 6:0.32778855 
-1 1:0.42727294 2:0.47252901 3:0.77946487 4:0.69749629 5:0.54596369 6:0.021642868 
-1 1:0.48342133 2:0.51573881 3:0.57134869 4:0.18017343 5:0.7095953 6:0.1438434 
-1 1:0.49273217 2:0.46280162 3:0.54713255 4:0.60934264 5:0.42460675 6:0.19415176 
-1 1:0.44666184 2:0.52450612 3:0.48287429 4:0.42206502 5:0.77577811 6:0.41099445 
-1 1:0.56172186 2:0.56074829 3:0.40438209 4:0.20757553 5:0.49795105 6:0.73123788 
-1 1:0.41019266 2:0.32346682 3:0.62203157 4:0.90436172 5:0.72445708 6:0.75694174 
-1 1:0.42008884 2:0.49412883 3:0.57476224 4:0.30465548 5:0.51175619 6:0.62621586 
-1 1:0.49654011 2:0.42454143 3:0.5959529 4:0.9071485 5:0.41024852 6:0.24604457 
-1 1:0.56786355 2:0.48057299 3:0.69034244 4:0.19901368 5:0.27698489 6:0.49814041 
-1 1:0.56471394 2:0.57684014 3:0.47616232 4:0.31650266 5:0.48768288 6:0.21505508 
-1 1:0.41879684 2:0.61768051 3:0.44785084 4:0.64051143 5:0.31954688 6:0.74986364 
-1 1:0.49317893 2:0.35726492 3:0.67678246 4:0.65353459 5:0.95102142 6:0.42866838 
-1 1:0.45400995 2:0.45764834 3:0.42228552 4:0.24250025 5:0.66458869 6:0.423244 
-1 1:0.49973735 2:0.54201881 3:0.39069074 4:0.64537375 5:0.22946017 6:0.70118557 
-1 1:0.60634627 2:0.57828367 3:0.54023025 4:0.15025425 5:0.28114732 6:0.95442329 
-1 1:0.47169483 2:0.38081567 3:0.64524033 4:0.98543364 5:0.4533663 6:0.58863987 
-1 1:0.4916944 2:0.21570399 3:0.60527436 4:0.30557569 5:0.86487449 6:0.064230829 
-1 1:0.51761154 2:0.50625096 3:0.58799202 4:0.86621022 5:0.81438107 6:0.45362254 
-1 1:0.29969895 2:0.63759689 3:0.54750292 4:0.28971097 5:0.91660056 6:0.40870368 
-1 1:0.45596707 2:0.43657304 3:0.61279101 4:0.49444242 5:0.81408152 6:0.017090944 
-1 1:0.73140495 2:0.52129157 3:0.4586643 4:0.94467692 5:0.96471083 6:0.49974025 
-1 1:0.48216142 2:0.52167065 3:0.50830267 4:0.28108752 5:0.13158706 6:0.39261195 
-1 1:0.53582357 2:0.53128708 3:0.58479097 4:0.21725454 5:0.27713567 6:0.37736142 
-1 1:0.54773478 2:0.70973533 3:0.77972664 4:0.37304405 5:0.19179576 6:0.90353473 
-1 1:0.42846783 2:0.56530643 3:0.45322155 4:0.41062115 5:0.61353756 6:0.29136712 
-1 1:0.46416662 2:0.45222209 3:0.55234482 4:0.21466128 5:0.78163733 6:0.78064311 
-1 1:0.43936096 2:0.5491345 3:0.69352759 4:0.51890425 5:0.73015086 6:0.17399928 
-1 1:0.59567057 2:0.54789932 3:0.56257826 4:0.72733424 5:0.72425907 6:0.08807917 
-1 1:0.46618313 2:0.59319208 3:0.80799812 4:0.72945043 5:0.72034838 6:0.92357463 
-1 1:0.6013234 2:0.43795529 3:0.5428258 4:0.28166918 5:0.63807667 6:0.27228941 
-1 1:0.56275119 2:0.50104277 3:0.58220345 4:0.22409134 5:0.2769376 6:0.073265856 
-1 1:0.58350986 2:0.50238074 3:0.70026487 4:0.95905748 5:0.40317047 6:0.32563411 
-1 1:0.39692293 2:0.32312393 3:0.53251592 4:0.9127117 5:0.58222045 6:0.84482332 
-1 1:0.36439012 2:0.42487844 3:0.80184778 4:0.48193772 5:0.39383755 6:0.16523675 
-1 1:0.42496748 2:0.45279389 3:0.56343402 4:0.17184103 5:0.46655595 6:0.10097913 
-1 1:0.42549314 2:0.42775854 3:0.55154922 4:0.41489864 5:0.72362211 6:0.079886916 
-1 1:0.52703385 2:0.48710632 3:0.40582324 4:0.035285874 5:0.52949872 6:0.9327514 
-1 1:0.4930288 2:0.38986186 3:0.54086424 4:0.44468978 5:0.55080719 6:0.36170831 
-1 1:0.35209207 2:0.69054822 3:0.65605196 4:0.4473104 5:0.1654917 6:0.91799519 
-1 1:0.51067055 2:0.62101091 3:0.52979014 4:0.1746713 5:0.59101267 6:0.25588471 
-1 1:0.55958124 2:0.44053428 3:0.30649226 4:0.97136682 5:0.51052012 6:0.60709403 
-1 1:0.59893712 2:0.56221715 3:0.42709305 4:0.68253595 5:0.092032631 6:0.52363479 
-1 1:0.59350707 2:0.41091554 3:0.61604105 4:0.95913826 5:0.4589383 6:0.043935978 
-1 1:0.59637131 2:0.52383984 3:0.65418828 4:0.7217749 5:0.58128691 6:0.34757706 
-1 1:0.35281293 2:0.52381202 3:0.54311882 4:0.10108335 5:0.27426017 6:0.31479199 
-1 1:0.55521815 2:0.51425582 3:0.68968325 4:0.41550094 5:0.36085575 6:0.80832915 
-1 1:0.55127928 2:0.53083472 3:0.69030045 4:0.46105157 5:0.93263816 6:0.91034204 
-1 1:0.52276544 2:0.68520728 3:0.72594367 4:0.29851922 5:0.3591931 6:0.92694372 
-1 1:0.56907122 2:0.46819242 3:0.68924548 4:0.37576711 5:0.94798082 6:0.53814464 
-1 1:0.65920238 2:0.38801419 3:0.63774325 4:0.21092075 5:0.27367711 6:0.65662866 
-1 1:0.4221948 2:0.50326551 3:0.48481728 4:0.024510166 5:0.28151197 6:0.11886589 
-1 1:0.59693646 2:0.46437439 3:0.5487144 4:0.87367811 5:0.13734977 6:0.85196955 
-1 1:0.32608187 2:0.52952713 3:0.82528021 4:0.27815221 5:0.47022807 6:0.10944336 
-1 1:0.40339496 2:0.34992086 3:0.46561665 4:0.025635482 5:0.33128551 6:0.60574447 
-1 1:0.54421634 2:0.65205235 3:0.81818588 4:0.47076521 5:0.5968643 6:0.88440541 
-1 1:0.45139496 2:0.50862686 3:0.56758875 4:0.085391526 5:0.33908373 6:0.31573031 
-1 1:0.36554132 2:0.73937618 3:0.60934841 4:0.92427385 5:0.17001684 6:0.40959746 
-1 1:0.36678784 2:0.30529966 3:0.44075767 4:0.93867083 5:0.56201377 6:0.69994417 
-1 1:0.59248384 2:0.41176734 3:0.75546575 4:0.73516097 5:0.82460371 6:0.30669395 
-1 1:0.43812662 2:0.45220689 3:0.65264872 4:0.96871805 5:0.54617887 6:0.088699954 
-1 1:0.48590828 2:0.50979708 3:0.7672971 4:0.67027037 5:0.5524108 6:0.31494266 
-1 1:0.41755538 2:0.48772348 3:0.59191761 4:0.74992976 5:0.37712008 6:0.51610563 
-1 1:0.44654262 2:0.49459621 3:0.47171616 4:0.27250913 5:0.86133648 6:0.48267046 
-1 1:0.36480788 2:0.5743685 3:0.6530301 4:0.5108374 5:0.04836478 6:0.9779682 
-1 1:0.52721659 2:0.39858389 3:0.52068227 4:0.88463672 5:0.62342867 6:0.88895147 
-1 1:0.47665442 2:0.4991277 3:0.79791695 4:0.44359097 5:0.38980312 6:0.18658063 
-1 1:0.48471761 2:0.48391745 3:0.48799422 4:0.1416662 5:0.30215639 6:0.013518239 
-1 1:0.55195977 2:0.50064778 3:0.80245884 4:0.040647695 5:0.33137025 6:0.11754182 
-1 1:0.40609148 2:0.55639074 3:0.75797939 4:0.082193034 5:0.34457382 6:0.14407673 
-1 1:0.70914416 2:0.67074696 3:0.6884937 4:0.88098351 5:0.38311813 6:0.18160527 
-1 1:0.4837297 2:0.45289893 3:0.65706571 4:0.54162488 5:0.80964062 6:0.40477902 
-1 1:0.55664212 2:0.55881878 3:0.70318504 4:0.87418765 5:0.19076922 6:0.062266922 
-1 1:0.60647369 2:0.64084273 3:0.29533426 4:0.35304575 5:0.59252929 6:0.59071987 
-1 1:0.64380108 2:0.50475143 3:0.69879632 4:0.060999824 5:0.093277759 6:0.89445785 
-1 1:0.72637819 2:0.3387311 3:0.59401126 4:0.60542596 5:0.091385331 6:0.27045806 
-1 1:0.3878652 2:0.58178206 3:0.53832666 4:0.085059226 5:0.5219884 6:0.66098471 
-1 1:0.53768024 2:0.47728147 3:0.52731243 4:0.53184223 5:0.70308493 6:0.43638667 
-1 1:0.50108813 2:0.60587821 3:0.48669855 4:0.035901998 5:0.74685688 6:0.39547044 
-1 1:0.42921672 2:0.45210959 3:0.46749228 4:0.51590786 5:0.47603609 6:0.86619423 
-1 1:0.59592107 2:0.4472148 3:0.696401 4:0.31177493 5:0.33132969 6:0.65502767 
-1 1:0.38980298 2:0.47229395 3:0.69619032 4:0.92261632 5:0.13595122 6:0.74879487 
-1 1:0.56349447 2:0.30112104 3:0.48988845 4:0.63305682 5:0.7397232 6:0.28903968 
-1 1:0.45535981 2:0.44828724 3:0.73873536 4:0.10982152 5:0.97003177 6:0.85763595 
-1 1:0.46060896 2:0.41945738 3:0.54378735 4:0.33265754 5:0.37460099 6:0.0022272677 
-1 1:0.56594595 2:0.50706254 3:0.48992306 4:0.81287848 5:0.16388846 6:0.46498059 
-1 1:0.39365979 2:0.51608168 3:0.47417977 4:0.42404918 5:0.74441111 6:0.29527856 
-1 1:0.50974142 2:0.53300554 3:0.46418498 4:0.56491024 5:0.59261159 6:0.46834151 
-1 1:0.61825216 2:0.49559799 3:0.83383083 4:0.1933705 5:0.50034882 6:0.89509222 
-1 1:0.43911323 2:0.5087837 3:0.73504618 4:0.85537073 5:0.49998141 6:0.30221718 
-1 1:0.58525672 2:0.42614861 3:0.45907985 4:0.98282204 5:0.60179498 6:0.17197155 
-1 1:0.4697889 2:0.58540918 3:0.69506155 4:0.95363955 5:0.45778715 6:0.070675276 
-1 1:0.52075677 2:0.43216194 3:0.55283194 4:0.70966812 5:0.14379799 6:0.98836677 
-1 1:0.42863293 2:0.57105834 3:0.6320757 4:0.061009852 5:0.52726818 6:0.77612485 
-1 1:0.47655033 2:0.47339919 3:0.42783206 4:0.25605434 5:0.36119001 6:0.35968732 
-1 1:0.4943303 2:0.42857505 3:0.71229048 4:0.13292739 5:0.4595344 6:0.49499378 
-1 1:0.49800475 2:0.57432938 3:0.70764817 4:0.60162189 5:0.63415396 6:0.70656425 
-1 1:0.49704691 2:0.45801318 3:0.60270126 4:0.33175195 5:0.67725605 6:0.65043457 
-1 1:0.62195685 2:0.467597 3:0.38405429 4:0.7347999 5:0.68436021 6:0.31355595 
-1 1:0.46735284 2:0.5736073 3:0.55298209 4:0.51325522 5:0.59588656 6:0.25697348 
-1 1:0.55607163 2:0.45310817 3:0.60037 4:0.59925436 5:0.56735035 6:0.23783005 
-1 1:0.45655808 2:0.49686651 3:0.57840501 4:0.054513341 5:0.12916073 6:0.13854356 
-1 1:0.53873441 2:0.39050685 3:0.6135072 4:0.65957575 5:0.15117356 6:0.67457943 
-1 1:0.54594497 2:0.32243317 3:0.45134806 4:0.45625245 5:0.56850351 6:0.27222803 
-1 1:0.54263394 2:0.46442969 3:0.46435069 4:0.27709139 5:0.17901712 6:0.88679211 
-1 1:0.46059538 2:0.5209713 3:0.71485203 4:0.83184331 5:0.68547644 6:0.65354326 
-1 1:0.36219721 2:0.62664389 3:0.34157008 4:0.60069478 5:0.60383658 6:0.66135172 
-1 1:0.37540789 2:0.46825921 3:0.7137448 4:0.63126035 5:0.80482488 6:0.81574678 
-1 1:0.44717401 2:0.43782908 3:0.68545822 4:0.83529934 5:0.50918269 6:0.96410504 
-1 1:0.43279516 2:0.54688262 3:0.42747133 4:0.50350715 5:0.5584033 6:0.81681849 
-1 1:0.54725644 2:0.40991524 3:0.56786803 4:0.47002815 5:0.44895186 6:0.33105641 
-1 1:0.5441702 2:0.45039816 3:0.58231062 4:0.073536369 5:0.28534957 6:0.091531386 
-1 1:0.40311405 2:0.6350645 3:0.49166711 4:0.21370812 5:0.25806394 6:0.33430405 
-1 1:0.42324575 2:0.55706164 3:0.67039618 4:0.64781521 5:0.27944795 6:0.11403267 
-1 1:0.43235958 2:0.5284526 3:0.37107496 4:0.43214461 5:0.49949006 6:0.41133546 
-1 1:0.53515582 2:0.49892149 3:0.55349587 4:0.39678054 5:0.59652869 6:0.02018495 
-1 1:0.454791 2:0.57109701 3:0.78133197 4:0.66544783 5:0.45645371 6:0.0027471761 
-1 1:0.50342842 2:0.56356589 3:0.68812124 4:0.58657805 5:0.61255781 6:0.92535761 
-1 1:0.53552831 2:0.39775292 3:0.50943807 4:0.65129576 5:0.61683333 6:0.70791583 
-1 1:0.57869466 2:0.48603886 3:0.61195049 4:0.7359837 5:0.27099609 6:0.84778869 
-1 1:0.43957725 2:0.53558017 3:0.50995966 4:0.43020015 5:0.696606 6:0.84400332 
-1 1:0.44368544 2:0.38007552 3:0.45795334 4:0.027439907 5:0.25264549 6:0.58155109 
-1 1:0.62624028 2:0.62853436 3:0.45012018 4:0.82333527 5:0.84678454 6:0.27030619 
-1 1:0.61945595 2:0.40575396 3:0.53243477 4:0.15622575 5:0.44575222 6:0.6130813 
-1 1:0.49508858 2:0.36283181 3:0.55356816 4:0.60601935 5:0.65095146 6:0.20740018 
-1 1:0.69703087 2:0.58104408 3:0.74567727 4:0.78525736 5:0.66740014 6:0.215464 
-1 1:0.49625118 2:0.44491992 3:0.82073852 4:0.99336931 5:0.71205544 6:0.87346273 
-1 1:0.5910195 2:0.39637718 3:0.4977687 4:0.0055113836 5:0.20717746 6:0.83081499 
-1 1:0.5551586 2:0.5460565 3:0.61225516 4:0.15493339 5:0.28960589 6:0.027610334 
-1 1:0.596058 2:0.33618646 3:0.4981229 4:0.68801643 5:0.54699333 6:0.34187211 
-1 1:0.4445563 2:0.5377386 3:0.56948094 4:0.70259053 5:0.69017131 6:0.78514248 
-1 1:0.5483346 2:0.42931493 3:0.62053374 4:0.53608705 5:0.32241965 6:0.75548684 
-1 1:0.42427984 2:0.46901207 3:0.4359331 4:0.6271824 5:0.70199578 6:0.51776046 
-1 1:0.59600811 2:0.74302136 3:0.52291174 4:0.75793543 5:0.072159423 6:0.41597353 
-1 1:0.42207881 2:0.46913395 3:0.39647673 4:0.97352466 5:0.29934323 6:0.54204036 
-1 1:0.54823647 2:0.46231032 3:0.7646231 4:0.86726048 5:0.45890882 6:0.42715838 
-1 1:0.51853252 2:0.39507068 3:0.57962558 4:0.737523 5:0.60088833 6:0.44521615 
-1 1:0.44332887 2:0.42022974 3:0.54978495 4:0.84079371 5:0.29522826 6:0.86866917 
-1 1:0.4732666 2:0.46000335 3:0.45538473 4:0.27069797 5:0.55703473 6:0.33309218 
-1 1:0.57710561 2:0.46401162 3:0.7075964 4:0.63603967 5:0.83430698 6:0.72219586 
-1 1:0.4839789 2:0.44865547 3:0.66566737 4:0.17931198 5:0.77180872 6:0.22006887 
-1 1:0.65653815 2:0.67467171 3:0.44292038 4:0.36233415 5:0.46484055 6:0.65267224 
-1 1:0.55782308 2:0.43167471 3:0.70960379 4:0.020806155 5:0.19149714 6:0.37324622 
-1 1:0.50986777 2:0.59089011 3:0.63947818 4:0.0036441765 5:0.79178356 6:0.19826361 
-1 1:0.56989681 2:0.63058909 3:0.56182599 4:0.83329987 5:0.80075817 6:0.1098996 
-1 1:0.50607116 2:0.57945741 3:0.69544451 4:0.30328521 5:0.54558078 6:0.37598485 
