svm_type c_svc
kernel_type rbf
gamma 0.166667
nr_class 2
total_sv 3486
rho -10.4432
label -1 1
nr_sv 1749 1737
SV
1 1:0.57452204 2:0.13745636 3:0.71197643 4:0.010490754 5:0.43962229 6:0.74799862 
1 1:0.79676822 2:0.25664925 3:0.29171645 4:0.43258447 5:0.18628685 6:0.24202459 
1 1:0.13329888 2:0.38002626 3:0.4200401 4:0.69871594 5:0.57668016 6:0.36126582 
1 1:0.31814365 2:0.27849818 3:0.66036911 4:0.052230191 5:0.52500255 6:0.10498587 
1 1:0.40420233 2:0.18123275 3:0.57121641 4:0.35279088 5:0.46787681 6:0.36535929 
1 1:0.29935151 2:0.28381824 3:0.17959216 4:0.23243564 5:0.77553114 6:0.086567451 
1 1:0.84402832 2:0.41333811 3:0.29878276 4:0.40830779 5:0.49178735 6:0.18948275 
1 1:0.75106874 2:0.35402474 3:0.14561525 4:0.67988665 5:0.23884544 6:0.53291133 
1 1:0.30445889 2:0.7238601 3:0.72641564 4:0.40816813 5:0.61945814 6:0.71017183 
1 1:0.63185862 2:0.77617545 3:0.27266959 4:0.083627508 5:0.21817541 6:0.34503828 
1 1:0.53518728 2:0.09783502 3:0.35019542 4:0.22738999 5:0.66221285 6:0.19694247 
1 1:0.59444382 2:0.1603339 3:0.26762942 4:0.72281983 5:0.7925685 6:0.70067141 
1 1:0.57114355 2:0.76769393 3:0.79696748 4:0.59718327 5:0.60489505 6:0.42628719 
1 1:0.3217121 2:0.40707045 3:0.92785638 4:0.43293505 5:0.26934255 6:0.022745958 
1 1:0.7448499 2:0.22002418 3:0.3244852 4:0.35964625 5:0.22149999 6:0.51802742 
1 1:0.20462728 2:0.67312063 3:0.71943684 4:0.086734458 5:0.64613226 6:0.20757232 
1 1:0.33951145 2:0.69639237 3:0.63753406 4:0.61757617 5:0.38540065 6:0.18779105 
1 1:0.23823208 2:0.68498368 3:0.62322666 4:0.86739797 5:0.28108304 6:0.14927297 
1 1:0.42206691 2:0.72334126 3:0.82598865 4:0.53008575 5:0.29914738 6:0.06809954 
1 1:0.46650731 2:0.26482166 3:0.12819158 4:0.44514383 5:0.57819208 6:0.23085185 
1 1:0.42728982 2:0.2330108 3:0.1457536 4:0.29100467 5:0.35767912 6:0.14253161 
1 1:0.4482233 2:0.38510162 3:0.85383956 4:0.86673018 5:0.80520695 6:0.3132909 
1 1:0.1356171 2:0.21747284 3:0.52802924 4:0.48965309 5:0.72020773 6:0.5374943 
1 1:0.22572088 2:0.67283018 3:0.32841037 4:0.84422209 5:0.47024515 6:0.72856424 
1 1:0.63857244 2:0.42309033 3:0.9455039 4:0.55572739 5:0.41829776 6:0.15742036 
1 1:0.72800151 2:0.36541614 3:0.14772375 4:0.99794217 5:0.54473398 6:0.61383403 
1 1:0.36555611 2:0.39179916 3:0.042164363 4:0.45631142 5:0.30606845 6:0.56031431 
1 1:0.84507887 2:0.57687356 3:0.73203363 4:0.14412589 5:0.66854189 6:0.55500552 
1 1:0.63488989 2:0.30585402 3:0.88542381 4:0.043680009 5:0.53366193 6:0.23553608 
1 1:0.26498854 2:0.39971344 3:0.1903543 4:0.5791568 5:0.058937719 6:0.48362069 
1 1:0.62652088 2:0.59260085 3:0.89850397 4:0.74870697 5:0.47076182 6:0.02260087 
1 1:0.70822141 2:0.30684248 3:0.17364362 4:0.73574742 5:0.1806768 6:0.45718821 
1 1:0.34412319 2:0.13577019 3:0.37630582 4:0.031742469 5:0.25802572 6:0.8369729 
1 1:0.44398391 2:0.81692941 3:0.32339008 4:0.78913489 5:0.8480163 6:0.5723197 
1 1:0.68364712 2:0.70091328 3:0.59545749 4:0.12803803 5:0.81685584 6:0.88126656 
1 1:0.4888161 2:0.69694121 3:0.40553378 4:0.39416847 5:0.73781811 6:0.1243702 
1 1:0.60843746 2:0.6969559 3:0.44336696 4:0.99059319 5:0.54623054 6:0.29019205 
1 1:0.54482598 2:0.42448758 3:0.96739957 4:0.22452167 5:0.27694301 6:0.47210213 
1 1:0.33364966 2:0.39636447 3:0.043999271 4:0.47168543 5:0.61963753 6:0.50961945 
1 1:0.34787415 2:0.12843795 3:0.48687428 4:0.70523494 5:0.74864264 6:0.23051242 
1 1:0.63471114 2:0.70328077 3:0.51396916 4:0.65153159 5:0.45229915 6:0.21441001 
1 1:0.81252146 2:0.61157454 3:0.45052779 4:0.81974223 5:0.085567717 6:0.82485422 
1 1:0.47770956 2:0.78668523 3:0.4492252 4:0.44806537 5:0.11189323 6:0.79281827 
1 1:0.16162602 2:0.49869112 3:0.26697595 4:0.40912161 5:0.45820617 6:0.9081996 
1 1:0.68795848 2:0.72649007 3:0.33132046 4:0.67163443 5:0.56932849 6:0.37987528 
1 1:0.3493104 2:0.32113611 3:0.14750132 4:0.94132579 5:0.55777752 6:0.055329227 
1 1:0.043171267 2:0.38988693 3:0.4498195 4:0.32761529 5:0.71100795 6:0.42308654 
1 1:0.48394422 2:0.62368909 3:0.049729163 4:0.36096462 5:0.31848569 6:0.39822607 
1 1:0.52998058 2:0.22906695 3:0.87941837 4:0.63131512 5:0.66065834 6:0.37481251 
1 1:0.09930815 2:0.37324647 3:0.4796036 4:0.85843165 5:0.13156161 6:0.13459479 
1 1:0.63550033 2:0.31294236 3:0.86586903 4:0.87852329 5:0.25123454 6:0.40693124 
1 1:0.74250554 2:0.54407979 3:0.22036149 4:0.77302621 5:0.88847744 6:0.62515271 
1 1:0.56939287 2:0.50007543 3:0.83813906 4:0.33273364 5:0.66444537 6:0.57610248 
1 1:0.58511353 2:0.19071553 3:0.45611713 4:0.59368355 5:0.53282353 6:0.63734156 
1 1:0.20734712 2:0.70566972 3:0.34080086 4:0.41579582 5:0.62071578 6:0.87292079 
1 1:0.39555575 2:0.16406438 3:0.56526854 4:0.99207154 5:0.83933887 6:0.14404521 
1 1:0.28878136 2:0.60699654 3:0.12814247 4:0.5989105 5:0.24920538 6:0.51336648 
1 1:0.30647048 2:0.15884734 3:0.65869503 4:0.6798247 5:0.4737269 6:0.92123272 
1 1:0.38791069 2:0.74239552 3:0.40207335 4:0.54109422 5:0.31535959 6:0.99800687 
1 1:0.57221295 2:0.2307574 3:0.6232922 4:0.94944439 5:0.69652801 6:0.056636055 
1 1:0.79142437 2:0.25279328 3:0.70973073 4:0.59735515 5:0.65036937 6:0.57122779 
0.7453441701837988 1:0.25940111 2:0.12289293 3:0.68748909 4:0.53151386 5:0.50477321 6:0.46435599 
1 1:0.42284897 2:0.29821812 3:0.90541494 4:0.59326147 5:0.41095345 6:0.72837985 
1 1:0.76219132 2:0.19664426 3:0.54044699 4:0.0072878788 5:0.37629714 6:0.58450376 
1 1:0.2649986 2:0.19052188 3:0.71263448 4:0.397143 5:0.34375811 6:0.53315081 
1 1:0.3067605 2:0.16497813 3:0.62288246 4:0.99455994 5:0.62784196 6:0.21103037 
1 1:0.28647375 2:0.6815429 3:0.43545969 4:0.74937749 5:0.23194541 6:0.163323 
1 1:0.27451111 2:0.65081504 3:0.64133217 4:0.0050855901 5:0.48289561 6:0.8483621 
1 1:0.084733929 2:0.52551324 3:0.37864494 4:0.55856867 5:0.41581648 6:0.10106306 
1 1:0.32277987 2:0.31098715 3:0.78229797 4:0.69657773 5:0.10592945 6:0.6559554 
1 1:0.30682415 2:0.52473232 3:0.88513969 4:0.39085365 5:0.29404631 6:0.95559333 
1 1:0.49900549 2:0.68110097 3:0.5128957 4:0.42494356 5:0.13238704 6:0.4054582 
1 1:0.3997775 2:0.15710727 3:0.61048348 4:0.83306427 5:0.67934288 6:0.24497852 
0.1110864617413882 1:0.46576674 2:0.11624619 3:0.31696539 4:0.51657289 5:0.92690283 6:0.50891366 
1 1:0.81644461 2:0.23850573 3:0.36627466 4:0.69407087 5:0.58911091 6:0.061479414 
1 1:0.10658084 2:0.50927136 3:0.58202916 4:0.90795688 5:0.15156744 6:0.14995116 
1 1:0.22719316 2:0.68104802 3:0.78152822 4:0.49908286 5:0.68095629 6:0.70260507 
1 1:0.28308998 2:0.4786909 3:0.88523756 4:0.31739884 5:0.21028787 6:0.084150608 
1 1:0.54938484 2:0.088226191 3:0.34949497 4:0.40940452 5:0.43555866 6:0.58514136 
1 1:0.63767764 2:0.26084368 3:0.17553953 4:0.56469881 5:0.62761254 6:0.29373152 
1 1:0.80367789 2:0.75002513 3:0.44486095 4:0.42924982 5:0.44012607 6:0.92535091 
1 1:0.70510677 2:0.20098373 3:0.2645965 4:0.33712245 5:0.38617641 6:0.62711246 
1 1:0.75515044 2:0.62590663 3:0.65348916 4:0.040547376 5:0.17797867 6:0.49929625 
1 1:0.57746492 2:0.80901428 3:0.4119747 4:0.93849722 5:0.14485637 6:0.39384547 
1 1:0.12658302 2:0.2884354 3:0.50891795 4:0.20857027 5:0.24685952 6:0.24435098 
1 1:0.31375972 2:0.62153315 3:0.87138568 4:0.59763134 5:0.23661797 6:0.55513728 
1 1:0.81242995 2:0.57454999 3:0.76497365 4:0.62760775 5:0.4933668 6:0.7205344 
1 1:0.74889364 2:0.41486667 3:0.85877859 4:0.30345514 5:0.78751565 6:0.56854112 
1 1:0.23423888 2:0.66234908 3:0.81379292 4:0.39994656 5:0.45141683 6:0.80347895 
1 1:0.13159104 2:0.66876623 3:0.35504802 4:0.5268617 5:0.34947878 6:0.056431157 
1 1:0.43437971 2:0.82669695 3:0.29291807 4:0.62076574 5:0.52666629 6:0.12465316 
1 1:0.71821433 2:0.14683366 3:0.60011941 4:0.55820989 5:0.13081865 6:0.16264036 
1 1:0.50809386 2:0.2118589 3:0.15400788 4:0.13253442 5:0.5603326 6:0.54869387 
1 1:0.50128684 2:0.37658261 3:0.047905921 4:0.69400742 5:0.25568066 6:0.43137834 
1 1:0.18442279 2:0.56142559 3:0.75844338 4:0.15262061 5:0.77074155 6:0.39242653 
1 1:0.47976439 2:0.86535385 3:0.42668269 4:0.32182205 5:0.39608968 6:0.43745531 
1 1:0.49894707 2:0.68127689 3:0.2621874 4:0.64093532 5:0.20618658 6:0.62348208 
1 1:0.72629213 2:0.19184051 3:0.7421164 4:0.084919058 5:0.29345108 6:0.37265089 
1 1:0.63058859 2:0.74970577 3:0.41810075 4:0.69659475 5:0.92747629 6:0.0427693 
1 1:0.51351678 2:0.7432523 3:0.42015755 4:0.97444434 5:0.53248039 6:0.86398985 
1 1:0.70105923 2:0.30341136 3:0.76054076 4:0.5942273 5:0.58975924 6:0.54591074 
1 1:0.18557237 2:0.40557653 3:0.39481745 4:0.074590017 5:0.25176278 6:0.77366345 
1 1:0.57124255 2:0.37615332 3:0.14296871 4:0.46764075 5:0.25289731 6:0.13265211 
1 1:0.75973451 2:0.44423608 3:0.29734652 4:0.83321922 5:0.45029071 6:0.69942836 
1 1:0.79264317 2:0.69282884 3:0.60407773 4:0.53425031 5:0.65684881 6:0.9465508 
1 1:0.17434827 2:0.59188593 3:0.22283267 4:0.67861383 5:0.43338248 6:0.15618256 
1 1:0.69557838 2:0.6946204 3:0.33298145 4:0.67377658 5:0.78055768 6:0.42647087 
1 1:0.68223544 2:0.34896703 3:0.76909857 4:0.94405325 5:0.77926898 6:0.23791992 
1 1:0.41844744 2:0.61525122 3:0.8018985 4:0.15586205 5:0.77724954 6:0.7695361 
1 1:0.66460697 2:0.13959525 3:0.66938246 4:0.88366444 5:0.72720359 6:0.48142434 
1 1:0.49878627 2:0.74976381 3:0.4233034 4:0.45677728 5:0.37645592 6:0.31285593 
1 1:0.63524006 2:0.23631952 3:0.63229304 4:0.72332212 5:0.40602111 6:0.50104424 
1 1:0.53330364 2:0.12577694 3:0.514244 4:0.93265338 5:0.8654658 6:0.91144849 
1 1:0.32131878 2:0.28508596 3:0.807179 4:0.43651239 5:0.80480612 6:0.18678778 
1 1:0.65613758 2:0.64309611 3:0.15608624 4:0.70787348 5:0.19132194 6:0.28371663 
1 1:0.42656382 2:0.73349205 3:0.22485899 4:0.86133515 5:0.72017135 6:0.78719603 
1 1:0.67107997 2:0.74741882 3:0.38135899 4:0.38452126 5:0.59230428 6:0.77178759 
1 1:0.75016596 2:0.20657456 3:0.53833258 4:0.63334534 5:0.56114901 6:0.79120821 
1 1:0.27149806 2:0.5661676 3:0.75361119 4:0.32724848 5:0.47226695 6:0.56089843 
1 1:0.51845769 2:0.66825262 3:0.10185926 4:0.52713367 5:0.48367121 6:0.70732459 
1 1:0.49035 2:0.76978107 3:0.64746817 4:0.18302708 5:0.86254881 6:0.22084677 
1 1:0.44351352 2:0.25885719 3:0.86619977 4:0.69883516 5:0.81933859 6:0.33941133 
1 1:0.51034254 2:0.25549692 3:0.76255325 4:0.42616553 5:0.38286975 6:0.56083443 
1 1:0.85213028 2:0.50060621 3:0.35916028 4:0.49098144 5:0.43389808 6:0.93411392 
1 1:0.73774921 2:0.12565133 3:0.43621687 4:0.23831975 5:0.41100797 6:0.34698798 
1 1:0.78244467 2:0.65123681 3:0.74986182 4:0.86905023 5:0.74710996 6:0.22946276 
1 1:0.82860445 2:0.44395725 3:0.66066927 4:0.35673204 5:0.84123416 6:0.25769907 
1 1:0.4458122 2:0.66319895 3:0.89260599 4:0.4362633 5:0.75174849 6:0.45028199 
1 1:0.55785893 2:0.26067283 3:0.88172446 4:0.86376163 5:0.60321644 6:0.2810419 
1 1:0.46767016 2:0.76978017 3:0.2552998 4:0.7306188 5:0.39630049 6:0.5938415 
1 1:0.82892223 2:0.72948661 3:0.38313402 4:0.40121435 5:0.5589841 6:0.79791021 
1 1:0.56222326 2:0.79830885 3:0.40567258 4:0.46108437 5:0.40799115 6:0.31772784 
1 1:0.22676619 2:0.43392228 3:0.67686918 4:0.9465579 5:0.63230485 6:0.20973341 
1 1:0.87660198 2:0.47583075 3:0.69343151 4:0.47417696 5:0.40102138 6:0.74861568 
1 1:0.56088224 2:0.81478471 3:0.56081857 4:0.42522719 5:0.57332355 6:0.76494465 
1 1:0.1679006 2:0.30401426 3:0.2584071 4:0.60024021 5:0.52753772 6:0.50831831 
1 1:0.46460313 2:0.11036286 3:0.62806858 4:0.25275913 5:0.69583531 6:0.3209669 
1 1:0.16790394 2:0.59121427 3:0.69923493 4:0.46797186 5:0.074723091 6:0.32295839 
1 1:0.8860699 2:0.30830395 3:0.62313035 4:0.89990551 5:0.62048565 6:0.20375015 
1 1:0.46386541 2:0.76298354 3:0.48929338 4:0.37571993 5:0.73879693 6:0.05781785 
1 1:0.16566339 2:0.5644127 3:0.780466 4:0.92563697 5:0.62531276 6:0.73715572 
1 1:0.54848851 2:0.70032153 3:0.82604006 4:0.14302715 5:0.27737072 6:0.19782663 
1 1:0.6279538 2:0.22313182 3:0.80362018 4:0.36008565 5:0.63601839 6:0.74976607 
1 1:0.76533234 2:0.72006791 3:0.68106235 4:0.86210971 5:0.47336269 6:0.32983777 
1 1:0.81343203 2:0.58153612 3:0.27430161 4:0.26549632 5:0.46198477 6:0.14261386 
1 1:0.25396058 2:0.27357091 3:0.27464573 4:0.63122802 5:0.46813062 6:0.22422999 
1 1:0.26279718 2:0.58631866 3:0.80356473 4:0.6067485 5:0.46629558 6:0.95075808 
1 1:0.47831841 2:0.23237293 3:0.59471931 4:0.33112064 5:0.29390307 6:0.75021156 
0.7383366550583658 1:0.72484473 2:0.78094926 3:0.62153252 4:0.28049366 5:0.76877863 6:0.73209811 
1 1:0.17317276 2:0.25550934 3:0.60922655 4:0.91480578 5:0.58314054 6:0.56048722 
1 1:0.30816843 2:0.20690097 3:0.56232984 4:0.40723601 5:0.42745248 6:0.83673284 
1 1:0.62463225 2:0.70507595 3:0.40224059 4:0.85816346 5:0.060028274 6:0.80626336 
1 1:0.32618439 2:0.23103566 3:0.46002839 4:0.43399071 5:0.12801599 6:0.26151306 
1 1:0.10611665 2:0.29145284 3:0.44691403 4:0.95579027 5:0.5446263 6:0.36219693 
1 1:0.5278223 2:0.20574822 3:0.6379989 4:0.83777849 5:0.34665322 6:0.47601142 
1 1:0.78401957 2:0.7498925 3:0.41028235 4:0.20921803 5:0.41136593 6:0.4898966 
1 1:0.24504218 2:0.27257844 3:0.67499781 4:0.003352272 5:0.58027427 6:0.81357978 
0.4066055293860182 1:0.89668196 2:0.60400593 3:0.6900805 4:0.067553604 5:0.42722991 6:0.34139808 
1 1:0.84068402 2:0.19477745 3:0.45441579 4:0.41637014 5:0.41644365 6:0.16084726 
1 1:0.60061734 2:0.8111567 3:0.62346642 4:0.20466423 5:0.29842753 6:0.68491377 
1 1:0.88820858 2:0.59444402 3:0.55273069 4:0.49408061 5:0.21243107 6:0.67806019 
1 1:0.56528478 2:0.66765552 3:0.18388162 4:0.46167429 5:0.24394371 6:0.60291064 
1 1:0.80338294 2:0.55063376 3:0.3485634 4:0.62785422 5:0.47538314 6:0.095350942 
1 1:0.38609134 2:0.18069818 3:0.33629223 4:0.32547565 5:0.81680903 6:0.90702401 
1 1:0.16645853 2:0.3111996 3:0.30371985 4:0.27293982 5:0.32486277 6:0.98003847 
1 1:0.37258806 2:0.21364566 3:0.84796148 4:0.35509642 5:0.59832945 6:0.83702845 
1 1:0.87925893 2:0.50640206 3:0.57940834 4:0.78021506 5:0.22945983 6:0.22987603 
1 1:0.59527198 2:0.24371092 3:0.84956536 4:0.11227329 5:0.52505565 6:0.56283456 
1 1:0.9164419 2:0.32763009 3:0.40619118 4:0.8125057 5:0.65763388 6:0.1314948 
1 1:0.22169492 2:0.67058065 3:0.40030945 4:0.628505 5:0.21785081 6:0.39917661 
1 1:0.63093036 2:0.81391406 3:0.32555941 4:0.68396529 5:0.66809874 6:0.54317501 
1 1:0.26215733 2:0.78602902 3:0.46800193 4:0.17996511 5:0.2408668 6:0.10967338 
1 1:0.52888526 2:0.14118099 3:0.71589625 4:0.26509336 5:0.50282593 6:0.040990942 
1 1:0.23313166 2:0.12133406 3:0.55846612 4:0.10711413 5:0.52456707 6:0.26431399 
1 1:0.49126771 2:0.48938586 3:0.90299757 4:0.49891619 5:0.36514862 6:0.28556855 
1 1:0.59564469 2:0.16217134 3:0.30493947 4:0.080433777 5:0.55432746 6:0.60595798 
1 1:0.46504275 2:0.51025197 3:0.95075554 4:0.76498533 5:0.66390757 6:0.61399678 
1 1:0.57810363 2:0.29741296 3:0.86681195 4:0.63587257 5:0.35983795 6:0.85687677 
1 1:0.70938182 2:0.5738055 3:0.76960481 4:0.32649857 5:0.4200558 6:0.52505637 
1 1:0.78513908 2:0.34901 3:0.8383036 4:0.026953805 5:0.50745264 6:0.78370741 
1 1:0.13354836 2:0.55746752 3:0.47779859 4:0.77270471 5:0.49870972 6:0.074447998 
1 1:0.44047085 2:0.86327929 3:0.45564286 4:0.9306386 5:0.62332567 6:0.17618814 
1 1:0.62204154 2:0.7676902 3:0.63820182 4:0.65759304 5:0.60728957 6:0.16709113 
1 1:0.22353573 2:0.44019931 3:0.80279031 4:0.062428889 5:0.18038936 6:0.9357897 
1 1:0.33534008 2:0.47433464 3:0.85484053 4:0.51653035 5:0.93256037 6:0.071221571 
1 1:0.54102865 2:0.51784603 3:0.1899495 4:0.87467645 5:0.78103495 6:0.7574596 
1 1:0.30882758 2:0.14954607 3:0.57442364 4:0.32496732 5:0.7081572 6:0.92969592 
1 1:0.52368494 2:0.75553201 3:0.34039856 4:0.45989678 5:0.098670738 6:0.94596524 
1 1:0.040863668 2:0.42168384 3:0.461907 4:0.35681167 5:0.76000147 6:0.47409185 
1 1:0.41601838 2:0.16876613 3:0.62751076 4:0.92153826 5:0.29466683 6:0.18625813 
1 1:0.70812662 2:0.23166682 3:0.80653285 4:0.59413972 5:0.67998057 6:0.64656713 
1 1:0.35829837 2:0.38777014 3:0.12028499 4:0.94967051 5:0.29135154 6:0.81241192 
1 1:0.69224708 2:0.73221551 3:0.56277535 4:0.62614527 5:0.23892368 6:0.84515119 
1 1:0.88433027 2:0.67788551 3:0.56114213 4:0.30361362 5:0.41203912 6:0.83590159 
1 1:0.72699103 2:0.21334736 3:0.2011711 4:0.61070674 5:0.58022582 6:0.17904453 
1 1:0.55101682 2:0.35504286 3:0.19407174 4:0.089389267 5:0.38198357 6:0.2795446 
1 1:0.19465369 2:0.18303522 3:0.4321621 4:0.64196542 5:0.40891197 6:0.53709886 
1 1:0.95425957 2:0.46587565 3:0.52076893 4:0.50128525 5:0.32704488 6:0.89380804 
1 1:0.66287364 2:0.57132022 3:0.69555345 4:0.59628341 5:0.63716113 6:0.62793122 
1 1:0.80689736 2:0.65688061 3:0.3097921 4:0.70038804 5:0.54153732 6:0.50322452 
1 1:0.54649219 2:0.64239942 3:0.77571591 4:0.029943427 5:0.70610841 6:0.79970219 
1 1:0.64189886 2:0.30497072 3:0.88850115 4:0.45859645 5:0.55820228 6:0.35143543 
1 1:0.74186244 2:0.28748536 3:0.27019091 4:0.14099946 5:0.38899993 6:0.36386274 
1 1:0.12664159 2:0.27730519 3:0.74100973 4:0.43924478 5:0.50840799 6:0.46011742 
1 1:0.59636307 2:0.12942356 3:0.5526353 4:0.38603738 5:0.46381642 6:0.56184956 
1 1:0.18202286 2:0.69240347 3:0.35135771 4:0.30281153 5:0.41797435 6:0.36837352 
1 1:0.56521017 2:0.19903985 3:0.79685343 4:0.10307011 5:0.37896405 6:0.95158118 
1 1:0.27627431 2:0.18378979 3:0.69582305 4:0.69112766 5:0.59656683 6:0.090481502 
1 1:0.39328095 2:0.13064263 3:0.5499564 4:0.14369504 5:0.78846764 6:0.93497241 
1 1:0.48325049 2:0.5562421 3:0.86574582 4:0.52305333 5:0.59914116 6:0.65186768 
1 1:0.28127528 2:0.56900315 3:0.744941 4:0.36731974 5:0.36721865 6:0.30318204 
1 1:0.67468039 2:0.70135075 3:0.7278176 4:0.9884318 5:0.4344155 6:0.65618076 
1 1:0.93539971 2:0.47853079 3:0.56696155 4:0.68816445 5:0.17969961 6:0.77351619 
1 1:0.4551141 2:0.13291049 3:0.6483001 4:0.95713009 5:0.3665214 6:0.66019536 
1 1:0.55197653 2:0.18051443 3:0.22810921 4:0.566364 5:0.39701187 6:0.055090332 
1 1:0.47242387 2:0.75167552 3:0.69453563 4:0.66015296 5:0.17961854 6:0.44500304 
1 1:0.25998954 2:0.30604453 3:0.60716574 4:0.082665459 5:0.71466202 6:0.21994547 
1 1:0.50409863 2:0.28477959 3:0.25434681 4:0.48267385 5:0.38169338 6:0.62758171 
1 1:0.47376112 2:0.69645283 3:0.31645272 4:0.49831781 5:0.37431795 6:0.092078846 
1 1:0.61306785 2:0.78021235 3:0.24111931 4:0.78214172 5:0.5502009 6:0.53388981 
1 1:0.38072019 2:0.56888442 3:0.83209469 4:0.3526572 5:0.56001436 6:0.61513551 
1 1:0.53047235 2:0.64180773 3:0.08583411 4:0.13320871 5:0.3389102 6:0.56002748 
1 1:0.25423779 2:0.25152642 3:0.7533721 4:0.26398798 5:0.2504939 6:0.74247826 
1 1:0.55860763 2:0.1279135 3:0.51509211 4:0.63883838 5:0.94273603 6:0.63848668 
1 1:0.71026121 2:0.67101497 3:0.79615474 4:0.73010467 5:0.48561963 6:0.85529978 
1 1:0.47334709 2:0.60591617 3:0.091283482 4:0.88701083 5:0.46407997 6:0.65306982 
1 1:0.42425668 2:0.47345784 3:0.92443945 4:0.16010423 5:0.54305675 6:0.99893836 
1 1:0.58561062 2:0.77578356 3:0.73684487 4:0.45609079 5:0.88302381 6:0.31490849 
1 1:0.7366905 2:0.46296938 3:0.84924388 4:0.79438705 5:0.35387826 6:0.36787921 
1 1:0.54226371 2:0.65604255 3:0.1325994 4:0.92847292 5:0.63162608 6:0.8021627 
1 1:0.17082893 2:0.57647694 3:0.23564819 4:0.28493523 5:0.24899484 6:0.25999793 
1 1:0.85285177 2:0.27804 3:0.75673478 4:0.30996 5:0.44027325 6:0.44472206 
1 1:0.57086693 2:0.71390175 3:0.53198793 4:0.35735749 5:0.31021471 6:0.55374398 
1 1:0.71410675 2:0.30053176 3:0.75240547 4:0.98296494 5:0.58577917 6:0.39306195 
0.4566502167215762 1:0.79059904 2:0.42743398 3:0.11037739 4:0.51163879 5:0.35621194 6:0.22818988 
1 1:0.69908297 2:0.35343116 3:0.20000233 4:0.51656148 5:0.86462401 6:0.54808711 
1 1:0.51110005 2:0.1295327 3:0.38977011 4:0.38743795 5:0.46918327 6:0.84130005 
0.6550411454248003 1:0.95078112 2:0.33333144 3:0.54553103 4:0.42797153 5:0.62887846 6:0.20447603 
1 1:0.29113653 2:0.54170267 3:0.8111549 4:0.91283436 5:0.43428332 6:0.74574415 
1 1:0.51541537 2:0.6666041 3:0.87463041 4:0.1978186 5:0.36495314 6:0.55440031 
1 1:0.18328132 2:0.32418747 3:0.48517098 4:0.78184219 5:0.79270772 6:0.35089064 
1 1:0.35786888 2:0.56142322 3:0.8044872 4:0.87733636 5:0.034789913 6:0.8693447 
1 1:0.66119056 2:0.23086291 3:0.82226488 4:0.26062651 5:0.62563139 6:0.22326178 
1 1:0.74171521 2:0.26041343 3:0.18310873 4:0.24167463 5:0.25886885 6:0.65018671 
1 1:0.92569892 2:0.33184465 3:0.37146134 4:0.61464055 5:0.30397945 6:0.67793929 
1 1:0.55562144 2:0.60894982 3:0.13491429 4:0.78748029 5:0.14060481 6:0.22282887 
1 1:0.34488478 2:0.13399332 3:0.38700992 4:0.81464475 5:0.64496064 6:0.55678945 
1 1:0.53912477 2:0.18459437 3:0.73928573 4:0.79485177 5:0.19571677 6:0.85514445 
1 1:0.19054254 2:0.34307999 3:0.16686312 4:0.090999544 5:0.42197507 6:0.17304609 
1 1:0.44246103 2:0.097243671 3:0.43111192 4:0.74026285 5:0.41137666 6:0.85989128 
1 1:0.56600205 2:0.71314192 3:0.20153973 4:0.15127148 5:0.4918212 6:0.0064870047 
1 1:0.8614315 2:0.51644273 3:0.24780686 4:0.50827228 5:0.396748 6:0.10464955 
1 1:0.45243185 2:0.39700687 3:0.036570693 4:0.25894188 5:0.64218149 6:0.39450369 
1 1:0.69746231 2:0.26992914 3:0.24353357 4:0.38408603 5:0.84107271 6:0.41648082 
1 1:0.48989939 2:0.23829392 3:0.28068296 4:0.62800992 5:0.7646397 6:0.36994437 
1 1:0.36443596 2:0.77042972 3:0.52652229 4:0.20745841 5:0.60536026 6:0.32945147 
1 1:0.37654099 2:0.6866099 3:0.52353456 4:0.26575579 5:0.74134824 6:0.99492387 
1 1:0.13804381 2:0.40611411 3:0.35670157 4:0.71948456 5:0.21427752 6:0.35654228 
1 1:0.80222889 2:0.62235891 3:0.68359152 4:0.54881504 5:0.8025025 6:0.19822043 
1 1:0.87582671 2:0.45631219 3:0.41488873 4:0.081703091 5:0.76132263 6:0.21970523 
1 1:0.1469005 2:0.48540499 3:0.33203675 4:0.89167189 5:0.30329936 6:0.29596175 
1 1:0.60467943 2:0.67223647 3:0.61404735 4:0.5163614 5:0.16060588 6:0.083605294 
1 1:0.56767789 2:0.63404415 3:0.14585372 4:0.13032952 5:0.49543173 6:0.87312426 
1 1:0.49134319 2:0.66007041 3:0.29620819 4:0.017436644 5:0.57005737 6:0.5775289 
1 1:0.42103943 2:0.82765183 3:0.66963511 4:0.12779826 5:0.41635497 6:0.24165847 
1 1:0.8287515 2:0.55991657 3:0.26221544 4:0.90006891 5:0.6743241 6:0.85802681 
1 1:0.95635517 2:0.45685875 3:0.51030403 4:0.52407606 5:0.22973521 6:0.18433194 
1 1:0.57037819 2:0.3752587 3:0.076468703 4:0.13055934 5:0.64518858 6:0.42303093 
1 1:0.56290737 2:0.80141123 3:0.54921394 4:0.84624821 5:0.74302882 6:0.82394877 
1 1:0.61614174 2:0.40264907 3:0.8885348 4:0.81303035 5:0.41019493 6:0.42658357 
0.3014626597132781 1:0.87979122 2:0.52579411 3:0.50933321 4:0.96664819 5:0.87733465 6:0.97896353 
1 1:0.59937937 2:0.63376956 3:0.80748358 4:0.3020496 5:0.60895134 6:0.42385518 
1 1:0.86939663 2:0.26434194 3:0.58008428 4:0.0339555 5:0.56178113 6:0.51952452 
1 1:0.53064809 2:0.11094449 3:0.5987129 4:0.85118376 5:0.23429158 6:0.54771085 
1 1:0.15635421 2:0.60506645 3:0.32010909 4:0.36274049 5:0.7924767 6:0.15307283 
1 1:0.30727539 2:0.32604515 3:0.11299353 4:0.51591151 5:0.70102347 6:0.60968157 
1 1:0.27699803 2:0.58527964 3:0.17227076 4:0.45561303 5:0.14525237 6:0.31236184 
1 1:0.27959458 2:0.15547092 3:0.625231 4:0.21889326 5:0.30941093 6:0.54201198 
1 1:0.37083853 2:0.67803676 3:0.28406394 4:0.75572692 5:0.44930369 6:0.89027537 
1 1:0.32047268 2:0.15186986 3:0.75804518 4:0.54610308 5:0.44322842 6:0.60686703 
1 1:0.53213072 2:0.18888719 3:0.42553265 4:0.1986142 5:0.41461783 6:0.32637096 
1 1:0.69362247 2:0.23016927 3:0.82415166 4:0.20766306 5:0.5773658 6:0.82286312 
1 1:0.93971447 2:0.41385304 3:0.28186342 4:0.4523678 5:0.46126603 6:0.53508113 
1 1:0.81099394 2:0.43846195 3:0.33951262 4:0.59502632 5:0.56195616 6:0.94553052 
1 1:0.019147156 2:0.39797588 3:0.44487946 4:0.51924828 5:0.61298038 6:0.37968757 
1 1:0.1880681 2:0.44099084 3:0.63906351 4:0.90713553 5:0.084201227 6:0.96380895 
1 1:0.1227759 2:0.42543386 3:0.47677451 4:0.81771974 5:0.36923553 6:0.39595665 
1 1:0.62065021 2:0.75100433 3:0.67029963 4:0.25041809 5:0.77853669 6:0.19338799 
1 1:0.48483045 2:0.60646768 3:0.14439313 4:0.73027687 5:0.57805655 6:0.92204461 
1 1:0.11454471 2:0.39698404 3:0.6154939 4:0.023858707 5:0.47478927 6:0.5578724 
1 1:0.61170836 2:0.36973945 3:0.075857073 4:0.74855444 5:0.68305455 6:0.54062378 
1 1:0.90362251 2:0.5086218 3:0.69304521 4:0.40021759 5:0.37593744 6:0.65268118 
1 1:0.59936891 2:0.72096515 3:0.20466317 4:0.6560434 5:0.64087448 6:0.91760464 
1 1:0.27224102 2:0.23367623 3:0.17268832 4:0.25235686 5:0.57754035 6:0.21038818 
1 1:0.3265643 2:0.32530996 3:0.25345698 4:0.94499112 5:0.53139965 6:0.97772274 
1 1:0.64179311 2:0.83603724 3:0.39205313 4:0.88791732 5:0.62740993 6:0.6159301 
0.793503533564484 1:0.63400726 2:0.80671375 3:0.31824257 4:0.3468226 5:0.46687091 6:0.83488107 
1 1:0.42247923 2:0.76115373 3:0.2686804 4:0.35799425 5:0.6595292 6:0.75200985 
1 1:0.88904231 2:0.34912274 3:0.49864854 4:0.55515404 5:0.9561067 6:0.6272517 
1 1:0.64170792 2:0.75654887 3:0.23427663 4:0.34397937 5:0.10590986 6:0.42160526 
1 1:0.30246721 2:0.61467336 3:0.74548323 4:0.065555583 5:0.87072555 6:0.51175799 
1 1:0.68053018 2:0.30163158 3:0.31679104 4:0.71101444 5:0.36098761 6:0.87818811 
1 1:0.54409728 2:0.67140238 3:0.57061335 4:0.50832256 5:0.80048127 6:0.27331372 
1 1:0.41088028 2:0.72355185 3:0.79481147 4:0.94359314 5:0.51699727 6:0.50631247 
1 1:0.2562348 2:0.21303304 3:0.53876635 4:0.74541454 5:0.79386205 6:0.11431487 
1 1:0.22746806 2:0.35337186 3:0.2272365 4:0.87584582 5:0.61763735 6:0.28088965 
1 1:0.45838315 2:0.21437984 3:0.45121031 4:0.27395714 5:0.82732207 6:0.34223246 
1 1:0.21429299 2:0.45449752 3:0.80855837 4:0.0046197975 5:0.21196806 6:0.3085072 
1 1:0.50083256 2:0.1844557 3:0.2371887 4:0.6443116 5:0.52897358 6:0.25197933 
1 1:0.20089633 2:0.5153371 3:0.8383071 4:0.56484637 5:0.41828646 6:0.58950297 
1 1:0.5606821 2:0.65308767 3:0.29111493 4:0.82929371 5:0.72438845 6:0.551481 
1 1:0.48428825 2:0.095776301 3:0.69101468 4:0.5355203 5:0.70516679 6:0.23269768 
1 1:0.16489984 2:0.27502554 3:0.55491772 4:0.90142425 5:0.31186451 6:0.25114825 
1 1:0.6871335 2:0.77684815 3:0.44754458 4:0.6550361 5:0.30365385 6:0.77247137 
1 1:0.47352228 2:0.74224462 3:0.75533596 4:0.81525495 5:0.39183781 6:0.99277524 
1 1:0.8883811 2:0.5509958 3:0.58481111 4:0.37716967 5:0.62079838 6:0.34900359 
1 1:0.6723278 2:0.77544871 3:0.46502183 4:0.28218204 5:0.21844355 6:0.70324695 
1 1:0.36019916 2:0.19073751 3:0.29363957 4:0.85619094 5:0.88936353 6:0.34756069 
1 1:0.37052739 2:0.79732623 3:0.65094514 4:0.40962635 5:0.35741256 6:0.94605699 
1 1:0.7599938 2:0.70229498 3:0.34371215 4:0.47803012 5:0.1658166 6:0.48303971 
1 1:0.36392488 2:0.19987442 3:0.85484445 4:0.44789773 5:0.25495236 6:0.38798663 
1 1:0.75890781 2:0.57547606 3:0.29907046 4:0.039271208 5:0.46947365 6:0.025818361 
1 1:0.32439046 2:0.72764916 3:0.39007835 4:0.41569179 5:0.057201777 6:0.29892652 
1 1:0.49078801 2:0.25629618 3:0.40199419 4:0.99588216 5:0.62667728 6:0.054075851 
1 1:0.68600217 2:0.6818628 3:0.61813953 4:0.50517183 5:0.43542203 6:0.39390926 
1 1:0.74405495 2:0.71990843 3:0.70199017 4:0.88506648 5:0.67629599 6:0.13427049 
1 1:0.27419928 2:0.27860483 3:0.52699232 4:0.27982621 5:0.42936253 6:0.81004475 
1 1:0.18489011 2:0.62007262 3:0.1763796 4:0.76695632 5:0.53126717 6:0.48876663 
1 1:0.29202882 2:0.53835272 3:0.79467441 4:0.839058 5:0.79489099 6:0.68947743 
1 1:0.3337343 2:0.2707778 3:0.86998886 4:0.43721221 5:0.50787807 6:0.95267992 
1 1:0.59101363 2:0.25003371 3:0.76270574 4:0.59342667 5:0.71365413 6:0.88315811 
1 1:0.72062386 2:0.29966119 3:0.17523366 4:0.10897861 5:0.68254857 6:0.52341487 
1 1:0.18663118 2:0.65947785 3:0.60191157 4:0.32358098 5:0.45697279 6:0.78921007 
1 1:0.46083887 2:0.68452129 3:0.69832236 4:0.2148023 5:0.63813093 6:0.99471834 
1 1:0.70699467 2:0.55393929 3:0.33385758 4:0.15494892 5:0.51972479 6:0.23102934 
1 1:0.18282394 2:0.27115299 3:0.68750222 4:0.62846959 5:0.74268086 6:0.92146528 
1 1:0.43249078 2:0.76553215 3:0.3840907 4:0.0010287117 5:0.18450999 6:0.56678405 
1 1:0.29105445 2:0.19446135 3:0.29628965 4:0.62056559 5:0.70309928 6:0.50787247 
1 1:0.19823867 2:0.63130984 3:0.25601504 4:0.19420885 5:0.24339376 6:0.2691508 
1 1:0.53420368 2:0.20015184 3:0.17588898 4:0.11565924 5:0.71690387 6:0.43577628 
1 1:0.29226523 2:0.60069353 3:0.86034482 4:0.51006804 5:0.74582644 6:0.26108303 
1 1:0.64741424 2:0.73364727 3:0.74145702 4:0.94992263 5:0.44970918 6:0.63610443 
1 1:0.51444679 2:0.72069657 3:0.18802715 4:0.65004728 5:0.62533831 6:0.52404515 
1 1:0.64315696 2:0.24349395 3:0.24966966 4:0.051726403 5:0.65721537 6:0.10791293 
1 1:0.52976139 2:0.14319086 3:0.53068447 4:0.30567096 5:0.43014884 6:0.83462007 
1 1:0.86708602 2:0.56028832 3:0.2759961 4:0.41534091 5:0.10228748 6:0.48088862 
1 1:0.69169907 2:0.19266888 3:0.37761346 4:0.328576 5:0.2821885 6:0.91815939 
1 1:0.39165007 2:0.82685102 3:0.57170046 4:0.76735726 5:0.365344 6:0.084925823 
1 1:0.16625277 2:0.42481257 3:0.32590644 4:0.25354362 5:0.63502465 6:0.3038807 
1 1:0.12471518 2:0.44874781 3:0.6931614 4:0.71255178 5:0.31905223 6:0.29497503 
1 1:0.56261135 2:0.15220331 3:0.21785778 4:0.13569975 5:0.25699156 6:0.25118994 
1 1:0.6906967 2:0.50659651 3:0.099527765 4:0.52768487 5:0.29098511 6:0.051307572 
1 1:0.58145742 2:0.26637054 3:0.83088998 4:0.66352507 5:0.21513683 6:0.0068622539 
1 1:0.89149983 2:0.42077309 3:0.43632679 4:0.46047984 5:0.86853393 6:0.36579089 
1 1:0.69995369 2:0.63265059 3:0.71451519 4:0.75285841 5:0.91492595 6:0.54553699 
1 1:0.61998164 2:0.15478184 3:0.76118142 4:0.42993087 5:0.78921141 6:0.27771017 
1 1:0.52303363 2:0.097475562 3:0.47871839 4:0.049626994 5:0.25184044 6:0.62500509 
1 1:0.18479627 2:0.67535484 3:0.36577505 4:0.0081319142 5:0.30390376 6:0.53435507 
1 1:0.41658581 2:0.73462709 3:0.2995722 4:0.43497398 5:0.54230253 6:0.78249426 
1 1:0.56287589 2:0.48431947 3:0.11370974 4:0.31124168 5:0.27532401 6:0.19778908 
1 1:0.10142358 2:0.31816318 3:0.70329306 4:0.33659495 5:0.48635108 6:0.59886574 
1 1:0.36553034 2:0.81855307 3:0.56544 4:0.58313978 5:0.51593342 6:0.44192481 
1 1:0.24976003 2:0.76597635 3:0.59489124 4:0.42741347 5:0.24064052 6:0.24196194 
1 1:0.85408211 2:0.27583383 3:0.54449411 4:0.84457169 5:0.70658151 6:0.69594958 
1 1:0.34746342 2:0.54089732 3:0.11325819 4:0.79551975 5:0.87972927 6:0.22393747 
1 1:0.49319269 2:0.5293056 3:0.049469703 4:0.64715684 5:0.60157595 6:0.031337063 
1 1:0.15364142 2:0.32046378 3:0.71647012 4:0.19275384 5:0.27253841 6:0.79110953 
1 1:0.45413456 2:0.22605729 3:0.65956609 4:0.82467357 5:0.25770284 6:0.42533877 
1 1:0.25909223 2:0.13848635 3:0.47021311 4:0.044718129 5:0.43844792 6:0.43100206 
1 1:0.49196022 2:0.48445139 3:0.91901472 4:0.09251841 5:0.66767367 6:0.49817176 
1 1:0.93536297 2:0.56341319 3:0.61257966 4:0.87510619 5:0.52931773 6:0.32559235 
1 1:0.81402994 2:0.43682957 3:0.29854812 4:0.94770319 5:0.33916421 6:0.88745032 
1 1:0.33024218 2:0.73709293 3:0.31011399 4:0.45809786 5:0.50426279 6:0.95079195 
1 1:0.59356942 2:0.095514072 3:0.60204042 4:0.33851737 5:0.80538093 6:0.47636639 
1 1:0.78859407 2:0.66094579 3:0.76905528 4:0.13391308 5:0.46625362 6:0.52223325 
1 1:0.39962306 2:0.14139374 3:0.70659536 4:0.55289223 5:0.54380278 6:0.33060713 
1 1:0.3907831 2:0.22785429 3:0.81062864 4:0.71111445 5:0.4281916 6:0.39182032 
1 1:0.27370243 2:0.36682076 3:0.21324402 4:0.6588353 5:0.42454611 6:0.052575594 
1 1:0.34514697 2:0.2048147 3:0.47651584 4:0.9091403 5:0.87477124 6:0.69624818 
1 1:0.86359511 2:0.46465375 3:0.60773504 4:0.085358443 5:0.59282561 6:0.099817241 
1 1:0.4967082 2:0.17330756 3:0.6658609 4:0.02330324 5:0.49483211 6:0.3733489 
1 1:0.5946631 2:0.67672663 3:0.57406134 4:0.24612313 5:0.69615603 6:0.11005443 
1 1:0.31104922 2:0.74009376 3:0.63535969 4:0.057820025 5:0.64732537 6:0.0016086353 
1 1:0.8457155 2:0.42760069 3:0.74906565 4:0.3561628 5:0.59873289 6:0.48249748 
1 1:0.32393438 2:0.17164849 3:0.62286767 4:0.77665979 5:0.32663278 6:0.1447067 
1 1:0.54301539 2:0.68888189 3:0.54041534 4:0.46376176 5:0.40918445 6:0.27064049 
1 1:0.47281861 2:0.3096918 3:0.83587612 4:0.63860214 5:0.54671904 6:0.74424086 
1 1:0.55929663 2:0.30448049 3:0.79781205 4:0.62110687 5:0.31140344 6:0.81042017 
1 1:0.91195162 2:0.29421986 3:0.47618776 4:0.54103594 5:0.47938435 6:0.60853313 
1 1:0.24555758 2:0.5563032 3:0.75635328 4:0.095482807 5:0.14052025 6:0.6113008 
1 1:0.67558231 2:0.73618813 3:0.29991449 4:0.11804405 5:0.70809966 6:0.7156733 
1 1:0.4805248 2:0.72048543 3:0.72543329 4:0.59826631 5:0.66250913 6:0.33383564 
1 1:0.52513183 2:0.62447611 3:0.10187633 4:0.32016571 5:0.76023461 6:0.11828113 
1 1:0.95045846 2:0.47697479 3:0.48010229 4:0.75565433 5:0.5404331 6:0.2677139 
1 1:0.65481829 2:0.21338869 3:0.32892643 4:0.97787837 5:0.84896561 6:0.16826232 
1 1:0.50283008 2:0.76712564 3:0.58411206 4:0.31481998 5:0.097831841 6:0.26053282 
1 1:0.40615053 2:0.65632454 3:0.84765117 4:0.78408656 5:0.82631132 6:0.72234301 
1 1:0.83455485 2:0.48987262 3:0.54259893 4:0.43128245 5:0.68121118 6:0.53145074 
1 1:0.76385403 2:0.24952929 3:0.33863795 4:0.014321445 5:0.88911843 6:0.61794286 
1 1:0.48756499 2:0.17407181 3:0.42653222 4:0.74139362 5:0.97971116 6:0.96671606 
1 1:0.42313953 2:0.40848119 3:0.15303121 4:0.24381458 5:0.76684034 6:0.89467091 
1 1:0.84052361 2:0.52755323 3:0.45229824 4:0.50166611 5:0.64701234 6:0.43456422 
1 1:0.67066293 2:0.64805899 3:0.27961446 4:0.84349158 5:0.20236232 6:0.66014225 
1 1:0.3275966 2:0.38974074 3:0.097998927 4:0.60064052 5:0.51126849 6:0.88821297 
1 1:0.23501975 2:0.26967564 3:0.33715242 4:0.3185736 5:0.88559497 6:0.83465375 
1 1:0.3039088 2:0.34824073 3:0.68825568 4:0.090046897 5:0.75219623 6:0.24332016 
1 1:0.86664062 2:0.25174204 3:0.56076338 4:0.40773787 5:0.049679296 6:0.38763952 
1 1:0.24173815 2:0.57318111 3:0.40818326 4:0.90478015 5:0.37550456 6:0.13183597 
1 1:0.31929107 2:0.7748023 3:0.44901958 4:0.5062296 5:0.47947103 6:0.80515528 
1 1:0.87231497 2:0.68987483 3:0.59338084 4:0.20149878 5:0.45939976 6:0.36527527 
1 1:0.3921339 2:0.76454038 3:0.53396021 4:0.21641535 5:0.89847206 6:0.85324081 
1 1:0.46027643 2:0.19927343 3:0.1373744 4:0.22639637 5:0.3892642 6:0.62084369 
1 1:0.50213028 2:0.78334893 3:0.66695833 4:0.66458111 5:0.2941505 6:0.26983001 
1 1:0.39934767 2:0.75650995 3:0.27758872 4:0.59665809 5:0.70983119 6:0.22893294 
1 1:0.58342044 2:0.63804644 3:0.1548044 4:0.97597827 5:0.4663157 6:0.42167002 
1 1:0.2701461 2:0.64582975 3:0.188317 4:0.7817241 5:0.7900407 6:0.65834912 
1 1:0.43718074 2:0.1230758 3:0.69933912 4:0.24053203 5:0.028680518 6:0.63095112 
1 1:0.79162406 2:0.37518881 3:0.82405777 4:0.17407886 5:0.52537045 6:0.15201394 
1 1:0.68108774 2:0.28256567 3:0.7655717 4:0.42163134 5:0.41568461 6:0.80120656 
1 1:0.43908185 2:0.19864348 3:0.50715 4:0.87788513 5:0.492285 6:0.38562265 
1 1:0.55125607 2:0.65398035 3:0.70745147 4:0.93461005 5:0.68325332 6:0.16890457 
1 1:0.82630264 2:0.14927906 3:0.54367409 4:0.36664361 5:0.41617063 6:0.44057891 
1 1:0.47801905 2:0.19804105 3:0.12782248 4:0.71349461 5:0.31969868 6:0.37760796 
1 1:0.28029772 2:0.59079882 3:0.30338992 4:0.94483738 5:0.45060739 6:0.13979231 
1 1:0.85013739 2:0.67880297 3:0.33034744 4:0.59796243 5:0.59957357 6:0.31969179 
1 1:0.49024373 2:0.61819443 3:0.95312031 4:0.46994249 5:0.52453691 6:0.29208763 
1 1:0.4554678 2:0.73739636 3:0.53444642 4:0.23980193 5:0.72536467 6:0.82312775 
1 1:0.37884522 2:0.71761563 3:0.30698284 4:0.43738768 5:0.4409187 6:0.02482054 
1 1:0.3518761 2:0.63618663 3:0.75333016 4:0.99386027 5:0.31507727 6:0.59216596 
1 1:0.56087386 2:0.17065665 3:0.38673109 4:0.77433269 5:0.16780153 6:0.69932628 
1 1:0.3970972 2:0.14110586 3:0.5863819 4:0.55932898 5:0.15549021 6:0.5170742 
1 1:0.4182977 2:0.3492915 3:0.096949916 4:0.17061477 5:0.6134737 6:0.76395107 
1 1:0.88598805 2:0.60455811 3:0.55051637 4:0.0076972557 5:0.33051947 6:0.24243168 
1 1:0.5951417 2:0.84739662 3:0.53672735 4:0.073817831 5:0.46191442 6:0.29398985 
1 1:0.50125799 2:0.50756784 3:0.11534789 4:0.63307458 5:0.76001962 6:0.25916778 
1 1:0.48109197 2:0.14363624 3:0.58217306 4:0.50732727 5:0.4840669 6:0.15319712 
1 1:0.59315526 2:0.11630781 3:0.45136139 4:0.33365938 5:0.71907577 6:0.88496997 
1 1:0.91123638 2:0.68474855 3:0.51800308 4:0.3865764 5:0.58905055 6:0.5360873 
1 1:0.44966225 2:0.51843396 3:0.16604978 4:0.91424595 5:0.4832745 6:0.1010525 
1 1:0.50349332 2:0.75514606 3:0.33481932 4:0.68865494 5:0.18251679 6:0.38005231 
1 1:0.55854967 2:0.63220786 3:0.79994184 4:0.43610412 5:0.27060051 6:0.1338406 
1 1:0.84800039 2:0.31827039 3:0.71739117 4:0.55208561 5:0.086128131 6:0.34817322 
1 1:0.2335545 2:0.70195455 3:0.30543289 4:0.1603241 5:0.46643213 6:0.29819142 
1 1:0.33078595 2:0.14270626 3:0.61537409 4:0.33889412 5:0.093207096 6:0.89836379 
1 1:0.42258747 2:0.65326396 3:0.16561171 4:0.77699246 5:0.39087926 6:0.0088082971 
1 1:0.52299202 2:0.38049876 3:0.053591039 4:0.15053379 5:0.49702516 6:0.548601 
1 1:0.81743782 2:0.33751599 3:0.62304581 4:0.82006825 5:0.5557061 6:0.84225652 
1 1:0.47753357 2:0.69446122 3:0.76617039 4:0.84291092 5:0.83370613 6:0.016172389 
1 1:0.64185902 2:0.1582402 3:0.47591577 4:0.16803262 5:0.57579421 6:0.44665005 
1 1:0.12556223 2:0.30502153 3:0.65777001 4:0.58063897 5:0.3484505 6:0.032987054 
0.6566159978112399 1:0.10418333 2:0.46721423 3:0.24802824 4:0.54135976 5:0.76385654 6:0.64722284 
1 1:0.81152047 2:0.62213099 3:0.69673993 4:0.59414384 5:0.3964131 6:0.78316295 
1 1:0.62017741 2:0.12535532 3:0.43723533 4:0.45217204 5:0.4586943 6:0.79442285 
1 1:0.61556865 2:0.17133342 3:0.67388664 4:0.52752175 5:0.45329456 6:0.1256091 
1 1:0.32533582 2:0.75162096 3:0.5914624 4:0.66934619 5:0.57824506 6:0.93318652 
1 1:0.31997529 2:0.47487124 3:0.91424315 4:0.43076037 5:0.50977346 6:0.3250816 
1 1:0.51198224 2:0.79758989 3:0.4281764 4:0.25138363 5:0.60175309 6:0.67844046 
1 1:0.5319773 2:0.85067852 3:0.51772291 4:0.45986002 5:0.33405682 6:0.66980879 
1 1:0.32553672 2:0.54257949 3:0.24075455 4:0.25386445 5:0.3428208 6:0.91131943 
1 1:0.45752768 2:0.7379478 3:0.833518 4:0.46073992 5:0.50527541 6:0.25542234 
0.01265400397937066 1:0.86271319 2:0.2837258 3:0.65394811 4:0.013482987 5:0.071975947 6:0.4130885 
1 1:0.22714425 2:0.45903178 3:0.29060613 4:0.52874172 5:0.67239543 6:0.84455224 
1 1:0.40206618 2:0.47286152 3:0.98115574 4:0.43090432 5:0.33818087 6:0.55104617 
1 1:0.8190181 2:0.59321905 3:0.70208832 4:0.269618 5:0.061024747 6:0.24171859 
1 1:0.78264533 2:0.77114041 3:0.36335953 4:0.81654093 5:0.48975316 6:0.63684809 
1 1:0.23011105 2:0.62115756 3:0.55259807 4:0.32812775 5:0.38030832 6:0.58740717 
1 1:0.60802291 2:0.68074698 3:0.57660466 4:0.2644943 5:0.27841914 6:0.58113858 
1 1:0.62784919 2:0.78662901 3:0.29275915 4:0.34709906 5:0.35801787 6:0.28608642 
1 1:0.77276564 2:0.51084028 3:0.80345608 4:0.1486583 5:0.7142244 6:0.48971528 
1 1:0.83309566 2:0.59484533 3:0.50972015 4:0.52643031 5:0.53072301 6:0.1396383 
1 1:0.33781985 2:0.29501209 3:0.70633268 4:0.55373802 5:0.66780035 6:0.76388892 
1 1:0.52687626 2:0.090783224 3:0.50381866 4:0.50416244 5:0.4197009 6:0.31958862 
1 1:0.91830015 2:0.6163523 3:0.38351541 4:0.21203578 5:0.36265146 6:0.45372336 
1 1:0.79864039 2:0.47417479 3:0.78339234 4:0.57887566 5:0.70260461 6:0.77331021 
1 1:0.82589077 2:0.20690738 3:0.49279731 4:0.0075878792 5:0.666536 6:0.49596548 
1 1:0.90921744 2:0.42577601 3:0.64568561 4:0.84698015 5:0.58157967 6:0.85537022 
1 1:0.17854534 2:0.29655457 3:0.58266111 4:0.3689962 5:0.040262026 6:0.99058222 
1 1:0.44361971 2:0.073707502 3:0.5754238 4:0.68547857 5:0.30527288 6:0.56765481 
1 1:0.45837115 2:0.2021021 3:0.19110126 4:0.78976285 5:0.55573986 6:0.16482208 
1 1:0.11718857 2:0.2900331 3:0.64629017 4:0.28468077 5:0.55263996 6:0.18350874 
1 1:0.53369525 2:0.22595064 3:0.22807479 4:0.32363653 5:0.2991018 6:0.15930622 
1 1:0.42858183 2:0.15694362 3:0.68241807 4:0.59164834 5:0.12035748 6:0.8645323 
1 1:0.62205411 2:0.66998248 3:0.82330859 4:0.09238964 5:0.53850258 6:0.58578618 
1 1:0.23418501 2:0.65957907 3:0.74827984 4:0.70841185 5:0.44021287 6:0.81873602 
1 1:0.52138043 2:0.71760889 3:0.67637899 4:0.14201833 5:0.86270802 6:0.001025923 
1 1:0.58669191 2:0.80218071 3:0.75260848 4:0.27005857 5:0.32862518 6:0.55230189 
1 1:0.80824959 2:0.44582301 3:0.14879885 4:0.82687916 5:0.4547803 6:0.73495275 
1 1:0.44827948 2:0.76193249 3:0.56318434 4:0.43071537 5:0.82368268 6:0.92679561 
1 1:0.8144425 2:0.74404788 3:0.38799831 4:0.44501442 5:0.3346421 6:0.40619883 
1 1:0.25628537 2:0.18737749 3:0.57374658 4:0.21035297 5:0.84499476 6:0.058983241 
1 1:0.80446592 2:0.37785564 3:0.29160516 4:0.95946175 5:0.055151887 6:0.54262878 
1 1:0.44625008 2:0.79242998 3:0.3608852 4:0.27288732 5:0.65557253 6:0.18731593 
1 1:0.63373493 2:0.35873688 3:0.23345311 4:0.83770906 5:0.40597222 6:0.96105401 
1 1:0.73378682 2:0.45324042 3:0.13405084 4:0.56229549 5:0.17869228 6:0.40215852 
1 1:0.47901863 2:0.16949591 3:0.3648298 4:0.77483048 5:0.11686734 6:0.59169922 
1 1:0.90770373 2:0.38392334 3:0.65091913 4:0.69641783 5:0.44409398 6:0.78763016 
1 1:0.17745152 2:0.40237888 3:0.83819323 4:0.10671719 5:0.6259749 6:0.4087727 
1 1:0.40595098 2:0.73445724 3:0.27761699 4:0.40178077 5:0.26606304 6:0.19003686 
1 1:0.40045047 2:0.34341847 3:0.053705791 4:0.321684 5:0.50233442 6:0.72837924 
1 1:0.39803404 2:0.28823527 3:0.26313459 4:0.33659422 5:0.64612628 6:0.58584356 
1 1:0.90779451 2:0.2801821 3:0.43744959 4:0.61052115 5:0.69730399 6:0.62144977 
1 1:0.54552197 2:0.24288629 3:0.26726735 4:0.087306071 5:0.93386879 6:0.33260546 
1 1:0.73655168 2:0.24783053 3:0.71975964 4:0.11681145 5:0.69980428 6:0.43826608 
1 1:0.38900191 2:0.08694727 3:0.40189283 4:0.58457122 5:0.46340203 6:0.58171365 
1 1:0.84551885 2:0.24386584 3:0.39863633 4:0.1350168 5:0.325568 6:0.9668617 
1 1:0.17258478 2:0.71609716 3:0.34463721 4:0.45793631 5:0.36827577 6:0.72065876 
0.1223971469970813 1:0.12410672 2:0.21371309 3:0.40479262 4:0.48950564 5:0.72129006 6:0.52587725 
1 1:0.84994538 2:0.34285937 3:0.40926309 4:0.30514952 5:0.2821653 6:0.96912568 
1 1:0.046410545 2:0.45451789 3:0.52759252 4:0.68271075 5:0.28481091 6:0.47256388 
1 1:0.038900587 2:0.51218428 3:0.38562201 4:0.26374262 5:0.55841155 6:0.19137113 
1 1:0.17425418 2:0.32713713 3:0.24618692 4:0.65420886 5:0.5555686 6:0.42149086 
1 1:0.71977083 2:0.75653537 3:0.66420532 4:0.48936204 5:0.79169196 6:0.39948046 
1 1:0.25359712 2:0.28835893 3:0.13833672 4:0.34464532 5:0.61726081 6:0.42438818 
1 1:0.17269556 2:0.34780297 3:0.21648294 4:0.35866339 5:0.46446955 6:0.66417629 
1 1:0.53904359 2:0.65072633 3:0.55338364 4:0.38677233 5:0.81357513 6:0.30383582 
1 1:0.084905272 2:0.26432943 3:0.5421325 4:0.38466177 5:0.27072028 6:0.12502225 
1 1:0.3254226 2:0.18407907 3:0.72579171 4:0.38650758 5:0.67330635 6:0.027886426 
1 1:0.65825058 2:0.81441067 3:0.62189035 4:0.70310283 5:0.35364988 6:0.53827692 
1 1:0.51108761 2:0.79804796 3:0.22619447 4:0.47100892 5:0.43365123 6:0.13551734 
1 1:0.22848831 2:0.77923863 3:0.39286718 4:0.27019341 5:0.55847696 6:0.39761319 
1 1:0.85041615 2:0.71016673 3:0.57293922 4:0.47276502 5:0.49751081 6:0.16696602 
1 1:0.14552465 2:0.22252955 3:0.34776666 4:0.45218193 5:0.31028627 6:0.31842157 
1 1:0.68944505 2:0.53016361 3:0.19639521 4:0.25478306 5:0.21763204 6:0.10859371 
1 1:0.26226575 2:0.24132867 3:0.39710078 4:0.79439399 5:0.48711374 6:0.10220728 
1 1:0.28520564 2:0.54595574 3:0.9099832 4:0.42244128 5:0.42720348 6:0.055681513 
1 1:0.88081381 2:0.34182084 3:0.59248442 4:0.76049613 5:0.2233838 6:0.1380366 
1 1:0.6944006 2:0.66024509 3:0.80262627 4:0.48226476 5:0.66473378 6:0.42910207 
1 1:0.28901531 2:0.72520714 3:0.33759266 4:0.35283642 5:0.80348834 6:0.79857693 
1 1:0.59631028 2:0.4601941 3:0.1636058 4:0.48903421 5:0.83452372 6:0.82491584 
1 1:0.6308542 2:0.5671057 3:0.24902293 4:0.31345297 5:0.13332797 6:0.12226199 
1 1:0.73117851 2:0.34124202 3:0.17839689 4:0.7407795 5:0.74132836 6:0.084334648 
1 1:0.42604618 2:0.74209928 3:0.79997144 4:0.7967444 5:0.34953193 6:0.85377484 
1 1:0.78610185 2:0.25995414 3:0.2055112 4:0.49997255 5:0.55770886 6:0.20992387 
1 1:0.57277398 2:0.6506562 3:0.76707344 4:0.93201493 5:0.34361879 6:0.53905544 
1 1:0.2954571 2:0.73217469 3:0.35143281 4:0.98942225 5:0.85453664 6:0.73594903 
1 1:0.74425551 2:0.13856664 3:0.42158788 4:0.51485701 5:0.48823484 6:0.41843711 
1 1:0.66073332 2:0.2274445 3:0.29398512 4:0.96342445 5:0.77808782 6:0.39434888 
1 1:0.085852394 2:0.4300339 3:0.33693607 4:0.77253194 5:0.56354847 6:0.20486446 
1 1:0.61513177 2:0.18610809 3:0.49117285 4:0.84430833 5:0.57197004 6:0.25256022 
1 1:0.61016533 2:0.66823154 3:0.167712 4:0.51398458 5:0.7872926 6:0.58372593 
1 1:0.41770913 2:0.54566551 3:0.80297055 4:0.26993916 5:0.65749757 6:0.60410871 
1 1:0.56033915 2:0.73219686 3:0.78307682 4:0.87609041 5:0.52745794 6:0.49187578 
1 1:0.36182854 2:0.11612837 3:0.54748787 4:0.18163717 5:0.30945966 6:0.81271478 
1 1:0.068029461 2:0.50574799 3:0.62659675 4:0.26586551 5:0.26158877 6:0.54200324 
1 1:0.71572672 2:0.46389265 3:0.11401076 4:0.18313369 5:0.29270958 6:0.27785006 
1 1:0.355558 2:0.40013615 3:0.91297188 4:0.84605394 5:0.42933216 6:0.84340438 
1 1:0.196007 2:0.20735509 3:0.52169015 4:0.45870484 5:0.57337936 6:0.33080997 
1 1:0.37537488 2:0.75777757 3:0.28721053 4:0.94395096 5:0.46817558 6:0.71401542 
1 1:0.75752644 2:0.68351881 3:0.364642 4:0.39114673 5:0.86306968 6:0.016559524 
1 1:0.2435469 2:0.6571542 3:0.46974421 4:0.46902675 5:0.5426899 6:0.35890424 
1 1:0.4339665 2:0.26609819 3:0.1532664 4:0.6905806 5:0.88209042 6:0.8724469 
1 1:0.29746753 2:0.13931708 3:0.56717449 4:0.10050365 5:0.27399663 6:0.27612628 
1 1:0.79134961 2:0.63551234 3:0.25860731 4:0.81890459 5:0.15945933 6:0.43132148 
1 1:0.8069569 2:0.33330468 3:0.26199463 4:0.35300247 5:0.10823704 6:0.18270033 
1 1:0.60354609 2:0.19899516 3:0.67799129 4:0.7773412 5:0.47622985 6:0.4779717 
1 1:0.28873198 2:0.79199916 3:0.61181865 4:0.42653499 5:0.24839579 6:0.1169478 
1 1:0.82768968 2:0.66471595 3:0.65274938 4:0.41096054 5:0.55359519 6:0.46655043 
1 1:0.64341092 2:0.39181224 3:0.94730965 4:0.51144996 5:0.3501513 6:0.6917983 
1 1:0.73237541 2:0.30087287 3:0.20136595 4:0.66559814 5:0.44031019 6:0.27287465 
1 1:0.22258623 2:0.54799425 3:0.77277655 4:0.5830743 5:0.59578125 6:0.26856535 
1 1:0.64712839 2:0.83283558 3:0.39867281 4:0.73428189 5:0.30282591 6:0.5761957 
1 1:0.27232669 2:0.63423029 3:0.30642272 4:0.26257434 5:0.44672504 6:0.97306869 
1 1:0.64682052 2:0.16935204 3:0.27373928 4:0.59600883 5:0.47361614 6:0.27511988 
1 1:0.10514597 2:0.67396688 3:0.39516776 4:0.57777128 5:0.64937344 6:0.17458917 
1 1:0.038559146 2:0.40165489 3:0.62129672 4:0.22941333 5:0.57797695 6:0.5284545 
1 1:0.1631951 2:0.39432376 3:0.57260803 4:0.28250896 5:0.94571487 6:0.47818424 
1 1:0.36704844 2:0.79312437 3:0.24627676 4:0.60307395 5:0.57800691 6:0.42371994 
1 1:0.78268161 2:0.33622628 3:0.1494451 4:0.69335844 5:0.52577515 6:0.26770089 
1 1:0.43501719 2:0.63905566 3:0.84642135 4:0.27488732 5:0.30959748 6:0.66417122 
1 1:0.49019057 2:0.18895866 3:0.40166173 4:0.6577944 5:0.62697382 6:0.91712534 
1 1:0.71649934 2:0.33590281 3:0.1162594 4:0.697558 5:0.45414426 6:0.70050755 
1 1:0.41250125 2:0.62112658 3:0.8673193 4:0.97890151 5:0.71482331 6:0.65139262 
1 1:0.48090956 2:0.19630751 3:0.3577808 4:0.49448926 5:0.62339527 6:0.20053599 
1 1:0.360926 2:0.6322795 3:0.86838657 4:0.85641829 5:0.225269 6:0.59727947 
1 1:0.81788294 2:0.35316779 3:0.38817244 4:0.088782957 5:0.40678008 6:0.078938177 
1 1:0.41227531 2:0.25841452 3:0.3586777 4:0.91691191 5:0.7013878 6:0.35983151 
1 1:0.28909945 2:0.80204966 3:0.51596194 4:0.63402892 5:0.34871948 6:0.59536569 
1 1:0.599319 2:0.39915794 3:0.12999062 4:0.35479406 5:0.61571552 6:0.77506495 
1 1:0.66989526 2:0.70781238 3:0.50718823 4:0.77096484 5:0.71298896 6:0.72672055 
1 1:0.36057075 2:0.22996567 3:0.72873269 4:0.32867881 5:0.69957211 6:0.65997064 
1 1:0.6470149 2:0.77749153 3:0.56379557 4:0.25145751 5:0.44210585 6:0.83798463 
1 1:0.45563702 2:0.33694771 3:0.14920715 4:0.017349807 5:0.33706611 6:0.91035138 
1 1:0.77092355 2:0.73549553 3:0.34401933 4:0.64924055 5:0.35509693 6:0.031626274 
1 1:0.64709107 2:0.65452864 3:0.18554011 4:0.73847214 5:0.28067135 6:0.58671516 
1 1:0.52560462 2:0.7379394 3:0.40959158 4:0.0073827944 5:0.15301208 6:0.03032048 
1 1:0.84728172 2:0.32423569 3:0.74028808 4:0.80972962 5:0.64790759 6:0.28488536 
1 1:0.55231213 2:0.75306079 3:0.55310732 4:0.24335243 5:0.79881686 6:0.8092741 
1 1:0.78136214 2:0.69269797 3:0.5524762 4:0.89261517 5:0.78095673 6:0.2806099 
1 1:0.92681427 2:0.46619392 3:0.38062909 4:0.17453504 5:0.46273789 6:0.046867668 
1 1:0.85459902 2:0.49738548 3:0.35380235 4:0.43309956 5:0.47980959 6:0.36913736 
1 1:0.5917615 2:0.10232694 3:0.32164087 4:0.27567869 5:0.40213008 6:0.019404688 
1 1:0.76071578 2:0.38941517 3:0.26939958 4:0.031671206 5:0.34783393 6:0.0059195689 
1 1:0.23309578 2:0.68560605 3:0.41277859 4:0.18716074 5:0.74668173 6:0.43973514 
1 1:0.84532686 2:0.27865475 3:0.77043141 4:0.31510431 5:0.37961178 6:0.72671956 
1 1:0.46602205 2:0.2324017 3:0.12551173 4:0.25671788 5:0.13593223 6:0.41088238 
1 1:0.7051715 2:0.12713874 3:0.55539016 4:0.80848396 5:0.35189218 6:0.79987057 
1 1:0.83014706 2:0.27183967 3:0.66282386 4:0.7902419 5:0.43267431 6:0.61698153 
1 1:0.75768794 2:0.67030942 3:0.32444384 4:0.043180766 5:0.14343543 6:0.72221296 
1 1:0.29425549 2:0.58117238 3:0.83971299 4:0.33432811 5:0.56812224 6:0.74283501 
1 1:0.53994152 2:0.19241026 3:0.43419554 4:0.084876666 5:0.25440271 6:0.6255309 
1 1:0.61610652 2:0.73394191 3:0.35499477 4:0.72164529 5:0.72147709 6:0.27229281 
1 1:0.31544895 2:0.16509176 3:0.57650401 4:0.25869999 5:0.57972809 6:0.71509768 
1 1:0.35424167 2:0.32964603 3:0.15646175 4:0.9308154 5:0.72480991 6:0.97442288 
1 1:0.46216116 2:0.063182696 3:0.52837178 4:0.48959654 5:0.72476953 6:0.6231443 
1 1:0.68110501 2:0.69217799 3:0.28250045 4:0.8657679 5:0.63465059 6:0.8159825 
1 1:0.36379411 2:0.78428034 3:0.53151796 4:0.4108398 5:0.33135887 6:0.057824056 
1 1:0.41898906 2:0.38616624 3:0.11446303 4:0.55556895 5:0.34796929 6:0.8157536 
1 1:0.81883187 2:0.61468911 3:0.48358834 4:0.27052867 5:0.59604565 6:0.38603037 
1 1:0.5475409 2:0.48525781 3:0.83121357 4:0.15050209 5:0.84242266 6:0.44738109 
1 1:0.35822788 2:0.22449411 3:0.20820335 4:0.23426971 5:0.3919214 6:0.36330834 
1 1:0.032768299 2:0.49865381 3:0.56430113 4:0.70025981 5:0.42035629 6:0.37868016 
1 1:0.57197154 2:0.2171466 3:0.20178888 4:0.49207927 5:0.66808539 6:0.13867492 
1 1:0.4704872 2:0.43621627 3:0.92957132 4:0.64812684 5:0.56271712 6:0.97480974 
1 1:0.15610645 2:0.17599307 3:0.496982 4:0.56718884 5:0.48844461 6:0.61466992 
1 1:0.60765518 2:0.81565851 3:0.34377374 4:0.26624812 5:0.4972145 6:0.819161 
1 1:0.036531955 2:0.49538757 3:0.67104354 4:0.52165949 5:0.40510821 6:0.50244042 
1 1:0.82384061 2:0.7043989 3:0.42678834 4:0.96853772 5:0.42893032 6:0.75938896 
1 1:0.75503018 2:0.77569624 3:0.51391794 4:0.74376441 5:0.46375926 6:0.2873997 
1 1:0.33272707 2:0.18312488 3:0.23581547 4:0.33300455 5:0.67139145 6:0.85875581 
1 1:0.31915018 2:0.2270153 3:0.20277187 4:0.56649851 5:0.58011171 6:0.33631235 
1 1:0.38630498 2:0.25474338 3:0.83897582 4:0.86705479 5:0.6175899 6:0.33913142 
1 1:0.15191977 2:0.26399305 3:0.56097616 4:0.809124 5:0.44313136 6:0.51661653 
1 1:0.86022869 2:0.66303661 3:0.45422451 4:0.32092337 5:0.73599813 6:0.78593768 
1 1:0.34846587 2:0.16786141 3:0.53318087 4:0.42853321 5:0.31165989 6:0.14464075 
1 1:0.42325871 2:0.7252278 3:0.30040345 4:0.69035369 5:0.43136009 6:0.28820948 
1 1:0.20387257 2:0.36180791 3:0.16786348 4:0.63664295 5:0.50829635 6:0.47061884 
1 1:0.40522684 2:0.30227968 3:0.89441284 4:0.87706972 5:0.66312636 6:0.3610203 
1 1:0.66426094 2:0.25378498 3:0.25893412 4:0.3924651 5:0.24814494 6:0.044959051 
1 1:0.41708097 2:0.5972375 3:0.82781185 4:0.60165902 5:0.75660542 6:0.55596431 
1 1:0.11979671 2:0.2525266 3:0.53478765 4:0.83925929 5:0.73639261 6:0.61444246 
1 1:0.65736146 2:0.77649199 3:0.40742512 4:0.66627542 5:0.43206728 6:0.57024242 
1 1:0.077558833 2:0.36279241 3:0.3873987 4:0.40060693 5:0.48008124 6:0.6073359 
1 1:0.34469573 2:0.74482408 3:0.30606149 4:0.45571334 5:0.4850796 6:0.1071455 
1 1:0.7022005 2:0.18046674 3:0.30974716 4:0.40091766 5:0.82022705 6:0.83834076 
1 1:0.23451089 2:0.41546759 3:0.82862849 4:0.64679355 5:0.43182048 6:0.27308723 
1 1:0.74475303 2:0.70231452 3:0.54013799 4:0.59676993 5:0.6720123 6:0.52190672 
1 1:0.6793032 2:0.80091588 3:0.40412168 4:0.3410351 5:0.29794497 6:0.21556208 
1 1:0.24633352 2:0.72247711 3:0.33633063 4:0.90737325 5:0.44913599 6:0.89266598 
1 1:0.76367559 2:0.62928806 3:0.2033588 4:0.25308844 5:0.72070395 6:0.47998819 
1 1:0.32350306 2:0.22963036 3:0.18881945 4:0.77017474 5:0.72761191 6:0.41773779 
1 1:0.76366675 2:0.66503851 3:0.60196453 4:0.91312721 5:0.53837821 6:0.92079007 
1 1:0.71268448 2:0.82134531 3:0.405851 4:0.54902556 5:0.50585354 6:0.69612301 
1 1:0.1080378 2:0.49344915 3:0.49535873 4:0.89008449 5:0.78669308 6:0.19118423 
1 1:0.035881816 2:0.42441046 3:0.48264743 4:0.43410813 5:0.27270101 6:0.68328324 
1 1:0.16950653 2:0.29319376 3:0.63651239 4:0.80124863 5:0.65823292 6:0.82773239 
1 1:0.89553831 2:0.4630944 3:0.68192218 4:0.36033696 5:0.63682179 6:0.79302294 
1 1:0.61011339 2:0.69587557 3:0.19560538 4:0.66776353 5:0.86537698 6:0.82529118 
1 1:0.27811148 2:0.67222865 3:0.83710238 4:0.3424289 5:0.43368009 6:0.20264004 
1 1:0.69775643 2:0.12013878 3:0.34954255 4:0.84279939 5:0.39641893 6:0.45761848 
1 1:0.72372292 2:0.2177638 3:0.35893643 4:0.64771074 5:0.69182248 6:0.34327577 
1 1:0.14224102 2:0.22267956 3:0.63618686 4:0.46978929 5:0.54112557 6:0.82314089 
1 1:0.083595815 2:0.42479437 3:0.71181965 4:0.49095761 5:0.14370008 6:0.53690195 
1 1:0.89554797 2:0.28577323 3:0.38812566 4:0.51044463 5:0.5516174 6:0.01367331 
1 1:0.76788025 2:0.31079298 3:0.73072211 4:0.72464873 5:0.77085839 6:0.86203987 
1 1:0.84837729 2:0.37001777 3:0.7411924 4:0.47542216 5:0.70043046 6:0.66228665 
1 1:0.54219139 2:0.20335508 3:0.46661902 4:0.086499924 5:0.77614503 6:0.078190015 
1 1:0.58696429 2:0.66848233 3:0.14769511 4:0.305289 5:0.71097101 6:0.24405978 
1 1:0.90529117 2:0.44166784 3:0.66397006 4:0.63663567 5:0.45898817 6:0.21930683 
1 1:0.74868264 2:0.59068737 3:0.8526966 4:0.57187982 5:0.4353632 6:0.49900409 
1 1:0.64447745 2:0.73513346 3:0.68618693 4:0.13634625 5:0.23316304 6:0.62429168 
0.8724964873654051 1:0.50420033 2:0.17133654 3:0.17489694 4:0.82340344 5:0.62271331 6:0.7200159 
1 1:0.2842469 2:0.71354575 3:0.28410729 4:0.41514867 5:0.7261667 6:0.64198982 
1 1:0.2135671 2:0.24925956 3:0.75374414 4:0.27546462 5:0.35718657 6:0.048020258 
1 1:0.11339019 2:0.67995392 3:0.60416955 4:0.2087715 5:0.58859776 6:0.51418968 
1 1:0.88184902 2:0.51142628 3:0.49459864 4:0.4990006 5:0.5441794 6:0.3625284 
1 1:0.27368139 2:0.68981886 3:0.21933537 4:0.52408774 5:0.66688145 6:0.39451935 
1 1:0.29002425 2:0.71340219 3:0.23902463 4:0.32500103 5:0.13642415 6:0.55540734 
1 1:0.4449847 2:0.21964907 3:0.7966046 4:0.92494343 5:0.31813014 6:0.6072264 
1 1:0.60342979 2:0.80286485 3:0.42080957 4:0.38925234 5:0.54269061 6:0.93396242 
1 1:0.87206235 2:0.59785065 3:0.63155997 4:0.65385852 5:0.91372794 6:0.30796426 
1 1:0.53271069 2:0.30172859 3:0.067456372 4:0.39826524 5:0.51079519 6:0.33828378 
1 1:0.93875159 2:0.54971079 3:0.46109528 4:0.23998314 5:0.63747246 6:0.23921722 
1 1:0.080821509 2:0.63210011 3:0.54397625 4:0.55363373 5:0.56560542 6:0.70547375 
1 1:0.30653071 2:0.73408124 3:0.36280092 4:0.48576793 5:0.66814808 6:0.98096077 
1 1:0.61873371 2:0.61860452 3:0.062458684 4:0.42088504 5:0.57586388 6:0.38439378 
1 1:0.58707131 2:0.59036279 3:0.13268961 4:0.43049648 5:0.078057013 6:0.42184009 
1 1:0.52074998 2:0.31087523 3:0.17016706 4:0.24411198 5:0.44643497 6:0.91246419 
1 1:0.60048217 2:0.62468668 3:0.25470589 4:0.54472139 5:0.35022162 6:0.98836037 
1 1:0.38311684 2:0.24560466 3:0.39347358 4:0.005583748 5:0.64444816 6:0.38704973 
1 1:0.85424165 2:0.58217267 3:0.73300296 4:0.45574047 5:0.87552277 6:0.56271818 
1 1:0.21426943 2:0.5219397 3:0.18674437 4:0.51412996 5:0.80610774 6:0.10682814 
1 1:0.75373804 2:0.53453417 3:0.12382205 4:0.7098613 5:0.42600609 6:0.67892843 
1 1:0.84737672 2:0.32748825 3:0.32518423 4:0.45955662 5:0.4000913 6:0.41666042 
1 1:0.71322452 2:0.76701443 3:0.42276485 4:0.81696016 5:0.69897085 6:0.98697491 
1 1:0.68048875 2:0.12469239 3:0.50146486 4:0.040778842 5:0.55858337 6:0.47246985 
1 1:0.43558021 2:0.1032689 3:0.46894559 4:0.14975115 5:0.047406991 6:0.74078174 
1 1:0.58731734 2:0.17832714 3:0.70860825 4:0.77986981 5:0.13054343 6:0.22201894 
1 1:0.4871149 2:0.26442544 3:0.84173427 4:0.54988632 5:0.38513382 6:0.56480595 
1 1:0.68912988 2:0.80545144 3:0.5451099 4:0.97676891 5:0.76239788 6:0.55786717 
1 1:0.636552 2:0.41519922 3:0.14036396 4:0.53154188 5:0.13818539 6:0.83750273 
1 1:0.78050861 2:0.54494962 3:0.43025676 4:0.73571699 5:0.64042045 6:0.90357608 
1 1:0.66034781 2:0.16708479 3:0.75403105 4:0.71385431 5:0.76098053 6:0.41855023 
1 1:0.64944333 2:0.11439801 3:0.4649787 4:0.36646701 5:0.34002871 6:0.77115432 
1 1:0.26535087 2:0.25924057 3:0.55488484 4:0.73712257 5:0.83810276 6:0.82439115 
1 1:0.50421671 2:0.512756 3:0.10470851 4:0.28723104 5:0.44961151 6:0.035390225 
1 1:0.51410791 2:0.74065008 3:0.63203669 4:0.24193053 5:0.40418626 6:0.53964746 
1 1:0.92229368 2:0.45959757 3:0.60399904 4:0.038707638 5:0.38545667 6:0.74572584 
1 1:0.1266054 2:0.67300909 3:0.36426896 4:0.4052385 5:0.53412473 6:0.2029029 
1 1:0.40011959 2:0.66924405 3:0.70393485 4:0.99906522 5:0.2497824 6:0.84562043 
1 1:0.45275324 2:0.80170581 3:0.39712244 4:0.55094227 5:0.3229522 6:0.5922579 
1 1:0.59128942 2:0.49097893 3:0.86558883 4:0.10715465 5:0.91657405 6:0.27227665 
1 1:0.23365239 2:0.61546176 3:0.39421592 4:0.28752026 5:0.77577024 6:0.74796203 
1 1:0.53706818 2:0.45788017 3:0.87525335 4:0.1162805 5:0.50392722 6:0.69509707 
1 1:0.41973825 2:0.63533321 3:0.074544671 4:0.51920642 5:0.42083918 6:0.22867167 
1 1:0.47900883 2:0.11952796 3:0.35807221 4:0.68881837 5:0.20557832 6:0.10561294 
1 1:0.62665894 2:0.40071174 3:0.88684299 4:0.2394645 5:0.63202659 6:0.5970424 
1 1:0.6041994 2:0.74470084 3:0.45423685 4:0.18995543 5:0.055516337 6:0.18895488 
1 1:0.81222165 2:0.20302448 3:0.45512303 4:0.46553182 5:0.20569858 6:0.65870527 
1 1:0.48894176 2:0.13645646 3:0.71324475 4:0.19895221 5:0.32090106 6:0.09190639 
1 1:0.37008155 2:0.63520738 3:0.15551932 4:0.26408745 5:0.30640411 6:0.72140339 
1 1:0.94119026 2:0.41792219 3:0.55129512 4:0.85334694 5:0.51101909 6:0.7583073 
1 1:0.091652425 2:0.37279776 3:0.42095332 4:0.17707783 5:0.55198892 6:0.71596446 
1 1:0.15924957 2:0.42787354 3:0.35858659 4:0.97523895 5:0.80370743 6:0.3525025 
1 1:0.26185305 2:0.51006612 3:0.89525834 4:0.45090801 5:0.31838559 6:0.21789978 
1 1:0.33099608 2:0.43729111 3:0.14756275 4:0.87823895 5:0.59096387 6:0.97660977 
1 1:0.61282216 2:0.1759473 3:0.74989274 4:0.0078436127 5:0.67879684 6:0.67592255 
1 1:0.71307864 2:0.1473531 3:0.62477935 4:0.47322005 5:0.022357198 6:0.5961905 
1 1:0.33916547 2:0.10394996 3:0.60072977 4:0.14442309 5:0.59630355 6:0.55764362 
1 1:0.71852735 2:0.45505388 3:0.11744856 4:0.31266718 5:0.41791122 6:0.15324994 
1 1:0.31494081 2:0.18134382 3:0.6423021 4:0.27768522 5:0.55984378 6:0.91125415 
1 1:0.33131204 2:0.14161375 3:0.64686992 4:0.57853256 5:0.35380526 6:0.99666728 
1 1:0.15214004 2:0.39427317 3:0.71683579 4:0.6931313 5:0.183992 6:0.49693467 
1 1:0.40511946 2:0.30153951 3:0.84807152 4:0.99148576 5:0.27119444 6:0.3030795 
1 1:0.3110048 2:0.22377136 3:0.60618429 4:0.15408776 5:0.25164289 6:0.28356435 
1 1:0.4769729 2:0.1436624 3:0.3895598 4:0.73981703 5:0.28747359 6:0.15534616 
1 1:0.51523799 2:0.58724946 3:0.93843761 4:0.019838908 5:0.47759827 6:0.52968068 
1 1:0.58703006 2:0.2178165 3:0.71721412 4:0.60603099 5:0.55215525 6:0.93842435 
1 1:0.74669965 2:0.42981356 3:0.23285995 4:0.93510134 5:0.42915524 6:0.98134386 
1 1:0.44063607 2:0.84075611 3:0.35477735 4:0.34989434 5:0.43138287 6:0.054725398 
1 1:0.63344804 2:0.6256947 3:0.84381954 4:0.62879591 5:0.10417429 6:0.32261003 
1 1:0.24327391 2:0.43249888 3:0.8931036 4:0.3365952 5:0.39631058 6:0.20767766 
1 1:0.73286113 2:0.62835899 3:0.32936042 4:0.82467141 5:0.2513042 6:0.64104888 
1 1:0.5254478 2:0.335077 3:0.79585568 4:0.75634214 5:0.53760598 6:0.55326302 
1 1:0.69291725 2:0.24784992 3:0.22152329 4:0.75110462 5:0.56017338 6:0.68788877 
1 1:0.81269439 2:0.25910265 3:0.79131832 4:0.46790616 5:0.4533831 6:0.25278919 
1 1:0.34876188 2:0.29249631 3:0.77620211 4:0.94174839 5:0.66359557 6:0.16156271 
1 1:0.79284404 2:0.39989705 3:0.16219302 4:0.77793457 5:0.33885012 6:0.70388969 
1 1:0.43469381 2:0.7721215 3:0.49079056 4:0.94291944 5:0.80716505 6:0.27938472 
1 1:0.82577066 2:0.74703556 3:0.51867266 4:0.74650407 5:0.39650554 6:0.67162675 
1 1:0.64001063 2:0.17864529 3:0.67064179 4:0.81306144 5:0.52060323 6:0.68222636 
0.9881766975384065 1:0.2167533 2:0.70535138 3:0.51087333 4:0.73078993 5:0.18210823 6:0.98671129 
1 1:0.27792288 2:0.28105833 3:0.8427103 4:0.61915985 5:0.45921623 6:0.25945404 
1 1:0.81680605 2:0.63635566 3:0.40479449 4:0.050411672 5:0.59482869 6:0.65776 
1 1:0.46504507 2:0.54780966 3:0.90662853 4:0.41040616 5:0.78098004 6:0.37376161 
1 1:0.58280243 2:0.15979812 3:0.44404388 4:0.62440479 5:0.55975754 6:0.12406385 
1 1:0.29459903 2:0.48241056 3:0.94920727 4:0.54699816 5:0.57312299 6:0.37651738 
1 1:0.45230679 2:0.38294007 3:0.070103508 4:0.13392488 5:0.62469649 6:0.1659077 
1 1:0.33864517 2:0.1714279 3:0.81270473 4:0.57844021 5:0.43223977 6:0.45099196 
1 1:0.44499083 2:0.79959102 3:0.32097228 4:0.38137615 5:0.55804689 6:0.85394839 
1 1:0.20530873 2:0.54137663 3:0.69186686 4:0.80590888 5:0.60179177 6:0.51237111 
1 1:0.20190689 2:0.19028403 3:0.40511756 4:0.070414378 5:0.32799563 6:0.44578283 
1 1:0.67170575 2:0.7547172 3:0.50171334 4:0.16518655 5:0.78872532 6:0.81890118 
1 1:0.68649529 2:0.74080258 3:0.27247693 4:0.83505085 5:0.41071687 6:0.86145817 
1 1:0.54828825 2:0.16750684 3:0.79039808 4:0.41387154 5:0.16859474 6:0.51514986 
1 1:0.94226531 2:0.42191209 3:0.58596332 4:0.064680925 5:0.21170344 6:0.45379941 
1 1:0.75921808 2:0.73231672 3:0.38829003 4:0.40327955 5:0.82793663 6:0.86236978 
1 1:0.18214774 2:0.50172761 3:0.2498975 4:0.05431065 5:0.69507508 6:0.74907253 
1 1:0.90399156 2:0.29788117 3:0.48220413 4:0.81885652 5:0.5185895 6:0.52171035 
1 1:0.26195669 2:0.66251594 3:0.65715772 4:0.73279023 5:0.90817302 6:0.94296395 
1 1:0.65778937 2:0.61799604 3:0.85243316 4:0.25346479 5:0.3194373 6:0.040594922 
1 1:0.28083956 2:0.26547047 3:0.41238529 4:0.093771312 5:0.37882339 6:0.35382525 
1 1:0.14159345 2:0.55455995 3:0.35675396 4:0.4469608 5:0.78183 6:0.97317831 
1 1:0.47457052 2:0.3423383 3:0.098000318 4:0.13665296 5:0.33071737 6:0.77878064 
1 1:0.36930161 2:0.60585481 3:0.11126895 4:0.27085071 5:0.72777229 6:0.61565857 
1 1:0.52247394 2:0.80081987 3:0.51606521 4:0.70627536 5:0.46986092 6:0.89987686 
1 1:0.5604263 2:0.73945426 3:0.28286771 4:0.78948538 5:0.78787016 6:0.33189369 
1 1:0.86475689 2:0.57528685 3:0.46060956 4:0.99670689 5:0.27088587 6:0.79047348 
1 1:0.18977181 2:0.62652641 3:0.63155092 4:0.9913 5:0.13510107 6:0.045530726 
1 1:0.61423213 2:0.11144712 3:0.43217598 4:0.60526371 5:0.39732017 6:0.39608351 
1 1:0.80861585 2:0.40648987 3:0.27407091 4:0.33478557 5:0.535956 6:0.0041000245 
1 1:0.79006565 2:0.68884766 3:0.67390962 4:0.44279895 5:0.15280556 6:0.32321116 
1 1:0.24564719 2:0.71619893 3:0.27631213 4:0.34845338 5:0.24895142 6:0.70003187 
1 1:0.58589088 2:0.08173628 3:0.41192071 4:0.32717457 5:0.74339053 6:0.7287742 
1 1:0.60957945 2:0.38905535 3:0.19943878 4:0.94261589 5:0.44913885 6:0.21037919 
1 1:0.43287976 2:0.14269393 3:0.32330215 4:0.86178158 5:0.20301094 6:0.56666884 
1 1:0.53806086 2:0.19345391 3:0.40998814 4:0.14187535 5:0.88270636 6:0.58250189 
1 1:0.2489914 2:0.3452682 3:0.8452718 4:0.53357686 5:0.62960011 6:0.43334301 
1 1:0.50380818 2:0.7898057 3:0.58703723 4:0.58423495 5:0.49909185 6:0.3316297 
1 1:0.6332656 2:0.38111583 3:0.11021318 4:0.6336242 5:0.68058712 6:0.9123912 
1 1:0.72481218 2:0.16287354 3:0.36215594 4:0.88835081 5:0.522657 6:0.17178303 
1 1:0.22002654 2:0.2854201 3:0.72944475 4:0.14179188 5:0.38199969 6:0.25095327 
1 1:0.54325077 2:0.25101073 3:0.28913189 4:0.74585469 5:0.67634733 6:0.0061815385 
1 1:0.35135643 2:0.55149002 3:0.88294344 4:0.42465511 5:0.27753882 6:0.99715367 
1 1:0.62566658 2:0.71263932 3:0.51902161 4:0.10317961 5:0.83797653 6:0.27258358 
1 1:0.58730488 2:0.78446373 3:0.56132463 4:0.042350945 5:0.17416056 6:0.63475526 
1 1:0.6921984 2:0.13439937 3:0.60639866 4:0.9687166 5:0.6934773 6:0.54609152 
1 1:0.55811664 2:0.12542157 3:0.28800516 4:0.19754852 5:0.49045879 6:0.64207771 
1 1:0.26969479 2:0.5660635 3:0.83595206 4:0.28989812 5:0.72695631 6:0.84452804 
1 1:0.50579914 2:0.097174211 3:0.49097356 4:0.65054296 5:0.45153613 6:0.80216566 
1 1:0.28783489 2:0.74255886 3:0.63528078 4:0.93048476 5:0.31434821 6:0.41695572 
1 1:0.430834 2:0.70938408 3:0.6184801 4:0.14848545 5:0.60441559 6:0.71044938 
1 1:0.89810333 2:0.57868991 3:0.51789651 4:0.77020185 5:0.21106492 6:0.84886296 
1 1:0.65870895 2:0.70488658 3:0.26600241 4:0.64229638 5:0.55376701 6:0.95178191 
1 1:0.69587589 2:0.67707294 3:0.46089033 4:0.11844915 5:0.51503048 6:0.7007472 
1 1:0.50264049 2:0.69324924 3:0.84917356 4:0.77231343 5:0.83992217 6:0.57980476 
1 1:0.35348663 2:0.6344175 3:0.8253773 4:0.11581864 5:0.68329009 6:0.92048923 
1 1:0.53998167 2:0.15412333 3:0.44106712 4:0.93701279 5:0.93934509 6:0.87728534 
1 1:0.085536618 2:0.33013065 3:0.47640378 4:0.24739543 5:0.57775601 6:0.37313386 
1 1:0.81236658 2:0.37891422 3:0.55282518 4:0.10044958 5:0.62444747 6:0.062489714 
1 1:0.20165222 2:0.38541061 3:0.82568364 4:0.92668614 5:0.59913506 6:0.40748278 
1 1:0.55863576 2:0.18347197 3:0.70101609 4:0.82743413 5:0.53502827 6:0.94130221 
1 1:0.31897898 2:0.2962311 3:0.12791931 4:0.77240127 5:0.29998552 6:0.40381914 
1 1:0.68742239 2:0.25207219 3:0.79998676 4:0.6983598 5:0.36980935 6:0.10039355 
1 1:0.49099194 2:0.7409438 3:0.458562 4:0.53470031 5:0.89972415 6:0.096360669 
1 1:0.46160184 2:0.12140574 3:0.64462124 4:0.94794501 5:0.27240924 6:0.37631069 
1 1:0.12162692 2:0.64846587 3:0.49615702 4:0.27921619 5:0.64069464 6:0.017173263 
1 1:0.18659082 2:0.26953915 3:0.29534455 4:0.24701713 5:0.30916916 6:0.89655936 
1 1:0.42942545 2:0.17918812 3:0.14402723 4:0.31551451 5:0.53937664 6:0.42031185 
1 1:0.2856254 2:0.19906999 3:0.65143937 4:0.676811 5:0.27721908 6:0.88433146 
1 1:0.60193074 2:0.099513606 3:0.49100955 4:0.74673986 5:0.60553064 6:0.75090861 
1 1:0.72195081 2:0.28618229 3:0.23302897 4:0.030019037 5:0.30441044 6:0.11343402 
1 1:0.40409488 2:0.77281242 3:0.39032123 4:0.45009521 5:0.43699804 6:0.53982546 
1 1:0.75355617 2:0.67029246 3:0.68246916 4:0.37871108 5:0.16637527 6:0.13566314 
1 1:0.40413757 2:0.74669618 3:0.23222118 4:0.36336818 5:0.27188595 6:0.44702822 
1 1:0.64967979 2:0.20997356 3:0.46295355 4:0.69143091 5:0.5320265 6:0.6620276 
1 1:0.44905643 2:0.71142478 3:0.67028676 4:0.12005497 5:0.22023434 6:0.55488996 
1 1:0.23615185 2:0.20556633 3:0.63668022 4:0.027048105 5:0.22435114 6:0.52198891 
1 1:0.46378415 2:0.78593043 3:0.48882927 4:0.19830642 5:0.17681547 6:0.12910775 
1 1:0.51562508 2:0.56076543 3:0.87778686 4:0.095043118 5:0.32618361 6:0.79897131 
1 1:0.54035286 2:0.16604006 3:0.37894039 4:0.39431472 5:0.76899204 6:0.74591535 
1 1:0.80398299 2:0.57790089 3:0.83817994 4:0.70672977 5:0.44499578 6:0.49512302 
1 1:0.91955261 2:0.53715338 3:0.431237 4:0.59689969 5:0.87821479 6:0.8506011 
1 1:0.099619127 2:0.42432339 3:0.60181228 4:0.73069551 5:0.65546762 6:0.44585796 
1 1:0.89670869 2:0.28379542 3:0.51977346 4:0.43805211 5:0.48397188 6:0.81254264 
1 1:0.94738613 2:0.58385542 3:0.44325324 4:0.31506925 5:0.54719831 6:0.24952301 
1 1:0.17405772 2:0.49049001 3:0.82182242 4:0.50854145 5:0.39096698 6:0.20497961 
1 1:0.22195085 2:0.59129437 3:0.54802708 4:0.90978376 5:0.52716664 6:0.75185935 
1 1:0.35874101 2:0.80516589 3:0.68206625 4:0.10882684 5:0.28464309 6:0.47499292 
1 1:0.79511854 2:0.69980163 3:0.68511652 4:0.49257514 5:0.57008281 6:0.7425458 
1 1:0.36966748 2:0.13906287 3:0.30817437 4:0.13942596 5:0.3550396 6:0.45740885 
1 1:0.18528954 2:0.43857445 3:0.35854006 4:0.39364108 5:0.41006066 6:0.71512598 
1 1:0.48788436 2:0.78252934 3:0.68137995 4:0.095795732 5:0.38616011 6:0.94597245 
1 1:0.21242744 2:0.25462053 3:0.61300891 4:0.81810535 5:0.30780965 6:0.49817128 
1 1:0.51396958 2:0.76968138 3:0.65803929 4:0.61834823 5:0.26740545 6:0.21589944 
1 1:0.60695607 2:0.36935674 3:0.13574413 4:0.72317506 5:0.6352255 6:0.14835139 
1 1:0.23427015 2:0.60192779 3:0.83538875 4:0.45499973 5:0.6480586 6:0.23507241 
1 1:0.62432233 2:0.10174337 3:0.56538301 4:0.31397635 5:0.19831284 6:0.52660416 
1 1:0.71601043 2:0.39232147 3:0.081867096 4:0.6646137 5:0.44585702 6:0.7544847 
1 1:0.63683819 2:0.81174465 3:0.58374888 4:0.63426876 5:0.28823051 6:0.73364888 
1 1:0.20953584 2:0.72012456 3:0.69175578 4:0.6493928 5:0.52396093 6:0.79318127 
1 1:0.28129478 2:0.65695856 3:0.26262205 4:0.88418195 5:0.22131141 6:0.55162323 
1 1:0.51615827 2:0.1712254 3:0.34432313 4:0.31504221 5:0.68142188 6:0.55364193 
1 1:0.57930385 2:0.25787684 3:0.78158731 4:0.5436417 5:0.34794842 6:0.48669171 
1 1:0.69354929 2:0.47169404 3:0.95104764 4:0.4138781 5:0.47365903 6:0.45679796 
1 1:0.15704533 2:0.46978285 3:0.40967302 4:0.92203375 5:0.23659247 6:0.26662379 
1 1:0.069387412 2:0.52714482 3:0.41876699 4:0.50424477 5:0.17625102 6:0.24169843 
0.8817888545817095 1:0.56313644 2:0.38301234 3:0.9383711 4:0.83750036 5:0.29742863 6:0.20542392 
1 1:0.64189277 2:0.14368705 3:0.67313962 4:0.67795777 5:0.56879646 6:0.070537998 
1 1:0.46365026 2:0.47740817 3:0.96155507 4:0.46272247 5:0.59712979 6:0.25105836 
1 1:0.30448248 2:0.62634762 3:0.20411454 4:0.97577256 5:0.43636442 6:0.65049741 
1 1:0.73714172 2:0.70209453 3:0.49303306 4:0.79853712 5:0.40276856 6:0.79721438 
1 1:0.55494658 2:0.2419273 3:0.75238721 4:0.64245114 5:0.37024433 6:0.60583967 
1 1:0.8472393 2:0.32968702 3:0.52786617 4:0.90879637 5:0.20489423 6:0.4822097 
1 1:0.35222572 2:0.51993222 3:0.77142908 4:0.70113236 5:0.32895383 6:0.54431045 
1 1:0.7573189 2:0.70240012 3:0.37290678 4:0.4138651 5:0.59456179 6:0.82841941 
1 1:0.33810501 2:0.27325435 3:0.19949487 4:0.33233074 5:0.29477924 6:0.015108794 
1 1:0.30115425 2:0.36309462 3:0.86001693 4:0.35103995 5:0.24764359 6:0.73420408 
1 1:0.29050247 2:0.71654588 3:0.47610362 4:0.75422508 5:0.63198088 6:0.59415692 
1 1:0.28207178 2:0.29809248 3:0.74112657 4:0.50782122 5:0.26828951 6:0.76162249 
1 1:0.36312137 2:0.44146777 3:0.83832406 4:0.91099699 5:0.62827404 6:0.97699211 
1 1:0.38972273 2:0.1827391 3:0.24791462 4:0.20144177 5:0.76426917 6:0.38586908 
1 1:0.39845954 2:0.65857051 3:0.86796733 4:0.06097846 5:0.64066467 6:0.40411943 
1 1:0.95547436 2:0.45422692 3:0.4818265 4:0.30545087 5:0.58359576 6:0.53304558 
1 1:0.41621572 2:0.71528848 3:0.32898247 4:0.58203195 5:0.68255826 6:0.0065912619 
1 1:0.14700506 2:0.66719476 3:0.46049761 4:0.090267486 5:0.41853373 6:0.41790773 
1 1:0.11329307 2:0.46743488 3:0.76801343 4:0.79124265 5:0.41033992 6:0.084346097 
1 1:0.83889899 2:0.53469708 3:0.72539566 4:0.83386396 5:0.73963746 6:0.48216911 
1 1:0.49270704 2:0.27342127 3:0.71671726 4:0.15982365 5:0.60949669 6:0.53954737 
1 1:0.096962203 2:0.55177998 3:0.49872754 4:0.71194824 5:0.6769206 6:0.32253265 
1 1:0.20431187 2:0.21158664 3:0.37583758 4:0.81696352 5:0.58557608 6:0.24289962 
1 1:0.3766232 2:0.20372895 3:0.53499199 4:0.10682078 5:0.80441128 6:0.52845577 
1 1:0.47412476 2:0.1819647 3:0.76966751 4:0.24435527 5:0.49657203 6:0.23274181 
1 1:0.56504838 2:0.71580723 3:0.25999368 4:0.06279529 5:0.32770496 6:0.31554739 
1 1:0.43633992 2:0.78732017 3:0.50486367 4:0.91976348 5:0.50341708 6:0.80394029 
1 1:0.8094134 2:0.27555901 3:0.40298709 4:0.62319503 5:0.77162521 6:0.92563878 
1 1:0.50934761 2:0.20446889 3:0.32014655 4:0.93827141 5:0.26561638 6:0.51471359 
1 1:0.67088368 2:0.45525516 3:0.93357483 4:0.29724696 5:0.51948763 6:0.33389918 
1 1:0.60501559 2:0.5983097 3:0.81206846 4:0.64472333 5:0.45159612 6:0.4420208 
1 1:0.82798098 2:0.43109351 3:0.69869128 4:0.37407691 5:0.41296578 6:0.41432122 
1 1:0.29744611 2:0.15466477 3:0.36768483 4:0.13346524 5:0.63589914 6:0.14696285 
1 1:0.79432099 2:0.17144617 3:0.50104254 4:0.045541291 5:0.51176336 6:0.74014996 
1 1:0.40803948 2:0.61096908 3:0.85485929 4:0.83187159 5:0.29400098 6:0.67815138 
1 1:0.60983181 2:0.21535489 3:0.23102537 4:0.48987756 5:0.57068425 6:0.90297856 
1 1:0.78100335 2:0.71740333 3:0.64913251 4:0.91192014 5:0.2688936 6:0.21257505 
1 1:0.09471589 2:0.43731723 3:0.40920953 4:0.31130449 5:0.48556368 6:0.74140015 
1 1:0.2283492 2:0.33355259 3:0.22200058 4:0.90277622 5:0.68796484 6:0.64560632 
1 1:0.70282608 2:0.70080245 3:0.4255011 4:0.97469091 5:0.31001238 6:0.8311017 
1 1:0.91734763 2:0.63222742 3:0.6312995 4:0.59902926 5:0.31885985 6:0.3335564 
1 1:0.35300247 2:0.77384557 3:0.71159979 4:0.73907193 5:0.57984277 6:0.87576834 
1 1:0.50716037 2:0.65267694 3:0.19492872 4:0.48082924 5:0.42089089 6:0.23418894 
1 1:0.86579923 2:0.70714061 3:0.46793007 4:0.3734871 5:0.69879794 6:0.53123014 
1 1:0.87508252 2:0.33887059 3:0.56980657 4:0.68061857 5:0.75710981 6:0.7213415 
1 1:0.2130741 2:0.29434744 3:0.80898717 4:0.74606501 5:0.54333606 6:0.58712129 
1 1:0.68403439 2:0.35288506 3:0.78802709 4:0.12280262 5:0.0989752 6:0.49105207 
1 1:0.40260263 2:0.76170166 3:0.30541523 4:0.46577607 5:0.49924634 6:0.70219068 
1 1:0.26191174 2:0.40282612 3:0.85266561 4:0.76567836 5:0.30420694 6:0.28568367 
1 1:0.30713168 2:0.57228707 3:0.17029504 4:0.062026931 5:0.28520297 6:0.38923446 
1 1:0.7760751 2:0.37133079 3:0.70876488 4:0.25621021 5:0.49755708 6:0.15654944 
1 1:0.26503076 2:0.21201276 3:0.31056 4:0.88592739 5:0.22039862 6:0.35812078 
1 1:0.60402783 2:0.6723215 3:0.17765159 4:0.53555395 5:0.5054729 6:0.85183186 
1 1:0.47735835 2:0.71211997 3:0.47374575 4:0.12027877 5:0.38733236 6:0.53357413 
1 1:0.17659576 2:0.19097045 3:0.59882519 4:0.39091852 5:0.72057341 6:0.35017024 
1 1:0.41731561 2:0.67886775 3:0.81628709 4:0.5630858 5:0.54427846 6:0.59469325 
1 1:0.60470859 2:0.17144934 3:0.24006324 4:0.49577267 5:0.19136308 6:0.6558185 
1 1:0.42591734 2:0.75683183 3:0.70594837 4:0.63684719 5:0.64142391 6:0.15743257 
1 1:0.67559231 2:0.37303961 3:0.11243082 4:0.11232481 5:0.33910705 6:0.30527329 
1 1:0.91962061 2:0.47187673 3:0.4449263 4:0.62671034 5:0.81878886 6:0.43749935 
1 1:0.56024238 2:0.68206106 3:0.18602985 4:0.8693194 5:0.44351477 6:0.029503929 
1 1:0.57881052 2:0.76623298 3:0.22252884 4:0.63214531 5:0.36574207 6:0.39335605 
1 1:0.4762473 2:0.25056231 3:0.90122465 4:0.75542246 5:0.44028754 6:0.30494471 
1 1:0.56054245 2:0.77031678 3:0.21324306 4:0.56265139 5:0.72129413 6:0.66441228 
1 1:0.26805746 2:0.68201836 3:0.68627706 4:0.44854081 5:0.80077967 6:0.67897873 
1 1:0.61546739 2:0.79227834 3:0.66909342 4:0.20228249 5:0.83631725 6:0.45034268 
0.724859548502822 1:0.41512129 2:0.29851932 3:0.92328787 4:0.54559692 5:0.40821796 6:0.02351772 
1 1:0.80086882 2:0.29581253 3:0.83374583 4:0.61311686 5:0.58083055 6:0.46419482 
1 1:0.34749608 2:0.12868445 3:0.42866029 4:0.1536747 5:0.57045452 6:0.25680288 
1 1:0.17558146 2:0.64323872 3:0.730488 4:0.29355212 5:0.44608586 6:0.2125472 
1 1:0.31480055 2:0.25266924 3:0.82306219 4:0.44101703 5:0.71652851 6:0.32526406 
1 1:0.31172671 2:0.13344595 3:0.47141512 4:0.3591005 5:0.43851089 6:0.72855875 
1 1:0.75856597 2:0.19835566 3:0.66423113 4:0.46824266 5:0.71398699 6:0.66868663 
1 1:0.32863706 2:0.1573692 3:0.28510748 4:0.6009567 5:0.3989236 6:0.80684011 
1 1:0.14201161 2:0.32154893 3:0.47707292 4:0.87398776 5:0.29271731 6:0.20581742 
1 1:0.64847347 2:0.23689996 3:0.30368344 4:0.25153837 5:0.35945198 6:0.18127355 
1 1:0.46671965 2:0.088908442 3:0.29669658 4:0.52468129 5:0.42931781 6:0.50909969 
1 1:0.30417646 2:0.1121296 3:0.59681375 4:0.70204448 5:0.34077724 6:0.62647316 
1 1:0.20644203 2:0.31648513 3:0.69833025 4:0.77160242 5:0.79288153 6:0.3461975 
1 1:0.42683149 2:0.13226503 3:0.47074379 4:0.91944327 5:0.92306895 6:0.37819487 
1 1:0.66646738 2:0.59356401 3:0.19755403 4:0.88142954 5:0.46403332 6:0.66222214 
1 1:0.2187788 2:0.72829075 3:0.51746007 4:0.85843675 5:0.83186949 6:0.71085736 
1 1:0.54174399 2:0.29075118 3:0.75132337 4:0.34448333 5:0.35106507 6:0.90774006 
1 1:0.54355136 2:0.86739826 3:0.3919395 4:0.61320425 5:0.69035292 6:0.52639893 
1 1:0.29895274 2:0.66105743 3:0.13594608 4:0.85553156 5:0.48612179 6:0.17174475 
0.7538270290886391 1:0.75882816 2:0.78726449 3:0.53452444 4:0.87940629 5:0.47975227 6:0.040968463 
1 1:0.66262858 2:0.23248131 3:0.62462714 4:0.70252977 5:0.103458 6:0.13456212 
1 1:0.44742285 2:0.22064885 3:0.23890615 4:0.38640196 5:0.43586997 6:0.59714044 
1 1:0.56273779 2:0.10563535 3:0.46115615 4:0.62610784 5:0.36934283 6:0.30200371 
1 1:0.2925811 2:0.65489075 3:0.84682842 4:0.30339437 5:0.77351763 6:0.44246001 
1 1:0.53815458 2:0.18252023 3:0.70460294 4:0.71272612 5:0.41889815 6:0.59606358 
1 1:0.87615854 2:0.35733555 3:0.56792756 4:0.29987866 5:0.89313794 6:0.42403018 
1 1:0.15858459 2:0.42368822 3:0.21650151 4:0.50890619 5:0.5261352 6:0.2388113 
1 1:0.64902291 2:0.4151237 3:0.11169321 4:0.39631121 5:0.26881912 6:0.18555561 
1 1:0.65002489 2:0.19856295 3:0.5141976 4:0.58693011 5:0.32558547 6:0.67292186 
1 1:0.14072234 2:0.4277351 3:0.23572906 4:0.074846141 5:0.22810738 6:0.15375491 
1 1:0.60280569 2:0.19263735 3:0.31940397 4:0.002083558 5:0.62656305 6:0.38210435 
1 1:0.42490697 2:0.70701098 3:0.78502861 4:0.68243883 5:0.53589815 6:0.86482124 
1 1:0.36489729 2:0.59395572 3:0.87167808 4:0.69054217 5:0.63963633 6:0.51427384 
1 1:0.77278043 2:0.67406167 3:0.49907782 4:0.77683822 5:0.15384788 6:0.93632236 
1 1:0.81169456 2:0.23099556 3:0.45130528 4:0.41284303 5:0.79348526 6:0.81413208 
1 1:0.23738243 2:0.76224439 3:0.44636105 4:0.4619945 5:0.60718634 6:0.50329844 
1 1:0.56495426 2:0.80085537 3:0.24953026 4:0.41418514 5:0.72153405 6:0.51348481 
1 1:0.26889236 2:0.27510052 3:0.69053607 4:0.34922806 5:0.17369679 6:0.62589009 
1 1:0.56271916 2:0.40568739 3:0.091659468 4:0.31813212 5:0.74070307 6:0.92512549 
1 1:0.12583538 2:0.50069294 3:0.25326563 4:0.50700254 5:0.74004543 6:0.094347255 
1 1:0.41189911 2:0.23625816 3:0.15498081 4:0.26512088 5:0.36154422 6:0.41507597 
1 1:0.75731778 2:0.23714907 3:0.6710528 4:0.26634542 5:0.86849629 6:0.053681232 
1 1:0.1893573 2:0.66238223 3:0.60259185 4:0.71814157 5:0.16394427 6:0.66534776 
1 1:0.44564112 2:0.17005338 3:0.23124773 4:0.027021035 5:0.54393504 6:0.88434477 
1 1:0.71716102 2:0.48971135 3:0.777571 4:0.51198732 5:0.44504471 6:0.25959788 
1 1:0.67677893 2:0.17723856 3:0.29200321 4:0.63694861 5:0.19353941 6:0.57783934 
1 1:0.58083774 2:0.28205829 3:0.11436288 4:0.66768307 5:0.5095518 6:0.77543896 
1 1:0.8492556 2:0.47773527 3:0.69533052 4:0.48982739 5:0.62378258 6:0.33498162 
1 1:0.88527508 2:0.64382563 3:0.54996333 4:0.054575832 5:0.2312304 6:0.16550212 
1 1:0.32734997 2:0.75871654 3:0.53280212 4:0.9661312 5:0.77315335 6:0.32308878 
1 1:0.6987731 2:0.71904897 3:0.34630712 4:0.67737972 5:0.90281011 6:0.83787204 
1 1:0.86853797 2:0.23876329 3:0.39652227 4:0.71540981 5:0.70117897 6:0.50895575 
1 1:0.32617867 2:0.53526157 3:0.18065405 4:0.87804047 5:0.51991694 6:0.86257946 
1 1:0.78817403 2:0.71704394 3:0.47360459 4:0.85034102 5:0.29284489 6:0.8686355 
1 1:0.28990802 2:0.67350206 3:0.29690477 4:0.31939675 5:0.81396807 6:0.24580829 
1 1:0.21191076 2:0.58631418 3:0.67528889 4:0.64547845 5:0.32117962 6:0.84807961 
1 1:0.73091098 2:0.12958929 3:0.3692128 4:0.79641362 5:0.45339764 6:0.48902079 
1 1:0.61164963 2:0.36952667 3:0.77637432 4:0.92866015 5:0.77615511 6:0.28476534 
1 1:0.40236453 2:0.72650047 3:0.18886259 4:0.62822454 5:0.68340753 6:0.36272585 
1 1:0.32093041 2:0.10085482 3:0.51791383 4:0.63553319 5:0.8056614 6:0.28855303 
1 1:0.14295429 2:0.41089152 3:0.63741617 4:0.041570736 5:0.65746148 6:0.55808363 
1 1:0.62784521 2:0.22118087 3:0.8189396 4:0.867675 5:0.5495167 6:0.593668 
1 1:0.68362208 2:0.65411009 3:0.81486805 4:0.60475478 5:0.63332768 6:0.28755028 
1 1:0.6898686 2:0.34209494 3:0.89176436 4:0.76293849 5:0.65242558 6:0.26608796 
1 1:0.15969557 2:0.75155789 3:0.50923415 4:0.58620409 5:0.58757616 6:0.063844236 
1 1:0.17226156 2:0.239407 3:0.4282636 4:0.83720884 5:0.78743759 6:0.050990089 
1 1:0.2175524 2:0.59324769 3:0.41701049 4:0.89737012 5:0.1486599 6:0.81468002 
1 1:0.76232277 2:0.55955598 3:0.8387051 4:0.90972079 5:0.3998383 6:0.26694558 
1 1:0.6007875 2:0.52403546 3:0.80215549 4:0.95912435 5:0.20443529 6:0.41738352 
1 1:0.31529556 2:0.11677294 3:0.46420684 4:0.0038488364 5:0.70207031 6:0.4629577 
1 1:0.32730664 2:0.71782383 3:0.30910937 4:0.32076044 5:0.28312798 6:0.24771962 
1 1:0.34683964 2:0.36035095 3:0.92304047 4:0.18582344 5:0.38543742 6:0.781087 
1 1:0.10400695 2:0.51150907 3:0.4806662 4:0.6715187 5:0.71612767 6:0.072796575 
1 1:0.47941356 2:0.11518217 3:0.36439529 4:0.91173601 5:0.53636177 6:0.65744961 
1 1:0.5998018 2:0.19590362 3:0.30798617 4:0.63468362 5:0.58843691 6:0.5563918 
1 1:0.45637056 2:0.74303198 3:0.70937927 4:0.068720224 5:0.7568703 6:0.25067925 
1 1:0.67450123 2:0.72417589 3:0.25462434 4:0.59840408 5:0.57202966 6:0.35821998 
1 1:0.42001108 2:0.41475617 3:0.099321482 4:0.70467646 5:0.72729979 6:0.90643218 
1 1:0.52832496 2:0.59465032 3:0.96359568 4:0.24448108 5:0.52113029 6:0.55777518 
1 1:0.86440238 2:0.29177308 3:0.56343705 4:0.22893325 5:0.65017971 6:0.6893072 
1 1:0.51078488 2:0.56458572 3:0.11985592 4:0.49788736 5:0.76433642 6:0.89457392 
1 1:0.77634141 2:0.79394833 3:0.52273224 4:0.36849437 5:0.40413078 6:0.66950488 
1 1:0.6328906 2:0.22091192 3:0.53644384 4:0.15515332 5:0.34727294 6:0.9659801 
1 1:0.19140536 2:0.6445022 3:0.33896145 4:0.74850671 5:0.38612423 6:0.57352835 
1 1:0.72659854 2:0.21665677 3:0.79655291 4:0.71260468 5:0.56694745 6:0.6030995 
1 1:0.25267916 2:0.19413577 3:0.70525443 4:0.30513986 5:0.33380224 6:0.37477235 
1 1:0.15851962 2:0.49533526 3:0.21777614 4:0.67819109 5:0.72447315 6:0.77924542 
1 1:0.46260914 2:0.210157 3:0.14577917 4:0.31227959 5:0.46462898 6:0.025837999 
1 1:0.59702476 2:0.61025991 3:0.89411514 4:0.10071245 5:0.48728209 6:0.17915649 
1 1:0.48865763 2:0.096669505 3:0.50137851 4:0.73654055 5:0.40220356 6:0.78540088 
1 1:0.81400118 2:0.15421318 3:0.48606194 4:0.45548475 5:0.58735888 6:0.46358622 
1 1:0.097751999 2:0.27840434 3:0.44482271 4:0.94414418 5:0.35142632 6:0.45546359 
1 1:0.7129812 2:0.48748292 3:0.85657227 4:0.28419259 5:0.49754251 6:0.18301337 
1 1:0.16356116 2:0.43590274 3:0.18666218 4:0.37840762 5:0.48622077 6:0.29532254 
1 1:0.56138642 2:0.28722961 3:0.88555964 4:0.16166834 5:0.65195311 6:0.59295178 
1 1:0.4772647 2:0.72920308 3:0.59957578 4:0.54907854 5:0.58981852 6:0.063830984 
1 1:0.52492041 2:0.23509714 3:0.84398012 4:0.27753215 5:0.090216181 6:0.22169303 
1 1:0.78720525 2:0.32649207 3:0.35639505 4:0.39615836 5:0.51977656 6:0.69098862 
1 1:0.41395028 2:0.46225356 3:0.087701891 4:0.10748268 5:0.25594153 6:0.70192762 
1 1:0.17581375 2:0.2025258 3:0.55319196 4:0.40945072 5:0.66166324 6:0.68497017 
1 1:0.25955297 2:0.55484569 3:0.72781794 4:0.36737413 5:0.43552912 6:0.62997732 
1 1:0.37107477 2:0.77711457 3:0.53935399 4:0.98064033 5:0.34934758 6:0.57094973 
1 1:0.78018279 2:0.24200077 3:0.58031807 4:0.84130914 5:0.35292809 6:0.70461657 
1 1:0.20991295 2:0.72900696 3:0.44574101 4:0.18018781 5:0.36673227 6:0.88587563 
1 1:0.23733481 2:0.53087924 3:0.83017203 4:0.8913214 5:0.62749529 6:0.97773967 
1 1:0.89974175 2:0.29238988 3:0.3825925 4:0.28375271 5:0.25136662 6:0.28541458 
1 1:0.58787828 2:0.29069351 3:0.23977979 4:0.61852073 5:0.96954715 6:0.69919105 
1 1:0.52554303 2:0.7372905 3:0.72367253 4:0.1644377 5:0.14437402 6:0.73190362 
1 1:0.81570557 2:0.26720941 3:0.70283242 4:0.16502636 5:0.53290145 6:0.25095135 
1 1:0.28020394 2:0.69850446 3:0.41877541 4:0.45916588 5:0.61822469 6:0.67674423 
1 1:0.39781629 2:0.84939617 3:0.53587835 4:0.45573599 5:0.15293108 6:0.3210416 
1 1:0.77071884 2:0.54544637 3:0.80584478 4:0.15027238 5:0.14912538 6:0.67000248 
1 1:0.76326538 2:0.24277017 3:0.55058565 4:0.35548704 5:0.78520106 6:0.52288195 
1 1:0.12559303 2:0.60551002 3:0.63848113 4:0.18219949 5:0.82573092 6:0.58300034 
1 1:0.84644477 2:0.22432979 3:0.39571018 4:0.17629793 5:0.48148235 6:0.95002775 
1 1:0.53886184 2:0.21833279 3:0.24369285 4:0.41470702 5:0.47003757 6:0.35699454 
1 1:0.53034836 2:0.75409646 3:0.41955871 4:0.97401605 5:0.48926095 6:0.97140778 
1 1:0.11847793 2:0.29327023 3:0.59249302 4:0.9069231 5:0.24202825 6:0.26428742 
1 1:0.40014759 2:0.54042057 3:0.84596409 4:0.0086045478 5:0.35528827 6:0.37333721 
1 1:0.8370422 2:0.67005202 3:0.54506473 4:0.29954265 5:0.54048375 6:0.42955253 
0.5872966878492589 1:0.72516202 2:0.13741203 3:0.43090541 4:0.0945586 5:0.52515182 6:0.99842274 
1 1:0.75100652 2:0.64543217 3:0.40368986 4:0.96677821 5:0.58913412 6:0.64849052 
1 1:0.69862462 2:0.22582672 3:0.37895123 4:0.75030227 5:0.36060495 6:0.72441017 
1 1:0.61734634 2:0.18645184 3:0.34052981 4:0.76039747 5:0.65290277 6:0.059566801 
1 1:0.28345507 2:0.22985229 3:0.26506371 4:0.20125119 5:0.61748591 6:0.9912254 
1 1:0.21815012 2:0.57557668 3:0.20332125 4:0.93067235 5:0.18147069 6:0.49669201 
1 1:0.39365279 2:0.78230357 3:0.73556147 4:0.19715786 5:0.681595 6:0.64888504 
1 1:0.69793266 2:0.53767386 3:0.92285364 4:0.53816503 5:0.5581703 6:0.77208748 
1 1:0.25324439 2:0.35449597 3:0.14017893 4:0.26994301 5:0.38076282 6:0.44994006 
1 1:0.16627797 2:0.34682921 3:0.27301596 4:0.76320408 5:0.56498732 6:0.7281114 
1 1:0.1154877 2:0.58759391 3:0.38118379 4:0.53564499 5:0.69570241 6:0.90208275 
1 1:0.83448341 2:0.73186282 3:0.40630948 4:0.22223574 5:0.54335602 6:0.27293617 
1 1:0.6416211 2:0.35497948 3:0.80242518 4:0.040499604 5:0.68761247 6:0.47652152 
1 1:0.36037837 2:0.59963849 3:0.85647004 4:0.43337495 5:0.67035237 6:0.4361011 
1 1:0.76040552 2:0.2423073 3:0.35888669 4:0.44504426 5:0.27412526 6:0.97240961 
1 1:0.53599621 2:0.1124732 3:0.3728073 4:0.41418762 5:0.090051766 6:0.92504395 
1 1:0.56402115 2:0.24071539 3:0.82558286 4:0.26994978 5:0.72109186 6:0.27800088 
1 1:0.40135075 2:0.56688173 3:0.13042515 4:0.51505497 5:0.69051568 6:0.9540626 
1 1:0.082345306 2:0.3491011 3:0.36051278 4:0.15072779 5:0.47702439 6:0.38199237 
1 1:0.30463739 2:0.59712106 3:0.62097265 4:0.27562029 5:0.50565012 6:0.60458234 
1 1:0.71967225 2:0.15872421 3:0.70210351 4:0.31899122 5:0.085868581 6:0.55162897 
1 1:0.82568295 2:0.261334 3:0.31748115 4:0.21070776 5:0.53177286 6:0.25735981 
1 1:0.71833824 2:0.66344847 3:0.28826831 4:0.97292291 5:0.59448017 6:0.74816707 
1 1:0.39686554 2:0.67954872 3:0.32318778 4:0.36043647 5:0.89266927 6:0.97701397 
1 1:0.19808613 2:0.72615745 3:0.41699313 4:0.30587269 5:0.24504005 6:0.55093078 
1 1:0.29749322 2:0.65870285 3:0.49002599 4:0.18277026 5:0.60116748 6:0.90044183 
1 1:0.70377485 2:0.46137954 3:0.92185833 4:0.37063174 5:0.46134989 6:0.80734453 
1 1:0.78221952 2:0.46147619 3:0.70019452 4:0.7264653 5:0.77383249 6:0.84203468 
1 1:0.085288168 2:0.50472744 3:0.45321475 4:0.27838373 5:0.38780737 6:0.87718779 
1 1:0.2923742 2:0.4709504 3:0.10355364 4:0.58243199 5:0.68797404 6:0.46689386 
1 1:0.32414002 2:0.7770347 3:0.54707132 4:0.021440401 5:0.28999623 6:0.72900778 
1 1:0.70592508 2:0.8181013 3:0.42602675 4:0.83494844 5:0.38974341 6:0.24253226 
1 1:0.59566247 2:0.25149669 3:0.6016866 4:0.5219104 5:0.39768972 6:0.91298464 
1 1:0.90939346 2:0.50962238 3:0.62269661 4:0.39946963 5:0.58777303 6:0.45338019 
0.9926181806959379 1:0.37108188 2:0.75058133 3:0.7027628 4:0.027495346 5:0.81526565 6:0.47689355 
1 1:0.65089198 2:0.46216483 3:0.87449791 4:0.20160251 5:0.50321698 6:0.59231326 
1 1:0.83903423 2:0.29124601 3:0.74522488 4:0.86468891 5:0.51182444 6:0.38699447 
1 1:0.74830056 2:0.33348722 3:0.84965035 4:0.37680791 5:0.70429081 6:0.12313506 
1 1:0.25082397 2:0.67718679 3:0.18848642 4:0.81760186 5:0.34192854 6:0.33824898 
1 1:0.18902068 2:0.27777224 3:0.45778192 4:0.62952728 5:0.20306405 6:0.25782688 
1 1:0.42555501 2:0.24715623 3:0.15581016 4:0.70057385 5:0.34622105 6:0.4363489 
1 1:0.25584274 2:0.73137137 3:0.27220345 4:0.43954627 5:0.52448569 6:0.14607356 
1 1:0.41495927 2:0.17575175 3:0.35458144 4:0.23659569 5:0.65225085 6:0.65706946 
1 1:0.55978589 2:0.75592626 3:0.64280262 4:0.81460251 5:0.10890522 6:0.49981413 
1 1:0.79207266 2:0.31991157 3:0.20189999 4:0.89082344 5:0.70454272 6:0.58890477 
1 1:0.447177 2:0.32651601 3:0.14070065 4:0.13742384 5:0.62498713 6:0.81909514 
1 1:0.65941244 2:0.71596528 3:0.34728673 4:0.40961785 5:0.67391245 6:0.16091531 
1 1:0.82650874 2:0.72223456 3:0.41413602 4:0.40738072 5:0.64210902 6:0.16614496 
1 1:0.46180848 2:0.19220229 3:0.68254488 4:0.46500878 5:0.46857179 6:0.974127 
1 1:0.55184358 2:0.58504663 3:0.09813593 4:0.9773615 5:0.43259171 6:0.49332069 
1 1:0.043137665 2:0.59722658 3:0.39663808 4:0.38770726 5:0.5306512 6:0.20856345 
1 1:0.63954061 2:0.71154008 3:0.69894811 4:0.72209869 5:0.39700702 6:0.40639466 
1 1:0.67658833 2:0.23756069 3:0.21330614 4:0.60016196 5:0.58354848 6:0.15526048 
1 1:0.182954 2:0.70746241 3:0.3783795 4:0.049974501 5:0.26924078 6:0.30554083 
1 1:0.87108675 2:0.52428472 3:0.74611089 4:0.38702515 5:0.40142651 6:0.61409357 
1 1:0.5448532 2:0.79049617 3:0.28285657 4:0.045390455 5:0.39558808 6:0.65868947 
1 1:0.76009253 2:0.21307532 3:0.74434033 4:0.6568739 5:0.47545292 6:0.61741906 
1 1:0.74601845 2:0.71220295 3:0.34221371 4:0.22278167 5:0.51691025 6:0.49170688 
1 1:0.44040247 2:0.37420342 3:0.14236094 4:0.88761624 5:0.76578546 6:0.23352827 
1 1:0.32563174 2:0.64230773 3:0.85432479 4:0.81974283 5:0.54647177 6:0.06221602 
1 1:0.84537069 2:0.69139232 3:0.37912221 4:0.11146851 5:0.24850234 6:0.63311577 
1 1:0.37021509 2:0.29485224 3:0.79337354 4:0.70144605 5:0.56166355 6:0.2908659 
1 1:0.20284821 2:0.57670188 3:0.60664084 4:0.83891488 5:0.66182387 6:0.23436899 
1 1:0.87177708 2:0.43080351 3:0.64170215 4:0.072401769 5:0.56553061 6:0.095681115 
1 1:0.67569301 2:0.23551971 3:0.69562135 4:0.47893592 5:0.5587736 6:0.83095522 
1 1:0.17011109 2:0.36055039 3:0.37904153 4:0.97430142 5:0.40361683 6:0.32102988 
1 1:0.77293039 2:0.43623258 3:0.87788778 4:0.81317576 5:0.44296758 6:0.59536086 
1 1:0.47631425 2:0.78394106 3:0.41030343 4:0.26481164 5:0.33515471 6:0.75394373 
1 1:0.14800287 2:0.4212549 3:0.66411944 4:0.74101036 5:0.56509977 6:0.41764392 
1 1:0.787501 2:0.26948453 3:0.58505313 4:0.41408999 5:0.56244871 6:0.64616624 
0.3764657199239745 1:0.61847726 2:0.096635007 3:0.43839461 4:0.89377951 5:0.64555649 6:0.1648547 
1 1:0.68619593 2:0.74477336 3:0.42412621 4:0.77131203 5:0.41624719 6:0.0075232407 
1 1:0.89423946 2:0.43031424 3:0.44438497 4:0.83713074 5:0.42029483 6:0.89266971 
1 1:0.574159 2:0.66906291 3:0.79916584 4:0.15138554 5:0.79857577 6:0.68878389 
1 1:0.48623414 2:0.21206824 3:0.21099126 4:0.64606788 5:0.50044943 6:0.64623333 
1 1:0.38261601 2:0.77827921 3:0.37437411 4:0.52532735 5:0.38057418 6:0.076675141 
1 1:0.64417625 2:0.25064107 3:0.29034169 4:0.89113098 5:0.77533179 6:0.98744186 
1 1:0.42515612 2:0.20951228 3:0.75068995 4:0.25874096 5:0.65555996 6:0.97692048 
1 1:0.59027964 2:0.44825724 3:0.088089608 4:0.37677216 5:0.38063518 6:0.90703877 
1 1:0.44818121 2:0.80200951 3:0.62899056 4:0.73851938 5:0.77151189 6:0.84835551 
1 1:0.13237703 2:0.36616568 3:0.67656558 4:0.95490748 5:0.33004717 6:0.097097907 
1 1:0.69725094 2:0.64565244 3:0.77995788 4:0.83036802 5:0.15253401 6:0.72882953 
1 1:0.61865757 2:0.64558619 3:0.15650703 4:0.87827294 5:0.47121573 6:0.43924945 
1 1:0.5587008 2:0.10347353 3:0.4282489 4:0.61640043 5:0.57282402 6:0.73606269 
1 1:0.694796 2:0.61284945 3:0.25966056 4:0.2952203 5:0.20453902 6:0.49839889 
1 1:0.49915799 2:0.46376809 3:0.93408036 4:0.73806184 5:0.53541507 6:0.37128645 
1 1:0.80580493 2:0.54978494 3:0.26249616 4:0.029203771 5:0.57468198 6:0.07200438 
1 1:0.53297926 2:0.1616134 3:0.28668494 4:0.31756721 5:0.19098843 6:0.71984494 
1 1:0.75532481 2:0.49928704 3:0.12362468 4:0.63535354 5:0.14364712 6:0.37886466 
1 1:0.26916032 2:0.45394546 3:0.13126062 4:0.60656542 5:0.81335277 6:0.10287249 
1 1:0.37796006 2:0.68697288 3:0.34085791 4:0.50109031 5:0.48793644 6:0.10621174 
1 1:0.26234406 2:0.63160636 3:0.83228389 4:0.070505838 5:0.38207535 6:0.27347538 
1 1:0.44167431 2:0.15055188 3:0.47362699 4:0.43609306 5:0.36442367 6:0.85951736 
1 1:0.56529863 2:0.42934623 3:0.93456343 4:0.65085858 5:0.89079108 6:0.44309305 
1 1:0.68012712 2:0.71163724 3:0.64926576 4:0.78203418 5:0.71162304 6:0.59777193 
1 1:0.90222846 2:0.33888181 3:0.45220579 4:0.45202569 5:0.084424524 6:0.35110313 
1 1:0.69463701 2:0.21311258 3:0.28613481 4:0.85683172 5:0.68218774 6:0.28840345 
1 1:0.19443306 2:0.48758095 3:0.2862755 4:0.90723185 5:0.41008653 6:0.12810155 
1 1:0.27173376 2:0.66495761 3:0.62586489 4:0.10955987 5:0.5978616 6:0.94042541 
1 1:0.45063659 2:0.78747393 3:0.32514161 4:0.72274432 5:0.47567231 6:0.85171658 
1 1:0.25330966 2:0.16508716 3:0.62960614 4:0.30137089 5:0.24072279 6:0.2456337 
1 1:0.87640534 2:0.63113939 3:0.58536421 4:0.12959139 5:0.15774038 6:0.20613144 
1 1:0.12384777 2:0.5928345 3:0.63533933 4:0.1805793 5:0.22306754 6:0.12021123 
1 1:0.6116572 2:0.17332113 3:0.6842711 4:0.37401401 5:0.7679681 6:0.05004366 
1 1:0.58845709 2:0.79359129 3:0.51285002 4:0.36366745 5:0.49427873 6:0.21332921 
1 1:0.48982338 2:0.19072574 3:0.17706415 4:0.58553405 5:0.24034069 6:0.75262171 
1 1:0.26264709 2:0.80702157 3:0.55775386 4:0.74290191 5:0.29846187 6:0.45639247 
1 1:0.45709579 2:0.15000667 3:0.19586902 4:0.13573091 5:0.37170525 6:0.54841606 
1 1:0.61242894 2:0.79096478 3:0.24070509 4:0.67679561 5:0.46206118 6:0.72862294 
1 1:0.2498419 2:0.48480851 3:0.21108584 4:0.19480744 5:0.23542904 6:0.97000693 
1 1:0.76961211 2:0.25674598 3:0.36037453 4:0.89807759 5:0.31605713 6:0.60207189 
1 1:0.41907917 2:0.7672989 3:0.33537362 4:0.49291227 5:0.64792895 6:0.23585206 
1 1:0.75564914 2:0.26617576 3:0.20663985 4:0.3903748 5:0.3212255 6:0.37285877 
1 1:0.82034141 2:0.23905435 3:0.6345249 4:0.038534403 5:0.5563283 6:0.098121905 
1 1:0.4144621 2:0.7206591 3:0.18235343 4:0.16533006 5:0.29812543 6:0.34162117 
1 1:0.62981162 2:0.76930509 3:0.41358131 4:0.62604296 5:0.33509311 6:0.39800026 
1 1:0.62078094 2:0.60461116 3:0.16040084 4:0.53677389 5:0.39694981 6:0.060470669 
1 1:0.33705158 2:0.51806042 3:0.15577073 4:0.64795256 5:0.82200327 6:0.23008278 
1 1:0.50280157 2:0.49040215 3:0.067761758 4:0.66486452 5:0.7779212 6:0.030047067 
1 1:0.34930221 2:0.12259369 3:0.53802473 4:0.94896206 5:0.42099007 6:0.21748698 
1 1:0.059750291 2:0.41199356 3:0.415528 4:0.56071724 5:0.70336673 6:0.76446652 
1 1:0.52187755 2:0.19516992 3:0.51614724 4:0.44121916 5:0.68561451 6:0.1177057 
1 1:0.6704065 2:0.30344118 3:0.66883992 4:0.68449978 5:0.61390115 6:0.62934542 
1 1:0.64066848 2:0.68117557 3:0.25975728 4:0.60395536 5:0.41752157 6:0.18131307 
1 1:0.17242446 2:0.59922894 3:0.65870729 4:0.87205362 5:0.54278451 6:0.25581695 
1 1:0.2825583 2:0.41081049 3:0.7133764 4:0.028681552 5:0.22987427 6:0.27828932 
1 1:0.57244633 2:0.33663718 3:0.79183954 4:0.96647069 5:0.65339712 6:0.20673376 
1 1:0.66443881 2:0.20738108 3:0.45889279 4:0.82201496 5:0.46967412 6:0.17871824 
1 1:0.21322898 2:0.23734206 3:0.60083897 4:0.90550008 5:0.51290343 6:0.2542708 
1 1:0.3800139 2:0.75456902 3:0.43393982 4:0.72928515 5:0.65258011 6:0.093858457 
1 1:0.25030413 2:0.7295078 3:0.5097287 4:0.76862452 5:0.68517486 6:0.012283998 
1 1:0.31325678 2:0.10568135 3:0.38932571 4:0.63227198 5:0.3235378 6:0.57528672 
1 1:0.48251652 2:0.18114637 3:0.2562285 4:0.93708127 5:0.64571132 6:0.8645964 
1 1:0.50889249 2:0.73133643 3:0.31552698 4:0.92985098 5:0.67462364 6:0.89007316 
1 1:0.52934907 2:0.18294485 3:0.43812404 4:0.66621014 5:0.026293852 6:0.28144204 
1 1:0.90691489 2:0.45251379 3:0.52273114 4:0.69990142 5:0.7583631 6:0.82435545 
1 1:0.29213131 2:0.5761101 3:0.23104608 4:0.6958172 5:0.60101958 6:0.28533012 
1 1:0.66129961 2:0.69554556 3:0.44564597 4:0.2549357 5:0.39788819 6:0.6220493 
1 1:0.6977796 2:0.37992966 3:0.1555968 4:0.53914563 5:0.62272346 6:0.65772703 
1 1:0.68925567 2:0.1615261 3:0.55389496 4:0.40233999 5:0.5370498 6:0.51970823 
1 1:0.77022207 2:0.25272103 3:0.31800171 4:0.59158507 5:0.71101951 6:0.55217892 
1 1:0.19593148 2:0.39581923 3:0.22320528 4:0.6769615 5:0.42727785 6:0.12077941 
1 1:0.4408392 2:0.18984154 3:0.65013449 4:0.53127828 5:0.94144357 6:0.74846426 
1 1:0.63471145 2:0.7132802 3:0.28780409 4:0.9911063 5:0.65342274 6:0.92029703 
1 1:0.5066906 2:0.31956502 3:0.071232784 4:0.32851037 5:0.65421594 6:0.82520993 
1 1:0.23502174 2:0.4152694 3:0.67674998 4:0.90597847 5:0.63502074 6:0.20366547 
1 1:0.83488902 2:0.62301763 3:0.74262324 4:0.34872996 5:0.37782768 6:0.0054833622 
1 1:0.09782126 2:0.69541585 3:0.46538056 4:0.56383651 5:0.38757383 6:0.34133043 
1 1:0.32488069 2:0.18089683 3:0.55004254 4:0.77057578 5:0.52073494 6:0.44310412 
1 1:0.12462231 2:0.54207363 3:0.3196671 4:0.97939061 5:0.28410227 6:0.13889773 
1 1:0.50554235 2:0.53423326 3:0.052406474 4:0.57113072 5:0.33169943 6:0.03673872 
1 1:0.31192126 2:0.54363935 3:0.90651404 4:0.75275916 5:0.40662816 6:0.20978032 
1 1:0.65639315 2:0.10969854 3:0.44612051 4:0.23673946 5:0.57948195 6:0.4250323 
1 1:0.71269722 2:0.59511312 3:0.094246895 4:0.8035552 5:0.45436204 6:0.46417446 
1 1:0.31518851 2:0.35293427 3:0.86426872 4:0.19906717 5:0.54123444 6:0.79445987 
1 1:0.18676607 2:0.34185519 3:0.14776008 4:0.46450326 5:0.44754175 6:0.40913224 
1 1:0.62085916 2:0.48373008 3:0.09622006 4:0.26737832 5:0.41045034 6:0.22291966 
1 1:0.64397016 2:0.17659552 3:0.33712848 4:0.96343789 5:0.29831828 6:0.71943909 
0.7401985879687725 1:0.7338847 2:0.38136494 3:0.084644764 4:0.71121912 5:0.48924081 6:0.66196391 
1 1:0.80383166 2:0.29952961 3:0.75217927 4:0.86913604 5:0.4096675 6:0.46364311 
1 1:0.71444957 2:0.10610335 3:0.49829713 4:0.79227872 5:0.44792129 6:0.44804378 
1 1:0.30430505 2:0.8330325 3:0.53373774 4:0.2742386 5:0.36447508 6:0.16769586 
1 1:0.66282973 2:0.65502486 3:0.76523083 4:0.8036912 5:0.14380542 6:0.08910144 
1 1:0.15284511 2:0.60551503 3:0.60291396 4:0.50406571 5:0.45297887 6:0.36683263 
1 1:0.56901089 2:0.15799334 3:0.30701369 4:0.93765742 5:0.42514198 6:0.41108608 
1 1:0.4591504 2:0.26088939 3:0.82898096 4:0.42227659 5:0.14183646 6:0.70837718 
1 1:0.036982253 2:0.42541627 3:0.47018255 4:0.10027871 5:0.56580651 6:0.2987908 
1 1:0.89965019 2:0.48885885 3:0.71374478 4:0.88356268 5:0.33327662 6:0.52458165 
1 1:0.059663674 2:0.60617539 3:0.5520512 4:0.30452068 5:0.45083293 6:0.72820843 
1 1:0.53831742 2:0.14578485 3:0.5389977 4:0.59147106 5:0.33298666 6:0.53768818 
1 1:0.26477972 2:0.19821446 3:0.31734562 4:0.56446601 5:0.70448232 6:0.041351162 
1 1:0.68710719 2:0.57987634 3:0.91850894 4:0.18258317 5:0.61671784 6:0.44190979 
1 1:0.54204861 2:0.69934873 3:0.7742063 4:0.46364015 5:0.70535485 6:0.69811664 
1 1:0.77299745 2:0.73257247 3:0.59367868 4:0.058483249 5:0.49045605 6:0.56660292 
1 1:0.027576348 2:0.44939114 3:0.4280959 4:0.16891819 5:0.50945492 6:0.56337822 
1 1:0.39852379 2:0.47808763 3:0.16671055 4:0.007725619 5:0.75434985 6:0.85993536 
1 1:0.33546129 2:0.19348088 3:0.30623382 4:0.59818596 5:0.64322169 6:0.58192364 
1 1:0.12010802 2:0.59605857 3:0.3889177 4:0.42675138 5:0.33263161 6:0.41511087 
1 1:0.23078867 2:0.24700435 3:0.50804629 4:0.56890435 5:0.27497318 6:0.46911856 
1 1:0.35409193 2:0.62901066 3:0.10064023 4:0.72770491 5:0.63753129 6:0.14179777 
1 1:0.68693162 2:0.41823141 3:0.073986047 4:0.48529221 5:0.58503277 6:0.65406867 
1 1:0.57528437 2:0.55066935 3:0.95357936 4:0.48988448 5:0.21802605 6:0.37086164 
1 1:0.54253135 2:0.10582396 3:0.40489717 4:0.2366309 5:0.39897893 6:0.1315553 
1 1:0.41051796 2:0.12462147 3:0.54794234 4:0.55605039 5:0.51542301 6:0.28007621 
1 1:0.27988283 2:0.29063654 3:0.42227778 4:0.21025905 5:0.79732231 6:0.70122649 
1 1:0.60247255 2:0.18868472 3:0.68818885 4:0.80082676 5:0.63611704 6:0.26262752 
1 1:0.82446529 2:0.39002833 3:0.65720848 4:0.88388122 5:0.55449027 6:0.57031667 
1 1:0.43646374 2:0.51586243 3:0.88533845 4:0.92686073 5:0.32884804 6:0.65188335 
1 1:0.84511267 2:0.71105525 3:0.42363337 4:0.56169297 5:0.53500997 6:0.2437512 
1 1:0.67496947 2:0.15401314 3:0.44838165 4:0.67677846 5:0.68406022 6:0.40494962 
1 1:0.74771818 2:0.61080479 3:0.71419973 4:0.069926272 5:0.77539042 6:0.79427642 
1 1:0.53630549 2:0.83951631 3:0.50523249 4:0.15964691 5:0.36346722 6:0.35834317 
1 1:0.075512562 2:0.44167053 3:0.47921014 4:0.46691175 5:0.806503 6:0.79542979 
1 1:0.45050448 2:0.54217132 3:0.060850447 4:0.25362378 5:0.2404327 6:0.16108454 
1 1:0.86372734 2:0.40298351 3:0.75009521 4:0.82382186 5:0.42110005 6:0.61296194 
1 1:0.69143237 2:0.22899581 3:0.34057792 4:0.57865503 5:0.41595966 6:0.82210085 
1 1:0.6721414 2:0.16858288 3:0.57398642 4:0.41133907 5:0.40868747 6:0.36105722 
1 1:0.19003685 2:0.44523179 3:0.65956504 4:0.73606701 5:0.76450078 6:0.44803648 
1 1:0.37732863 2:0.78443909 3:0.29566132 4:0.31085099 5:0.72957357 6:0.2575331 
1 1:0.43334955 2:0.27726235 3:0.55649735 4:0.30807428 5:0.55882673 6:0.66515126 
1 1:0.56701764 2:0.25928144 3:0.82837247 4:0.12060297 5:0.23474271 6:0.18285317 
1 1:0.71141608 2:0.17474678 3:0.50236952 4:0.22820945 5:0.69395877 6:0.17435546 
