svm_type c_svc
kernel_type rbf
gamma 0.166667
nr_class 2
total_sv 526
rho -1.08496
label -1 1
nr_sv 301 225
SV
1 1:0.4081735 2:0.38830623 3:0.55139364 4:0.54299663 5:0.41259786 6:0.74406995 
0.01199565368534834 1:0.66724278 2:0.50938794 3:0.37825317 4:0.96652805 5:0.42615829 6:0.0019783379 
1 1:0.57057068 2:0.3921629 3:0.56848255 4:0.69244675 5:0.53609571 6:0.78937932 
0.8690154632871719 1:0.32456908 2:0.60118515 3:0.59306063 4:0.31870094 5:0.02866779 6:0.27161934 
1 1:0.61454517 2:0.58753559 3:0.73679608 4:0.14149071 5:0.26758624 6:0.66949536 
0.4732758467270403 1:0.52084592 2:0.55196059 3:0.33297521 4:0.76875847 5:0.58899106 6:0.6606227 
0.824233806188451 1:0.39477497 2:0.45036087 3:0.75972327 4:0.40647953 5:0.35085112 6:0.83263479 
0.8707219184999463 1:0.57652664 2:0.39883343 3:0.77276299 4:0.7323 5:0.23226245 6:0.25339161 
1 1:0.45268468 2:0.41357683 3:0.75586735 4:0.7462478 5:0.93572351 6:0.13423972 
1 1:0.45436966 2:0.37766307 3:0.64331807 4:0.95841842 5:0.62263099 6:0.27158044 
1 1:0.36233852 2:0.53358031 3:0.57319007 4:0.57827513 5:0.641967 6:0.31809554 
0.1147596204352698 1:0.62404322 2:0.68265634 3:0.66185305 4:0.94555186 5:0.50959426 6:0.38897663 
1 1:0.40200287 2:0.34330912 3:0.57719307 4:0.35884878 5:0.18269183 6:0.71304387 
0.2120891124381939 1:0.50630845 2:0.4614829 3:0.32362844 4:0.9846251 5:0.19452895 6:0.41728715 
1 1:0.39928718 2:0.63332015 3:0.67523881 4:0.88248434 5:0.20507567 6:0.61016872 
0.02614944542127301 1:0.33158849 2:0.53826219 3:0.70412672 4:0.6133335 5:0.57404318 6:0.19356874 
1 1:0.30295346 2:0.56346351 3:0.52575657 4:0.6472027 5:0.49818775 6:0.87995748 
1 1:0.48816252 2:0.61808002 3:0.61647648 4:0.2928849 5:0.8888238 6:0.3680441 
0.06289873514691761 1:0.47358949 2:0.33889009 3:0.61939984 4:0.84491683 5:0.24514531 6:0.57974476 
1 1:0.49370461 2:0.55760036 3:0.39902005 4:0.83399427 5:0.33388833 6:0.79491479 
1 1:0.65523679 2:0.52318918 3:0.57482679 4:0.59879726 5:0.56814262 6:0.26708718 
0.92918105531365 1:0.53855491 2:0.65676896 3:0.6544539 4:0.70123291 5:0.8431964 6:0.57978114 
0.3275323543256106 1:0.48797721 2:0.58538028 3:0.81986469 4:0.64411384 5:0.65117097 6:0.34131365 
0.4324235393284579 1:0.4549042 2:0.38544668 3:0.30825737 4:0.86938232 5:0.66455755 6:0.18762647 
0.2625002739450104 1:0.59344622 2:0.45806289 3:0.75924232 4:0.44044571 5:0.36730394 6:0.93180745 
1 1:0.58569115 2:0.48835384 3:0.79829031 4:0.72935501 5:0.8546492 6:0.062985496 
1 1:0.55049726 2:0.62407188 3:0.7962555 4:0.60001895 5:0.57299327 6:0.82858694 
1 1:0.52816752 2:0.54945157 3:0.3907198 4:0.28854835 5:0.22299412 6:0.018596131 
1 1:0.45121191 2:0.64926979 3:0.74756908 4:0.79331955 5:0.46087454 6:0.18013858 
0.222131358389918 1:0.39380597 2:0.62713608 3:0.46136354 4:0.15517203 5:0.64137217 6:0.14205559 
1 1:0.59079074 2:0.6409626 3:0.61386957 4:0.83444323 5:0.73986263 6:0.76784885 
1 1:0.44058259 2:0.64372623 3:0.49509181 4:0.54335342 5:0.40596081 6:0.34036841 
0.9595039038863741 1:0.5743705 2:0.36589378 3:0.69442625 4:0.67312408 5:0.57178647 6:0.58916733 
1 1:0.62385192 2:0.63288131 3:0.61354532 4:0.15744245 5:0.7108103 6:0.78253495 
0.008008278702413399 1:0.50824714 2:0.70256068 3:0.64229164 4:0.51085329 5:0.58445425 6:0.18169305 
1 1:0.30414471 2:0.44192401 3:0.57902427 4:0.86397427 5:0.57098845 6:0.47495081 
1 1:0.34966877 2:0.6671378 3:0.54664596 4:0.97138575 5:0.26320266 6:0.60650631 
1 1:0.37671279 2:0.6470006 3:0.53739652 4:0.40640412 5:0.33099188 6:0.009774489 
0.972888330248571 1:0.64311596 2:0.40862724 3:0.65456486 4:0.43127401 5:0.51102456 6:0.76361199 
1 1:0.45510107 2:0.59913314 3:0.41546648 4:0.14975104 5:0.86642503 6:0.96601788 
1 1:0.34795711 2:0.4855486 3:0.69795382 4:0.8746711 5:0.37805579 6:0.17196186 
0.3518423048604258 1:0.6821606 2:0.59124739 3:0.55150116 4:0.3985154 5:0.077541939 6:0.045203144 
1 1:0.43685668 2:0.64688231 3:0.55344793 4:0.82883086 5:0.71244103 6:0.45655488 
1 1:0.37053085 2:0.60364911 3:0.625494 4:0.73423308 5:0.65192867 6:0.17545605 
1 1:0.68595756 2:0.4774971 3:0.73575587 4:0.02679346 5:0.45656218 6:0.11165095 
1 1:0.59892097 2:0.34585785 3:0.45668052 4:0.27107031 5:0.21362676 6:0.43647707 
0.0960327020860143 1:0.5896307 2:0.35660341 3:0.75330385 4:0.60015596 5:0.30614604 6:0.035760637 
0.7294277545573792 1:0.4428246 2:0.41785255 3:0.40213336 4:0.92398711 5:0.91556527 6:0.99033684 
1 1:0.38678858 2:0.49384692 3:0.56312812 4:0.88965372 5:0.65056243 6:0.62674549 
0.6154774158331203 1:0.37862353 2:0.33385691 3:0.62742094 4:0.95604606 5:0.61238087 6:0.10187552 
1 1:0.33275661 2:0.44166339 3:0.68716067 4:0.98845422 5:0.4421075 6:0.35875104 
0.5702769250514779 1:0.56787882 2:0.3443373 3:0.5015283 4:0.4960953 5:0.72283369 6:0.66539017 
0.7187134006955768 1:0.35532224 2:0.53507672 3:0.70243133 4:0.086112827 5:0.45650319 6:0.5153166 
0.06338131690714004 1:0.60451226 2:0.59316829 3:0.72869098 4:0.64418524 5:0.29911779 6:0.84006783 
1 1:0.50730681 2:0.61039804 3:0.81460585 4:0.96788783 5:0.67160184 6:0.85670153 
1 1:0.57262662 2:0.64705092 3:0.56959617 4:0.74009931 5:0.50330927 6:0.49507766 
0.5607075839240444 1:0.55113343 2:0.69969593 3:0.50519397 4:0.98919836 5:0.40944782 6:0.69498082 
0.05462403273905847 1:0.62421118 2:0.48991472 3:0.70579442 4:0.88467477 5:0.52219966 6:0.786059 
0.1302564402229569 1:0.35081806 2:0.34501555 3:0.63665275 4:0.81637062 5:0.74572615 6:0.32521463 
0.2171468761751804 1:0.5024107 2:0.31473787 3:0.46951361 4:0.72292129 5:0.84837078 6:0.12550592 
1 1:0.39557628 2:0.47474892 3:0.66685533 4:0.40102819 5:0.32570323 6:0.89851934 
1 1:0.56987364 2:0.33691877 3:0.59340769 4:0.49868416 5:0.2202145 6:0.12687406 
0.9469166835252775 1:0.50061256 2:0.61310805 3:0.7538619 4:0.53930314 5:0.64827543 6:0.50777957 
0.2029921654019994 1:0.69584593 2:0.50886343 3:0.75473246 4:0.25156438 5:0.24266386 6:0.089843482 
1 1:0.34569761 2:0.52227147 3:0.66161259 4:0.0042450057 5:0.63620666 6:0.74626781 
1 1:0.54372735 2:0.35039213 3:0.39985323 4:0.9571975 5:0.8184349 6:0.40016581 
1 1:0.64950408 2:0.51145977 3:0.62581111 4:0.36499317 5:0.62441971 6:0.29914693 
1 1:0.63396755 2:0.50082022 3:0.48870064 4:0.87023717 5:0.75866271 6:0.6626731 
1 1:0.57580563 2:0.64640037 3:0.60899044 4:0.72358406 5:0.33641906 6:0.25811299 
0.1153782648306573 1:0.46575379 2:0.57303677 3:0.80647226 4:0.146922 5:0.64448982 6:0.45646489 
1 1:0.38652724 2:0.36875378 3:0.48655739 4:0.23688947 5:0.40135361 6:0.3940541 
0.3216637383348001 1:0.47562627 2:0.69115893 3:0.50186883 4:0.78933034 5:0.5858917 6:0.16678264 
1 1:0.68046554 2:0.51019419 3:0.47006701 4:0.071685409 5:0.60654399 6:0.78951374 
1 1:0.36561414 2:0.56495281 3:0.43373087 4:0.86400447 5:0.33646212 6:0.37410659 
0.4724260286184189 1:0.5535683 2:0.44658738 3:0.34128347 4:0.60204426 5:0.59452648 6:0.61793737 
1 1:0.36563951 2:0.56469429 3:0.42342971 4:0.54918047 5:0.51988661 6:0.90769544 
0.308574441402115 1:0.66082949 2:0.41892615 3:0.79875874 4:0.76676389 5:0.61251029 6:0.096784961 
0.1484151094827253 1:0.63129502 2:0.60070167 3:0.61346519 4:0.46454689 5:0.91613057 6:0.338322 
0.2139259081966408 1:0.40742674 2:0.52723057 3:0.85129177 4:0.71744854 5:0.64854215 6:0.069353698 
1 1:0.59091608 2:0.43605696 3:0.40225497 4:0.10799686 5:0.51931036 6:0.44451257 
1 1:0.39919832 2:0.53445595 3:0.7306317 4:0.97106299 5:0.17938028 6:0.053998303 
1 1:0.58214777 2:0.41200881 3:0.51981526 4:0.48633584 5:0.68110074 6:0.83867542 
1 1:0.49496527 2:0.34308421 3:0.5930081 4:0.58199479 5:0.32261304 6:0.93072938 
1 1:0.36776631 2:0.40463198 3:0.61357886 4:0.6793289 5:0.45289106 6:0.80615415 
0.1814820865225413 1:0.64679926 2:0.56847405 3:0.56998478 4:0.96686258 5:0.51163565 6:0.77624182 
1 1:0.62785929 2:0.64514861 3:0.68259857 4:0.82326755 5:0.23842711 6:0.21565945 
1 1:0.6375397 2:0.45937045 3:0.66170975 4:0.52482744 5:0.38938224 6:0.30669208 
1 1:0.42946661 2:0.42636161 3:0.59529307 4:0.18105809 5:0.19267415 6:0.15241405 
1 1:0.5418765 2:0.36996251 3:0.55247981 4:0.59992718 5:0.19549298 6:0.670801 
1 1:0.38711469 2:0.35723417 3:0.59340684 4:0.60185828 5:0.60863019 6:0.45600142 
1 1:0.63700479 2:0.61930938 3:0.57286444 4:0.38350658 5:0.51274947 6:0.2486503 
0.6171625649158181 1:0.41090831 2:0.41755156 3:0.43843838 4:0.63603622 5:0.15827053 6:0.15812004 
0.2525543840936919 1:0.35163319 2:0.59150306 3:0.50945245 4:0.31203318 5:0.027885633 6:0.36816948 
0.37130968767626 1:0.38666876 2:0.34316289 3:0.71300425 4:0.98973556 5:0.46940994 6:0.99800648 
0.156806401040532 1:0.36913115 2:0.61339978 3:0.66498522 4:0.28425655 5:0.78503699 6:0.05958758 
0.01370458644257415 1:0.5074391 2:0.56616193 3:0.33531256 4:0.94966808 5:0.46893328 6:0.9038382 
1 1:0.6539337 2:0.57605716 3:0.70662516 4:0.2593868 5:0.641313 6:0.0055390807 
1 1:0.62573838 2:0.60237279 3:0.5913577 4:0.63496863 5:0.75647374 6:0.89912648 
1 1:0.59333081 2:0.58717912 3:0.6824899 4:0.66420484 5:0.32667837 6:0.65075923 
0.1577034752940019 1:0.44069866 2:0.32276305 3:0.6459762 4:0.15058053 5:0.34798644 6:0.46875241 
1 1:0.54417988 2:0.49401617 3:0.81664362 4:0.36086232 5:0.69270199 6:0.71546678 
0.3517910154521191 1:0.66512944 2:0.46533875 3:0.55613642 4:0.64862461 5:0.63361182 6:0.73109021 
1 1:0.37645065 2:0.48469561 3:0.66312637 4:0.93809974 5:0.47037528 6:0.85313453 
0.7822847023122554 1:0.50514261 2:0.52329406 3:0.39961269 4:0.025455781 5:0.0052705897 6:0.80341647 
0.2912762402954842 1:0.6692582 2:0.55214581 3:0.54820225 4:0.12125188 5:0.87265224 6:0.32381272 
0.0134049587084466 1:0.62590467 2:0.46139193 3:0.39244091 4:0.42451516 5:0.79101885 6:0.50420681 
1 1:0.48201964 2:0.34801248 3:0.62668078 4:0.98625642 5:0.29654437 6:0.46481173 
1 1:0.49924346 2:0.32964192 3:0.51152765 4:0.7486958 5:0.741747 6:0.61676977 
0.0222833215388555 1:0.49798247 2:0.54542366 3:0.31603595 4:0.040763513 5:0.79739089 6:0.38560357 
0.06831628527759882 1:0.51959218 2:0.59000519 3:0.35500389 4:0.39664342 5:0.3997258 6:0.79014763 
1 1:0.41867741 2:0.4138595 3:0.74736221 4:0.83762798 5:0.43656395 6:0.45239208 
0.9502405552743582 1:0.30840969 2:0.37347618 3:0.64445892 4:0.064001736 5:0.32494652 6:0.04719646 
0.1817556637165319 1:0.41135067 2:0.53970264 3:0.32693851 4:0.067237657 5:0.83032518 6:0.69782319 
1 1:0.64838361 2:0.38162486 3:0.54634205 4:0.25883613 5:0.47383388 6:0.80772591 
0.8013186549689542 1:0.57306027 2:0.32991418 3:0.44882977 4:0.22438943 5:0.19153139 6:0.30559097 
0.7090017443949873 1:0.6671733 2:0.52301645 3:0.62294112 4:0.36563352 5:0.61608424 6:0.45227766 
1 1:0.53039801 2:0.34597068 3:0.60823516 4:0.7947566 5:0.3929352 6:0.50139355 
0.3897429526340798 1:0.33316533 2:0.46954631 3:0.70077617 4:0.044401573 5:0.50020713 6:0.42172988 
1 1:0.52164063 2:0.51405105 3:0.41852647 4:0.64678953 5:0.70238549 6:0.80261985 
1 1:0.59623117 2:0.40943666 3:0.669323 4:0.76111095 5:0.58783118 6:0.8854905 
1 1:0.36975677 2:0.63832687 3:0.64664899 4:0.78945661 5:0.30765037 6:0.37769144 
1 1:0.5559582 2:0.56177191 3:0.75421008 4:0.67240361 5:0.18581149 6:0.74040503 
1 1:0.30628756 2:0.51473551 3:0.56586562 4:0.98189475 5:0.47954543 6:0.42512693 
0.1718282042557849 1:0.31906335 2:0.4087494 3:0.69281671 4:0.12475144 5:0.41645456 6:0.20973003 
0.546868444767896 1:0.46789008 2:0.35573392 3:0.7181852 4:0.28397444 5:0.36415439 6:0.50792995 
0.2324655909867824 1:0.52185368 2:0.30766447 3:0.49833531 4:0.96076523 5:0.42497399 6:0.14736453 
0.1713857130783207 1:0.52460757 2:0.57765904 3:0.38527654 4:0.029373878 5:0.47243785 6:0.95831034 
0.7086543432526023 1:0.4606579 2:0.30061417 3:0.44914751 4:0.073957278 5:0.43911819 6:0.5484661 
1 1:0.49997185 2:0.33822175 3:0.59009855 4:0.010315068 5:0.28122684 6:0.30879809 
1 1:0.63242494 2:0.54120996 3:0.68101844 4:0.26682192 5:0.82319731 6:0.9180724 
1 1:0.3365237 2:0.48754315 3:0.50620086 4:0.099145717 5:0.53422638 6:0.065103464 
0.7808530561384727 1:0.31172263 2:0.57775372 3:0.55125869 4:0.59837129 5:0.18230802 6:0.27770097 
1 1:0.39197786 2:0.31374568 3:0.51702475 4:0.60150424 5:0.65005321 6:0.53825972 
1 1:0.66042249 2:0.4596818 3:0.55542513 4:0.89427831 5:0.3500205 6:0.31612483 
1 1:0.49897259 2:0.41292026 3:0.72853165 4:0.98313637 5:0.77506647 6:0.43553753 
0.9768920198906815 1:0.35474598 2:0.44227613 3:0.7118936 4:0.57987719 5:0.40433934 6:0.29363924 
1 1:0.64227423 2:0.41047336 3:0.72721724 4:0.8894378 5:0.79575172 6:0.12456084 
0.07870682838826239 1:0.33756629 2:0.55067875 3:0.70621146 4:0.97184082 5:0.8942086 6:0.27945512 
0.1940324924875568 1:0.42690302 2:0.60073117 3:0.37718559 4:0.96472985 5:0.84602971 6:0.55242476 
0.1399225854067589 1:0.57473383 2:0.64084767 3:0.38820447 4:0.25448348 5:0.42676267 6:0.63125391 
1 1:0.35240483 2:0.54761287 3:0.6819882 4:0.42396384 5:0.70758912 6:0.0074864936 
1 1:0.65736376 2:0.46150702 3:0.74314724 4:0.0067092631 5:0.2058426 6:0.80562211 
1 1:0.56092541 2:0.68763288 3:0.69517612 4:0.6894534 5:0.44321111 6:0.98714658 
1 1:0.38976074 2:0.41741556 3:0.4928755 4:0.11293228 5:0.31896969 6:0.37723459 
0.859632681383708 1:0.65126375 2:0.55959953 3:0.62658675 4:0.88801348 5:0.40821307 6:0.93430277 
1 1:0.50548661 2:0.68013294 3:0.52338162 4:0.22924036 5:0.36512649 6:0.24315339 
0.4551699106169486 1:0.39869508 2:0.4971822 3:0.81415199 4:0.57882651 5:0.52152925 6:0.88327749 
1 1:0.35160186 2:0.52912196 3:0.47336619 4:0.088405117 5:0.40813473 6:0.62815138 
1 1:0.48938004 2:0.41308239 3:0.38857265 4:0.37957986 5:0.73059338 6:0.5351352 
1 1:0.44195713 2:0.36194735 3:0.61564239 4:0.0078020247 5:0.64752109 6:0.22702031 
1 1:0.4782911 2:0.53151121 3:0.81476757 4:0.10268461 5:0.945917 6:0.93554549 
1 1:0.40646715 2:0.67244238 3:0.50865864 4:0.34959012 5:0.49618402 6:0.625309 
1 1:0.43546512 2:0.38754392 3:0.53778988 4:0.12457489 5:0.53236036 6:0.83558188 
1 1:0.32114593 2:0.49819872 3:0.69828949 4:0.91826769 5:0.78797304 6:0.8412447 
0.07372335710464079 1:0.53876209 2:0.45698787 3:0.84767646 4:0.28000249 5:0.089874435 6:0.28206565 
0.1563559881136036 1:0.58085999 2:0.61859155 3:0.72368641 4:0.59261968 5:0.41368927 6:0.69818027 
1 1:0.61182224 2:0.3623343 3:0.56585582 4:0.38818444 5:0.64274902 6:0.55103334 
0.05921824267136439 1:0.52463916 2:0.3072252 3:0.55872653 4:0.40509899 5:0.82309759 6:0.54473425 
0.9439133519562544 1:0.46490162 2:0.73562067 3:0.54127686 4:0.24962247 5:0.15350792 6:0.12570312 
0.07350488280081283 1:0.68612425 2:0.56809079 3:0.50582188 4:0.93595842 5:0.17017654 6:0.46151057 
0.1202812579853471 1:0.38151329 2:0.37211025 3:0.44325624 4:0.29738554 5:0.52835813 6:0.55405579 
1 1:0.57120409 2:0.66668913 3:0.73190289 4:0.21152241 5:0.47650755 6:0.84558974 
0.033691874825308 1:0.54534381 2:0.64534331 3:0.46888084 4:0.76888748 5:0.96905594 6:0.20650831 
1 1:0.63853685 2:0.513629 3:0.6440235 4:0.17175503 5:0.39535938 6:0.11219857 
1 1:0.61864021 2:0.48310461 3:0.63096882 4:0.31142281 5:0.61971813 6:0.57678549 
1 1:0.52227842 2:0.43168158 3:0.81212022 4:0.48511843 5:0.059976017 6:0.010865854 
0.0764261006790574 1:0.60739299 2:0.61502445 3:0.56939408 4:0.82565112 5:0.91023763 6:0.74499182 
0.8241538782680717 1:0.48825664 2:0.7049097 3:0.77401199 4:0.70011286 5:0.44738823 6:0.8792004 
1 1:0.51998451 2:0.67484145 3:0.641983 4:0.19313589 5:0.55652074 6:0.98254996 
0.7525448291209983 1:0.37595344 2:0.40788082 3:0.39263606 4:0.72140131 5:0.45645179 6:0.00096705677 
0.8125784860792606 1:0.5106227 2:0.35723786 3:0.7471725 4:0.61368973 5:0.3885598 6:0.39472524 
1 1:0.52933919 2:0.44838459 3:0.3169918 4:0.18855156 5:0.62544842 6:0.45618734 
0.9689506743542396 1:0.39231178 2:0.470109 3:0.84220647 4:0.51988441 5:0.43976931 6:0.16083021 
1 1:0.50918849 2:0.64259875 3:0.48642238 4:0.48254627 5:0.43483366 6:0.22001379 
1 1:0.34368879 2:0.40263587 3:0.53085819 4:0.91878002 5:0.84619655 6:0.65234752 
0.02449720028461762 1:0.31623259 2:0.51061058 3:0.61977759 4:0.086854315 5:0.68548095 6:0.95866789 
1 1:0.37633215 2:0.56676357 3:0.69727166 4:0.78808651 5:0.53753107 6:0.6204512 
0.8205569667066855 1:0.37171464 2:0.3238342 3:0.47703993 4:0.41351897 5:0.56541266 6:0.44396709 
1 1:0.48384866 2:0.43880336 3:0.41384688 4:0.42885808 5:0.62821281 6:0.81995451 
1 1:0.41897677 2:0.56959915 3:0.42222235 4:0.84615364 5:0.48406557 6:0.79128139 
0.444011389188997 1:0.50634297 2:0.41625961 3:0.3915049 4:0.70986064 5:0.027994143 6:0.81608518 
0.1618158673103571 1:0.60403049 2:0.57825482 3:0.39935454 4:0.46150504 5:0.25054641 6:0.29038872 
0.8870359534294552 1:0.58269169 2:0.69323809 3:0.45740798 4:0.81087849 5:0.44561438 6:0.36412578 
1 1:0.52964388 2:0.34698741 3:0.45770827 4:0.43540186 5:0.55639524 6:0.20858147 
0.8498888949013992 1:0.61093897 2:0.39709296 3:0.66339427 4:0.77484275 5:0.47699933 6:0.81414389 
1 1:0.35088336 2:0.41704785 3:0.50099774 4:0.30038888 5:0.60071339 6:0.51150009 
1 1:0.64487383 2:0.35844739 3:0.57019262 4:0.8908271 5:0.56131487 6:0.25271941 
1 1:0.36692357 2:0.64593935 3:0.68269671 4:0.95352319 5:0.62974649 6:0.49986005 
0.5069424327188273 1:0.46001329 2:0.46356473 3:0.40332551 4:0.028378161 5:0.1788521 6:0.85702905 
0.446504966649923 1:0.46273353 2:0.57435597 3:0.34436922 4:0.59898105 5:0.71321854 6:0.39948392 
1 1:0.39969808 2:0.64760999 3:0.49535682 4:0.38204632 5:0.57163129 6:0.85440221 
0.2222577474344223 1:0.43121671 2:0.62179574 3:0.38608176 4:0.501545 5:0.35066639 6:0.83830386 
1 1:0.55056295 2:0.61748263 3:0.73797519 4:0.54461583 5:0.21671307 6:0.26692614 
0.588312893547097 1:0.35866015 2:0.53233369 3:0.80386159 4:0.36621042 5:0.64917338 6:0.022714165 
1 1:0.5925492 2:0.50304888 3:0.79189708 4:0.10135089 5:0.28082726 6:0.35763179 
1 1:0.45414202 2:0.62563697 3:0.56070153 4:0.51717967 5:0.41953995 6:0.35602461 
1 1:0.35914745 2:0.48741462 3:0.62450804 4:0.26133538 5:0.27029619 6:0.69023329 
1 1:0.43643637 2:0.62753503 3:0.57480155 4:0.68588478 5:0.20852905 6:0.8898492 
1 1:0.39459115 2:0.61279532 3:0.46635333 4:0.93883319 5:0.71053638 6:0.42083663 
0.1441335784400026 1:0.3255221 2:0.40342608 3:0.62831924 4:0.11752166 5:0.38514679 6:0.33158286 
0.601769433801343 1:0.60426528 2:0.69800909 3:0.52705982 4:0.87074945 5:0.69000924 6:0.36536156 
1 1:0.52191834 2:0.66306129 3:0.71414141 4:0.72897412 5:0.25045189 6:0.68064435 
0.8955196299300464 1:0.55965593 2:0.4940599 3:0.91716048 4:0.96546303 5:0.59540007 6:0.12065291 
1 1:0.54766569 2:0.66940581 3:0.66542639 4:0.20839894 5:0.52640731 6:0.10413591 
0.04016632695811904 1:0.47131429 2:0.58886639 3:0.83039581 4:0.40208877 5:0.5831051 6:0.80498441 
1 1:0.61558525 2:0.44463817 3:0.52053883 4:0.45747198 5:0.55656762 6:0.11837353 
0.3150090983244822 1:0.56213769 2:0.63197308 3:0.72639153 4:0.50872303 5:0.3333391 6:0.5374003 
1 1:0.36383639 2:0.47640104 3:0.69894404 4:0.80166506 5:0.91439395 6:0.95206589 
0.7292455209271038 1:0.44735832 2:0.36810585 3:0.42027615 4:0.025274791 5:0.59983199 6:0.23767526 
1 1:0.46088748 2:0.42562047 3:0.78918631 4:0.28424338 5:0.1355563 6:0.086896161 
0.9382764646192182 1:0.58303468 2:0.39932706 3:0.75211045 4:0.16389018 5:0.66102783 6:0.45359528 
1 1:0.57604807 2:0.42915153 3:0.73294683 4:0.97201466 5:0.68963568 6:0.38191479 
0.988472631527298 1:0.45878061 2:0.69671787 3:0.48561834 4:0.12060337 5:0.11137105 6:0.48113955 
0.4342418606532624 1:0.64130512 2:0.43253253 3:0.47624446 4:0.2107631 5:0.13028282 6:0.050038101 
1 1:0.64825279 2:0.58718005 3:0.4716764 4:0.034656879 5:0.44062118 6:0.81332514 
1 1:0.51471488 2:0.61408682 3:0.41376093 4:0.11064559 5:0.26117935 6:0.72432393 
0.2828135211013411 1:0.60474007 2:0.39195028 3:0.66480868 4:0.5256878 5:0.57026862 6:0.79972863 
0.2393268362933222 1:0.63747322 2:0.57343068 3:0.48294233 4:0.50368864 5:0.30447061 6:0.9325611 
1 1:0.52237323 2:0.3909254 3:0.4021714 4:0.93989629 5:0.32388901 6:0.0036934484 
0.3461527871268147 1:0.47995793 2:0.51505116 3:0.90092186 4:0.19335141 5:0.55944852 6:0.17398801 
1 1:0.65269516 2:0.49600006 3:0.49252043 4:0.37497963 5:0.50741318 6:0.82837889 
0.7913205475619829 1:0.35550291 2:0.38581915 3:0.5077565 4:0.0011793924 5:0.39232645 6:0.17716742 
1 1:0.36866624 2:0.60629364 3:0.66844333 4:0.042698936 5:0.33224678 6:0.15530157 
1 1:0.60859126 2:0.60515621 3:0.72754976 4:0.16041153 5:0.41347786 6:0.20558068 
0.4472486495431335 1:0.35907006 2:0.54504928 3:0.40221666 4:0.36004596 5:0.5916285 6:0.13593786 
0.1984807557030577 1:0.5470905 2:0.71962285 3:0.76146944 4:0.99151767 5:0.21433826 6:0.10536086 
1 1:0.52401114 2:0.35910426 3:0.64167831 4:0.71138627 5:0.44981248 6:0.61388906 
1 1:0.50294897 2:0.67355034 3:0.65883675 4:0.53749615 5:0.3440175 6:0.87417832 
1 1:0.68261595 2:0.50565215 3:0.5138066 4:0.93960993 5:0.57402626 6:0.010377383 
1 1:0.6241271 2:0.55341139 3:0.62564376 4:0.71219659 5:0.45759728 6:0.56800992 
1 1:0.47842562 2:0.66071928 3:0.55853003 4:0.62786177 5:0.50416743 6:0.44649835 
1 1:0.54683353 2:0.51366417 3:0.36107109 4:0.71049304 5:0.38203866 6:0.32416092 
1 1:0.49263192 2:0.51311466 3:0.37648132 4:0.95983783 5:0.48613921 6:0.85204475 
1 1:0.53599806 2:0.65485903 3:0.65089969 4:0.31267948 5:0.50857348 6:0.32950021 
0.2286164561023457 1:0.49209371 2:0.70544239 3:0.51486134 4:0.65168952 5:0.13371116 6:0.24077081 
1 1:0.57969575 2:0.66664921 3:0.62371685 4:0.21391727 5:0.66654055 6:0.7899134 
0.03606658607553524 1:0.5326584 2:0.57266338 3:0.32517465 4:0.0020786842 5:0.32164926 6:0.55508294 
1 1:0.48066933 2:0.33045556 3:0.50337889 4:0.95727366 5:0.36341369 6:0.56186717 
1 1:0.44250302 2:0.6685815 3:0.65444251 4:0.94635847 5:0.5208845 6:0.60380686 
0.09742096843919572 1:0.28508228 2:0.59719893 3:0.78080576 4:0.044519903 5:0.3991423 6:0.0051286892 
1 1:0.42827953 2:0.42401161 3:0.65618164 4:0.2058244 5:0.82432738 6:0.46378016 
1 1:0.41802202 2:0.50669844 3:0.77665917 4:0.64896048 5:0.53689086 6:0.1987452 
0.7390019295821055 1:0.4522912 2:0.51302634 3:0.79885382 4:0.66981295 5:0.04953329 6:0.93433205 
0.8795367059046711 1:0.61966061 2:0.44185974 3:0.71445787 4:0.61335738 5:0.24148265 6:0.63146701 
0.2812011920244502 1:0.63047659 2:0.59661942 3:0.42948507 4:0.092782452 5:0.52679102 6:0.69392047 
0.2276271298924121 1:0.52323704 2:0.58599473 3:0.81008047 4:0.083890803 5:0.093353967 6:0.75286621 
1 1:0.33232219 2:0.6107022 3:0.51111746 4:0.58918751 5:0.14566418 6:0.64242806 
1 1:0.55569091 2:0.33527554 3:0.57072178 4:0.70281101 5:0.44904132 6:0.47184148 
1 1:0.43308354 2:0.29383795 3:0.53714564 4:0.72883116 5:0.44644537 6:0.23373242 
1 1:0.46644358 2:0.66380432 3:0.70156509 4:0.88483554 5:0.54437928 6:0.020852699 
0.3575095208287891 1:0.62394696 2:0.55071721 3:0.72478964 4:0.63306419 5:0.65504933 6:0.65118931 
1 1:0.3390455 2:0.48161408 3:0.53952311 4:0.63655754 5:0.55279532 6:0.40648038 
1 1:0.34042829 2:0.59627856 3:0.60264993 4:0.68410082 5:0.42575978 6:0.21350854 
0.3544379881691551 1:0.52797915 2:0.32194852 3:0.42343856 4:0.32705645 5:0.66642401 6:0.1456981 
1 1:0.43807373 2:0.4045219 3:0.75766983 4:0.1209262 5:0.64866376 6:0.12279336 
0.9283221096854812 1:0.47884524 2:0.38259842 3:0.35233515 4:0.18285093 5:0.61157206 6:0.9579144 
1 1:0.41895397 2:0.61186806 3:0.64772572 4:0.36227688 5:0.12780137 6:0.1705832 
0.6740403182796139 1:0.46308593 2:0.44822953 3:0.29257736 4:0.8820437 5:0.42715642 6:0.628947 
1 1:0.54801068 2:0.4251745 3:0.77579745 4:0.6893272 5:0.48852713 6:0.92204431 
0.09117265718774822 1:0.38860256 2:0.52948573 3:0.78110194 4:0.003722919 5:0.70643961 6:0.89749374 
0.167008655030711 1:0.59068408 2:0.63836497 3:0.74039933 4:0.19046263 5:0.21525036 6:0.74418073 
1 1:0.53446363 2:0.43282272 3:0.36878944 4:0.040209714 5:0.60239569 6:0.89514002 
1 1:0.38206752 2:0.59314372 3:0.58678271 4:0.30668698 5:0.80638131 6:0.78866364 
1 1:0.6387749 2:0.46254872 3:0.48476324 4:0.11885599 5:0.12807486 6:0.15340506 
1 1:0.32377424 2:0.4455028 3:0.50272116 4:0.34475472 5:0.69251168 6:0.95597227 
0.09609288415397525 1:0.36067169 2:0.34283312 3:0.57457907 4:0.62589079 5:0.49023757 6:0.92345295 
0.4116414902315235 1:0.62337177 2:0.4896059 3:0.37351226 4:0.90582126 5:0.17082428 6:0.085053913 
0.6688045150262263 1:0.49544878 2:0.47321439 3:0.81949734 4:0.097074268 5:0.43295891 6:0.57048047 
0.01139044513076786 1:0.53049912 2:0.71370066 3:0.64076386 4:0.55947682 5:0.52524382 6:0.84585883 
0.0398720720778809 1:0.6359589 2:0.63343684 3:0.53073526 4:0.68464751 5:0.68684706 6:0.9840328 
0.7098506999903157 1:0.57750661 2:0.5532849 3:0.41140277 4:0.16718617 5:0.5743133 6:0.042688902 
0.69497606230774 1:0.42871098 2:0.34363172 3:0.51744468 4:0.67658396 5:0.33877298 6:0.99878683 
1 1:0.39282395 2:0.40727898 3:0.57181201 4:0.096912484 5:0.43894655 6:0.46133713 
1 1:0.49438565 2:0.38730377 3:0.61389933 4:0.37215055 5:0.70755169 6:0.88931791 
1 1:0.58814695 2:0.41842099 3:0.80334304 4:0.5332881 5:0.38138952 6:0.065663123 
0.3044960156318499 1:0.35538484 2:0.49640198 3:0.416758 4:0.56130449 5:0.83350176 6:0.068563168 
0.9622954032137139 1:0.56603861 2:0.2968386 3:0.61069284 4:0.11303359 5:0.30714243 6:0.50105807 
0.8848947851122527 1:0.58715914 2:0.55302569 3:0.81371934 4:0.010209735 5:0.37658126 6:0.92527876 
0.7236135421865307 1:0.31249641 2:0.68215651 3:0.72048698 4:0.75463578 5:0.72677187 6:0.93218214 
1 1:0.48175778 2:0.38397094 3:0.44367612 4:0.15915996 5:0.37574516 6:0.76993027 
0.2715096206619082 1:0.61097196 2:0.66028554 3:0.56991786 4:0.4263795 5:0.34153136 6:0.90774594 
1 1:0.3533787 2:0.58685781 3:0.64109705 4:0.58436863 5:0.70735894 6:0.94507846 
1 1:0.42325644 2:0.63475112 3:0.52975329 4:0.74248528 5:0.64335306 6:0.40187551 
1 1:0.44907833 2:0.55701921 3:0.38194867 4:0.22186489 5:0.32120863 6:0.33005041 
1 1:0.52155766 2:0.64099137 3:0.40019161 4:0.89889834 5:0.40529783 6:0.55314857 
0.635338504026043 1:0.37563975 2:0.41997726 3:0.38575883 4:0.86763336 5:0.38095473 6:0.96808905 
0.4454406786386397 1:0.32274645 2:0.40817762 3:0.492573 4:0.49786558 5:0.67628389 6:0.78985605 
1 1:0.55773303 2:0.6385758 3:0.51116075 4:0.22736158 5:0.5018156 6:0.98857046 
1 1:0.47974158 2:0.32055878 3:0.55407521 4:0.82750925 5:0.3691077 6:0.68275399 
0.5573721948328014 1:0.49413846 2:0.52327854 3:0.31555122 4:0.87415295 5:0.27673063 6:0.60112146 
1 1:0.33054909 2:0.55824342 3:0.50777942 4:0.89594591 5:0.2078827 6:0.65041868 
1 1:0.36838293 2:0.48134534 3:0.44544278 4:0.91359598 5:0.47409855 6:0.47780017 
1 1:0.3774204 2:0.5874355 3:0.59907704 4:0.43276674 5:0.72928618 6:0.4323521 
1 1:0.39224166 2:0.52446962 3:0.64411794 4:0.14207063 5:0.31601628 6:0.57129398 
0.9780011206153861 1:0.56579637 2:0.53877492 3:0.83579874 4:0.78052068 5:0.67523175 6:0.34911999 
1 1:0.40807077 2:0.50520099 3:0.39130039 4:0.093299738 5:0.32394478 6:0.64219102 
1 1:0.66067332 2:0.59279016 3:0.57597275 4:0.11914069 5:0.52564524 6:0.44182621 
0.4472070445414844 1:0.28451497 2:0.63350306 3:0.56914501 4:0.50193119 5:0.49254674 6:0.97103897 
0.8098568857499872 1:0.63322237 2:0.60502559 3:0.74629566 4:0.16148726 5:0.68769653 6:0.67823757 
1 1:0.67431483 2:0.47161996 3:0.47050819 4:0.54993672 5:0.29046581 6:0.22280885 
1 1:0.66077521 2:0.41144849 3:0.5862181 4:0.25363853 5:0.26292054 6:0.079238143 
-1 1:0.52306303 2:0.72318133 3:0.32295854 4:0.75811209 5:0.16618725 6:0.48137825 
-1 1:0.50200723 2:0.53685461 3:0.51191937 4:0.0028133682 5:0.5532527 6:0.99996672 
-1 1:0.51998099 2:0.5995157 3:0.76794474 4:0.025383461 5:0.3875316 6:0.12580296 
-1 1:0.54401081 2:0.30477093 3:0.5048363 4:0.54303974 5:0.32032322 6:0.37265838 
-1 1:0.46230265 2:0.78114919 3:0.6206364 4:0.77569387 5:0.82069052 6:0.97319522 
-1 1:0.49699776 2:0.47725752 3:0.71072709 4:0.021294331 5:0.13419273 6:0.075225368 
-1 1:0.50016171 2:0.63260213 3:0.71025703 4:0.20027644 5:0.36692658 6:0.11567913 
-1 1:0.5422818 2:0.51609562 3:0.82031827 4:0.82340008 5:0.35240505 6:0.95617345 
-1 1:0.59120614 2:0.5351448 3:0.60307653 4:0.33616014 5:0.31523162 6:0.064238826 
-1 1:0.52895741 2:0.45542415 3:0.90631949 4:0.042683296 5:0.48577391 6:0.9253495 
-1 1:0.55974667 2:0.53716323 3:0.64610963 4:0.092884497 5:0.42071673 6:0.058341618 
-1 1:0.48735243 2:0.32196947 3:0.62102751 4:0.60069618 5:0.099499182 6:0.2373342 
-1 1:0.26690364 2:0.50338418 3:0.39538536 4:0.7476089 5:0.55432942 6:0.68855143 
-1 1:0.35718339 2:0.42100741 3:0.7126519 4:0.74494584 5:0.54218804 6:0.89262997 
-1 1:0.51571271 2:0.38612897 3:0.57415548 4:0.95694738 5:0.67889108 6:0.20656558 
-1 1:0.33105164 2:0.50009091 3:0.58801616 4:0.1363439 5:0.08536249 6:0.43489713 
-1 1:0.51630515 2:0.58549997 3:0.74762332 4:0.38480721 5:0.60492119 6:0.30475572 
-1 1:0.41139854 2:0.57238489 3:0.80458725 4:0.65373688 5:0.45051776 6:0.88396924 
-1 1:0.45329065 2:0.57316073 3:0.59858376 4:0.82377321 5:0.37653645 6:0.75181062 
-1 1:0.56873925 2:0.53647803 3:0.58680945 4:0.58785821 5:0.62788302 6:0.5339701 
-1 1:0.36212144 2:0.50439552 3:0.54063304 4:0.79366378 5:0.43099363 6:0.33511946 
-1 1:0.63861488 2:0.44993795 3:0.71974346 4:0.59463347 5:0.31852399 6:0.28636434 
-1 1:0.47297286 2:0.58026716 3:0.57539886 4:0.061082038 5:0.29358363 6:0.55679642 
-1 1:0.36587367 2:0.40015525 3:0.46513109 4:0.95678911 5:0.56176187 6:0.70997717 
-1 1:0.46706607 2:0.73227218 3:0.53954219 4:0.26589211 5:0.18130587 6:0.07973932 
-1 1:0.48514538 2:0.5940189 3:0.46906041 4:0.18758761 5:0.78787367 6:0.76964578 
-1 1:0.52826034 2:0.57449739 3:0.59832867 4:0.70388305 5:0.44331992 6:0.82498634 
-1 1:0.54778429 2:0.43745951 3:0.62805821 4:0.20620064 5:0.55245918 6:0.9268748 
-1 1:0.5185045 2:0.646787 3:0.37209635 4:0.15077627 5:0.68809978 6:0.37039351 
-1 1:0.55888356 2:0.43560359 3:0.70362542 4:0.98017793 5:0.36290131 6:0.74935064 
-1 1:0.45661928 2:0.46788375 3:0.61185943 4:0.91498619 5:0.71917694 6:0.65766003 
-1 1:0.50598599 2:0.67287863 3:0.50304505 4:0.93553407 5:0.2544779 6:0.27163206 
-1 1:0.71472716 2:0.58808266 3:0.66226378 4:0.12269803 5:0.28796969 6:0.96378721 
-1 1:0.33784603 2:0.5483073 3:0.25926052 4:0.25549064 5:0.57794124 6:0.45595492 
-1 1:0.62020736 2:0.61167672 3:0.51565233 4:0.9325207 5:0.30001885 6:0.29304071 
-1 1:0.51934286 2:0.63721866 3:0.45139523 4:0.66732772 5:0.26154731 6:0.55350155 
-1 1:0.59121365 2:0.37324718 3:0.35701564 4:0.1480338 5:0.33446193 6:0.69694458 
-1 1:0.4392572 2:0.57404831 3:0.67011346 4:0.62648997 5:0.342098 6:0.98650697 
-1 1:0.52714759 2:0.43732568 3:0.53607438 4:0.98157363 5:0.56165904 6:0.40783617 
-1 1:0.56937343 2:0.47752958 3:0.49382203 4:0.12164248 5:0.58708872 6:0.98410414 
-1 1:0.68261629 2:0.32441788 3:0.71045445 4:0.14469005 5:0.21743926 6:0.76247555 
-1 1:0.5459879 2:0.46574281 3:0.76570064 4:0.021814746 5:0.43400332 6:0.20833397 
-1 1:0.48499717 2:0.7333016 3:0.44776573 4:0.22501078 5:0.78596908 6:0.52615693 
-1 1:0.59953892 2:0.6439619 3:0.51727145 4:0.92292789 5:0.25732436 6:0.34866482 
-1 1:0.52906614 2:0.43387083 3:0.70205725 4:0.51207424 5:0.25849799 6:0.22205372 
-1 1:0.51551368 2:0.47912229 3:0.71940437 4:0.88564729 5:0.58483819 6:0.60885174 
-1 1:0.49273924 2:0.4197362 3:0.40822726 4:0.47015313 5:0.3464422 6:0.49636461 
-1 1:0.57455692 2:0.38773907 3:0.41967246 4:0.99840599 5:0.91164575 6:0.59113637 
-1 1:0.47963907 2:0.47383196 3:0.57876813 4:0.44114799 5:0.46324992 6:0.65075107 
-1 1:0.3973002 2:0.54806892 3:0.73080024 4:0.26600539 5:0.42958824 6:0.38959678 
-1 1:0.46429268 2:0.48362088 3:0.81776217 4:0.78374403 5:0.64358396 6:0.11617459 
-1 1:0.39578855 2:0.50665966 3:0.62786449 4:0.16752647 5:0.23800658 6:0.83506973 
-1 1:0.54299979 2:0.54872231 3:0.72325965 4:0.99050124 5:0.13406229 6:0.88779785 
-1 1:0.36017032 2:0.48711773 3:0.67537083 4:0.15856635 5:0.42395926 6:0.27239435 
-1 1:0.29838032 2:0.31299948 3:0.3663517 4:0.87850453 5:0.47600941 6:0.64386463 
-1 1:0.58257116 2:0.64070303 3:0.83468939 4:0.97184836 5:0.46247987 6:0.15794633 
-1 1:0.35050522 2:0.62385314 3:0.80246128 4:0.82646725 5:0.86358867 6:0.92155402 
-1 1:0.51719821 2:0.41735942 3:0.57834886 4:0.29623429 5:0.46808511 6:0.8977189 
-1 1:0.49981647 2:0.46363389 3:0.56389778 4:0.057548537 5:0.50966641 6:0.31114945 
-1 1:0.50883093 2:0.41443504 3:0.47802335 4:0.24763663 5:0.77629905 6:0.92814478 
-1 1:0.63808823 2:0.58748062 3:0.39961372 4:0.35950933 5:0.57331233 6:0.69006445 
-1 1:0.4300032 2:0.52350383 3:0.76347415 4:0.64990575 5:0.51208085 6:0.48315452 
-1 1:0.37034997 2:0.52863627 3:0.53221506 4:0.78392107 5:0.31688318 6:0.64800548 
-1 1:0.43983029 2:0.58295905 3:0.70729487 4:0.65651345 5:0.40781061 6:0.23668642 
-1 1:0.6962731 2:0.34229274 3:0.51776088 4:0.65208393 5:0.35735063 6:0.25495297 
-1 1:0.43053842 2:0.53206493 3:0.57175319 4:0.29171468 5:0.72883438 6:0.59546569 
-1 1:0.47423122 2:0.40355365 3:0.46954286 4:0.82157017 5:0.73999963 6:0.65100132 
-1 1:0.6323973 2:0.52203679 3:0.59934981 4:0.19520063 5:0.60226854 6:0.95609678 
-1 1:0.55718317 2:0.64508222 3:0.69852154 4:0.05625158 5:0.52574141 6:0.32633915 
-1 1:0.43154959 2:0.44684716 3:0.59979711 4:0.34769341 5:0.14332063 6:0.33218978 
-1 1:0.37536937 2:0.68635662 3:0.73316335 4:0.61616608 5:0.60623633 6:0.85379711 
-1 1:0.51776835 2:0.43133058 3:0.54085789 4:0.78761308 5:0.54331809 6:0.28072384 
-1 1:0.64426382 2:0.5787915 3:0.715012 4:0.60444927 5:0.14559691 6:0.46726312 
-1 1:0.52957632 2:0.39113467 3:0.70455139 4:0.79147103 5:0.82834795 6:0.37918642 
-1 1:0.48965713 2:0.35511802 3:0.468001 4:0.55552122 5:0.56301929 6:0.45382506 
-1 1:0.56433548 2:0.47110649 3:0.68327336 4:0.88674462 5:0.60350395 6:0.82815855 
-1 1:0.58671626 2:0.46736708 3:0.72702742 4:0.50097902 5:0.72823153 6:0.87545552 
-1 1:0.54194389 2:0.51804222 3:0.39867505 4:0.58310598 5:0.68414766 6:0.40337269 
-1 1:0.50919203 2:0.42387338 3:0.73880421 4:0.08810676 5:0.70114638 6:0.046342688 
-1 1:0.57486168 2:0.4706138 3:0.55883142 4:0.96893966 5:0.46817257 6:0.052231244 
-1 1:0.56554926 2:0.53186385 3:0.55494145 4:0.1181273 5:0.96370666 6:0.59982054 
-1 1:0.54189037 2:0.5797085 3:0.89272669 4:0.98969267 5:0.47676629 6:0.051973982 
-1 1:0.47782243 2:0.53933075 3:0.50481566 4:0.80667929 5:0.36528621 6:0.0014368671 
-1 1:0.46949021 2:0.53557814 3:0.65082786 4:0.98729857 5:0.56202628 6:0.50810447 
-1 1:0.45254598 2:0.60783533 3:0.50365548 4:0.711254 5:0.68513441 6:0.90661848 
-1 1:0.42425151 2:0.44736219 3:0.77125459 4:0.29682991 5:0.49649119 6:0.075321418 
-1 1:0.57093507 2:0.43911673 3:0.44205376 4:0.17582371 5:0.32332892 6:0.45168591 
-1 1:0.45792999 2:0.45781387 3:0.53754624 4:0.39394411 5:0.70466193 6:0.14463364 
-1 1:0.52000364 2:0.44744194 3:0.52567027 4:0.59382991 5:0.51299765 6:0.40637657 
-1 1:0.56614363 2:0.42930591 3:0.55707007 4:0.26121816 5:0.73087141 6:0.99353454 
-1 1:0.49448183 2:0.37533293 3:0.65933307 4:0.60951202 5:0.68524868 6:0.37121456 
-1 1:0.53527621 2:0.37665798 3:0.4564191 4:0.56712128 5:0.28266804 6:0.43146645 
-1 1:0.42406638 2:0.30230982 3:0.42192584 4:0.00445701 5:0.54214265 6:0.66977987 
-1 1:0.57782848 2:0.606927 3:0.53954745 4:0.9398665 5:0.70008711 6:0.14614846 
-1 1:0.43148205 2:0.42423131 3:0.67578435 4:0.83470887 5:0.55798676 6:0.90679892 
-1 1:0.56300906 2:0.52530734 3:0.607757 4:0.74117923 5:0.68869739 6:0.2792525 
-1 1:0.53606018 2:0.44114862 3:0.65183202 4:0.59050438 5:0.57846582 6:0.090234279 
-1 1:0.54762593 2:0.62485259 3:0.50002739 4:0.43885897 5:0.60336462 6:0.82429806 
-1 1:0.48076853 2:0.55011679 3:0.67103826 4:0.47056792 5:0.25663831 6:0.0169871 
-1 1:0.49152607 2:0.4424483 3:0.61787239 4:0.051581224 5:0.66894958 6:0.68038123 
-1 1:0.46423873 2:0.38791162 3:0.47627952 4:0.55497224 5:0.39871217 6:0.4161805 
-1 1:0.47500474 2:0.63449065 3:0.61001681 4:0.37174036 5:0.014711608 6:0.82408379 
-1 1:0.48949363 2:0.41237406 3:0.49193065 4:0.9995086 5:0.53943114 6:0.16561187 
-1 1:0.49944936 2:0.59421119 3:0.79073674 4:0.27946744 5:0.42053603 6:0.92079669 
-1 1:0.47348798 2:0.54914262 3:0.64215042 4:0.58189626 5:0.27614289 6:0.91978878 
-1 1:0.46606492 2:0.43629708 3:0.59393414 4:0.71748152 5:0.78751601 6:0.46619807 
-1 1:0.23195712 2:0.46857117 3:0.61776411 4:0.83932607 5:0.87195014 6:0.82234734 
-1 1:0.50444015 2:0.30107597 3:0.66379688 4:0.70448644 5:0.76353243 6:0.46629169 
-1 1:0.43350908 2:0.5129094 3:0.56791121 4:0.69462124 5:0.56066657 6:0.7813464 
-1 1:0.43975948 2:0.46191835 3:0.49881743 4:0.61485585 5:0.40835738 6:0.06139507 
-1 1:0.57605601 2:0.4843073 3:0.58725495 4:0.40706546 5:0.83738762 6:0.73939527 
-1 1:0.28380109 2:0.43704774 3:0.44503951 4:0.84474332 5:0.44842053 6:0.67342988 
-1 1:0.38996444 2:0.49303662 3:0.84109703 4:0.90110316 5:0.80899367 6:0.0019463026 
-1 1:0.48494041 2:0.59281055 3:0.70954247 4:0.32970127 5:0.4002818 6:0.027463153 
-1 1:0.52691377 2:0.55434227 3:0.62624823 4:0.22480642 5:0.379678 6:0.9546872 
-1 1:0.59116145 2:0.70942291 3:0.61179701 4:0.46171356 5:0.56670535 6:0.86459773 
-1 1:0.35921327 2:0.43897207 3:0.79842841 4:0.36542798 5:0.50789712 6:0.1420963 
-1 1:0.49428193 2:0.40933281 3:0.679461 4:0.030860175 5:0.27524607 6:0.069509453 
-1 1:0.51474033 2:0.6547699 3:0.54978719 4:0.48246033 5:0.8200193 6:0.78711952 
-1 1:0.34151451 2:0.34404471 3:0.4936662 4:0.2290896 5:0.17012131 6:0.33195408 
-1 1:0.4962864 2:0.3222148 3:0.67369589 4:0.52786514 5:0.41857353 6:0.28486661 
-1 1:0.51103023 2:0.56155491 3:0.53935278 4:0.82455499 5:0.49647944 6:0.97228676 
-1 1:0.6128622 2:0.46078856 3:0.65937454 4:0.94911876 5:0.88828493 6:0.3771399 
-1 1:0.42651358 2:0.523674 3:0.38033208 4:0.9638089 5:0.51477715 6:0.50759449 
-1 1:0.55692749 2:0.52103477 3:0.69483774 4:0.64133452 5:0.67638034 6:0.81905713 
-1 1:0.34307852 2:0.59422449 3:0.50643944 4:0.73108022 5:0.40278223 6:0.64070584 
-1 1:0.33471997 2:0.46984314 3:0.72498979 4:0.69326491 5:0.14406754 6:0.79978437 
-1 1:0.62360973 2:0.37957067 3:0.54241828 4:0.066089081 5:0.40610107 6:0.69582503 
-1 1:0.47133297 2:0.54252184 3:0.60319783 4:0.78933181 5:0.5313561 6:0.73757026 
-1 1:0.49079848 2:0.56878199 3:0.57238383 4:0.12886594 5:0.39340995 6:0.71079786 
-1 1:0.50072798 2:0.38573871 3:0.45375041 4:0.90973143 5:0.40405946 6:0.13614409 
-1 1:0.57318702 2:0.53156316 3:0.71537533 4:0.19012876 5:0.2063938 6:0.18516823 
-1 1:0.31808795 2:0.64065038 3:0.57973094 4:0.6537769 5:0.27644559 6:0.81958497 
-1 1:0.43633922 2:0.57350852 3:0.59264188 4:0.040513162 5:0.098579074 6:0.29059163 
-1 1:0.51817941 2:0.55220801 3:0.46329441 4:0.066938926 5:0.13257404 6:0.42395699 
-1 1:0.45676333 2:0.62146505 3:0.77334072 4:0.82638313 5:0.70008531 6:0.097871468 
-1 1:0.57387327 2:0.42373649 3:0.90191836 4:0.57116237 5:0.57144024 6:0.11738098 
-1 1:0.38301058 2:0.49252972 3:0.42382406 4:0.97587629 5:0.31689885 6:0.54749238 
-1 1:0.53876426 2:0.48952215 3:0.33994996 4:0.61104685 5:0.34250131 6:0.40548656 
-1 1:0.50464572 2:0.69777038 3:0.66971317 4:0.69463795 5:0.70202869 6:0.96899733 
-1 1:0.45931678 2:0.48345609 3:0.53980366 4:0.1169657 5:0.31850291 6:0.10910454 
-1 1:0.52295965 2:0.56442655 3:0.5350687 4:0.011651831 5:0.80580147 6:0.19308788 
-1 1:0.47676511 2:0.49196891 3:0.78208831 4:0.26318723 5:0.50344896 6:0.62932148 
-1 1:0.50589849 2:0.43172332 3:0.57939724 4:0.12056898 5:0.47852825 6:0.22017344 
-1 1:0.55466198 2:0.5864839 3:0.48751757 4:0.37872003 5:0.87041609 6:0.25304636 
-1 1:0.54837411 2:0.56015722 3:0.77654358 4:0.75435264 5:0.61281082 6:0.048598715 
-1 1:0.45037436 2:0.42910244 3:0.47344003 4:0.1211323 5:0.3298607 6:0.12913993 
-1 1:0.26560637 2:0.54557271 3:0.48750614 4:0.2354271 5:0.42259665 6:0.32676984 
-1 1:0.62446855 2:0.40308021 3:0.66352098 4:0.57898948 5:0.18788795 6:0.3033845 
-1 1:0.50254886 2:0.4760399 3:0.45884924 4:0.073740468 5:0.31255929 6:0.59882933 
-1 1:0.49422144 2:0.50978228 3:0.58067901 4:0.83593689 5:0.33167592 6:0.48766321 
-1 1:0.55586757 2:0.45435324 3:0.56168728 4:0.26030579 5:0.55709303 6:0.16082314 
-1 1:0.57191302 2:0.33777445 3:0.58161016 4:0.12302306 5:0.16681164 6:0.64338325 
-1 1:0.19737956 2:0.48690818 3:0.43887151 4:0.77787918 5:0.50225058 6:0.72657829 
-1 1:0.50352692 2:0.50393799 3:0.60903776 4:0.12615043 5:0.65769623 6:0.6960874 
-1 1:0.37621352 2:0.66984145 3:0.59837407 4:0.2739555 5:0.22659548 6:0.015615489 
-1 1:0.41154989 2:0.49079927 3:0.3989277 4:0.41239955 5:0.56003678 6:0.53888865 
-1 1:0.49319767 2:0.58887376 3:0.63904483 4:0.3281665 5:0.90144504 6:0.72775598 
-1 1:0.4956023 2:0.27646934 3:0.62132191 4:0.47801041 5:0.37593304 6:0.34681244 
-1 1:0.50618782 2:0.58460007 3:0.75752718 4:0.90892415 5:0.52643494 6:0.15069411 
-1 1:0.60335037 2:0.79250195 3:0.49887374 4:0.4369949 5:0.41698849 6:0.7588513 
-1 1:0.46454888 2:0.51261565 3:0.81958256 4:0.63216708 5:0.46841686 6:0.11820844 
-1 1:0.47523565 2:0.4791455 3:0.53378675 4:0.57808382 5:0.048389267 6:0.41498069 
-1 1:0.57916407 2:0.54519922 3:0.62511043 4:0.084112523 5:0.77223066 6:0.89048678 
-1 1:0.39318026 2:0.41846366 3:0.57114748 4:0.58842184 5:0.38176673 6:0.1458803 
-1 1:0.48997685 2:0.58553055 3:0.66423479 4:0.091112383 5:0.92318619 6:0.85401144 
-1 1:0.290177 2:0.51038276 3:0.62997636 4:0.88005346 5:0.21160524 6:0.58784838 
-1 1:0.50785521 2:0.63524902 3:0.49909187 4:0.20144776 5:0.24710855 6:0.25668117 
-1 1:0.62618349 2:0.35845359 3:0.45699255 4:0.67869654 5:0.45643663 6:0.35493386 
-1 1:0.47884624 2:0.52863113 3:0.6058501 4:0.94861873 5:0.36875874 6:0.076837665 
-1 1:0.48927256 2:0.6912205 3:0.7294746 4:0.97895844 5:0.5603757 6:0.21853043 
-1 1:0.31992999 2:0.39407774 3:0.48086934 4:0.83369598 5:0.27212522 6:0.79134941 
-1 1:0.55046955 2:0.55186977 3:0.6328786 4:0.3259123 5:0.63706269 6:0.78572117 
-1 1:0.44343919 2:0.52914462 3:0.46979845 4:0.18472568 5:0.31455464 6:0.29366 
-1 1:0.44974257 2:0.54539989 3:0.46328372 4:0.068009605 5:0.71514073 6:0.62141823 
-1 1:0.40641667 2:0.33561076 3:0.6063026 4:0.98930509 5:0.47069745 6:0.62048287 
-1 1:0.55550201 2:0.46142271 3:0.48695366 4:0.34545359 5:0.30573605 6:0.4211432 
-1 1:0.57177437 2:0.38411792 3:0.582469 4:0.041153097 5:0.51561037 6:0.82543692 
-1 1:0.50266497 2:0.51252057 3:0.72662088 4:0.72920994 5:0.199832 6:0.74056003 
-1 1:0.41672764 2:0.46017088 3:0.68619112 4:0.87812129 5:0.36650654 6:0.77082428 
-1 1:0.52940429 2:0.44838664 3:0.50649552 4:0.68782841 5:0.63970701 6:0.90391365 
-1 1:0.40014907 2:0.52045216 3:0.50509677 4:0.70228659 5:0.77181377 6:0.39924312 
-1 1:0.43987438 2:0.42244221 3:0.55092751 4:0.93054463 5:0.51502235 6:0.51236304 
-1 1:0.45478744 2:0.54097448 3:0.61711223 4:0.36604065 5:0.092211195 6:0.81343525 
-1 1:0.5975267 2:0.49025535 3:0.7072115 4:0.58513151 5:0.62070649 6:0.28811854 
-1 1:0.49438798 2:0.56067176 3:0.68484392 4:0.31852572 5:0.25094521 6:0.30763539 
-1 1:0.26234947 2:0.38064416 3:0.71725046 4:0.25400182 5:0.82091472 6:0.20167611 
-1 1:0.39375829 2:0.50125951 3:0.55767146 4:0.35350302 5:0.54635536 6:0.060691301 
-1 1:0.33688093 2:0.40850787 3:0.31988489 4:0.48828966 5:0.68815911 6:0.39251906 
-1 1:0.42701071 2:0.61417814 3:0.69445897 4:0.65447875 5:0.70275512 6:0.94034546 
-1 1:0.36341686 2:0.60540879 3:0.44250921 4:0.71112963 5:0.50364335 6:0.62816417 
-1 1:0.72774692 2:0.45452248 3:0.60241008 4:0.20792735 5:0.34963222 6:0.67347462 
-1 1:0.47009366 2:0.3482744 3:0.5788844 4:0.67164808 5:0.70685609 6:0.44891645 
-1 1:0.62441908 2:0.4916314 3:0.67128809 4:0.15383785 5:0.30366017 6:0.93961379 
-1 1:0.49166874 2:0.45674495 3:0.54773335 4:0.35205741 5:0.46621863 6:0.47639264 
-1 1:0.48014623 2:0.47098587 3:0.61524031 4:0.5178528 5:0.50775922 6:0.89134656 
-1 1:0.69662355 2:0.67889967 3:0.7405094 4:0.84010721 5:0.54901835 6:0.19315046 
-1 1:0.33530932 2:0.70946788 3:0.58000193 4:0.89801801 5:0.16303147 6:0.48534654 
-1 1:0.35122147 2:0.74108824 3:0.5394983 4:0.2149278 5:0.051224857 6:0.084677527 
-1 1:0.46758253 2:0.55972475 3:0.61555851 4:0.86923851 5:0.4220062 6:0.51878417 
-1 1:0.45540433 2:0.60756043 3:0.52595747 4:0.7046267 5:0.44529961 6:0.86880049 
-1 1:0.48620734 2:0.53220827 3:0.47885194 4:0.1127865 5:0.51676933 6:0.70695395 
-1 1:0.55076056 2:0.43221486 3:0.55189172 4:0.76063149 5:0.65328332 6:0.49643498 
-1 1:0.53636273 2:0.35943191 3:0.53210394 4:0.18765266 5:0.30489747 6:0.69471903 
-1 1:0.40377126 2:0.57722692 3:0.56937456 4:0.73962698 5:0.42809746 6:0.92047552 
-1 1:0.58992246 2:0.42999426 3:0.50896311 4:0.31385601 5:0.40657557 6:0.78395135 
-1 1:0.51608413 2:0.44380756 3:0.28530843 4:0.11363016 5:0.43418592 6:0.55735661 
-1 1:0.50062225 2:0.48870403 3:0.91075981 4:0.076449394 5:0.50568336 6:0.059971268 
-1 1:0.30369786 2:0.41742349 3:0.46434708 4:0.48172989 5:0.6966606 6:0.40553674 
-1 1:0.51001245 2:0.53032984 3:0.75114528 4:0.86206464 5:0.59470748 6:0.90481993 
-1 1:0.3628165 2:0.47251185 3:0.74846391 4:0.41113367 5:0.32497917 6:0.01595634 
-1 1:0.66947634 2:0.58473073 3:0.70572536 4:0.72562419 5:0.59832217 6:0.07847224 
-1 1:0.49538788 2:0.52389687 3:0.74460824 4:0.7745064 5:0.72802982 6:0.73734204 
-1 1:0.50940193 2:0.60256667 3:0.59364679 4:0.72554844 5:0.6729558 6:0.56380845 
-1 1:0.57785289 2:0.42667723 3:0.52220398 4:0.20160765 5:0.65161658 6:0.37884163 
-1 1:0.7491406 2:0.62402511 3:0.53332212 4:0.75843577 5:0.21199225 6:0.31917763 
-1 1:0.48750301 2:0.34016031 3:0.46735379 4:0.82600226 5:0.81482845 6:0.54270634 
-1 1:0.41932676 2:0.51635633 3:0.47442367 4:0.80185235 5:0.48391596 6:0.89773585 
-1 1:0.60769816 2:0.34304974 3:0.43278977 4:0.6280258 5:0.43893255 6:0.30689893 
-1 1:0.45031887 2:0.5514147 3:0.8119104 4:0.70570384 5:0.70288484 6:0.90480486 
-1 1:0.47057922 2:0.53122098 3:0.35012985 4:0.74466698 5:0.38414652 6:0.47828927 
-1 1:0.55267676 2:0.53288095 3:0.64189983 4:0.30330112 5:0.4644814 6:0.54897519 
-1 1:0.49332238 2:0.38868042 3:0.51175284 4:0.78843449 5:0.49596927 6:0.27457259 
-1 1:0.57127178 2:0.39850321 3:0.33784805 4:0.12972671 5:0.35239098 6:0.5963029 
-1 1:0.61534749 2:0.63515998 3:0.58934624 4:0.87552529 5:0.34360296 6:0.28629554 
