svm_type c_svc
kernel_type rbf
gamma 0.166667
nr_class 2
total_sv 2234
rho -3.32517
label -1 1
nr_sv 1127 1107
SV
1 1:0.68526228 2:0.78415736 3:0.46384207 4:0.55048758 5:0.45278865 6:0.764116 
1 1:0.75337253 2:0.50573301 3:0.77733546 4:0.30559575 5:0.64618156 6:0.95175471 
1 1:0.65997685 2:0.75835266 3:0.45732691 4:0.23546773 5:0.11275422 6:0.79954145 
1 1:0.69339106 2:0.69017937 3:0.48033923 4:0.58328977 5:0.53195521 6:0.25196268 
1 1:0.33688625 2:0.69353224 3:0.58862917 4:0.71554775 5:0.21669461 6:0.72854034 
1 1:0.42001936 2:0.75195753 3:0.55549053 4:0.12355184 5:0.62003636 6:0.81205893 
1 1:0.41649983 2:0.64152322 3:0.42449337 4:0.52774913 5:0.78900787 6:0.36118948 
1 1:0.34449838 2:0.43658159 3:0.42425685 4:0.012857381 5:0.37333477 6:0.77259499 
1 1:0.63259041 2:0.3234216 3:0.22883063 4:0.51724001 5:0.48967561 6:0.094037766 
1 1:0.45753014 2:0.30885807 3:0.42669193 4:0.9515495 5:0.87353575 6:0.17244218 
0.3755624008810637 1:0.70728461 2:0.2185363 3:0.56261419 4:0.58405579 5:0.52785008 6:0.63681775 
1 1:0.17302423 2:0.37057194 3:0.695761 4:0.55358602 5:0.750053 6:0.48644905 
1 1:0.35468673 2:0.77716764 3:0.59346916 4:0.38490143 5:0.25610311 6:0.14184272 
1 1:0.27527969 2:0.31064206 3:0.74139758 4:0.31229962 5:0.81836337 6:0.49990249 
1 1:0.30974732 2:0.73688011 3:0.7041182 4:0.87269805 5:0.66654349 6:0.22678016 
0.5897822726134964 1:0.20669653 2:0.40789621 3:0.77738061 4:0.38882518 5:0.80800611 6:0.61407948 
1 1:0.50533587 2:0.55314267 3:0.16380327 4:0.98372751 5:0.78261324 6:0.36858091 
1 1:0.77349443 2:0.47760991 3:0.41413475 4:0.29494088 5:0.29458427 6:0.59265136 
1 1:0.41157758 2:0.37753079 3:0.21220748 4:0.46889254 5:0.59187198 6:0.90885509 
1 1:0.15162645 2:0.56189723 3:0.63713558 4:0.65389117 5:0.4899621 6:0.33875665 
1 1:0.12135578 2:0.44655539 3:0.50473238 4:0.69953718 5:0.43968269 6:0.80359088 
1 1:0.46287766 2:0.4339682 3:0.73652272 4:0.58928603 5:0.59285299 6:0.11446843 
1 1:0.24208841 2:0.57166844 3:0.63524318 4:0.60125075 5:0.39124505 6:0.83120754 
0.1556045923570672 1:0.20455472 2:0.63325904 3:0.25566863 4:0.83424696 5:0.71673946 6:0.58350517 
1 1:0.40608263 2:0.247395 3:0.4093641 4:0.47820833 5:0.49593881 6:0.59382863 
1 1:0.6557319 2:0.29724186 3:0.60250139 4:0.050918826 5:0.33694675 6:0.5970165 
1 1:0.13524489 2:0.47966952 3:0.42942065 4:0.75918237 5:0.20580912 6:0.5282488 
0.612678126438377 1:0.83872535 2:0.45847539 3:0.25723428 4:0.18137266 5:0.39681039 6:0.22014522 
1 1:0.64896141 2:0.24801378 3:0.53873121 4:0.19292764 5:0.4310943 6:0.087643177 
1 1:0.17184679 2:0.33237631 3:0.60000907 4:0.26806027 5:0.34683793 6:0.37950317 
1 1:0.72826133 2:0.60980286 3:0.80826506 4:0.71930303 5:0.59575951 6:0.20809616 
1 1:0.55785919 2:0.34036658 3:0.43908329 4:0.97542607 5:0.35348818 6:0.36793111 
1 1:0.37118975 2:0.53928908 3:0.17508261 4:0.73233716 5:0.25467907 6:0.12654398 
1 1:0.65096231 2:0.62823513 3:0.81623901 4:0.89728683 5:0.54258477 6:0.36378242 
1 1:0.46492138 2:0.61606947 3:0.13171892 4:0.91193901 5:0.3900386 6:0.25187695 
1 1:0.36511021 2:0.56689108 3:0.75530335 4:0.85510689 5:0.56862532 6:0.48895183 
1 1:0.65032555 2:0.25917744 3:0.65600944 4:0.57403724 5:0.80399526 6:0.12482285 
1 1:0.51008927 2:0.30914837 3:0.54586092 4:0.25322758 5:0.73680041 6:0.58372467 
1 1:0.51299328 2:0.62891468 3:0.16397699 4:0.86684084 5:0.68200184 6:0.51614989 
1 1:0.40529842 2:0.6559478 3:0.45086704 4:0.90695581 5:0.23562836 6:0.795942 
1 1:0.79928037 2:0.38108735 3:0.39813678 4:0.33301653 5:0.50391764 6:0.6070263 
1 1:0.57399644 2:0.55382817 3:0.79771785 4:0.98858807 5:0.70706885 6:0.11862572 
1 1:0.46751467 2:0.48058001 3:0.67953921 4:0.73947869 5:0.22307274 6:0.99023531 
1 1:0.32005963 2:0.68872075 3:0.24828462 4:0.49375386 5:0.74420273 6:0.37980857 
1 1:0.31042317 2:0.65355766 3:0.62580752 4:0.50121067 5:0.45192805 6:0.69860009 
1 1:0.47291904 2:0.6708591 3:0.67980218 4:0.023877558 5:0.46782176 6:0.015191914 
1 1:0.26870397 2:0.498849 3:0.15821568 4:0.25319136 5:0.50765646 6:0.72556162 
1 1:0.3828619 2:0.6477779 3:0.27114644 4:0.21224706 5:0.4366653 6:0.31381493 
1 1:0.53792943 2:0.31872994 3:0.75853819 4:0.027035749 5:0.39434345 6:0.75790134 
1 1:0.19564692 2:0.62463851 3:0.61465994 4:0.72104752 5:0.48267637 6:0.41217425 
1 1:0.25182035 2:0.48120592 3:0.27628281 4:0.88535907 5:0.23498724 6:0.16846899 
0.5116689604364938 1:0.85241968 2:0.44451921 3:0.38707493 4:0.76630647 5:0.75727941 6:0.98005281 
1 1:0.67014733 2:0.3504204 3:0.29019059 4:0.71592519 5:0.86888945 6:0.23313236 
1 1:0.77026678 2:0.6756402 3:0.30054233 4:0.67158206 5:0.5672672 6:0.49330896 
1 1:0.74719673 2:0.50694992 3:0.70219364 4:0.32207071 5:0.27674694 6:0.92684475 
1 1:0.46696498 2:0.26002215 3:0.62002584 4:0.32640478 5:0.28354684 6:0.69543838 
1 1:0.8223316 2:0.5603957 3:0.50668911 4:0.48202779 5:0.60964059 6:0.26103137 
1 1:0.74051574 2:0.34696985 3:0.43316729 4:0.412491 5:0.59174497 6:0.25168682 
1 1:0.35520365 2:0.74322195 3:0.70480744 4:0.26742242 5:0.396018 6:0.10536764 
1 1:0.51851026 2:0.56042034 3:0.8216122 4:0.14972149 5:0.3157575 6:0.19552789 
1 1:0.55400323 2:0.30606037 3:0.33338191 4:0.95331388 5:0.41349155 6:0.21670468 
1 1:0.78811724 2:0.72896416 3:0.56157786 4:0.62568367 5:0.39655713 6:0.63740879 
1 1:0.31458814 2:0.43270503 3:0.8116549 4:0.43419959 5:0.42065863 6:0.47567901 
1 1:0.40663656 2:0.67992636 3:0.39338818 4:0.41640145 5:0.70046957 6:0.60765401 
1 1:0.5634081 2:0.51121307 3:0.25075969 4:0.66491928 5:0.60309872 6:0.35987193 
1 1:0.79564433 2:0.64417314 3:0.51501131 4:0.32193404 5:0.69380089 6:0.23436093 
1 1:0.36928223 2:0.4589487 3:0.31589072 4:0.15767264 5:0.54550951 6:0.39965691 
1 1:0.18957009 2:0.27590676 3:0.44167956 4:0.39967735 5:0.55336432 6:0.18486665 
1 1:0.44278575 2:0.37039139 3:0.27140747 4:0.49097727 5:0.79802572 6:0.71775067 
1 1:0.22596032 2:0.69715522 3:0.63964438 4:0.38035521 5:0.78168282 6:0.78469169 
1 1:0.74662742 2:0.61013971 3:0.60942039 4:0.96572468 5:0.029556707 6:0.75876064 
1 1:0.198619 2:0.33102122 3:0.42367206 4:0.60427338 5:0.6677253 6:0.93742476 
1 1:0.5955487 2:0.31503372 3:0.65935715 4:0.60909531 5:0.21787425 6:0.2479483 
1 1:0.2347291 2:0.35064522 3:0.5705568 4:0.77984675 5:0.95732045 6:0.84620746 
1 1:0.6818498 2:0.51186502 3:0.2121315 4:0.73483187 5:0.50092193 6:0.0047939444 
1 1:0.40230314 2:0.22796925 3:0.60179711 4:0.45139505 5:0.34533876 6:0.70367732 
1 1:0.52131159 2:0.30404578 3:0.69842812 4:0.1419827 5:0.9086235 6:0.49311354 
1 1:0.51580263 2:0.33422293 3:0.19006237 4:0.39068572 5:0.77371119 6:0.75227771 
1 1:0.44805502 2:0.32391012 3:0.29267074 4:0.66108051 5:0.5975716 6:0.51777757 
0.3324216562723789 1:0.2401552 2:0.60984898 3:0.7953341 4:0.51235942 5:0.44829469 6:0.86462765 
1 1:0.33046927 2:0.65678275 3:0.19628687 4:0.54688734 5:0.40454674 6:0.16799234 
1 1:0.68133331 2:0.72572159 3:0.53189371 4:0.60185297 5:0.23268242 6:0.57424532 
1 1:0.33505513 2:0.42666222 3:0.73361252 4:0.90808387 5:0.30295469 6:0.35520342 
1 1:0.669817 2:0.65735014 3:0.3595155 4:0.31802268 5:0.62538559 6:0.091181823 
1 1:0.40188194 2:0.34677194 3:0.48020043 4:0.36357592 5:0.62231589 6:0.1970281 
0.2921902712992213 1:0.38059025 2:0.38421233 3:0.13892074 4:0.19286656 5:0.64161305 6:0.014633184 
1 1:0.37306757 2:0.21115954 3:0.50152492 4:0.34931593 5:0.68852823 6:0.59364906 
1 1:0.55681926 2:0.28891374 3:0.27943571 4:0.0039471377 5:0.80724144 6:0.54166774 
1 1:0.67322292 2:0.58705122 3:0.23727659 4:0.1103543 5:0.89979077 6:0.39611757 
1 1:0.76903962 2:0.67151332 3:0.41964994 4:0.67991493 5:0.32370551 6:0.5854628 
1 1:0.67122581 2:0.7234122 3:0.30293512 4:0.83622746 5:0.49675728 6:0.74358098 
1 1:0.30040846 2:0.72294915 3:0.66041597 4:0.27719649 5:0.46719671 6:0.36503176 
1 1:0.44324067 2:0.32706765 3:0.81602532 4:0.56035026 5:0.3548662 6:0.81709006 
1 1:0.65747671 2:0.5881614 3:0.18348559 4:0.30047099 5:0.55206975 6:0.71519136 
0.4099578091324619 1:0.7519383 2:0.34539703 3:0.70760419 4:0.10574267 5:0.78511819 6:0.187891 
1 1:0.2778769 2:0.46838674 3:0.84852609 4:0.2125312 5:0.49514255 6:0.70553768 
1 1:0.26527598 2:0.38006308 3:0.64188739 4:0.033078069 5:0.74668256 6:0.89838649 
1 1:0.4312423 2:0.7004548 3:0.32916814 4:0.45382282 5:0.38334696 6:0.43372859 
1 1:0.14426034 2:0.41760217 3:0.64226921 4:0.17780882 5:0.41156049 6:0.3591004 
1 1:0.81025725 2:0.5102909 3:0.62171155 4:0.2631788 5:0.68788795 6:0.7655658 
1 1:0.38489405 2:0.69738429 3:0.47139136 4:0.97247678 5:0.18296749 6:0.89150133 
1 1:0.67546483 2:0.297812 3:0.4146483 4:0.014614558 5:0.44764297 6:0.94047473 
1 1:0.65614211 2:0.69279239 3:0.75213625 4:0.12930411 5:0.69467573 6:0.47502708 
1 1:0.69465166 2:0.31853001 3:0.24381164 4:0.29000545 5:0.69789194 6:0.86421009 
1 1:0.63725396 2:0.22955313 3:0.67391776 4:0.45041964 5:0.57110527 6:0.88682966 
1 1:0.32257963 2:0.36108467 3:0.73711527 4:0.37801402 5:0.61144912 6:0.96749177 
1 1:0.48166838 2:0.40519212 3:0.7458384 4:0.01992575 5:0.88833138 6:0.87558315 
1 1:0.46567329 2:0.61234697 3:0.19054359 4:0.23862066 5:0.55384179 6:0.5397247 
1 1:0.24717211 2:0.42134517 3:0.5899355 4:0.35434726 5:0.25504841 6:0.054956397 
1 1:0.85242084 2:0.56980149 3:0.66102083 4:0.69977009 5:0.53553685 6:0.20166958 
1 1:0.17497681 2:0.55915684 3:0.41623479 4:0.13692698 5:0.23043045 6:0.49153089 
1 1:0.70902933 2:0.54783935 3:0.22718791 4:0.034022586 5:0.39676839 6:0.62348737 
1 1:0.23292108 2:0.62180179 3:0.65297099 4:0.99392442 5:0.56753578 6:0.625175 
1 1:0.54452528 2:0.38388033 3:0.15943623 4:0.20528728 5:0.40649006 6:0.93070358 
1 1:0.61238758 2:0.38117468 3:0.28506892 4:0.94369823 5:0.90277153 6:0.78858025 
1 1:0.49154458 2:0.22637728 3:0.6869582 4:0.56733109 5:0.49639973 6:0.17993928 
1 1:0.59582595 2:0.45209368 3:0.18689512 4:0.60695444 5:0.21331482 6:0.50108916 
1 1:0.36618233 2:0.35385181 3:0.78184257 4:0.77600465 5:0.4717907 6:0.39405778 
1 1:0.53226349 2:0.3593711 3:0.49048545 4:0.97517222 5:0.35132333 6:0.75825902 
1 1:0.38640388 2:0.4675699 3:0.18047605 4:0.51777545 5:0.65552804 6:0.62855927 
1 1:0.85482064 2:0.61348498 3:0.56547617 4:0.11116059 5:0.33364131 6:0.1313562 
1 1:0.49175608 2:0.72280458 3:0.25076266 4:0.94725628 5:0.7028559 6:0.24746601 
1 1:0.45654225 2:0.67602242 3:0.31093907 4:0.40176619 5:0.76783062 6:0.70786781 
1 1:0.71984416 2:0.62980187 3:0.56818533 4:0.47545487 5:0.71067466 6:0.73589963 
1 1:0.758444 2:0.31473848 3:0.45806756 4:0.42144104 5:0.82942853 6:0.58064076 
1 1:0.23812789 2:0.37457107 3:0.72385265 4:0.52263958 5:0.6679855 6:0.19256349 
1 1:0.60706922 2:0.46245021 3:0.3969166 4:0.98386051 5:0.72979468 6:0.67927917 
1 1:0.35050001 2:0.7072837 3:0.50695226 4:0.69684025 5:0.15347295 6:0.37229607 
1 1:0.71235372 2:0.62544437 3:0.18031796 4:0.56750841 5:0.49022391 6:0.01510709 
1 1:0.7295773 2:0.64160145 3:0.61277308 4:0.58034446 5:0.83473868 6:0.32909508 
1 1:0.74205945 2:0.43379296 3:0.68444309 4:0.77218136 5:0.25626893 6:0.68553884 
1 1:0.72604147 2:0.58483229 3:0.75532137 4:0.30234388 5:0.65659659 6:0.95526676 
1 1:0.74565256 2:0.68116346 3:0.57607611 4:0.16970256 5:0.91002555 6:0.093479911 
1 1:0.66830998 2:0.69485036 3:0.3049082 4:0.18488388 5:0.37619095 6:0.68293224 
1 1:0.71135457 2:0.5639232 3:0.58028913 4:0.53271 5:0.36743055 6:0.73344171 
1 1:0.38532148 2:0.25820343 3:0.4389434 4:0.095829959 5:0.87643602 6:0.28702101 
1 1:0.77487949 2:0.68272624 3:0.54342989 4:0.21912747 5:0.19706383 6:0.71878649 
1 1:0.14864516 2:0.37348868 3:0.50715015 4:0.83123478 5:0.46412137 6:0.32760856 
1 1:0.68314657 2:0.73273401 3:0.62431448 4:0.49486846 5:0.18088209 6:0.25788714 
1 1:0.8408086 2:0.54003813 3:0.31010853 4:0.1253942 5:0.63430731 6:0.82103895 
1 1:0.82297938 2:0.60529602 3:0.55718572 4:0.94172022 5:0.44028993 6:0.63221137 
1 1:0.53592623 2:0.67136545 3:0.61273271 4:0.36751366 5:0.47750282 6:0.67913357 
1 1:0.55315166 2:0.76006761 3:0.54470829 4:0.49261152 5:0.084684803 6:0.73717081 
1 1:0.73546173 2:0.42382558 3:0.78077785 4:0.87604475 5:0.66321042 6:0.18320114 
1 1:0.31179879 2:0.61566941 3:0.78145701 4:0.5905392 5:0.14584123 6:0.69328471 
1 1:0.29631612 2:0.7238198 3:0.2620626 4:0.48081819 5:0.59907035 6:0.53573899 
1 1:0.36317281 2:0.61038098 3:0.25921936 4:0.97532496 5:0.44241767 6:0.33422455 
1 1:0.29536773 2:0.61320007 3:0.66047511 4:0.50401923 5:0.24740273 6:0.99597195 
1 1:0.21871145 2:0.53591598 3:0.82783799 4:0.60301697 5:0.74839786 6:0.26424356 
1 1:0.60905785 2:0.62016045 3:0.67653925 4:0.42290863 5:0.87652658 6:0.8483783 
1 1:0.60271403 2:0.42027642 3:0.63812088 4:0.79740535 5:0.21184966 6:0.085576013 
0.03551280802656738 1:0.8786018 2:0.43132087 3:0.31003186 4:0.50826867 5:0.49212917 6:0.65553946 
1 1:0.43189207 2:0.70461369 3:0.3240451 4:0.19548928 5:0.85155243 6:0.87325485 
1 1:0.79034453 2:0.60393933 3:0.70748824 4:0.75760839 5:0.75914064 6:0.20363692 
1 1:0.39170951 2:0.4372411 3:0.88268343 4:0.31768226 5:0.67847046 6:0.68206063 
0.766794112155998 1:0.82803453 2:0.56466175 3:0.73887523 4:0.6954434 5:0.54112355 6:0.7700849 
1 1:0.75941227 2:0.43494733 3:0.3480115 4:0.76331304 5:0.81130309 6:0.53902088 
1 1:0.22580052 2:0.36219202 3:0.46859904 4:0.32475301 5:0.24774045 6:0.69982352 
1 1:0.33499926 2:0.25108482 3:0.34588145 4:0.57137634 5:0.6932709 6:0.8138211 
1 1:0.33938073 2:0.60399744 3:0.23372188 4:0.6645752 5:0.50331605 6:0.78455635 
1 1:0.56747624 2:0.69034638 3:0.517087 4:0.95359569 5:0.63395682 6:0.78434088 
1 1:0.60307663 2:0.37147162 3:0.63154628 4:0.59691521 5:0.16369283 6:0.67213792 
1 1:0.53969302 2:0.30740972 3:0.56375753 4:0.34307618 5:0.2147126 6:0.28879445 
1 1:0.33173277 2:0.29138241 3:0.38115337 4:0.22577175 5:0.50203221 6:0.97708001 
1 1:0.51314137 2:0.23468271 3:0.4759639 4:0.27866755 5:0.60710894 6:0.11354075 
1 1:0.41928287 2:0.2067094 3:0.50333779 4:0.19354175 5:0.43466906 6:0.29961627 
1 1:0.17553759 2:0.58276826 3:0.67300549 4:0.13427149 5:0.61179217 6:0.38461415 
1 1:0.74456936 2:0.31051273 3:0.5586265 4:0.51450565 5:0.41520907 6:0.12698005 
1 1:0.29615781 2:0.66757376 3:0.52840171 4:0.89831562 5:0.041360728 6:0.26022258 
0.2148367398337799 1:0.5731437 2:0.39230841 3:0.13609619 4:0.43316106 5:0.80723597 6:0.20054677 
1 1:0.33340398 2:0.21886527 3:0.55205782 4:0.42597248 5:0.27006637 6:0.23045529 
1 1:0.25064839 2:0.24031624 3:0.45513912 4:0.81167501 5:0.4920857 6:0.22918858 
1 1:0.3423559 2:0.77922456 3:0.39368745 4:0.56549237 5:0.51091687 6:0.26244357 
1 1:0.14859079 2:0.56331038 3:0.49839234 4:0.97465274 5:0.45831123 6:0.31417129 
1 1:0.77935338 2:0.39965764 3:0.5687565 4:0.11210964 5:0.59316198 6:0.6529646 
1 1:0.48794157 2:0.41004845 3:0.13404399 4:0.56781525 5:0.56385127 6:0.38683119 
1 1:0.43425789 2:0.75560433 3:0.53025285 4:0.037404013 5:0.48675507 6:0.85233682 
1 1:0.3623246 2:0.71056249 3:0.44582167 4:0.49769148 5:0.39845006 6:0.45910576 
1 1:0.17697475 2:0.57249595 3:0.43588737 4:0.75022104 5:0.56423311 6:0.77922661 
1 1:0.68287387 2:0.63228182 3:0.74831307 4:0.2401685 5:0.81176573 6:0.53293166 
1 1:0.52030056 2:0.38269715 3:0.49260402 4:0.45606053 5:0.87203748 6:0.67978705 
1 1:0.30689665 2:0.66426864 3:0.77871937 4:0.80299894 5:0.6578178 6:0.17583695 
1 1:0.75308227 2:0.55909645 3:0.3442043 4:0.90572888 5:0.1754082 6:0.35117148 
1 1:0.64513647 2:0.23683728 3:0.51413814 4:0.80152349 5:0.53793694 6:0.21667519 
1 1:0.28867458 2:0.59511099 3:0.44811708 4:0.94195341 5:0.66438644 6:0.25470052 
1 1:0.70251333 2:0.65106049 3:0.51220157 4:0.73425715 5:0.7215503 6:0.17192141 
1 1:0.29738543 2:0.56324262 3:0.81762337 4:0.78280149 5:0.63885211 6:0.59156168 
1 1:0.25622692 2:0.31220117 3:0.71162352 4:0.59038063 5:0.29441754 6:0.39376862 
1 1:0.52382588 2:0.20243167 3:0.60564679 4:0.16785051 5:0.49902608 6:0.26539988 
0.7296752353826705 1:0.4609312 2:0.69684668 3:0.18030179 4:0.83568241 5:0.35092894 6:0.79258248 
1 1:0.25251527 2:0.43652179 3:0.62878221 4:0.33102815 5:0.52936934 6:0.17259025 
1 1:0.61478498 2:0.65799195 3:0.21914401 4:0.73445173 5:0.3553284 6:0.94382076 
1 1:0.71743498 2:0.59268017 3:0.70056886 4:0.78113889 5:0.463187 6:0.15712649 
1 1:0.2486875 2:0.39718632 3:0.43575438 4:0.0761004 5:0.69053396 6:0.75795444 
1 1:0.12730769 2:0.55205723 3:0.69977475 4:0.76824308 5:0.69388463 6:0.42424895 
1 1:0.54338222 2:0.71325411 3:0.20054719 4:0.3269845 5:0.49122311 6:0.64498248 
1 1:0.5560242 2:0.71210063 3:0.47624898 4:0.60576704 5:0.28815478 6:0.35864034 
1 1:0.67087907 2:0.36521197 3:0.7202911 4:0.5026263 5:0.71551659 6:0.54340713 
1 1:0.60919917 2:0.355064 3:0.32037342 4:0.013784321 5:0.7349627 6:0.16204616 
1 1:0.44118009 2:0.24213288 3:0.53594039 4:0.91042202 5:0.42483897 6:0.43989692 
1 1:0.53203635 2:0.3615509 3:0.3581139 4:0.51616195 5:0.62006855 6:0.76118739 
1 1:0.24131928 2:0.63891334 3:0.55855709 4:0.045337925 5:0.35311743 6:0.32525379 
1 1:0.21478437 2:0.61589855 3:0.36422409 4:0.17943354 5:0.35081936 6:0.78716406 
1 1:0.20713945 2:0.28233763 3:0.5402527 4:0.33194702 5:0.44818503 6:0.29088712 
1 1:0.8902915 2:0.50417497 3:0.5812725 4:0.87258324 5:0.3372889 6:0.73401126 
1 1:0.67676743 2:0.59897357 3:0.57182571 4:0.32278343 5:0.71501587 6:0.7379275 
1 1:0.57375686 2:0.42471302 3:0.77432687 4:0.14075668 5:0.5799517 6:0.93203501 
0.4883217366868325 1:0.60055983 2:0.40900393 3:0.85406776 4:0.011059901 5:0.71155063 6:0.71570149 
1 1:0.43961964 2:0.80800842 3:0.56645729 4:0.49964717 5:0.3118532 6:0.44563504 
1 1:0.31740349 2:0.77793468 3:0.43886239 4:0.68377514 5:0.2674817 6:0.5623919 
1 1:0.50130882 2:0.48073342 3:0.15173982 4:0.23128719 5:0.27967024 6:0.079359954 
1 1:0.74363689 2:0.29739347 3:0.48949205 4:0.74107953 5:0.55049798 6:0.90126866 
1 1:0.63960099 2:0.54336052 3:0.34655662 4:0.47499286 5:0.63871982 6:0.72948827 
0.9924204207065712 1:0.14352131 2:0.37351008 3:0.64090981 4:0.43405216 5:0.80705747 6:0.81229106 
1 1:0.81671166 2:0.30916375 3:0.50172682 4:0.12966921 5:0.34822704 6:0.37740037 
1 1:0.82702231 2:0.38657016 3:0.51025411 4:0.27239842 5:0.11732156 6:0.2699128 
1 1:0.20629483 2:0.69344663 3:0.53921094 4:0.4023218 5:0.3749974 6:0.48289839 
1 1:0.26721325 2:0.75552124 3:0.48917275 4:0.13800315 5:0.46353592 6:0.27662571 
1 1:0.1493931 2:0.62818463 3:0.5479737 4:0.23154349 5:0.5585013 6:0.03635553 
1 1:0.25470926 2:0.70749019 3:0.64718736 4:0.71616359 5:0.27659193 6:0.58352033 
1 1:0.25243627 2:0.40879879 3:0.72436968 4:0.58270903 5:0.10502875 6:0.07967808 
1 1:0.36041854 2:0.56880306 3:0.62373379 4:0.71044826 5:0.59061525 6:0.83051952 
1 1:0.51208335 2:0.24801926 3:0.55296964 4:0.25529139 5:0.57014718 6:0.61704232 
1 1:0.38463743 2:0.56650416 3:0.15500912 4:0.59660428 5:0.4280774 6:0.10790215 
1 1:0.27608699 2:0.40872687 3:0.32314494 4:0.60093317 5:0.76505882 6:0.10620442 
1 1:0.3134187 2:0.70773949 3:0.57155417 4:0.97353089 5:0.38317387 6:0.94641823 
1 1:0.62808093 2:0.66673449 3:0.72559456 4:0.57583 5:0.95095362 6:0.78339024 
1 1:0.48418407 2:0.55993598 3:0.69371505 4:0.47993179 5:0.26999344 6:0.8944423 
1 1:0.77096832 2:0.68887157 3:0.33554862 4:0.78868305 5:0.67812763 6:0.63891629 
1 1:0.72572679 2:0.7368651 3:0.68992437 4:0.40180606 5:0.34601934 6:0.25060386 
1 1:0.41987757 2:0.26028 3:0.65350009 4:0.99926141 5:0.56233864 6:0.37355812 
1 1:0.31398661 2:0.73151323 3:0.51240414 4:0.53663928 5:0.4540953 6:0.63688665 
1 1:0.35726436 2:0.38276627 3:0.1718695 4:0.62108561 5:0.63268692 6:0.92539146 
1 1:0.63817726 2:0.47434012 3:0.87344448 4:0.36591193 5:0.18724844 6:0.61645876 
1 1:0.45895423 2:0.79648001 3:0.44658104 4:0.11812175 5:0.5570801 6:0.094398508 
1 1:0.2778081 2:0.52112979 3:0.55479048 4:0.91735014 5:0.72740056 6:0.94250237 
1 1:0.52800112 2:0.26153109 3:0.67825845 4:0.95359504 5:0.67174873 6:0.23598764 
1 1:0.35694778 2:0.76311233 3:0.5506894 4:0.36719506 5:0.81903505 6:0.68648497 
1 1:0.65942438 2:0.76186904 3:0.5444236 4:0.1446592 5:0.65496237 6:0.19341249 
1 1:0.54563683 2:0.40500651 3:0.21450528 4:0.97524749 5:0.44079918 6:0.18477691 
1 1:0.50599884 2:0.32299977 3:0.46660846 4:0.85220675 5:0.78114815 6:0.28189514 
1 1:0.55629982 2:0.26843732 3:0.47713856 4:0.53741801 5:0.13541135 6:0.07803198 
1 1:0.61075384 2:0.69690803 3:0.67480677 4:0.38213962 5:0.13274393 6:0.32906885 
1 1:0.23705622 2:0.47575572 3:0.20766263 4:0.32911066 5:0.8060708 6:0.85243345 
1 1:0.4022381 2:0.31697823 3:0.40076105 4:0.64145144 5:0.60613944 6:0.66978568 
1 1:0.36280309 2:0.27836427 3:0.66511335 4:0.31125188 5:0.55666616 6:0.026207478 
1 1:0.54495919 2:0.70736275 3:0.38521337 4:0.48475944 5:0.60032071 6:0.62467168 
1 1:0.70357475 2:0.58023691 3:0.74315735 4:0.34889514 5:0.72900765 6:0.7404514 
1 1:0.79206226 2:0.47187793 3:0.32048021 4:0.12980462 5:0.42394798 6:0.5621999 
1 1:0.28757397 2:0.30860727 3:0.24412644 4:0.57722815 5:0.39867301 6:0.74755195 
1 1:0.6441167 2:0.39256952 3:0.15903947 4:0.82750825 5:0.24756349 6:0.51616135 
1 1:0.35703172 2:0.40652802 3:0.47742437 4:0.88431369 5:0.97092171 6:0.17186615 
1 1:0.53254969 2:0.67936789 3:0.49928928 4:0.4627562 5:0.7816987 6:0.60200252 
1 1:0.46497682 2:0.69250888 3:0.17343337 4:0.57918388 5:0.72289053 6:0.16469286 
1 1:0.54165621 2:0.25785126 3:0.6919049 4:0.97754498 5:0.19169741 6:0.4188371 
1 1:0.83265284 2:0.61874352 3:0.71847239 4:0.48683644 5:0.45282387 6:0.41278432 
1 1:0.61951482 2:0.19097069 3:0.49096622 4:0.17632583 5:0.43501846 6:0.58150885 
1 1:0.38591977 2:0.21458309 3:0.55232589 4:0.30081208 5:0.52680428 6:0.41217644 
1 1:0.53143356 2:0.7675849 3:0.5580101 4:0.32911309 5:0.55652608 6:0.091790754 
1 1:0.45583376 2:0.24086125 3:0.62218591 4:0.052833364 5:0.72127125 6:0.53308662 
1 1:0.27239705 2:0.24918686 3:0.6232614 4:0.6014708 5:0.57857094 6:0.15424013 
1 1:0.87455186 2:0.49835862 3:0.34638637 4:0.31248404 5:0.37627762 6:0.372584 
1 1:0.4656795 2:0.22721492 3:0.53196099 4:0.27111555 5:0.38131322 6:0.3825478 
1 1:0.44665398 2:0.73600374 3:0.50684831 4:0.22090365 5:0.94700525 6:0.692728 
1 1:0.66137322 2:0.33964425 3:0.38287306 4:0.48064566 5:0.86618805 6:0.6501577 
1 1:0.78591509 2:0.39563346 3:0.2926708 4:0.33035276 5:0.27789579 6:0.56546485 
1 1:0.80004485 2:0.5815269 3:0.5451873 4:0.81402056 5:0.81570677 6:0.30539373 
1 1:0.3515786 2:0.23337083 3:0.50030398 4:0.31671941 5:0.49792264 6:0.73019219 
1 1:0.48626048 2:0.74004929 3:0.31192 4:0.19670698 5:0.45149032 6:0.76557151 
1 1:0.22620706 2:0.69393352 3:0.64747801 4:0.6363541 5:0.49239854 6:0.89371466 
1 1:0.25774828 2:0.66646748 3:0.65026198 4:0.20111349 5:0.35866646 6:0.54340106 
1 1:0.34620157 2:0.65857448 3:0.66775201 4:0.41602004 5:0.65824173 6:0.66922315 
1 1:0.48727008 2:0.2189679 3:0.47962555 4:0.85454058 5:0.44281768 6:0.096861579 
1 1:0.561157 2:0.3402568 3:0.81939534 4:0.48435749 5:0.63850798 6:0.20168202 
1 1:0.29430058 2:0.53269765 3:0.83143356 4:0.081736359 5:0.7923606 6:0.22233555 
1 1:0.49034006 2:0.21591873 3:0.53921538 4:0.41340146 5:0.47852525 6:0.85206185 
1 1:0.33460035 2:0.69052681 3:0.36694527 4:0.33864757 5:0.21519026 6:0.41109572 
1 1:0.35886515 2:0.55935851 3:0.37585432 4:0.58039971 5:0.41103526 6:0.74689599 
1 1:0.60121323 2:0.45789588 3:0.83846146 4:0.92684651 5:0.37688271 6:0.9154745 
1 1:0.75663846 2:0.63180165 3:0.29831773 4:0.22411993 5:0.63892925 6:0.45916406 
1 1:0.17717766 2:0.38298348 3:0.48082322 4:0.60043279 5:0.75801862 6:0.9984412 
1 1:0.28954995 2:0.2560827 3:0.68947814 4:0.67489152 5:0.37172644 6:0.2229189 
1 1:0.34992219 2:0.28097158 3:0.42582532 4:0.9866269 5:0.83962548 6:0.25636691 
1 1:0.5759652 2:0.28943167 3:0.37271891 4:0.37425711 5:0.76795585 6:0.52196205 
1 1:0.27665246 2:0.45562589 3:0.53117515 4:0.86642163 5:0.10878827 6:0.61417432 
1 1:0.1163522 2:0.53566319 3:0.44067505 4:0.060815982 5:0.45639309 6:0.47978999 
1 1:0.50644326 2:0.77437971 3:0.33700977 4:0.21154894 5:0.28975399 6:0.2172242 
1 1:0.49158836 2:0.22928147 3:0.4991253 4:0.48897841 5:0.60048192 6:0.82387903 
1 1:0.47027454 2:0.38789795 3:0.19721327 4:0.25214592 5:0.55617701 6:0.44985168 
1 1:0.21934335 2:0.52567394 3:0.78822175 4:0.15095279 5:0.67504772 6:0.17100692 
1 1:0.56399125 2:0.25361583 3:0.58994463 4:0.22534518 5:0.19516935 6:0.90051036 
1 1:0.84496163 2:0.56794661 3:0.40835294 4:0.8083614 5:0.57186927 6:0.89385297 
1 1:0.40455617 2:0.42064347 3:0.78529051 4:0.032648352 5:0.70659159 6:0.28993869 
1 1:0.64630188 2:0.44904817 3:0.79341651 4:0.93404735 5:0.57309671 6:0.93165397 
1 1:0.4143599 2:0.68896035 3:0.61564972 4:0.45217554 5:0.49121735 6:0.13996225 
1 1:0.41226191 2:0.26095927 3:0.54153354 4:0.97029514 5:0.86695795 6:0.60361421 
1 1:0.45727232 2:0.45782544 3:0.77754912 4:0.12897852 5:0.30594777 6:0.12412823 
1 1:0.3799984 2:0.4275411 3:0.80396045 4:0.83594959 5:0.43608814 6:0.97207833 
1 1:0.55808408 2:0.58220436 3:0.78721638 4:0.62075681 5:0.55661651 6:0.50918045 
1 1:0.50130415 2:0.31372166 3:0.42778395 4:0.3041099 5:0.72495962 6:0.92995792 
1 1:0.4167569 2:0.34607391 3:0.43019753 4:0.55388531 5:0.70841335 6:0.283071 
1 1:0.57980849 2:0.3644741 3:0.16784132 4:0.84446813 5:0.61564645 6:0.88749166 
1 1:0.76118882 2:0.44443848 3:0.52848495 4:0.94840506 5:0.85552452 6:0.65792376 
1 1:0.201989 2:0.32093625 3:0.49220199 4:0.26225972 5:0.71771315 6:0.05863958 
1 1:0.20954176 2:0.52065609 3:0.31304628 4:0.06790816 5:0.33759376 6:0.56143409 
1 1:0.41147847 2:0.58497794 3:0.82684608 4:0.92953512 5:0.71896205 6:0.87271936 
1 1:0.23659086 2:0.52422996 3:0.31087181 4:0.053587592 5:0.27677908 6:0.62343848 
1 1:0.64174773 2:0.30172426 3:0.36903016 4:0.41686276 5:0.95296938 6:0.3391736 
1 1:0.76740314 2:0.42371266 3:0.72024566 4:0.74492538 5:0.28240387 6:0.263197 
1 1:0.41514421 2:0.69559402 3:0.54304492 4:0.027329735 5:0.14999365 6:0.16769685 
1 1:0.65966062 2:0.28355007 3:0.35747364 4:0.97127034 5:0.55657251 6:0.98079206 
1 1:0.2803211 2:0.50468275 3:0.17979249 4:0.41906713 5:0.65812797 6:0.97157104 
1 1:0.11794786 2:0.62118023 3:0.55613806 4:0.34077099 5:0.44419456 6:0.020676582 
1 1:0.48256886 2:0.77009737 3:0.40967602 4:0.45593276 5:0.13890512 6:0.4718836 
1 1:0.6898785 2:0.72412415 3:0.42755547 4:0.85558325 5:0.16909999 6:0.832371 
1 1:0.12985423 2:0.44710958 3:0.53729099 4:0.25227573 5:0.58258811 6:0.16514828 
1 1:0.32068428 2:0.33138095 3:0.68712529 4:0.31931123 5:0.20048449 6:0.32854081 
1 1:0.40959238 2:0.42036025 3:0.17124264 4:0.090015392 5:0.12063328 6:0.56631318 
1 1:0.43072453 2:0.68288714 3:0.6847493 4:0.5361076 5:0.32833186 6:0.85899583 
1 1:0.14102401 2:0.41428433 3:0.50100577 4:0.6831901 5:0.22931422 6:0.74768894 
1 1:0.33506895 2:0.62325672 3:0.68868797 4:0.82921923 5:0.87643959 6:0.96008419 
1 1:0.2335376 2:0.4201475 3:0.23952378 4:0.50766322 5:0.90750363 6:0.038547864 
1 1:0.77341077 2:0.56217076 3:0.35007881 4:0.91181552 5:0.77912998 6:0.47159739 
1 1:0.38930502 2:0.76402121 3:0.36034338 4:0.42740093 5:0.76706977 6:0.29842682 
1 1:0.44928242 2:0.41143904 3:0.81766338 4:0.068196946 5:0.45716779 6:0.54436456 
1 1:0.14100311 2:0.49976037 3:0.70397368 4:0.67989616 5:0.50068844 6:0.56029843 
1 1:0.70265079 2:0.23445094 3:0.49319731 4:0.65767751 5:0.54014404 6:0.30880816 
1 1:0.60210336 2:0.49418511 3:0.88059581 4:0.76915501 5:0.43110917 6:0.50602329 
1 1:0.35913505 2:0.33558902 3:0.60630552 4:0.64847524 5:0.62091198 6:0.32018334 
1 1:0.72401192 2:0.533509 3:0.82943498 4:0.69420897 5:0.74483167 6:0.49909547 
1 1:0.4233599 2:0.40980496 3:0.28643101 4:0.96814212 5:0.21516991 6:0.78814151 
1 1:0.20573741 2:0.38702803 3:0.26069629 4:0.44455679 5:0.59777983 6:0.23081646 
1 1:0.65880967 2:0.66638798 3:0.75683694 4:0.58867824 5:0.5882943 6:0.68813866 
1 1:0.10710212 2:0.49194107 3:0.44014441 4:0.38221528 5:0.56262588 6:0.7900371 
1 1:0.34771707 2:0.32630385 3:0.22546706 4:0.77838199 5:0.23297811 6:0.32382721 
1 1:0.63855609 2:0.69336539 3:0.20633651 4:0.27125011 5:0.41031575 6:0.37122301 
1 1:0.62355606 2:0.26471907 3:0.29921245 4:0.057487656 5:0.42665325 6:0.51329733 
1 1:0.5957755 2:0.69992588 3:0.70652007 4:0.17212819 5:0.33204305 6:0.00062351072 
1 1:0.43432128 2:0.73434862 3:0.6548922 4:0.32333772 5:0.778773 6:0.17754128 
1 1:0.16945349 2:0.4734903 3:0.66709228 4:0.1286416 5:0.67086777 6:0.62434704 
1 1:0.66690744 2:0.26726987 3:0.68066317 4:0.26938466 5:0.4833855 6:0.63523279 
1 1:0.32489497 2:0.2320735 3:0.52638332 4:0.19797771 5:0.78526534 6:0.0013309817 
1 1:0.82234577 2:0.42321207 3:0.3718534 4:0.23247471 5:0.27431887 6:0.84291686 
1 1:0.20926296 2:0.34090227 3:0.49119809 4:0.85292688 5:0.43630396 6:0.56367297 
1 1:0.54698633 2:0.73896997 3:0.48791376 4:0.20133799 5:0.16170556 6:0.52781414 
1 1:0.677244 2:0.22723893 3:0.4831603 4:0.45773202 5:0.65292494 6:0.78656328 
1 1:0.78893712 2:0.48441901 3:0.74958898 4:0.40920757 5:0.16042563 6:0.62881818 
1 1:0.40574318 2:0.24573808 3:0.62419709 4:0.48860665 5:0.58181324 6:0.80647 
1 1:0.51112784 2:0.61155583 3:0.86347052 4:0.10310522 5:0.37532395 6:0.85388725 
1 1:0.50422824 2:0.78147318 3:0.63102728 4:0.46074624 5:0.67104237 6:0.99157538 
1 1:0.27905729 2:0.6533102 3:0.3974804 4:0.70636664 5:0.47244305 6:0.22629626 
1 1:0.45554645 2:0.25113427 3:0.39927723 4:0.41485925 5:0.2056565 6:0.76555882 
1 1:0.55855354 2:0.43294168 3:0.18351511 4:0.87177501 5:0.42870351 6:0.49856015 
1 1:0.49084427 2:0.80703253 3:0.58143623 4:0.74212216 5:0.47775666 6:0.36661187 
1 1:0.81515312 2:0.50704297 3:0.53013791 4:0.8328231 5:0.91573386 6:0.86195041 
1 1:0.35213949 2:0.23848633 3:0.65206447 4:0.47184847 5:0.39546872 6:0.50388093 
1 1:0.35016624 2:0.733093 3:0.4826267 4:0.15181117 5:0.77587905 6:0.43541777 
1 1:0.85969881 2:0.40828992 3:0.3490401 4:0.43441803 5:0.60130563 6:0.96473345 
1 1:0.37294774 2:0.50301077 3:0.73007777 4:0.00065040026 5:0.49864549 6:0.14362555 
1 1:0.32342498 2:0.32849556 3:0.3942085 4:0.90054582 5:0.56449329 6:0.75099251 
1 1:0.12865916 2:0.56752831 3:0.44064353 4:0.22468833 5:0.46027632 6:0.62444969 
1 1:0.59100471 2:0.69944633 3:0.68576186 4:0.45925054 5:0.59346833 6:0.64887463 
1 1:0.77716936 2:0.5722316 3:0.61506933 4:0.78617455 5:0.40354452 6:0.25623147 
1 1:0.25752764 2:0.31489607 3:0.46539477 4:0.22099133 5:0.74193651 6:0.50678067 
1 1:0.21901581 2:0.41427465 3:0.27029327 4:0.60203448 5:0.61958137 6:0.61925333 
1 1:0.3262015 2:0.37226297 3:0.26313865 4:0.070872655 5:0.15177231 6:0.09871467 
0.5339867779784194 1:0.81950741 2:0.38661583 3:0.3721498 4:0.60156839 5:0.83410777 6:0.20372973 
1 1:0.59862592 2:0.70663458 3:0.4722817 4:0.38940931 5:0.79400668 6:0.73392842 
1 1:0.41234383 2:0.39852616 3:0.31195435 4:0.42734639 5:0.57999759 6:0.20989742 
1 1:0.53445465 2:0.22844321 3:0.54177734 4:0.63109501 5:0.34862758 6:0.91698548 
1 1:0.31167265 2:0.33012792 3:0.29290566 4:0.47582039 5:0.80918233 6:0.4076877 
1 1:0.52636468 2:0.39210338 3:0.8595446 4:0.11338491 5:0.55890116 6:0.063481728 
1 1:0.75634595 2:0.3526805 3:0.39042423 4:0.023942123 5:0.65283707 6:0.72506749 
1 1:0.40070471 2:0.39947619 3:0.12897608 4:0.49297675 5:0.30669833 6:0.39716295 
1 1:0.59187858 2:0.57907956 3:0.68750278 4:0.31287109 5:0.95874095 6:0.61108547 
1 1:0.13038715 2:0.66511751 3:0.4402271 4:0.52143041 5:0.68958048 6:0.27964924 
1 1:0.55040938 2:0.31812371 3:0.34473063 4:0.025334661 5:0.41294768 6:0.5732798 
1 1:0.47345326 2:0.40585906 3:0.71427622 4:0.85383208 5:0.26040551 6:0.39323553 
1 1:0.90358675 2:0.53581219 3:0.58758922 4:0.13641289 5:0.30190952 6:0.45959352 
1 1:0.35429986 2:0.73928823 3:0.50466933 4:0.25516819 5:0.4029243 6:0.115067 
1 1:0.22949716 2:0.34969945 3:0.44829536 4:0.87192335 5:0.96804681 6:0.56652877 
1 1:0.23393422 2:0.27590964 3:0.3427382 4:0.5139391 5:0.49742243 6:0.11709478 
1 1:0.81583749 2:0.42588029 3:0.64447486 4:0.5299667 5:0.40267859 6:0.2942797 
1 1:0.59860433 2:0.78385469 3:0.58229194 4:0.28235902 5:0.31843385 6:0.2100729 
1 1:0.2817571 2:0.3441885 3:0.66617342 4:0.018032664 5:0.26285115 6:0.72859805 
1 1:0.29767069 2:0.4866584 3:0.85685227 4:0.14014599 5:0.68409507 6:0.14738287 
1 1:0.57097063 2:0.27370344 3:0.35276401 4:0.39411436 5:0.60261944 6:0.5310221 
1 1:0.67252054 2:0.49143734 3:0.72825139 4:0.078689624 5:0.29119655 6:0.93449946 
1 1:0.69553169 2:0.39278783 3:0.27366737 4:0.88598377 5:0.86395531 6:0.57216443 
1 1:0.38321208 2:0.34936502 3:0.45249859 4:0.93245163 5:0.43785335 6:0.70831795 
1 1:0.6310521 2:0.750598 3:0.30492 4:0.72792252 5:0.34251138 6:0.56494624 
1 1:0.64773849 2:0.32422493 3:0.65155253 4:0.70820139 5:0.080503788 6:0.16453452 
1 1:0.69537759 2:0.66362127 3:0.67862807 4:0.54026169 5:0.28968748 6:0.70378127 
1 1:0.38116663 2:0.74013551 3:0.31187613 4:0.33161264 5:0.68072645 6:0.68112582 
1 1:0.25488058 2:0.60090579 3:0.67779323 4:0.46153348 5:0.11533182 6:0.85612301 
1 1:0.65745984 2:0.3339262 3:0.71893703 4:0.034293611 5:0.11626726 6:0.63763336 
0.9266277703923727 1:0.14248905 2:0.64353232 3:0.64790429 4:0.39150659 5:0.81196152 6:0.51629177 
1 1:0.394996 2:0.64854453 3:0.79839566 4:0.2130595 5:0.36886876 6:0.98681777 
1 1:0.28947705 2:0.65453961 3:0.28918724 4:0.61800378 5:0.66413756 6:0.10390882 
1 1:0.83615912 2:0.42353464 3:0.29990654 4:0.69933074 5:0.20465053 6:0.67712685 
1 1:0.46200972 2:0.75180083 3:0.58646164 4:0.51023929 5:0.47617622 6:0.77648617 
1 1:0.62723983 2:0.67103474 3:0.28432059 4:0.3956018 5:0.74814519 6:0.76136031 
1 1:0.80040538 2:0.28345205 3:0.48154053 4:0.19015343 5:0.58821461 6:0.38360052 
1 1:0.67481017 2:0.6906482 3:0.6146017 4:0.70459224 5:0.16315176 6:0.48668884 
1 1:0.67650924 2:0.42373336 3:0.72427589 4:0.48331181 5:0.53823045 6:0.056989323 
1 1:0.48956597 2:0.40957567 3:0.67319091 4:0.49706823 5:0.80806714 6:0.23439446 
1 1:0.14656688 2:0.45525524 3:0.28449492 4:0.64134891 5:0.65376172 6:0.10271962 
1 1:0.65723109 2:0.56473747 3:0.19609586 4:0.93586134 5:0.43481929 6:0.42339668 
1 1:0.37379434 2:0.76959274 3:0.39176115 4:0.13702808 5:0.60121446 6:0.76390047 
1 1:0.14734618 2:0.65831875 3:0.62361391 4:0.89644615 5:0.72118147 6:0.040480613 
1 1:0.75765569 2:0.44661667 3:0.72821346 4:0.42952269 5:0.87749839 6:0.39163285 
1 1:0.27478742 2:0.70947811 3:0.38911362 4:0.34369993 5:0.31787573 6:0.95947572 
1 1:0.54911086 2:0.56079689 3:0.78392709 4:0.11757618 5:0.37217549 6:0.91011301 
1 1:0.32612469 2:0.48242166 3:0.83016702 4:0.53807686 5:0.5391608 6:0.49761838 
1 1:0.32930475 2:0.43472105 3:0.82227153 4:0.59271393 5:0.32836413 6:0.64603449 
1 1:0.43586926 2:0.64317277 3:0.78463764 4:0.49615415 5:0.22120731 6:0.9361742 
1 1:0.46139559 2:0.33339394 3:0.28221455 4:0.15837494 5:0.10149542 6:0.13260208 
1 1:0.60382195 2:0.76521232 3:0.47828209 4:0.21527234 5:0.41575504 6:0.96100591 
1 1:0.63921069 2:0.24961453 3:0.48842488 4:0.76843083 5:0.41706305 6:0.36943835 
1 1:0.4387434 2:0.33695258 3:0.59427595 4:0.92581356 5:0.49494449 6:0.87438914 
1 1:0.66712564 2:0.46715039 3:0.42320211 4:0.5840481 5:0.17811954 6:0.38317924 
1 1:0.52529932 2:0.82699831 3:0.4929438 4:0.44779598 5:0.45360333 6:0.37195551 
1 1:0.42272728 2:0.34118631 3:0.22088286 4:0.15804713 5:0.30404914 6:0.15819779 
1 1:0.51610459 2:0.75967279 3:0.48058258 4:0.78593542 5:0.4812178 6:0.88121621 
1 1:0.70028873 2:0.55976582 3:0.14583187 4:0.61965389 5:0.53954094 6:0.50303475 
1 1:0.40684543 2:0.42348973 3:0.12466395 4:0.20470972 5:0.3319563 6:0.77879023 
1 1:0.76869542 2:0.69730504 3:0.49978831 4:0.85756965 5:0.29061365 6:0.096530683 
1 1:0.45704866 2:0.40348511 3:0.77868579 4:0.372906 5:0.64661897 6:0.94586924 
1 1:0.4433425 2:0.48524014 3:0.80340137 4:0.23510082 5:0.51502784 6:0.49122495 
1 1:0.17534662 2:0.59921196 3:0.66571709 4:0.44115034 5:0.18816354 6:0.36564617 
1 1:0.51283573 2:0.75563926 3:0.69874877 4:0.5897101 5:0.41131395 6:0.65919412 
1 1:0.63102625 2:0.37929835 3:0.24214233 4:0.74760284 5:0.63551039 6:0.8803582 
1 1:0.53153947 2:0.21274596 3:0.58421231 4:0.82298099 5:0.30582125 6:0.21169143 
0.1230230785259432 1:0.42250925 2:0.24392551 3:0.7444548 4:0.2129167 5:0.51799051 6:0.18075902 
1 1:0.84209124 2:0.36152385 3:0.63318195 4:0.1741838 5:0.60150935 6:0.37159184 
1 1:0.6340445 2:0.49742443 3:0.33074193 4:0.3331507 5:0.2011137 6:0.50503855 
1 1:0.7944806 2:0.61059874 3:0.59877463 4:0.56349158 5:0.54763913 6:0.92605886 
1 1:0.68451804 2:0.53347079 3:0.21361513 4:0.19608827 5:0.72376792 6:0.46158384 
1 1:0.74975885 2:0.61427091 3:0.33489424 4:0.3730115 5:0.46796639 6:0.11597018 
1 1:0.52234411 2:0.26793832 3:0.39808743 4:0.89574545 5:0.48684676 6:0.0052834576 
1 1:0.84854212 2:0.36862572 3:0.45903515 4:0.16790238 5:0.25015086 6:0.3317143 
1 1:0.32051934 2:0.2247938 3:0.55640114 4:0.30943388 5:0.27445204 6:0.80487649 
1 1:0.21691858 2:0.67480341 3:0.4564209 4:0.56117658 5:0.74357877 6:0.86231753 
1 1:0.47142733 2:0.31680892 3:0.24961904 4:0.65664442 5:0.22097688 6:0.61476958 
1 1:0.27060171 2:0.53819285 3:0.63598593 4:0.10947941 5:0.090407006 6:0.39090404 
1 1:0.48333435 2:0.19825189 3:0.46865227 4:0.49058319 5:0.81153062 6:0.87819726 
1 1:0.3917025 2:0.3774933 3:0.18038454 4:0.64440826 5:0.51614838 6:0.4561582 
1 1:0.556812 2:0.33389395 3:0.19687513 4:0.38829558 5:0.4038538 6:0.02623789 
1 1:0.42556322 2:0.42355453 3:0.77048456 4:0.97452259 5:0.74195012 6:0.29821833 
0.4211251806288481 1:0.75484968 2:0.69629672 3:0.59693039 4:0.33927658 5:0.062886791 6:0.8790722 
1 1:0.14775562 2:0.53515184 3:0.26065274 4:0.66907944 5:0.48353938 6:0.48045115 
1 1:0.21035646 2:0.62802306 3:0.39465793 4:0.59076377 5:0.54331164 6:0.6491631 
1 1:0.29756414 2:0.74192463 3:0.39662713 4:0.59018943 5:0.74397343 6:0.83851288 
1 1:0.14318431 2:0.64823459 3:0.54601698 4:0.95112757 5:0.40604082 6:0.47231303 
1 1:0.40948546 2:0.52023573 3:0.83873558 4:0.3549594 5:0.56169753 6:0.57245198 
1 1:0.427679 2:0.73623825 3:0.58199366 4:0.57153635 5:0.067385677 6:0.41519017 
1 1:0.36312048 2:0.72122043 3:0.52271512 4:0.21763968 5:0.59216487 6:0.48769226 
1 1:0.46218771 2:0.7325595 3:0.46684147 4:0.27408857 5:0.20998869 6:0.21649707 
0.03852358142109687 1:0.14809754 2:0.59860114 3:0.29242685 4:0.40949114 5:0.4052136 6:0.19767083 
1 1:0.76291297 2:0.67618503 3:0.38873995 4:0.086738735 5:0.53038497 6:0.40695828 
1 1:0.42764925 2:0.32205094 3:0.41214007 4:0.10195677 5:0.73739423 6:0.77515675 
1 1:0.24758041 2:0.3336494 3:0.30956586 4:0.9250233 5:0.63741546 6:0.93594824 
1 1:0.73189037 2:0.47990695 3:0.70687056 4:0.23523201 5:0.47258474 6:0.88667308 
1 1:0.55245531 2:0.72380213 3:0.6935952 4:0.76271992 5:0.71782585 6:0.52766776 
1 1:0.87639366 2:0.46020479 3:0.58992453 4:0.7680629 5:0.57919515 6:0.76944414 
1 1:0.85277532 2:0.43660494 3:0.59104395 4:0.30704637 5:0.82764912 6:0.026537309 
1 1:0.53434901 2:0.67954698 3:0.505976 4:0.37913467 5:0.53227202 6:0.51280647 
1 1:0.69413992 2:0.73915634 3:0.59631049 4:0.72262294 5:0.47046658 6:0.79141247 
1 1:0.39636873 2:0.48777347 3:0.71456904 4:0.042064648 5:0.4971553 6:0.99844678 
1 1:0.67932636 2:0.34913853 3:0.66580611 4:0.020833577 5:0.47455783 6:0.2441859 
1 1:0.85632574 2:0.56214739 3:0.65287119 4:0.24850562 5:0.44392264 6:0.76400468 
1 1:0.27407124 2:0.30662725 3:0.36770686 4:0.62481964 5:0.63377589 6:0.80900049 
1 1:0.3885274 2:0.69032202 3:0.79628075 4:0.16307812 5:0.47594085 6:0.18937934 
1 1:0.22704727 2:0.71074377 3:0.51323745 4:0.62376004 5:0.4120651 6:0.52611776 
1 1:0.76952053 2:0.37456999 3:0.27086006 4:0.087692715 5:0.60772005 6:0.22877807 
1 1:0.30003251 2:0.77657432 3:0.43454732 4:0.42011637 5:0.4056102 6:0.57874974 
1 1:0.21288686 2:0.55738656 3:0.47561023 4:0.8621819 5:0.11393895 6:0.72598915 
1 1:0.25287169 2:0.73955584 3:0.49691332 4:0.43601075 5:0.59641654 6:0.10985128 
1 1:0.82237995 2:0.48723841 3:0.40057353 4:0.10133849 5:0.48347334 6:0.71269428 
0.7012548512575089 1:0.60549896 2:0.79860978 3:0.623524 4:0.4239013 5:0.29095633 6:0.2701657 
1 1:0.37894078 2:0.73164461 3:0.49378774 4:0.97301789 5:0.42630045 6:0.7837755 
1 1:0.61441352 2:0.49226499 3:0.80229523 4:0.22777925 5:0.43868547 6:0.94270833 
1 1:0.23758092 2:0.28752153 3:0.55116191 4:0.9833996 5:0.61522383 6:0.7685932 
1 1:0.86041622 2:0.39678206 3:0.49799792 4:0.89085028 5:0.53665669 6:0.21550243 
1 1:0.64262459 2:0.3607251 3:0.7883223 4:0.74360567 5:0.33311591 6:0.21090422 
1 1:0.66759206 2:0.70309224 3:0.55190596 4:0.32359004 5:0.17390472 6:0.30195433 
1 1:0.62831041 2:0.51973883 3:0.86307466 4:0.094606085 5:0.39983705 6:0.86180234 
1 1:0.25852472 2:0.29367494 3:0.73478771 4:0.50211709 5:0.54782415 6:0.3067151 
1 1:0.22629008 2:0.55027278 3:0.2142194 4:0.47967567 5:0.22155882 6:0.44725287 
1 1:0.5778707 2:0.27721435 3:0.66805311 4:0.64827208 5:0.70245283 6:0.44916213 
1 1:0.56503919 2:0.3988219 3:0.82012735 4:0.17761725 5:0.36529304 6:0.93094314 
1 1:0.50633489 2:0.40723329 3:0.80476954 4:0.058392619 5:0.76637755 6:0.98869569 
1 1:0.33952246 2:0.67579268 3:0.24417784 4:0.10846812 5:0.63380988 6:0.58048631 
1 1:0.89270055 2:0.43483254 3:0.44336557 4:0.083401338 5:0.45642814 6:0.66494098 
1 1:0.20961972 2:0.28172227 3:0.51045895 4:0.9205745 5:0.44783145 6:0.34426911 
1 1:0.61029099 2:0.57570359 3:0.55346529 4:0.46122214 5:0.29330254 6:0.7871538 
1 1:0.54454388 2:0.48345303 3:0.15679035 4:0.41301727 5:0.61400838 6:0.053587156 
1 1:0.87911286 2:0.42742233 3:0.35130805 4:0.48948223 5:0.54750965 6:0.22409873 
1 1:0.84057581 2:0.48725364 3:0.63929148 4:0.67914929 5:0.22004727 6:0.1710307 
1 1:0.52822609 2:0.34803591 3:0.18346112 4:0.93704321 5:0.69019873 6:0.84562045 
1 1:0.56690404 2:0.30307051 3:0.22280917 4:0.43637262 5:0.51493971 6:0.66895385 
1 1:0.74609557 2:0.43626839 3:0.73955676 4:0.14564441 5:0.66222148 6:0.318947 
1 1:0.56671678 2:0.59664849 3:0.1307794 4:0.48504542 5:0.1737546 6:0.47408919 
1 1:0.75747122 2:0.54648591 3:0.38172488 4:0.29847693 5:0.76001838 6:0.78265954 
1 1:0.56084733 2:0.32625957 3:0.36918147 4:0.46688136 5:0.53683119 6:0.30072183 
1 1:0.31103873 2:0.52885412 3:0.79971607 4:0.68854065 5:0.42434735 6:0.72093397 
1 1:0.75845652 2:0.32867921 3:0.66567237 4:0.70496287 5:0.35053944 6:0.80116536 
1 1:0.21757579 2:0.60707861 3:0.69981583 4:0.15878504 5:0.69771789 6:0.99352543 
0.8674133144417945 1:0.13871846 2:0.38396251 3:0.58515416 4:0.18831627 5:0.28138898 6:0.49776733 
1 1:0.17938594 2:0.65872782 3:0.62243584 4:0.22756262 5:0.69306715 6:0.11744524 
1 1:0.60803771 2:0.4875024 3:0.87808612 4:0.70411705 5:0.54434716 6:0.07298987 
1 1:0.72412116 2:0.30337926 3:0.49087439 4:0.72451211 5:0.3851371 6:0.95853838 
1 1:0.28425535 2:0.51828104 3:0.20200338 4:0.63475623 5:0.26641693 6:0.74310914 
1 1:0.76631487 2:0.33823336 3:0.58126465 4:0.17563984 5:0.26061989 6:0.16132324 
1 1:0.65899124 2:0.26632611 3:0.54407543 4:0.80050525 5:0.17404096 6:0.099783928 
1 1:0.63641754 2:0.27721665 3:0.43210128 4:0.92806482 5:0.45823047 6:0.19877729 
1 1:0.38699947 2:0.57898 3:0.78829219 4:0.018547326 5:0.33618444 6:0.98004459 
1 1:0.14319585 2:0.37334973 3:0.49184058 4:0.4581302 5:0.37483755 6:0.22290157 
1 1:0.33913441 2:0.47834222 3:0.29741187 4:0.82513781 5:0.31866754 6:0.493034 
1 1:0.30836756 2:0.22783472 3:0.44556801 4:0.83049022 5:0.30089295 6:0.65925807 
1 1:0.30559037 2:0.67668965 3:0.28539463 4:0.62947482 5:0.26349957 6:0.044511987 
0.4996824027068758 1:0.38885324 2:0.76089893 3:0.7392142 4:0.29004704 5:0.74601856 6:0.22746761 
1 1:0.37137016 2:0.29084732 3:0.47135786 4:0.16919896 5:0.71740633 6:0.27927076 
1 1:0.86196763 2:0.47226516 3:0.69276143 4:0.16777431 5:0.53347871 6:0.51762096 
1 1:0.70196661 2:0.50954446 3:0.8626972 4:0.19754419 5:0.30037499 6:0.35451646 
1 1:0.52233193 2:0.44094966 3:0.16219677 4:0.22947168 5:0.36814521 6:0.12836197 
1 1:0.89352077 2:0.49452965 3:0.49026495 4:0.80060605 5:0.66317846 6:0.43973343 
1 1:0.63684504 2:0.75750645 3:0.50339067 4:0.35090294 5:0.46806765 6:0.024060998 
1 1:0.43954491 2:0.32250944 3:0.48267539 4:0.70812383 5:0.7617562 6:0.74200533 
1 1:0.68377366 2:0.22774863 3:0.34388957 4:0.57437255 5:0.37292235 6:0.74071834 
1 1:0.81351421 2:0.60046769 3:0.72849871 4:0.25684054 5:0.22008744 6:0.66972778 
1 1:0.35780545 2:0.36389069 3:0.18343422 4:0.17854696 5:0.25198738 6:0.18220338 
1 1:0.56320259 2:0.72328763 3:0.61558594 4:0.21791009 5:0.48607867 6:0.10389674 
1 1:0.1435764 2:0.45974739 3:0.49636048 4:0.80250557 5:0.5384973 6:0.71708247 
1 1:0.62169808 2:0.59839854 3:0.29693126 4:0.51218932 5:0.36738134 6:0.074476373 
1 1:0.32372103 2:0.5533489 3:0.32596844 4:0.12073122 5:0.63792303 6:0.3146759 
1 1:0.58490249 2:0.48323243 3:0.75450455 4:0.71209499 5:0.51334508 6:0.58742015 
1 1:0.29383359 2:0.45111998 3:0.59619348 4:0.36397688 5:0.78294823 6:0.22666739 
1 1:0.41844596 2:0.28781525 3:0.46517703 4:0.54951951 5:0.42189177 6:0.39261488 
1 1:0.26505493 2:0.32239198 3:0.50502692 4:0.54767516 5:0.32106648 6:0.77126885 
1 1:0.7548435 2:0.45019479 3:0.76002943 4:0.29572637 5:0.49971168 6:0.70439169 
1 1:0.48721482 2:0.74295931 3:0.31732634 4:0.9505375 5:0.53781541 6:0.0091061854 
1 1:0.351608 2:0.76873408 3:0.39337933 4:0.33921968 5:0.48823067 6:0.064626569 
1 1:0.18904301 2:0.4680894 3:0.29471622 4:0.27839678 5:0.29352748 6:0.1439749 
1 1:0.5607635 2:0.74463985 3:0.39791693 4:0.90059501 5:0.32271688 6:0.13205975 
1 1:0.12980101 2:0.45169381 3:0.47652281 4:0.89307718 5:0.4294016 6:0.59666927 
1 1:0.54520213 2:0.26398793 3:0.22017385 4:0.4564761 5:0.34657423 6:0.29974423 
1 1:0.64728903 2:0.25235281 3:0.58133067 4:0.17448932 5:0.17183797 6:0.99536637 
1 1:0.24785162 2:0.37354214 3:0.68137712 4:0.6806524 5:0.40698638 6:0.80368305 
1 1:0.25733773 2:0.39430625 3:0.43692371 4:0.081812596 5:0.7377014 6:0.77148054 
1 1:0.77482458 2:0.56569023 3:0.32161688 4:0.36673348 5:0.87181667 6:0.29563324 
1 1:0.15434055 2:0.63850336 3:0.47158495 4:0.13482255 5:0.43302072 6:0.66343555 
1 1:0.3561116 2:0.26557039 3:0.5508244 4:0.44598822 5:0.30901444 6:0.82779597 
1 1:0.46112763 2:0.75071955 3:0.38462958 4:0.84628483 5:0.087949804 6:0.097203774 
1 1:0.47352201 2:0.67458335 3:0.50528408 4:0.074736786 5:0.91810006 6:0.86147988 
1 1:0.23086567 2:0.41709324 3:0.23675285 4:0.96582851 5:0.44332532 6:0.82434241 
0.8958670173094271 1:0.64029925 2:0.44534157 3:0.11271976 4:0.48978505 5:0.18617112 6:0.89614919 
1 1:0.51750924 2:0.37003379 3:0.73643725 4:0.58689988 5:0.67930006 6:0.42427201 
1 1:0.58087574 2:0.26319651 3:0.38718879 4:0.94247866 5:0.40010175 6:0.2847557 
1 1:0.1189122 2:0.45848265 3:0.60314429 4:0.1688693 5:0.66787752 6:0.77702835 
1 1:0.36096407 2:0.19952608 3:0.47679311 4:0.29320566 5:0.59492581 6:0.37568008 
1 1:0.63236792 2:0.60199773 3:0.50790084 4:0.14528886 5:0.85761316 6:0.27254928 
1 1:0.66812689 2:0.54062956 3:0.17839439 4:0.18022599 5:0.49949123 6:0.50091083 
1 1:0.48520518 2:0.73742247 3:0.35928059 4:0.39488808 5:0.68257523 6:0.34084555 
1 1:0.44151439 2:0.63139661 3:0.78677747 4:0.97845171 5:0.43776043 6:0.74351274 
1 1:0.2287995 2:0.30968009 3:0.46896287 4:0.24503117 5:0.56683113 6:0.036545683 
1 1:0.40120498 2:0.54575006 3:0.84249379 4:0.34763227 5:0.4194947 6:0.18601454 
0.6185216829747219 1:0.14343306 2:0.56819223 3:0.27667107 4:0.50691869 5:0.42827635 6:0.64882118 
1 1:0.53358286 2:0.70912445 3:0.67491561 4:0.47966526 5:0.69933194 6:0.36497654 
1 1:0.84891565 2:0.40382954 3:0.49881177 4:0.65932133 5:0.50568947 6:0.71103998 
1 1:0.6025521 2:0.30523835 3:0.51424961 4:0.8506013 5:0.3880064 6:0.89678103 
1 1:0.2285775 2:0.53338146 3:0.6275742 4:0.79276267 5:0.10405497 6:0.58164383 
1 1:0.29881457 2:0.61781849 3:0.7434721 4:0.22468018 5:0.41957291 6:0.088863858 
1 1:0.40197694 2:0.72832098 3:0.51201114 4:0.63608627 5:0.66137241 6:0.7934973 
1 1:0.29201072 2:0.76115123 3:0.3898806 4:0.51027157 5:0.34615529 6:0.059102425 
1 1:0.73175122 2:0.55023954 3:0.36985695 4:0.82881479 5:0.62981952 6:0.43370083 
1 1:0.25186392 2:0.50239273 3:0.28728637 4:0.61646818 5:0.93181938 6:0.50957959 
0.9921676441395046 1:0.58093739 2:0.38748898 3:0.82328899 4:0.93531103 5:0.5154092 6:0.92950663 
1 1:0.54537935 2:0.27209515 3:0.44620124 4:0.90540929 5:0.11674243 6:0.19235187 
1 1:0.72055579 2:0.53798165 3:0.33203638 4:0.27711182 5:0.67416247 6:0.69533956 
1 1:0.32996041 2:0.27954455 3:0.26052031 4:0.55545662 5:0.74748327 6:0.5542992 
1 1:0.20483137 2:0.6173177 3:0.27427018 4:0.69076556 5:0.32975984 6:0.59289416 
1 1:0.44173843 2:0.66901773 3:0.4614631 4:0.97903629 5:0.79166561 6:0.071746732 
1 1:0.49551829 2:0.43042397 3:0.68512638 4:0.0065705762 5:0.41199538 6:0.7761737 
1 1:0.74913284 2:0.37110364 3:0.28492123 4:0.11887754 5:0.33891126 6:0.53659895 
1 1:0.24818905 2:0.5432805 3:0.43146973 4:0.16188987 5:0.45370832 6:0.8234075 
1 1:0.62542137 2:0.58203902 3:0.62447091 4:0.90037607 5:0.83281541 6:0.10236078 
1 1:0.42150302 2:0.33446778 3:0.59310979 4:0.51533117 5:0.66408272 6:0.18227151 
0.8278090718647488 1:0.23064188 2:0.6268627 3:0.24039789 4:0.24625619 5:0.4164622 6:0.89469217 
1 1:0.19582966 2:0.36586937 3:0.63269867 4:0.92339784 5:0.58328535 6:0.94658602 
1 1:0.48479395 2:0.62224802 3:0.74582599 4:0.442467 5:0.20019962 6:0.36176569 
1 1:0.38348802 2:0.72269209 3:0.72309118 4:0.2181096 5:0.7842944 6:0.41787366 
1 1:0.68638071 2:0.51523872 3:0.49775748 4:0.37067604 5:0.60934365 6:0.79048529 
1 1:0.1681393 2:0.38073312 3:0.63508428 4:0.66859536 5:0.35562314 6:0.99457932 
1 1:0.7390332 2:0.40848217 3:0.36354843 4:0.52307605 5:0.7645422 6:0.23499663 
1 1:0.55705311 2:0.26814871 3:0.72064852 4:0.13952618 5:0.58705547 6:0.021158484 
1 1:0.27286977 2:0.2438963 3:0.64326268 4:0.74525235 5:0.44023416 6:0.34384249 
1 1:0.83654911 2:0.58397102 3:0.43400864 4:0.70427243 5:0.45119988 6:0.23257783 
1 1:0.28904322 2:0.43892479 3:0.82738531 4:0.46462202 5:0.58432282 6:0.02803937 
1 1:0.66115922 2:0.62770635 3:0.58251063 4:0.8020964 5:0.089884499 6:0.89605229 
1 1:0.60264221 2:0.33764667 3:0.2278843 4:0.59719803 5:0.17033745 6:0.38059645 
1 1:0.59144434 2:0.20297834 3:0.56254351 4:0.77974294 5:0.3205416 6:0.7180901 
1 1:0.35996615 2:0.56960445 3:0.79503545 4:0.67449476 5:0.56620665 6:0.87433386 
1 1:0.46553579 2:0.44829228 3:0.22097477 4:0.12043573 5:0.39704427 6:0.97485893 
1 1:0.66692343 2:0.28677115 3:0.51411024 4:0.74675165 5:0.93422616 6:0.88569245 
1 1:0.27250796 2:0.34904286 3:0.71257463 4:0.086181532 5:0.23440545 6:0.68018945 
1 1:0.52644381 2:0.40902811 3:0.54924978 4:0.50726841 5:0.40981318 6:0.30356566 
1 1:0.72082454 2:0.55788812 3:0.82138545 4:0.81193606 5:0.32776898 6:0.6455931 
1 1:0.25456791 2:0.72334978 3:0.39579343 4:0.44458624 5:0.57048645 6:0.92341177 
1 1:0.82243072 2:0.45200624 3:0.57852334 4:0.77736981 5:0.45523751 6:0.32982899 
1 1:0.3149809 2:0.60236486 3:0.69601446 4:0.61152888 5:0.35769924 6:0.43876025 
1 1:0.63338813 2:0.74911713 3:0.57788316 4:0.47970361 5:0.44809775 6:0.11892468 
0.04822309908131482 1:0.59651379 2:0.50490947 3:0.84225944 4:0.95219075 5:0.832231 6:0.21485727 
1 1:0.38481677 2:0.69774163 3:0.51564601 4:0.13152308 5:0.37737116 6:0.20619075 
1 1:0.29717512 2:0.39658043 3:0.37673668 4:0.50529173 5:0.67821284 6:0.74795925 
1 1:0.17479687 2:0.53339994 3:0.70763137 4:0.73939166 5:0.31638031 6:0.84972903 
1 1:0.69794559 2:0.67863863 3:0.3265472 4:0.235237 5:0.67719038 6:0.53118825 
1 1:0.29611174 2:0.75403171 3:0.37144711 4:0.87451965 5:0.5773386 6:0.56477379 
1 1:0.90139787 2:0.45953382 3:0.53194958 4:0.43336457 5:0.26406028 6:0.57070449 
1 1:0.30797752 2:0.35236149 3:0.76240508 4:0.23397118 5:0.34382324 6:0.01586304 
1 1:0.4738 2:0.73263316 3:0.53565442 4:0.96883908 5:0.65556006 6:0.54022241 
1 1:0.81249053 2:0.42982145 3:0.54201203 4:0.65507733 5:0.49969756 6:0.12139922 
1 1:0.3059301 2:0.25607674 3:0.37515133 4:0.42366628 5:0.28363867 6:0.73469797 
1 1:0.19714223 2:0.63868433 3:0.74668522 4:0.65655149 5:0.61874238 6:0.1691005 
1 1:0.87041066 2:0.46829493 3:0.51715432 4:0.26549405 5:0.7062785 6:0.59181602 
1 1:0.71139573 2:0.71450159 3:0.5453289 4:0.25735572 5:0.5002828 6:0.74912013 
1 1:0.70149898 2:0.52833191 3:0.27175977 4:0.68476948 5:0.33506385 6:0.26653853 
1 1:0.37610967 2:0.39631504 3:0.24108092 4:0.79655101 5:0.62389927 6:0.5861844 
1 1:0.39742391 2:0.26274235 3:0.59514685 4:0.2221122 5:0.70018375 6:0.52054151 
1 1:0.53066952 2:0.75000936 3:0.43815608 4:0.63771407 5:0.34599481 6:0.8270349 
1 1:0.53822495 2:0.26184581 3:0.40137393 4:0.91037841 5:0.50347423 6:0.71972542 
1 1:0.38484958 2:0.25401549 3:0.32793518 4:0.6423654 5:0.41187901 6:0.44343739 
0.04542628940644901 1:0.36987207 2:0.35451244 3:0.81222856 4:0.45050468 5:0.92983032 6:0.72887289 
1 1:0.096553825 2:0.46327496 3:0.37500144 4:0.56720437 5:0.63812048 6:0.32565212 
1 1:0.39891438 2:0.28681276 3:0.72087019 4:0.34444397 5:0.35361654 6:0.7271587 
1 1:0.62357169 2:0.6099294 3:0.82425312 4:0.48664327 5:0.49073271 6:0.044600962 
1 1:0.40304344 2:0.32854187 3:0.19998707 4:0.56735075 5:0.34211925 6:0.12559395 
1 1:0.73107501 2:0.4376304 3:0.27145324 4:0.69968137 5:0.38832145 6:0.32589995 
1 1:0.40150712 2:0.34428709 3:0.35973012 4:0.4317147 5:0.6722976 6:0.32663785 
1 1:0.18978727 2:0.37262656 3:0.31577293 4:0.17639685 5:0.50433977 6:0.90805968 
1 1:0.15245411 2:0.52894166 3:0.61844945 4:0.29385549 5:0.68942195 6:0.69152279 
1 1:0.6529757 2:0.29114694 3:0.28689624 4:0.27351542 5:0.3220817 6:0.64608655 
1 1:0.50288648 2:0.74840489 3:0.50057431 4:0.525625 5:0.21705093 6:0.05772343 
1 1:0.44277899 2:0.69533772 3:0.6710099 4:0.60942594 5:0.61513739 6:0.41368072 
1 1:0.29876467 2:0.2850165 3:0.25299216 4:0.74616884 5:0.43071938 6:0.28015732 
1 1:0.51279457 2:0.23331619 3:0.56024859 4:0.14117441 5:0.46589436 6:0.16608348 
1 1:0.65281692 2:0.64172435 3:0.71644433 4:0.26705581 5:0.2860331 6:0.50793896 
1 1:0.73483104 2:0.44963542 3:0.22638592 4:0.40424576 5:0.37467228 6:0.43625451 
1 1:0.62729546 2:0.80368549 3:0.51837897 4:0.40440762 5:0.56186341 6:0.43070444 
1 1:0.59813082 2:0.19337669 3:0.42666536 4:0.58624766 5:0.45631508 6:0.80013706 
1 1:0.19093118 2:0.32308809 3:0.54014376 4:0.3788979 5:0.54065823 6:0.58934951 
1 1:0.61785949 2:0.77200283 3:0.52804467 4:0.44165471 5:0.49666667 6:0.68754901 
1 1:0.32650568 2:0.26644445 3:0.51984022 4:0.023175726 5:0.64208688 6:0.0028680182 
0.7807199046213356 1:0.3679838 2:0.50946199 3:0.88820523 4:0.082062039 5:0.66139284 6:0.27905515 
1 1:0.64359857 2:0.63510597 3:0.50678127 4:0.45342444 5:0.93450443 6:0.86874407 
1 1:0.66281475 2:0.71038362 3:0.43646423 4:0.22082343 5:0.75018724 6:0.56252413 
1 1:0.36247056 2:0.69432091 3:0.22309149 4:0.098524746 5:0.60782471 6:0.47106701 
1 1:0.4878106 2:0.773857 3:0.58928053 4:0.12655001 5:0.37323701 6:0.5826074 
1 1:0.64388788 2:0.34252483 3:0.78397628 4:0.12301403 5:0.76271446 6:0.26401428 
1 1:0.12876736 2:0.42794659 3:0.65490532 4:0.42886534 5:0.27644592 6:0.26846974 
1 1:0.4350812 2:0.67260935 3:0.17929442 4:0.68249917 5:0.45946556 6:0.01688076 
1 1:0.54554657 2:0.24804931 3:0.56915576 4:0.7894946 5:0.21870542 6:0.2678752 
1 1:0.22720329 2:0.63211254 3:0.36677435 4:0.92025689 5:0.74073624 6:0.26246368 
1 1:0.42974091 2:0.32085142 3:0.28325635 4:0.57345303 5:0.54540406 6:0.39580027 
1 1:0.79808256 2:0.43124948 3:0.26310886 4:0.56298772 5:0.5989618 6:0.36893434 
0.9270314398250254 1:0.12574036 2:0.61424873 3:0.51146711 4:0.045839725 5:0.66663412 6:0.3488883 
1 1:0.22562674 2:0.33957102 3:0.33547771 4:0.25985648 5:0.72644828 6:0.75221305 
1 1:0.46066535 2:0.4585281 3:0.12852717 4:0.66115873 5:0.42734121 6:0.88382224 
1 1:0.57644504 2:0.20671903 3:0.5615481 4:0.59719562 5:0.60633588 6:0.88052256 
1 1:0.72958747 2:0.36725667 3:0.75464201 4:0.14122628 5:0.63354435 6:0.77044479 
1 1:0.2133533 2:0.57822345 3:0.74778949 4:0.036408909 5:0.495408 6:0.13777346 
1 1:0.59930726 2:0.31790233 3:0.44901952 4:0.44242902 5:0.36847959 6:0.081647685 
1 1:0.40802516 2:0.31071759 3:0.34628489 4:0.0043018437 5:0.58987211 6:0.36890879 
1 1:0.3680877 2:0.25228552 3:0.51954375 4:0.067414922 5:0.6598969 6:0.55526769 
1 1:0.30477464 2:0.54447035 3:0.26642295 4:0.0050320522 5:0.15336198 6:0.28884191 
1 1:0.46954677 2:0.73597195 3:0.4615083 4:0.76751274 5:0.53741112 6:0.39050524 
1 1:0.454976 2:0.58842555 3:0.16790556 4:0.52937814 5:0.56928752 6:0.034310138 
1 1:0.237685 2:0.39788393 3:0.35378005 4:0.84854601 5:0.42115008 6:0.61325089 
1 1:0.56779661 2:0.35177034 3:0.73414873 4:0.92316786 5:0.32076345 6:0.98456389 
1 1:0.56632154 2:0.79981524 3:0.50438623 4:0.99998476 5:0.44144311 6:0.12165087 
1 1:0.13502256 2:0.39898053 3:0.60693626 4:0.7707434 5:0.42198895 6:0.65568561 
1 1:0.80986723 2:0.45731129 3:0.58650557 4:0.090641143 5:0.73270436 6:0.29579809 
1 1:0.75251685 2:0.37404173 3:0.38537526 4:0.39240175 5:0.31052002 6:0.32901275 
1 1:0.27230926 2:0.24019341 3:0.50875213 4:0.7867733 5:0.3468467 6:0.13279815 
1 1:0.2648405 2:0.37826444 3:0.65348507 4:0.69695045 5:0.40624622 6:0.82113425 
1 1:0.51183185 2:0.20986578 3:0.39423331 4:0.44569217 5:0.8109431 6:0.66792757 
1 1:0.65882887 2:0.75500195 3:0.49851358 4:0.055643229 5:0.34863781 6:0.38199074 
1 1:0.5864213 2:0.49912073 3:0.83761621 4:0.95561836 5:0.4735551 6:0.21633584 
1 1:0.65666783 2:0.5521804 3:0.65254446 4:0.23254555 5:0.25354027 6:0.79713481 
1 1:0.49974209 2:0.67226578 3:0.57736846 4:0.41707699 5:0.41355297 6:0.58661177 
1 1:0.36431462 2:0.67102682 3:0.27624965 4:0.26249981 5:0.40025106 6:0.37453161 
1 1:0.12284821 2:0.56135731 3:0.64581472 4:0.22766558 5:0.55926692 6:0.90321407 
1 1:0.33974863 2:0.72847643 3:0.62579335 4:0.81160952 5:0.60219079 6:0.27666957 
1 1:0.18505577 2:0.37277674 3:0.43657095 4:0.51275088 5:0.46811735 6:0.2262924 
1 1:0.2799455 2:0.64036771 3:0.29703138 4:0.69848001 5:0.56376797 6:0.77109833 
1 1:0.1372416 2:0.38983883 3:0.47776687 4:0.68674781 5:0.32612293 6:0.89738735 
1 1:0.24949422 2:0.53722884 3:0.6361496 4:0.080887692 5:0.69238909 6:0.64929336 
1 1:0.13627199 2:0.40263157 3:0.40603487 4:0.85946678 5:0.64222455 6:0.35257859 
1 1:0.55125869 2:0.65078569 3:0.59056226 4:0.40862866 5:0.57875319 6:0.55240345 
1 1:0.4971274 2:0.28588062 3:0.70007552 4:0.53992521 5:0.23121658 6:0.19741927 
1 1:0.60225336 2:0.31092599 3:0.38487836 4:0.80927169 5:0.7128345 6:0.57618297 
1 1:0.58654452 2:0.66291688 3:0.301556 4:0.56568813 5:0.25728376 6:0.49609106 
1 1:0.17420772 2:0.56994434 3:0.57459121 4:0.69454274 5:0.62669624 6:0.2519879 
1 1:0.67453685 2:0.48042318 3:0.15206101 4:0.88450438 5:0.5965074 6:0.042914679 
1 1:0.38424061 2:0.28702387 3:0.24093123 4:0.80025003 5:0.61185511 6:0.016411311 
1 1:0.47166684 2:0.55082223 3:0.81710998 4:0.76081878 5:0.71926469 6:0.95624979 
1 1:0.54131566 2:0.26178363 3:0.65257999 4:0.6152391 5:0.70125702 6:0.31857571 
1 1:0.22870218 2:0.66392204 3:0.63554224 4:0.56936486 5:0.83786535 6:0.74079575 
1 1:0.27359424 2:0.76112105 3:0.55254297 4:0.24462405 5:0.51318787 6:0.11067407 
1 1:0.57091665 2:0.4472422 3:0.86760172 4:0.19718992 5:0.51458578 6:0.51055106 
1 1:0.34399201 2:0.2883125 3:0.61933698 4:0.032535658 5:0.32829354 6:0.5667492 
1 1:0.3143346 2:0.74396657 3:0.47475297 4:0.030297209 5:0.74853605 6:0.047406346 
1 1:0.42490522 2:0.72765582 3:0.40793077 4:0.741144 5:0.54599733 6:0.60782987 
1 1:0.70684698 2:0.38645389 3:0.57329875 4:0.69232998 5:0.20692056 6:0.69503483 
1 1:0.19570062 2:0.61504111 3:0.3685443 4:0.93709043 5:0.77427955 6:0.10632259 
1 1:0.70989148 2:0.45973669 3:0.80075512 4:0.74994182 5:0.4951668 6:0.22320363 
1 1:0.52184822 2:0.35768106 3:0.27795214 4:0.67859609 5:0.20791158 6:0.054550456 
0.7187085888110446 1:0.48571091 2:0.22124186 3:0.67110523 4:0.87640285 5:0.2751191 6:0.53666036 
1 1:0.6887295 2:0.7151255 3:0.55413025 4:0.51679726 5:0.76169574 6:0.68282552 
1 1:0.77269292 2:0.60957815 3:0.49599257 4:0.65492323 5:0.82779653 6:0.55118457 
1 1:0.51597895 2:0.61095806 3:0.16750128 4:0.93555888 5:0.4616324 6:0.8052846 
1 1:0.7527922 2:0.35669341 3:0.27427255 4:0.27818334 5:0.23275776 6:0.92068123 
1 1:0.30714936 2:0.69733663 3:0.31111997 4:0.66610032 5:0.4001513 6:0.25273744 
1 1:0.29095499 2:0.72886409 3:0.56401816 4:0.5337252 5:0.29678674 6:0.013732038 
1 1:0.66422721 2:0.49545203 3:0.35259895 4:0.8824186 5:0.79376975 6:0.45095996 
1 1:0.52612845 2:0.57137671 3:0.26031915 4:0.63654619 5:0.48521326 6:0.55716256 
1 1:0.32879056 2:0.71620916 3:0.21765642 4:0.53909056 5:0.51957369 6:0.2659732 
1 1:0.152326 2:0.6451022 3:0.3648837 4:0.26444648 5:0.76323274 6:0.52347001 
1 1:0.7717238 2:0.72917221 3:0.43687898 4:0.39331671 5:0.57346725 6:0.088450095 
1 1:0.24098728 2:0.53709828 3:0.41441967 4:0.24972049 5:0.56550554 6:0.4122147 
1 1:0.46468159 2:0.30542749 3:0.2071096 4:0.84114404 5:0.4548735 6:0.076836713 
1 1:0.53384666 2:0.75374054 3:0.70353898 4:0.91660134 5:0.32818807 6:0.043390959 
0.6131754562835979 1:0.099502008 2:0.5827326 3:0.35770136 4:0.85129483 5:0.45291732 6:0.087019808 
1 1:0.51267605 2:0.45714641 3:0.21055186 4:0.26285831 5:0.47920324 6:0.54511465 
1 1:0.60511377 2:0.31064937 3:0.37651855 4:0.12502741 5:0.67813461 6:0.7995084 
1 1:0.71040309 2:0.26568883 3:0.4357886 4:0.61813394 5:0.029538653 6:0.85532025 
1 1:0.66920648 2:0.73368445 3:0.46240077 4:0.18702694 5:0.85474315 6:0.41795667 
1 1:0.48747109 2:0.49447821 3:0.1887252 4:0.42289727 5:0.78057508 6:0.65730866 
1 1:0.24098143 2:0.66966928 3:0.37285713 4:0.69602252 5:0.34300814 6:0.6053758 
1 1:0.4482527 2:0.64718573 3:0.3270007 4:0.75397014 5:0.31531085 6:0.57808173 
1 1:0.45454526 2:0.74013518 3:0.51572951 4:0.47447298 5:0.35713866 6:0.19319323 
1 1:0.76727002 2:0.37881753 3:0.53269359 4:0.61552146 5:0.29301166 6:0.68639582 
1 1:0.17649539 2:0.48817747 3:0.66582713 4:0.32739836 5:0.82398758 6:0.64503971 
1 1:0.22760897 2:0.46746157 3:0.20665527 4:0.88958854 5:0.40616596 6:0.73115508 
1 1:0.67526723 2:0.2410712 3:0.61952452 4:0.82774002 5:0.59797399 6:0.71798378 
1 1:0.55614559 2:0.64944081 3:0.62430698 4:0.61612937 5:0.66346906 6:0.68171552 
1 1:0.39782867 2:0.43855303 3:0.8206709 4:0.7711261 5:0.55405821 6:0.93979273 
1 1:0.45361695 2:0.51103628 3:0.85112339 4:0.15405388 5:0.54396799 6:0.13683089 
1 1:0.49531288 2:0.22879152 3:0.43787549 4:0.21459513 5:0.75127243 6:0.35914334 
1 1:0.52950794 2:0.68378309 3:0.37274478 4:0.88412756 5:0.55967313 6:0.14342695 
0.6585312471971139 1:0.22735128 2:0.43751796 3:0.19124725 4:0.2398494 5:0.50004981 6:0.29002966 
1 1:0.692673 2:0.33489604 3:0.77144072 4:0.18690595 5:0.44155741 6:0.79023306 
1 1:0.25255493 2:0.69421882 3:0.66103207 4:0.095879238 5:0.58149736 6:0.41544746 
1 1:0.1448162 2:0.66097231 3:0.46805385 4:0.33895537 5:0.66438635 6:0.44502458 
1 1:0.3060704 2:0.71163152 3:0.57542042 4:0.87584866 5:0.79361897 6:0.29422981 
1 1:0.25100814 2:0.56862683 3:0.76795188 4:0.57537525 5:0.36218411 6:0.054994379 
1 1:0.5301251 2:0.24699134 3:0.31111858 4:0.67042434 5:0.48767217 6:0.29031098 
1 1:0.52181865 2:0.72606892 3:0.26366535 4:0.9970417 5:0.31209025 6:0.75369615 
1 1:0.36386262 2:0.65142223 3:0.46050847 4:0.40703365 5:0.45743086 6:0.29849487 
1 1:0.42241504 2:0.31318865 3:0.65177751 4:0.10437921 5:0.186778 6:0.82604866 
1 1:0.41188841 2:0.72267572 3:0.42771525 4:0.99250942 5:0.10583141 6:0.24470564 
1 1:0.71945607 2:0.29663728 3:0.44887717 4:0.84777975 5:0.64135161 6:0.7586153 
1 1:0.74655068 2:0.29787696 3:0.34869294 4:0.017109287 5:0.58441458 6:0.4407879 
1 1:0.60787526 2:0.77416645 3:0.55517282 4:0.99689711 5:0.53675196 6:0.4000118 
1 1:0.68483687 2:0.36638773 3:0.43099313 4:0.6322575 5:0.8272693 6:0.88646234 
0.3872637309733962 1:0.25666089 2:0.4054439 3:0.20220755 4:0.19509316 5:0.34061317 6:0.94359111 
1 1:0.57493558 2:0.69887542 3:0.7152472 4:0.40979854 5:0.2137585 6:0.075036459 
1 1:0.35436665 2:0.55474965 3:0.76711482 4:0.842585 5:0.55192966 6:0.94335873 
1 1:0.53259634 2:0.20989493 3:0.62475535 4:0.497213 5:0.76593515 6:0.86799897 
1 1:0.66416231 2:0.41341031 3:0.239646 4:0.74623892 5:0.54260675 6:0.86397039 
1 1:0.65499629 2:0.3717518 3:0.18773728 4:0.4184011 5:0.60413544 6:0.96487647 
1 1:0.58362477 2:0.52414468 3:0.79538544 4:0.88038828 5:0.64033565 6:0.61765356 
1 1:0.57457034 2:0.28313837 3:0.5096666 4:0.14806015 5:0.92732597 6:0.5214121 
1 1:0.61808674 2:0.63597988 3:0.3851322 4:0.91926357 5:0.47066971 6:0.79976301 
1 1:0.8246059 2:0.55818661 3:0.69988737 4:0.55043069 5:0.65277256 6:0.087338772 
1 1:0.23407584 2:0.32576321 3:0.5236851 4:0.78768671 5:0.95562563 6:0.48471522 
1 1:0.68186217 2:0.37841387 3:0.42168446 4:0.57687274 5:0.061858259 6:0.61550546 
1 1:0.86586363 2:0.45934195 3:0.39319546 4:0.57505334 5:0.095734656 6:0.32811219 
1 1:0.26146474 2:0.56769028 3:0.2910645 4:0.1618506 5:0.94933755 6:0.32676427 
1 1:0.66412764 2:0.35524825 3:0.40115817 4:0.56908903 5:0.5871281 6:0.35790608 
1 1:0.74106492 2:0.59847874 3:0.64991221 4:0.33044593 5:0.38405837 6:0.36870648 
1 1:0.16801763 2:0.4544871 3:0.65837992 4:0.54171387 5:0.43765141 6:0.064638026 
1 1:0.45632727 2:0.75981736 3:0.56924727 4:0.97156337 5:0.7583287 6:0.45504368 
1 1:0.38243783 2:0.7492618 3:0.28854299 4:0.3864819 5:0.4202864 6:0.81103423 
1 1:0.32063861 2:0.5644723 3:0.47094643 4:0.020852709 5:0.31044927 6:0.24034055 
1 1:0.61397109 2:0.32357272 3:0.24042043 4:0.7404245 5:0.32806467 6:0.25171167 
1 1:0.28445214 2:0.39609931 3:0.78508509 4:0.96931532 5:0.71351032 6:0.11570161 
1 1:0.5304903 2:0.24484435 3:0.53825381 4:0.8987075 5:0.29323005 6:0.90454082 
1 1:0.61677077 2:0.28629409 3:0.57696266 4:0.52890158 5:0.45402856 6:0.78264484 
1 1:0.78568989 2:0.43766623 3:0.37754692 4:0.68564801 5:0.71696075 6:0.18146847 
1 1:0.23854048 2:0.62114506 3:0.54319338 4:0.84772945 5:0.25673551 6:0.53726105 
1 1:0.4136733 2:0.76361235 3:0.4043543 4:0.40007084 5:0.72290566 6:0.74583088 
1 1:0.66122975 2:0.27383897 3:0.45910823 4:0.69091125 5:0.7019447 6:0.20947427 
1 1:0.25039401 2:0.73282427 3:0.61552639 4:0.46095873 5:0.76956215 6:0.015340161 
1 1:0.48759526 2:0.46330087 3:0.14041603 4:0.58733753 5:0.66793185 6:0.039260406 
1 1:0.74432053 2:0.60934865 3:0.76621228 4:0.47555195 5:0.56699343 6:0.67991513 
1 1:0.48089925 2:0.6886561 3:0.53861651 4:0.31196691 5:0.83721875 6:0.27747802 
1 1:0.63136758 2:0.6316127 3:0.24502876 4:0.39786917 5:0.81411889 6:0.068333351 
1 1:0.34658637 2:0.74264238 3:0.57485067 4:0.13100989 5:0.86601821 6:0.28763981 
1 1:0.37498716 2:0.59342156 3:0.87179429 4:0.40744118 5:0.51300673 6:0.58336455 
1 1:0.50289826 2:0.71015716 3:0.33962263 4:0.49508052 5:0.90721088 6:0.34146017 
1 1:0.10986521 2:0.42402866 3:0.46528086 4:0.63345793 5:0.265173 6:0.39768957 
1 1:0.62209664 2:0.27198812 3:0.64766979 4:0.077224275 5:0.46213013 6:0.6307314 
1 1:0.54875496 2:0.71087835 3:0.306124 4:0.60783872 5:0.33694823 6:0.094309815 
1 1:0.80424253 2:0.61373295 3:0.31633346 4:0.40484098 5:0.66483363 6:0.66974688 
1 1:0.58606488 2:0.68159795 3:0.78193994 4:0.89002808 5:0.61013591 6:0.64872973 
1 1:0.62937046 2:0.42952156 3:0.53110517 4:0.04757153 5:0.35958721 6:0.79739598 
1 1:0.65359728 2:0.53685025 3:0.2136334 4:0.38765999 5:0.67847529 6:0.59493932 
1 1:0.69181162 2:0.52937822 3:0.43695252 4:0.73632012 5:0.66973559 6:0.25171008 
1 1:0.65781058 2:0.43020132 3:0.4347903 4:0.61132324 5:0.2379459 6:0.17207967 
1 1:0.73717511 2:0.50119326 3:0.21672982 4:0.90608098 5:0.46735427 6:0.94024101 
1 1:0.23634104 2:0.3995301 3:0.67693123 4:0.7496532 5:0.36928403 6:0.39509474 
1 1:0.50423366 2:0.78094071 3:0.59458207 4:0.57682253 5:0.33234257 6:0.6158925 
1 1:0.2598252 2:0.24323496 3:0.58816232 4:0.5843966 5:0.38661286 6:0.52147379 
1 1:0.63609999 2:0.67650403 3:0.27170034 4:0.91874132 5:0.37412336 6:0.19802706 
1 1:0.3561274 2:0.69678656 3:0.49442011 4:0.75071206 5:0.17861606 6:0.092459095 
1 1:0.22444157 2:0.56291855 3:0.72374398 4:0.72263102 5:0.73204366 6:0.34221564 
0.5016701794784713 1:0.72370554 2:0.76508826 3:0.52231558 4:0.11824109 5:0.56555972 6:0.77252651 
1 1:0.36768489 2:0.57834283 3:0.12980228 4:0.51402944 5:0.54366165 6:0.57002933 
1 1:0.36567842 2:0.33199393 3:0.37049619 4:0.52933975 5:0.7364469 6:0.93948411 
1 1:0.73385504 2:0.29334654 3:0.37936669 4:0.43232507 5:0.13310046 6:0.11112571 
1 1:0.56585968 2:0.55421129 3:0.14164727 4:0.83323353 5:0.59872268 6:0.58980198 
1 1:0.25650811 2:0.52578502 3:0.75573622 4:0.56031991 5:0.19453012 6:0.34082792 
1 1:0.31143104 2:0.6783305 3:0.31087406 4:0.90431033 5:0.18271806 6:0.3463264 
1 1:0.15666322 2:0.57869561 3:0.64005177 4:0.21529332 5:0.65790778 6:0.13541904 
1 1:0.69635993 2:0.47429794 3:0.82785714 4:0.042096118 5:0.52983255 6:0.4109153 
1 1:0.77944759 2:0.58140869 3:0.5515074 4:0.17523419 5:0.39543976 6:0.90793796 
0.579516837203336 1:0.19296339 2:0.55655573 3:0.80299176 4:0.77957469 5:0.65234414 6:0.21804867 
1 1:0.32806505 2:0.32391653 3:0.61231344 4:0.42776656 5:0.86579502 6:0.59227271 
1 1:0.4513163 2:0.69846582 3:0.81151303 4:0.40028686 5:0.6452702 6:0.99847093 
1 1:0.18331721 2:0.61075402 3:0.57420762 4:0.59407918 5:0.81389429 6:0.90417601 
1 1:0.52657449 2:0.2572824 3:0.63374908 4:0.091817856 5:0.20589952 6:0.14392129 
1 1:0.60970764 2:0.68959471 3:0.74425041 4:0.40522539 5:0.16213331 6:0.012505653 
1 1:0.50266946 2:0.47792775 3:0.30175053 4:0.26614638 5:0.4949393 6:0.47143211 
1 1:0.51762288 2:0.57486596 3:0.16725661 4:0.63610589 5:0.58257726 6:0.6533829 
1 1:0.76315385 2:0.49308128 3:0.73450854 4:0.97467581 5:0.2495707 6:0.39491971 
1 1:0.15567177 2:0.42820156 3:0.28512846 4:0.56919789 5:0.38720263 6:0.79889513 
1 1:0.46494708 2:0.63411252 3:0.75207359 4:0.43235652 5:0.43910905 6:0.27794225 
1 1:0.57389407 2:0.65407875 3:0.18793496 4:0.41708611 5:0.28305636 6:0.66830179 
1 1:0.26500424 2:0.34224886 3:0.68456914 4:0.38621327 5:0.64798137 6:0.12068729 
1 1:0.24151347 2:0.53304968 3:0.65152221 4:0.060714425 5:0.71921649 6:0.51626049 
1 1:0.52569712 2:0.75785792 3:0.30253734 4:0.25699915 5:0.49186987 6:0.95517779 
1 1:0.34414219 2:0.74530862 3:0.39204662 4:0.067904453 5:0.64051936 6:0.80059901 
1 1:0.65795752 2:0.43256213 3:0.30206714 4:0.74868252 5:0.31939405 6:0.36953457 
1 1:0.49152374 2:0.36214182 3:0.58430135 4:0.71395337 5:0.68022723 6:0.52458328 
1 1:0.26251313 2:0.31435652 3:0.66287269 4:0.78007808 5:0.86074824 6:0.24192865 
1 1:0.29904743 2:0.67123279 3:0.19963961 4:0.54363425 5:0.61149651 6:0.084936836 
1 1:0.56710902 2:0.45238971 3:0.81468695 4:0.52442121 5:0.72146986 6:0.63818601 
1 1:0.39878143 2:0.50951823 3:0.27499462 4:0.9385654 5:0.75291716 6:0.68766661 
1 1:0.54018492 2:0.31690473 3:0.76655108 4:0.58042939 5:0.92316702 6:0.36280614 
1 1:0.69325429 2:0.58919287 3:0.62148126 4:0.50342649 5:0.8133766 6:0.35392176 
1 1:0.5089102 2:0.33048527 3:0.36671456 4:0.92899907 5:0.80387013 6:0.17025719 
1 1:0.73240444 2:0.75529638 3:0.41298534 4:0.60558333 5:0.70898536 6:0.63381071 
1 1:0.85954145 2:0.58072954 3:0.50692267 4:0.81153597 5:0.72537563 6:0.078329568 
1 1:0.57881371 2:0.28540305 3:0.63140423 4:0.14795372 5:0.51604468 6:0.87604623 
1 1:0.27572327 2:0.66591682 3:0.528607 4:0.39224445 5:0.23442063 6:0.74637523 
1 1:0.7016185 2:0.64477348 3:0.17911132 4:0.66465214 5:0.58322586 6:0.70935267 
1 1:0.33792298 2:0.44549542 3:0.17148733 4:0.48945386 5:0.37504045 6:0.23972546 
1 1:0.32910093 2:0.66549214 3:0.61129496 4:0.23421985 5:0.13053433 6:0.22060291 
1 1:0.26853649 2:0.50707507 3:0.65937048 4:0.91252339 5:0.51312101 6:0.90095222 
1 1:0.53095815 2:0.24944057 3:0.41955467 4:0.06653325 5:0.84319456 6:0.5066759 
1 1:0.47196131 2:0.43616274 3:0.10965868 4:0.28440069 5:0.47569038 6:0.45010927 
1 1:0.50079099 2:0.40398397 3:0.34295895 4:0.023781164 5:0.44236788 6:0.60889199 
1 1:0.83180632 2:0.41520066 3:0.61799122 4:0.66996837 5:0.29052486 6:0.082547359 
1 1:0.31529729 2:0.253516 3:0.54893618 4:0.34190374 5:0.22374626 6:0.46962243 
1 1:0.47029623 2:0.22548434 3:0.33729787 4:0.058130816 5:0.61075707 6:0.63200668 
1 1:0.61162091 2:0.421682 3:0.80480128 4:0.77334103 5:0.72863671 6:0.13763402 
1 1:0.24309869 2:0.60923435 3:0.36052658 4:0.26774209 5:0.50602887 6:0.20647355 
1 1:0.68688905 2:0.4072219 3:0.20839871 4:0.9769045 5:0.56590706 6:0.38346495 
1 1:0.43937904 2:0.33912059 3:0.27394807 4:0.89104178 5:0.65287739 6:0.48183818 
1 1:0.56494627 2:0.35501761 3:0.82576666 4:0.63709364 5:0.69563162 6:0.094184363 
1 1:0.50697748 2:0.64790848 3:0.86604073 4:0.71941303 5:0.51385865 6:0.12986336 
1 1:0.43653582 2:0.27089937 3:0.39109602 4:0.7397033 5:0.43892734 6:0.97579579 
1 1:0.72235495 2:0.68578452 3:0.5783434 4:0.93918677 5:0.59002271 6:0.65511267 
1 1:0.60655265 2:0.43112537 3:0.84555052 4:0.26481921 5:0.45461271 6:0.0089270119 
1 1:0.43181148 2:0.66937613 3:0.3632479 4:0.77842567 5:0.90874039 6:0.98824786 
1 1:0.27523177 2:0.43579242 3:0.6992444 4:0.62590378 5:0.39619964 6:0.95995395 
1 1:0.77713898 2:0.57318625 3:0.58630901 4:0.76453556 5:0.665334 6:0.29159408 
1 1:0.31934426 2:0.75113459 3:0.48477465 4:0.82469575 5:0.46273912 6:0.10971843 
1 1:0.54149285 2:0.39638066 3:0.65737623 4:0.5111741 5:0.19020513 6:0.14981833 
1 1:0.44078046 2:0.3597362 3:0.87748126 4:0.59752176 5:0.56912839 6:0.6860729 
1 1:0.70222145 2:0.56486507 3:0.85491294 4:0.68754686 5:0.59372549 6:0.58953047 
1 1:0.76461955 2:0.47561893 3:0.56522143 4:0.97264668 5:0.85042898 6:0.39514933 
1 1:0.42284077 2:0.64093755 3:0.8385192 4:0.97038506 5:0.56834582 6:0.44137831 
1 1:0.58558761 2:0.34124383 3:0.43910784 4:0.58468133 5:0.47288299 6:0.27530758 
1 1:0.38870058 2:0.22298167 3:0.63010555 4:0.85998199 5:0.65477296 6:0.47334635 
1 1:0.28474899 2:0.23114135 3:0.42751968 4:0.30874585 5:0.5550634 6:0.053200724 
1 1:0.33155157 2:0.72376917 3:0.28279195 4:0.3584978 5:0.34914481 6:0.78845737 
1 1:0.33147088 2:0.69536935 3:0.61293713 4:0.39378199 5:0.3442877 6:0.028875616 
1 1:0.3937043 2:0.71381773 3:0.74051075 4:0.29918993 5:0.52643956 6:0.42136798 
1 1:0.60174322 2:0.36190024 3:0.74877168 4:0.96208123 5:0.56124309 6:0.62478916 
1 1:0.27742181 2:0.67701207 3:0.41146448 4:0.30603616 5:0.078122404 6:0.55829737 
1 1:0.35365874 2:0.44775509 3:0.80609679 4:0.96568855 5:0.44160872 6:0.84779159 
1 1:0.36332621 2:0.51887626 3:0.22534536 4:0.74620888 5:0.78406975 6:0.62961508 
1 1:0.64429333 2:0.55501058 3:0.60752178 4:0.98176076 5:0.28849267 6:0.12732028 
1 1:0.21221595 2:0.62907952 3:0.3909117 4:0.81136811 5:0.90178017 6:0.86802951 
1 1:0.47976284 2:0.7172743 3:0.48705108 4:0.19691352 5:0.85943285 6:0.31729644 
1 1:0.17658085 2:0.61097303 3:0.60971394 4:0.3476392 5:0.25479377 6:0.12091487 
1 1:0.39408345 2:0.21442215 3:0.55088204 4:0.64261834 5:0.41819605 6:0.097641478 
1 1:0.41503502 2:0.3993471 3:0.32918141 4:0.83406957 5:0.66193761 6:0.6823161 
1 1:0.70961521 2:0.60538597 3:0.54840219 4:0.86091128 5:0.29246478 6:0.15471538 
1 1:0.58141986 2:0.77559802 3:0.29600381 4:0.51529287 5:0.3721261 6:0.55048153 
1 1:0.17474733 2:0.54351969 3:0.68357233 4:0.0080798978 5:0.74902869 6:0.82480618 
1 1:0.76754492 2:0.71511394 3:0.45994728 4:0.43814925 5:0.7881891 6:0.51396006 
1 1:0.77251668 2:0.43117181 3:0.74270907 4:0.87072422 5:0.2408561 6:0.57919388 
1 1:0.5674172 2:0.38286845 3:0.26504779 4:0.46590415 5:0.06222148 6:0.30128158 
1 1:0.28292025 2:0.33020434 3:0.31082917 4:0.55695544 5:0.40707356 6:0.34954743 
1 1:0.14422147 2:0.665632 3:0.63807322 4:0.49151349 5:0.47244071 6:0.4087527 
1 1:0.58026725 2:0.67171374 3:0.44573967 4:0.15410648 5:0.63288694 6:0.19663128 
1 1:0.6260108 2:0.38434602 3:0.2575019 4:0.56089062 5:0.63960582 6:0.18202603 
1 1:0.60608721 2:0.52112237 3:0.76170549 4:0.76913885 5:0.66182753 6:0.15832295 
1 1:0.5403587 2:0.48296271 3:0.084645241 4:0.55452516 5:0.32884996 6:0.36603711 
1 1:0.20373396 2:0.49530219 3:0.43138823 4:0.32909283 5:0.73357347 6:0.78881435 
1 1:0.47478959 2:0.45917498 3:0.78101186 4:0.67290817 5:0.77772767 6:0.96877884 
1 1:0.58767197 2:0.26807095 3:0.27069446 4:0.20102566 5:0.60205416 6:0.34252618 
1 1:0.46829597 2:0.72754334 3:0.38743125 4:0.95559574 5:0.77424239 6:0.8084514 
1 1:0.77476291 2:0.5710273 3:0.53963962 4:0.66728374 5:0.44794326 6:0.21825225 
1 1:0.61706738 2:0.44613587 3:0.75886718 4:0.75961144 5:0.82036021 6:0.072228847 
1 1:0.31554714 2:0.35562669 3:0.73021145 4:0.3655869 5:0.47338479 6:0.016730052 
1 1:0.65419495 2:0.51476544 3:0.28509138 4:0.82879042 5:0.21941159 6:0.37963508 
1 1:0.60164992 2:0.66319696 3:0.59052692 4:0.62198457 5:0.61130812 6:0.15142214 
1 1:0.8092386 2:0.40818373 3:0.74603254 4:0.11994281 5:0.53161693 6:0.2901106 
1 1:0.4233407 2:0.70721554 3:0.65586244 4:0.88521722 5:0.89319577 6:0.72695183 
1 1:0.59789393 2:0.74841834 3:0.47183431 4:0.957895 5:0.25683276 6:0.06078906 
1 1:0.5535335 2:0.49635833 3:0.80067629 4:0.65201823 5:0.34884574 6:0.17659969 
1 1:0.42297774 2:0.72157595 3:0.34992743 4:0.63446946 5:0.54668887 6:0.70504846 
1 1:0.85650346 2:0.49907584 3:0.37568454 4:0.7130192 5:0.25130469 6:0.28104657 
1 1:0.68248689 2:0.31145416 3:0.59166603 4:0.80158144 5:0.27940082 6:0.54904087 
1 1:0.42893266 2:0.23143305 3:0.55687752 4:0.58730987 5:0.6509397 6:0.22826766 
0.0236979594567975 1:0.16614043 2:0.6233496 3:0.61460906 4:0.79477901 5:0.14909154 6:0.49702869 
1 1:0.33886206 2:0.61169578 3:0.6430874 4:0.71032514 5:0.85916695 6:0.7568054 
1 1:0.32739859 2:0.33505165 3:0.36989192 4:0.13185321 5:0.36183235 6:0.79663245 
1 1:0.70962669 2:0.70923088 3:0.41517168 4:0.86427025 5:0.53246154 6:0.75261202 
1 1:0.12051802 2:0.41562713 3:0.53883367 4:0.81061476 5:0.87111028 6:0.24621333 
1 1:0.10355953 2:0.4806554 3:0.49521689 4:0.67652643 5:0.51976792 6:0.79381996 
1 1:0.14501015 2:0.57030574 3:0.48308417 4:0.57227536 5:0.38006837 6:0.61806849 
1 1:0.47375856 2:0.36696476 3:0.71908193 4:0.056422946 5:0.34177426 6:0.67523559 
1 1:0.2729676 2:0.50419176 3:0.22473392 4:0.64795653 5:0.59406629 6:0.5902427 
1 1:0.24886495 2:0.55539401 3:0.78957975 4:0.82074086 5:0.51912305 6:0.89479475 
1 1:0.41554484 2:0.40262353 3:0.86328309 4:0.22471282 5:0.52088582 6:0.22642499 
1 1:0.43656963 2:0.27783358 3:0.34826544 4:0.01022726 5:0.26877411 6:0.30468423 
1 1:0.64551559 2:0.29505306 3:0.33518053 4:0.23313344 5:0.22682236 6:0.17133548 
0.9129770777243047 1:0.42591346 2:0.78212178 3:0.70213806 4:0.81492775 5:0.59703034 6:0.49045731 
1 1:0.41052911 2:0.54136915 3:0.21595812 4:0.55692498 5:0.38702534 6:0.043977898 
1 1:0.15165361 2:0.60781342 3:0.58670117 4:0.21795414 5:0.44225597 6:0.22023533 
1 1:0.53940933 2:0.27504936 3:0.34331299 4:0.76717822 5:0.73255269 6:0.42703254 
1 1:0.23259343 2:0.26224356 3:0.50443601 4:0.95980917 5:0.57152505 6:0.35317616 
1 1:0.69081283 2:0.28934985 3:0.53720907 4:0.015652236 5:0.63913527 6:0.75237382 
1 1:0.5298287 2:0.59176562 3:0.83437834 4:0.67133929 5:0.38879618 6:0.98367538 
1 1:0.79486078 2:0.41968581 3:0.60126284 4:0.90299139 5:0.7461587 6:0.39842354 
0.2423314228914503 1:0.30366566 2:0.76364358 3:0.36825325 4:0.66058517 5:0.29584683 6:0.024205811 
1 1:0.38714218 2:0.76090567 3:0.58595616 4:0.95588452 5:0.64499407 6:0.86965789 
1 1:0.77699072 2:0.50984684 3:0.48951609 4:0.08038493 5:0.17640411 6:0.0021434754 
1 1:0.34045853 2:0.36965658 3:0.17902859 4:0.63127044 5:0.53166244 6:0.28091966 
1 1:0.50471175 2:0.287668 3:0.26733152 4:0.34087744 5:0.24324113 6:0.90595913 
1 1:0.49494479 2:0.47577976 3:0.21355667 4:0.15991166 5:0.31470994 6:0.43475218 
1 1:0.66727417 2:0.35715926 3:0.71172015 4:0.12782435 5:0.94627589 6:0.31852687 
1 1:0.56575843 2:0.26199553 3:0.6796991 4:0.24911968 5:0.71195182 6:0.915104 
1 1:0.24852667 2:0.59282401 3:0.50209418 4:0.40751202 5:0.13968581 6:0.7832099 
1 1:0.39267443 2:0.33547343 3:0.22568762 4:0.94121936 5:0.33790377 6:0.13762059 
1 1:0.27375143 2:0.65960032 3:0.36094966 4:0.75560224 5:0.49529104 6:0.71396232 
1 1:0.73734639 2:0.52011469 3:0.30354119 4:0.65347186 5:0.46554052 6:0.37376016 
1 1:0.75887007 2:0.29211912 3:0.43735275 4:0.19900927 5:0.20607684 6:0.51234174 
1 1:0.21428102 2:0.62186681 3:0.65583156 4:0.80605514 5:0.34780191 6:0.66217114 
1 1:0.85809034 2:0.55021493 3:0.67525941 4:0.14762539 5:0.26825922 6:0.26315553 
1 1:0.40578399 2:0.76558689 3:0.59646502 4:0.92918686 5:0.4372211 6:0.60472309 
1 1:0.34447291 2:0.36323485 3:0.1744478 4:0.29624901 5:0.45018086 6:0.22410122 
1 1:0.13322834 2:0.50247124 3:0.73049186 4:0.8328343 5:0.59884552 6:0.33749503 
1 1:0.72535289 2:0.38753107 3:0.6535522 4:0.086224991 5:0.5964028 6:0.79735956 
1 1:0.41869486 2:0.30580986 3:0.26541651 4:0.7245711 5:0.43058845 6:0.53479416 
1 1:0.72165724 2:0.66474419 3:0.44246616 4:0.89472896 5:0.38889118 6:0.82780987 
1 1:0.57228485 2:0.72318396 3:0.50932188 4:0.12588516 5:0.69069009 6:0.45963117 
1 1:0.53388979 2:0.41364216 3:0.13816745 4:0.99443207 5:0.32403781 6:0.47856487 
1 1:0.79753352 2:0.38037568 3:0.44325337 4:0.088828329 5:0.62777184 6:0.5635991 
1 1:0.25333262 2:0.32467029 3:0.5419008 4:0.59331772 5:0.33101033 6:0.20960062 
1 1:0.74376854 2:0.64465842 3:0.22926673 4:0.75212349 5:0.44827859 6:0.90938866 
1 1:0.2600063 2:0.62583386 3:0.68733147 4:0.21533878 5:0.48979892 6:0.15302087 
1 1:0.50404544 2:0.58941841 3:0.72439799 4:0.43364431 5:0.58504317 6:0.99158757 
1 1:0.30037213 2:0.26192722 3:0.52682384 4:0.32858566 5:0.59432029 6:0.56767279 
1 1:0.78014423 2:0.52336737 3:0.35600929 4:0.84557763 5:0.2591275 6:0.33410721 
1 1:0.29217925 2:0.34980702 3:0.76192239 4:0.37256719 5:0.20927253 6:0.15604949 
1 1:0.40293131 2:0.55229157 3:0.25271864 4:0.29013589 5:0.68303141 6:0.57321056 
1 1:0.70678523 2:0.38686152 3:0.16938546 4:0.461105 5:0.62674715 6:0.75864077 
1 1:0.49958675 2:0.19895677 3:0.46839092 4:0.45169359 5:0.74178525 6:0.67176947 
1 1:0.6203386 2:0.78304886 3:0.47213369 4:0.78940414 5:0.73170384 6:0.090495818 
1 1:0.54421882 2:0.26955198 3:0.60226052 4:0.15411861 5:0.56293053 6:0.75768052 
1 1:0.37270887 2:0.19330628 3:0.55440471 4:0.5858261 5:0.48614655 6:0.68927129 
1 1:0.63846092 2:0.25686706 3:0.59751641 4:0.75037095 5:0.2311607 6:0.5850009 
1 1:0.3363622 2:0.24653267 3:0.59908304 4:0.073023027 5:0.43496927 6:0.5035714 
1 1:0.46154312 2:0.75729378 3:0.43039074 4:0.002164177 5:0.37584607 6:0.9357346 
1 1:0.28568879 2:0.3645087 3:0.6267491 4:0.7774162 5:0.42026563 6:0.75176532 
1 1:0.47292507 2:0.21734362 3:0.38063373 4:0.80033831 5:0.2042007 6:0.08789912 
1 1:0.74561858 2:0.4536955 3:0.7627019 4:0.90345995 5:0.39663654 6:0.19480825 
1 1:0.28574303 2:0.33940148 3:0.73095593 4:0.53137788 5:0.84753016 6:0.18130215 
1 1:0.25946377 2:0.22382015 3:0.51200342 4:0.48490066 5:0.52664406 6:0.27368081 
1 1:0.78743037 2:0.62746931 3:0.32035524 4:0.34073961 5:0.39893016 6:0.45796863 
1 1:0.70517131 2:0.36141851 3:0.23818649 4:0.28996589 5:0.22727857 6:0.97910881 
1 1:0.65111633 2:0.66950316 3:0.74188903 4:0.5422214 5:0.72812196 6:0.34866022 
1 1:0.42077174 2:0.54377669 3:0.68906886 4:0.032081942 5:0.73418212 6:0.32423626 
1 1:0.52936258 2:0.64032549 3:0.49105173 4:0.76557731 5:0.63133636 6:0.26365577 
1 1:0.84630787 2:0.6105184 3:0.6564394 4:0.46593896 5:0.1671483 6:0.69286935 
1 1:0.72688873 2:0.346154 3:0.28979406 4:0.14167524 5:0.59364987 6:0.62457262 
1 1:0.30187407 2:0.65493405 3:0.69866123 4:0.063391119 5:0.54615179 6:0.0084232487 
1 1:0.47398866 2:0.79806747 3:0.34548543 4:0.53595841 5:0.74015576 6:0.55984458 
1 1:0.69934799 2:0.63359561 3:0.76052084 4:0.83955141 5:0.23801976 6:0.38291718 
1 1:0.57972561 2:0.56159428 3:0.17627395 4:0.43833127 5:0.45315983 6:0.96758614 
1 1:0.54367517 2:0.74081334 3:0.54121489 4:0.43643261 5:0.21835657 6:0.22197929 
1 1:0.40726801 2:0.23584216 3:0.58205026 4:0.6361345 5:0.72499279 6:0.25488866 
1 1:0.81060567 2:0.52382079 3:0.48646574 4:0.95296065 5:0.056077408 6:0.11001614 
1 1:0.24743628 2:0.63920284 3:0.32478578 4:0.41027389 5:0.77961922 6:0.12048359 
1 1:0.38808842 2:0.6135077 3:0.42187979 4:0.92110393 5:0.12734027 6:0.28617221 
1 1:0.78802888 2:0.31056016 3:0.42464727 4:0.50583601 5:0.46366172 6:0.063429571 
1 1:0.48304383 2:0.42614635 3:0.81046412 4:0.40070707 5:0.88171753 6:0.61043933 
1 1:0.64237057 2:0.40662618 3:0.81699451 4:0.75435979 5:0.31784289 6:0.12041632 
1 1:0.28925107 2:0.45147171 3:0.39371502 4:0.21762556 5:0.53770099 6:0.3548157 
1 1:0.39129557 2:0.54449248 3:0.90699744 4:0.48734843 5:0.4638728 6:0.23994382 
1 1:0.36248682 2:0.54022623 3:0.15627837 4:0.61010147 5:0.36224483 6:0.45475507 
1 1:0.50850593 2:0.62710069 3:0.27824302 4:0.48725982 5:0.48658132 6:0.74372837 
1 1:0.25368356 2:0.69928169 3:0.57552924 4:0.429715 5:0.80933652 6:0.094882808 
1 1:0.63824398 2:0.6428602 3:0.23530903 4:0.42398865 5:0.17916384 6:0.20370003 
1 1:0.69305913 2:0.40544896 3:0.19254701 4:0.010196839 5:0.63282602 6:0.51001841 
1 1:0.7738326 2:0.53698363 3:0.78688622 4:0.25705305 5:0.61135382 6:0.31555477 
1 1:0.75527089 2:0.42650995 3:0.72046427 4:0.20116743 5:0.90721628 6:0.70564776 
1 1:0.83294856 2:0.49280645 3:0.32488768 4:0.34439828 5:0.7152965 6:0.72653942 
1 1:0.65017361 2:0.70888918 3:0.50675327 4:0.66395126 5:0.24918595 6:0.52537194 
1 1:0.54550504 2:0.4573555 3:0.14621842 4:0.56860848 5:0.72817473 6:0.58671184 
1 1:0.85296162 2:0.38754949 3:0.5902038 4:0.4569651 5:0.34918523 6:0.2140119 
1 1:0.83314862 2:0.36898323 3:0.59561807 4:0.16602377 5:0.77584241 6:0.17926082 
1 1:0.21292456 2:0.32983029 3:0.31999392 4:0.70319094 5:0.61901372 6:0.59559016 
1 1:0.59907253 2:0.54727633 3:0.16801821 4:0.56093695 5:0.57581462 6:0.90862853 
1 1:0.67025316 2:0.23130979 3:0.48755366 4:0.28070738 5:0.16528283 6:0.81593021 
1 1:0.29037003 2:0.330229 3:0.71080553 4:0.812565 5:0.27838192 6:0.27503784 
1 1:0.19926331 2:0.41695834 3:0.36244911 4:0.015487514 5:0.63609479 6:0.82489836 
1 1:0.32733896 2:0.75006126 3:0.62678751 4:0.6998386 5:0.74362881 6:0.016609119 
1 1:0.3220509 2:0.52714683 3:0.38260614 4:0.31179348 5:0.53574313 6:0.39563907 
0.1359335405715663 1:0.89484455 2:0.61846843 3:0.51830081 4:0.45871971 5:0.37928957 6:0.10525042 
1 1:0.26489626 2:0.50511595 3:0.79111553 4:0.28783683 5:0.78261024 6:0.60864452 
1 1:0.19688931 2:0.32122654 3:0.5314436 4:0.19627065 5:0.60616917 6:0.86209442 
1 1:0.48249273 2:0.29220944 3:0.51800613 4:0.68562533 5:0.28888688 6:0.62270716 
1 1:0.33225981 2:0.40200942 3:0.24885304 4:0.9618289 5:0.77567985 6:0.77979349 
1 1:0.85283055 2:0.61120462 3:0.65241959 4:0.073150034 5:0.3984208 6:0.092743521 
1 1:0.59834633 2:0.27735696 3:0.62427713 4:0.25412881 5:0.3480564 6:0.65670446 
1 1:0.45329055 2:0.75855883 3:0.50295336 4:0.52498562 5:0.37379316 6:0.27122565 
1 1:0.59839596 2:0.38754814 3:0.86126561 4:0.19021414 5:0.21966843 6:0.41701846 
1 1:0.37014688 2:0.61884771 3:0.27245642 4:0.014483377 5:0.39821367 6:0.52177524 
1 1:0.39051417 2:0.64235078 3:0.47890475 4:0.66520835 5:0.67460398 6:0.82435576 
1 1:0.24569513 2:0.38592129 3:0.29110207 4:0.36396374 5:0.1225245 6:0.71815165 
1 1:0.52398504 2:0.73174853 3:0.20764538 4:0.41376099 5:0.50363559 6:0.27941275 
1 1:0.12985474 2:0.57990969 3:0.5262908 4:0.35603498 5:0.68321918 6:0.83791144 
1 1:0.66985057 2:0.62445682 3:0.58532008 4:0.3784595 5:0.55453949 6:0.67939346 
1 1:0.45148696 2:0.39620989 3:0.39470516 4:0.92869711 5:0.4997328 6:0.6381349 
1 1:0.70601329 2:0.60518439 3:0.33843882 4:0.68546987 5:0.17192729 6:0.32072844 
1 1:0.091019705 2:0.52862185 3:0.5849061 4:0.77449754 5:0.36313705 6:0.36368896 
1 1:0.68105479 2:0.68572258 3:0.37016479 4:0.40937997 5:0.08746426 6:0.01930364 
1 1:0.76161641 2:0.58590982 3:0.5314439 4:0.4988254 5:0.8566886 6:0.76713463 
1 1:0.44157929 2:0.28422623 3:0.50703764 4:0.28973174 5:0.34972627 6:0.58536007 
1 1:0.41337495 2:0.3616679 3:0.37885511 4:0.12648532 5:0.088035738 6:0.16692273 
1 1:0.21335897 2:0.48573 3:0.33975649 4:0.32353809 5:0.35643515 6:0.34174592 
1 1:0.27588309 2:0.29637187 3:0.27377281 4:0.38286481 5:0.41087482 6:0.46899888 
1 1:0.66696131 2:0.74903561 3:0.41304 4:0.11713324 5:0.70186999 6:0.16082406 
1 1:0.50330985 2:0.38443517 3:0.15905636 4:0.38896639 5:0.1934984 6:0.20804849 
1 1:0.9030069 2:0.6121573 3:0.44712246 4:0.40151416 5:0.43739943 6:0.60770141 
1 1:0.77601063 2:0.31353023 3:0.44350613 4:0.76629807 5:0.66276826 6:0.93596005 
1 1:0.3246071 2:0.57663027 3:0.87115055 4:0.38420099 5:0.56440296 6:0.5188176 
1 1:0.39583505 2:0.29143822 3:0.74127099 4:0.053364453 5:0.39769506 6:0.57423604 
1 1:0.23104358 2:0.47133433 3:0.38707784 4:0.36095478 5:0.43465892 6:0.25364615 
1 1:0.35993147 2:0.24405307 3:0.54353289 4:0.13372764 5:0.83778029 6:0.43633212 
1 1:0.34418855 2:0.25168946 3:0.52593414 4:0.34121745 5:0.22783297 6:0.51360507 
1 1:0.81731037 2:0.36272064 3:0.60272914 4:0.6852371 5:0.31303916 6:0.97609212 
1 1:0.53948011 2:0.67825407 3:0.31139767 4:0.62763707 5:0.63523178 6:0.31764353 
1 1:0.66982398 2:0.74024069 3:0.68688499 4:0.15010833 5:0.4415164 6:0.89602839 
1 1:0.4459369 2:0.31050565 3:0.24848584 4:0.87370728 5:0.29649453 6:0.71248183 
1 1:0.4497315 2:0.7624485 3:0.43181264 4:0.75873761 5:0.37298871 6:0.63960984 
1 1:0.25701433 2:0.3474965 3:0.24311389 4:0.78051609 5:0.39854926 6:0.53188075 
1 1:0.40331382 2:0.42307891 3:0.76294069 4:0.036792636 5:0.27710038 6:0.82750107 
1 1:0.53861351 2:0.30498713 3:0.69087038 4:0.94207336 5:0.71573092 6:0.29431651 
1 1:0.64652567 2:0.54698542 3:0.65605122 4:0.41875511 5:0.66811296 6:0.89881508 
1 1:0.47472506 2:0.77905582 3:0.44409416 4:0.66626649 5:0.37940806 6:0.076411661 
1 1:0.53352533 2:0.70082459 3:0.5045605 4:0.46039665 5:0.45081232 6:0.64385531 
1 1:0.63733841 2:0.37306335 3:0.16681043 4:0.68485139 5:0.51068061 6:0.80690071 
1 1:0.59612944 2:0.74020252 3:0.55747577 4:0.17472114 5:0.4381698 6:0.67727831 
1 1:0.37393428 2:0.70968281 3:0.30848674 4:0.090262841 5:0.72561637 6:0.80656744 
1 1:0.40801759 2:0.29290403 3:0.51138226 4:0.48226006 5:0.38416303 6:0.85329243 
1 1:0.25783219 2:0.36789255 3:0.32922736 4:0.0043322196 5:0.43700007 6:0.69914032 
1 1:0.31047281 2:0.48884456 3:0.72343379 4:0.62137552 5:0.51589516 6:0.35629823 
1 1:0.73636247 2:0.50908882 3:0.35121499 4:0.17163456 5:0.5363663 6:0.62110909 
1 1:0.25078084 2:0.43414151 3:0.54430655 4:0.032735253 5:0.058944108 6:0.64146458 
1 1:0.33647066 2:0.53895492 3:0.87214416 4:0.64563999 5:0.3982045 6:0.63030947 
1 1:0.35276099 2:0.36467518 3:0.17614377 4:0.95798482 5:0.27304366 6:0.30530439 
0.4713637106105546 1:0.68582698 2:0.77782211 3:0.38559261 4:0.73783197 5:0.59664259 6:0.5179354 
1 1:0.45992654 2:0.38525112 3:0.54062585 4:0.53828448 5:0.2150518 6:0.23291542 
1 1:0.58048491 2:0.69155671 3:0.34529594 4:0.54952103 5:0.86961198 6:0.32454027 
1 1:0.44870425 2:0.61579431 3:0.2222003 4:0.30409663 5:0.76871982 6:0.56934245 
1 1:0.48177971 2:0.75561632 3:0.51751419 4:0.97195395 5:0.46247063 6:0.62156064 
1 1:0.4728469 2:0.75024097 3:0.61513296 4:0.33396704 5:0.1063432 6:0.88534427 
1 1:0.24905625 2:0.5924179 3:0.29029617 4:0.54425076 5:0.69356879 6:0.45604632 
1 1:0.70245745 2:0.28029481 3:0.59688625 4:0.37954955 5:0.42693056 6:0.74319529 
1 1:0.42329694 2:0.47273899 3:0.86565614 4:0.50421259 5:0.48879919 6:0.35754864 
1 1:0.61380698 2:0.71303874 3:0.47893384 4:0.15663611 5:0.27074182 6:0.39881645 
1 1:0.42925122 2:0.38021967 3:0.13654367 4:0.33299788 5:0.60945166 6:0.82611464 
1 1:0.48455542 2:0.24338883 3:0.54221465 4:0.55024452 5:0.33881033 6:0.15313738 
1 1:0.39632575 2:0.2399466 3:0.36426142 4:0.29736044 5:0.64702889 6:0.76641597 
1 1:0.72843817 2:0.60132492 3:0.23743862 4:0.1899641 5:0.79813988 6:0.32327926 
1 1:0.63528261 2:0.31902098 3:0.71121712 4:0.51509846 5:0.14237117 6:0.74351755 
1 1:0.5157182 2:0.66450161 3:0.28248811 4:0.1343422 5:0.45819055 6:0.24904485 
1 1:0.48748468 2:0.33130181 3:0.29155773 4:0.84729554 5:0.45816203 6:0.90103253 
1 1:0.66588564 2:0.42771748 3:0.12158269 4:0.36553603 5:0.33084502 6:0.7687106 
1 1:0.41533426 2:0.34338207 3:0.54985878 4:0.47121253 5:0.029638248 6:0.2812438 
1 1:0.64076317 2:0.72029957 3:0.28706461 4:0.21012952 5:0.52161703 6:0.39709459 
1 1:0.20618116 2:0.64567733 3:0.49861732 4:0.42893862 5:0.22237805 6:0.092668966 
1 1:0.30454418 2:0.4350142 3:0.67053449 4:0.9545959 5:0.55835898 6:0.36686011 
1 1:0.4037719 2:0.38614309 3:0.2954077 4:0.78864525 5:0.8356551 6:0.052385295 
1 1:0.68388483 2:0.6657782 3:0.46488555 4:0.11328668 5:0.85013677 6:0.4167761 
1 1:0.34678937 2:0.6558809 3:0.70582701 4:0.57406517 5:0.36024032 6:0.34193124 
1 1:0.70926388 2:0.29273545 3:0.63080614 4:0.32240046 5:0.501422 6:0.23521211 
1 1:0.71405672 2:0.68626788 3:0.74632353 4:0.086488036 5:0.42837676 6:0.018976328 
1 1:0.27844606 2:0.65534487 3:0.64740656 4:0.065195407 5:0.35953393 6:0.39270184 
1 1:0.6986197 2:0.72994509 3:0.70949041 4:0.37491493 5:0.7361629 6:0.58764612 
1 1:0.44815204 2:0.30567707 3:0.77451218 4:0.65560899 5:0.58248008 6:0.60180551 
1 1:0.8104931 2:0.4293702 3:0.46133945 4:0.24261625 5:0.47468292 6:0.81630037 
1 1:0.51598166 2:0.30916916 3:0.62321064 4:0.38521284 5:0.64583058 6:0.010541203 
1 1:0.35041952 2:0.6962745 3:0.35118795 4:0.85836727 5:0.34998828 6:0.89405626 
1 1:0.61921682 2:0.67888104 3:0.34900681 4:0.55914552 5:0.18261135 6:0.071272221 
1 1:0.27186762 2:0.6069617 3:0.20154555 4:0.75657044 5:0.73606312 6:0.84083458 
1 1:0.71568911 2:0.49380104 3:0.35783233 4:0.26654616 5:0.64483688 6:0.69418491 
1 1:0.30709842 2:0.30425737 3:0.27051299 4:0.13803825 5:0.52309157 6:0.56797967 
1 1:0.62690071 2:0.24234537 3:0.40302429 4:0.82849563 5:0.32831923 6:0.97925958 
-1 1:0.29438252 2:0.69979376 3:0.38649061 4:0.32100856 5:0.33074108 6:0.21647186 
-1 1:0.38104111 2:0.61969974 3:0.54253251 4:0.53023545 5:0.91797819 6:0.99723464 
-1 1:0.49007338 2:0.31856301 3:0.3653361 4:0.48597748 5:0.45768538 6:0.9512503 
-1 1:0.32401364 2:0.46537979 3:0.40902119 4:0.4058588 5:0.25159792 6:0.53782009 
-1 1:0.58861012 2:0.44968527 3:0.38990476 4:0.85943961 5:0.66132565 6:0.77140185 
-1 1:0.46734815 2:0.61342018 3:0.17229226 4:0.83867632 5:0.28920925 6:0.19942188 
-1 1:0.4772934 2:0.43635067 3:0.6318631 4:0.2147271 5:0.20617432 6:0.78378179 
-1 1:0.26785335 2:0.31748534 3:0.69916146 4:0.76826324 5:0.43545589 6:0.50904111 
-1 1:0.26749913 2:0.40485851 3:0.61972954 4:0.54021643 5:0.79920641 6:0.11012575 
-1 1:0.76264223 2:0.48797472 3:0.65341839 4:0.77286382 5:0.32030473 6:0.89673427 
-1 1:0.32351241 2:0.59672077 3:0.42736685 4:0.34236471 5:0.92442684 6:0.21425624 
-1 1:0.2015902 2:0.51265401 3:0.46026243 4:0.089126249 5:0.53600405 6:0.36157494 
-1 1:0.35103416 2:0.3634933 3:0.51103719 4:0.25001253 5:0.32974146 6:0.88986817 
-1 1:0.2453527 2:0.39883979 3:0.55792972 4:0.59432983 5:0.60992452 6:0.65393517 
-1 1:0.43553964 2:0.44648153 3:0.15890486 4:0.15653804 5:0.75094737 6:0.14612619 
-1 1:0.55220611 2:0.43934898 3:0.10006687 4:0.043347448 5:0.19477495 6:0.27806061 
-1 1:0.26483796 2:0.52157916 3:0.60625621 4:0.070487846 5:0.78759022 6:0.30684586 
-1 1:0.84853759 2:0.40547857 3:0.47821091 4:0.47270478 5:0.42060116 6:0.17079448 
-1 1:0.249538 2:0.40638833 3:0.40617888 4:0.75966 5:0.054207997 6:0.14603052 
-1 1:0.19868279 2:0.42637337 3:0.58284231 4:0.52456527 5:0.34910934 6:0.72068082 
-1 1:0.85562645 2:0.43653801 3:0.55149397 4:0.094629913 5:0.44372088 6:0.063194012 
-1 1:0.60944426 2:0.68219249 3:0.5530269 4:0.88408412 5:0.55014386 6:0.77164364 
-1 1:0.50114243 2:0.35378607 3:0.23488151 4:0.97857413 5:0.8055429 6:0.3593477 
-1 1:0.59805726 2:0.45096679 3:0.50432583 4:0.2302004 5:0.64049082 6:0.52671185 
-1 1:0.72886227 2:0.65338752 3:0.50499571 4:0.400819 5:0.24397547 6:0.51879001 
-1 1:0.44947526 2:0.51108266 3:0.54535546 4:0.88292959 5:0.80642624 6:0.87151299 
-1 1:0.3604812 2:0.58479083 3:0.5001089 4:0.83035232 5:0.92144664 6:0.87366829 
-1 1:0.59090925 2:0.4338705 3:0.64045015 4:0.12327577 5:0.27091748 6:0.71329124 
-1 1:0.60509597 2:0.2962971 3:0.34392598 4:0.091863786 5:0.24646318 6:0.45033098 
-1 1:0.44184988 2:0.43206442 3:0.47626597 4:0.59533839 5:0.59772868 6:0.86872359 
-1 1:0.3812506 2:0.6799795 3:0.7149191 4:0.3627152 5:0.81065226 6:0.88962831 
-1 1:0.14862509 2:0.52580893 3:0.40742018 4:0.80193407 5:0.90773783 6:0.48647458 
-1 1:0.41895012 2:0.50757739 3:0.15666436 4:0.17192611 5:0.25712455 6:0.18378363 
-1 1:0.55259417 2:0.52482446 3:0.3310445 4:0.35965487 5:0.25443909 6:0.44358828 
-1 1:0.58085632 2:0.55247936 3:0.32338968 4:0.17097676 5:0.46600278 6:0.026659413 
-1 1:0.38347527 2:0.43873113 3:0.70095556 4:0.8773852 5:0.57696537 6:0.69734409 
-1 1:0.34810614 2:0.62680493 3:0.736169 4:0.36262367 5:0.43894031 6:0.33914237 
-1 1:0.49191846 2:0.34325083 3:0.42712005 4:0.67856219 5:0.8329122 6:0.58151004 
-1 1:0.16749801 2:0.51598332 3:0.29041432 4:0.80305529 5:0.8773673 6:0.98296449 
-1 1:0.51830363 2:0.4342181 3:0.33456878 4:0.15755577 5:0.47921497 6:0.65415446 
-1 1:0.31567609 2:0.55712896 3:0.47510511 4:0.7324874 5:0.81436155 6:0.76602144 
-1 1:0.16609191 2:0.46542518 3:0.28009796 4:0.45544462 5:0.35126481 6:0.56846774 
-1 1:0.83568424 2:0.48113295 3:0.42227258 4:0.41663632 5:0.67353845 6:0.033914843 
-1 1:0.48130656 2:0.30324512 3:0.76432809 4:0.81620035 5:0.40330496 6:0.13012156 
-1 1:0.56326064 2:0.39734918 3:0.64174839 4:0.3259575 5:0.90187517 6:0.86543238 
-1 1:0.49695743 2:0.63086761 3:0.68249528 4:0.86373633 5:0.86047897 6:0.2745658 
-1 1:0.43980171 2:0.3933348 3:0.19397139 4:0.76207358 5:0.68684565 6:0.84769054 
-1 1:0.54830476 2:0.35076559 3:0.16654826 4:0.2534338 5:0.87102648 6:0.15002925 
-1 1:0.24484098 2:0.70919327 3:0.7413078 4:0.21241524 5:0.79389055 6:0.029535875 
-1 1:0.25867082 2:0.36610838 3:0.65635266 4:0.17444821 5:0.61924236 6:0.73373153 
-1 1:0.19969438 2:0.30666227 3:0.5670796 4:0.06266508 5:0.46198186 6:0.98573979 
-1 1:0.28619128 2:0.52024682 3:0.64988734 4:0.36217492 5:0.86097836 6:0.35908484 
-1 1:0.47661681 2:0.42393344 3:0.65574904 4:0.88540244 5:0.57128738 6:0.2413469 
-1 1:0.78559636 2:0.44666057 3:0.36713184 4:0.15493073 5:0.20867588 6:0.48315148 
-1 1:0.36815576 2:0.58406682 3:0.23533719 4:0.088083318 5:0.54209656 6:0.56356064 
-1 1:0.43845098 2:0.35915744 3:0.66017418 4:0.16986844 5:0.95054165 6:0.65409197 
-1 1:0.34759076 2:0.37484256 3:0.20191743 4:0.11978658 5:0.62726247 6:0.85058984 
-1 1:0.6828706 2:0.49925124 3:0.43761633 4:0.44117359 5:0.57268069 6:0.62889948 
-1 1:0.42075093 2:0.50689015 3:0.13303952 4:0.71157309 5:0.50704576 6:0.21897293 
-1 1:0.72376249 2:0.38751342 3:0.62545073 4:0.17937035 5:0.32173241 6:0.031146716 
-1 1:0.75416456 2:0.4644293 3:0.74224842 4:0.29388232 5:0.36864222 6:0.020534268 
-1 1:0.29025591 2:0.34602472 3:0.52265689 4:0.57480216 5:0.16881785 6:0.81679945 
-1 1:0.62844452 2:0.41920523 3:0.38704794 4:0.75324737 5:0.66800827 6:0.55116164 
-1 1:0.65984083 2:0.4192415 3:0.59054068 4:0.32722201 5:0.31800295 6:0.58535729 
-1 1:0.36713533 2:0.54850639 3:0.51704732 4:0.3197689 5:0.49816988 6:0.5489149 
-1 1:0.62641862 2:0.39083336 3:0.54398271 4:0.72879516 5:0.63084865 6:0.71802363 
-1 1:0.45319053 2:0.5679621 3:0.82144768 4:0.85577048 5:0.59920885 6:0.77632812 
-1 1:0.27347161 2:0.36941259 3:0.70332564 4:0.37235471 5:0.3460778 6:0.89277155 
-1 1:0.33020743 2:0.34820435 3:0.71753256 4:0.25360407 5:0.49049169 6:0.53756066 
-1 1:0.29373827 2:0.52847535 3:0.52840338 4:0.85113488 5:0.48583647 6:0.41056785 
-1 1:0.42681306 2:0.60434946 3:0.79872581 4:0.70599126 5:0.31623109 6:0.58248181 
-1 1:0.35653103 2:0.34546372 3:0.82713694 4:0.59881895 5:0.065606607 6:0.38169496 
-1 1:0.6279511 2:0.62176853 3:0.50448839 4:0.95428378 5:0.80927504 6:0.49465314 
-1 1:0.60044575 2:0.4063885 3:0.68113787 4:0.36982664 5:0.80809355 6:0.40581112 
-1 1:0.20331477 2:0.61730143 3:0.3773722 4:0.27009045 5:0.51626127 6:0.024001645 
-1 1:0.64585308 2:0.43910634 3:0.58288082 4:0.79303606 5:0.20343174 6:0.23172424 
-1 1:0.066980032 2:0.41869239 3:0.61039985 4:0.41855053 5:0.49639761 6:0.52742102 
-1 1:0.40405274 2:0.35153932 3:0.39433688 4:0.8792449 5:0.035931938 6:0.54761433 
-1 1:0.65822459 2:0.5286363 3:0.26147245 4:0.90749751 5:0.70222424 6:0.79231573 
-1 1:0.3611624 2:0.43908772 3:0.79584791 4:0.88524043 5:0.60762818 6:0.67826197 
-1 1:0.50692437 2:0.49415321 3:0.71743014 4:0.50507887 5:0.14905415 6:0.1374579 
-1 1:0.2366932 2:0.40255316 3:0.59761559 4:0.21397661 5:0.39388995 6:0.64700255 
-1 1:0.52078274 2:0.36264636 3:0.78315234 4:0.57990948 5:0.25523119 6:0.8484054 
-1 1:0.42937841 2:0.53330879 3:0.27032979 4:0.57104313 5:0.41903438 6:0.76469988 
-1 1:0.36601372 2:0.26893586 3:0.50813447 4:0.39449972 5:0.60732467 6:0.89872031 
-1 1:0.76564775 2:0.51819587 3:0.5507569 4:0.51450982 5:0.49750732 6:0.88862982 
-1 1:0.52320916 2:0.55984576 3:0.69736152 4:0.40426808 5:0.65392599 6:0.96730668 
-1 1:0.46774576 2:0.5212316 3:0.38528633 4:0.48114429 5:0.43798705 6:0.016023156 
-1 1:0.12508922 2:0.58805883 3:0.633406 4:0.85314293 5:0.61630083 6:0.59678898 
-1 1:0.5335831 2:0.4005814 3:0.53777049 4:0.31594914 5:0.45134539 6:0.92325654 
-1 1:0.71324832 2:0.63200067 3:0.47170223 4:0.35304251 5:0.62097048 6:0.12526476 
-1 1:0.20809534 2:0.60035578 3:0.39548704 4:0.064528706 5:0.32409478 6:0.60131603 
-1 1:0.53788406 2:0.4426505 3:0.71092144 4:0.09655079 5:0.55049683 6:0.4065566 
-1 1:0.16229466 2:0.50108092 3:0.3609267 4:0.91260491 5:0.53262857 6:0.39371819 
-1 1:0.35294988 2:0.50731914 3:0.70724991 4:0.17659315 5:0.23670343 6:0.76955445 
-1 1:0.7267593 2:0.46392963 3:0.72407966 4:0.22408988 5:0.14952575 6:0.11964302 
-1 1:0.79336389 2:0.34614457 3:0.32815053 4:0.7248759 5:0.57532685 6:0.57212532 
-1 1:0.7462038 2:0.49215812 3:0.20616091 4:0.55907884 5:0.39526917 6:0.75761326 
-1 1:0.46916208 2:0.30657971 3:0.42699642 4:0.062466327 5:0.058836295 6:0.45946429 
-1 1:0.17527849 2:0.34719351 3:0.43533552 4:0.2883599 5:0.89026122 6:0.43126709 
-1 1:0.69095598 2:0.573848 3:0.59735078 4:0.47742197 5:0.20110122 6:0.3616168 
-1 1:0.46734206 2:0.42217025 3:0.58623892 4:0.77914848 5:0.36108198 6:0.70739806 
-1 1:0.26507358 2:0.62529914 3:0.31396803 4:0.76494708 5:0.34741965 6:0.78881182 
-1 1:0.73972789 2:0.34622546 3:0.35688135 4:0.004230043 5:0.78808759 6:0.34916811 
